<?xml version="1.0"?>
<opencv_storage>
<my_svm type_id="opencv-ml-svm">
  <svm_type>C_SVC</svm_type>
  <kernel><type>LINEAR</type></kernel>
  <C>1.</C>
  <term_criteria><epsilon>2.2204460492503131e-16</epsilon>
    <iterations>1000000</iterations></term_criteria>
  <var_all>69120</var_all>
  <var_count>69120</var_count>
  <class_count>2</class_count>
  <class_labels type_id="opencv-matrix">
    <rows>1</rows>
    <cols>2</cols>
    <dt>i</dt>
    <data>
      0 1</data></class_labels>
  <sv_total>1</sv_total>
  <support_vectors>
    <_>
      -7.48189086e-06 -6.23397727e-06 -2.94670235e-06 1.42879628e-06
      4.33858804e-06 6.97653013e-06 8.52754511e-06 9.16032604e-06
      8.62519573e-06 6.16197531e-06 1.60108743e-06 -8.10161566e-07
      -3.61917546e-06 -5.62905052e-06 -7.91354068e-06 -9.71760528e-06
      -1.02644044e-05 -8.81399956e-06 -6.61871263e-06 -5.54205053e-06
      -5.00176247e-06 -4.22163475e-06 -3.90900459e-06 -3.74933529e-06
      -3.85459589e-06 -2.40008103e-06 -1.76679646e-06 -6.68585358e-07
      -7.08345226e-07 -1.23378777e-06 -2.09226096e-06 -3.63370145e-06
      -3.27743578e-06 -2.94669439e-06 -1.49640505e-06 1.18785726e-06
      3.15476382e-06 3.92552056e-06 2.48811193e-06 2.01031912e-06
      1.59981028e-07 -7.47962304e-07 -1.88106026e-06 -1.49223251e-06
      -1.29604564e-06 -1.36197309e-06 8.73568240e-08 2.80088955e-07
      -4.71956037e-06 -3.47787272e-06 -7.18934075e-07 2.77499794e-06
      4.85157580e-06 6.85929035e-06 7.98800102e-06 8.46293278e-06
      8.17718956e-06 6.27354757e-06 2.39913197e-06 5.50658172e-07
      -1.87117382e-06 -3.63461868e-06 -6.09850440e-06 -8.02566592e-06
      -8.64655249e-06 -7.39433017e-06 -5.45106013e-06 -4.44180023e-06
      -3.89646902e-06 -3.13707574e-06 -2.97754195e-06 -3.11928079e-06
      -3.63532104e-06 -2.73047658e-06 -2.54444785e-06 -1.80495601e-06
      -1.97573877e-06 -2.28893578e-06 -2.59133230e-06 -3.36714857e-06
      -2.38647954e-06 -1.38465157e-06 2.23856787e-07 2.91511628e-06
      4.65807670e-06 5.40383871e-06 3.68153883e-06 2.95712607e-06
      1.13225542e-06 1.15032577e-07 -7.60695116e-07 -1.05952637e-07
      1.89189223e-07 5.39754922e-07 2.07434960e-06 2.52599489e-06
      1.65820211e-06 2.83224063e-06 4.27592522e-06 5.63439789e-06
      5.62130890e-06 6.10872394e-06 6.12882286e-06 6.10736788e-06
      6.29511669e-06 5.60159924e-06 3.27218322e-06 2.84509383e-06
      1.45096124e-06 4.47637831e-07 -2.12025861e-06 -4.01299349e-06
      -4.61069158e-06 -3.80198844e-06 -2.50229505e-06 -1.64860478e-06
      -1.17940476e-06 -4.58572401e-07 -4.34861732e-07 -9.49046296e-07
      -2.09167047e-06 -2.08668007e-06 -2.75138245e-06 -2.77784511e-06
      -3.40044608e-06 -3.61346019e-06 -3.12849852e-06 -2.61594892e-06
      -5.67054826e-07 1.82093970e-06 3.72434238e-06 6.41543329e-06
      7.69182589e-06 8.34491311e-06 6.19343973e-06 4.79270830e-06
      2.94505458e-06 1.62759193e-06 1.33163394e-06 2.40661211e-06
      3.07395999e-06 4.27626583e-06 5.89622869e-06 6.88949558e-06
      6.47677825e-06 7.52640926e-06 7.62728541e-06 6.98887470e-06
      4.92371555e-06 4.17987030e-06 3.24654411e-06 2.84916678e-06
      3.54628060e-06 4.03026343e-06 3.13298710e-06 4.24140671e-06
      3.99557894e-06 3.83290580e-06 1.54457359e-06 2.70349965e-08
      -5.33907610e-07 -4.77344145e-07 -2.65970556e-07 1.87620373e-07
      1.80361965e-07 8.30291299e-07 1.20665925e-06 1.19207482e-06
      4.60617059e-07 7.53680240e-07 1.03693303e-07 -1.69060399e-07
      -1.13495207e-06 -1.76291019e-06 -1.38847338e-06 -6.19101002e-07
      1.54793702e-06 4.73589944e-06 6.54567248e-06 8.94916047e-06
      9.70791007e-06 1.00294064e-05 7.87837234e-06 5.67410007e-06
      3.70706539e-06 2.03460309e-06 2.26044858e-06 3.35075742e-06
      4.62656817e-06 6.34235766e-06 7.74520413e-06 9.07263529e-06
      5.52608435e-06 6.45546424e-06 5.95602341e-06 4.79861137e-06
      2.18314563e-06 1.58179205e-06 8.59054865e-07 8.86471753e-07
      2.16477565e-06 3.47596028e-06 3.32855279e-06 5.27302745e-06
      5.71033797e-06 5.72204726e-06 3.82593726e-06 2.55168561e-06
      1.48469144e-06 1.80071126e-07 -1.28867646e-06 -1.91257072e-06
      -3.14138310e-06 -2.84253929e-06 -1.93566348e-06 -6.41303984e-07
      4.22752777e-07 2.64320670e-06 3.69774602e-06 4.45292562e-06
      4.15922386e-06 3.40494353e-06 3.25933229e-06 3.18060256e-06
      4.23407300e-06 6.86795420e-06 7.68490372e-06 9.01155636e-06
      8.91513537e-06 8.29291548e-06 6.39968403e-06 3.56717010e-06
      1.50495998e-06 -3.20367803e-07 1.62722358e-07 8.66575306e-07
      2.80348581e-06 4.37965900e-06 5.25058795e-06 6.47245679e-06
      -2.17290307e-07 5.03458295e-07 2.07786215e-07 -2.29843913e-08
      -1.57095144e-06 -1.00131012e-06 -6.18688262e-07 3.56815889e-07
      1.95868029e-06 3.60199488e-06 3.61871594e-06 5.53769087e-06
      6.17638807e-06 5.75163995e-06 4.40119766e-06 3.29409636e-06
      1.44644150e-06 -1.35177004e-06 -4.44022407e-06 -6.67854647e-06
      -9.57031716e-06 -1.01186697e-05 -9.36061679e-06 -7.21000333e-06
      -4.24956079e-06 8.37950012e-08 3.63571803e-06 6.18983904e-06
      7.55037945e-06 7.64103879e-06 7.69788403e-06 6.70854752e-06
      6.43221620e-06 7.55694691e-06 6.72010628e-06 6.24478889e-06
      4.76497098e-06 2.49388177e-06 6.23824860e-07 -2.69871134e-06
      -4.82472478e-06 -6.44804322e-06 -5.84036070e-06 -5.44462637e-06
      -2.71599833e-06 -1.49116750e-06 -1.07079848e-06 -1.52891829e-07
      -6.65851530e-06 -6.27552345e-06 -6.10132929e-06 -5.02567445e-06
      -5.01775958e-06 -3.29891122e-06 -2.03908826e-06 -4.13405019e-07
      9.13450151e-07 2.32820594e-06 2.14323154e-06 3.47968353e-06
      3.94616336e-06 3.06921970e-06 2.49208347e-06 2.07122525e-06
      1.84759472e-07 -2.96959661e-06 -6.27102463e-06 -9.38936500e-06
      -1.31709912e-05 -1.44888199e-05 -1.45308641e-05 -1.27386174e-05
      -9.15629425e-06 -4.13179714e-06 8.84229621e-07 4.67596783e-06
      7.40113819e-06 8.63657442e-06 9.45348802e-06 7.95002597e-06
      6.94643086e-06 6.50811216e-06 4.22977655e-06 2.15137857e-06
      -5.93056313e-07 -4.44738225e-06 -6.30097338e-06 -9.75501189e-06
      -1.18214430e-05 -1.29750015e-05 -1.21503745e-05 -1.16162619e-05
      -7.91591810e-06 -6.80935227e-06 -6.47861452e-06 -5.73907937e-06
      -9.82040183e-06 -9.70504152e-06 -9.19011018e-06 -7.10451059e-06
      -5.87200793e-06 -3.39171311e-06 -1.93847563e-06 -2.23845618e-07
      3.13637088e-07 8.70985730e-07 -5.84171751e-08 1.37715844e-07
      -3.19108636e-07 -1.68012207e-06 -1.78384107e-06 -1.07397295e-06
      -1.96243809e-06 -3.70996577e-06 -5.21820812e-06 -7.24311167e-06
      -1.00723673e-05 -1.09443808e-05 -1.13139913e-05 -1.03780048e-05
      -7.39265352e-06 -3.20568870e-06 1.31322020e-06 4.86006729e-06
      7.46713204e-06 8.88795967e-06 9.76146566e-06 7.62653872e-06
      6.19038792e-06 4.63058905e-06 1.74471018e-06 -7.27768565e-07
      -3.52336770e-06 -7.56209693e-06 -8.53661459e-06 -1.09627417e-05
      -1.23931486e-05 -1.29921827e-05 -1.20199502e-05 -1.11597328e-05
      -7.00990313e-06 -6.13853263e-06 -5.89872934e-06 -5.26377698e-06
      -7.26952294e-06 -7.26295593e-06 -6.58017143e-06 -3.91808771e-06
      -2.01182525e-06 7.97132543e-07 1.93949245e-06 3.28813667e-06
      2.81037205e-06 1.98970019e-06 -2.86948506e-07 -1.75369360e-06
      -4.02609294e-06 -6.30371142e-06 -6.74860303e-06 -5.40869860e-06
      -5.11292501e-06 -4.64202003e-06 -3.42539352e-06 -2.89782906e-06
      -3.44655837e-06 -2.62750837e-06 -2.35434072e-06 -1.85621673e-06
      1.63235427e-07 2.93448511e-06 5.62390005e-06 7.67232177e-06
      8.82686163e-06 9.19932791e-06 8.95957419e-06 5.92003062e-06
      3.97229405e-06 1.98594535e-06 -4.23980765e-07 -1.78947550e-06
      -3.02780950e-06 -5.27961538e-06 -4.35370248e-06 -4.47493176e-06
      -4.59183184e-06 -4.79333630e-06 -4.15756858e-06 -3.33286425e-06
      -3.60664778e-08 2.56583981e-08 -2.75832434e-07 1.82788575e-08
      -4.43043660e-07 -5.31315379e-07 1.95180732e-07 2.90421099e-06
      4.73602313e-06 7.08069456e-06 7.37504115e-06 7.69693361e-06
      6.06375806e-06 3.69134705e-06 -3.63959636e-08 -2.95273503e-06
      -6.95341032e-06 -1.00580919e-05 -1.10244837e-05 -9.79650486e-06
      -8.75120804e-06 -6.62564753e-06 -3.49448328e-06 -8.82129143e-07
      3.16362275e-07 2.45067372e-06 3.32592117e-06 3.67940538e-06
      4.82569476e-06 6.50813172e-06 7.44283034e-06 7.95519281e-06
      7.68734662e-06 6.79546019e-06 5.18828892e-06 1.63262780e-06
      -6.80545782e-07 -2.30437445e-06 -3.33348385e-06 -2.82610631e-06
      -1.82748875e-06 -1.32377477e-06 1.46685363e-06 3.67222538e-06
      4.79940445e-06 4.59142893e-06 4.44593388e-06 4.88583646e-06
      6.52412791e-06 5.73668285e-06 4.74322042e-06 4.43356748e-06
      4.83713075e-06 4.58139493e-06 5.27881048e-06 7.61340061e-06
      8.64184585e-06 9.66212519e-06 8.66616938e-06 7.30178181e-06
      4.52254380e-06 9.96501853e-07 -3.42694079e-06 -6.40407734e-06
      -1.03906641e-05 -1.28230977e-05 -1.29733553e-05 -1.14528866e-05
      -9.70041492e-06 -6.85594068e-06 -3.41920486e-06 -5.48702531e-07
      5.67850691e-07 2.27844725e-06 2.66890970e-06 2.67139967e-06
      3.14535623e-06 4.51925416e-06 4.82475843e-06 4.84958400e-06
      4.30723503e-06 2.90537400e-06 5.27779946e-07 -3.07201481e-06
      -5.94095354e-06 -7.33473644e-06 -7.31565251e-06 -5.71345072e-06
      -3.35120103e-06 -7.25790528e-07 3.00919032e-06 6.54944097e-06
      8.37292555e-06 7.98271230e-06 7.22172126e-06 7.39555298e-06
      7.78861340e-06 6.92062122e-06 5.65081245e-06 4.76748846e-06
      2.29302191e-06 1.82017982e-06 2.56527778e-06 4.59340026e-06
      4.77313370e-06 4.65808034e-06 3.14017529e-06 8.20553169e-07
      -1.99908482e-06 -5.19018522e-06 -8.68993266e-06 -9.76495448e-06
      -1.15400271e-05 -1.18014577e-05 -9.82890379e-06 -7.27940824e-06
      -4.88387286e-06 -2.10263011e-06 3.96434586e-07 1.97441273e-06
      1.73595879e-06 1.81315420e-06 9.31812110e-07 3.87310507e-07
      3.84279161e-07 2.00201953e-06 2.74540253e-06 3.23271570e-06
      3.29483305e-06 2.11087331e-06 -5.17538240e-07 -4.40149097e-06
      -8.74891884e-06 -1.12602293e-05 -1.16963993e-05 -1.06785219e-05
      -8.45553313e-06 -4.88582600e-06 -7.32517776e-07 3.58577836e-06
      6.07442507e-06 6.06117146e-06 5.33237244e-06 5.46883484e-06
      5.35143090e-06 4.98507507e-06 3.76834259e-06 2.43323052e-06
      -9.10092422e-06 -9.74365594e-06 -8.56495080e-06 -6.17423257e-06
      -5.79125344e-06 -5.17906165e-06 -4.87963098e-06 -5.54996359e-06
      -6.00246585e-06 -6.55841677e-06 -7.51885227e-06 -5.71787223e-06
      -4.85618284e-06 -3.78589016e-06 -9.31851787e-07 1.58736179e-06
      3.20217532e-06 4.85600413e-06 5.76236062e-06 5.67886946e-06
      4.39616861e-06 3.32467494e-06 1.58867647e-06 7.02777129e-07
      3.19098973e-07 1.87361172e-06 3.00205875e-06 3.79454264e-06
      4.09827089e-06 3.25926612e-06 5.73067211e-07 -3.68408450e-06
      -9.53400922e-06 -1.37331144e-05 -1.51566719e-05 -1.53119363e-05
      -1.39415934e-05 -1.00425186e-05 -5.38279392e-06 -3.13121603e-07
      3.00081183e-06 4.04202592e-06 3.76190633e-06 3.72316572e-06
      3.14996510e-06 3.05263643e-06 1.66809707e-06 -1.62201047e-07
      -2.27610108e-05 -2.33841347e-05 -2.12586237e-05 -1.77834227e-05
      -1.58615985e-05 -1.24991611e-05 -8.65337279e-06 -5.56205168e-06
      -2.12751752e-06 1.07155961e-06 2.87936200e-06 6.70754298e-06
      8.71864540e-06 8.72663077e-06 9.58401961e-06 9.74692193e-06
      8.43620910e-06 7.71007672e-06 6.63899664e-06 5.32507056e-06
      4.00012141e-06 3.17068475e-06 1.80372649e-06 1.15401394e-06
      6.50623292e-07 1.54500799e-06 2.40476356e-06 2.86305772e-06
      2.76769765e-06 2.42342185e-06 2.99004682e-07 -3.07642631e-06
      -8.34278126e-06 -1.26608693e-05 -1.37923025e-05 -1.42731596e-05
      -1.38327050e-05 -1.01770711e-05 -5.62067498e-06 -6.39952304e-07
      2.80875997e-06 4.66755000e-06 4.73266755e-06 4.25255803e-06
      2.92835216e-06 2.62205685e-06 7.22755715e-07 -1.56933663e-06
      -2.85315837e-05 -2.90200314e-05 -2.61318528e-05 -2.19953145e-05
      -1.87083697e-05 -1.30884073e-05 -7.15727583e-06 -1.31747083e-06
      4.53964958e-06 9.88127522e-06 1.29687623e-05 1.69596824e-05
      1.85636200e-05 1.63092263e-05 1.40210022e-05 1.09395887e-05
      6.29432770e-06 3.07060532e-06 4.63338864e-07 -1.07086282e-06
      -1.73945750e-06 -1.27724627e-06 -1.19459253e-06 -1.02763454e-06
      -1.07763708e-06 -7.29657927e-07 -9.17562204e-08 -7.02017147e-08
      -3.06796693e-07 2.27375722e-07 -4.81879795e-07 -1.54978181e-06
      -4.04173852e-06 -6.54245014e-06 -5.99028272e-06 -5.82889379e-06
      -6.24944187e-06 -3.58886132e-06 -4.44955020e-07 2.79423193e-06
      5.22130586e-06 6.97110272e-06 7.15964097e-06 6.26486190e-06
      4.41495604e-06 3.99398050e-06 1.79893652e-06 -5.40082112e-07
      -2.08553192e-05 -2.13507647e-05 -1.89571456e-05 -1.59595947e-05
      -1.33116873e-05 -8.48927175e-06 -4.08203505e-06 1.41140390e-06
      6.70489590e-06 1.12896187e-05 1.38136611e-05 1.64882349e-05
      1.71705851e-05 1.33071790e-05 9.21780429e-06 4.31039280e-06
      -1.60978107e-06 -5.63758522e-06 -7.98998917e-06 -8.29848159e-06
      -7.92304945e-06 -5.95392930e-06 -4.22414223e-06 -3.32702575e-06
      -2.71262638e-06 -2.64018354e-06 -1.84691976e-06 -2.23341908e-06
      -2.26901739e-06 -1.37673510e-06 -1.05320646e-06 -2.74274583e-07
      -1.42090812e-07 -6.58764861e-07 1.78528671e-06 3.16976525e-06
      2.62484718e-06 4.50100470e-06 5.98782799e-06 6.69890551e-06
      7.59164823e-06 8.56165298e-06 8.84986912e-06 7.73147349e-06
      6.07397806e-06 6.22880361e-06 4.53845132e-06 2.74334911e-06
      -4.92253139e-06 -5.55205315e-06 -4.75005709e-06 -4.26007273e-06
      -3.92626498e-06 -2.39715314e-06 -1.69497446e-06 1.35941502e-06
      4.37882363e-06 6.54215091e-06 7.75246372e-06 8.87726947e-06
      9.25666973e-06 5.60008402e-06 1.92236325e-06 -2.38113375e-06
      -6.79454706e-06 -9.50363119e-06 -9.94957009e-06 -8.56885981e-06
      -7.37383880e-06 -4.81668167e-06 -2.41476141e-06 -1.72664852e-06
      -9.34544403e-07 -1.30862372e-06 -2.46691627e-07 -7.31652278e-07
      -3.12567607e-07 2.16994309e-07 8.25246786e-07 2.10639769e-06
      3.20705908e-06 3.25511587e-06 6.42705982e-06 8.47883257e-06
      8.11212249e-06 9.51967013e-06 9.70751080e-06 8.01854094e-06
      7.33976731e-06 7.17319517e-06 7.51717198e-06 6.18891136e-06
      5.23097151e-06 6.54348605e-06 6.05323885e-06 5.10268455e-06
      6.38974143e-06 5.83256224e-06 5.46521051e-06 4.10633265e-06
      2.72729380e-06 1.31074887e-06 -8.26739040e-07 -2.43147923e-07
      5.22550465e-07 4.95192182e-07 8.04412537e-07 1.17772299e-06
      2.30803403e-06 9.77129162e-07 -6.40546773e-07 -2.58742534e-06
      -4.01873558e-06 -4.68962571e-06 -3.43855845e-06 -1.64095934e-06
      -3.54052219e-07 1.38747373e-06 3.21317611e-06 3.03429010e-06
      3.68176984e-06 3.13054329e-06 4.61480931e-06 4.91978290e-06
      6.30060367e-06 6.75416914e-06 7.83666837e-06 9.00516534e-06
      9.66525567e-06 8.71890279e-06 1.08595323e-05 1.19299984e-05
      1.08388995e-05 1.11930340e-05 9.81273388e-06 6.04474508e-06
      3.98773409e-06 2.40790200e-06 2.42702845e-06 6.84284259e-07
      2.77197074e-07 2.57988108e-06 3.21576272e-06 2.95626637e-06
      4.62489061e-06 4.50294237e-06 4.33165587e-06 3.02541048e-06
      2.18895002e-06 2.77604556e-07 -2.14364991e-06 -2.81697953e-06
      -3.47390028e-06 -4.32113120e-06 -4.13194130e-06 -3.75627951e-06
      -1.87787361e-06 -2.71781431e-07 1.95755987e-07 5.07720415e-07
      1.46651519e-06 2.00824070e-06 3.59934279e-06 4.45047135e-06
      5.71731653e-06 6.53011966e-06 7.69427334e-06 7.37394112e-06
      8.18828994e-06 8.30558020e-06 9.73087663e-06 1.04364854e-05
      1.17466943e-05 1.13976193e-05 1.20244913e-05 1.20461536e-05
      1.11658155e-05 8.80182415e-06 9.49345849e-06 9.42810402e-06
      7.93700292e-06 7.98362726e-06 5.73344005e-06 1.52260122e-06
      -6.90213312e-07 -3.26538861e-06 -3.77640686e-06 -5.77255469e-06
      -6.10787447e-06 -3.48275034e-06 -2.44314333e-06 -2.37867994e-06
      -5.84523650e-06 -5.47265427e-06 -4.73481987e-06 -4.77391632e-06
      -3.48763501e-06 -3.72420436e-06 -4.78280845e-06 -5.51274888e-06
      -6.85357691e-06 -7.27395263e-06 -7.01901808e-06 -6.85503164e-06
      -5.50824052e-06 -2.52062318e-06 -1.18894161e-06 9.43850864e-08
      1.99651072e-06 3.00543093e-06 4.42192459e-06 4.64687537e-06
      6.56993643e-06 7.82198731e-06 9.19696777e-06 9.98464930e-06
      1.12650114e-05 1.23189866e-05 1.23852315e-05 1.16200317e-05
      1.06462376e-05 7.65140339e-06 5.80118603e-06 3.52474513e-06
      8.70084364e-07 -1.86212878e-06 -1.42462659e-06 -1.08043560e-06
      -1.42045837e-06 1.39147090e-07 -1.39224846e-06 -3.71683495e-06
      -4.60873525e-06 -7.03890646e-06 -7.45443549e-06 -8.69024461e-06
      -8.95853373e-06 -6.34704520e-06 -5.38573522e-06 -5.28618421e-06
      -1.33327258e-05 -1.28053716e-05 -1.15178900e-05 -1.06027546e-05
      -7.64647393e-06 -5.94743551e-06 -6.19428647e-06 -6.54691348e-06
      -8.20314381e-06 -7.55667952e-06 -7.34613423e-06 -7.71550640e-06
      -7.34906826e-06 -4.59566672e-06 -3.25605652e-06 -2.14486727e-06
      -4.43734109e-07 7.09108804e-07 1.97206259e-06 2.45443175e-06
      4.89527065e-06 7.09436745e-06 8.89776129e-06 1.08212289e-05
      1.24117223e-05 1.38900841e-05 1.22604833e-05 9.61828573e-06
      6.51532810e-06 1.43589898e-06 -2.48996093e-06 -6.06745971e-06
      -9.14646262e-06 -1.07979849e-05 -9.78418666e-06 -8.77588172e-06
      -8.20548485e-06 -5.73107855e-06 -6.68471102e-06 -6.93678930e-06
      -6.61844342e-06 -8.23114442e-06 -7.76567322e-06 -7.25310974e-06
      -6.89108174e-06 -4.25177041e-06 -3.22470237e-06 -3.24465941e-06
      -1.24471462e-05 -1.20819732e-05 -1.07720216e-05 -9.93356025e-06
      -6.71970247e-06 -4.18981517e-06 -4.83757594e-06 -4.58837712e-06
      -5.92553579e-06 -3.68930091e-06 -2.77645108e-06 -2.92070922e-06
      -2.19915637e-06 1.45168272e-07 1.23664279e-06 1.23124096e-06
      1.59046942e-06 1.79182712e-06 1.92271978e-06 2.15841965e-06
      3.47637615e-06 5.19264267e-06 6.59298667e-06 8.41643669e-06
      9.89999353e-06 1.12050020e-05 8.94456662e-06 6.01058446e-06
      3.15559896e-06 -1.33259334e-06 -4.76861169e-06 -7.46962314e-06
      -9.34784111e-06 -9.16512818e-06 -7.55528390e-06 -6.75850833e-06
      -6.48388186e-06 -5.15976944e-06 -6.62766752e-06 -6.39871723e-06
      -6.05305604e-06 -7.19697528e-06 -6.10602592e-06 -4.29447164e-06
      -3.14650060e-06 -9.04504986e-07 2.12464883e-07 -4.87823080e-08
      -8.20636433e-06 -7.96360291e-06 -6.56593329e-06 -6.28719408e-06
      -3.35617437e-06 -9.46469584e-07 -2.03926106e-06 -1.00278896e-06
      -1.40292696e-06 1.94448853e-06 3.99343025e-06 4.21090817e-06
      5.91277421e-06 7.71449686e-06 8.00682756e-06 6.32139154e-06
      4.89936247e-06 3.45909552e-06 2.01019634e-06 1.49224104e-06
      7.86902888e-07 9.05516174e-07 1.30356045e-06 2.00050022e-06
      2.94473148e-06 3.62600031e-06 1.59911224e-06 -3.03090900e-07
      -1.46360367e-06 -3.82340295e-06 -5.15732518e-06 -6.03500894e-06
      -6.17027854e-06 -4.19869002e-06 -1.89322895e-06 -1.12800569e-06
      -1.00348689e-06 -1.06812934e-06 -2.82860628e-06 -2.95563950e-06
      -3.26713530e-06 -4.68293547e-06 -4.15438672e-06 -2.56426392e-06
      -1.31657680e-06 -2.81422558e-07 3.80251379e-07 -1.96364354e-07
      -4.75256593e-06 -4.45535170e-06 -2.67057067e-06 -2.73825344e-06
      1.07752527e-07 1.79955600e-06 7.11121629e-07 1.63797893e-06
      1.59109027e-06 3.71773490e-06 5.50379764e-06 4.54094788e-06
      6.02510363e-06 6.68190387e-06 6.02617001e-06 3.57419231e-06
      1.83866689e-06 1.62767464e-07 -1.24832184e-06 -1.57249690e-06
      -3.28801025e-06 -4.35302081e-06 -4.84752627e-06 -5.46642741e-06
      -5.29598310e-06 -5.39019038e-06 -6.90628531e-06 -7.39517054e-06
      -6.76368336e-06 -6.95304016e-06 -6.12582153e-06 -5.46843057e-06
      -4.34323420e-06 -1.39735766e-06 1.38746680e-06 2.65825975e-06
      2.96484268e-06 2.50059179e-06 1.14215936e-06 7.54945574e-07
      -2.59159464e-07 -2.40311488e-06 -3.25575797e-06 -2.75036678e-06
      -2.05941433e-06 -2.17612160e-06 -2.45675028e-06 -3.23980612e-06
      2.88626950e-07 5.44350598e-07 2.40344252e-06 2.03087620e-06
      4.24174277e-06 4.31792023e-06 2.87719536e-06 2.03083096e-06
      1.10185510e-06 -2.18468715e-10 1.53416465e-07 -2.48737160e-06
      -1.71038505e-06 -1.61513071e-06 -1.85786087e-06 -2.99408453e-06
      -3.05371896e-06 -3.24088114e-06 -3.26062832e-06 -2.78701032e-06
      -4.50758580e-06 -6.33752916e-06 -7.53733639e-06 -9.17070156e-06
      -9.48891920e-06 -9.93802860e-06 -1.05465551e-05 -9.62646027e-06
      -7.42948941e-06 -5.91058870e-06 -3.65913866e-06 -2.17086404e-06
      -8.98401140e-07 1.61762932e-06 3.98665952e-06 5.23727158e-06
      4.99681209e-06 4.49909066e-06 3.51460835e-06 2.91810284e-06
      1.45920899e-06 -1.20755499e-06 -3.07483197e-06 -3.41579562e-06
      -3.38447035e-06 -3.66342033e-06 -4.90450839e-06 -5.69130907e-06
      7.16704244e-06 7.04352351e-06 8.18253284e-06 7.01139061e-06
      7.49394849e-06 5.29544832e-06 2.87152943e-06 -2.65781040e-07
      -2.34474669e-06 -6.09840617e-06 -6.99427710e-06 -9.74133400e-06
      -8.45713566e-06 -7.41411304e-06 -5.65485789e-06 -4.18654236e-06
      -2.14561442e-06 -7.52702363e-07 1.37594483e-07 8.89655553e-07
      -5.56480416e-07 -3.02136459e-06 -4.50728294e-06 -6.39907466e-06
      -6.40802591e-06 -6.67811855e-06 -6.31589273e-06 -4.73323007e-06
      -1.92504285e-06 1.98418377e-07 2.52421182e-06 3.99501414e-06
      4.33862670e-06 5.37223286e-06 6.75457750e-06 7.12432029e-06
      5.72042200e-06 5.06008200e-06 4.31112539e-06 3.60325453e-06
      2.27811984e-06 -8.04131428e-09 -1.83113468e-06 -2.58304476e-06
      -3.18852221e-06 -3.04973832e-06 -5.06924835e-06 -5.81566837e-06
      1.15584771e-05 1.09232669e-05 1.10745486e-05 8.71372958e-06
      7.44594035e-06 3.58476746e-06 2.78061208e-07 -3.92028733e-06
      -6.42215809e-06 -1.05618692e-05 -1.11530017e-05 -1.28718493e-05
      -1.00050665e-05 -7.52343021e-06 -3.90517789e-06 -3.74251158e-07
      2.63943366e-06 4.62847720e-06 5.50391724e-06 6.13729617e-06
      5.28461351e-06 2.99432259e-06 2.10225016e-06 1.03052332e-06
      2.01028706e-06 1.84034343e-06 2.21992923e-06 2.91599395e-06
      4.49993695e-06 5.72701811e-06 6.75172123e-06 7.57052476e-06
      6.87319380e-06 6.67525546e-06 7.54971461e-06 7.13679356e-06
      5.07441246e-06 4.18071795e-06 3.67306120e-06 3.09404140e-06
      2.31973058e-06 1.11313796e-06 -3.89144681e-08 -9.44426006e-07
      -2.08155848e-06 -1.69740201e-06 -4.07117977e-06 -4.80858171e-06
      9.97835195e-06 9.16104182e-06 8.91743093e-06 5.81644417e-06
      4.12876989e-06 3.45140023e-07 -2.86883119e-06 -6.07796665e-06
      -7.94386142e-06 -1.03427355e-05 -9.94113907e-06 -1.07614378e-05
      -6.37428002e-06 -3.27840007e-06 2.91843406e-07 4.05005858e-06
      6.26119254e-06 7.46547084e-06 7.58705664e-06 7.67522397e-06
      7.21055085e-06 6.00629164e-06 6.22675589e-06 6.64845174e-06
      8.71907287e-06 8.39691529e-06 7.97367738e-06 7.14308044e-06
      6.49803269e-06 6.22540256e-06 5.61773777e-06 5.63168305e-06
      4.65365065e-06 4.25566213e-06 5.27934571e-06 4.93701918e-06
      3.23449740e-06 2.09399241e-06 1.62025412e-06 1.23557356e-06
      7.95729136e-07 3.04405006e-07 -3.17894319e-07 -1.05985202e-06
      -2.23718871e-06 -1.71917429e-06 -3.60866784e-06 -4.22627591e-06
      2.10096391e-06 1.68007648e-06 1.75908121e-06 -9.81086259e-07
      -1.66028951e-06 -3.59846103e-06 -5.42649241e-06 -5.93335517e-06
      -5.97694088e-06 -5.41142344e-06 -3.83293218e-06 -3.78649725e-06
      1.32195828e-06 3.91601952e-06 5.33230468e-06 7.31685259e-06
      7.23764560e-06 6.27925056e-06 4.83452777e-06 3.51839367e-06
      2.47244907e-06 2.35626385e-06 3.41981627e-06 5.05018124e-06
      7.86792771e-06 7.82569805e-06 7.27501128e-06 6.20920400e-06
      4.48486480e-06 3.51710878e-06 2.19122967e-06 1.63729885e-06
      9.46586113e-07 7.40299981e-07 1.62903416e-06 1.70381372e-06
      9.18270700e-07 -3.74339209e-07 -9.25230722e-07 -1.13629335e-06
      -1.47276239e-06 -2.08715755e-06 -2.39198357e-06 -2.81931375e-06
      -3.63768095e-06 -3.00875126e-06 -3.76935009e-06 -4.13695534e-06
      -6.75243427e-06 -6.31470175e-06 -5.77791070e-06 -7.32328681e-06
      -6.47216757e-06 -5.89756974e-06 -5.90831223e-06 -3.66682866e-06
      -1.63236882e-06 1.57122315e-06 4.02532805e-06 4.84503653e-06
      9.28013651e-06 1.06125199e-05 9.13247914e-06 8.35208357e-06
      5.82953635e-06 2.41494786e-06 -7.73026841e-07 -3.60151330e-06
      -5.70166503e-06 -5.38892800e-06 -4.01918896e-06 -2.19062781e-06
      8.15421174e-07 1.73123840e-06 2.28533236e-06 2.49425875e-06
      1.78041603e-06 1.38094083e-06 7.25286441e-07 2.58189232e-07
      7.03431491e-09 -9.32443669e-08 1.38996199e-07 2.78042307e-07
      4.12006671e-07 -7.18580168e-07 -1.15013142e-06 -1.16205592e-06
      -1.25706902e-06 -2.42982151e-06 -2.54364409e-06 -3.10061455e-06
      -3.92980246e-06 -3.69844065e-06 -3.61960178e-06 -3.75153763e-06
      -8.57566920e-06 -7.19219042e-06 -6.68683924e-06 -7.14532371e-06
      -5.27531165e-06 -3.01775572e-06 -2.05826450e-06 1.31341812e-06
      4.18748550e-06 8.46279454e-06 1.10737401e-05 1.19272963e-05
      1.44501091e-05 1.45783479e-05 1.11919544e-05 8.26690029e-06
      4.48488390e-06 -3.53029208e-07 -4.55650070e-06 -7.95148844e-06
      -1.07346978e-05 -1.06729867e-05 -9.47185254e-06 -8.27226177e-06
      -5.44912700e-06 -3.42415387e-06 -1.44449291e-06 1.44288293e-07
      1.36702170e-06 2.06563300e-06 2.80843892e-06 2.97434167e-06
      3.05354683e-06 3.24323400e-06 3.05440608e-06 3.08285780e-06
      4.12162217e-06 3.56400892e-06 3.46099273e-06 3.74640740e-06
      3.79329640e-06 2.05957872e-06 1.55698376e-06 1.40127483e-07
      -1.45858678e-06 -2.33952414e-06 -2.29246689e-06 -2.27589794e-06
      -2.47383514e-06 -5.49885272e-07 -8.57964892e-07 -1.27304520e-06
      2.91219578e-07 2.54263250e-06 3.42481439e-06 6.55058557e-06
      9.10979907e-06 1.34318207e-05 1.59398041e-05 1.65627243e-05
      1.75050809e-05 1.74192373e-05 1.38169125e-05 1.03594530e-05
      6.69333076e-06 1.76430092e-06 -2.53250801e-06 -5.63169533e-06
      -8.44828719e-06 -8.71903285e-06 -7.84766689e-06 -7.05550792e-06
      -4.41410566e-06 -1.73332228e-06 9.22924642e-07 2.86811792e-06
      5.05976323e-06 6.04220122e-06 7.40676023e-06 7.60085868e-06
      7.25005521e-06 7.50842173e-06 7.11790017e-06 7.19486934e-06
      9.23120660e-06 9.63642742e-06 1.01897404e-05 1.11580157e-05
      1.11096215e-05 9.12552514e-06 7.64263768e-06 5.03979936e-06
      2.42317014e-06 2.60016122e-07 -2.76679287e-07 -1.69772903e-07
      5.27774819e-06 7.07638674e-06 5.56675968e-06 4.27895793e-06
      4.27574469e-06 5.26127724e-06 5.64332640e-06 8.18586068e-06
      1.02220592e-05 1.42991885e-05 1.66519567e-05 1.75457299e-05
      1.82259228e-05 1.87926435e-05 1.61033040e-05 1.34379125e-05
      1.06811513e-05 6.64346953e-06 3.06853985e-06 7.85033535e-07
      -1.14932288e-06 -1.02204058e-06 -2.31145769e-08 1.29518514e-06
      3.53396536e-06 5.85956241e-06 7.67589518e-06 8.45873001e-06
      9.71675217e-06 9.37591994e-06 9.76865249e-06 8.69257565e-06
      6.98208305e-06 6.52992003e-06 5.55767565e-06 5.73939860e-06
      8.52764788e-06 1.02092299e-05 1.19203960e-05 1.41915625e-05
      1.45236154e-05 1.29980308e-05 1.10751353e-05 7.78304093e-06
      4.74711669e-06 1.91566869e-06 8.51317793e-07 1.10773601e-06
      9.83177506e-06 1.10572437e-05 8.91103718e-06 7.08932021e-06
      5.53006930e-06 5.25840414e-06 5.18462957e-06 6.92879030e-06
      8.23260780e-06 1.11704303e-05 1.26655495e-05 1.38666974e-05
      1.48792205e-05 1.61002044e-05 1.48526451e-05 1.35988294e-05
      1.21187941e-05 9.39040001e-06 6.76666377e-06 5.27912880e-06
      4.48123910e-06 5.24034749e-06 6.56584371e-06 8.68557436e-06
      1.00531706e-05 1.13120450e-05 1.13243987e-05 1.01551559e-05
      9.67486540e-06 7.46527439e-06 6.44369948e-06 3.88656008e-06
      9.68641984e-07 -3.39061103e-07 -2.10335406e-06 -1.95121288e-06
      6.09783797e-07 3.18695766e-06 5.77653282e-06 9.36335800e-06
      1.08225304e-05 1.05242079e-05 9.72990529e-06 7.24429992e-06
      5.22243818e-06 3.02181252e-06 2.06252298e-06 2.75506795e-06
      9.20634011e-06 9.74634077e-06 7.95641154e-06 6.67063296e-06
      4.79144273e-06 4.23645179e-06 4.20036167e-06 5.13425994e-06
      5.60561011e-06 6.61980403e-06 6.85267014e-06 7.87308818e-06
      8.98747112e-06 1.05137578e-05 1.08981494e-05 1.11640393e-05
      1.09793409e-05 9.15136934e-06 6.63426772e-06 4.94561982e-06
      3.99796454e-06 4.36338587e-06 5.18463321e-06 7.39945062e-06
      8.17986802e-06 9.01534713e-06 8.18347598e-06 6.25881194e-06
      5.11381222e-06 2.37921654e-06 1.21940673e-06 -1.51886240e-06
      -4.39567793e-06 -5.71133887e-06 -7.87577846e-06 -7.85200609e-06
      -6.81109395e-06 -4.77430194e-06 -2.75336583e-06 8.73902081e-07
      3.09749271e-06 4.07079733e-06 5.40196561e-06 5.31477917e-06
      5.81776385e-06 5.55148199e-06 5.58190459e-06 7.04662261e-06
      2.57735155e-06 2.43575755e-06 1.48354229e-06 1.29791033e-06
      3.62779787e-07 4.80407380e-07 1.27166788e-06 2.10331882e-06
      2.45027991e-06 2.22882500e-06 1.97891450e-06 2.50417361e-06
      3.21294942e-06 4.58988870e-06 5.89959473e-06 7.07864501e-06
      7.59646719e-06 6.02642467e-06 3.06533184e-06 6.50531376e-07
      -1.23104962e-06 -1.61360299e-06 -1.52163511e-06 4.60502292e-07
      1.92420066e-06 3.60235845e-06 3.59780711e-06 2.96407916e-06
      2.28596582e-06 4.55133772e-07 1.40268355e-07 -1.76274239e-06
      -3.77572883e-06 -4.47556113e-06 -6.63438323e-06 -6.78779179e-06
      -7.69503094e-06 -7.44127965e-06 -7.06881065e-06 -5.01912882e-06
      -3.42781459e-06 -2.03771674e-06 6.21266167e-07 2.76253832e-06
      5.65446317e-06 7.29150406e-06 8.44448095e-06 1.05536492e-05
      -6.33199807e-06 -7.01288900e-06 -7.29982685e-06 -6.67892573e-06
      -6.38983738e-06 -5.61780507e-06 -3.98949896e-06 -2.83596773e-06
      -2.14418856e-06 -2.57151078e-06 -2.58796922e-06 -2.81254825e-06
      -3.04888090e-06 -2.31276499e-06 -1.45189028e-06 -3.48994291e-07
      2.68146376e-08 -1.19886317e-06 -3.56112832e-06 -5.61477555e-06
      -7.18776164e-06 -7.08654352e-06 -6.43849216e-06 -4.32009028e-06
      -1.36108622e-06 1.48486572e-06 2.59194508e-06 4.02262822e-06
      3.75331138e-06 3.05269646e-06 3.20676122e-06 1.94231143e-06
      5.99482519e-07 2.13994085e-07 -1.83771567e-06 -2.32718526e-06
      -4.29450256e-06 -5.61163870e-06 -6.46305671e-06 -6.28989619e-06
      -6.18138165e-06 -5.25266069e-06 -3.03945922e-06 -6.66298547e-07
      2.59122635e-06 4.59389366e-06 5.87937711e-06 7.90532522e-06
      -1.00712787e-05 -1.08831509e-05 -1.09014418e-05 -1.02413487e-05
      -9.52955907e-06 -9.08642141e-06 -7.86247165e-06 -7.11833491e-06
      -6.80630956e-06 -7.40649830e-06 -7.50598019e-06 -8.47982756e-06
      -9.54900315e-06 -9.26001394e-06 -9.42913266e-06 -8.68228653e-06
      -8.75539808e-06 -9.20448565e-06 -9.97998268e-06 -1.08205968e-05
      -1.11337413e-05 -1.01369997e-05 -8.57819668e-06 -6.78323113e-06
      -3.42653379e-06 -3.46736812e-07 8.84263784e-07 3.73289686e-06
      3.72765271e-06 4.26335191e-06 4.84467455e-06 4.31157332e-06
      3.65861024e-06 3.32085915e-06 1.67454277e-06 7.74902901e-07
      -1.03372042e-06 -2.90394496e-06 -4.00289446e-06 -4.65711082e-06
      -5.55256793e-06 -5.22187111e-06 -4.37018298e-06 -3.37792039e-06
      -1.58888440e-06 -6.86618023e-07 -2.87385603e-07 8.98715143e-07
      -5.62473588e-06 -6.13563361e-06 -6.19119919e-06 -6.15038425e-06
      -6.04194111e-06 -6.76257150e-06 -7.26206554e-06 -7.98873771e-06
      -8.95370704e-06 -9.94641505e-06 -1.04826986e-05 -1.13301785e-05
      -1.21360499e-05 -1.13451606e-05 -1.18613689e-05 -1.10165720e-05
      -1.14187978e-05 -1.15271905e-05 -1.18126809e-05 -1.23896471e-05
      -1.24944272e-05 -1.19440301e-05 -1.08869199e-05 -1.03326583e-05
      -8.14590658e-06 -5.65749087e-06 -4.73368755e-06 -1.31301431e-06
      -7.18801459e-07 1.29875025e-06 2.94205279e-06 3.84224995e-06
      4.26661973e-06 4.23473148e-06 3.44686782e-06 2.38702410e-06
      1.27060969e-06 -5.53140694e-07 -1.45849083e-06 -2.06848131e-06
      -3.09887037e-06 -3.13074429e-06 -3.40764632e-06 -3.88145645e-06
      -3.92479205e-06 -4.48320816e-06 -5.11344433e-06 -4.96299435e-06
      2.87623720e-06 2.72807142e-06 2.44228431e-06 1.61591925e-06
      7.12257645e-07 -1.10464725e-06 -3.49670449e-06 -5.85646694e-06
      -7.89545993e-06 -8.83423945e-06 -9.26400753e-06 -8.92029675e-06
      -8.51829645e-06 -6.82724885e-06 -6.97554560e-06 -6.09241215e-06
      -7.01234057e-06 -8.00405996e-06 -9.66026619e-06 -1.10985247e-05
      -1.19539818e-05 -1.24197059e-05 -1.22217380e-05 -1.20915684e-05
      -1.04881201e-05 -8.11825703e-06 -6.76060336e-06 -3.36418771e-06
      -2.34215213e-06 2.44026239e-07 2.36288338e-06 4.13426369e-06
      4.98630152e-06 5.05224625e-06 4.90191178e-06 3.90042442e-06
      3.26640270e-06 1.51757479e-06 7.67939355e-07 9.77644490e-08
      -8.61292051e-07 -1.25797794e-06 -2.28609474e-06 -3.64821176e-06
      -4.99804719e-06 -6.59948000e-06 -7.75593071e-06 -8.25581265e-06
      9.44483054e-06 9.37208824e-06 8.79170329e-06 7.26937333e-06
      5.67023972e-06 3.52139182e-06 2.89904875e-07 -2.71617205e-06
      -4.62583603e-06 -4.75749903e-06 -4.27806526e-06 -2.78193852e-06
      -1.58702653e-06 3.33900410e-08 -9.85036621e-08 -1.76194760e-07
      -2.09272912e-06 -4.52750737e-06 -7.65890127e-06 -9.40934569e-06
      -1.01082605e-05 -1.04220289e-05 -9.76159754e-06 -8.36932941e-06
      -5.84288500e-06 -3.02330818e-06 -8.63895821e-07 1.92018274e-06
      2.59738454e-06 4.22886615e-06 5.33605453e-06 6.30095201e-06
      6.14233477e-06 5.36561083e-06 4.99252928e-06 3.78007940e-06
      2.96842541e-06 1.14512613e-06 3.30161640e-07 -7.72112742e-07
      -1.78539915e-06 -2.38414805e-06 -3.65442111e-06 -5.05255821e-06
      -6.58461704e-06 -8.22834772e-06 -9.10290692e-06 -9.68842869e-06
      1.08878103e-05 1.06291009e-05 9.90743956e-06 8.22251513e-06
      6.61899048e-06 4.96672192e-06 2.23720758e-06 -2.21494531e-07
      -9.92908440e-07 -8.08473644e-08 1.32579817e-06 2.97470524e-06
      3.75365539e-06 4.04175762e-06 3.14262093e-06 1.39645533e-06
      -1.41949840e-06 -4.31217904e-06 -7.18344336e-06 -7.63775279e-06
      -6.51295113e-06 -5.43884107e-06 -3.52824850e-06 -8.11547125e-07
      2.16232365e-06 4.40633539e-06 6.16245779e-06 7.44345789e-06
      6.96786356e-06 6.98987378e-06 6.61276408e-06 6.13372003e-06
      4.65700623e-06 2.74110585e-06 1.91052072e-06 2.23029801e-07
      -1.30277408e-06 -3.26955683e-06 -4.39256655e-06 -5.93442019e-06
      -6.78301558e-06 -6.84515453e-06 -7.26718736e-06 -7.34538662e-06
      -7.30424836e-06 -7.47703189e-06 -7.10291806e-06 -7.39568486e-06
      8.47876618e-06 7.96086260e-06 7.25370910e-06 5.89018373e-06
      4.73728460e-06 3.69247005e-06 1.88062711e-06 2.36853793e-07
      4.61275278e-07 1.95006169e-06 3.62564424e-06 4.73449609e-06
      4.56691077e-06 3.45494846e-06 1.88529657e-06 -1.05661832e-06
      -3.98052771e-06 -5.95931897e-06 -7.06985111e-06 -5.56234954e-06
      -2.22353970e-06 3.19392541e-07 2.89820264e-06 5.53350901e-06
      7.08508742e-06 7.14056296e-06 7.05238654e-06 6.10606185e-06
      4.23914616e-06 3.23674794e-06 2.41876160e-06 1.63376308e-06
      4.69949271e-07 -1.37128313e-06 -1.76142134e-06 -3.53956329e-06
      -5.65054506e-06 -7.77542573e-06 -9.44381918e-06 -1.15184275e-05
      -1.20472423e-05 -1.10711944e-05 -9.81816629e-06 -7.58966007e-06
      -4.72113015e-06 -2.40076974e-06 -1.13249151e-07 -7.98483590e-09
      6.52990275e-06 5.74467322e-06 4.79558094e-06 3.56419059e-06
      2.50907055e-06 1.23055042e-06 -4.18717661e-07 -1.84518967e-06
      -1.49034895e-06 4.25518429e-08 1.65839265e-06 2.55424538e-06
      2.16915032e-06 8.49684341e-07 -4.01319767e-07 -3.40830343e-06
      -5.85276484e-06 -6.78100150e-06 -6.40038161e-06 -4.09656786e-06
      -1.29345139e-08 3.05179037e-06 5.18992192e-06 6.54320002e-06
      5.77065430e-06 3.48683920e-06 1.68938766e-06 -9.62406375e-07
      -3.35683831e-06 -3.96824953e-06 -3.60635681e-06 -3.04408763e-06
      -1.85539250e-06 -2.26468956e-06 -1.48687593e-06 -2.82663132e-06
      -5.05134904e-06 -7.38797917e-06 -9.85717088e-06 -1.28615902e-05
      -1.34606980e-05 -1.19045708e-05 -9.45060037e-06 -5.51886069e-06
      -5.15851809e-07 3.68549263e-06 7.68358586e-06 8.07265678e-06
      7.18592810e-06 6.22526477e-06 4.69009046e-06 3.05767753e-06
      1.51485210e-06 -6.41010331e-07 -2.85773581e-06 -4.61017044e-06
      -4.76501236e-06 -3.54206577e-06 -2.00514410e-06 -9.01241435e-07
      -5.26835038e-07 -9.00167436e-07 -1.04982246e-06 -3.02704325e-06
      -4.80575500e-06 -5.40696828e-06 -4.94563301e-06 -3.57612362e-06
      -5.15647969e-07 2.02999013e-06 3.25692395e-06 3.46247157e-06
      1.42898807e-06 -1.53175677e-06 -3.61558227e-06 -6.44251759e-06
      -8.42153077e-06 -8.07212291e-06 -6.26421479e-06 -4.13133330e-06
      -5.82151245e-07 1.82450435e-07 1.81837538e-06 1.20468007e-06
      -4.81023108e-07 -2.59699027e-06 -5.52167739e-06 -9.12630003e-06
      -1.01070491e-05 -8.80706466e-06 -6.62555613e-06 -3.16060618e-06
      1.26500299e-06 5.15460488e-06 9.54227926e-06 9.86903979e-06
      7.35258982e-06 6.54924952e-06 4.92063373e-06 3.28453416e-06
      1.86549164e-06 -2.31399994e-07 -2.45856904e-06 -4.48968376e-06
      -5.38833456e-06 -5.05291473e-06 -4.21773120e-06 -3.63541608e-06
      -2.75712205e-06 -2.29244824e-06 -1.41877831e-06 -1.68274732e-06
      -2.48680908e-06 -3.02625040e-06 -3.46035290e-06 -3.76877779e-06
      -2.23724282e-06 -6.91568403e-07 1.83344753e-08 2.21376027e-07
      -9.43434202e-07 -2.46083891e-06 -3.44170689e-06 -5.19717878e-06
      -6.83486178e-06 -6.58264753e-06 -4.78055699e-06 -2.43825730e-06
      1.42661565e-06 2.00592240e-06 3.93646997e-06 4.32281513e-06
      4.06767185e-06 3.19273181e-06 1.03220168e-06 -1.70747091e-06
      -2.57579313e-06 -1.70215583e-06 -1.03157947e-06 -2.73962854e-07
      5.96725556e-07 1.76080778e-06 4.65821768e-06 4.42000919e-06
      4.55255622e-06 4.20094966e-06 3.37915935e-06 2.77089089e-06
      2.69455631e-06 2.09582845e-06 9.27384576e-07 -1.03651007e-06
      -2.64165010e-06 -3.57987028e-06 -4.10987104e-06 -4.97666724e-06
      -4.59090506e-06 -4.14039414e-06 -2.76174751e-06 -1.37805819e-06
      -9.85313136e-07 -1.22751453e-06 -2.53136636e-06 -4.17849787e-06
      -3.69827876e-06 -3.15909870e-06 -2.65368976e-06 -1.84815985e-06
      -1.10858298e-06 -4.26707203e-07 1.81043035e-07 -1.96965345e-07
      -1.83299539e-06 -2.50156063e-06 -1.66804818e-06 -8.68650432e-08
      2.58606883e-06 2.24791279e-06 4.23820256e-06 5.57085104e-06
      6.98257873e-06 7.73783177e-06 7.11844996e-06 6.25503299e-06
      6.23383494e-06 7.20185380e-06 6.32533965e-06 3.96279665e-06
      5.63592266e-07 -1.69139446e-06 -1.14703266e-06 -2.18305740e-06
      2.48308561e-06 2.38862958e-06 2.14053716e-06 2.26274369e-06
      3.08346330e-06 3.47278205e-06 3.02510648e-06 1.17578315e-06
      -7.36991979e-07 -2.30875162e-06 -3.57734393e-06 -5.26927442e-06
      -5.34259607e-06 -5.09947995e-06 -3.59897354e-06 -1.52311941e-06
      -5.42753639e-07 -5.71192402e-07 -2.19423282e-06 -4.33381638e-06
      -4.21124651e-06 -4.13352655e-06 -3.73377429e-06 -2.64773439e-06
      -9.83906602e-07 7.12177950e-07 2.08449910e-06 2.34544586e-06
      6.87638362e-07 -4.45688357e-07 -1.00430434e-07 1.05538129e-06
      3.01383966e-06 2.20366292e-06 4.19770367e-06 5.90107356e-06
      8.03224975e-06 9.51553193e-06 9.67561300e-06 9.79309425e-06
      1.03207858e-05 1.15000203e-05 1.00229663e-05 6.32778210e-06
      1.04848527e-06 -2.75079492e-06 -3.34755669e-06 -4.76766854e-06
      1.28846148e-06 1.63859193e-06 2.48021183e-06 3.13708347e-06
      1.77149764e-06 1.03284538e-06 1.39556334e-06 2.45236856e-06
      1.54174643e-06 2.32250770e-07 -2.86312661e-06 -5.16681393e-06
      -5.97825056e-06 -5.21006223e-06 -3.71882652e-06 -1.91780532e-06
      -1.07970993e-06 -1.64291848e-07 4.77627054e-07 -2.24183651e-07
      -1.53913732e-06 -1.37613188e-06 7.14842372e-07 1.53625638e-06
      7.48671084e-07 1.21099731e-07 5.31111311e-07 1.38138063e-07
      2.18122111e-07 -7.20450089e-07 -3.26073541e-06 -5.43942360e-06
      -6.18159993e-06 -5.41496547e-06 -2.26320162e-06 -9.11278278e-07
      -1.05531672e-06 -1.62031654e-06 -2.60569323e-06 -4.30562432e-06
      -7.29507155e-06 -1.07423630e-05 -1.24988464e-05 -1.09101293e-05
      -6.68180655e-06 -1.80014183e-06 1.02479703e-06 1.47671710e-06
      1.60334878e-06 8.67140045e-07 9.78397679e-07 1.13674696e-06
      6.27786278e-07 -1.51240613e-06 -1.71279726e-06 -4.41305048e-07
      1.88487525e-06 1.91997879e-06 -1.12655691e-07 -2.72751868e-06
      -3.95725192e-06 -3.80420647e-06 -3.39709140e-06 -2.19403614e-06
      -7.77391335e-07 2.36232168e-07 -2.43363530e-07 -1.45256638e-06
      -1.71085765e-06 -1.68618612e-06 -1.48569745e-06 -8.99810971e-07
      -7.07310335e-07 -1.59848673e-06 -1.97637405e-06 -1.43678244e-06
      -1.60088894e-06 -2.07219387e-06 -3.13183068e-06 -4.55742429e-06
      -5.10037580e-06 -4.68363532e-06 -2.51361075e-06 -4.30567042e-07
      8.97822588e-07 -3.45568395e-07 -1.80795189e-06 -3.63358618e-06
      -5.21554739e-06 -7.86391684e-06 -9.99009262e-06 -1.01026117e-05
      -8.20512741e-06 -5.12100405e-06 -1.68176098e-06 6.45799730e-07
      3.72702129e-06 2.09502036e-06 4.12075650e-07 -7.45745865e-07
      -1.62927699e-06 -3.97787107e-06 -5.13048963e-06 -3.76270509e-06
      -8.08473033e-07 9.08228060e-07 1.03600337e-06 -5.71817395e-07
      -2.14850866e-06 -1.83707266e-06 -1.84199769e-06 -1.76363892e-06
      -1.80106997e-06 -5.92527329e-07 -4.79811433e-07 -1.80290692e-06
      -3.67142979e-06 -3.23023096e-06 -2.79716505e-06 -2.41213115e-06
      -2.73290311e-06 -4.25608778e-06 -4.91544233e-06 -4.09155837e-06
      -3.92772654e-06 -4.61527816e-06 -6.03277249e-06 -6.07141965e-06
      -5.62803370e-06 -4.07030302e-06 -1.80201118e-06 -5.09006952e-08
      1.60456864e-06 2.14227157e-06 9.31112197e-07 -1.11219765e-06
      -2.54640872e-06 -3.73529747e-06 -5.08781613e-06 -6.18584272e-06
      -5.97398503e-06 -5.36016159e-06 -3.45185276e-06 -1.54696306e-06
      6.24771110e-06 4.76679406e-06 1.91508639e-06 -6.30376348e-07
      -2.89400623e-06 -4.98800500e-06 -5.50548975e-06 -5.21114089e-06
      -3.28939541e-06 -1.99814008e-06 -7.30728118e-07 -4.08392765e-07
      -1.25642146e-06 -1.33245214e-06 -1.44682485e-06 -1.35153994e-06
      -3.03277943e-06 -2.80311087e-06 -1.86296518e-06 -2.61348941e-06
      -4.40035865e-06 -4.51374717e-06 -3.99400960e-06 -3.05521121e-06
      -2.51373399e-06 -3.44331215e-06 -5.08681933e-06 -5.44826753e-06
      -4.61516220e-06 -4.69351789e-06 -6.52639164e-06 -7.02640000e-06
      -6.54796395e-06 -4.33418609e-06 -8.72008513e-07 1.16017168e-06
      2.51256529e-06 4.08799770e-06 4.51478900e-06 1.81453277e-06
      -7.55367466e-07 -2.29758825e-06 -2.93749645e-06 -3.61805905e-06
      -3.36082235e-06 -3.18607363e-06 -3.09527672e-06 -2.80234258e-06
      7.29904104e-06 5.98186807e-06 2.92613618e-06 -1.04408844e-06
      -3.94958852e-06 -5.49164770e-06 -5.41602230e-06 -4.81906454e-06
      -3.64235575e-06 -2.63310858e-06 -1.80527002e-06 -1.74092577e-06
      -1.86058287e-06 -2.82649421e-06 -3.04400328e-06 -2.10099006e-06
      -1.94743461e-06 -2.61363994e-06 -2.20064362e-06 -2.51812685e-06
      -4.07849075e-06 -4.66641586e-06 -4.44302395e-06 -2.56235785e-06
      -5.37983965e-07 4.00786284e-08 -1.11574752e-06 -2.79565279e-06
      -3.23537392e-06 -3.44098726e-06 -4.03028662e-06 -5.06268816e-06
      -5.57193744e-06 -5.22612436e-06 -2.18461810e-06 1.74331797e-06
      3.85229714e-06 5.29199042e-06 6.58064846e-06 5.77411038e-06
      2.15502791e-06 -6.47934598e-07 -2.82079282e-06 -4.56919315e-06
      -5.43148235e-06 -5.28226747e-06 -4.44615944e-06 -3.67605321e-06
      6.88988484e-06 6.50866150e-06 4.75259458e-06 1.19714150e-06
      -2.87537796e-06 -5.26884696e-06 -5.24639790e-06 -4.53689518e-06
      -2.97918837e-06 -2.16376498e-06 -1.58918851e-06 -1.34262439e-06
      -9.52996459e-07 -2.15388309e-06 -3.21385505e-06 -3.03335901e-06
      -2.26186125e-06 -6.08663299e-07 -3.07671485e-07 -1.15671344e-06
      -3.01375917e-06 -3.77951596e-06 -3.65566780e-06 -1.89087916e-06
      1.18684920e-06 2.79060350e-06 3.62438300e-06 2.22587050e-06
      1.87929481e-06 2.67964822e-07 -9.17453463e-07 -2.40830286e-06
      -3.82460485e-06 -4.45226306e-06 -3.69419308e-06 -1.09773327e-06
      2.37311974e-06 4.66927395e-06 5.13729628e-06 5.89292040e-06
      4.64909317e-06 2.31023409e-06 -2.69924442e-07 -3.22038409e-06
      -5.21345146e-06 -6.56200336e-06 -6.36327286e-06 -5.70181237e-06
      4.10343682e-06 4.87141961e-06 5.30754733e-06 3.88598983e-06
      1.09451571e-06 -1.77469656e-06 -3.54111899e-06 -3.43848365e-06
      -2.73010573e-06 -1.95973576e-06 -1.61366449e-06 -9.58389364e-07
      1.94125548e-07 7.68647055e-07 -4.35983281e-07 -2.04744583e-06
      -1.93051187e-06 1.93373396e-07 2.25542976e-06 2.40740201e-06
      8.24092695e-07 -5.94401115e-07 -2.14963802e-06 -1.09662790e-06
      1.51062511e-06 3.40124939e-06 3.84545683e-06 3.77272409e-06
      3.39709459e-06 2.72646503e-06 1.48376455e-06 5.67259974e-07
      -1.19972481e-06 -3.32264563e-06 -3.40055772e-06 -2.14436500e-06
      3.98444712e-07 2.74730314e-06 3.56495593e-06 4.32504248e-06
      4.45626847e-06 3.34160222e-06 1.34560037e-06 -8.94837910e-07
      -2.70798182e-06 -4.76591549e-06 -6.10746883e-06 -6.95799827e-06
      -2.22914238e-07 6.62962066e-07 2.51515644e-06 3.35748587e-06
      3.33039338e-06 2.13456065e-06 5.18174232e-08 -8.86455723e-07
      -1.64789788e-06 -1.71134809e-06 -1.93135315e-06 -2.42908368e-06
      -1.08952054e-06 8.57714042e-07 1.31669367e-06 -8.07778008e-07
      -1.29127864e-06 -5.22779146e-07 1.69758584e-06 4.18560558e-06
      4.48846322e-06 3.73551120e-06 2.21698315e-06 1.45186311e-06
      1.97708755e-06 3.03377101e-06 3.23925633e-06 1.53905046e-06
      8.60735611e-07 5.87158979e-07 1.05325148e-06 1.27431417e-06
      1.31598074e-06 3.25847139e-07 -1.39493636e-06 -2.43153750e-06
      -6.27911504e-07 1.40607744e-06 1.91100730e-06 3.32920445e-06
      4.45392379e-06 3.88234230e-06 2.03518766e-06 -3.06572588e-07
      -1.77238348e-06 -2.94866982e-06 -4.20500373e-06 -5.71906094e-06
      -2.94529309e-06 -3.09287725e-06 -1.18494563e-06 9.99554686e-07
      2.30966953e-06 2.94156621e-06 1.84473322e-06 1.33075127e-06
      4.87042030e-07 -5.24568726e-08 -5.63603066e-07 -1.67823328e-06
      -2.09801010e-06 -1.11817508e-06 -3.47529209e-07 -8.57495479e-07
      -2.04079174e-06 -2.82130190e-06 -1.30923854e-06 2.47378898e-06
      4.79622167e-06 5.71437749e-06 4.13840962e-06 3.35292430e-06
      2.29968737e-06 2.29232751e-06 1.12713019e-06 1.00046208e-07
      -8.72354121e-07 -1.89094453e-06 -1.25269389e-06 5.88567048e-07
      1.08785446e-06 1.32789137e-06 1.31367733e-06 3.10917443e-08
      -5.64770573e-07 2.66444943e-07 2.77365217e-07 1.20675031e-06
      2.05269180e-06 3.49920265e-06 3.81158588e-06 2.29716716e-06
      2.34987994e-08 -1.41723945e-06 -2.41097155e-06 -4.02859678e-06
      -2.23261122e-06 -2.83375243e-06 -2.32768434e-06 -5.68430039e-07
      1.66231564e-06 2.61587047e-06 2.56004137e-06 1.74545562e-06
      8.31060902e-07 1.50328958e-06 1.66357233e-06 1.74857200e-06
      7.23884568e-07 1.17734508e-07 1.22319804e-07 1.29441815e-07
      -5.82690177e-07 -2.67484734e-06 -3.97577560e-06 -1.23341954e-06
      2.06375330e-06 3.47057789e-06 3.11876443e-06 2.25403301e-06
      1.19977869e-07 6.66532628e-07 -9.50441233e-07 -1.85949477e-06
      -2.29519219e-06 -2.68119061e-06 -1.85541353e-06 -2.72596594e-07
      8.59291021e-08 3.74954610e-08 4.67078593e-07 1.65715016e-06
      1.20460140e-06 7.90919842e-07 3.13706998e-08 -3.53014116e-07
      -8.81328077e-08 6.84146642e-07 2.92258596e-06 4.55341205e-06
      3.39837902e-06 1.88122601e-06 1.03861350e-06 9.86290161e-09
      -2.31531885e-07 1.81312274e-07 2.47244316e-07 6.18519664e-07
      1.66674283e-06 2.82286987e-06 2.83247437e-06 7.51125810e-07
      -6.85924647e-07 3.60069293e-07 1.91870436e-06 4.07181278e-06
      5.02837520e-06 4.07840344e-06 2.66959319e-06 1.56322687e-06
      5.90785021e-07 -5.37081860e-07 -1.67200312e-06 -2.54753081e-06
      -9.62365903e-07 6.10081315e-07 9.79858214e-07 3.27708875e-07
      -1.54206123e-06 -1.65326674e-06 -2.57424404e-06 -3.25791007e-06
      -4.60288720e-06 -3.77209631e-06 -2.10953431e-06 1.19506481e-07
      6.69989561e-07 -9.59285444e-07 -9.69985649e-07 3.65480588e-07
      8.49151718e-07 1.35410619e-06 6.43475005e-07 -1.08439650e-07
      -4.66615944e-07 -9.76734668e-07 -5.82208543e-07 1.43530815e-06
      3.55813472e-06 4.18259242e-06 4.15641989e-06 3.38936388e-06
      4.61178189e-07 1.65504855e-06 1.75226512e-06 2.03128639e-06
      3.10441715e-06 3.98556404e-06 3.56614873e-06 3.12406399e-07
      -1.49237394e-06 -1.97477493e-06 4.24451969e-07 3.64652146e-06
      6.41527458e-06 7.30270949e-06 6.29025726e-06 3.69022723e-06
      1.27036674e-06 -1.14366408e-07 -2.02809730e-07 -1.16871581e-06
      -2.20345009e-06 -2.69758129e-06 -2.04336106e-06 -1.44364765e-06
      -2.39345286e-06 -3.45314766e-06 -3.75022205e-06 -3.71840815e-06
      -3.52690017e-06 -2.44395369e-06 -4.93255811e-07 6.68075359e-07
      7.68206007e-07 -1.82749645e-07 -1.24313112e-06 1.70439336e-07
      2.04673574e-06 1.85033593e-06 3.90785715e-07 -5.62149410e-07
      -8.50708091e-07 -2.26629695e-07 7.41877216e-07 1.33304945e-06
      2.57193983e-06 4.27778423e-06 6.12922395e-06 6.94407800e-06
      -1.72292641e-06 7.90272665e-08 1.12376119e-06 1.10228405e-06
      1.74043373e-06 2.71297085e-06 3.35497430e-06 1.20805487e-06
      -5.43632780e-07 -1.24845360e-06 -1.42552921e-07 2.40445661e-06
      4.92293475e-06 6.88023238e-06 7.53613404e-06 6.84075167e-06
      3.41637383e-06 7.79644836e-07 -4.08285539e-09 -1.21336370e-06
      -2.84256907e-06 -4.29500005e-06 -5.29764657e-06 -4.92107802e-06
      -4.42733426e-06 -4.37807103e-06 -5.14598378e-06 -3.34016568e-06
      -1.76888489e-06 1.20142101e-06 2.97295151e-06 2.83234067e-06
      1.47369201e-06 -4.57115618e-07 -1.14338411e-06 -6.68213431e-08
      3.00615602e-06 4.00282488e-06 2.05286938e-06 -4.27052100e-07
      -1.99247916e-06 -1.00402212e-06 1.39850181e-06 3.47453829e-06
      3.67691018e-06 3.81957761e-06 4.50655216e-06 5.67447705e-06
      -5.65220489e-06 -3.91439471e-06 -2.30124942e-06 -1.07044957e-06
      -1.25739643e-06 -8.28066902e-07 7.69368341e-07 1.25148722e-06
      1.38227813e-06 9.26464566e-07 2.68786835e-06 4.12375175e-06
      4.69893848e-06 5.07221284e-06 4.94621690e-06 5.97115786e-06
      5.63800359e-06 3.96668611e-06 2.26652742e-06 3.19811306e-07
      -1.83295037e-06 -4.68833696e-06 -6.64428990e-06 -7.47591230e-06
      -7.83160067e-06 -6.50449920e-06 -6.38707979e-06 -4.30704131e-06
      -2.40885015e-06 2.22388780e-06 6.42775558e-06 8.45831073e-06
      5.15306283e-06 -5.35464899e-08 -2.75576917e-06 -3.61625371e-06
      -2.55546723e-07 2.89186619e-06 3.33953130e-06 8.60135344e-07
      -2.28951990e-06 -3.05955632e-06 -1.26208377e-07 2.99555791e-06
      4.49159825e-06 3.56260944e-06 2.96523785e-06 3.05147637e-06
      -6.14374449e-06 -6.08695200e-06 -4.98375812e-06 -2.75934826e-06
      -1.60872025e-06 -1.87826367e-06 -8.55913811e-07 7.59279288e-08
      1.09835980e-06 1.76220135e-06 3.40324323e-06 4.91382389e-06
      3.73044099e-06 8.08793288e-07 1.14587614e-07 7.65290110e-07
      2.51447682e-06 3.96613859e-06 4.11194515e-06 3.11390545e-06
      6.86092221e-07 -2.31353761e-06 -4.05590845e-06 -5.77062156e-06
      -7.80188293e-06 -7.74547425e-06 -7.80892151e-06 -5.38943141e-06
      -3.77286483e-06 5.57547196e-07 5.03800538e-06 1.03681432e-05
      9.19079048e-06 3.35680170e-06 -3.41291434e-06 -6.59329726e-06
      -5.57652766e-06 -2.07892185e-06 8.45074283e-07 1.02494050e-06
      -1.49525647e-06 -3.69607505e-06 -2.99475664e-06 1.68021847e-06
      4.09391168e-06 4.41511429e-06 3.37126107e-06 2.13330827e-06
      -2.29123543e-06 -2.38172220e-06 -3.10087034e-06 -2.93343192e-06
      -1.05817151e-06 -2.69339409e-07 4.67974274e-07 4.53625660e-07
      5.21333902e-07 8.56084682e-07 1.04145408e-06 2.69422549e-06
      3.18614252e-06 -1.69043960e-06 -4.49145273e-06 -3.62192873e-06
      -2.02542947e-06 1.37561233e-06 2.08476831e-06 2.54707675e-06
      7.95254664e-07 2.69607312e-07 -7.91590196e-07 -1.42023271e-06
      -4.07716470e-06 -5.64513221e-06 -6.35464630e-06 -4.68304870e-06
      -3.05551157e-06 -2.10921280e-06 -7.91684613e-07 3.32449281e-06
      6.87393822e-06 5.43277883e-06 1.93138504e-07 -6.68743314e-06
      -8.24721610e-06 -5.85706630e-06 -3.96112318e-06 -2.02816773e-06
      -2.97952693e-06 -4.41362999e-06 -5.29899626e-06 -1.50122730e-06
      2.69163320e-06 4.92162690e-06 4.91487162e-06 3.86213014e-06
      1.22880465e-06 1.73066223e-06 2.43525437e-06 1.42845363e-06
      -2.75689587e-07 1.51679757e-07 2.13353451e-06 2.05526726e-06
      1.30883529e-06 2.55132568e-06 1.32208970e-06 4.50952683e-07
      1.32894320e-06 -6.06814240e-07 -4.47904677e-06 -6.51601431e-06
      -4.61811260e-06 -1.01513422e-06 3.10716814e-07 1.65023437e-06
      5.95645417e-07 -1.07367669e-06 -1.57564341e-06 -1.86495356e-07
      -1.36566678e-06 -2.15471141e-06 -3.73072817e-06 -3.04518858e-06
      -2.89218838e-06 -2.05529113e-06 -4.55403915e-06 -5.84943018e-06
      -1.98170824e-06 1.35732114e-06 1.54809538e-06 -2.86182421e-06
      -6.77791422e-06 -7.90539980e-06 -5.03549336e-06 -4.79816208e-06
      -5.28057171e-06 -5.99291479e-06 -6.28668340e-06 -4.93788457e-06
      -1.62683978e-06 3.07868982e-06 5.05331172e-06 5.39733082e-06
      1.91763411e-06 2.05592232e-06 3.32673949e-06 4.39765381e-06
      3.50412984e-06 1.91092795e-06 2.51522715e-06 2.43813543e-06
      2.97740962e-06 4.46689137e-06 3.21101174e-06 2.15023715e-06
      -3.31281882e-07 -1.26466648e-06 -2.71933277e-06 -7.19147965e-06
      -7.41236863e-06 -4.76018295e-06 -2.76985725e-06 -1.36534936e-06
      -5.49112116e-08 -1.66647897e-06 -3.51677431e-06 -2.52464361e-06
      -1.56501108e-06 -1.20170682e-06 -2.61054470e-06 -3.30949092e-06
      -4.04695038e-06 -3.30968828e-06 -2.30567480e-06 -8.16020565e-06
      -9.93865251e-06 -5.70408065e-06 -1.93511619e-06 -4.01380447e-07
      -2.31619083e-06 -4.65773564e-06 -5.15192733e-06 -3.54067788e-06
      -3.14397016e-06 -4.82349333e-06 -5.15658758e-06 -2.72958550e-06
      -1.06256621e-07 3.13679061e-06 4.50109064e-06 4.86055660e-06
      1.58212231e-06 4.20977898e-07 1.01080707e-06 2.87905527e-06
      4.01924672e-06 3.78331265e-06 3.34838273e-06 3.77302263e-06
      3.35953041e-06 3.97560689e-06 2.98989653e-06 2.20976949e-06
      8.16436909e-07 -2.26051657e-06 -2.27285977e-06 -3.42210478e-06
      -6.43848216e-06 -5.77929359e-06 -6.06830554e-06 -5.71904366e-06
      -5.54411508e-06 -5.66762810e-06 -4.22830226e-06 -4.42213741e-06
      -2.61796208e-06 -9.33675778e-07 -2.19190088e-06 -3.26897703e-06
      -4.86837507e-06 -6.49729282e-06 -3.64692914e-06 -4.62007984e-06
      -9.64897117e-06 -1.02462354e-05 -6.48162131e-06 -2.00290583e-06
      -4.88771434e-07 -1.89864309e-07 -2.57591864e-07 -1.72785087e-06
      -4.48593738e-07 -1.26168811e-06 -1.16085778e-06 8.75874264e-07
      3.29709542e-06 5.54056169e-06 5.97069766e-06 5.63475896e-06
      1.82345627e-06 4.58174654e-08 -1.03553225e-06 -1.62942811e-07
      2.28582212e-06 4.02412434e-06 3.59641444e-06 3.97724762e-06
      4.10666007e-06 3.53001997e-06 3.44167074e-06 2.60059460e-06
      2.48717356e-06 7.21431832e-07 -8.94760433e-07 -7.83864138e-08
      -6.73282557e-07 -2.71402610e-06 -4.26790075e-06 -6.85530949e-06
      -8.52561789e-06 -1.00817333e-05 -8.35992705e-06 -4.48946548e-06
      -1.80406028e-06 -1.17692764e-06 -3.07080569e-07 -1.10571114e-06
      -1.93544520e-06 -4.70513260e-06 -5.86094711e-06 -4.23915935e-06
      -5.33792354e-06 -8.04402953e-06 -7.91239017e-06 -4.52860832e-06
      -7.83735572e-07 1.45919819e-06 2.91499464e-06 3.18912453e-06
      2.12885743e-06 -1.86360325e-07 -1.22706138e-06 2.96091969e-07
      2.78200764e-06 4.81537290e-06 5.14912244e-06 4.93982134e-06
      1.88269644e-06 1.84637895e-06 7.66004916e-07 -3.73905607e-07
      4.56332600e-07 2.91298670e-06 4.17199044e-06 3.90671084e-06
      2.96435246e-06 1.92651714e-06 2.14378633e-06 3.48436356e-06
      4.65273797e-06 3.98860493e-06 1.87938610e-06 2.05470610e-06
      3.16593560e-06 2.97052702e-06 7.31135174e-07 -2.98266195e-06
      -7.23280482e-06 -9.80465666e-06 -1.02084978e-05 -7.34976766e-06
      -2.06924528e-06 -5.43645172e-07 -2.65910700e-07 -6.44187281e-08
      -1.06247299e-07 -5.53219650e-07 -2.75584443e-06 -4.67097379e-06
      -4.71221165e-06 -5.30271154e-06 -5.42231464e-06 -4.75550451e-06
      -2.18105083e-06 1.95495386e-06 3.70391740e-06 5.79211883e-06
      6.03383887e-06 2.75665002e-06 -9.56939971e-07 -1.79119081e-06
      -8.63168026e-08 1.79484834e-06 2.29506259e-06 2.37697600e-06
      3.27177099e-06 2.86002319e-06 2.24729638e-06 1.24917267e-06
      6.64340348e-07 1.71008139e-06 3.07958544e-06 3.45927174e-06
      2.18907644e-06 1.30873707e-06 8.19851323e-07 2.38584471e-06
      4.55984400e-06 7.06454375e-06 5.98533234e-06 4.25549933e-06
      4.99903445e-06 5.12956376e-06 4.89012336e-06 1.98168368e-06
      -2.04668140e-06 -5.91468279e-06 -8.16986358e-06 -8.17911496e-06
      -4.07457355e-06 -1.85777765e-06 2.66203273e-07 1.29314935e-06
      1.19937158e-06 8.76421041e-07 -3.64016444e-07 -1.79251515e-06
      -4.03557806e-06 -5.49909146e-06 -4.59040439e-06 -3.68929204e-06
      -3.58422972e-06 -2.99682512e-07 2.67404926e-06 5.21761740e-06
      6.16460420e-06 5.21187849e-06 1.46484524e-06 -2.38493067e-06
      -4.12597547e-06 -2.82627639e-06 -1.64246865e-06 -7.08513483e-07
      6.12061058e-06 4.76859987e-06 3.16490900e-06 1.65706149e-06
      5.36277412e-07 9.87227054e-07 1.84075293e-06 2.33592868e-06
      2.03855780e-06 7.90416152e-07 2.11362035e-07 7.76659817e-07
      2.59008630e-06 5.59517002e-06 7.26962435e-06 6.07111770e-06
      4.92349182e-06 3.88023682e-06 4.06751178e-06 3.52368488e-06
      1.85034185e-06 -1.07278345e-06 -3.65744086e-06 -6.08422533e-06
      -5.79693051e-06 -3.67881285e-06 -9.64087349e-07 1.67641258e-06
      3.74132992e-06 3.15182001e-06 1.92218272e-06 -2.54868233e-08
      -2.24910900e-06 -5.30928855e-06 -6.76101581e-06 -5.10851805e-06
      -3.38911718e-06 -9.38019468e-07 2.05018227e-06 5.02017701e-06
      5.26087297e-06 3.75231048e-06 9.70699148e-07 -2.21554114e-06
      -6.64829849e-06 -8.19129946e-06 -7.71156647e-06 -6.41815495e-06
      9.36746073e-06 7.68963400e-06 5.36249081e-06 2.05095444e-06
      -7.81368783e-07 -1.16570141e-06 -6.84604444e-08 1.02404010e-06
      7.89036278e-07 4.06957071e-07 3.28121558e-07 8.44815020e-07
      2.68949361e-06 4.56809494e-06 5.77712444e-06 5.16700447e-06
      3.84174655e-06 1.75975401e-06 5.20048616e-07 1.48857794e-06
      3.82073495e-06 4.91263108e-06 3.67934672e-06 -1.64555740e-06
      -7.00369628e-06 -7.20064145e-06 -3.71018609e-06 8.47772071e-07
      4.52907761e-06 5.34460696e-06 4.02431169e-06 1.77378365e-06
      -5.88824832e-07 -3.20611412e-06 -5.28082865e-06 -5.80683354e-06
      -4.52507993e-06 -2.04427738e-06 9.93471303e-07 4.20104016e-06
      6.19743150e-06 4.61146556e-06 1.22635936e-06 -2.50211247e-06
      -6.83419694e-06 -9.86253690e-06 -1.09648254e-05 -1.04432283e-05
      1.14433624e-05 1.01352534e-05 7.84483655e-06 4.23961092e-06
      4.97276517e-07 -1.02149841e-06 -1.21810082e-08 2.73140614e-07
      -5.37710946e-07 -9.86556685e-08 -2.59900474e-07 2.94659515e-07
      2.76239189e-06 5.32805279e-06 6.74620242e-06 6.33168975e-06
      5.90398804e-06 3.81397558e-06 8.68904010e-07 -7.25709128e-07
      1.26114708e-06 4.41657494e-06 7.28452824e-06 4.08066808e-06
      -3.79551921e-06 -7.38214294e-06 -6.26688507e-06 -1.73193973e-06
      3.33386220e-06 5.26895155e-06 4.11017118e-06 2.36499727e-06
      3.00955520e-07 -1.54426652e-06 -2.76787750e-06 -3.37238225e-06
      -3.91923277e-06 -3.19063474e-06 -7.44316651e-07 3.09134816e-06
      7.28256191e-06 6.63382798e-06 3.96782161e-06 -6.66837181e-08
      -4.56288853e-06 -7.77714649e-06 -9.77223408e-06 -9.79350443e-06
      9.05299567e-06 1.02766753e-05 1.01105334e-05 8.45799514e-06
      5.55428096e-06 2.52568680e-06 2.32519574e-06 2.98898021e-06
      2.07153744e-06 1.87772218e-06 6.68409371e-07 -6.79985135e-07
      9.78971116e-07 4.02203386e-06 7.12129713e-06 7.75491026e-06
      8.50798551e-06 7.28325494e-06 4.67315749e-06 5.34015157e-07
      -7.86385158e-07 -1.24340761e-06 3.96309269e-06 7.23595667e-06
      3.51195763e-06 -2.71611225e-06 -4.79512619e-06 -2.36593428e-06
      1.08067820e-06 3.65642859e-06 4.03165222e-06 2.21798632e-06
      5.91688774e-07 -2.89042333e-07 -8.92054402e-07 -1.42702947e-06
      -3.10139058e-06 -3.95967481e-06 -2.93083122e-06 1.78623608e-07
      4.62720573e-06 7.45451098e-06 7.66030098e-06 5.29005683e-06
      7.89813157e-07 -2.90014327e-06 -4.62046546e-06 -4.78025277e-06
      1.93706933e-06 4.74334138e-06 7.09994538e-06 8.20001696e-06
      8.68060124e-06 6.50189213e-06 4.85582495e-06 5.73917123e-06
      5.49505830e-06 4.37295284e-06 2.17626666e-06 9.41744958e-08
      5.12442000e-08 1.34626350e-06 4.20923379e-06 6.51676328e-06
      9.76393585e-06 1.00320449e-05 7.64945344e-06 4.33621744e-06
      1.96021756e-06 -2.07076482e-07 -2.80475263e-07 2.55149644e-06
      6.46126773e-06 5.03918727e-06 1.37332700e-06 1.15491423e-06
      2.13409203e-06 3.36344283e-06 2.43789418e-06 1.99484884e-06
      1.09817029e-06 3.39776335e-07 6.46796934e-07 2.28053789e-08
      -9.45927070e-07 -2.19693675e-06 -2.56144313e-06 -1.33066033e-06
      5.50201889e-07 3.53876680e-06 5.84883355e-06 6.54984524e-06
      4.59180774e-06 1.63493621e-06 -1.99478478e-07 -4.04589400e-07
      -2.48052743e-06 -2.42122746e-06 -1.25794691e-06 1.46664456e-06
      3.63773279e-06 5.43934493e-06 6.28108819e-06 5.40832161e-06
      5.48836942e-06 4.48443370e-06 2.20000675e-06 -3.90855739e-08
      4.24450690e-07 1.10903909e-06 1.75613945e-06 3.46694378e-06
      8.00742328e-06 1.01458609e-05 9.02324700e-06 6.47218440e-06
      3.21593211e-06 1.11854058e-06 -5.19229559e-07 -1.00310695e-06
      2.63005722e-06 6.05538253e-06 7.41296481e-06 6.23128244e-06
      5.58784814e-06 4.64121149e-06 1.55646046e-06 -9.39263529e-08
      5.69680196e-07 1.78458447e-06 2.23199186e-06 3.05402455e-06
      1.58672594e-06 -2.40843491e-07 -1.17721538e-06 -1.79587562e-06
      -1.76297351e-06 -1.22662914e-06 8.59758757e-07 3.03800243e-06
      2.59822400e-06 -3.11344991e-07 -1.85434067e-06 -8.81669337e-07
      -2.27533178e-06 -3.11417693e-06 -3.41003761e-06 -2.03129662e-06
      2.49116397e-07 1.77406059e-06 4.30934597e-06 4.78867332e-06
      3.59490696e-06 3.25196402e-06 1.44909336e-06 2.76824181e-07
      9.14175587e-07 2.02276283e-06 2.17989327e-06 2.26259522e-06
      4.84628117e-06 7.22465484e-06 8.49305161e-06 6.88480714e-06
      3.45754916e-06 -9.73868396e-07 -1.86587340e-06 -2.93013704e-06
      -9.49823800e-07 1.95081861e-06 4.99388079e-06 9.37885125e-06
      1.01275627e-05 7.67630627e-06 3.66465952e-06 1.49365505e-07
      -2.45469948e-07 1.39454937e-06 3.46264324e-06 4.83797112e-06
      3.17157992e-06 4.06234307e-07 -1.10199062e-06 -1.76365018e-06
      -9.71418444e-07 -1.56486294e-06 -9.03312298e-07 3.43307278e-07
      6.37467053e-07 -1.59535580e-06 -4.60877573e-06 -5.88524972e-06
      7.77203297e-07 -4.77167589e-07 -2.36349592e-06 -2.84299585e-06
      -1.42830334e-06 9.84572466e-07 3.39363919e-06 5.09861638e-06
      4.50951438e-06 3.60465469e-06 2.22728818e-06 -2.72904572e-07
      2.41192765e-07 1.98901239e-06 2.71603562e-06 8.99712177e-07
      1.20413040e-06 2.23467805e-06 2.90048933e-06 1.99045303e-06
      6.21122282e-08 -3.06520792e-06 -5.86592705e-06 -6.44291367e-06
      -5.91785056e-06 -2.30995488e-06 6.81645759e-07 3.01444311e-06
      7.08471498e-06 8.63885271e-06 5.06164588e-06 5.22879247e-07
      -5.09293272e-07 -3.31614814e-07 9.64686592e-07 4.08423330e-06
      4.13893531e-06 1.26948794e-06 -9.15465137e-07 -1.27909379e-06
      -5.42256124e-08 1.27147325e-06 1.54659858e-06 1.41385920e-06
      9.66175662e-07 -8.03574096e-07 -3.71518854e-06 -6.61823196e-06
      3.29539262e-06 2.54928705e-06 7.56912925e-07 -1.49186894e-06
      -3.06817878e-06 -1.19171693e-06 1.92059770e-06 4.42639657e-06
      6.06480626e-06 5.83184419e-06 4.28504563e-06 1.52724283e-06
      -1.44906630e-06 -5.60208377e-07 5.17588660e-07 -5.41364553e-09
      -1.66803227e-06 -3.27831003e-06 -3.21447055e-06 -4.73357886e-06
      -5.96410882e-06 -6.20598212e-06 -7.60345483e-06 -7.37416667e-06
      -7.89377827e-06 -9.15982673e-06 -6.46007356e-06 -2.99161889e-06
      -2.22792778e-06 2.19954677e-06 3.54099893e-06 1.65220968e-06
      -1.11454040e-06 -1.53038388e-06 -1.07845472e-06 1.66498489e-06
      3.27965449e-06 1.64047333e-06 -1.37707525e-06 -2.55986834e-06
      -5.43184967e-07 1.04277024e-06 2.21024902e-06 2.79643268e-06
      2.71163071e-06 2.42044939e-06 1.00701027e-06 -2.07704988e-06
      2.09118662e-06 2.78019479e-06 2.03266723e-06 1.11259374e-06
      -3.93116096e-07 -2.08126926e-06 -8.93616289e-07 2.99094239e-07
      2.58611703e-06 4.79229539e-06 4.48248647e-06 1.93425331e-06
      -2.75361140e-06 -4.79416394e-06 -3.63744743e-06 -3.00228271e-06
      -3.32329341e-06 -4.98223017e-06 -5.62057130e-06 -6.64661820e-06
      -8.27378608e-06 -7.15437545e-06 -5.07889899e-06 -4.83140275e-06
      -5.01702607e-06 -6.83798544e-06 -8.63607966e-06 -7.85453813e-06
      -7.13419468e-06 -6.06785352e-06 -2.30018986e-06 3.53073091e-07
      -1.45462721e-07 -2.08395159e-06 -3.23390395e-06 -1.44901446e-06
      1.98234102e-06 2.30477872e-06 -8.71259033e-07 -4.15554086e-06
      -4.30308273e-06 -1.89490845e-06 -6.85080806e-07 1.05018717e-06
      1.55903876e-06 2.47877347e-06 3.52168945e-06 2.55351915e-06
      -1.00592354e-06 4.97688177e-07 1.31793695e-06 1.65512540e-06
      1.25137490e-06 -8.10142240e-07 -3.04474588e-06 -3.20728009e-06
      -2.55599457e-06 -5.03554759e-07 1.91184472e-06 1.42227100e-06
      -1.96429050e-06 -5.28255669e-06 -6.10992629e-06 -4.72298871e-06
      -4.91843275e-06 -5.20777076e-06 -4.94897722e-06 -3.92150832e-06
      -3.19776564e-06 -3.51723020e-06 -2.20113725e-06 8.60965258e-07
      1.58441367e-06 5.73329203e-07 -6.93418087e-07 -3.75352374e-06
      -6.69217343e-06 -7.81595645e-06 -8.01923034e-06 -5.56935493e-06
      -2.01437865e-06 -9.78825938e-07 -1.89286231e-06 -2.84846669e-06
      -1.55977898e-06 1.36582935e-06 1.25577230e-06 -2.14031252e-06
      -5.47521722e-06 -5.52768006e-06 -3.69973941e-06 -2.00941122e-06
      -1.39795736e-06 -1.58872695e-06 -1.29159514e-06 -6.28415989e-07
      -9.91386628e-07 -7.88532532e-07 -3.22974103e-07 6.79712969e-07
      1.81922167e-06 9.71242798e-07 -2.04787716e-06 -5.29753925e-06
      -6.21379832e-06 -5.82936400e-06 -3.39500480e-06 -1.52341454e-06
      -1.86537773e-06 -2.74412241e-06 -5.07108734e-06 -5.03000865e-06
      -4.56769340e-06 -3.25557562e-06 -3.04080436e-06 -1.95240705e-06
      1.21174821e-06 2.79038568e-06 1.23967868e-06 2.45627893e-06
      4.68707594e-06 6.37722860e-06 6.64405616e-06 4.69545239e-06
      4.01146309e-07 -3.98678594e-06 -6.91809555e-06 -9.02980628e-06
      -6.02551745e-06 -2.28366230e-06 -2.87282148e-07 -7.81637652e-07
      -1.56111298e-06 -6.65692482e-07 1.33819435e-06 1.33529818e-06
      -2.01738226e-06 -4.57142687e-06 -4.89203012e-06 -3.30221565e-06
      -1.64111452e-06 -1.74933632e-06 -3.65665028e-06 -4.75826346e-06
      5.39690518e-07 -1.51106761e-07 -1.18702553e-06 -7.83248652e-07
      1.18151505e-07 9.32900377e-07 -3.74269945e-07 -4.63379774e-06
      -7.85891552e-06 -9.52750906e-06 -9.12163341e-06 -6.48485639e-06
      -4.52291442e-06 -3.32852028e-06 -4.57888109e-06 -4.19870412e-06
      -4.52474796e-06 -3.02632316e-06 -1.76291144e-06 -1.02326840e-06
      1.30635374e-06 4.74508988e-06 4.25032431e-06 2.69296561e-06
      3.22600704e-06 5.89506863e-06 7.13884219e-06 7.14510634e-06
      6.58767703e-06 1.88428476e-06 -1.56141334e-06 -6.71523867e-06
      -7.56862937e-06 -5.79063317e-06 -2.47405865e-06 -1.84461555e-06
      -2.17987827e-06 -1.77782670e-06 -4.93401899e-07 1.53222516e-06
      1.13879196e-06 -9.06134403e-07 -1.84279179e-06 -1.89227512e-06
      -4.29407748e-07 3.29964280e-07 -5.09157019e-07 -2.71349836e-06
      8.95830112e-07 9.46580201e-07 -6.07826337e-07 -4.99458906e-07
      9.42557605e-08 8.46564717e-07 2.94556258e-07 -2.59303943e-06
      -6.30303657e-06 -9.86179657e-06 -1.14662571e-05 -1.01723545e-05
      -7.38225253e-06 -4.32541037e-06 -5.31821070e-06 -6.30511158e-06
      -6.20307355e-06 -4.89116337e-06 -3.88600529e-06 -1.79665437e-06
      -3.23927452e-07 -4.26200387e-07 2.50634275e-06 1.79217000e-06
      -4.31103899e-07 2.46921303e-07 9.04926765e-07 3.70843082e-07
      2.29132752e-06 2.13483577e-06 2.82633096e-06 -1.78155949e-06
      -4.82368932e-06 -6.27575992e-06 -5.58769261e-06 -4.31379840e-06
      -4.31465287e-06 -3.49673951e-06 -1.88031709e-06 -3.33542800e-07
      9.78932235e-07 5.69329302e-07 8.24160509e-07 1.02586023e-06
      1.43057457e-06 1.68334930e-06 1.40762938e-06 3.92137309e-07
      4.73768665e-07 7.22035679e-07 2.90337727e-08 2.56752259e-07
      1.35404389e-06 1.99915917e-06 1.30466321e-06 -4.16401548e-07
      -2.85713554e-06 -5.75950617e-06 -8.91006403e-06 -9.12028099e-06
      -6.76566151e-06 -3.77112929e-06 -2.65614972e-06 -5.48237040e-06
      -9.41280905e-06 -9.36828746e-06 -6.88712589e-06 -3.08471795e-06
      5.76095147e-07 -7.56355348e-07 -2.56835369e-06 -9.92639912e-07
      -1.68193105e-06 -3.72234422e-06 -5.00741362e-06 -4.88393516e-06
      -3.88608169e-06 -1.41694511e-06 1.31020238e-06 1.64497033e-06
      -1.54289125e-07 -3.80284359e-06 -4.62311209e-06 -4.97933843e-06
      -5.13497071e-06 -4.06276013e-06 -3.18076582e-06 -1.65631809e-06
      -6.80536175e-07 -2.61831161e-07 6.28227781e-07 1.86780210e-06
      3.11578015e-06 3.54364306e-06 3.67397865e-06 3.07441269e-06
      -1.47493978e-07 3.48328285e-07 2.22888971e-07 5.53500456e-07
      1.84636303e-06 2.97669453e-06 2.77059507e-06 1.88344416e-06
      -2.73075671e-07 -2.53350117e-06 -4.73423415e-06 -6.58707222e-06
      -5.68958649e-06 -1.84795681e-06 1.06409470e-06 1.22145127e-06
      -3.49327206e-06 -8.83445409e-06 -8.69774340e-06 -3.71737224e-06
      1.31093088e-06 2.90894513e-06 1.49833340e-07 -2.35664083e-06
      -2.23972984e-06 -3.54894269e-06 -5.52081838e-06 -5.69721351e-06
      -5.39461280e-06 -4.90468528e-06 -2.67774067e-06 -5.50965012e-07
      1.83523548e-06 3.67337691e-07 -1.18966886e-06 -2.33177184e-06
      -3.57199701e-06 -3.47384866e-06 -2.32979369e-06 -1.16331455e-06
      -4.49108484e-07 -7.01885710e-07 -4.34333778e-08 1.72261616e-06
      3.39134203e-06 4.92579193e-06 5.34459969e-06 4.75832212e-06
      -1.65704409e-06 -3.34407360e-07 3.05996139e-07 8.95078927e-07
      1.62839581e-06 2.24548739e-06 2.69320026e-06 2.86110458e-06
      1.80581787e-06 4.69784482e-07 -1.03786681e-06 -1.65203551e-06
      -2.63807829e-06 -2.64008213e-06 -2.99293731e-07 2.58341061e-06
      1.96437213e-06 -1.57826628e-06 -4.45216483e-06 -2.35914490e-06
      2.44154535e-06 6.74108287e-06 6.11758287e-06 1.72208286e-06
      -2.12382270e-06 -2.96205008e-06 -3.83040651e-06 -4.94479764e-06
      -4.07480320e-06 -3.61509069e-06 -3.10023665e-06 -3.08924587e-06
      -5.26068050e-07 3.48009593e-07 3.02415359e-09 -8.57466375e-07
      -2.46132231e-06 -2.56624958e-06 -1.47805770e-06 -2.70305009e-07
      9.68689847e-07 2.41776831e-07 -2.12531575e-07 7.86346220e-07
      2.43344061e-06 3.91480307e-06 5.17024409e-06 5.36918606e-06
      -1.88328568e-06 -4.11005232e-07 5.11263579e-07 8.80970902e-07
      9.10679603e-07 3.25324208e-07 -7.21318258e-08 5.13968985e-07
      1.24573194e-06 1.82987014e-06 1.81476207e-06 1.62250319e-06
      1.82617362e-06 8.63441358e-07 -8.68421012e-07 -2.83036229e-07
      4.63417990e-07 6.86048480e-08 -1.43856926e-06 3.39629935e-07
      3.49742163e-06 7.80366372e-06 9.23263360e-06 6.24371114e-06
      1.73928845e-06 -1.96472297e-06 -2.85082433e-06 -2.60036290e-06
      -1.69218185e-06 -1.03882769e-06 -9.16011572e-07 -2.57464194e-06
      -2.56157932e-06 -2.36927235e-06 -2.77138884e-06 -1.68953102e-06
      -2.82689052e-06 -2.68895019e-06 -1.31471154e-06 -1.60265259e-08
      1.54473730e-06 1.62392280e-06 6.90093373e-07 -8.33728535e-08
      4.70197079e-07 1.82417273e-06 3.29189561e-06 4.26032875e-06
      -1.69665793e-06 -3.79377525e-07 6.90776687e-07 1.36653546e-06
      1.32909599e-06 2.72993248e-07 -8.96731535e-07 -2.31005356e-06
      -2.40000372e-06 -1.61385822e-06 8.25010815e-08 1.08024938e-06
      2.08062102e-06 2.74943523e-06 1.60185709e-06 -8.16244494e-07
      -2.90338721e-06 -2.37908034e-06 -3.44161208e-06 -1.34842628e-06
      2.21348796e-06 5.49381639e-06 7.69537019e-06 6.15910267e-06
      2.68746294e-06 -2.24351055e-07 -1.52030236e-06 -7.81776123e-07
      1.12360794e-06 2.02200795e-06 1.73210060e-06 1.54740619e-07
      -2.03908075e-06 -3.33161574e-06 -5.00650867e-06 -5.27649490e-06
      -5.74500427e-06 -3.86282818e-06 -1.19621654e-06 2.66365163e-07
      2.16572698e-06 2.78237371e-06 2.58873547e-06 9.97679422e-07
      8.48203285e-08 4.52237174e-07 1.41990620e-06 2.36494157e-06
      -1.95447001e-06 -9.82099323e-07 2.60478117e-07 1.08773554e-06
      1.80828863e-06 1.31003071e-06 4.61456580e-07 -8.99558415e-07
      -2.59482840e-06 -3.59736600e-06 -3.90083005e-06 -3.36202197e-06
      -1.93284632e-06 9.19678484e-08 1.55213343e-06 2.93380310e-07
      -3.51244421e-06 -4.89272816e-06 -6.30326258e-06 -6.71695580e-06
      -2.74385638e-06 2.30624232e-06 3.74240017e-06 3.87657474e-06
      9.19564229e-07 -1.88227909e-06 -2.07514745e-06 2.36303620e-07
      2.90880394e-06 5.85762064e-06 4.36142636e-06 3.05214462e-06
      4.34351847e-07 -2.98776422e-06 -5.69229042e-06 -7.49601713e-06
      -8.64158847e-06 -6.36428103e-06 -3.32605805e-06 -4.46425389e-07
      1.46661091e-06 2.27585565e-06 2.92893515e-06 2.36788333e-06
      8.84497410e-07 9.92709943e-07 1.57008969e-06 2.00589375e-06
      -1.82371366e-06 -2.63970674e-06 -2.10186840e-06 -1.16332865e-06
      4.86267538e-07 1.47428727e-06 2.16781814e-06 2.24656105e-06
      1.40221994e-06 -5.20439244e-07 -2.55044574e-06 -3.90582863e-06
      -5.67972393e-06 -5.06975721e-06 -1.71748070e-06 7.56299357e-07
      -2.41758244e-07 -3.08534982e-06 -4.99711132e-06 -6.14793271e-06
      -5.70791053e-06 -1.22114454e-06 1.62735500e-06 1.69315103e-06
      -1.59620853e-07 -3.92324682e-06 -5.32474223e-06 -2.37520931e-06
      1.04138383e-06 5.02146895e-06 5.85052067e-06 5.30352918e-06
      1.47694880e-06 -1.70323051e-06 -4.77491494e-06 -7.46379192e-06
      -9.15362398e-06 -7.92501487e-06 -5.40735709e-06 -2.77353070e-06
      -9.35227035e-07 1.89240922e-07 7.68203847e-07 1.02892341e-06
      1.15224577e-06 1.75489083e-06 2.44420357e-06 2.51194479e-06
      -6.43114902e-07 -2.40780582e-06 -3.91559161e-06 -3.74886031e-06
      -2.92026243e-06 -1.00951024e-06 1.26684210e-06 3.02798139e-06
      3.57115755e-06 2.85449642e-06 1.38063024e-06 -6.03642320e-07
      -2.08884626e-06 -3.85159046e-06 -3.36228231e-06 -2.42145788e-08
      1.76037418e-06 1.33042772e-06 -7.85459463e-07 -3.04274977e-06
      -3.71632586e-06 -1.07559651e-06 1.04938374e-06 1.93809501e-06
      7.95308381e-07 -1.69978568e-06 -4.84315615e-06 -5.90620266e-06
      -3.58092029e-06 1.71610873e-06 3.56221676e-06 4.60606361e-06
      2.05123229e-06 -8.12459689e-07 -4.29745251e-06 -6.50132051e-06
      -6.28981388e-06 -5.09894380e-06 -4.20171091e-06 -3.08078666e-06
      -2.44578155e-06 -2.33916080e-06 -2.03607169e-06 -7.97450070e-07
      8.92289847e-07 1.98586963e-06 2.84094631e-06 2.86893010e-06
      -5.89522642e-07 -1.72935029e-06 -3.71066085e-06 -4.87002171e-06
      -5.46559477e-06 -5.33429238e-06 -3.57561362e-06 -9.02712074e-08
      2.64697314e-06 3.96769929e-06 3.45510489e-06 2.44277908e-06
      2.21034225e-06 7.33219167e-07 -7.93171182e-07 2.19339029e-07
      2.32575917e-06 1.89297145e-06 -9.14078328e-07 -3.34720858e-06
      -3.15697957e-06 -4.10163580e-07 9.35129776e-07 3.21451594e-08
      -1.08966105e-06 -2.58969976e-06 -3.17384183e-06 -5.37893584e-06
      -5.59122327e-06 -1.19473862e-06 2.77203344e-06 5.14774501e-06
      3.63712047e-06 1.20609252e-06 -2.25209806e-06 -4.36821119e-06
      -3.74694605e-06 -1.24450082e-06 -1.50300892e-07 -1.36322569e-07
      -5.47081413e-07 -1.83980274e-06 -2.73023170e-06 -1.28127715e-06
      1.37990151e-06 2.94849087e-06 3.51556150e-06 3.41488976e-06
      -1.24368444e-06 -1.47061155e-06 -2.24656696e-06 -2.82429846e-06
      -3.50524419e-06 -5.39682014e-06 -7.20091384e-06 -5.43668148e-06
      -1.51916322e-06 2.80569498e-06 4.89954346e-06 4.18379295e-06
      4.09403538e-06 2.61699756e-06 4.43220131e-07 -9.17071361e-07
      4.39912213e-07 2.15684986e-06 9.18215392e-07 -2.06541131e-06
      -3.83720817e-06 -2.88289107e-06 3.19260351e-07 -1.10013252e-06
      -3.24854932e-06 -5.45022021e-06 -3.61950401e-06 -3.33819708e-06
      -5.09963093e-06 -4.14783926e-06 -4.96673529e-08 3.97882832e-06
      4.92374102e-06 2.57310899e-06 -2.61990152e-07 -1.75567425e-06
      -1.97771737e-06 -2.69542141e-07 1.81448536e-06 3.10935661e-06
      2.36083406e-06 8.94004813e-07 -7.78117283e-07 -2.37399504e-07
      2.16414355e-06 4.17548245e-06 4.85472219e-06 4.69068755e-06
      -2.39285305e-06 -2.11214297e-06 -1.94019844e-06 -9.29903479e-07
      1.67004430e-07 3.90187239e-07 -2.59127432e-06 -5.88487183e-06
      -6.55647591e-06 -2.17515117e-06 3.41985424e-06 5.70801012e-06
      5.23180961e-06 3.18536127e-06 -1.61290501e-07 -2.31023978e-06
      -3.80407482e-06 -2.09637642e-06 3.67263738e-07 -3.23919721e-07
      -2.76606625e-06 -4.46643025e-06 -2.88994556e-06 -1.62048343e-06
      -3.56963210e-06 -6.21745266e-06 -5.74786191e-06 -3.18110915e-06
      -2.64587038e-06 -3.68771066e-06 -2.97816246e-06 9.28801285e-08
      2.91192760e-06 2.30061437e-06 6.49723574e-07 -1.16299236e-06
      -2.43125146e-06 -1.26887994e-06 2.69475429e-08 1.60677826e-06
      3.17298350e-06 2.66503139e-06 2.09441464e-06 2.18013906e-06
      3.18923730e-06 4.98986083e-06 6.31503735e-06 6.43391058e-06
      -3.31870797e-06 -3.48548997e-06 -3.79766243e-06 -2.54164070e-06
      -1.19550194e-07 2.87491571e-06 3.46382535e-06 -8.16858403e-07
      -4.03406648e-06 -5.14262183e-06 -2.00478416e-06 3.72582372e-06
      6.65619518e-06 4.39583982e-06 8.24563458e-08 -3.50960750e-06
      -6.19169623e-06 -7.37550226e-06 -4.74247372e-06 -1.77135928e-06
      -1.08452264e-06 -3.24084249e-06 -4.26623137e-06 -3.90726382e-06
      -5.37615733e-06 -7.14292719e-06 -7.38741528e-06 -4.81858069e-06
      -1.41787768e-06 -8.82169047e-07 -7.54159430e-07 -3.22739702e-08
      1.24915559e-07 -5.84553106e-07 -1.36956794e-06 -2.46421519e-06
      -3.82238295e-06 -4.34714730e-06 -3.28308511e-06 -1.53406495e-06
      4.80122502e-08 1.09026212e-06 2.28064232e-06 3.07557139e-06
      3.62852438e-06 4.64329514e-06 6.21343770e-06 7.09635833e-06
      -5.19711102e-06 -2.23997154e-06 -2.79501791e-07 -2.58435739e-06
      -4.76933201e-06 -2.65592644e-06 8.55481801e-07 2.81502525e-06
      1.73926981e-06 -2.22240814e-07 -5.82941948e-06 -1.05971640e-05
      -1.22684978e-05 -1.08625436e-05 -6.58221097e-06 -1.02713443e-06
      3.97408803e-06 5.97436974e-06 1.84839007e-06 -2.67097198e-06
      -6.08981145e-06 -7.54248549e-06 -4.13415182e-06 1.28447437e-06
      2.00339127e-06 1.11175416e-06 1.83728559e-07 -9.06928733e-07
      -1.56446424e-06 -3.15244847e-06 -4.73794989e-06 -3.93443315e-06
      -2.76269429e-06 -2.26348152e-06 -3.73963280e-06 -3.44171508e-06
      -3.57058383e-07 3.86005581e-07 2.50480230e-06 3.97806434e-06
      4.97582676e-07 -5.30298166e-06 -9.37669301e-06 -8.87100941e-06
      -4.46562308e-06 3.86258883e-08 3.10183373e-06 4.17430283e-06
      -3.62926608e-06 -3.66758309e-06 -2.24711152e-06 -3.32586910e-06
      -5.11254484e-06 -3.28208512e-06 -9.66583002e-07 1.81606242e-06
      2.22057838e-06 9.21875653e-07 -4.39626956e-06 -1.00495326e-05
      -1.17141308e-05 -1.07473179e-05 -7.54503708e-06 -2.39145197e-06
      2.08754545e-06 5.34994797e-06 2.81612051e-06 -2.28836120e-06
      -5.90687796e-06 -8.08383902e-06 -5.91321350e-06 2.34709219e-07
      1.79896722e-06 2.22444996e-07 -5.91093851e-07 -1.46112507e-06
      -1.59348247e-06 -2.70115834e-06 -4.60314823e-06 -4.50853122e-06
      -3.00484521e-06 -2.00028853e-06 -2.67374321e-06 -3.14557792e-06
      -9.05766115e-07 5.27519148e-07 1.29033640e-06 3.50425239e-06
      1.56433998e-06 -4.20921106e-06 -8.87121860e-06 -1.06751704e-05
      -6.51449318e-06 -3.24445836e-07 3.42336057e-06 4.27548957e-06
      -2.37656968e-06 -3.85592830e-06 -3.59706405e-06 -4.59083822e-06
      -5.51238918e-06 -3.81510017e-06 -1.87374656e-06 -1.39688694e-07
      1.54407076e-06 1.21368907e-06 -3.38606333e-06 -8.91070522e-06
      -1.13449305e-05 -9.91504203e-06 -6.86560361e-06 -3.61640286e-06
      2.50278106e-07 2.59808894e-06 1.46486616e-06 -2.75789557e-06
      -5.68823907e-06 -7.88356374e-06 -6.94598975e-06 -8.89521857e-07
      1.78744460e-06 -3.56768481e-09 -6.65333800e-07 -1.63669824e-06
      -2.21334881e-06 -2.59772196e-06 -4.29641523e-06 -4.74192666e-06
      -3.38190944e-06 -2.62571029e-06 -2.34461368e-06 -2.00601039e-06
      -1.07523093e-07 1.61926869e-06 1.08705569e-06 2.63147308e-06
      2.26112843e-06 -2.53321400e-06 -6.84672477e-06 -1.02960967e-05
      -9.36720789e-06 -2.95850782e-06 2.95937662e-06 4.76922514e-06
      -3.04777177e-06 -3.79886114e-06 -4.12266309e-06 -5.05166281e-06
      -5.34614628e-06 -4.13855741e-06 -2.52272139e-06 -1.48991160e-06
      2.81985734e-07 8.83562222e-07 -2.33970695e-06 -7.38631661e-06
      -9.78642765e-06 -9.00282430e-06 -5.57572503e-06 -4.32509250e-06
      -1.02213414e-06 7.49340586e-07 -1.26665759e-06 -4.89594095e-06
      -6.18698277e-06 -7.20086882e-06 -7.08547213e-06 -2.90508524e-06
      1.02660067e-06 8.68096720e-07 9.45061913e-08 -1.81591076e-06
      -3.76754224e-06 -4.19851358e-06 -3.45225749e-06 -4.13350062e-06
      -3.37438996e-06 -2.06010918e-06 -1.41640203e-06 -5.81535403e-07
      1.90816922e-06 3.89513480e-06 2.76748915e-06 2.23512689e-06
      2.20114816e-06 4.51924258e-08 -3.36001449e-06 -7.86152395e-06
      -9.44504882e-06 -6.26991186e-06 5.15482157e-07 3.72906015e-06
      -3.79614357e-06 -4.24494101e-06 -4.61940454e-06 -5.28948794e-06
      -5.32530021e-06 -3.99258988e-06 -2.03935997e-06 -2.35213270e-06
      -5.20543267e-07 2.48224183e-07 -1.12326552e-06 -4.57145507e-06
      -7.33062143e-06 -7.28825080e-06 -4.17754745e-06 -3.06014340e-06
      -2.53568874e-06 6.59462444e-07 -6.06817025e-07 -5.92274409e-06
      -7.77883906e-06 -6.32523324e-06 -5.79341076e-06 -3.61907610e-06
      6.20420337e-07 1.51922529e-06 1.50042126e-06 -1.80356619e-08
      -3.77219703e-06 -5.76633420e-06 -5.21247239e-06 -3.70231260e-06
      -2.37763970e-06 -5.42599480e-07 1.66339760e-08 -6.85079797e-08
      2.07436869e-06 5.66103199e-06 5.60809349e-06 3.27576026e-06
      1.22482083e-06 -1.84800484e-07 -9.56237272e-07 -3.32986770e-06
      -6.37708354e-06 -7.01065119e-06 -2.86214663e-06 6.17009732e-07
      -3.46924253e-06 -4.13488851e-06 -4.63244896e-06 -4.92687241e-06
      -3.99921919e-06 -3.45767944e-06 -2.21865844e-06 -2.47306912e-06
      -1.64414644e-06 1.15164667e-07 -3.98058177e-07 -2.46123659e-06
      -4.41578186e-06 -5.65733899e-06 -3.42374460e-06 -2.95122004e-06
      -4.38686811e-06 -2.64562777e-06 -2.32091736e-07 -3.94086146e-06
      -7.23843414e-06 -6.38541269e-06 -4.54409201e-06 -2.74572267e-06
      3.99361738e-07 1.87532032e-06 3.20031927e-06 2.76614787e-06
      1.50447335e-07 -4.86700173e-06 -5.80896540e-06 -4.75161096e-06
      -1.98310863e-06 7.81915276e-07 1.53584483e-06 9.38683570e-07
      1.79380720e-06 4.79762230e-06 6.32035108e-06 4.45306159e-06
      1.77624827e-06 -9.20616401e-07 -7.26591793e-07 -1.10400447e-06
      -3.21987523e-06 -4.61810760e-06 -4.53881967e-06 -1.63146444e-06
      -2.00204272e-06 -4.15328395e-06 -5.03368028e-06 -4.54735618e-06
      -3.61673710e-06 -1.86290845e-06 -1.75248010e-06 -2.10046005e-06
      -2.23081497e-06 -6.93698681e-08 2.63849557e-07 -8.76888691e-07
      -2.35524135e-06 -3.45260355e-06 -3.17150898e-06 -3.66899985e-06
      -5.27872544e-06 -6.17573960e-06 -3.45355716e-06 -1.52957000e-06
      -4.41679322e-06 -4.81979032e-06 -4.03312970e-06 -2.95254472e-06
      4.71333436e-07 2.14300530e-06 4.09735139e-06 4.52910263e-06
      2.91000401e-06 -2.04435355e-06 -5.36728112e-06 -4.96512348e-06
      -2.67225573e-06 6.37042916e-08 1.75613968e-06 1.74479396e-06
      1.47660228e-06 2.30659384e-06 3.69979352e-06 2.67775295e-06
      1.80618343e-07 -1.21963819e-06 -1.23200402e-06 -7.27438703e-07
      -7.35241713e-07 -1.90288733e-06 -1.92288121e-06 -2.63802872e-06
      -1.04327216e-06 -3.67682765e-06 -4.93261450e-06 -4.43346789e-06
      -2.47527305e-06 -1.24192059e-06 -1.46325795e-06 -5.92674382e-07
      -1.34895879e-06 2.60691611e-08 1.30925719e-06 2.72447608e-07
      -1.29572970e-06 -2.54919837e-06 -3.25952124e-06 -3.83381575e-06
      -5.05467551e-06 -6.71080716e-06 -6.27788768e-06 -2.77684512e-06
      -1.02303295e-06 -2.13935664e-06 -3.36310882e-06 -3.46730008e-06
      -9.59514523e-07 1.47206151e-06 2.28155727e-06 4.99055568e-06
      3.70897897e-06 -5.97504993e-07 -3.95721236e-06 -3.36828089e-06
      -2.51596430e-06 -6.80461255e-07 -1.06228704e-07 1.29143541e-06
      1.62104777e-06 7.70591043e-07 2.15155666e-07 -1.55094256e-07
      -1.84144028e-06 -2.35288053e-06 -2.11993211e-06 -1.04351602e-06
      -2.55648672e-07 -5.46782587e-07 2.89246440e-08 -6.73721559e-07
      1.26486759e-06 -3.18082675e-06 -4.79340997e-06 -3.73061289e-06
      -1.46695515e-06 3.86167869e-07 -3.56467439e-07 -2.41794737e-07
      -3.31452270e-07 2.08270450e-07 2.05302763e-06 1.55660280e-06
      -3.57177726e-07 -1.18273147e-06 -1.71487511e-06 -2.24695873e-06
      -4.16512512e-06 -5.54152075e-06 -7.14650105e-06 -5.71667442e-06
      -1.69524731e-06 -7.74540396e-08 -5.72922886e-07 -2.62452454e-06
      -2.83498980e-06 -5.82599455e-07 -7.19022239e-07 9.14410180e-07
      2.85242777e-06 -7.80441837e-07 -2.81102552e-06 -2.18458899e-06
      -4.25141451e-07 -1.25284515e-07 -1.04705373e-06 -1.53416877e-07
      5.70735608e-07 -8.02025795e-07 -2.45269484e-06 -3.78552863e-06
      -5.32308650e-06 -5.40159772e-06 -3.43174247e-06 -6.46378112e-07
      7.04132859e-08 -4.87459261e-07 7.29147416e-07 1.99420197e-06
      2.91559036e-06 -1.21243147e-07 -3.76476601e-06 -3.99753753e-06
      -1.72154830e-06 1.89382092e-06 1.60472712e-06 -1.06557643e-07
      -2.69685245e-07 3.93220262e-07 1.90539492e-06 2.82957581e-06
      1.59163369e-06 -5.13958298e-07 -6.54245866e-07 -4.62425163e-07
      -1.56106398e-06 -3.20630966e-06 -5.39517032e-06 -6.41380029e-06
      -4.32287743e-06 -5.99624741e-08 3.68787767e-07 -5.74558612e-07
      -3.03094248e-06 -3.62150718e-06 -3.61459774e-06 -3.91586264e-06
      -5.78895708e-07 -1.74920478e-06 -3.24487110e-06 -1.87363753e-06
      5.49257891e-07 1.19195022e-06 -1.04429728e-06 -1.28860847e-06
      -3.76556585e-07 -1.38878920e-06 -3.94629569e-06 -4.27867235e-06
      -6.34339676e-06 -6.95475910e-06 -5.65646360e-06 -1.44521675e-06
      4.33694538e-07 -8.15467047e-07 -3.39837896e-07 2.41831049e-06
      1.68187819e-06 1.05517472e-06 -1.30099136e-06 -2.14378520e-06
      -9.12589371e-07 2.80670679e-06 4.30327191e-06 1.74901572e-06
      -6.29141141e-07 -9.44928829e-08 7.65371112e-07 2.46096101e-06
      2.82511701e-06 7.58591568e-07 3.51283802e-07 8.49379262e-07
      7.74825764e-07 -9.67593110e-07 -2.98940017e-06 -4.79540358e-06
      -4.89038439e-06 -3.21831453e-06 1.84721017e-07 -4.04858866e-07
      -2.11445240e-06 -4.60723504e-06 -5.24744473e-06 -5.55513361e-06
      -3.73118564e-06 -3.38720633e-06 -3.92288030e-06 -2.95784753e-06
      -8.34139087e-08 1.62531501e-06 -1.13382373e-06 -1.08725601e-06
      5.25491089e-07 3.22788367e-07 -2.93499488e-06 -4.82633459e-06
      -5.92710057e-06 -7.75906301e-06 -6.65922471e-06 -1.45052002e-06
      2.94492611e-06 1.19809363e-06 -1.03691582e-06 1.14721229e-06
      -1.00919397e-06 7.73015472e-07 -2.70495576e-07 -8.10204654e-07
      -5.63870913e-07 2.56054091e-06 6.10793495e-06 4.36812525e-06
      1.20370441e-06 -2.87048465e-07 5.19328523e-07 1.96643782e-06
      2.87220814e-06 1.74575791e-06 -5.88716667e-08 3.25835174e-07
      2.36027017e-06 2.24972996e-06 2.74958609e-07 -2.75481148e-06
      -4.60489264e-06 -3.65193705e-06 -2.47537446e-06 -9.48644981e-07
      -2.06811546e-06 -4.64738787e-06 -6.34741627e-06 -5.68115865e-06
      -4.27188934e-06 -3.85970270e-06 -4.83628992e-06 -4.24589780e-06
      -2.89100899e-06 -7.49520666e-07 -2.15215823e-06 -2.25597546e-06
      1.81625569e-06 3.46635125e-06 7.40091536e-07 -3.29560044e-06
      -3.97789154e-06 -5.10628979e-06 -5.47303216e-06 -2.03927152e-06
      3.52363350e-06 3.47501054e-06 -1.52301581e-07 1.33360601e-07
      -3.88012313e-06 -2.27797523e-06 -1.12659279e-06 -5.92553647e-07
      3.32521637e-08 2.04457797e-06 6.73457589e-06 6.51153778e-06
      3.78317168e-06 1.64628466e-06 7.94305322e-07 1.19241236e-06
      1.71162378e-06 8.82380107e-07 -1.48733045e-06 -2.49860409e-06
      -1.50226796e-07 2.67207815e-06 3.33752655e-06 7.91830814e-07
      -2.30332330e-06 -3.08079825e-06 -3.60510921e-06 -2.93671883e-06
      -2.81589450e-06 -3.97387657e-06 -5.97337475e-06 -4.22780749e-06
      -3.02087346e-06 -2.96244843e-06 -4.03483500e-06 -3.93326809e-06
      -3.54891245e-06 -3.48536901e-06 -3.26230929e-06 -4.01769012e-06
      5.00062299e-07 5.07502955e-06 4.18704758e-06 -5.91522394e-07
      -3.24830921e-06 -3.13744113e-06 -2.55897544e-06 -9.72496423e-07
      3.38815539e-06 4.11482915e-06 1.69837176e-06 -3.33226460e-08
      -3.35456434e-06 -4.01116313e-06 -2.10167400e-06 -8.60292118e-07
      -3.91096137e-07 5.65369362e-07 4.21217464e-06 5.39281609e-06
      4.79599294e-06 2.96676535e-06 1.26368957e-06 1.07207946e-07
      9.02833392e-07 -9.91871957e-07 -2.07165817e-06 -4.73596947e-06
      -4.05557967e-06 -6.34060541e-07 2.64324831e-06 3.80894380e-06
      6.50952927e-07 -2.31137847e-06 -3.30876333e-06 -4.30469208e-06
      -3.80715119e-06 -3.41975488e-06 -4.42738110e-06 -1.96439169e-06
      4.06270090e-07 -2.39292632e-07 -1.47498747e-06 -7.65596269e-07
      -5.41087388e-07 -4.04502362e-06 -5.48505113e-06 -5.29457975e-06
      -1.86351770e-06 3.10554469e-06 7.00607370e-06 3.63767617e-06
      -1.04674780e-06 -1.20986010e-06 -3.08197031e-07 4.45557220e-07
      2.28897147e-06 3.27553516e-06 2.05869742e-06 3.16627904e-07
      -4.32264358e-07 -8.97843563e-07 -1.75647745e-06 -9.74077579e-07
      -3.16498330e-07 2.41157039e-07 4.85655050e-07 2.01022522e-06
      2.83861800e-06 2.45372985e-06 1.85553267e-06 2.74967192e-07
      -3.36300985e-07 -1.73375111e-06 -3.49786910e-06 -5.31393198e-06
      -6.54684163e-06 -3.75066520e-06 -4.97262924e-08 3.71298802e-06
      3.67842381e-06 3.42857447e-07 -2.93608673e-06 -3.30112425e-06
      -4.36029177e-06 -3.09179313e-06 -2.33282185e-06 -7.52262793e-07
      2.45413480e-06 1.84741930e-06 5.52731194e-07 1.53412168e-06
      2.74538320e-06 -2.03390573e-06 -7.41844724e-06 -7.16198156e-06
      -2.82120686e-06 1.56984845e-06 5.78945446e-06 6.61538934e-06
      1.26826001e-06 -1.48204686e-06 1.00202885e-06 2.45441902e-06
      2.85939518e-06 3.02803528e-06 2.93327025e-06 2.09743916e-06
      -2.08790887e-08 8.23335881e-07 2.81352584e-07 -4.64135780e-07
      -5.96508244e-07 -3.96724005e-08 -1.73878993e-06 -1.50768994e-06
      -7.21787274e-07 -1.08344341e-06 -6.21337392e-07 -8.05232276e-07
      -1.59543777e-06 -1.73616195e-06 -3.75696141e-06 -5.52032770e-06
      -6.76166019e-06 -6.45311684e-06 -3.16525689e-06 1.12161558e-06
      3.43273882e-06 2.88824708e-06 -2.41078681e-07 -1.36682695e-06
      -2.65904350e-06 -4.01572515e-06 -1.93680876e-06 7.33043009e-07
      2.46834111e-06 3.32701870e-06 2.47140247e-06 2.03981335e-06
      3.21727725e-06 1.60350498e-06 -6.71939733e-06 -9.01800468e-06
      -5.09675510e-06 -1.68087439e-07 3.25180736e-06 6.32504361e-06
      3.33872049e-06 -1.15864827e-06 -7.49499691e-07 2.23667962e-06
      3.91432650e-06 4.26413635e-06 2.99825547e-06 2.67341466e-06
      1.21696246e-06 2.22732479e-06 1.75111506e-06 5.19098478e-07
      -6.34767730e-07 1.64249254e-08 3.66632165e-08 -2.24435053e-06
      -3.46873685e-06 -4.44574744e-06 -4.53884559e-06 -3.76364187e-06
      -3.40899669e-06 -2.91740548e-06 -4.74810668e-06 -5.83393148e-06
      -6.44436795e-06 -6.46401895e-06 -6.10531788e-06 -5.41244454e-08
      1.95703706e-06 2.11123415e-06 9.93196181e-07 5.47005982e-07
      4.34833453e-07 -4.30063710e-06 -3.97155554e-06 -6.88729855e-08
      2.80232280e-06 2.96831945e-06 2.49981008e-06 1.07254641e-06
      1.84421970e-06 3.12995076e-06 -3.34891160e-06 -7.74783530e-06
      -5.74276282e-06 -1.25341262e-06 2.37673362e-06 3.02972103e-06
      2.88093383e-06 -6.02102944e-07 -2.02652768e-06 4.03618287e-07
      3.34706260e-06 5.93630921e-06 5.03266892e-06 3.48924777e-06
      -6.74562727e-07 2.75768400e-07 7.67788720e-07 1.88468604e-07
      3.00409759e-08 8.75813981e-08 1.03814250e-06 -1.09348309e-06
      -3.61207958e-06 -5.56386522e-06 -5.80222832e-06 -5.82939992e-06
      -5.65914434e-06 -4.99262887e-06 -7.47780769e-06 -7.08032394e-06
      -4.98316876e-06 -4.45817432e-06 -5.63289768e-06 -1.32894468e-06
      3.63624076e-06 2.17505226e-06 1.16437786e-06 1.33605829e-06
      3.53280166e-06 -3.38833786e-07 -3.97037093e-06 -2.04986645e-06
      3.12043358e-06 3.59078899e-06 3.02731496e-06 -4.87999785e-07
      -1.00598766e-06 1.18537002e-06 -1.12623513e-06 -4.58887325e-06
      -4.56251610e-06 -2.21430923e-06 9.24934170e-07 1.96134079e-06
      1.25762233e-06 -3.33959463e-07 -2.64950245e-06 -8.36867116e-07
      3.51640006e-06 5.49856895e-06 6.10093639e-06 3.53258474e-06
      -1.43487500e-06 -1.67444068e-06 -2.76717810e-06 -2.06678556e-06
      -6.32368085e-07 -3.09586653e-07 5.19588980e-07 -5.96205467e-08
      -1.88991169e-06 -4.59026660e-06 -6.17239994e-06 -6.02563114e-06
      -7.29831345e-06 -7.80906612e-06 -9.34090076e-06 -9.37040568e-06
      -4.18994114e-06 -2.13364024e-06 -3.15334955e-06 -1.91000549e-06
      3.24501025e-06 3.96217365e-06 1.14043951e-06 1.10172107e-06
      4.13769703e-06 3.83883707e-06 -1.39198050e-06 -3.24298389e-06
      2.08839128e-06 5.69311442e-06 3.85138856e-06 -3.67806877e-07
      -4.08976666e-06 -2.99717453e-06 -1.63565539e-06 -2.08058850e-06
      -2.29903617e-06 -1.56754254e-06 -2.36630072e-07 4.45852635e-07
      -5.50226559e-07 -1.76982121e-06 -4.71084104e-06 -4.00504450e-06
      4.73898780e-07 4.03527838e-06 5.39923485e-06 2.88927936e-06
      4.48777016e-08 -5.11728672e-07 -2.81155872e-06 -4.15127806e-06
      -2.16483022e-06 -1.77442018e-07 -1.64298527e-07 1.38560210e-07
      -7.11140046e-07 -2.46796048e-06 -4.87949319e-06 -5.51178482e-06
      -8.04660067e-06 -9.57000793e-06 -8.99942643e-06 -1.07270416e-05
      -4.61326181e-06 -5.83372184e-07 -8.74428679e-07 -3.06145665e-07
      1.84243299e-06 4.86035651e-06 3.22247593e-06 5.08074436e-07
      2.62747562e-06 5.24767302e-06 1.83996860e-06 -4.07782682e-06
      -1.17153877e-06 3.75820650e-06 3.69367422e-06 -6.35758738e-07
      -5.23287054e-06 -6.12457734e-06 -2.41495377e-06 -1.05054005e-06
      7.34374836e-08 4.03210585e-08 -2.82872577e-07 -9.00905036e-07
      -2.68951476e-06 -2.98229270e-06 -3.82717963e-06 -4.98030022e-06
      -1.82802603e-06 2.07470998e-06 4.24247855e-06 3.23907602e-06
      1.90842616e-06 2.17644470e-06 4.56114435e-07 -3.36407493e-06
      -4.46129252e-06 -1.46212392e-06 -7.73145189e-07 -1.32484570e-06
      -1.34645688e-06 -8.59709360e-07 -1.93394112e-06 -3.84295663e-06
      -6.88691762e-06 -9.50884260e-06 -8.78102855e-06 -9.58830151e-06
      -6.10203961e-06 -1.83561752e-07 8.26495409e-07 1.69974294e-06
      1.84582643e-06 3.33562093e-06 3.80698293e-06 1.56431918e-06
      8.95245250e-07 4.11396331e-06 3.68951237e-06 -1.66129053e-06
      -4.26561928e-06 -1.06903201e-07 1.66732900e-06 -6.95153062e-07
      -5.07477762e-06 -7.05333423e-06 -4.25550616e-06 -2.12804139e-06
      1.26285087e-07 7.60963871e-07 9.85282213e-07 -4.23489297e-08
      -2.26033922e-06 -4.25106055e-06 -4.71509020e-06 -5.87187833e-06
      -4.59117700e-06 -1.51420670e-06 7.09317192e-07 -5.38786026e-07
      2.66661709e-06 2.79928281e-06 2.58289538e-06 -1.34718289e-06
      -4.97709334e-06 -3.50882874e-06 -3.91144425e-07 -5.15105739e-07
      -1.89469085e-06 -1.51982374e-06 2.18030493e-07 -1.15259490e-06
      -3.48763456e-06 -7.82482675e-06 -8.60573164e-06 -7.08353400e-06
      -4.93858806e-06 -7.19063394e-07 1.84347812e-06 3.54646204e-06
      3.18421849e-06 2.35313018e-06 2.92691834e-06 1.77500431e-06
      6.84802956e-07 2.43508930e-06 4.89458807e-06 5.92458321e-07
      -4.09393397e-06 -4.35994752e-06 -2.31126432e-06 -2.10280200e-06
      -3.65074766e-06 -5.41263171e-06 -4.82519044e-06 -2.97086035e-06
      -1.27293254e-06 1.35701271e-07 3.91517034e-07 3.97077798e-07
      -1.34603624e-06 -4.67610562e-06 -5.08637095e-06 -6.85064151e-06
      -7.57248426e-06 -5.89982210e-06 -3.23703807e-06 -3.42920612e-06
      4.28981502e-06 3.12151951e-06 3.84353416e-06 2.00306727e-06
      -2.93493190e-06 -5.15722013e-06 -1.01126557e-06 1.69137320e-06
      -7.03762623e-07 -2.58828868e-06 -6.28868463e-07 3.97385378e-07
      -1.00881429e-07 -1.37978407e-06 -4.93811012e-06 -4.66118445e-06
      -3.53488667e-06 -2.45062142e-06 1.19676668e-06 4.11115434e-06
      4.81521965e-06 3.14434965e-06 1.62987317e-06 7.02641898e-07
      5.70237489e-07 1.92150492e-06 5.31138539e-06 4.71831254e-06
      -5.51333528e-07 -4.56919315e-06 -6.49523054e-06 -4.06481695e-06
      -2.73368892e-06 -4.11729116e-06 -4.26826819e-06 -3.24273378e-06
      -2.35702146e-06 -2.49570917e-06 -9.60435045e-07 9.37522998e-07
      4.95930749e-07 -1.99353576e-06 -3.56944929e-06 -5.74365595e-06
      -8.04933552e-06 -9.16110821e-06 -6.50555603e-06 -4.16310377e-06
      6.52928929e-06 3.10099563e-06 3.27158045e-06 2.58318346e-06
      -7.35239155e-07 -4.61877198e-06 -1.92615948e-06 2.98557893e-06
      2.13294061e-06 -7.99075849e-07 -2.39722590e-06 -1.66857751e-06
      6.53536631e-07 1.09769667e-06 6.11509734e-07 -1.69164866e-06
      -1.00822820e-06 -9.37013681e-07 -3.96632913e-07 4.46276590e-06
      6.71490170e-06 5.32775903e-06 2.70130431e-06 1.94760645e-07
      -7.39383779e-07 8.51432446e-07 4.01921670e-06 6.35535116e-06
      3.52900588e-06 -9.03125056e-07 -5.15252304e-06 -5.82944540e-06
      -2.14382999e-06 -2.67342148e-06 -4.13466068e-06 -4.20370679e-06
      -3.01323917e-06 -3.50690880e-06 -3.46290881e-06 -2.33151482e-07
      1.93162077e-06 -2.77771960e-07 -8.97056282e-07 -2.18980767e-06
      -5.22180108e-06 -8.70732947e-06 -9.49162404e-06 -3.57040608e-06
      5.16883711e-06 4.27887471e-06 3.61053844e-06 3.50641130e-06
      2.38539428e-06 -6.86668386e-07 -1.40178861e-06 2.67642508e-06
      3.94752533e-06 1.65611959e-06 -1.36555207e-06 -2.98141117e-06
      -1.34847903e-06 1.16461149e-06 2.07971038e-06 1.66975076e-06
      4.30684878e-07 7.17008220e-07 1.54154588e-06 4.50464086e-06
      5.61023808e-06 5.11600092e-06 3.22446158e-06 9.83241080e-07
      -2.15138402e-06 -6.21922027e-07 2.66952975e-06 5.17738590e-06
      5.57435214e-06 2.09443760e-06 -2.58306358e-07 -3.64950915e-06
      -9.39204426e-07 1.18841024e-06 -1.17469870e-06 -4.55595455e-06
      -4.46706918e-06 -4.18569425e-06 -5.21473385e-06 -2.44766466e-06
      1.54216445e-06 9.52880271e-07 2.12999618e-09 -4.02877248e-07
      -2.06668983e-06 -7.13931331e-06 -1.13375609e-05 -6.40344297e-06
      3.55913471e-06 3.74898173e-06 3.51720837e-06 2.59169747e-06
      2.93402127e-06 2.87759076e-06 1.84591602e-06 3.01149680e-06
      4.51204596e-06 2.45034403e-06 -1.09496023e-06 -2.73457545e-06
      -2.21771688e-06 -7.27136253e-08 2.38451980e-06 3.48172239e-06
      2.07118001e-06 9.20638513e-07 2.26073712e-06 5.38388986e-06
      6.27319332e-06 4.98452027e-06 2.57939314e-06 1.19966467e-06
      -2.39260726e-06 -2.84535781e-06 5.61400171e-09 3.15294415e-06
