<?xml version="1.0"?>
<opencv_storage>
<my_svm type_id="opencv-ml-svm">
  <svm_type>C_SVC</svm_type>
  <kernel><type>LINEAR</type></kernel>
  <C>1.</C>
  <term_criteria><epsilon>2.2204460492503131e-16</epsilon>
    <iterations>1000000</iterations></term_criteria>
  <var_all>69120</var_all>
  <var_count>69120</var_count>
  <class_count>2</class_count>
  <class_labels type_id="opencv-matrix">
    <rows>1</rows>
    <cols>2</cols>
    <dt>i</dt>
    <data>
      0 1</data></class_labels>
  <sv_total>1</sv_total>
  <support_vectors>
    <_>
      1.26535570e-05 1.31970892e-05 1.44671476e-05 1.50692249e-05
      1.52632947e-05 1.34023994e-05 1.12779589e-05 8.18385070e-06
      5.28133751e-06 2.19179037e-06 -5.53802010e-07 -2.04818775e-06
      -2.30676505e-06 -1.89854711e-06 -2.24307200e-06 -2.25743770e-06
      -2.08576716e-06 -1.81707196e-06 -1.82084091e-06 -2.39767132e-06
      -2.54886049e-06 -2.76595665e-06 -1.60154002e-06 4.58004138e-07
      2.32525690e-06 4.07403559e-06 4.10770781e-06 4.32748857e-06
      2.64075584e-06 -7.10499137e-07 -4.50310290e-06 -7.39790539e-06
      -9.33092269e-06 -1.04478349e-05 -1.03640959e-05 -9.87751991e-06
      -9.37800542e-06 -8.37479729e-06 -7.12816700e-06 -5.95597157e-06
      -5.43172064e-06 -4.64179357e-06 -4.05431274e-06 -4.27039140e-06
      -5.30697889e-06 -6.19209914e-06 -7.28052828e-06 -7.55168003e-06
      1.23469836e-05 1.27427993e-05 1.36497201e-05 1.38673395e-05
      1.35905257e-05 1.15991043e-05 9.55600990e-06 6.89234048e-06
      4.33657033e-06 1.72182797e-06 -5.36446748e-07 -1.68946781e-06
      -1.76139974e-06 -1.16309968e-06 -1.41077942e-06 -1.33602339e-06
      -1.25355120e-06 -1.18532125e-06 -1.49008520e-06 -2.43329578e-06
      -2.99934118e-06 -3.52758570e-06 -2.61507830e-06 -7.54330358e-07
      1.16764306e-06 2.88524643e-06 2.97917381e-06 3.26874624e-06
      1.62097126e-06 -1.55940711e-06 -5.16885439e-06 -8.04875617e-06
      -9.77330183e-06 -1.07524165e-05 -1.05194131e-05 -9.89768523e-06
      -9.19262584e-06 -8.21356571e-06 -6.79077311e-06 -5.63767799e-06
      -5.04513355e-06 -4.31886747e-06 -3.54422423e-06 -3.61741490e-06
      -4.21430377e-06 -4.89960939e-06 -5.64588345e-06 -5.83941119e-06
      1.00123416e-05 1.01426003e-05 1.04412802e-05 9.94763195e-06
      8.87200804e-06 6.86511703e-06 5.20686262e-06 3.64343919e-06
      1.96259793e-06 4.86196541e-07 -5.93678010e-07 -8.93610775e-07
      -3.32904307e-07 8.17760679e-07 1.03555055e-06 1.40034570e-06
      1.36148367e-06 9.91478714e-07 -4.40945875e-08 -1.92030461e-06
      -3.53650375e-06 -4.88774594e-06 -4.71418252e-06 -3.44007572e-06
      -1.51233382e-06 1.21332121e-07 4.86577449e-07 1.01764920e-06
      -2.42089840e-07 -2.75786556e-06 -5.73080979e-06 -8.35507853e-06
      -9.58396140e-06 -1.02944450e-05 -9.90300123e-06 -9.12893938e-06
      -8.15769727e-06 -7.33052866e-06 -5.61321895e-06 -4.48158153e-06
      -3.68129554e-06 -2.93570838e-06 -1.68452152e-06 -1.30592389e-06
      -9.00026180e-07 -1.04997423e-06 -1.04159130e-06 -1.00359262e-06
      4.66835672e-06 4.65146513e-06 4.77960248e-06 3.97197755e-06
      2.71225122e-06 1.34504603e-06 5.79440098e-07 4.66626346e-07
      -6.21827656e-09 -8.09215663e-08 2.25618194e-07 9.62716854e-07
      2.46693185e-06 4.24966584e-06 5.26196618e-06 5.92324659e-06
      5.83303427e-06 5.08768244e-06 3.37079064e-06 6.45291038e-07
      -1.94620361e-06 -4.17612728e-06 -4.98330928e-06 -4.58833210e-06
      -3.13329565e-06 -1.89154161e-06 -1.35154869e-06 -7.17572732e-07
      -1.24375765e-06 -2.68923964e-06 -4.58470140e-06 -6.40658527e-06
      -6.98119038e-06 -7.32951730e-06 -6.97953010e-06 -6.31158673e-06
      -5.48378694e-06 -5.02107969e-06 -3.44183718e-06 -2.50356925e-06
      -1.69199359e-06 -8.19908450e-07 7.14493808e-07 1.56563885e-06
      2.77049458e-06 3.21067023e-06 3.82063263e-06 4.15903241e-06
      -1.09391283e-06 -1.14780642e-06 -8.06663252e-07 -1.35946516e-06
      -2.14450051e-06 -2.38681696e-06 -1.94160270e-06 -5.85215389e-07
      2.50002927e-07 1.49886796e-06 2.89250147e-06 4.41896873e-06
      6.43446765e-06 8.21798858e-06 9.56471467e-06 1.00403495e-05
      9.75086186e-06 8.84515339e-06 7.04955164e-06 4.45641945e-06
      1.93593951e-06 -4.39547222e-07 -1.79934193e-06 -2.17205775e-06
      -1.81737880e-06 -1.54910106e-06 -1.57673185e-06 -1.49547589e-06
      -1.65391100e-06 -2.22109156e-06 -2.91354013e-06 -3.49684547e-06
      -3.25817314e-06 -2.92238815e-06 -2.46328136e-06 -1.99198121e-06
      -1.62716651e-06 -1.63138247e-06 -9.09324626e-07 -5.85180658e-07
      -3.96158498e-07 3.31293734e-07 1.49019922e-06 2.39686142e-06
      3.73692160e-06 4.55684540e-06 5.33470393e-06 5.90000263e-06
      -4.28336898e-06 -4.36227901e-06 -3.89971910e-06 -3.95441248e-06
      -4.18872105e-06 -3.50119967e-06 -2.05141851e-06 3.50850371e-07
      2.05581955e-06 3.89763045e-06 5.38803170e-06 6.78273136e-06
      7.95546930e-06 8.46742205e-06 8.90023057e-06 8.53164420e-06
      7.85407610e-06 7.17861485e-06 6.29566011e-06 5.26467147e-06
      4.31733451e-06 3.03981801e-06 2.15453338e-06 1.58410785e-06
      7.12337737e-07 -2.80455509e-07 -1.57512875e-06 -2.56022781e-06
      -3.06714992e-06 -3.31697947e-06 -3.02741159e-06 -2.36928122e-06
      -1.18822913e-06 1.65263344e-07 1.25024280e-06 1.80589211e-06
      1.92263747e-06 1.64531889e-06 1.32902210e-06 9.25221798e-07
      1.72792397e-07 4.81817779e-07 8.95911398e-07 1.46843115e-06
      2.48815195e-06 3.38713426e-06 4.03796776e-06 4.67021846e-06
      -5.18667457e-06 -5.32231479e-06 -5.01029717e-06 -4.63822153e-06
      -4.48819492e-06 -3.39193866e-06 -1.34806442e-06 1.52229234e-06
      3.44837008e-06 4.83971235e-06 5.35368281e-06 5.46562296e-06
      4.45660908e-06 2.71624231e-06 1.26667771e-06 -1.96530422e-07
      -1.13633030e-06 -1.05137428e-06 -1.83928933e-07 1.22494407e-06
      2.71741419e-06 3.31643287e-06 3.67699545e-06 3.33416074e-06
      1.69482473e-06 -2.74515259e-07 -2.80766903e-06 -4.60932915e-06
      -5.61145180e-06 -5.81838867e-06 -4.84700649e-06 -3.17907165e-06
      -9.87424983e-07 1.38114387e-06 3.46528395e-06 4.47074444e-06
      4.89659942e-06 4.63077549e-06 3.86037482e-06 3.10093674e-06
      1.71787008e-06 1.64569713e-06 1.47793969e-06 1.53799601e-06
      2.06054619e-06 2.58873843e-06 2.98558052e-06 3.51082508e-06
      -6.41978249e-06 -6.67425866e-06 -6.61053127e-06 -5.94532958e-06
      -5.36444077e-06 -4.11566043e-06 -1.59892807e-06 1.54483462e-06
      3.62673450e-06 4.29816964e-06 3.88810304e-06 2.54239330e-06
      -6.44106649e-07 -4.31892158e-06 -7.40626001e-06 -9.71163536e-06
      -1.07064943e-05 -9.85247061e-06 -7.43669625e-06 -4.19715343e-06
      -9.09434107e-07 1.16468686e-06 2.62413573e-06 2.47916500e-06
      8.44288877e-07 -1.31510285e-06 -4.25927374e-06 -6.00901058e-06
      -6.91792957e-06 -6.93373022e-06 -5.52934262e-06 -3.22372330e-06
      -2.82380256e-07 2.60200409e-06 5.37188544e-06 6.80538642e-06
      7.78478079e-06 7.51633797e-06 6.90122761e-06 6.11973201e-06
      4.53976327e-06 4.16895546e-06 3.71420492e-06 3.21679840e-06
      3.20022900e-06 2.99187946e-06 3.10952396e-06 3.44603609e-06
      -9.63899947e-06 -1.00357556e-05 -1.00775160e-05 -9.11269854e-06
      -7.93011441e-06 -6.39629752e-06 -3.35615778e-06 1.46688791e-07
      2.77009212e-06 3.36295102e-06 3.04462196e-06 1.27496185e-06
      -2.71878912e-06 -6.86132671e-06 -1.03118782e-05 -1.28486745e-05
      -1.37190591e-05 -1.26231880e-05 -9.70200836e-06 -6.19801085e-06
      -2.74689887e-06 -3.39443687e-07 1.38724420e-06 1.21493667e-06
      1.67767254e-07 -1.39815552e-06 -3.77926267e-06 -4.81907728e-06
      -5.20165304e-06 -5.14486874e-06 -3.91316189e-06 -1.91918366e-06
      7.50961703e-07 3.14706131e-06 5.60588978e-06 7.11387838e-06
      8.55216877e-06 8.37658990e-06 8.38795495e-06 7.97923713e-06
      6.75347610e-06 6.28036287e-06 5.86821307e-06 5.01050863e-06
      4.58194108e-06 3.70606426e-06 3.62405376e-06 3.82145890e-06
      -1.31471015e-05 -1.36005056e-05 -1.35030105e-05 -1.21603725e-05
      -1.04692508e-05 -8.53785878e-06 -5.27749353e-06 -1.66172219e-06
      1.45234708e-06 2.57486067e-06 2.98647205e-06 1.90128230e-06
      -1.46456716e-06 -4.67595964e-06 -7.33976185e-06 -9.55379710e-06
      -1.01261021e-05 -9.05791148e-06 -6.35773313e-06 -3.57470230e-06
      -9.74599175e-07 1.04943945e-06 2.39331303e-06 2.07025414e-06
      1.54732982e-06 6.57527721e-07 -9.18654848e-07 -1.38132555e-06
      -1.61947082e-06 -2.19754884e-06 -2.19238950e-06 -1.81651012e-06
      -7.35258538e-07 1.06727470e-07 1.25304791e-06 2.51830738e-06
      4.44558054e-06 4.95230233e-06 6.19187131e-06 6.92761887e-06
      6.87832289e-06 6.83835242e-06 6.87690545e-06 6.06506956e-06
      5.42938460e-06 4.15866589e-06 3.98211023e-06 4.12216241e-06
      -1.27687517e-05 -1.31823035e-05 -1.28704014e-05 -1.13624346e-05
      -9.76607680e-06 -7.84334225e-06 -5.15867941e-06 -2.12622217e-06
      8.23357368e-07 2.54546239e-06 3.52056486e-06 3.50066148e-06
      1.36734548e-06 -5.04371258e-07 -2.33632545e-06 -4.40833082e-06
      -4.98024474e-06 -4.06248637e-06 -1.91505774e-06 2.19899245e-08
      1.90539185e-06 3.65137089e-06 4.69960332e-06 4.45369051e-06
      4.11451629e-06 3.49638958e-06 2.41570706e-06 2.14203510e-06
      1.58263936e-06 1.74090033e-07 -1.25649933e-06 -2.52081918e-06
      -2.99658814e-06 -3.66568429e-06 -3.80429651e-06 -2.90949674e-06
      -6.41257373e-07 6.44855049e-07 2.89812374e-06 4.84101565e-06
      6.02767614e-06 6.53830057e-06 6.92554886e-06 6.28640873e-06
      5.42685757e-06 3.78952905e-06 3.48380445e-06 3.53217297e-06
      -6.47657862e-06 -6.80382936e-06 -6.42799068e-06 -5.31561682e-06
      -4.59119155e-06 -3.41081136e-06 -2.04601793e-06 -2.50925069e-07
      1.86874468e-06 3.78961386e-06 4.69883435e-06 5.32428749e-06
      4.19878143e-06 3.25053588e-06 1.62188633e-06 -7.06441028e-07
      -1.56409430e-06 -8.35219510e-07 6.70572604e-07 1.98674070e-06
      3.52185248e-06 5.02980993e-06 5.85747875e-06 5.81140375e-06
      5.25456835e-06 4.47327238e-06 3.55350790e-06 3.37274378e-06
      2.71386580e-06 1.52151051e-06 9.63023012e-08 -9.53523283e-07
      -1.12880025e-06 -1.69416091e-06 -1.76369474e-06 -9.90538183e-07
      9.94984248e-07 2.17731713e-06 3.92854872e-06 5.73686975e-06
      6.83974213e-06 6.95601830e-06 6.71761654e-06 5.76245066e-06
      4.29688498e-06 2.05568290e-06 1.38316830e-06 1.18438788e-06
      2.30907472e-06 2.15985460e-06 2.57054330e-06 2.93846529e-06
      2.64129153e-06 2.81650182e-06 2.80436166e-06 3.14411750e-06
      4.12364670e-06 5.48051412e-06 5.36628613e-06 5.49884180e-06
      4.51003643e-06 3.73484113e-06 1.86649800e-06 -5.15654222e-07
      -1.16359581e-06 -1.66114120e-07 1.33587059e-06 2.64507821e-06
      4.04353432e-06 4.96750226e-06 5.11536564e-06 4.79823075e-06
      3.41466966e-06 1.95055804e-06 6.53154359e-07 4.05427471e-07
      1.13602631e-07 2.88098050e-07 4.57022168e-07 1.34432707e-06
      3.08801668e-06 4.13818771e-06 5.33760931e-06 6.38935308e-06
      7.58187480e-06 8.04488809e-06 8.21248432e-06 8.88983323e-06
      8.87558417e-06 7.82217103e-06 6.25909797e-06 4.58979457e-06
      2.20140782e-06 -6.97694247e-07 -1.92495577e-06 -2.39364795e-06
      7.94942389e-06 8.12116195e-06 8.80072912e-06 8.61569333e-06
      7.94968128e-06 7.58515444e-06 6.77386424e-06 5.95428719e-06
      5.93323193e-06 6.23181450e-06 4.54552173e-06 3.28707483e-06
      1.66556174e-06 3.41798795e-07 -2.13745966e-06 -4.72911233e-06
      -5.30033367e-06 -4.30761020e-06 -2.60063598e-06 -1.02852391e-06
      4.14620729e-07 8.67642825e-07 4.69319019e-07 -1.52260895e-07
      -2.24414907e-06 -4.38089728e-06 -6.32031742e-06 -6.79724417e-06
      -6.39617065e-06 -4.59313287e-06 -2.58745649e-06 2.29381001e-07
      3.56630812e-06 5.85538510e-06 7.76293291e-06 8.81289361e-06
      9.04592071e-06 9.04989702e-06 8.20583409e-06 8.55111284e-06
      8.21842877e-06 6.85034729e-06 4.75848947e-06 3.02474814e-06
      9.11365561e-08 -2.96948951e-06 -4.56298085e-06 -5.00258193e-06
      8.08323693e-06 8.61159333e-06 9.70055589e-06 9.36432389e-06
      9.10037852e-06 8.92899789e-06 8.11935843e-06 6.93384982e-06
      6.60796741e-06 6.36041659e-06 3.87647287e-06 1.76592891e-06
      -1.25207961e-07 -2.03005288e-06 -5.14877865e-06 -8.64961021e-06
      -1.04812743e-05 -1.10631445e-05 -1.05811923e-05 -9.82108122e-06
      -8.79523941e-06 -8.57369014e-06 -8.78541505e-06 -8.89144394e-06
      -1.04826950e-05 -1.21854519e-05 -1.38601663e-05 -1.40415541e-05
      -1.24903390e-05 -9.29767066e-06 -6.16525040e-06 -2.55421605e-06
      8.11016491e-07 2.62055937e-06 3.47734976e-06 3.50987852e-06
      2.56038629e-06 2.37282529e-06 1.57882744e-06 2.90541061e-06
      3.74804108e-06 3.67354323e-06 2.52141581e-06 1.90530056e-06
      -6.72045587e-07 -3.19745391e-06 -4.72075453e-06 -4.75829802e-06
      4.25040980e-06 4.94458209e-06 6.23808455e-06 6.03842545e-06
      6.52193421e-06 7.03723526e-06 6.99363954e-06 6.33681429e-06
      6.50322590e-06 6.63955416e-06 4.62076832e-06 2.87798866e-06
      1.70812211e-06 1.04813545e-07 -2.46273339e-06 -6.17604792e-06
      -9.18794740e-06 -1.15178946e-05 -1.31073703e-05 -1.42337403e-05
      -1.45693721e-05 -1.51514441e-05 -1.54636418e-05 -1.49065618e-05
      -1.54290665e-05 -1.57736395e-05 -1.60907730e-05 -1.52844441e-05
      -1.24385542e-05 -8.46504372e-06 -5.11384769e-06 -1.89486877e-06
      2.63705260e-07 5.14846306e-07 -5.97585256e-07 -2.09651944e-06
      -4.28842850e-06 -4.74046874e-06 -5.21656966e-06 -2.82681822e-06
      -5.32884144e-07 1.07639903e-06 1.32626610e-06 2.15783871e-06
      5.17687113e-07 -1.18558194e-06 -2.41750081e-06 -2.00110526e-06
      1.24712770e-07 6.64397135e-07 1.73514661e-06 1.61655316e-06
      2.51359597e-06 3.42793282e-06 4.33531113e-06 4.36059690e-06
      4.90915090e-06 5.45486637e-06 4.12241661e-06 2.96746384e-06
      2.64095047e-06 2.16747094e-06 1.70956844e-06 -9.24704793e-08
      -1.89353534e-06 -3.53364339e-06 -5.44635759e-06 -7.61959291e-06
      -9.21417359e-06 -1.09526045e-05 -1.23096852e-05 -1.19393490e-05
      -1.21885223e-05 -1.16523988e-05 -1.09513057e-05 -9.57958400e-06
      -6.52660083e-06 -3.14143426e-06 -5.14875239e-07 1.55468172e-06
      2.34134882e-06 1.62562719e-06 -5.12359179e-07 -2.66974757e-06
      -5.39853318e-06 -5.94078028e-06 -6.43156682e-06 -3.99549936e-06
      -1.19344350e-06 1.05950630e-06 2.10511485e-06 3.80173788e-06
      3.17815011e-06 2.37916902e-06 1.45489832e-06 2.09996415e-06
      -8.98150518e-07 -6.82127052e-07 -1.22282103e-07 -5.06583831e-07
      -8.62035279e-08 1.65906641e-07 1.32822481e-06 1.40365751e-06
      1.39810402e-06 1.47492540e-06 3.04295156e-07 -7.33405614e-07
      -8.45362536e-07 -1.87323295e-07 1.57939019e-06 2.71826207e-06
      3.86376860e-06 4.89474269e-06 4.75752404e-06 3.21340144e-06
      1.51093309e-06 -5.68247174e-07 -2.90919729e-06 -3.19815331e-06
      -3.83216047e-06 -3.30989292e-06 -2.64668483e-06 -1.76114509e-06
      2.15523599e-08 1.55568455e-06 2.86746490e-06 3.55551356e-06
      3.38056020e-06 2.84428688e-06 1.13698422e-06 -4.37782290e-07
      -2.70163900e-06 -2.92071900e-06 -3.72911245e-06 -2.17722572e-06
      2.15942691e-07 1.86581201e-06 3.04609239e-06 5.03773390e-06
      5.34532774e-06 5.67247071e-06 5.20735148e-06 5.90851141e-06
      7.12359395e-07 7.41120971e-07 9.55444307e-07 3.39133379e-07
      -2.20413853e-07 -1.27647172e-06 -5.86465035e-07 -7.32383285e-07
      -1.63151026e-06 -2.56387398e-06 -3.62600304e-06 -4.29432657e-06
      -4.22650828e-06 -2.79273286e-06 -7.35903427e-09 3.00505098e-06
      6.13819157e-06 8.94396908e-06 1.02379072e-05 9.49935020e-06
      8.10610345e-06 6.41654924e-06 4.02756814e-06 3.44763316e-06
      2.72169041e-06 3.21940274e-06 3.75948525e-06 3.98794464e-06
      4.32104616e-06 4.07318112e-06 4.07773632e-06 3.38584709e-06
      2.26193856e-06 1.88437184e-06 7.54589905e-07 -3.75003628e-09
      -1.30337719e-06 -9.28818736e-07 -1.95181769e-06 -1.35273183e-06
      2.85155608e-07 4.98314421e-07 1.11762165e-06 2.75111006e-06
      3.29211070e-06 4.34703998e-06 4.33508376e-06 4.96930352e-06
      2.47315484e-06 2.55002874e-06 2.75184698e-06 2.41944917e-06
      1.26089128e-06 -5.59074806e-07 -3.16120605e-07 -6.86271164e-08
      -1.16147828e-06 -2.68751319e-06 -3.26192662e-06 -2.85621945e-06
      -2.11695647e-06 -1.71633687e-07 2.48675701e-06 5.52558186e-06
      8.38357209e-06 1.05925064e-05 1.13473561e-05 1.02413460e-05
      8.55954113e-06 7.10332188e-06 5.41304280e-06 5.18713023e-06
      4.99368616e-06 6.03658737e-06 7.09428741e-06 7.23297990e-06
      6.93150832e-06 5.66774452e-06 4.41262137e-06 2.21376899e-06
      -2.71389837e-07 -1.50445874e-06 -2.83770601e-06 -3.16642672e-06
      -3.33179810e-06 -2.19524622e-06 -2.92043660e-06 -2.60399815e-06
      -1.80393579e-06 -3.32583636e-06 -4.16621742e-06 -3.78768391e-06
      -4.27197574e-06 -3.75154673e-06 -3.73031230e-06 -3.39544295e-06
      4.16097328e-06 4.36529672e-06 4.52230188e-06 4.67068094e-06
      3.41110899e-06 1.86219131e-06 2.14285205e-06 3.54918507e-06
      3.06773723e-06 1.94256017e-06 1.97138888e-06 3.43798001e-06
      4.63207380e-06 6.53372081e-06 8.20306104e-06 9.74345039e-06
      1.08329987e-05 1.10549809e-05 1.02899194e-05 8.38723918e-06
      6.49410276e-06 5.38908307e-06 4.82277846e-06 5.45277680e-06
      6.09202743e-06 7.74256478e-06 9.23646621e-06 9.37187087e-06
      8.86402631e-06 6.94076562e-06 4.50217567e-06 1.07791982e-06
      -2.42002193e-06 -4.69358338e-06 -6.24958284e-06 -6.18015838e-06
      -5.27912425e-06 -3.68760107e-06 -4.02860996e-06 -3.58516650e-06
      -3.80432516e-06 -6.55195117e-06 -8.89414332e-06 -9.54077950e-06
      -1.10082392e-05 -1.13587566e-05 -1.13176156e-05 -1.13307633e-05
      5.85491216e-06 6.16130319e-06 6.05673085e-06 6.41588213e-06
      5.18685374e-06 4.64297909e-06 5.41669169e-06 8.12140115e-06
      8.52510584e-06 8.50143624e-06 8.60299042e-06 1.01168471e-05
      1.04713581e-05 1.11502859e-05 1.07889728e-05 1.00293191e-05
      9.41345479e-06 8.22027960e-06 7.13460531e-06 5.82356552e-06
      5.26603480e-06 5.66992276e-06 6.58806402e-06 8.17824912e-06
      9.30026272e-06 1.06628859e-05 1.14912464e-05 1.09700932e-05
      9.91866909e-06 7.40655605e-06 4.49806021e-06 1.12801376e-06
      -1.69999214e-06 -3.52601842e-06 -4.11894052e-06 -3.15222769e-06
      -1.60348247e-06 -4.66401104e-07 -1.24230814e-06 -1.14319869e-06
      -2.62342428e-06 -5.63944013e-06 -8.25960251e-06 -8.13371844e-06
      -8.67819290e-06 -8.40578377e-06 -7.54971279e-06 -7.50018216e-06
      5.78023173e-06 6.23710412e-06 6.02363252e-06 6.50529773e-06
      5.38402310e-06 6.04116849e-06 7.44573845e-06 1.07103324e-05
      1.16300398e-05 1.23420396e-05 1.14888753e-05 1.18317294e-05
      1.01721844e-05 8.65475158e-06 5.75574859e-06 3.09751385e-06
      1.94218660e-06 9.39415202e-07 1.43242698e-06 2.28995577e-06
      4.28599651e-06 6.97323458e-06 9.15553210e-06 1.12313064e-05
      1.21249768e-05 1.23019699e-05 1.18262269e-05 1.03630910e-05
      8.56490715e-06 5.97580038e-06 3.72931527e-06 1.76513788e-06
      1.18811101e-06 1.38140456e-06 2.70475061e-06 4.98698637e-06
      6.71326461e-06 6.83355120e-06 4.91136007e-06 4.06036861e-06
      1.55771738e-06 -1.11635234e-06 -2.79759251e-06 -5.93326604e-07
      1.18080209e-06 3.45483090e-06 5.60764420e-06 6.15180534e-06
      4.01297939e-06 4.70519944e-06 4.75011529e-06 5.46944739e-06
      4.40464873e-06 5.63679123e-06 7.07066283e-06 9.51310631e-06
      9.98925589e-06 1.03070279e-05 7.91124694e-06 7.06800938e-06
      4.01496891e-06 1.03066020e-06 -3.10850305e-06 -6.09156905e-06
      -6.73011937e-06 -6.82165501e-06 -4.77959338e-06 -2.47397429e-06
      8.21381775e-07 4.51777896e-06 6.72396345e-06 8.49302523e-06
      8.86124144e-06 8.26612631e-06 7.52638334e-06 6.15645013e-06
      4.55355939e-06 3.03216075e-06 2.24501605e-06 1.92076891e-06
      3.32598393e-06 5.15066904e-06 7.55242445e-06 1.04997107e-05
      1.18324724e-05 1.10896563e-05 8.36135678e-06 6.75030105e-06
      4.24904511e-06 2.18694208e-06 1.83618943e-06 5.52103074e-06
      8.94654750e-06 1.28239399e-05 1.56428177e-05 1.66294667e-05
      3.11389817e-06 3.98576458e-06 4.34174035e-06 5.09620804e-06
      3.76093340e-06 4.45526575e-06 4.81894540e-06 5.30104626e-06
      4.41949669e-06 3.59129149e-06 1.34413909e-07 -5.97137785e-07
      -3.03533079e-06 -5.43911483e-06 -8.46689272e-06 -1.02661370e-05
      -1.02120321e-05 -1.01269616e-05 -8.56558381e-06 -7.19297623e-06
      -5.12053020e-06 -2.53387248e-06 -1.37505208e-06 -2.71664078e-07
      -3.61947237e-08 -7.38798001e-09 5.39320069e-07 5.94572498e-07
      5.12791416e-07 8.14876216e-07 1.53697783e-06 2.22393783e-06
      3.91997264e-06 5.45717512e-06 6.87478678e-06 8.82791301e-06
      8.92853313e-06 7.35962340e-06 4.62895696e-06 2.92379650e-06
      1.50985500e-06 3.58408442e-07 1.30221713e-06 5.06716970e-06
      8.76906233e-06 1.29099599e-05 1.54028166e-05 1.64973389e-05
      2.74905574e-06 3.57353338e-06 4.01302304e-06 4.43063209e-06
      2.75288994e-06 2.58728778e-06 1.53036603e-06 2.07060964e-07
      -1.88663034e-06 -3.53593782e-06 -7.04359309e-06 -6.71694579e-06
      -7.44336194e-06 -8.10336951e-06 -8.82408222e-06 -9.10302333e-06
      -8.63324021e-06 -9.16538011e-06 -9.40903647e-06 -1.00203843e-05
      -1.00482384e-05 -9.24082269e-06 -8.92888147e-06 -8.19033721e-06
      -7.64790730e-06 -6.31901048e-06 -4.37751851e-06 -2.97928204e-06
      -1.50226924e-06 4.34396839e-08 1.72900707e-06 2.90535263e-06
      3.84206442e-06 4.01747639e-06 3.41498344e-06 3.27941234e-06
      1.54220936e-06 -1.27452688e-06 -3.89199431e-06 -5.70494831e-06
      -6.00677868e-06 -6.31767080e-06 -4.34421327e-06 -1.32561513e-06
      2.14655233e-06 5.73543139e-06 7.53414861e-06 8.57391205e-06
      2.66437553e-07 7.22518621e-07 9.55716132e-07 8.74451700e-07
      -8.20861487e-07 -1.12618898e-06 -2.73358569e-06 -4.52823133e-06
      -6.58958061e-06 -8.10862366e-06 -1.09609000e-05 -9.94265974e-06
      -9.51712536e-06 -8.81552933e-06 -7.51967036e-06 -6.49472213e-06
      -5.39388930e-06 -6.10081725e-06 -7.33060870e-06 -8.93991728e-06
      -1.02576341e-05 -1.08515396e-05 -1.10577694e-05 -1.05533236e-05
      -9.97927145e-06 -8.19907564e-06 -6.10006282e-06 -4.59521834e-06
      -2.62896560e-06 -9.02910642e-07 1.27320709e-06 2.92236882e-06
      3.61787579e-06 3.23979589e-06 1.62807419e-06 -6.07853039e-08
      -3.49667971e-06 -7.71494888e-06 -1.08201939e-05 -1.35685632e-05
      -1.37536490e-05 -1.40246111e-05 -1.17086211e-05 -9.58342844e-06
      -6.13068278e-06 -3.12022212e-06 -1.74678132e-06 -7.46660248e-07
      -3.37684901e-06 -3.54443250e-06 -3.79132166e-06 -4.41687735e-06
      -5.89016281e-06 -5.72774388e-06 -6.79140385e-06 -7.79630591e-06
      -8.70477470e-06 -9.53990821e-06 -1.16880610e-05 -1.10075462e-05
      -1.04789051e-05 -9.28646841e-06 -6.66747746e-06 -4.31510989e-06
      -1.98035582e-06 -1.66430630e-06 -2.31651825e-06 -3.72526483e-06
      -5.61039906e-06 -7.48327147e-06 -8.76558170e-06 -8.98078270e-06
      -9.13631266e-06 -8.26973883e-06 -7.08913876e-06 -6.39380232e-06
      -4.76705691e-06 -3.19399351e-06 -6.55640974e-07 1.61933895e-06
      3.06633069e-06 3.48451476e-06 2.59790136e-06 8.67061146e-07
      -3.32963464e-06 -8.13648694e-06 -1.17847221e-05 -1.56787173e-05
      -1.63970035e-05 -1.73246299e-05 -1.55208418e-05 -1.42311492e-05
      -1.08757831e-05 -8.43618727e-06 -7.33280831e-06 -6.46718581e-06
      -4.53389430e-06 -5.23060362e-06 -5.85729686e-06 -6.81018355e-06
      -7.80960272e-06 -7.07815389e-06 -7.16639579e-06 -7.05769889e-06
      -6.83095732e-06 -7.28361738e-06 -9.23162861e-06 -9.79486504e-06
      -1.00569323e-05 -9.33179217e-06 -6.51373966e-06 -3.32486570e-06
      -2.57639989e-08 1.72537250e-06 2.19910112e-06 1.41083274e-06
      -5.31442026e-07 -3.12041061e-06 -5.61773231e-06 -6.83018425e-06
      -7.96862150e-06 -8.53280289e-06 -8.53066467e-06 -8.82484710e-06
      -7.92266019e-06 -6.48839205e-06 -3.86153579e-06 -1.03159186e-06
      1.48957690e-06 3.28494366e-06 4.05326364e-06 3.64792027e-06
      1.95720503e-07 -3.61499133e-06 -6.61850936e-06 -1.04658184e-05
      -1.12673342e-05 -1.25667866e-05 -1.17378559e-05 -1.13581655e-05
      -8.90089905e-06 -7.52589767e-06 -7.16261729e-06 -6.67227414e-06
      -1.87705632e-06 -2.69180578e-06 -3.27665566e-06 -4.13817315e-06
      -4.36328082e-06 -3.10321752e-06 -2.38612120e-06 -1.48499441e-06
      -7.84559404e-07 -1.24868211e-06 -3.20139588e-06 -5.21151651e-06
      -6.75790488e-06 -7.29501426e-06 -5.77593710e-06 -3.28120814e-06
      -4.86543001e-07 1.61265757e-06 2.38171651e-06 2.06790105e-06
      7.62404738e-07 -1.08951292e-06 -3.55221187e-06 -5.10751624e-06
      -6.40534472e-06 -7.70220686e-06 -8.52535777e-06 -9.63039747e-06
      -9.68430686e-06 -8.77219009e-06 -6.55928534e-06 -3.40914107e-06
      -1.09608976e-07 2.97816587e-06 5.35554318e-06 6.87893134e-06
      5.38343875e-06 3.68609949e-06 2.50262406e-06 -8.91627110e-08
      -3.93938251e-07 -1.43043997e-06 -1.55044188e-06 -2.27946134e-06
      -1.52851476e-06 -1.68197926e-06 -2.63563265e-06 -2.67788005e-06
      3.31956471e-06 2.62342019e-06 2.05991023e-06 1.11690053e-06
      1.29220234e-06 2.65668200e-06 3.75484410e-06 5.14993235e-06
      6.08980963e-06 6.03915259e-06 4.97033034e-06 2.39671294e-06
      1.25563034e-07 -1.31243269e-06 -1.50552239e-06 -8.96471079e-07
      2.25494617e-07 1.15578212e-06 9.33929471e-07 4.55060444e-07
      -1.21989402e-07 -4.37631172e-07 -1.64237815e-06 -2.51479014e-06
      -2.55502073e-06 -3.25019118e-06 -4.04435741e-06 -5.31433670e-06
      -6.03337685e-06 -6.00392104e-06 -4.50389234e-06 -1.48688230e-06
      1.87069838e-06 5.54482131e-06 8.67296785e-06 1.15394341e-05
      1.18757698e-05 1.19197548e-05 1.23971540e-05 1.09254624e-05
      1.08545473e-05 1.00193074e-05 8.99252245e-06 6.89834314e-06
      5.79880953e-06 4.18011268e-06 1.90166190e-06 1.33297874e-06
      8.22205129e-06 7.53229324e-06 6.66651886e-06 5.19688729e-06
      5.06906326e-06 5.92281913e-06 7.12705923e-06 8.87481383e-06
      1.02554704e-05 1.13432934e-05 1.22000056e-05 1.02623180e-05
      8.57662417e-06 7.51653306e-06 6.67138556e-06 5.78320260e-06
      5.42290809e-06 4.69856877e-06 3.05568119e-06 1.57833665e-06
      8.67599283e-07 1.22195775e-06 9.38041808e-07 9.45451859e-07
      2.77770391e-06 3.44132741e-06 3.63750519e-06 3.39982330e-06
      2.97542897e-06 2.62676781e-06 3.55498923e-06 5.63736194e-06
      7.97064513e-06 1.07125170e-05 1.29211503e-05 1.54155769e-05
      1.62534816e-05 1.68841234e-05 1.82160602e-05 1.72801083e-05
      1.70756448e-05 1.61750013e-05 1.42955705e-05 1.07159112e-05
      8.02668455e-06 5.21498077e-06 1.97886720e-06 9.83296331e-07
      7.85496923e-06 7.11149005e-06 6.21871277e-06 4.75441948e-06
      4.62177422e-06 5.17984427e-06 6.84197084e-06 8.88610793e-06
      1.09188768e-05 1.32216701e-05 1.58645944e-05 1.49529742e-05
      1.46008460e-05 1.44716678e-05 1.38352434e-05 1.25313636e-05
      1.13812703e-05 9.43553641e-06 6.91839023e-06 3.98055636e-06
      2.17035722e-06 1.61977403e-06 8.47338242e-07 7.54195526e-07
      3.47185255e-06 4.96236771e-06 6.60836395e-06 8.54947939e-06
      9.59275803e-06 1.02621971e-05 1.13746119e-05 1.20562845e-05
      1.26761388e-05 1.30766111e-05 1.27104495e-05 1.30311219e-05
      1.30075987e-05 1.35549908e-05 1.54710942e-05 1.53890105e-05
      1.56854967e-05 1.54209920e-05 1.36138970e-05 9.46008277e-06
      6.06636513e-06 2.76652145e-06 -7.87673287e-07 -1.93983146e-06
      -1.84850251e-07 -7.85826387e-07 -1.15221417e-06 -1.61021671e-06
      -8.16438899e-07 2.65755233e-07 2.92479399e-06 5.24687630e-06
      8.08174173e-06 1.10987448e-05 1.46143984e-05 1.43835705e-05
      1.51292606e-05 1.54404897e-05 1.48066147e-05 1.36026092e-05
      1.20338354e-05 9.42755469e-06 6.70996405e-06 2.59445301e-06
      -4.19976118e-07 -2.57462193e-06 -4.49001527e-06 -5.60578155e-06
      -3.30716466e-06 -1.81404744e-06 1.31994489e-06 5.86137412e-06
      9.11259121e-06 1.18339894e-05 1.39061904e-05 1.34643815e-05
      1.24490016e-05 1.01153391e-05 6.63784476e-06 3.97143367e-06
      2.46810282e-06 2.79015626e-06 5.29675026e-06 6.70355075e-06
      8.52381527e-06 1.00950165e-05 1.00631305e-05 7.52808137e-06
      5.35063646e-06 3.19585070e-06 4.98257691e-07 -3.43241368e-07
      -9.72260841e-06 -1.00401739e-05 -1.00759880e-05 -9.68331005e-06
      -8.05248965e-06 -6.48616879e-06 -3.30632224e-06 -1.03946729e-06
      2.43675754e-06 5.59537284e-06 9.31236082e-06 9.44831390e-06
      1.08587246e-05 1.13242631e-05 1.04951150e-05 9.59835234e-06
      8.07963715e-06 5.62985133e-06 3.35196592e-06 -7.63190371e-07
      -4.05135052e-06 -7.06852643e-06 -9.30212991e-06 -1.11996978e-05
      -9.66710559e-06 -8.41517158e-06 -4.25593589e-06 1.93318897e-06
      6.77867729e-06 1.08032536e-05 1.33084486e-05 1.20332243e-05
      9.63409184e-06 5.10371592e-06 -6.92366712e-07 -5.76614457e-06
      -8.48094169e-06 -8.38888081e-06 -5.71572400e-06 -3.11069289e-06
      2.30393113e-07 3.68555152e-06 6.13744442e-06 6.80132553e-06
      7.38509652e-06 7.78545473e-06 6.97332734e-06 6.77826802e-06
      -1.17751588e-05 -1.19433425e-05 -1.24882281e-05 -1.25855622e-05
      -1.14492532e-05 -1.05891049e-05 -8.41091151e-06 -6.99443808e-06
      -3.54652684e-06 -6.49004164e-07 2.88806700e-06 3.47609466e-06
      5.51852827e-06 6.62445836e-06 6.16515672e-06 6.09819199e-06
      5.41100871e-06 4.21059895e-06 3.01894397e-06 2.68208424e-07
      -2.26500674e-06 -5.04683612e-06 -6.70963573e-06 -8.68045572e-06
      -8.03869625e-06 -7.38609560e-06 -3.65916389e-06 1.88918364e-06
      6.28573343e-06 9.59246790e-06 1.09772027e-05 8.98310736e-06
      5.59757609e-06 2.54176257e-07 -6.08879418e-06 -1.17328409e-05
      -1.45964295e-05 -1.45100867e-05 -1.22169495e-05 -9.38194808e-06
      -5.54096505e-06 -1.50314065e-06 2.33830792e-06 5.56973782e-06
      8.51847017e-06 1.11646468e-05 1.21285047e-05 1.24707794e-05
      -5.35784420e-06 -5.55145016e-06 -7.03920796e-06 -8.57509440e-06
      -9.00960913e-06 -9.77510263e-06 -9.70146175e-06 -9.82893926e-06
      -7.28303939e-06 -4.96072789e-06 -2.09601671e-06 -9.35960543e-07
      1.70434078e-06 3.88495801e-06 4.40047506e-06 5.57396652e-06
      6.18771674e-06 6.71171665e-06 6.68748635e-06 5.63552112e-06
      4.03974354e-06 1.70643034e-06 3.25029418e-07 -1.65595975e-06
      -2.53223152e-06 -3.32487866e-06 -1.83051168e-06 1.05513936e-06
      3.28172882e-06 4.69727502e-06 4.47374623e-06 2.62710205e-06
      -4.33922139e-07 -4.45867954e-06 -9.15371857e-06 -1.32464811e-05
      -1.51085724e-05 -1.47936316e-05 -1.31536235e-05 -1.09320654e-05
      -7.75010449e-06 -4.49294248e-06 -8.18623050e-07 3.19046626e-06
      6.95832659e-06 1.04342207e-05 1.22583106e-05 1.27794765e-05
      1.59484034e-06 1.42533236e-06 -4.08108235e-07 -2.74923150e-06
      -4.24302470e-06 -5.96271730e-06 -7.42681095e-06 -8.87186161e-06
      -7.65294499e-06 -6.09907329e-06 -4.29735519e-06 -2.86676845e-06
      -2.07893635e-07 2.62606454e-06 3.99401188e-06 5.93008599e-06
      7.41955864e-06 8.90798037e-06 9.30764782e-06 9.03962791e-06
      7.88239868e-06 5.61797287e-06 3.85723570e-06 1.58569571e-06
      -9.98537530e-07 -3.46784191e-06 -4.80790959e-06 -4.85806822e-06
      -4.71555541e-06 -4.67316931e-06 -5.25999394e-06 -5.46080037e-06
      -6.26910651e-06 -7.12417659e-06 -8.65514994e-06 -1.01830565e-05
      -1.07178384e-05 -1.04275114e-05 -9.82477377e-06 -8.89814055e-06
      -7.33039860e-06 -5.56200121e-06 -2.86661066e-06 6.90987235e-07
      4.16281910e-06 7.45576108e-06 9.42575116e-06 9.94974744e-06
      1.89978823e-06 1.95574103e-06 8.60566843e-07 -6.89458659e-07
      -1.67188432e-06 -2.60825959e-06 -3.81132827e-06 -5.36472271e-06
      -5.03222100e-06 -4.04372304e-06 -3.14714362e-06 -2.01725561e-06
      -2.25286556e-07 2.07728681e-06 3.36426456e-06 4.68270491e-06
      5.72923045e-06 6.68845814e-06 6.51505889e-06 5.90154878e-06
      4.89503600e-06 2.90769617e-06 1.12839371e-06 -9.63051548e-07
      -4.01611942e-06 -6.86527983e-06 -9.83944665e-06 -1.16118508e-05
      -1.23367709e-05 -1.26681207e-05 -1.24602248e-05 -1.05793561e-05
      -8.36326308e-06 -5.96374139e-06 -4.55339614e-06 -3.96492624e-06
      -3.59035857e-06 -3.72277577e-06 -4.57749002e-06 -5.27344764e-06
      -5.74949354e-06 -5.59677574e-06 -4.10046323e-06 -1.49500897e-06
      1.14455463e-06 3.80247479e-06 5.60145872e-06 6.18003742e-06
      -2.91798688e-06 -2.52158497e-06 -2.44319608e-06 -2.37063841e-06
      -2.07086464e-06 -1.23622726e-06 -8.18484011e-07 -1.27479461e-06
      -9.12175267e-07 -3.11469215e-08 4.36104131e-07 8.16005752e-07
      1.09475559e-06 1.50953326e-06 1.20215134e-06 3.52140802e-07
      -5.76012724e-07 -1.21343135e-06 -2.43843283e-06 -3.46115144e-06
      -3.56836358e-06 -3.85996645e-06 -4.05650235e-06 -4.50735661e-06
      -6.03868648e-06 -7.48426919e-06 -1.03527736e-05 -1.26505138e-05
      -1.37001680e-05 -1.43570060e-05 -1.38270016e-05 -1.11882800e-05
      -7.24977826e-06 -3.35735967e-06 -5.50065238e-07 1.28210672e-06
      2.29124544e-06 2.06385084e-06 2.80311838e-07 -1.31067441e-06
      -3.15099373e-06 -4.08391497e-06 -3.73280932e-06 -2.41904741e-06
      -1.12821272e-06 3.70009502e-07 1.65790289e-06 2.25719509e-06
      -6.84873748e-06 -6.21424624e-06 -5.52356323e-06 -4.46927152e-06
      -3.65794699e-06 -1.59119361e-06 3.97101047e-07 1.37360644e-06
      2.43962245e-06 3.53466817e-06 3.99467490e-06 3.71478291e-06
      2.53791382e-06 6.09144422e-07 -2.34747108e-06 -6.03064200e-06
      -9.55268115e-06 -1.18309181e-05 -1.40902812e-05 -1.47244364e-05
      -1.28440406e-05 -9.91848992e-06 -6.95002291e-06 -4.42336841e-06
      -3.21485254e-06 -2.55643522e-06 -4.51376854e-06 -6.98233316e-06
      -8.98825510e-06 -1.09326083e-05 -1.15378934e-05 -9.96664130e-06
      -6.54398173e-06 -3.24663756e-06 -5.23892481e-07 2.02413867e-06
      3.79230028e-06 4.43553108e-06 3.34461265e-06 2.49341565e-06
      9.55777523e-07 1.90254681e-07 -1.69004490e-08 -3.25228662e-08
      -3.14511624e-07 -3.99353581e-07 2.58568260e-08 4.07572657e-07
      -7.88558282e-06 -7.27560428e-06 -6.79383402e-06 -5.94188577e-06
      -5.79566859e-06 -3.61827369e-06 -9.81474500e-07 1.03171158e-06
      2.98083069e-06 4.47049979e-06 5.34036371e-06 5.17386115e-06
      3.49937864e-06 4.22502580e-07 -4.39018459e-06 -9.82685833e-06
      -1.48131385e-05 -1.78325408e-05 -2.08793881e-05 -2.08326965e-05
      -1.73835306e-05 -1.19171973e-05 -6.37062340e-06 -1.52499990e-06
      1.70887120e-06 3.78026130e-06 2.75368484e-06 4.39585051e-07
      -2.66473444e-06 -6.15208137e-06 -8.30874342e-06 -8.51389814e-06
      -7.01934869e-06 -5.52081656e-06 -3.85644125e-06 -1.38183623e-06
      7.58995725e-07 2.56275393e-06 3.29522481e-06 4.31352737e-06
      4.60268802e-06 5.42755106e-06 5.86156830e-06 5.34607580e-06
      4.32542856e-06 3.10601740e-06 2.80053996e-06 2.80696304e-06
      -8.09760968e-06 -7.76094748e-06 -7.81272865e-06 -7.67980873e-06
      -8.51802724e-06 -6.82470727e-06 -4.29068223e-06 -1.78687412e-06
      8.42157647e-07 2.78086804e-06 4.27988743e-06 4.91923174e-06
      3.90070409e-06 1.45731360e-06 -2.99452154e-06 -7.93720119e-06
      -1.22279325e-05 -1.46229759e-05 -1.78181181e-05 -1.76420490e-05
      -1.45188487e-05 -9.42213683e-06 -4.20114384e-06 3.04592163e-07
      3.44044383e-06 5.69136546e-06 5.67648976e-06 4.42222245e-06
      1.64153312e-06 -1.82680367e-06 -4.14853093e-06 -5.41355530e-06
      -5.75468903e-06 -6.32179899e-06 -6.41319502e-06 -5.35751997e-06
      -4.11772226e-06 -2.22763356e-06 -2.28424227e-07 2.35098219e-06
      4.76094920e-06 7.78246431e-06 9.85347651e-06 1.01771057e-05
      1.00246389e-05 8.88432805e-06 8.52690118e-06 8.30947192e-06
      -7.59894783e-06 -7.63129447e-06 -8.08391633e-06 -8.44279020e-06
      -9.83727841e-06 -8.72439705e-06 -6.58804311e-06 -4.06677418e-06
      -1.26319696e-06 8.16330157e-07 2.65059475e-06 3.94172957e-06
      3.86356260e-06 2.76114656e-06 1.70547537e-07 -2.87909847e-06
      -5.26911481e-06 -6.39148129e-06 -9.12042833e-06 -9.58337932e-06
      -8.32581372e-06 -5.96798964e-06 -3.47885725e-06 -1.28909721e-06
      4.36640875e-07 2.34796948e-06 3.64461744e-06 4.33392916e-06
      3.63367167e-06 2.13884027e-06 1.33980745e-06 9.74047794e-08
      -1.12748808e-06 -3.38675022e-06 -5.30870602e-06 -6.43339990e-06
      -7.03230853e-06 -6.32278307e-06 -4.40142821e-06 -1.39217354e-06
      2.10309804e-06 6.52863173e-06 9.98555788e-06 1.16512147e-05
      1.32603718e-05 1.30250864e-05 1.32023233e-05 1.29929604e-05
      -3.60017498e-06 -3.92969150e-06 -4.71193789e-06 -5.49587367e-06
      -7.27396036e-06 -7.04567992e-06 -5.66412973e-06 -3.66525228e-06
      -1.32464447e-06 3.09466003e-07 2.01845273e-06 3.36298740e-06
      3.63632080e-06 3.37111214e-06 2.32771595e-06 7.19450441e-07
      -2.22438587e-07 -5.89355182e-07 -2.61908099e-06 -3.72230306e-06
      -4.17599495e-06 -4.33396644e-06 -4.36702339e-06 -4.23764732e-06
      -3.69396435e-06 -2.02939486e-06 2.47013702e-07 2.61784066e-06
      4.24398786e-06 5.10499785e-06 6.21390473e-06 5.55964152e-06
      4.40330678e-06 1.44021328e-06 -1.33214132e-06 -3.88367926e-06
      -5.83357496e-06 -6.39173049e-06 -5.30476791e-06 -2.90936873e-06
      3.23219922e-08 4.05764013e-06 7.35977710e-06 9.39265556e-06
      1.20097284e-05 1.23995314e-05 1.30903099e-05 1.29010250e-05
      3.92130369e-06 3.44722275e-06 2.18121795e-06 5.56491784e-07
      -1.98735756e-06 -3.18074194e-06 -3.13005035e-06 -2.18689456e-06
      -7.42328609e-07 -6.49048482e-10 1.33320839e-06 2.33618061e-06
      2.27940700e-06 1.99267174e-06 1.31424383e-06 5.90810600e-08
      -1.77111971e-07 -1.57001793e-07 -9.22704999e-07 -1.22077938e-06
      -1.69815723e-06 -2.37043332e-06 -3.25704627e-06 -4.28153862e-06
      -4.85630835e-06 -4.11449537e-06 -2.43205363e-06 -1.60073398e-07
      2.26507609e-06 4.34568665e-06 6.60774367e-06 6.76606305e-06
      6.43785097e-06 4.29265810e-06 2.37972722e-06 2.52813123e-07
      -1.50075630e-06 -2.36415326e-06 -2.06109485e-06 -9.49542766e-07
      9.46884668e-08 1.91402728e-06 3.21438210e-06 3.99549572e-06
      5.90325726e-06 5.94980929e-06 6.64436311e-06 6.32744877e-06
      1.07904661e-05 1.02909426e-05 8.49843127e-06 5.85595353e-06
      2.35715038e-06 -2.68383133e-07 -1.65989127e-06 -1.82296981e-06
      -1.22464417e-06 -1.36588744e-06 -4.70672973e-07 9.06698219e-08
      -5.65709286e-07 -1.39376527e-06 -2.44736975e-06 -3.81654809e-06
      -3.51987137e-06 -2.82091696e-06 -1.72528848e-06 1.59945785e-07
      1.05996560e-06 1.29259740e-06 5.37425194e-07 -1.40284180e-06
      -3.58313218e-06 -4.73685441e-06 -5.02265402e-06 -4.43945464e-06
      -2.74345848e-06 -5.63720619e-07 2.08272013e-06 3.15615739e-06
      4.05322407e-06 3.76166395e-06 3.84221948e-06 3.51011658e-06
      3.13489500e-06 2.81863822e-06 2.73357045e-06 2.48492393e-06
      1.36499409e-06 3.95686925e-07 -1.03536843e-06 -2.28790464e-06
      -2.12080545e-06 -3.06501738e-06 -2.80335053e-06 -3.32504237e-06
      1.34019556e-05 1.29085565e-05 1.08861313e-05 7.78487629e-06
      3.85161957e-06 6.29757494e-07 -1.39078202e-06 -2.02180195e-06
      -1.76246601e-06 -2.27246437e-06 -1.59352919e-06 -1.24738665e-06
      -2.20483685e-06 -3.35890695e-06 -4.67348082e-06 -6.11277846e-06
      -5.54120470e-06 -4.40622080e-06 -2.33313540e-06 7.84949009e-07
      2.52467316e-06 3.33981188e-06 2.71695080e-06 3.03045539e-07
      -2.77675167e-06 -5.01431759e-06 -6.42874966e-06 -6.87827969e-06
      -5.76560524e-06 -3.70679732e-06 -9.92793730e-07 5.37080894e-07
      2.06813797e-06 2.79338383e-06 3.96578207e-06 4.68029793e-06
      5.13127270e-06 5.20414051e-06 5.03458750e-06 4.18706486e-06
      2.10020244e-06 -1.71535348e-07 -2.91141896e-06 -5.17468425e-06
      -5.93472305e-06 -7.42499878e-06 -7.43541614e-06 -8.05690797e-06
      -2.34124718e-06 -1.72944476e-06 -2.97466812e-07 1.82763233e-06
      3.40254587e-06 5.04481432e-06 6.37343283e-06 6.48036212e-06
      5.14824069e-06 3.08336303e-06 3.21987068e-06 3.50414189e-06
      2.35835955e-06 8.71918587e-07 -1.54997892e-07 -6.69544363e-07
      -2.20239500e-07 -6.15401419e-08 2.97794543e-07 -8.85234726e-07
      -1.17363390e-06 -9.88042302e-07 -6.70603015e-07 -9.81768608e-07
      -1.16445358e-06 3.68036524e-07 2.56244311e-06 3.97419217e-06
      4.20998822e-06 2.73807200e-06 1.71035310e-06 1.21732694e-06
      1.82948509e-06 2.11017095e-06 2.88081742e-06 2.94793654e-06
      2.58386922e-06 1.63383038e-06 1.05429149e-06 2.07227095e-06
      3.10106248e-06 4.06252957e-06 2.64185383e-06 -2.49269192e-07
      -2.20463312e-06 -1.77085758e-06 -8.58822887e-07 -4.24267569e-07
      -2.08809092e-06 -2.88630486e-06 -2.81160192e-06 -8.96835616e-07
      1.88169281e-06 4.56963471e-06 6.94118989e-06 7.96656605e-06
      7.55032215e-06 5.38028189e-06 3.33600019e-06 3.22901906e-06
      2.68674012e-06 1.49501204e-06 -5.15116824e-07 -1.95584335e-06
      -2.15610180e-06 -1.71956140e-06 -6.96899463e-07 -3.13627197e-07
      -4.02552672e-07 -9.67875849e-07 -1.50796166e-06 -1.17032528e-06
      -1.15077103e-06 -8.95229277e-07 9.69039320e-07 2.91577703e-06
      4.33756031e-06 3.81417249e-06 2.57156421e-06 1.37468066e-06
      1.71619604e-06 2.22944868e-06 3.16366004e-06 3.59784008e-06
      2.86715908e-06 2.33952119e-06 1.30982539e-06 8.75833166e-07
      2.03360264e-06 3.02620310e-06 3.97998292e-06 2.28173121e-06
      -2.33747727e-07 -2.32744333e-06 -2.62527806e-06 -1.24971723e-06
      -1.60438856e-06 -2.11643965e-06 -3.40206816e-06 -3.99811233e-06
      -2.22198878e-06 9.42034660e-07 4.79662776e-06 7.69893813e-06
      8.63773130e-06 7.84706936e-06 5.54677808e-06 3.23789027e-06
      2.72448210e-06 2.01204261e-06 7.67448739e-07 -1.05602930e-06
      -1.70565295e-06 -2.72150442e-06 -1.57702129e-06 -8.14480586e-07
      -2.56461533e-07 -6.33769616e-07 -1.53922792e-06 -1.69564441e-06
      -1.21878941e-06 -1.01525177e-06 -6.57294947e-07 3.32096050e-07
      2.31682088e-06 3.40016254e-06 3.23299105e-06 2.49298409e-06
      2.30359660e-06 2.66432153e-06 3.38106634e-06 3.86357215e-06
      3.43177203e-06 2.42347346e-06 1.71564852e-06 9.05409195e-07
      7.58014608e-07 1.37333302e-06 1.96549445e-06 1.95977509e-06
      1.22630297e-06 -3.75141184e-07 -2.06497998e-06 -2.38334064e-06
      -8.60800014e-07 -8.13745487e-07 -1.80077745e-06 -2.96696544e-06
      -3.73993521e-06 -2.39279211e-06 8.85731481e-07 4.29631473e-06
      6.63180435e-06 7.51250991e-06 7.03806109e-06 5.13169516e-06
      2.60286652e-06 1.72536647e-06 1.56135297e-06 1.49928826e-06
      9.33815215e-07 -4.02597436e-07 -7.30076465e-07 -2.37340757e-07
      4.32454812e-07 4.89962076e-07 -6.02337195e-07 -1.46346053e-06
      -1.90763558e-06 -1.09045175e-06 -1.15672970e-06 -1.57340821e-06
      -9.97080519e-07 2.55206032e-07 2.04392904e-06 2.88831598e-06
      3.08038534e-06 3.32298941e-06 3.49245920e-06 3.79193534e-06
      4.07519656e-06 3.30045805e-06 1.45993295e-06 -3.43354088e-07
      -1.47364744e-06 -1.70265071e-06 -1.19105630e-06 -7.18597391e-07
      -3.47205628e-07 -5.35175673e-08 -9.10135896e-07 -2.02915862e-06
      4.19622751e-07 2.67037905e-07 -6.14920168e-07 -1.77443678e-06
      -2.39235055e-06 -2.26797442e-06 -7.23093592e-07 2.59120407e-06
      4.98535792e-06 6.39726613e-06 7.10351651e-06 6.24347422e-06
      4.55293957e-06 2.42099327e-06 1.84022599e-06 2.61876085e-06
      3.54817280e-06 3.29101567e-06 3.00847432e-06 2.46567038e-06
      2.38571761e-06 2.36557662e-06 2.10629196e-06 9.77626314e-07
      -7.52945084e-07 -1.25582494e-06 -2.48820220e-06 -3.14832118e-06
      -3.00968600e-06 -2.37055406e-06 -1.44492515e-06 2.36936515e-07
      1.39368353e-06 2.74822696e-06 3.43769784e-06 3.38077484e-06
      3.33233424e-06 3.59378078e-06 2.23061943e-06 2.42250479e-07
      -2.44655962e-06 -4.06725349e-06 -4.63174956e-06 -3.76503067e-06
      -2.20200195e-06 -1.38937912e-06 -8.78001515e-07 -1.37155234e-06
      4.76665889e-07 2.57983913e-07 -6.09440690e-07 -1.77274046e-06
      -2.33494006e-06 -1.68057204e-06 8.88831195e-08 2.40164536e-06
      5.18876823e-06 6.94866276e-06 7.51725520e-06 7.34703099e-06
      6.21597519e-06 4.40282111e-06 2.64584219e-06 2.53645203e-06
      3.94908466e-06 3.80374581e-06 4.00430463e-06 4.19916205e-06
      4.31480748e-06 4.04798357e-06 4.38945835e-06 3.81500013e-06
      2.40993404e-06 9.27529641e-07 -1.13544354e-06 -2.92043592e-06
      -3.64180642e-06 -3.24835378e-06 -2.74957938e-06 -1.79219523e-06
      -1.35668154e-06 -1.42594550e-08 1.42353417e-06 2.33941569e-06
      2.15974455e-06 1.64925314e-06 1.25899476e-06 1.10984820e-06
      -7.46122396e-07 -3.46961633e-06 -5.30725583e-06 -5.47558011e-06
      -3.46309844e-06 -1.62886533e-06 -8.95461369e-07 -7.67924632e-07
      4.85182952e-08 -1.43664707e-07 -9.55652581e-07 -2.31528998e-06
      -3.05648791e-06 -2.29596662e-06 -5.95979657e-07 1.69120472e-06
      4.03531385e-06 5.59148839e-06 6.55249778e-06 6.71413818e-06
      6.33785112e-06 4.95651921e-06 3.44267823e-06 2.35969878e-06
      2.72242210e-06 2.34357549e-06 1.89139053e-06 2.10812300e-06
      2.39913334e-06 3.18830075e-06 4.46498507e-06 5.02531475e-06
      4.26779980e-06 2.98777240e-06 9.55050837e-07 -1.19542074e-06
      -2.84487396e-06 -3.02798799e-06 -1.70916530e-06 -7.30069758e-07
      -9.50870174e-07 -1.26246528e-06 -1.07956964e-06 4.30334779e-07
      1.47909338e-06 1.66236759e-06 1.24553469e-06 1.04580226e-06
      9.00049031e-07 -5.32870104e-07 -2.66832831e-06 -3.84112036e-06
      -3.35806317e-06 -1.97624513e-06 -7.22294601e-07 -6.90435513e-08
      -6.81838458e-07 -1.00587977e-06 -1.14181955e-06 -2.23348138e-06
      -3.34170772e-06 -3.21349330e-06 -1.57309887e-06 6.47180570e-07
      2.81090411e-06 3.10438463e-06 3.32544914e-06 3.25443216e-06
      3.56028363e-06 3.43682473e-06 2.56067210e-06 1.89275147e-06
      1.26660018e-06 1.14355009e-06 -2.94682678e-07 -1.31203444e-06
      -1.01171543e-06 -3.56705783e-07 1.55783562e-06 3.43263878e-06
      4.11698056e-06 3.23699169e-06 1.59873582e-06 -2.61148443e-07
      -1.25447571e-06 -1.96569613e-06 -1.01965179e-06 -3.97743394e-09
      8.53310311e-08 -3.97357098e-07 -1.18475486e-06 -1.39242081e-06
      1.12231277e-07 1.59843228e-06 2.62920503e-06 2.91441779e-06
      2.85019019e-06 1.71557326e-06 2.14483080e-07 -6.99440818e-07
      -1.10147096e-06 -3.12921799e-07 1.96350300e-07 3.89665530e-07
      -7.50570962e-07 -1.19923970e-06 -1.76392359e-06 -2.25199528e-06
      -3.19680680e-06 -3.02044577e-06 -1.89661387e-06 3.19020955e-07
      1.60023194e-06 1.26864870e-06 1.01073681e-06 2.96629992e-07
      4.11604958e-07 1.33523747e-06 1.34740026e-06 8.70185033e-07
      -3.40951345e-07 -7.99353685e-08 -6.86116152e-07 -2.36924166e-06
      -4.02734531e-06 -3.62064839e-06 -2.02753745e-06 -4.51653186e-08
      2.08253482e-06 2.55827945e-06 2.01471698e-06 1.15875821e-06
      -6.96211828e-07 -1.68442853e-06 -1.50821154e-06 1.86758253e-08
      5.93992525e-07 4.36789946e-07 -9.67274545e-08 -1.13194756e-06
      -1.08945494e-06 8.62654161e-08 2.19345134e-06 3.95631696e-06
      4.31081480e-06 3.63274603e-06 2.12904661e-06 8.33224817e-07
      6.27621034e-07 1.16014348e-06 1.50430435e-06 8.52470521e-07
      -6.57625549e-07 -8.63521450e-07 -8.76049228e-07 -9.92736886e-07
      -1.22141557e-06 -1.37277982e-06 -1.26957536e-06 7.24538211e-07
      1.93065307e-06 8.45374529e-07 2.68668163e-08 -9.88705551e-07
      -1.60352556e-06 -1.05922277e-06 -3.03383558e-07 2.06074731e-07
      -4.71435328e-07 -1.45362196e-06 -1.40624616e-06 -1.08745974e-06
      -3.25469318e-06 -4.37427525e-06 -3.92948095e-06 -2.56739463e-06
      -2.80329402e-07 1.32901641e-06 1.27156795e-06 1.19957417e-06
      -9.19274257e-08 -1.01936678e-06 -1.94746917e-06 -1.51701022e-06
      7.51787894e-08 6.85252473e-07 9.96045401e-07 1.08171582e-06
      3.57626135e-07 -7.67130075e-08 6.04479055e-07 1.90191383e-06
      4.07596644e-06 4.52031873e-06 4.00183535e-06 2.85451074e-06
      1.65937649e-06 1.56834915e-06 2.35912489e-06 1.77885056e-06
      1.07999256e-06 1.36242124e-06 1.66481425e-06 1.86983641e-06
      1.61458445e-06 1.61972173e-06 1.44807768e-06 2.02573347e-06
      2.76663809e-06 1.99427541e-06 8.62645038e-07 -3.57243607e-07
      -1.24990640e-06 -6.89777664e-07 -3.90611667e-08 5.07606785e-07
      6.53529469e-07 7.26282110e-08 -5.55119868e-07 5.31247153e-08
      -3.05652492e-07 -1.96948440e-06 -2.99012004e-06 -2.40626446e-06
      -1.29342664e-06 4.33504937e-07 4.73390799e-07 3.68880990e-07
      -6.89943022e-07 -1.20975585e-06 -2.24072824e-06 -2.33135074e-06
      -1.62276638e-06 -3.96178820e-07 2.89037075e-07 1.66476389e-06
      2.97527754e-06 2.69873817e-06 1.49058928e-06 1.73801106e-06
      2.60262595e-06 3.48537742e-06 3.78763548e-06 3.47708692e-06
      2.79251549e-06 2.55770669e-06 2.92889240e-06 2.97843167e-06
      2.40229724e-06 1.85307545e-06 2.13658768e-06 2.50354151e-06
      2.61583250e-06 2.88899946e-06 3.23296808e-06 3.62448986e-06
      3.87603086e-06 3.88613671e-06 3.32307513e-06 1.95343796e-06
      3.73783024e-07 4.05121938e-07 1.32047728e-06 2.05493939e-06
      2.28177146e-06 2.32342495e-06 1.96119640e-06 2.33356445e-06
      1.73950627e-06 7.14436851e-07 -7.60281637e-07 -1.69879024e-06
      -1.33765548e-06 -5.16215550e-07 -2.70676622e-07 -1.19715168e-07
      -1.14226589e-06 -1.64202629e-06 -2.81825760e-06 -3.21420157e-06
      -2.92700224e-06 -2.28537579e-06 -1.38713597e-06 1.69963030e-07
      2.52330960e-06 3.76089474e-06 3.32553327e-06 2.94375945e-06
      2.75542470e-06 2.88003775e-06 2.28043746e-06 2.50160861e-06
      2.44489638e-06 2.17055594e-06 2.24197538e-06 2.47854132e-06
      2.59387116e-06 2.23218285e-06 2.16602530e-06 2.63485254e-06
      3.23002996e-06 4.27995928e-06 4.46773720e-06 5.14851399e-06
      5.80021742e-06 5.70362727e-06 5.76686534e-06 4.85134615e-06
      3.29089607e-06 1.38804455e-06 1.21756864e-06 2.65722201e-06
      3.58537409e-06 3.44583623e-06 3.58174702e-06 4.14783790e-06
      4.26671659e-06 2.95737209e-06 1.28489535e-06 -3.31977560e-07
      -1.37317522e-06 -1.12671023e-06 -2.18037570e-08 -1.57222459e-07
      -9.69449388e-07 -8.86384953e-07 -1.95170787e-06 -3.91818048e-06
      -4.61722084e-06 -4.75646311e-06 -4.44467742e-06 -3.07519394e-06
      -7.17565911e-07 1.20781078e-06 2.30175010e-06 2.36968458e-06
      2.15292380e-06 2.61026480e-06 1.00924160e-06 1.57260899e-07
      4.16174345e-07 7.63700541e-07 9.80885829e-07 1.06158359e-06
      7.07409470e-07 1.32435389e-06 1.34902484e-06 2.16715625e-06
      4.11480050e-06 5.75061676e-06 6.08587015e-06 6.14086457e-06
      5.76857065e-06 5.50782215e-06 6.28182988e-06 6.07831271e-06
      4.93204470e-06 2.39456858e-06 -1.05136827e-07 -7.40830274e-07
      1.18111848e-06 3.02066269e-06 3.50132768e-06 3.96500172e-06
      4.54475412e-06 4.22571566e-06 2.83088252e-06 3.67499240e-07
      -1.45987076e-06 -2.36447295e-06 -1.37854431e-06 -3.41410896e-07
      -1.19243941e-06 -6.10315738e-07 -3.42299813e-07 -1.70066437e-06
      -3.62293417e-06 -4.63878496e-06 -5.52397432e-06 -5.47679701e-06
      -4.08417691e-06 -2.48656511e-06 -7.04612887e-07 8.38032861e-07
      4.35752014e-07 7.12828353e-07 -2.71073247e-07 -1.29896955e-06
      -2.60338379e-06 -1.62681954e-06 -4.87086197e-07 4.17391561e-08
      5.78025038e-07 2.10068180e-07 6.69980409e-08 5.78177207e-07
      2.63692482e-06 5.30172110e-06 6.24371069e-06 6.11095811e-06
      5.27583143e-06 4.43797262e-06 5.65221990e-06 6.09482458e-06
      4.97626979e-06 2.69867564e-06 -8.11833843e-07 -3.24201551e-06
      -3.61912180e-06 -1.60309276e-06 7.94449875e-08 1.64792561e-06
      2.22060066e-06 3.38441419e-06 2.90205071e-06 1.03910838e-06
      -9.59923796e-07 -1.83875113e-06 -2.07770199e-06 -1.38197436e-06
      -1.92374046e-06 -1.19963090e-06 -2.95610761e-07 3.37571493e-07
      -1.91936508e-07 -1.67693668e-06 -3.12290240e-06 -4.06544632e-06
      -4.73816772e-06 -4.11417068e-06 -2.95849622e-06 -7.78633591e-07
      -4.41447639e-07 -9.21391404e-07 -1.63648883e-06 -1.46352670e-06
      -1.70317253e-06 -2.01082025e-06 -1.48517586e-06 -5.60575074e-07
      2.45034266e-06 1.83089628e-06 7.90156548e-07 4.25154496e-07
      1.30081003e-06 2.99663498e-06 4.23415304e-06 4.61280388e-06
      3.96987843e-06 3.05940307e-06 3.26843724e-06 4.90097182e-06
      3.87768159e-06 2.76608944e-06 -4.30003837e-07 -3.67961547e-06
      -5.64963921e-06 -5.29744511e-06 -4.03896138e-06 -2.02087790e-06
      -1.83069892e-06 -2.27454436e-07 8.54750965e-07 1.87418686e-06
      -4.00608258e-07 -9.52660628e-07 -8.31668899e-07 -2.63477403e-07
      -1.49802042e-06 -2.26231055e-06 -1.75240666e-06 1.54678546e-07
      2.29208490e-06 2.58948353e-06 1.66124926e-06 2.44220047e-07
      -9.10923120e-07 -1.72540808e-06 -1.88115666e-06 -4.75952646e-07
      2.90348368e-07 1.81077084e-07 -9.42388283e-07 -5.37676499e-07
      -1.70692033e-06 -1.65846905e-06 -1.56112594e-06 -1.18874095e-06
      2.39364067e-06 2.45484216e-06 1.72939087e-06 7.68450775e-07
      1.24724602e-06 2.12111058e-06 2.89710624e-06 2.04239996e-06
      2.00759860e-06 6.95429492e-07 4.52932056e-07 1.22861684e-06
      1.16743297e-06 9.98611313e-07 -9.70087967e-07 -4.83182885e-06
      -6.41329461e-06 -7.11173834e-06 -6.67788026e-06 -4.03184322e-06
      -3.25152951e-06 -2.59179910e-06 -2.19846106e-06 -7.09079814e-07
      -5.73737452e-07 4.08086919e-07 -2.63647621e-07 1.41527573e-06
      2.14419515e-06 6.56426323e-07 -5.83060455e-07 -2.39725694e-07
      1.82027213e-06 4.19601020e-06 5.16064301e-06 4.51592177e-06
      3.06203628e-06 1.45994375e-06 1.06621587e-06 1.95225471e-06
      2.53999269e-06 2.17167121e-06 1.17197055e-06 1.08630968e-06
      -5.76830473e-07 -1.35224582e-06 -1.87512728e-06 -1.65118445e-06
      1.07836308e-06 1.60950754e-06 1.66604480e-06 5.57222677e-07
      1.39827762e-07 6.94715482e-07 1.70521855e-06 1.00910222e-06
      1.34997237e-07 -5.40631561e-07 -6.89211220e-07 -6.22688617e-07
      1.31050697e-07 1.25986014e-06 4.44693512e-07 -3.62811397e-06
      -8.00761063e-06 -9.36291144e-06 -8.36225081e-06 -4.93581047e-06
      -2.64179880e-06 -1.16986701e-06 -2.44652597e-06 -2.65961398e-06
      -2.44738658e-06 -7.82912252e-07 1.31167940e-06 2.24213022e-06
      4.33950845e-06 4.89729746e-06 3.66282029e-06 1.47561536e-06
      9.85946599e-07 2.33765422e-06 4.97898691e-06 5.73380021e-06
      4.56462976e-06 3.29412433e-06 1.97743134e-06 2.29862530e-06
      3.31425576e-06 3.36738321e-06 3.25708311e-06 2.69170459e-06
      6.75606088e-07 -1.19951449e-06 -2.35602852e-06 -3.03221236e-06
      1.12804889e-06 1.05336176e-06 9.70915266e-07 3.33893524e-07
      -4.78111929e-07 -7.62286220e-07 2.28910153e-07 2.02109121e-07
      -8.88112538e-07 -1.12941916e-06 -9.34200955e-07 -3.50930947e-07
      7.44846204e-07 2.40683585e-06 2.35572816e-06 4.21368270e-07
      -4.62594517e-06 -9.87637486e-06 -9.84846156e-06 -6.99594011e-06
      -3.73748344e-06 9.19579932e-08 3.64553017e-07 -4.82920143e-07
      -1.42222018e-06 -1.41893418e-06 1.44138619e-06 2.95992868e-06
      4.85447254e-06 5.25875021e-06 5.51326366e-06 4.16186867e-06
      1.90209562e-06 1.21663754e-06 2.59700755e-06 4.33442483e-06
      3.69677946e-06 2.13597286e-06 2.31906415e-06 1.43321449e-06
      2.19092817e-06 2.15749310e-06 2.09713403e-06 2.30073169e-06
      1.11255235e-06 -7.93136280e-07 -2.49371192e-06 -3.23974746e-06
      3.68440874e-06 2.92685672e-06 2.24162704e-06 1.76259823e-06
      9.34739489e-07 -7.85861346e-07 -9.61078740e-07 -4.74236856e-07
      -1.64711230e-06 -1.97027680e-06 -1.08579468e-06 -4.69700083e-08
      2.28124281e-06 4.79910568e-06 6.19426874e-06 4.02005480e-06
      7.46490798e-07 -4.22756784e-06 -7.59217528e-06 -7.23553467e-06
      -4.58677778e-06 -1.03688808e-06 1.52415123e-06 2.04548223e-06
      1.42900888e-06 1.78605478e-06 2.45473029e-06 3.85407657e-06
      4.93183825e-06 4.38851976e-06 4.10058192e-06 3.69260238e-06
      2.00432532e-06 -4.38814510e-07 7.61446813e-07 2.31740273e-06
      2.13823296e-06 9.32920557e-07 6.06416734e-07 1.09642701e-06
      8.35873664e-07 8.79665208e-07 -1.11166216e-07 -6.18779552e-07
      -8.98807627e-07 -1.50993606e-06 -2.53393296e-06 -3.29919135e-06
      5.24584812e-06 5.87253135e-06 5.32221611e-06 4.02798605e-06
      3.18169714e-06 1.89696175e-06 -1.17681782e-06 -1.15727426e-06
      -1.00033515e-06 -1.54304144e-06 -1.16170418e-06 3.07203919e-07
      2.30240175e-06 5.05304843e-06 7.38849258e-06 7.68869177e-06
      4.53558732e-06 1.14310262e-06 -1.32867024e-06 -3.25525116e-06
      -2.16608487e-06 -6.89708600e-07 9.82080110e-07 2.18204445e-06
      1.73571379e-06 1.94084714e-06 2.64711889e-06 3.20743197e-06
      4.43647650e-06 4.30336604e-06 2.97702468e-06 2.13789667e-06
      1.26738882e-06 -7.57634098e-07 -2.01719013e-06 3.21246205e-07
      8.62349282e-07 5.28097246e-08 -3.06217572e-07 2.55858168e-07
      4.59613801e-07 6.32008948e-07 -5.98579504e-07 -1.28146974e-06
      -2.06743903e-06 -2.23257211e-06 -2.25235408e-06 -2.28556291e-06
      4.51181995e-06 5.98397719e-06 6.64471963e-06 6.24150425e-06
      4.94611459e-06 3.59721457e-06 6.57451210e-07 -2.13040857e-06
      -1.71897898e-06 -2.24179217e-07 -3.05565464e-07 3.61158527e-07
      1.37943493e-06 3.47655441e-06 4.82177529e-06 6.03053695e-06
      5.71169494e-06 3.79276617e-06 3.03174238e-06 1.93170536e-06
      1.23071561e-06 2.84331236e-07 -2.75504590e-07 2.12491372e-07
      1.02217166e-06 1.91177014e-06 1.53910537e-06 1.85292538e-06
      2.18242849e-06 3.01544947e-06 3.04810396e-06 1.89142133e-06
      5.47085506e-07 -3.58229983e-07 -1.95139228e-06 -1.71587101e-06
      3.02518188e-08 3.35341127e-07 -2.77443661e-07 3.01352650e-08
      3.85347761e-07 6.81698282e-07 3.88647940e-08 -9.56172244e-07
      -1.08070128e-06 -1.16745059e-06 -1.27680369e-06 -1.52969210e-06
      1.10012877e-06 3.09384609e-06 5.07046752e-06 6.12874828e-06
      5.91588332e-06 4.10293796e-06 1.99666215e-06 -6.38246092e-07
      -2.80108702e-06 -8.88765953e-07 5.84284294e-07 1.01709600e-06
      1.43764703e-06 2.31840795e-06 3.15939201e-06 3.67374219e-06
      4.05011588e-06 3.86127431e-06 3.86009879e-06 2.88678666e-06
      2.00969976e-06 2.82221492e-07 -1.67515611e-06 -3.03467823e-06
      -2.05514698e-06 -3.21129676e-07 -1.16152705e-07 9.02539512e-07
      6.99538759e-07 1.79202243e-06 2.91014931e-06 3.23323820e-06
      2.69391694e-06 1.73276794e-06 3.84629004e-07 -4.06449828e-07
      7.29727105e-07 1.82262067e-06 1.26221641e-06 1.00633122e-06
      8.41770770e-07 1.05380377e-06 1.08380405e-07 -1.52087443e-06
      -1.60599222e-06 -6.91908554e-07 5.15546539e-09 -4.03292546e-08
      -4.85139890e-06 -2.89664399e-06 3.76688803e-07 3.26257759e-06
      4.67746122e-06 4.44059287e-06 3.28283022e-06 8.66316270e-07
      -1.66006669e-06 -1.20180778e-06 3.37106229e-07 1.37542145e-06
      1.40002680e-06 1.80983386e-06 2.11882798e-06 2.18434457e-06
      2.64435471e-06 2.32352090e-06 2.67434007e-06 2.47339540e-06
      2.07195490e-06 1.09532471e-06 -1.25953954e-06 -4.28328622e-06
      -4.86053750e-06 -3.47889682e-06 -2.93789162e-06 -9.60861939e-07
      8.49413254e-07 1.54573399e-06 2.28377371e-06 3.30420835e-06
      4.10727807e-06 4.33460491e-06 3.41407531e-06 1.96572205e-06
      2.52398581e-06 3.07067262e-06 2.86562477e-06 2.46607624e-06
      2.40737108e-06 1.74789614e-06 5.41325221e-07 -1.09268240e-06
      -2.09628433e-06 -2.07338780e-06 -8.16456293e-07 7.76672323e-07
      -8.38615506e-06 -6.31786088e-06 -3.52311326e-06 -7.90178603e-07
      1.87543742e-06 3.24216307e-06 2.82620340e-06 1.40095256e-06
      -5.01164322e-07 -1.29557793e-06 -1.88488315e-07 1.21312382e-06
      1.97672989e-06 1.36983067e-06 1.04050446e-06 4.13199018e-07
      8.23270511e-07 1.19691560e-06 1.62751735e-06 1.22959545e-06
      3.58425865e-07 -7.49329843e-07 -1.86717932e-06 -2.96764824e-06
      -4.75890965e-06 -4.75634897e-06 -3.88824901e-06 -2.40223221e-06
      1.31175500e-06 3.61154025e-06 3.61183311e-06 3.29362592e-06
      3.81258155e-06 3.92344646e-06 3.87452792e-06 3.59178034e-06
      4.32725528e-06 4.26414090e-06 3.65562300e-06 2.64931828e-06
      3.63349773e-06 3.39298026e-06 2.38678194e-06 1.18755565e-06
      3.02643656e-07 -2.15667146e-08 2.94217330e-07 9.92413334e-07
      -9.11331153e-06 -8.15730436e-06 -5.45060175e-06 -2.49000527e-06
      -9.24269159e-07 -2.29507524e-08 -1.74944184e-08 -3.38608459e-07
      -8.37016955e-07 -5.13866951e-07 1.63657248e-07 1.31274976e-06
      3.36156268e-06 3.00275815e-06 1.50501535e-06 -5.53467999e-07
      -9.31180978e-07 -3.90948998e-07 1.07906601e-07 -7.62025820e-08
      -8.07757147e-07 -1.85702197e-06 -3.19681135e-06 -3.08718222e-06
      -2.72760485e-06 -3.51025687e-06 -3.97092299e-06 -2.55859231e-06
      -3.47523553e-07 3.11893837e-06 5.12186625e-06 3.90777404e-06
      2.88569436e-06 2.75623802e-06 2.52075006e-06 1.99876058e-06
      2.96252188e-06 4.15821887e-06 3.67709822e-06 2.27574833e-06
      1.60377465e-06 2.51682673e-06 3.55236875e-06 3.79884523e-06
      3.67952066e-06 3.29041131e-06 3.02234116e-06 3.32617242e-06
      -4.77673075e-06 -4.74611397e-06 -3.53734958e-06 -1.44951173e-06
      2.27906085e-07 3.97058329e-07 -9.95563482e-07 -1.98543603e-06
      -1.53705037e-06 -6.88763123e-07 1.01945056e-06 2.82142082e-06
      4.15309751e-06 4.68441976e-06 2.76681089e-06 -5.38953373e-07
      -1.57723071e-06 -1.36865685e-06 -6.79303128e-07 -1.72805912e-07
      -2.57754976e-07 -4.26042476e-07 -3.69974941e-07 -1.69769692e-06
      -8.37889388e-07 -3.91307623e-07 -1.65035067e-06 -2.65037079e-06
      -1.25617055e-06 9.33817034e-07 4.02058777e-06 5.47737682e-06
      3.88149192e-06 1.78877565e-06 6.79713196e-07 7.27367933e-07
      1.42948716e-06 2.27351097e-06 2.64701112e-06 1.16592503e-06
      -2.05273693e-07 -3.80961808e-07 3.33312755e-07 1.96415044e-06
      3.22851042e-06 3.38849009e-06 3.26698523e-06 3.66779909e-06
      -1.87299383e-06 -2.72932289e-06 -2.61924924e-06 -9.47575870e-07
      1.97254622e-06 2.69972156e-06 1.03828734e-06 -1.01246098e-06
      -1.78421465e-06 -5.21100048e-07 1.36357437e-06 3.50268010e-06
      5.73459829e-06 6.82395739e-06 5.21461197e-06 9.38194489e-07
      -2.23768302e-06 -1.92525545e-06 -4.53537922e-07 -8.66937398e-07
      -4.45097498e-07 -3.13188053e-07 2.27037367e-06 4.14452870e-06
      1.70730709e-06 1.49886091e-06 1.00706563e-06 6.18463076e-08
      -9.50317144e-07 -2.86019514e-07 8.80348693e-07 2.40750819e-06
      2.94990627e-06 1.34105574e-06 4.19648920e-08 -3.33731748e-07
      7.44205579e-07 1.44117837e-06 1.38723431e-06 3.69752740e-07
      -6.51270625e-07 -2.13986709e-06 -2.02559295e-06 -2.18205741e-06
      -1.41157193e-06 -1.00116824e-06 -7.51740970e-07 8.52005044e-08
      -1.84488351e-06 -2.71490649e-06 -3.30490229e-06 -3.23260974e-06
      -9.27838187e-07 1.91704157e-06 2.91326614e-06 1.56904173e-06
      2.29826213e-07 6.69904352e-07 1.92403922e-06 3.79469088e-06
      5.14874864e-06 6.79834739e-06 6.88893806e-06 4.12452800e-06
      -1.04923799e-06 -4.04932871e-06 -1.63495724e-06 -5.14097053e-07
      -6.81850523e-08 -5.37499261e-07 9.16006513e-07 5.29346971e-06
      5.90623449e-06 4.09680479e-06 1.70664157e-06 -5.72453303e-07
      -1.21219205e-06 -3.40484917e-07 1.84379559e-07 -1.16282486e-08
      -6.53148618e-07 -1.80004861e-06 -2.40910458e-06 -1.35612936e-06
      2.11340677e-07 1.41030978e-06 2.08822303e-06 1.70178100e-06
      5.81622373e-07 -1.32932132e-06 -2.39946439e-06 -3.32831587e-06
      -4.51599044e-06 -4.99519092e-06 -5.82184066e-06 -5.84352892e-06
      -1.35768357e-06 -2.24916630e-06 -3.50696951e-06 -4.74596800e-06
      -4.01074703e-06 -2.12959617e-06 9.40765858e-07 3.16553451e-06
      3.19747960e-06 3.09165694e-06 3.85400472e-06 4.99240832e-06
      5.32372496e-06 6.36938285e-06 6.47711386e-06 5.39662642e-06
      1.87809530e-06 -3.05641174e-06 -4.37195240e-06 -2.83824170e-06
      8.36034459e-08 8.79616309e-08 -1.89097307e-07 3.46221964e-06
      7.38201607e-06 7.93499566e-06 5.09597930e-06 2.32611967e-07
      -3.36329799e-06 -3.92292668e-06 -2.21918708e-06 -8.55197243e-07
      -2.84222665e-07 -2.26701945e-06 -4.11362271e-06 -3.12994212e-06
      -8.86182534e-07 3.26206958e-07 1.85385250e-06 3.04480136e-06
      3.13624832e-06 1.99687543e-06 6.09091444e-07 -8.99010445e-07
      -2.58577734e-06 -4.26506358e-06 -6.21908839e-06 -8.09277026e-06
      -1.35576022e-06 -1.33327546e-06 -1.36231699e-06 -2.88323076e-06
      -3.72163254e-06 -3.75650370e-06 -2.08014012e-06 -1.40530815e-07
      2.27607165e-06 3.66110066e-06 4.22212224e-06 5.19419427e-06
      5.25308451e-06 6.01233933e-06 5.79116022e-06 6.11913401e-06
      3.42867224e-06 6.71212320e-07 -3.26306395e-06 -3.65613460e-06
      -1.42638407e-06 4.35967962e-07 6.44618012e-07 -3.45580986e-08
      3.49627408e-06 7.07907202e-06 7.39662391e-06 3.84228815e-06
      -2.07599555e-06 -5.99383111e-06 -5.63214780e-06 -3.14958015e-06
      -1.28767670e-06 -1.18482501e-06 -2.05298261e-06 -2.68657163e-06
      -1.49772961e-06 -5.19154014e-07 2.12991978e-07 1.85531985e-06
      3.43121701e-06 4.37081417e-06 4.46015429e-06 3.13662849e-06
      9.76622232e-07 -9.53107246e-07 -2.39687620e-06 -4.34530648e-06
      -2.09985615e-06 -1.76529602e-06 -1.22934944e-06 -1.55727253e-06
      -1.88792103e-06 -2.18677428e-06 -2.29634293e-06 -2.35907964e-06
      -1.85435397e-06 -1.84403802e-07 1.10833901e-06 2.07455037e-06
      2.55663031e-06 3.16346905e-06 4.06400659e-06 5.02473722e-06
      3.28674878e-06 2.90233038e-06 1.98913703e-08 -2.47848470e-06
      -1.64632888e-06 -2.66797059e-07 9.46141654e-07 -1.93801569e-07
      -3.21472214e-07 2.19659114e-06 5.01534578e-06 5.85220141e-06
      2.29984471e-06 -3.56469263e-06 -6.84009638e-06 -5.05927574e-06
      -2.21208848e-06 -5.17101455e-07 -3.33548655e-07 -1.27225962e-06
      -1.19182948e-06 -5.32998513e-07 6.92243347e-08 4.11533421e-08
      8.09579376e-07 2.37813606e-06 4.79962910e-06 6.10079132e-06
      4.88889646e-06 2.78831340e-06 1.35448010e-06 2.16523731e-07
      -2.51550387e-06 -2.86841714e-06 -1.67747874e-06 -1.18629487e-06
      -1.93981435e-07 3.74319541e-07 -8.20361876e-08 -1.33489755e-06
      -1.90989567e-06 -2.22631320e-06 -1.65173833e-06 -1.21522078e-06
      -6.43243027e-07 -3.48739206e-07 4.59251510e-07 1.66863435e-06
      8.81899098e-07 1.25152076e-06 -1.13500778e-06 -1.14747036e-06
      -2.33597962e-06 -1.11413374e-06 -2.29444552e-07 -8.02987017e-07
      -2.27614419e-06 -2.35651964e-06 -9.17447608e-07 2.51845290e-06
      4.71308749e-06 2.44140983e-06 -2.17294109e-06 -3.83482666e-06
      -2.52212089e-06 -4.09252976e-07 7.21388801e-07 8.62501167e-07
      5.66907374e-07 8.27324300e-07 9.70445058e-07 3.42305071e-07
      -5.93881794e-07 -7.49943752e-07 1.37720667e-06 4.29358806e-06
      5.96170275e-06 4.75484103e-06 3.05476829e-06 2.07678522e-06
      -2.29183183e-06 -3.15260468e-06 -2.65901690e-06 -1.78342998e-06
      -2.59849458e-07 1.22567508e-06 2.02051865e-06 7.18003264e-07
      -5.92358901e-07 -1.90463845e-06 -2.78753328e-06 -2.82260021e-06
      -1.92050516e-06 -2.15570344e-06 -2.93174912e-06 -2.08112101e-06
      -1.55689384e-06 -1.09152973e-06 -3.16657474e-06 -3.75388777e-06
      -4.40852591e-06 -2.51064171e-06 -1.62972458e-06 -2.73998967e-06
      -4.11955671e-06 -4.07767357e-06 -3.91026197e-06 -3.54832764e-06
      -1.15809439e-06 1.37847087e-06 4.57407822e-07 -1.02641070e-06
      -1.33830247e-06 3.28385767e-07 1.13516194e-06 1.08225720e-06
      1.04538492e-06 1.91420986e-06 2.71730914e-06 2.19777326e-06
      1.87167174e-07 -6.95798235e-07 -7.70243446e-07 7.33972684e-07
      3.29537033e-06 4.75801153e-06 3.90129344e-06 2.13377621e-06
      -2.87063835e-06 -2.66393045e-06 -2.45227670e-06 -2.15995829e-06
      -7.93250820e-07 1.03409570e-06 2.25955750e-06 1.84524890e-06
      6.34966796e-07 -6.28198848e-07 -1.81120504e-06 -2.44310354e-06
      -1.93538017e-06 -2.09162249e-06 -4.20141896e-06 -4.99152020e-06
      -4.06491426e-06 -2.97527481e-06 -4.25443795e-06 -5.51000403e-06
      -6.94857954e-06 -4.12121608e-06 -2.37833410e-06 -2.13705698e-06
      -2.70931741e-06 -2.88027468e-06 -1.69114378e-06 -9.61955266e-07
      -1.34177310e-06 -2.25281337e-06 -3.23845552e-06 -3.03122965e-06
      -2.52182008e-06 -1.11149006e-06 2.70846215e-07 8.37231369e-07
      9.06373430e-07 1.88402259e-06 2.87897456e-06 3.13478677e-06
      2.04493199e-06 5.05570881e-07 -9.35838003e-08 -3.47369536e-07
      2.90276233e-07 1.45680121e-06 2.25979193e-06 1.65486108e-06
      -4.68350845e-06 -3.09463644e-06 -2.76013975e-06 -2.68429699e-06
      -1.80723259e-06 -2.94879300e-07 9.64052560e-07 1.43618058e-06
      1.01438877e-06 9.91730715e-08 -9.49115247e-07 -1.67093424e-06
      -1.69929092e-06 -1.21364019e-06 -2.75314596e-06 -5.01670229e-06
      -5.82047005e-06 -5.13272471e-06 -5.12714905e-06 -4.91202854e-06
      -7.13700820e-06 -6.35058495e-06 -4.49444497e-06 -1.73850924e-06
      -2.56546997e-07 -1.20206630e-06 -4.57368913e-07 9.87237058e-07
      7.54331609e-07 -8.65375455e-07 -4.90905632e-06 -6.89489661e-06
      -6.91696414e-06 -4.98044210e-06 -2.87006037e-06 -7.09097151e-07
      2.57256659e-07 1.65919994e-06 3.01421755e-06 3.58367902e-06
      2.66722077e-06 1.59130570e-06 5.68422308e-07 3.75514837e-08
      -4.51590871e-08 -1.65774765e-07 3.28736363e-08 -3.63822643e-08
      -5.73540638e-06 -4.64954383e-06 -3.99487089e-06 -3.19931974e-06
      -1.95475172e-06 -8.58544240e-07 -9.21283515e-07 -3.13314018e-07
      5.29038573e-07 3.63509002e-07 -6.47373213e-07 -1.38589382e-06
      -1.27861165e-06 -9.10221786e-07 -1.13084616e-06 -2.60835282e-06
      -4.42754526e-06 -5.38025597e-06 -5.10959853e-06 -4.21485220e-06
      -4.75135857e-06 -4.71519070e-06 -4.93810012e-06 -2.63470201e-06
      7.94300661e-07 1.08162942e-06 -2.14788713e-07 -2.23390899e-07
      2.70238161e-07 8.07270169e-07 -2.59920807e-06 -6.60559681e-06
      -9.24043434e-06 -8.91039599e-06 -6.44892953e-06 -3.08128324e-06
      -1.03157561e-06 1.18177729e-06 2.78578409e-06 4.03342074e-06
      4.10155371e-06 2.23509846e-06 5.23905499e-07 -9.85818929e-08
      -3.72982214e-07 -2.40730259e-07 -2.22909335e-07 -3.75554208e-07
      -4.33813875e-06 -4.23839901e-06 -4.17603860e-06 -3.54697204e-06
      -2.42410715e-06 -1.27462226e-06 -1.35556650e-06 -2.00212958e-06
      -1.46317791e-06 4.04928187e-07 6.93125514e-07 -3.43861416e-07
      -1.19539550e-06 -5.50703248e-07 -4.20872709e-07 -5.94291294e-07
      -1.44743660e-06 -2.32745947e-06 -2.81635016e-06 -2.84881776e-06
      -2.33775222e-06 -1.86595832e-06 -1.80239238e-06 2.44574352e-07
      3.18956336e-06 4.24534892e-06 2.83306690e-06 -3.73666126e-07
      -2.46052105e-06 -9.84179451e-07 -1.12335670e-06 -2.61784930e-06
      -5.49800779e-06 -7.98792371e-06 -7.72587282e-06 -4.98601094e-06
      -2.80680797e-06 -4.83850442e-07 1.95295684e-06 3.29782324e-06
      3.72621389e-06 2.83639565e-06 7.36951506e-07 -6.45283080e-07
      -5.73097225e-07 -2.88354300e-07 -1.40031474e-07 1.67053201e-07
      -2.09045697e-06 -2.42121268e-06 -2.66305074e-06 -2.48805259e-06
      -2.25699591e-06 -2.11935094e-06 -1.07416645e-06 -1.38560972e-06
      -1.63328525e-06 -6.29532678e-07 1.42621286e-06 1.33244271e-06
      -5.58615056e-07 -1.72757711e-06 -6.47660329e-07 2.80933477e-07
      -8.34942782e-08 -3.57983367e-08 -1.31137597e-07 -5.08569542e-08
      5.14700503e-07 1.36610288e-06 1.27955320e-06 2.55717327e-06
      5.62473679e-06 7.55552401e-06 8.01527494e-06 4.58836439e-06
      -5.44013233e-07 -2.68231793e-06 -2.04045409e-06 -1.05285369e-06
      -1.68239433e-06 -3.29618274e-06 -4.57247734e-06 -3.84213945e-06
      -2.66489724e-06 -1.22464576e-06 2.74502867e-07 1.79262872e-06
      2.46339027e-06 2.52611585e-06 1.77567824e-06 1.10862118e-07
      -6.81153949e-07 -2.21007667e-07 3.52254297e-08 3.77089265e-07
      -6.84659199e-07 -1.09841528e-06 -1.44474802e-06 -1.52402583e-06
      -1.51348593e-06 -2.04462140e-06 -2.22014069e-06 -2.26636439e-06
      -2.52497557e-06 -2.61370178e-06 -4.15674208e-07 1.73370847e-06
      9.35310311e-07 -1.29923546e-06 -1.29972273e-06 4.84420866e-07
      1.08247662e-06 1.75768901e-06 1.53169276e-06 2.75505545e-06
      3.35727623e-06 3.54802023e-06 3.50588061e-06 3.56971941e-06
      4.13650787e-06 7.09118831e-06 8.79012532e-06 8.27292479e-06
      5.36653033e-06 1.29090074e-06 -9.25236918e-07 -5.72304657e-07
      -3.73400070e-07 -9.41956671e-07 -1.20480661e-06 6.66761863e-08
      -1.82197851e-07 -2.62677759e-07 1.35498553e-07 9.11261964e-07
      7.59463035e-07 4.25691638e-07 5.82194161e-07 4.14841537e-07
      -1.71005041e-07 -4.38530776e-07 -1.27879119e-07 1.77277968e-07
      -9.14966236e-09 -3.92700542e-07 -7.07893548e-07 -8.19513559e-07
      -7.49012088e-07 -1.22454287e-06 -2.14804027e-06 -3.60219042e-06
      -4.62700882e-06 -5.16189493e-06 -3.53173778e-06 -3.60501730e-07
      1.20479854e-06 -2.78371687e-07 -1.59093247e-06 -1.08637742e-07
      1.63108098e-06 2.87141734e-06 2.85819101e-06 3.28485407e-06
      4.84449220e-06 5.46215961e-06 5.31832939e-06 4.24395421e-06
      2.74816352e-06 3.30598141e-06 4.94632695e-06 6.64034769e-06
      6.10690222e-06 5.47734271e-06 3.43001898e-06 2.80307290e-06
      2.23380175e-06 1.10380392e-06 4.62940562e-07 1.42414763e-06
      1.95493612e-06 1.26638008e-06 2.89841267e-07 2.38185692e-07
      3.78414882e-08 -5.56251052e-07 -8.39477650e-07 -3.38029594e-07
      9.29330994e-08 -3.02772705e-08 2.19043898e-07 2.98925755e-07
      2.01197665e-07 1.69437619e-08 -1.68435875e-07 -6.36232585e-07
      -5.60899934e-07 -4.77940375e-07 -1.41475664e-06 -3.20604136e-06
      -4.71917065e-06 -5.65561868e-06 -5.64004858e-06 -3.50740197e-06
      -7.41179463e-07 1.04590470e-07 -9.97278221e-07 -1.12759358e-06
      4.53556019e-08 2.47609910e-06 3.43594206e-06 3.53965675e-06
      3.78882669e-06 5.13197483e-06 5.50332743e-06 4.71722387e-06
      1.76704975e-06 2.73421620e-07 2.59240068e-07 1.93635537e-06
      2.69720408e-06 3.60912554e-06 3.43786360e-06 4.07353764e-06
      4.77738013e-06 4.19787557e-06 2.83549866e-06 2.25984354e-06
      2.85420060e-06 2.97495990e-06 1.07097674e-06 -5.66538915e-07
      -1.10064934e-06 -9.26589792e-07 -1.13997999e-06 -8.30618944e-07
      1.03138362e-07 6.96660720e-07 9.15963653e-07 8.94091784e-07
      3.04052406e-07 2.48984463e-07 2.02055688e-07 -1.66201247e-07
      -5.99414307e-07 -3.97916580e-07 -1.58734423e-07 -1.09509347e-06
      -2.47658477e-06 -4.22945595e-06 -5.45303465e-06 -4.75932666e-06
      -2.59214926e-06 -6.99822920e-07 1.52652220e-07 -1.49992673e-07
      -1.87608919e-07 1.55493262e-06 2.74955732e-06 3.02271837e-06
      3.35520281e-06 3.49761990e-06 4.06791287e-06 3.85575095e-06
      2.13013618e-06 -9.81682433e-07 -2.67867745e-06 -2.87327430e-06
      -2.70823057e-06 -2.51799702e-06 -2.60182856e-06 -1.39676081e-06
      8.01972817e-07 3.16602132e-06 2.95121208e-06 2.57551528e-06
      2.82523365e-06 3.26212057e-06 2.19401454e-06 -7.49580948e-08
      -1.61404841e-06 -2.02959814e-06 -1.84355497e-06 -1.40208726e-06
      -3.11899271e-07 7.50997231e-07 1.27187320e-06 1.43129876e-06
      1.00904674e-06 1.29191994e-06 1.15729722e-06 5.73214322e-07
      -4.65409272e-07 -8.71372492e-07 -3.51133707e-07 4.74541224e-07
      1.42054390e-07 -5.18674483e-07 -2.55666396e-06 -3.58128887e-06
      -3.21042103e-06 -1.54840222e-06 -6.06162530e-07 1.91618810e-07
      -1.14630154e-07 8.52192272e-07 1.79274571e-06 2.62240610e-06
      3.16621163e-06 3.09802863e-06 3.36452513e-06 3.29937075e-06
      3.10836981e-06 7.85317184e-07 -2.43123282e-06 -4.85135706e-06
      -6.57259307e-06 -8.01356600e-06 -8.56482166e-06 -7.10707445e-06
      -4.55923009e-06 -1.59857746e-06 3.14003529e-07 5.76979687e-07
      1.48582001e-06 1.85546583e-06 1.51502388e-06 -2.35570127e-07
      -1.26492569e-06 -1.63873869e-06 -2.06991490e-06 -1.66538734e-06
      -5.62685500e-07 1.11589281e-06 1.53810493e-06 1.65562426e-06
      1.94389918e-06 2.11435872e-06 2.37743620e-06 2.14717556e-06
      1.38515520e-06 -1.22727855e-07 -2.60667520e-07 4.21416644e-07
      8.99109239e-07 1.66307871e-06 9.10411472e-07 -5.74235685e-07
      -1.60656930e-06 -1.83063901e-06 -1.80550023e-06 -1.51463394e-06
      -4.78810080e-07 2.17147871e-07 1.27031205e-06 2.29910415e-06
      2.91994320e-06 3.17578656e-06 3.49568063e-06 3.40203223e-06
      2.65494782e-06 1.73130445e-06 -1.76964257e-08 -3.27528096e-06
      -5.58312149e-06 -7.07314257e-06 -8.56610950e-06 -8.36223717e-06
      -6.60149135e-06 -4.82931000e-06 -2.79420397e-06 -1.62725871e-06
      -1.13306932e-07 8.10176914e-07 5.42953615e-07 -4.65250793e-07
      -1.96668589e-06 -1.90163962e-06 -1.84185819e-06 -1.51987081e-06
      -7.86793862e-07 1.03828302e-06 1.78386142e-06 2.06232653e-06
      2.25974009e-06 2.24307382e-06 1.99443025e-06 1.89134232e-06
      1.65883409e-06 1.18426874e-06 1.13745337e-07 1.41556370e-07
      5.86896931e-07 1.29620560e-06 1.68771862e-06 1.64916901e-06
      6.01737952e-07 -2.87612067e-07 -1.72093758e-06 -2.27548071e-06
      -1.28366503e-06 5.74210794e-08 1.13272824e-06 1.34761740e-06
      1.69382588e-06 2.53410826e-06 3.05123490e-06 3.07987648e-06
      2.53880125e-06 1.57035640e-06 1.02914817e-06 -7.77964487e-07
      -2.28257932e-06 -3.99813098e-06 -5.13705982e-06 -7.11598068e-06
      -6.34929165e-06 -4.75824663e-06 -2.67193855e-06 -1.18984769e-06
      -1.50400403e-08 6.35360550e-07 1.47469279e-07 -7.73725162e-07
      -1.41716293e-06 -1.11815586e-06 -9.34852437e-07 -8.13162330e-07
      3.96663324e-07 1.29469356e-06 1.76689298e-06 2.03093236e-06
      2.15205682e-06 2.08612005e-06 1.50300855e-06 6.78914944e-07
      4.73492577e-07 -2.64078125e-07 -8.74980856e-07 -6.21915888e-07
      3.27999800e-07 1.21130950e-06 1.20970560e-06 1.56009696e-06
      2.50686912e-06 2.04629669e-06 1.66297639e-06 -1.22922458e-07
      -1.49838547e-06 -5.42289740e-07 9.77849027e-07 1.29476427e-06
      8.66354469e-07 3.95788703e-07 8.80625976e-07 2.07933590e-06
      2.62438448e-06 1.50696451e-06 6.19539094e-07 -1.91247935e-07
      -4.75211152e-07 -1.20529785e-06 -1.04418871e-06 -3.43539932e-06
      -4.71018666e-06 -3.57662407e-06 -1.36989661e-06 5.67153336e-07
      2.26573638e-06 2.55217492e-06 1.46910043e-06 5.17433314e-08
      -9.71767463e-07 -8.35896913e-07 -4.05059552e-07 -3.93120899e-07
      3.12761514e-08 1.50487472e-06 2.03621198e-06 2.40131226e-06
      1.83645795e-06 2.08832284e-06 1.83434918e-06 1.05706329e-06
      -3.83165201e-07 -1.37799464e-06 -1.46135756e-06 -8.95321591e-07
      -4.35041471e-07 4.90195475e-07 3.75224431e-07 5.71229066e-07
      1.39112547e-06 3.05476260e-06 3.23463746e-06 2.00805266e-06
      7.30522743e-07 6.41499071e-07 1.80520294e-06 1.87307796e-06
      1.60743309e-06 3.28061809e-08 -1.34431377e-06 -6.55295764e-07
      1.45385184e-06 1.33393451e-06 -1.96705031e-07 -8.74909119e-07
      -1.07150095e-06 -9.84541998e-07 -8.16904389e-07 -1.48478307e-06
      -3.18651178e-06 -2.81950224e-06 -7.85700024e-07 7.33621278e-07
      2.78503171e-06 4.21314417e-06 3.25404221e-06 1.81860742e-06
      2.03424463e-07 -5.56608597e-07 -5.94411119e-07 2.70614692e-07
      3.73857915e-07 8.48802586e-07 1.87874275e-06 2.39857491e-06
      1.04977266e-06 -1.22053814e-06 -4.72373085e-06 -4.89377771e-06
      8.85799665e-08 5.02060448e-06 8.20939840e-06 8.86369435e-06
      7.12815790e-06 3.36804715e-06 -1.61508297e-07 -7.27744066e-07
      2.93131226e-08 1.32446826e-06 1.54676036e-06 2.45637807e-07
      -4.92161234e-07 -8.22749769e-07 -9.74011755e-07 3.06238626e-08
      2.65285416e-06 4.50997004e-06 3.12972566e-06 5.87280965e-07
      -9.59132194e-07 -9.82946489e-08 1.99551300e-06 2.92003256e-06
      1.15269540e-06 -1.06857806e-06 -2.76990681e-06 -1.31830518e-06
      -4.82503538e-07 8.25382472e-07 3.18573552e-06 4.29839520e-06
      5.42168391e-06 4.89443801e-06 3.51172366e-06 1.49812956e-06
      -1.63848483e-07 -1.47143749e-06 -2.34475920e-06 -5.28888131e-06
      -7.75168519e-06 -7.37800610e-06 -5.42743101e-06 -4.51293590e-06
      8.06518642e-07 2.14179479e-07 -3.38938321e-06 -5.34628953e-06
      -2.03261902e-06 3.10108658e-06 7.13341205e-06 9.06615514e-06
      7.30437796e-06 4.35672246e-06 7.70021757e-07 -5.37702647e-07
      -7.84489259e-07 4.43506366e-07 2.41007251e-06 1.50217670e-06
      3.00375177e-07 -9.04763226e-07 -1.49061623e-06 -7.40500468e-07
      1.59728540e-06 4.34882031e-06 4.08132701e-06 1.53654162e-06
      1.88736664e-07 2.57422137e-08 1.36077290e-06 2.47059006e-06
      1.43996328e-06 -2.80148271e-07 -2.67457858e-06 -1.68935117e-06
      -1.31717911e-06 -3.71673622e-07 2.14817874e-06 3.97365284e-06
      5.35366144e-06 5.14402973e-06 3.03911429e-06 1.16902493e-06
      -6.76225341e-07 -1.96909059e-06 -2.32826301e-06 -4.14435044e-06
      -6.44335887e-06 -7.14231510e-06 -5.49291917e-06 -4.05123274e-06
      5.67393386e-07 1.78161611e-06 -9.83947530e-07 -4.09064523e-06
      -3.71378496e-06 4.73213049e-07 4.68801818e-06 7.97554458e-06
      6.56380917e-06 3.57538352e-06 1.31104900e-06 -1.45490517e-07
      -1.11332827e-06 -1.21388564e-06 1.04294406e-06 1.84813609e-06
      1.92709081e-06 3.22832506e-07 -1.35736957e-06 -1.48425340e-06
      2.95146179e-07 2.95539257e-06 4.60462434e-06 2.78177481e-06
      9.30511760e-07 5.00966621e-07 3.98949140e-07 7.50866036e-07
      9.26749578e-07 -8.05468119e-08 -2.13633234e-06 -2.29052830e-06
      -2.10650956e-06 -1.81046482e-06 5.36783830e-07 3.02666149e-06
      4.29817328e-06 4.67006066e-06 2.23807706e-06 1.72250250e-08
      -1.79420499e-06 -3.02743410e-06 -3.53727364e-06 -4.08710866e-06
      -5.61930528e-06 -6.47166326e-06 -5.29382032e-06 -3.64381026e-06
      9.13844417e-07 2.23211987e-06 1.00593240e-06 -2.17543447e-06
      -3.34957986e-06 -1.82743099e-06 1.64747212e-06 5.04878153e-06
      5.34694800e-06 2.60827551e-06 1.20187713e-06 7.36395009e-07
      -3.06082057e-07 -1.68086467e-06 -8.31496664e-07 8.18654257e-07
      2.73476917e-06 2.57481111e-06 -3.27484400e-07 -1.70539636e-06
      -6.58961198e-07 1.13467649e-06 3.36932089e-06 3.75324339e-06
      2.07774497e-06 1.06558070e-06 1.05984009e-06 -9.21480307e-07
      -3.37293500e-07 -6.95222724e-08 -1.16072590e-06 -2.94049983e-06
      -2.62358617e-06 -2.97213955e-06 -9.81883090e-07 1.80239203e-06
      3.34282140e-06 3.93095388e-06 1.74378226e-06 -1.67031556e-06
      -3.35538311e-06 -4.48754326e-06 -4.70336408e-06 -4.03660761e-06
      -3.99791543e-06 -4.31175295e-06 -3.67839812e-06 -2.15902651e-06
      6.09396579e-07 1.49934692e-06 1.15400553e-06 -1.34474385e-06
      -2.79669143e-06 -2.28997283e-06 -2.83848891e-07 1.91956610e-06
      3.28352462e-06 1.90851188e-06 6.88623061e-07 1.11897737e-06
      9.46856119e-07 -8.61182343e-07 -1.85591978e-06 -9.48886907e-07
      1.56119950e-06 3.82660392e-06 1.86256239e-06 -9.79928700e-07
      -1.28850206e-06 3.89443187e-07 1.83537122e-06 3.18705429e-06
      2.91728065e-06 1.26837733e-06 1.04613616e-06 -1.39293252e-06
      -2.46800050e-06 -1.15040018e-06 -1.09497728e-06 -2.48935248e-06
      -2.96325015e-06 -3.35150639e-06 -2.36566007e-06 1.26775731e-07
      2.10524649e-06 3.04123432e-06 1.85182159e-06 -1.93995152e-06
      -5.18354682e-06 -6.07784295e-06 -5.61794332e-06 -4.64648474e-06
      -3.28250007e-06 -2.13413978e-06 -1.48553011e-06 -4.20462726e-07
      1.17101763e-06 1.79800531e-06 1.42680813e-06 -5.60887543e-07
      -1.97334862e-06 -1.70891178e-06 -1.09652348e-07 1.48876757e-06
      2.19551112e-06 1.07387177e-06 5.06623905e-07 1.35718824e-06
      1.78925336e-06 1.71178351e-06 -2.16460421e-07 -1.42691442e-06
      -2.58955311e-07 1.94140853e-06 1.81687608e-06 7.26486959e-08
      -7.78510980e-07 4.55448088e-07 1.67932512e-06 2.77988784e-06
      3.21926018e-06 2.63097877e-06 1.71837269e-06 8.47458708e-08
      -2.86874752e-06 -2.64673758e-06 -1.97914073e-06 -1.52446614e-06
      -2.13753106e-06 -2.49302821e-06 -3.36548055e-06 -1.89294622e-06
      4.24345956e-07 2.01256194e-06 2.27690862e-06 -5.07100197e-07
      -4.17441879e-06 -6.47531442e-06 -5.75992544e-06 -4.53367738e-06
      -2.81103485e-06 6.90902908e-08 1.13264718e-06 1.05433958e-06
      5.92148240e-07 1.63048230e-06 1.78813571e-06 5.45126341e-07
      -1.59958302e-06 -1.65204744e-06 -2.94927673e-07 1.93031838e-06
      1.97170016e-06 6.33000184e-07 2.31101343e-08 1.27309352e-06
      2.47052731e-06 3.65554592e-06 3.01995146e-06 3.05375437e-07
      -3.08652204e-07 3.31320422e-07 4.15190783e-07 -6.86129965e-07
      -1.02166723e-06 5.36614948e-07 2.20157654e-06 2.87192211e-06
      3.56299415e-06 3.82505186e-06 3.14269255e-06 9.38726828e-07
      -1.56438057e-06 -4.12526970e-06 -2.24001997e-06 -7.72117403e-07
      4.68768633e-08 -8.18031253e-07 -2.29935677e-06 -2.42977012e-06
      -1.16564206e-06 9.82812594e-07 2.76694277e-06 1.55193459e-06
      -2.13558974e-06 -4.86391627e-06 -5.09238998e-06 -3.38626910e-06
      -1.81281780e-06 8.15521958e-07 2.78717903e-06 2.50276958e-06
      -6.65101879e-07 8.46785895e-07 2.12276859e-06 1.56162434e-06
      2.50549277e-07 -1.00740533e-06 4.53769644e-08 1.82989220e-06
      2.04459252e-06 3.52062415e-07 -5.85581233e-07 6.80590290e-07
      2.10467442e-06 3.39083090e-06 4.77512503e-06 2.28595582e-06
      -2.41129527e-07 -7.46381886e-07 -5.46381898e-07 -1.58636465e-06
      -2.65635208e-06 -9.15929434e-07 1.79670326e-06 3.11223994e-06
      3.74033561e-06 3.26834152e-06 2.93892299e-06 9.65393610e-07
      -6.70293900e-07 -3.47767809e-06 -2.93768994e-06 1.32706901e-07
      1.58126079e-06 8.63033449e-07 -3.00757563e-07 -1.59953686e-06
      -1.56745364e-06 -1.62994709e-07 2.85731880e-06 3.40891393e-06
      1.05743084e-06 -2.22234075e-06 -3.58307693e-06 -2.40150825e-06
      -1.12082751e-06 6.56194970e-07 3.07629784e-06 3.48224512e-06
      -5.84557597e-07 -3.07631097e-07 1.11771635e-06 1.22568554e-06
      1.01914725e-06 -1.90646610e-08 2.61314455e-07 1.39439078e-06
      2.50971357e-06 1.46590298e-06 -2.41775240e-07 -3.29435501e-08
      9.63452067e-07 1.65730069e-06 3.70600969e-06 3.75076320e-06
      3.81232582e-07 -2.12935515e-06 -2.06608320e-06 -2.38516805e-06
      -4.26736551e-06 -3.81559357e-06 -1.01820881e-07 3.26552708e-06
      3.55995212e-06 2.23296843e-06 9.92315336e-07 -5.23939832e-07
      -8.86177986e-07 -2.46092554e-06 -3.80549591e-06 -1.32893604e-06
      1.88021011e-06 1.93091796e-06 6.26453641e-07 6.01246711e-07
      6.76971069e-07 3.76984730e-07 2.17255320e-06 4.59262583e-06
      3.77549577e-06 1.35953064e-06 -1.02660840e-06 -1.19607319e-06
      -3.27578050e-07 6.30273746e-07 2.24772384e-06 3.25034921e-06
      2.12397978e-07 -5.52881204e-07 1.94465173e-07 4.59616047e-07
      4.46296838e-07 5.46308115e-07 3.93809074e-07 9.69729740e-07
      1.88607146e-06 1.91228673e-06 5.46142417e-07 2.78799376e-07
      7.36897391e-07 2.60832621e-07 1.49102766e-06 3.40025667e-06
      1.95908615e-06 -2.70058445e-06 -3.67364305e-06 -3.17511058e-06
      -4.47395541e-06 -5.95293841e-06 -2.89189347e-06 1.88852152e-06
      4.42772762e-06 2.93367816e-06 -2.42030462e-09 -2.28187150e-06
      -2.16702983e-06 -2.67245923e-06 -4.28045951e-06 -3.86938018e-06
      -4.04918836e-07 9.96488097e-07 4.66907380e-07 1.52102257e-06
      2.66854545e-06 1.98384259e-06 1.17474713e-06 3.44253067e-06
      5.04779791e-06 3.77720039e-06 1.07399421e-06 -1.27855813e-07
      4.17278301e-07 7.83088979e-07 1.65458596e-06 2.48798460e-06
      3.09738454e-07 -5.51079211e-07 -8.44741976e-07 -6.94829339e-07
      -7.00422049e-07 -6.35663696e-07 5.60386120e-08 5.64216123e-07
      2.14755528e-06 2.36969549e-06 2.39813562e-06 1.64510948e-06
      1.58525017e-06 5.01856832e-08 -4.08218739e-07 1.94362610e-06
      2.47800040e-06 -2.04379376e-06 -5.09470010e-06 -3.85198246e-06
      -3.57818749e-06 -5.41986674e-06 -5.05768003e-06 -6.06406161e-07
      3.75717468e-06 3.70582143e-06 1.78003873e-07 -2.63956372e-06
      -3.18672983e-06 -3.14085514e-06 -4.53362327e-06 -5.18816569e-06
      -3.31939805e-06 -8.00075043e-07 -4.72808466e-07 1.72715761e-06
      3.84314308e-06 3.51280528e-06 1.85055887e-06 2.00846466e-06
      4.03343120e-06 4.62266053e-06 2.59331046e-06 2.12105917e-07
      2.44669280e-07 9.92909236e-07 1.45507011e-06 2.30739420e-06
      6.95095181e-08 -5.65087873e-07 -1.35333391e-06 -1.66621749e-06
      -1.15003274e-06 -2.45824836e-08 1.46633499e-06 1.96719020e-06
      2.91228980e-06 3.59994851e-06 3.18796401e-06 2.35485822e-06
      9.96926360e-07 1.78134044e-07 -1.13633382e-06 -3.93274604e-07
      2.45665774e-06 -1.61431288e-07 -5.28822329e-06 -5.17504031e-06
      -3.25406108e-06 -3.52204393e-06 -4.21623645e-06 -2.44898683e-06
      1.72164812e-06 3.31391720e-06 1.77944935e-06 -1.85979320e-06
      -2.59478611e-06 -2.41711723e-06 -4.11116980e-06 -5.67501320e-06
      -5.27330258e-06 -2.96682560e-06 -1.01921114e-06 4.80911865e-07
      3.28763736e-06 4.04671709e-06 2.31558374e-06 1.67456415e-06
      2.36341953e-06 3.72627028e-06 2.60860634e-06 5.81421887e-07
      1.56150818e-07 9.47860883e-07 1.60232378e-06 1.94458153e-06
      3.21291623e-07 -7.64676031e-07 -1.56235467e-06 -2.06496316e-06
      -1.30780904e-06 5.11451560e-07 3.22828464e-06 4.61795662e-06
      5.01543855e-06 5.25691530e-06 4.67925338e-06 2.58344289e-06
      -3.47476885e-07 -2.15502587e-06 -2.31723538e-06 -2.57939701e-06
      4.52788271e-07 1.68903728e-06 -3.35084110e-06 -5.16338514e-06
      -2.45673891e-06 -1.49153209e-06 -2.12819100e-06 -2.03627178e-06
      1.73368690e-07 2.36066830e-06 2.55687678e-06 7.05326954e-07
      -5.36651385e-07 -5.63705214e-07 -1.91942399e-06 -4.06753770e-06
      -4.95484619e-06 -4.51074447e-06 -1.55780640e-06 -7.62618811e-07
      1.70188673e-06 2.54694282e-06 2.51087295e-06 7.79556331e-07
      3.17662511e-07 1.69898237e-06 2.36612823e-06 7.77509854e-07
      5.63841297e-07 8.66219921e-07 1.36978042e-06 1.42537897e-06
      3.65437302e-07 -5.29088311e-07 -1.25761346e-06 -1.95898974e-06
      -1.06819596e-06 5.40692952e-07 3.99810369e-06 7.17275088e-06
      7.65119057e-06 7.23699168e-06 5.98413953e-06 3.90346213e-06
      -3.27845299e-07 -3.88634089e-06 -4.84259544e-06 -4.15962222e-06
      -2.36634673e-06 1.44593389e-06 -7.39543509e-07 -3.61482489e-06
      -1.63682728e-06 6.07137963e-07 6.88288537e-07 2.21555737e-07
      1.04397782e-06 2.07635276e-06 2.74075842e-06 2.86675686e-06
      2.26784891e-06 2.09139898e-06 1.37221377e-06 -1.06356867e-06
      -2.29252714e-06 -3.57766498e-06 -2.86235081e-06 -1.45002798e-06
      5.49978438e-07 1.55213240e-06 9.68126074e-07 1.09428765e-06
      -5.30472789e-07 -6.51545463e-07 4.65614022e-07 -2.43283637e-07
      -1.05749893e-06 -3.78480053e-07 3.14489967e-07 9.79943366e-07
      4.35694403e-07 -3.44711367e-07 -8.55785686e-07 -1.33725223e-06
      -8.66779658e-07 5.26546842e-07 3.13675218e-06 7.19314176e-06
      8.56908991e-06 8.27677286e-06 6.88794216e-06 4.16986541e-06
      3.10037720e-08 -2.36139431e-06 -5.16653063e-06 -5.06984770e-06
      -3.95509051e-06 -5.19587331e-07 5.76986508e-07 -1.13006513e-06
      -5.11194855e-07 2.28924000e-06 3.30097464e-06 2.58601563e-06
      2.67358178e-06 2.28174031e-06 3.45021590e-06 5.04020909e-06
      5.41884447e-06 4.54248129e-06 3.48427329e-06 2.45647743e-06
      1.65752783e-06 -7.46069730e-08 -1.47066999e-06 -2.29625448e-06
      -5.14515193e-07 1.10498422e-06 2.31802090e-07 -1.38399699e-07
      -4.47276506e-07 -1.42263980e-06 -3.40647830e-07 -3.63293218e-08
      -1.56904889e-06 -1.73167643e-06 -7.00823364e-07 4.00737576e-08
      4.71909516e-08 2.79138419e-07 -3.19173154e-07 -5.79064249e-07
      -6.61895626e-07 5.22133696e-08 2.27237729e-06 6.14077726e-06
      9.02018655e-06 8.46742114e-06 6.97696305e-06 3.12654538e-06
      -6.69125825e-07 -9.79287393e-07 -2.51017400e-06 -4.52337190e-06
      -4.66611937e-06 -3.35498112e-06 -1.76899641e-06 -1.00133957e-06
      3.22728368e-07 2.90954722e-06 4.02626756e-06 3.80819665e-06
      2.96586632e-06 2.88818455e-06 3.32972718e-06 6.09781227e-06
      8.68857569e-06 7.99502141e-06 5.07026971e-06 4.31435819e-06
      5.76309867e-06 5.45872626e-06 2.39555266e-06 -5.68259736e-07
      -1.36631593e-06 4.85794772e-07 6.31320688e-07 1.42472246e-07
      2.46226335e-07 -6.42418527e-08 2.92443957e-07 6.11964992e-07
      -1.04702815e-06 -2.50816993e-06 -1.77025697e-06 -5.74358019e-08
      -7.46491196e-07 -6.21749678e-07 -3.46819263e-07 -5.17034209e-07
      -7.11381801e-07 -8.31473926e-07 3.22652994e-07 3.47406763e-06
      7.96320728e-06 8.60839191e-06 6.38215579e-06 2.69157545e-06
      -1.23923144e-06 2.89086529e-07 1.45362992e-06 -6.64270544e-07
      -3.64061839e-06 -4.75243542e-06 -4.50215475e-06 -3.26856048e-06
      -2.97489606e-07 2.57146917e-06 4.01321995e-06 3.73477337e-06
      3.16060436e-06 3.13058649e-06 3.52622965e-06 5.11228473e-06
      9.29561702e-06 9.76450610e-06 7.07356003e-06 4.03171725e-06
      6.04729667e-06 9.63467028e-06 6.82886457e-06 2.22581184e-06
      -8.53157701e-07 -2.39971541e-07 1.02055503e-06 9.48784987e-07
      8.82248287e-07 1.35485197e-06 8.90871661e-07 1.51863162e-06
      4.18263568e-07 -2.31152399e-06 -3.19340825e-06 -1.43932266e-06
      4.76887472e-08 -1.12397606e-06 -8.34322748e-07 -3.97084676e-07
      -1.21521236e-06 -1.76679191e-06 -1.11748489e-06 5.80780124e-07
      4.85269857e-06 6.97871610e-06 5.18580828e-06 1.80142172e-06
      -2.42777878e-06 2.30062810e-07 3.96583982e-06 4.00650561e-06
      -3.26385532e-07 -3.92274478e-06 -5.71606643e-06 -5.26426720e-06
      -2.94995152e-06 9.78092658e-07 2.80140648e-06 2.76405331e-06
      2.92423260e-06 2.99289309e-06 3.87023738e-06 4.68810686e-06
      7.17601188e-06 8.91147829e-06 6.89783928e-06 3.90275545e-06
      3.22664641e-06 9.26881967e-06 9.60807665e-06 5.06970719e-06
      2.48164973e-08 -7.91702405e-07 1.11883637e-07 1.15125499e-06
      1.45770548e-06 2.76014021e-06 2.46581180e-06 2.82152291e-06
      1.91996787e-06 -1.08738777e-06 -3.43652232e-06 -2.10313442e-06
      2.04880303e-06 1.67231269e-06 -2.77613992e-07 2.61731259e-07
      -1.53796577e-07 -1.85428439e-06 -1.92480456e-06 -8.45376803e-07
      1.38581015e-06 4.48584433e-06 4.02569776e-06 3.14422948e-07
      -4.43874205e-06 -2.07626749e-06 4.93641846e-06 7.95368214e-06
      4.17771525e-06 -2.04373964e-06 -5.06783181e-06 -6.25042912e-06
      -4.26902352e-06 -1.28256886e-06 1.73921796e-06 2.51653455e-06
      3.22794972e-06 3.80765846e-06 3.29614682e-06 4.81691450e-06
      5.53859900e-06 6.52906692e-06 6.22031303e-06 3.47111245e-06
      1.62824551e-06 5.32913464e-06 9.24886899e-06 6.28891257e-06
      1.24849760e-06 -1.61675928e-06 -5.55446320e-07 -1.51661908e-07
      3.70625088e-07 2.03353648e-06 3.12052430e-06 3.09844927e-06
      2.28704380e-06 -7.82710998e-08 -3.19545052e-06 -3.25706173e-06
      3.02807348e-06 4.24328346e-06 2.64485675e-06 1.09467078e-06
      7.86145904e-07 -6.29689509e-07 -1.66928237e-06 -1.38949110e-06
      8.51159996e-08 1.77089885e-06 2.58585419e-06 -5.19097625e-07
      -6.06127423e-06 -6.03846820e-06 2.64670030e-06 9.16841873e-06
      8.30926820e-06 7.37320704e-07 -3.47589958e-06 -5.37150618e-06
      -4.12411373e-06 -8.70631879e-07 1.69543239e-06 2.08325150e-06
      3.28428814e-06 5.13596660e-06 3.12680731e-06 4.31015405e-06
      5.49035849e-06 4.70542500e-06 3.49821744e-06 3.40136512e-06
      1.01642979e-06 1.08550580e-06 6.09354265e-06 5.02159492e-06
      1.26322823e-06 -1.34925926e-06 -1.13263002e-06 -2.79556701e-07
      -2.59594088e-07 1.27963904e-06 3.20991535e-06 3.25516339e-06
      2.62105800e-06 5.44769136e-07 -2.33521223e-06 -2.94964866e-06
      2.19508524e-06 6.68396387e-06 6.74880539e-06 4.20981996e-06
      2.66683946e-06 1.59167496e-06 -2.72769086e-07 -8.38894209e-07
      -2.65512057e-07 6.55568442e-07 1.26692237e-06 6.50633325e-08
      -5.40855262e-06 -8.64207777e-06 -2.33348692e-06 6.94939354e-06
      1.06250509e-05 4.37663721e-06 -2.27230703e-06 -3.34890137e-06
      -2.29014699e-06 5.14204203e-07 2.15565638e-06 1.23618042e-06
      1.76834965e-06 4.43538283e-06 4.27506166e-06 3.69791792e-06
      6.07126049e-06 4.99633506e-06 2.09311838e-06 1.41637543e-06
      4.47783947e-07 -8.55800636e-07 1.73842818e-06 2.66800453e-06
      -1.01767034e-06 -2.23626785e-06 -1.58746900e-06 6.31222363e-08
      -9.11225939e-08 1.54866950e-06 3.56093619e-06 3.04361015e-06
      2.04948515e-06 1.14200304e-06 -9.78737830e-07 -1.92622065e-06
      1.59964338e-06 6.76038098e-06 1.03145621e-05 8.78148785e-06
      5.28084183e-06 2.80112886e-06 7.32347132e-07 -5.81203174e-08
      -1.98414639e-07 9.35515402e-07 1.57417071e-06 3.31627604e-07
      -3.22698543e-06 -8.94962250e-06 -6.10342386e-06 2.42054170e-06
      9.03523414e-06 7.21824017e-06 9.18531953e-07 -1.30369108e-06
      -5.22193318e-07 2.23017787e-06 2.57873421e-06 8.66088214e-07
      -5.51205687e-07 2.18510877e-06 4.34908861e-06 4.17264027e-06
      5.49938341e-06 6.57773035e-06 3.21710672e-06 1.75588730e-06
      1.04696642e-06 -1.25658050e-06 -1.37086190e-07 -1.60287854e-07
      -3.17167951e-06 -4.45895193e-06 -1.69310499e-06 6.52109918e-07
      1.02500326e-06 1.99163492e-06 4.26113274e-06 4.01314446e-06
      1.57169961e-06 7.97139762e-07 -5.73559930e-07 -3.17185766e-07
      -1.97246163e-06 3.79822632e-06 9.47179433e-06 1.15192561e-05
      8.70723306e-06 4.14804936e-06 9.57052066e-07 9.18085732e-08
      1.44971196e-07 3.57439092e-07 1.46704929e-06 1.10223220e-06
      -4.86628892e-07 -4.71920384e-06 -7.63658500e-06 -3.16613978e-06
      3.45187573e-06 5.80178357e-06 2.47619801e-06 7.70916699e-08
      7.75146134e-07 3.01089722e-06 2.81945336e-06 5.00801377e-07
      -1.96850579e-06 -7.90506306e-07 2.01945863e-06 4.80650033e-06
      5.04814625e-06 6.13726024e-06 5.88070861e-06 3.84825853e-06
      2.63552170e-06 9.10391464e-07 -6.38548201e-08 -8.19086495e-07
      -3.78998266e-06 -6.02588443e-06 -2.86887303e-06 5.09942538e-07
      8.21963511e-07 2.13439034e-06 4.04946150e-06 5.12802899e-06
      2.15826503e-06 -1.78254083e-07 -5.28134819e-07 -8.00913938e-07
      -4.55202917e-06 -7.08031394e-07 6.79337791e-06 1.11450736e-05
      1.04644323e-05 6.09933250e-06 1.06847199e-06 -1.09483403e-06
      -1.05952631e-06 -1.07061476e-06 -1.53009424e-07 2.42887268e-07
      6.97281223e-07 -1.78731273e-06 -6.13306338e-06 -6.35390325e-06
      -2.56213661e-06 1.52744406e-06 1.97614781e-06 4.99805822e-07
      1.39961503e-06 3.53900327e-06 2.15145587e-06 -3.05597951e-07
      -2.79664278e-06 -2.98401710e-06 -7.32839169e-07 3.78617642e-06
      6.10816687e-06 6.67033237e-06 6.61686454e-06 5.68995938e-06
      5.03258207e-06 3.65259552e-06 1.43873160e-06 -2.15775700e-07
      -1.61723688e-06 -3.90442210e-06 -3.65088158e-06 -4.51902054e-07
      9.09996629e-08 1.22547954e-06 4.46840932e-06 6.83843018e-06
      4.39481391e-06 4.82150483e-07 -9.37092864e-07 -3.34863046e-07
      -6.28708358e-06 -4.78562242e-06 2.61790069e-06 8.72255441e-06
      1.03143675e-05 7.31415412e-06 2.47575440e-06 -1.68919735e-06
      -1.81294308e-06 -1.58663988e-06 -1.47584637e-06 -5.92272158e-07
      3.74044674e-07 5.78195092e-08 -4.56299495e-06 -7.39766347e-06
      -6.09210656e-06 -1.82193367e-06 1.04338858e-06 1.56128112e-06
      2.21801110e-06 3.96326050e-06 2.64938103e-06 6.35806771e-07
      -1.75857986e-06 -2.99328121e-06 -3.23585618e-06 3.57155407e-08
      4.74158151e-06 7.23038056e-06 8.08340792e-06 7.78528738e-06
      7.34465766e-06 5.52305664e-06 3.66949394e-06 9.95874103e-08
      -2.24598281e-07 -7.45039358e-07 -1.60804507e-06 -1.42007571e-06
      -1.68026554e-06 -1.00026205e-06 2.91999140e-06 7.50633490e-06
      6.56876909e-06 2.21811342e-06 -7.82646850e-07 9.19579520e-07
      -5.32389322e-06 -6.53542884e-06 -1.36256926e-06 5.41935196e-06
      9.48732031e-06 7.99052941e-06 3.59052456e-06 -7.25295990e-07
      -2.54664656e-06 -2.56690896e-06 -2.20622587e-06 -9.64877927e-07
      6.95192796e-07 8.53258086e-07 -2.59334820e-06 -7.30158854e-06
      -7.95268807e-06 -3.35371851e-06 7.08583229e-07 2.23407983e-06
      1.94875702e-06 3.48610774e-06 4.60279534e-06 2.69458405e-06
      1.11097870e-06 -3.39928789e-07 -2.99851854e-06 -3.41048280e-06
      1.32657954e-06 6.66245251e-06 8.72100281e-06 8.73101453e-06
      8.28073007e-06 6.75680667e-06 4.72628653e-06 8.06503294e-07
      -3.98687888e-07 1.57016450e-06 1.93635742e-06 1.89549013e-07
      -2.22620224e-06 -2.08829601e-06 9.21801188e-07 5.97919916e-06
      8.66211303e-06 4.96908115e-06 -2.24918608e-07 1.44653868e-07
      -3.20910726e-06 -4.99383486e-06 -3.24129314e-06 1.97012878e-06
      7.11041776e-06 7.24917118e-06 3.75401396e-06 3.21715191e-07
