<?xml version="1.0"?>
<opencv_storage>
<my_svm type_id="opencv-ml-svm">
  <svm_type>C_SVC</svm_type>
  <kernel><type>LINEAR</type></kernel>
  <C>1.</C>
  <term_criteria><epsilon>2.2204460492503131e-16</epsilon>
    <iterations>1000000</iterations></term_criteria>
  <var_all>69120</var_all>
  <var_count>69120</var_count>
  <class_count>2</class_count>
  <class_labels type_id="opencv-matrix">
    <rows>1</rows>
    <cols>2</cols>
    <dt>i</dt>
    <data>
      0 1</data></class_labels>
  <sv_total>1</sv_total>
  <support_vectors>
    <_>
      -5.41580175e-06 -4.69805764e-06 -2.08940560e-06 2.02792216e-06
      6.80385483e-06 1.12908983e-05 1.48068229e-05 1.71624997e-05
      1.85802637e-05 1.88520971e-05 1.88146350e-05 1.66993468e-05
      1.42443068e-05 1.11794106e-05 6.90553497e-06 1.03196214e-06
      -4.95404538e-06 -1.03183183e-05 -1.43076277e-05 -1.93405613e-05
      -2.12048544e-05 -2.06653549e-05 -1.71774809e-05 -1.39894919e-05
      -8.87574151e-06 -3.05759636e-06 1.50774633e-06 5.65616983e-06
      7.18759156e-06 6.98718395e-06 6.28961106e-06 4.23500705e-06
      3.09074971e-06 3.04952005e-06 3.54275653e-06 4.17420324e-06
      7.87591307e-06 8.47113552e-06 6.54025052e-06 4.18620357e-06
      3.65171729e-07 -5.25657151e-06 -1.10242891e-05 -1.61253283e-05
      -1.97070312e-05 -2.33005394e-05 -2.36776832e-05 -2.38280609e-05
      -4.32830848e-06 -3.66390850e-06 -1.77493246e-06 1.40140719e-06
      5.34949822e-06 8.86788985e-06 1.16021783e-05 1.34874736e-05
      1.47549272e-05 1.51228887e-05 1.56535098e-05 1.41575583e-05
      1.25270981e-05 1.03722650e-05 7.10427912e-06 2.66210736e-06
      -1.98334465e-06 -6.23254891e-06 -9.34690433e-06 -1.33980702e-05
      -1.50372034e-05 -1.47214541e-05 -1.19022570e-05 -9.49765763e-06
      -5.24252891e-06 -4.09148043e-07 3.48687126e-06 7.06058609e-06
      8.38987489e-06 8.12028793e-06 7.17393505e-06 4.93701646e-06
      3.35811046e-06 2.68029476e-06 2.55653117e-06 2.58917453e-06
      5.72518184e-06 6.49421554e-06 5.34624860e-06 4.03627337e-06
      1.61145317e-06 -2.45674983e-06 -6.79346977e-06 -1.07182168e-05
      -1.37829074e-05 -1.69005725e-05 -1.71764841e-05 -1.73541739e-05
      -1.13059389e-06 -5.84275142e-07 -2.40282077e-07 8.60564342e-07
      3.03535830e-06 4.24673681e-06 4.88216529e-06 5.31575188e-06
      5.63177855e-06 5.79619791e-06 7.15759779e-06 6.81957226e-06
      6.95132712e-06 7.05582306e-06 6.39359132e-06 5.53725067e-06
      4.11979499e-06 2.53838016e-06 1.38612620e-06 -5.13605357e-07
      -1.78400546e-06 -1.96912038e-06 -7.74171781e-07 -4.08616962e-08
      2.29598845e-06 5.00622764e-06 7.29885551e-06 9.54891948e-06
      1.04432347e-05 1.00950801e-05 8.72887449e-06 6.40046210e-06
      4.11904830e-06 2.38050461e-06 1.03593720e-06 -1.49151077e-07
      1.56877582e-06 2.57606121e-06 3.22879191e-06 4.01649004e-06
      4.50242169e-06 3.78883396e-06 2.48458605e-06 7.75866226e-07
      -1.25869133e-06 -3.57924432e-06 -3.95691904e-06 -4.30359933e-06
      3.42527824e-06 3.86884085e-06 2.95071982e-06 2.13436783e-06
      2.70220380e-06 1.52861980e-06 -4.06998197e-07 -2.00825502e-06
      -3.65943879e-06 -4.32216075e-06 -3.03688739e-06 -2.74372155e-06
      -1.16373428e-06 1.37545271e-06 3.54342296e-06 6.50899665e-06
      8.28452085e-06 9.37445111e-06 9.92070909e-06 9.78510798e-06
      8.47727460e-06 7.73713055e-06 7.10535596e-06 6.38011034e-06
      6.88346654e-06 7.71685882e-06 8.29113833e-06 9.31631530e-06
      9.75328294e-06 9.40997415e-06 7.78118010e-06 5.86455917e-06
      3.36753351e-06 1.25703866e-06 -8.51465188e-07 -2.80721861e-06
      -2.51416259e-06 -1.27769908e-06 1.39787608e-06 3.93502387e-06
      6.90224215e-06 9.23087828e-06 1.04686251e-05 1.00491334e-05
      8.71859538e-06 6.64014306e-06 5.49429615e-06 4.73280716e-06
      7.24310166e-06 7.54819712e-06 6.10282314e-06 4.06285426e-06
      3.38566952e-06 6.61096749e-07 -3.17395188e-06 -6.32747606e-06
      -9.62991544e-06 -1.07628912e-05 -1.00163497e-05 -9.42312363e-06
      -6.97454607e-06 -2.72552484e-06 1.16203921e-06 6.34362959e-06
      9.67327742e-06 1.21654593e-05 1.32589112e-05 1.35999180e-05
      1.15650309e-05 1.00291018e-05 7.70829138e-06 5.85882299e-06
      4.93040579e-06 4.49832896e-06 3.70157386e-06 4.07631615e-06
      4.06125901e-06 3.70341400e-06 1.87137596e-06 4.33496098e-07
      -1.91927302e-06 -3.85046360e-06 -5.99501209e-06 -7.87126282e-06
      -8.17709497e-06 -6.33005538e-06 -1.80103541e-06 1.99946430e-06
      6.40887038e-06 1.05892541e-05 1.29800501e-05 1.25137976e-05
      1.11267245e-05 8.57009854e-06 6.22024072e-06 4.89355443e-06
      8.29427881e-06 8.33142985e-06 6.90569050e-06 4.25941107e-06
      2.47370826e-06 -8.05968739e-07 -5.34349192e-06 -8.94508048e-06
      -1.23056025e-05 -1.26421664e-05 -1.16939545e-05 -1.02055928e-05
      -6.86304929e-06 -1.59856688e-06 2.91978722e-06 8.36812978e-06
      1.15120256e-05 1.38900259e-05 1.44212909e-05 1.41354494e-05
      1.09081730e-05 8.08801906e-06 4.11462588e-06 1.02440640e-06
      -1.13800752e-06 -2.47688763e-06 -4.16175635e-06 -3.89443312e-06
      -4.06612116e-06 -4.26443194e-06 -6.06722824e-06 -7.28722853e-06
      -9.38913217e-06 -1.11728959e-05 -1.30192393e-05 -1.44141468e-05
      -1.46542825e-05 -1.21662069e-05 -6.63997253e-06 -2.09088148e-06
      2.60648994e-06 7.23771427e-06 9.52008395e-06 8.41400470e-06
      6.41778570e-06 3.07593677e-06 -2.08267394e-07 -1.98054886e-06
      6.33576610e-06 6.13639941e-06 5.21030461e-06 2.63210927e-06
      2.95189551e-07 -2.56349949e-06 -6.74529247e-06 -9.87136082e-06
      -1.21053517e-05 -1.10428609e-05 -9.29318048e-06 -6.78902370e-06
      -2.78610332e-06 2.63143033e-06 6.95895915e-06 1.12751486e-05
      1.33513349e-05 1.47459705e-05 1.44481610e-05 1.33916246e-05
      9.48725574e-06 5.72260888e-06 6.87203226e-07 -3.25296946e-06
      -5.91668822e-06 -7.58309807e-06 -9.40296286e-06 -8.82535551e-06
      -8.51554705e-06 -8.14741634e-06 -9.40479822e-06 -1.04021865e-05
      -1.18976996e-05 -1.35471919e-05 -1.48949593e-05 -1.58039056e-05
      -1.60365016e-05 -1.37598799e-05 -8.79935942e-06 -4.59528064e-06
      -9.68988843e-07 2.64632649e-06 4.15081104e-06 2.76483502e-06
      6.21715856e-07 -2.94554525e-06 -6.15374302e-06 -7.98781184e-06
      2.89795526e-06 2.74895001e-06 2.87527359e-06 1.08605047e-06
      -5.78357515e-07 -1.98900648e-06 -4.90735238e-06 -6.87201373e-06
      -7.92670562e-06 -6.24909171e-06 -4.52764380e-06 -2.73600062e-06
      3.69939329e-07 3.99803957e-06 6.64419667e-06 8.63155947e-06
      9.41111921e-06 9.87481235e-06 9.67966571e-06 9.02391912e-06
      6.48579226e-06 4.00330555e-06 4.98767143e-08 -2.95294990e-06
      -4.54990959e-06 -5.86425722e-06 -7.28526811e-06 -6.72142369e-06
      -6.23099140e-06 -5.81559243e-06 -6.73561408e-06 -7.60937792e-06
      -8.12188318e-06 -9.30029728e-06 -9.60846501e-06 -9.63691036e-06
      -9.63276034e-06 -8.02535214e-06 -4.48929177e-06 -1.56765475e-06
      1.60223237e-07 1.92531911e-06 2.55157079e-06 1.53644942e-06
      2.86234609e-07 -2.47649041e-06 -4.55450936e-06 -6.03470653e-06
      3.52320683e-07 6.00885699e-07 2.14556781e-06 1.59876265e-06
      1.76096421e-06 2.41158477e-06 1.28172019e-06 5.95307085e-07
      -1.60809560e-10 7.53520737e-07 6.27111319e-07 -7.63250569e-07
      -4.49704572e-07 -7.22427103e-07 -1.33796345e-06 -2.35828520e-06
      -2.79430333e-06 -2.73027354e-06 -1.55781368e-06 -2.50184286e-07
      8.86568898e-07 2.21712980e-06 1.78768232e-06 1.55843622e-06
      2.04109074e-06 9.71774057e-07 -4.63157420e-07 -1.23610630e-06
      -2.19772892e-06 -3.17388640e-06 -4.72177589e-06 -5.83079645e-06
      -5.43699434e-06 -5.70354314e-06 -4.35140873e-06 -2.70556188e-06
      -1.45198862e-06 2.67531135e-07 3.00692977e-06 4.84683005e-06
      5.02462672e-06 5.23719564e-06 5.11528469e-06 4.70387931e-06
      4.74678473e-06 3.34590027e-06 2.69566203e-06 1.80243183e-06
      -4.94611868e-07 3.41143846e-07 3.23787526e-06 4.00958970e-06
      6.23975666e-06 8.78963056e-06 9.27910514e-06 9.26124630e-06
      8.35631454e-06 7.20153821e-06 4.16285366e-06 -1.04513390e-06
      -3.70128328e-06 -7.86672899e-06 -1.14841241e-05 -1.44354581e-05
      -1.55667076e-05 -1.54125846e-05 -1.28328302e-05 -9.58690089e-06
      -5.06094375e-06 -4.40315802e-07 2.34454001e-06 4.45137084e-06
      6.28496582e-06 4.88814339e-06 2.95023005e-06 3.06531945e-07
      -2.72009174e-06 -5.11969165e-06 -7.33239722e-06 -8.50914421e-06
      -7.61929141e-06 -6.91505738e-06 -4.19402659e-06 -9.92387413e-07
      1.62657795e-06 3.80173628e-06 6.34305206e-06 7.75944409e-06
      7.32353601e-06 6.95429389e-06 6.49713002e-06 6.86840440e-06
      8.21126923e-06 8.29355849e-06 8.83409302e-06 8.63020341e-06
      -1.04396975e-06 2.57172019e-07 4.09029462e-06 5.87549266e-06
      9.42692714e-06 1.33344038e-05 1.50570468e-05 1.54226491e-05
      1.43503821e-05 1.18944508e-05 6.94285700e-06 1.02793374e-09
      -3.81032123e-06 -9.53696508e-06 -1.39646127e-05 -1.64170524e-05
      -1.74616325e-05 -1.71039992e-05 -1.46909715e-05 -1.16072506e-05
      -7.07983372e-06 -2.83485883e-06 5.11396898e-08 2.21191885e-06
      3.98606244e-06 2.68157669e-06 1.07869198e-06 -1.88113597e-06
      -5.30190027e-06 -7.11152325e-06 -8.72991586e-06 -9.21499668e-06
      -8.15553358e-06 -6.88946329e-06 -4.06289109e-06 -7.41950316e-07
      1.53872156e-06 2.71403837e-06 4.09026461e-06 4.68736835e-06
      3.81006021e-06 3.31440583e-06 2.79800747e-06 4.01576335e-06
      6.67194627e-06 8.09653466e-06 9.46936871e-06 9.91902198e-06
      -2.18731452e-06 -7.54977179e-07 3.62083097e-06 5.90693526e-06
      9.64741048e-06 1.43928200e-05 1.70602416e-05 1.81238338e-05
      1.75393725e-05 1.50699798e-05 1.01748228e-05 4.32907791e-06
      1.50727215e-06 -3.23498034e-06 -6.30231261e-06 -6.46569015e-06
      -7.04442346e-06 -7.01563067e-06 -6.93097718e-06 -6.56922748e-06
      -5.50923869e-06 -4.81687221e-06 -4.21049936e-06 -3.36563676e-06
      -1.91752179e-06 -1.67045994e-06 -1.37149300e-06 -2.60550860e-06
      -4.61842956e-06 -4.21390450e-06 -4.24163818e-06 -3.43425131e-06
      -2.01165471e-06 -4.61310634e-07 1.65459107e-06 3.81611881e-06
      4.11999736e-06 2.65392760e-06 1.48259824e-06 1.33589680e-07
      -1.93583355e-06 -2.91865604e-06 -3.91589720e-06 -2.61608557e-06
      6.48970286e-07 2.52288487e-06 4.11594874e-06 4.90514458e-06
      -2.36197843e-06 -1.10259907e-06 3.44833370e-06 5.63027379e-06
      8.25172265e-06 1.29643240e-05 1.56824244e-05 1.70601124e-05
      1.64778958e-05 1.41095588e-05 9.87370004e-06 6.33812215e-06
      5.56898294e-06 3.09763846e-06 2.35488642e-06 4.94782353e-06
      5.08952189e-06 4.51089181e-06 1.54726024e-06 -1.53427141e-06
      -4.49691106e-06 -7.42138991e-06 -8.72916098e-06 -8.62420984e-06
      -6.73751947e-06 -4.24366272e-06 -1.73282933e-06 -7.88629848e-07
      -1.39879569e-06 6.56166662e-07 1.88780189e-06 3.77613856e-06
      5.86357010e-06 7.67017264e-06 9.21913579e-06 1.01095156e-05
      8.48175478e-06 4.62183289e-06 1.34148115e-06 -1.80779011e-06
      -5.25656287e-06 -6.67342329e-06 -8.42740155e-06 -8.02473005e-06
      -5.44384511e-06 -4.44747684e-06 -3.42410522e-06 -2.74373065e-06
      4.26654879e-07 1.19166316e-06 5.04530362e-06 6.10166671e-06
      6.21682375e-06 9.62021477e-06 1.10993997e-05 1.19807810e-05
      1.05768559e-05 8.10168331e-06 4.25251619e-06 2.84474595e-06
      3.89287925e-06 3.36249877e-06 4.43040017e-06 8.91875789e-06
      1.00179914e-05 9.37729601e-06 5.07477534e-06 6.70735858e-07
      -3.78174036e-06 -7.71954910e-06 -9.02604279e-06 -8.50265951e-06
      -5.82257280e-06 -2.09408404e-06 1.05989898e-06 2.85424608e-06
      2.45022306e-06 4.28106569e-06 5.47082709e-06 7.34267451e-06
      9.49222795e-06 1.12536218e-05 1.23724703e-05 1.25099896e-05
      9.83374593e-06 5.12724000e-06 1.56616363e-06 -1.75711148e-06
      -5.66561766e-06 -6.79962022e-06 -8.76156719e-06 -9.28522968e-06
      -8.11824430e-06 -8.49841945e-06 -8.56159750e-06 -8.25432198e-06
      3.51404515e-06 3.38392397e-06 5.26950089e-06 4.10811344e-06
      1.30507181e-06 2.74406102e-06 2.90521689e-06 3.91477579e-06
      2.90919206e-06 1.86793670e-06 -3.73041189e-07 5.91187188e-07
      2.71926751e-06 2.79399364e-06 4.13725456e-06 8.44518672e-06
      9.77921536e-06 9.06850346e-06 5.52954452e-06 2.52066297e-06
      -5.75589638e-07 -2.82675569e-06 -2.69801103e-06 -1.39660256e-06
      1.64639096e-06 5.10839436e-06 7.08591415e-06 8.03710373e-06
      7.09128926e-06 7.65575987e-06 7.88353464e-06 8.76400009e-06
      9.93889171e-06 1.11843246e-05 1.16385463e-05 1.14160357e-05
      8.12115468e-06 3.43941133e-06 5.11453891e-07 -1.85309648e-06
      -5.39216217e-06 -6.13045859e-06 -7.73476222e-06 -8.42179088e-06
      -8.34617913e-06 -9.34999298e-06 -1.04118044e-05 -1.04452347e-05
      1.83952932e-06 6.89727301e-07 -1.27724293e-08 -3.33143657e-06
      -7.87228601e-06 -8.08024652e-06 -8.14319446e-06 -5.59210139e-06
      -4.34748563e-06 -2.49326058e-06 -1.61792525e-06 1.96879728e-06
      4.47822094e-06 4.34656613e-06 5.10527025e-06 7.92417995e-06
      8.69462019e-06 7.60712874e-06 5.81172344e-06 5.02606781e-06
      4.10810480e-06 4.11558494e-06 5.65580649e-06 7.02333909e-06
      9.71888130e-06 1.22156371e-05 1.25198803e-05 1.21533694e-05
      1.10201081e-05 1.09384891e-05 1.05798981e-05 1.04265046e-05
      1.04002056e-05 1.09520397e-05 1.07175874e-05 1.03150105e-05
      6.76634772e-06 2.23485472e-06 -1.85521856e-07 -1.49290850e-06
      -4.50307289e-06 -5.44176055e-06 -6.77627349e-06 -7.22717095e-06
      -7.47560307e-06 -8.17649016e-06 -9.81263111e-06 -9.96567724e-06
      -2.16803573e-06 -3.85256453e-06 -6.49146477e-06 -1.05586241e-05
      -1.51052282e-05 -1.64571611e-05 -1.61841963e-05 -1.22846313e-05
      -9.44164458e-06 -6.41100451e-06 -3.57470685e-06 9.29545365e-07
      2.70635815e-06 2.43399836e-06 2.95051996e-06 4.96810935e-06
      5.64152424e-06 4.96920620e-06 5.28511328e-06 6.01493684e-06
      6.57956707e-06 7.39593588e-06 9.42324732e-06 9.60097350e-06
      1.12873458e-05 1.30265371e-05 1.22963493e-05 1.15861549e-05
      1.11282934e-05 1.16207484e-05 1.16077435e-05 1.06841499e-05
      9.74208797e-06 9.37661844e-06 8.61579156e-06 7.94637981e-06
      5.20084768e-06 1.52495397e-06 -3.41067796e-08 2.97576804e-07
      -1.81490907e-06 -2.90470962e-06 -4.17474348e-06 -4.74444323e-06
      -5.01189652e-06 -5.40572501e-06 -7.49072206e-06 -7.53546510e-06
      -2.40627242e-06 -3.78449727e-06 -6.90528168e-06 -1.00730185e-05
      -1.34825113e-05 -1.54926274e-05 -1.51252616e-05 -1.16289502e-05
      -9.44510884e-06 -8.42855025e-06 -6.32479532e-06 -3.67200369e-06
      -3.82422240e-06 -4.22870198e-06 -3.73572743e-06 -1.72278862e-06
      -7.26460257e-07 -4.55572973e-07 1.50732819e-06 2.48494439e-06
      3.50579444e-06 3.16662499e-06 4.84017937e-06 2.89858895e-06
      3.43195507e-06 5.05734442e-06 4.35142465e-06 4.79109758e-06
      5.89562978e-06 7.88393299e-06 8.90943284e-06 7.29321391e-06
      5.63397589e-06 3.72696854e-06 2.10627650e-06 4.44965366e-07
      -7.39815732e-07 -2.75903471e-06 -2.95502900e-06 4.73113460e-08
      -4.04390846e-07 -5.32940930e-07 -1.36890060e-06 -2.11108340e-06
      -2.37905351e-06 -2.85251144e-06 -5.33792900e-06 -5.06114975e-06
      -1.26015323e-06 -1.80959091e-06 -4.13815178e-06 -5.53120708e-06
      -7.40344058e-06 -9.01851581e-06 -8.40196753e-06 -5.97895450e-06
      -4.95567974e-06 -6.02593809e-06 -5.28218652e-06 -5.06486367e-06
      -7.15256510e-06 -8.17758610e-06 -8.50185279e-06 -7.48577258e-06
      -7.17314560e-06 -7.21744163e-06 -5.04656373e-06 -4.98805730e-06
      -4.29703323e-06 -6.57479131e-06 -5.75086960e-06 -9.71940426e-06
      -9.94698257e-06 -8.35908031e-06 -8.22077800e-06 -5.84764211e-06
      -2.54330348e-06 1.42327099e-06 4.20807419e-06 2.56278122e-06
      1.01613705e-06 -2.44546459e-06 -5.41224381e-06 -8.89232615e-06
      -9.37063942e-06 -1.04554056e-05 -1.00560092e-05 -5.04427226e-06
      -4.01281932e-06 -2.32267712e-06 -2.16096669e-06 -2.14725083e-06
      -1.90729588e-06 -2.06533900e-06 -4.23282199e-06 -3.39613644e-06
      -3.49987863e-06 -3.36587277e-06 -4.52247150e-06 -4.18093214e-06
      -4.51752521e-06 -4.29816828e-06 -2.83500617e-06 -8.49469259e-08
      8.86766884e-07 6.51699509e-07 1.30014598e-06 8.52216260e-07
      -2.38611301e-06 -4.51828009e-06 -6.43604972e-06 -7.47338072e-06
      -8.64009417e-06 -1.01852474e-05 -8.79394975e-06 -9.79970446e-06
      -9.63888306e-06 -1.26862442e-05 -1.31293227e-05 -1.79920444e-05
      -1.87636469e-05 -1.78790760e-05 -1.71998872e-05 -1.38686191e-05
      -9.12070755e-06 -3.79251696e-06 9.53566143e-07 6.15671183e-07
      8.93210427e-07 -2.31983472e-06 -5.69719623e-06 -1.01282576e-05
      -1.13432798e-05 -1.30288754e-05 -1.37820134e-05 -9.38994890e-06
      -8.62936031e-06 -5.91639673e-06 -5.14832345e-06 -3.64441735e-06
      -2.57670536e-06 -1.70788314e-06 -2.75201683e-06 -1.37567736e-06
      -7.80438586e-06 -7.38728886e-06 -7.52941378e-06 -5.54723238e-06
      -4.29844067e-06 -1.43503280e-06 8.97047585e-07 4.94006963e-06
      5.60032868e-06 7.19619584e-06 7.47378408e-06 7.22886307e-06
      3.09813140e-06 1.65744709e-07 -2.43031059e-06 -3.87794989e-06
      -5.19698324e-06 -7.24785968e-06 -6.32152296e-06 -7.62431500e-06
      -7.79278071e-06 -9.74359409e-06 -1.13978158e-05 -1.54001518e-05
      -1.62715442e-05 -1.59134306e-05 -1.56605583e-05 -1.34906686e-05
      -1.00190673e-05 -5.59618729e-06 -7.21645904e-07 3.27087406e-07
      3.13429132e-06 2.61224750e-06 1.29950308e-06 -1.04822436e-06
      -2.60421893e-06 -4.63336801e-06 -7.15392207e-06 -5.13845362e-06
      -6.39061000e-06 -4.55933014e-06 -4.72851525e-06 -2.53235271e-06
      -1.64458788e-06 -1.12214330e-07 -4.03733679e-07 1.02546744e-06
      -1.34458678e-05 -1.28276251e-05 -1.18924681e-05 -7.86267810e-06
      -4.96357461e-06 3.23073891e-07 3.05274557e-06 7.50537038e-06
      6.84404222e-06 8.55547842e-06 6.93077391e-06 6.37083895e-06
      1.59234685e-06 -1.25918018e-06 -3.02268586e-06 -2.69356269e-06
      -2.85623810e-06 -3.99642931e-06 -3.03584693e-06 -3.87278305e-06
      -3.97405165e-06 -3.73411399e-06 -5.17309309e-06 -6.61713329e-06
      -6.17729165e-06 -5.05736398e-06 -5.48134949e-06 -5.70961811e-06
      -6.01890861e-06 -4.77000867e-06 -2.59516128e-06 -1.95555822e-06
      1.80577638e-06 4.43189356e-06 6.48555124e-06 8.38535379e-06
      8.18737317e-06 7.45246734e-06 4.46804870e-06 4.95724589e-06
      1.97040140e-06 2.09563427e-06 1.66860005e-07 1.90455444e-06
      1.55362989e-06 2.72270427e-06 2.13470003e-06 3.10740757e-06
      -1.99379156e-05 -1.89539314e-05 -1.69785017e-05 -1.10739566e-05
      -7.16214618e-06 -6.34791945e-07 1.93463939e-06 5.41659574e-06
      4.06512800e-06 5.12317547e-06 1.93595110e-06 1.39946724e-06
      -2.92697655e-06 -5.02884541e-06 -6.00307021e-06 -4.74883700e-06
      -4.85581813e-06 -5.64192624e-06 -4.79325945e-06 -4.69335509e-06
      -4.06486834e-06 -1.35910250e-06 -6.70903546e-07 1.06135838e-06
      3.83878660e-06 6.08747769e-06 5.11645703e-06 2.71138902e-06
      -1.22396750e-06 -3.14379758e-06 -4.21069990e-06 -5.06545894e-06
      -2.10391249e-06 2.12348050e-06 6.04518118e-06 1.07542055e-05
      1.16964984e-05 1.19118977e-05 9.23127755e-06 9.54714505e-06
      6.48752348e-06 5.66744802e-06 3.24407483e-06 5.13190480e-06
      4.39199584e-06 5.19661853e-06 4.22411540e-06 4.76727519e-06
      -2.14074298e-05 -2.00259656e-05 -1.77054590e-05 -1.15834155e-05
      -8.03980311e-06 -2.29936450e-06 -9.56460212e-07 3.28456196e-07
      -8.09767869e-07 2.42650827e-07 -2.59291414e-06 -2.00210957e-06
      -4.26227507e-06 -4.68824419e-06 -5.14020439e-06 -4.65500261e-06
      -5.64132051e-06 -7.13945838e-06 -6.58158433e-06 -5.58103739e-06
      -4.10905204e-06 1.71765947e-07 2.82661495e-06 6.53976304e-06
      1.06824864e-05 1.27487701e-05 1.10202900e-05 7.21557626e-06
      1.84960970e-06 -1.49556968e-06 -3.71931174e-06 -5.14547128e-06
      -3.07234495e-06 1.35751213e-06 4.78657057e-06 9.11962161e-06
      8.99780480e-06 7.70220322e-06 3.98209568e-06 3.82618691e-06
      1.42693125e-06 3.35649702e-07 -7.19066975e-07 3.23528320e-06
      4.21358800e-06 6.01754527e-06 5.88058128e-06 6.54135238e-06
      -1.52038638e-05 -1.35634928e-05 -1.17467025e-05 -7.29536396e-06
      -5.15040392e-06 -1.93109281e-06 -2.79451592e-06 -4.41321390e-06
      -5.81173617e-06 -4.56518410e-06 -5.79561902e-06 -3.60198828e-06
      -2.49977984e-06 1.46091539e-08 1.23341749e-06 1.63233528e-06
      1.11760698e-06 -7.78133540e-07 -6.92153378e-07 2.86264481e-07
      1.50073549e-06 5.17677381e-06 7.35658477e-06 1.07293781e-05
      1.40748607e-05 1.45384938e-05 1.20463865e-05 7.44679210e-06
      2.54514202e-06 -8.82911252e-07 -2.44589091e-06 -3.40518545e-06
      -2.04092180e-06 1.84952978e-06 3.61506113e-06 5.87474733e-06
      3.77092488e-06 -1.08288326e-07 -5.61953493e-06 -6.51249593e-06
      -8.21427875e-06 -8.99829956e-06 -7.71609666e-06 -3.86392287e-07
      3.86048987e-06 8.06165644e-06 1.01198284e-05 1.14497843e-05
      -6.14295641e-06 -4.56632142e-06 -3.82357030e-06 -1.83060126e-06
      -1.37788834e-06 -8.50590084e-07 -3.39775693e-06 -6.82779637e-06
      -8.64367394e-06 -7.23975791e-06 -6.49880758e-06 -2.97216343e-06
      1.06071184e-06 5.98391125e-06 9.06660443e-06 1.01032547e-05
      1.06973293e-05 8.74866691e-06 7.53575205e-06 7.49698393e-06
      7.58681836e-06 9.31335853e-06 9.61355090e-06 1.10400433e-05
      1.22193951e-05 1.07656952e-05 7.76902652e-06 2.40826171e-06
      -1.64381686e-06 -4.58338491e-06 -5.10136078e-06 -5.15971669e-06
      -4.68327244e-06 -1.57377269e-06 -1.05432798e-06 -4.82346763e-07
      -2.85860915e-06 -7.80325536e-06 -1.32216501e-05 -1.37343322e-05
      -1.41405799e-05 -1.36608978e-05 -1.03564125e-05 -5.82484233e-07
      6.64318168e-06 1.28255679e-05 1.71226056e-05 1.90665087e-05
      2.98445798e-06 3.98703969e-06 3.22080132e-06 2.83671670e-06
      1.57220188e-06 3.97898134e-07 -2.31659124e-06 -5.27796374e-06
      -6.46650278e-06 -4.64145160e-06 -2.21342248e-06 1.62373465e-06
      5.80335700e-06 1.02545637e-05 1.28945239e-05 1.33151880e-05
      1.37490815e-05 1.16998108e-05 9.17023226e-06 8.88138402e-06
      8.66833943e-06 9.21851824e-06 8.70447457e-06 7.89265232e-06
      6.75265483e-06 3.76160006e-06 2.93139720e-07 -5.83074370e-06
      -9.44001931e-06 -1.13706856e-05 -1.10246228e-05 -9.90880289e-06
      -1.01609030e-05 -7.54168195e-06 -7.09982623e-06 -7.20416347e-06
      -7.46332262e-06 -1.14167869e-05 -1.44307987e-05 -1.38548212e-05
      -1.27196536e-05 -1.11916734e-05 -7.89290243e-06 8.34104753e-07
      8.34188995e-06 1.37773213e-05 1.86534544e-05 2.04554544e-05
      1.11335621e-05 1.13929145e-05 9.23441803e-06 7.32629269e-06
      4.97981864e-06 3.23967060e-06 1.20281868e-06 -3.41224336e-07
      -5.65693767e-07 1.25770009e-06 3.80783445e-06 6.15213139e-06
      7.42802285e-06 9.32135754e-06 9.81324956e-06 9.23316657e-06
      9.75400781e-06 9.05355409e-06 7.65545792e-06 9.45339070e-06
      1.03370612e-05 1.06887082e-05 1.03450839e-05 7.58230271e-06
      4.55126019e-06 6.85455234e-07 -2.85717533e-06 -8.54589780e-06
      -1.13712167e-05 -1.18977723e-05 -1.11483287e-05 -9.52583468e-06
      -1.07224150e-05 -8.90996853e-06 -8.36200161e-06 -8.94975165e-06
      -6.50700122e-06 -8.55095641e-06 -8.70766962e-06 -7.33006436e-06
      -5.30898205e-06 -4.10838493e-06 -3.12128509e-06 1.36764208e-06
      5.86508122e-06 7.78914728e-06 1.12533990e-05 1.21564117e-05
      1.27342673e-05 1.27783424e-05 1.01254182e-05 8.15705789e-06
      6.17487876e-06 4.81966345e-06 3.49875540e-06 2.68341455e-06
      2.62590356e-06 3.54360782e-06 4.47352886e-06 4.28117937e-06
      2.03807986e-06 1.98348062e-06 1.03896741e-06 7.43397095e-07
      2.98040345e-06 5.09226720e-06 6.88675937e-06 1.15120220e-05
      1.36684403e-05 1.37809229e-05 1.33520698e-05 9.58085820e-06
      5.80484902e-06 2.15283080e-06 -4.00207853e-07 -3.75421223e-06
      -4.73252476e-06 -3.81185419e-06 -2.96779513e-06 -1.83740053e-06
      -4.17196361e-06 -3.99409009e-06 -4.12105055e-06 -5.52817528e-06
      -2.00135332e-06 -2.67433006e-06 -9.98925657e-07 9.13623808e-07
      3.17846116e-06 3.67464577e-06 2.32818638e-06 2.78196376e-06
      3.60874242e-06 1.94353811e-06 3.40527413e-06 3.35868640e-06
      5.48913795e-06 5.97190228e-06 3.62096421e-06 2.28447789e-06
      1.51532254e-06 9.01597446e-07 4.04930205e-08 -5.78783556e-07
      -8.04303113e-07 -3.43577625e-07 -5.77102810e-07 -2.01668831e-06
      -5.69625763e-06 -5.97935832e-06 -7.49937817e-06 -7.53269160e-06
      -4.40037047e-06 -1.20116670e-06 2.17745946e-06 7.40518317e-06
      1.00561811e-05 1.01761316e-05 9.82691563e-06 6.77252729e-06
      3.87146156e-06 1.40200723e-06 3.29357363e-07 -6.66887985e-08
      9.45720387e-07 3.23587051e-06 4.72292186e-06 5.87838485e-06
      3.79705148e-06 2.64202913e-06 1.71677459e-06 -4.60410291e-07
      1.73817773e-06 8.70415477e-07 2.76656624e-06 4.64868708e-06
      6.73032173e-06 7.52644428e-06 5.96213886e-06 5.11014923e-06
      4.66165193e-06 1.92688321e-06 2.30313731e-06 1.84851910e-06
      -2.62282197e-06 -1.56088311e-06 -3.45440117e-06 -4.64980121e-06
      -4.51423466e-06 -4.90810680e-06 -5.85397220e-06 -6.29459691e-06
      -6.48319656e-06 -5.06726656e-06 -4.55786494e-06 -5.06824381e-06
      -7.65671211e-06 -7.06977789e-06 -9.22946310e-06 -1.04617648e-05
      -8.99493807e-06 -7.75434000e-06 -5.61663956e-06 -2.16456260e-06
      6.53444829e-07 1.81296411e-06 2.62596450e-06 1.78299888e-06
      5.30802083e-07 -6.11634846e-07 -9.49299078e-07 3.74058317e-07
      2.09550331e-06 5.41449390e-06 8.14589021e-06 1.06292036e-05
      1.06058833e-05 9.25244331e-06 8.06206299e-06 5.10945301e-06
      4.14222950e-06 1.59970932e-06 1.92207813e-06 2.74502213e-06
      4.25150392e-06 6.40583676e-06 6.52003109e-06 6.78506422e-06
      7.60806142e-06 6.47671777e-06 6.83242024e-06 6.38397569e-06
      -4.53945904e-06 -3.21484299e-06 -4.69735642e-06 -6.00228577e-06
      -5.30477291e-06 -5.99481336e-06 -7.18292813e-06 -7.46058959e-06
      -7.42791417e-06 -4.74311264e-06 -2.87774492e-06 -1.75612047e-06
      -2.44050216e-06 -8.14093767e-07 -3.34035485e-06 -6.19062348e-06
      -7.18938054e-06 -8.67916424e-06 -8.57422492e-06 -7.50799200e-06
      -4.82042833e-06 -2.70222927e-06 -5.37889434e-07 7.50208642e-07
      3.01583356e-07 -7.95419552e-08 -6.25017037e-07 7.87238605e-07
      2.06250502e-06 6.04002844e-06 9.99738677e-06 1.43350544e-05
      1.66427108e-05 1.58370840e-05 1.47146984e-05 1.06809284e-05
      6.28025828e-06 1.71163765e-06 -5.21458389e-07 -1.11801182e-06
      -2.08728153e-07 3.46404590e-06 5.39974462e-06 7.33666593e-06
      9.84354938e-06 1.09380344e-05 1.15090888e-05 1.09592984e-05
      -2.31286413e-06 -1.22002155e-06 -2.42753890e-06 -3.57321119e-06
      -2.54576094e-06 -3.35132904e-06 -4.11589781e-06 -4.09573158e-06
      -3.33838739e-06 -1.14432034e-07 2.36527353e-06 4.62610069e-06
      5.13687246e-06 7.34543482e-06 5.28651071e-06 1.78867288e-06
      -7.36226980e-07 -3.99487271e-06 -5.82023586e-06 -7.15263286e-06
      -6.09184599e-06 -5.19188234e-06 -3.45534545e-06 -1.92457674e-06
      -3.07730625e-06 -3.36426251e-06 -3.90017158e-06 -2.75763409e-06
      -1.41623354e-06 3.78276172e-06 9.13688382e-06 1.52782868e-05
      1.90025912e-05 1.91522668e-05 1.83030952e-05 1.35464597e-05
      7.33265824e-06 1.63508230e-06 -2.39403539e-06 -3.94424296e-06
      -3.35130085e-06 6.80969549e-07 2.96955818e-06 5.31843352e-06
      8.20454898e-06 1.00506804e-05 1.05447107e-05 9.66457537e-06
      3.84269242e-07 8.40083658e-07 -4.89661943e-07 -1.56047201e-06
      -7.69246981e-07 -1.30639955e-06 -1.14108047e-06 -6.98393308e-07
      1.00110537e-06 3.92813126e-06 6.26055589e-06 8.85426471e-06
      9.36667038e-06 1.13948745e-05 1.02902159e-05 7.30123611e-06
      4.51177948e-06 7.13722272e-07 -2.77683648e-06 -5.78890376e-06
      -7.22917775e-06 -8.86725866e-06 -9.00286523e-06 -8.89011972e-06
      -1.10381498e-05 -1.15800540e-05 -1.12515345e-05 -1.02170625e-05
      -8.11445898e-06 -1.68938629e-06 4.52164886e-06 1.13010101e-05
      1.48765066e-05 1.58818984e-05 1.54424542e-05 1.12925236e-05
      5.81999848e-06 7.23631786e-07 -2.94409506e-06 -4.77199774e-06
      -3.99965847e-06 -1.10620374e-06 2.03213688e-07 1.51392169e-06
      3.56726582e-06 4.60929732e-06 4.98339932e-06 3.90119749e-06
      2.30096202e-06 2.10015810e-06 3.92616840e-07 -7.22547213e-07
      -5.04810941e-07 -6.18800811e-07 2.52493237e-07 9.86717623e-07
      2.75727575e-06 4.46794547e-06 6.06842377e-06 7.97468601e-06
      7.54128223e-06 8.93133529e-06 8.90734282e-06 7.64387005e-06
      6.42140958e-06 3.99033070e-06 6.76603122e-07 -1.72095588e-06
      -4.02048136e-06 -6.40886265e-06 -7.78581580e-06 -9.15933379e-06
      -1.16474775e-05 -1.30949511e-05 -1.26883142e-05 -1.31319484e-05
      -1.20596214e-05 -7.13319514e-06 -2.50708968e-06 2.35051743e-06
      4.25370035e-06 5.54305552e-06 5.73178795e-06 3.91416825e-06
      1.32425168e-06 -1.23923030e-06 -2.25925646e-06 -3.20330832e-06
      -1.22154722e-06 6.33351533e-07 1.43348518e-06 1.78991593e-06
      2.95024961e-06 3.02471312e-06 3.54023405e-06 2.54095607e-06
      2.65457544e-07 -3.59046055e-07 -2.31332638e-06 -3.12800626e-06
      -3.31985393e-06 -2.89434752e-06 -1.21219068e-06 2.79898046e-07
      1.74076729e-06 2.39329756e-06 3.64816810e-06 4.83546501e-06
      3.76796515e-06 4.86228328e-06 5.85129419e-06 6.92082767e-06
      8.38277629e-06 8.38291817e-06 6.84440965e-06 6.21285517e-06
      4.52080394e-06 3.46129536e-06 1.42917543e-06 -1.06694574e-06
      -3.60377680e-06 -6.52518247e-06 -7.74816817e-06 -1.06920670e-05
      -1.25196630e-05 -1.13029437e-05 -9.58970941e-06 -7.96489257e-06
      -7.75729404e-06 -6.52442804e-06 -5.72754516e-06 -4.46982585e-06
      -3.99546570e-06 -3.55909219e-06 -1.25744396e-06 -7.80800562e-08
      3.74542719e-06 5.79901416e-06 7.12211386e-06 7.27713814e-06
      7.72318072e-06 7.05303546e-06 7.41575559e-06 6.45596401e-06
      -8.58364638e-06 -9.51092716e-06 -1.14630693e-05 -1.16104684e-05
      -1.19075112e-05 -1.06891521e-05 -7.10989434e-06 -3.48530125e-06
      -9.74533009e-07 5.61981665e-07 3.07274877e-06 4.82448877e-06
      4.19018033e-06 5.28986629e-06 6.22404059e-06 7.97298890e-06
      1.03279408e-05 1.08450022e-05 9.94687980e-06 9.54177904e-06
      8.08827190e-06 8.91778473e-06 6.40800590e-06 3.84573696e-06
      2.41224689e-06 -4.73165187e-07 -2.84393195e-06 -5.94028779e-06
      -8.83416669e-06 -9.50577760e-06 -8.68121333e-06 -9.10426843e-06
      -9.75579042e-06 -9.16948648e-06 -9.27038855e-06 -6.76580476e-06
      -5.84014015e-06 -4.68009694e-06 -8.74152818e-07 2.18472246e-06
      6.60004298e-06 8.88958766e-06 1.00982461e-05 9.53128347e-06
      8.49562639e-06 6.39069049e-06 5.49131028e-06 4.25020835e-06
      -1.97654499e-05 -2.07890462e-05 -2.21707833e-05 -2.12677041e-05
      -2.10110047e-05 -1.87522564e-05 -1.27174008e-05 -6.65417065e-06
      -2.50800213e-06 6.15533168e-07 4.50770813e-06 7.06512492e-06
      6.82289692e-06 7.33898605e-06 6.61588138e-06 6.58720091e-06
      7.22132972e-06 5.86520355e-06 4.08250889e-06 2.91953393e-06
      1.84136536e-06 5.16976115e-06 3.86661941e-06 3.43374177e-06
      5.03637466e-06 4.48479432e-06 2.60479555e-06 2.07548715e-06
      7.13161512e-07 6.38990002e-07 2.61629953e-06 1.62691174e-06
      2.11754752e-07 -6.71790303e-07 -3.49382117e-06 -2.54307679e-06
      -3.88639000e-06 -4.61516220e-06 -1.53104531e-06 2.07435255e-06
      5.17356693e-06 6.65151219e-06 6.35164588e-06 3.91289541e-06
      4.89687409e-07 -3.75868581e-06 -6.69359360e-06 -8.35682476e-06
      -2.50248577e-05 -2.55526484e-05 -2.53508224e-05 -2.27850469e-05
      -2.09112750e-05 -1.76767426e-05 -1.06325306e-05 -4.26249926e-06
      -7.73384500e-07 1.28199508e-06 3.92094762e-06 5.49033348e-06
      4.67692553e-06 4.12066129e-06 1.75061541e-06 1.59601825e-07
      -8.56459792e-07 -3.67075882e-06 -5.87848717e-06 -6.99229167e-06
      -7.19555283e-06 -1.69209932e-06 -4.49868907e-07 1.83334009e-06
      6.26748351e-06 8.04829415e-06 7.08876132e-06 8.88483919e-06
      8.84729616e-06 9.48982142e-06 1.21788999e-05 1.11837498e-05
      8.83165285e-06 6.64519439e-06 1.54522729e-06 2.79674850e-07
      -2.91537299e-06 -5.20359526e-06 -2.87549869e-06 8.05239267e-07
      2.48700985e-06 3.06124798e-06 1.20455138e-06 -3.15247303e-06
      -8.82407221e-06 -1.48419767e-05 -1.94847107e-05 -2.14713546e-05
      -2.17507932e-05 -2.12424875e-05 -1.90117917e-05 -1.47560258e-05
      -1.08738413e-05 -7.33175057e-06 -1.82624728e-06 1.99171677e-06
      1.99302826e-06 -7.97571875e-09 -9.64457286e-07 -1.94734230e-06
      -3.49642391e-06 -4.46146851e-06 -6.54400810e-06 -7.18882302e-06
      -7.90372633e-06 -1.02206986e-05 -1.15685270e-05 -1.19531542e-05
      -1.17931359e-05 -6.35215974e-06 -3.54074473e-06 -5.22268522e-07
      4.30202044e-06 6.52616563e-06 6.07485526e-06 8.41761266e-06
      8.26549058e-06 9.10063864e-06 1.13779843e-05 1.08546974e-05
      8.36213985e-06 6.04976913e-06 1.05123388e-06 -1.07789413e-06
      -3.83347196e-06 -5.55119914e-06 -2.95373661e-06 8.99220083e-07
      2.24491487e-06 2.68175404e-06 4.46033113e-08 -5.39055236e-06
      -1.25830566e-05 -1.94880231e-05 -2.49321110e-05 -2.71638110e-05
      -1.33948624e-05 -1.19240840e-05 -8.55215058e-06 -3.79183575e-06
      1.15282307e-06 3.95056259e-06 6.26488554e-06 6.38005622e-06
      2.57984379e-06 -3.36817129e-06 -7.29916565e-06 -1.02639024e-05
      -1.17074178e-05 -1.20702080e-05 -1.23072223e-05 -1.08768181e-05
      -1.04871560e-05 -1.18146572e-05 -1.18703938e-05 -1.15785788e-05
      -1.14591185e-05 -7.87836871e-06 -5.10803920e-06 -3.53292603e-06
      -8.97716859e-07 -4.55917927e-07 -1.57653562e-06 -5.66840868e-07
      -1.44075420e-06 -3.16479600e-07 1.79849201e-06 3.02527815e-06
      2.49825621e-06 1.75966250e-06 -6.64067841e-07 -2.08286406e-06
      -3.20466552e-06 -3.49448442e-06 -9.83632617e-07 2.18920331e-06
      3.35083973e-06 3.86411966e-06 1.06154562e-06 -4.19676917e-06
      -1.17358823e-05 -1.82752210e-05 -2.33193750e-05 -2.55699924e-05
      -4.14381429e-06 -2.37927679e-06 6.41936481e-07 4.11270139e-06
      8.53841811e-06 9.84633698e-06 9.17582565e-06 6.77177741e-06
      1.40852217e-06 -5.66212157e-06 -9.96881317e-06 -1.28578440e-05
      -1.34064912e-05 -1.29978198e-05 -1.16565016e-05 -9.47516764e-06
      -8.62771594e-06 -9.98484393e-06 -9.25839231e-06 -8.59446027e-06
      -8.37647349e-06 -6.99239718e-06 -5.25876249e-06 -6.08068467e-06
      -7.24837946e-06 -1.00051711e-05 -1.29993350e-05 -1.43346115e-05
      -1.53716646e-05 -1.38230580e-05 -1.08290205e-05 -6.84514407e-06
      -3.98495331e-06 -2.11027987e-06 -1.04161927e-06 -1.18559944e-06
      -1.35395919e-06 -1.15161936e-06 -2.07976456e-07 9.43446082e-07
      1.23117661e-06 1.63494349e-06 -2.43365548e-07 -3.24884013e-06
      -8.62435991e-06 -1.24468870e-05 -1.54749559e-05 -1.70995972e-05
      2.65641211e-06 3.93722394e-06 5.64592347e-06 6.53041252e-06
      9.27041765e-06 9.16603767e-06 7.26736243e-06 4.83788108e-06
      8.88885836e-07 -4.25256667e-06 -6.95434937e-06 -8.37882999e-06
      -8.25920233e-06 -8.15347903e-06 -6.89618128e-06 -5.75166223e-06
      -4.88874639e-06 -6.53966708e-06 -5.14532530e-06 -3.77090646e-06
      -2.79862093e-06 -2.52411883e-06 -1.38585142e-06 -3.51496715e-06
      -7.63768003e-06 -1.24588787e-05 -1.65812708e-05 -1.96012643e-05
      -2.04003190e-05 -1.94301647e-05 -1.62953693e-05 -1.13609658e-05
      -7.12176734e-06 -4.10804705e-06 -1.10352551e-06 -6.71141152e-07
      -1.13048634e-06 -1.52976259e-06 -2.81935672e-06 -3.87010778e-06
      -4.63200831e-06 -4.23606889e-06 -4.05252558e-06 -3.19803712e-06
      -3.88176159e-06 -2.96276744e-06 -2.90600542e-06 -3.39149233e-06
      4.77072217e-06 5.26467602e-06 5.55643783e-06 3.76381263e-06
      4.52503673e-06 3.68582505e-06 2.49441746e-06 2.07647554e-06
      1.43302441e-06 -3.94752533e-07 -1.30755336e-06 -1.67011603e-06
      -1.96176848e-06 -3.74863680e-06 -4.54260544e-06 -5.23169456e-06
      -4.44619945e-06 -5.48828621e-06 -2.81416806e-06 2.51169382e-07
      2.95168911e-06 4.31648550e-06 6.67239874e-06 5.68658243e-06
      1.92482480e-06 -1.84888290e-06 -4.79934033e-06 -7.97743451e-06
      -9.20331149e-06 -1.03547854e-05 -9.59113549e-06 -7.39645520e-06
      -5.70087150e-06 -4.59341845e-06 -2.26826319e-06 -1.98697239e-06
      -2.76577975e-06 -3.65650612e-06 -5.92032984e-06 -7.66739868e-06
      -8.63351397e-06 -8.09833818e-06 -6.39587961e-06 -2.78255857e-06
      6.23046731e-07 5.20907861e-06 7.50170329e-06 7.74480213e-06
      3.41179339e-06 3.32782429e-06 2.54389238e-06 -1.20396930e-06
      -2.30628052e-06 -3.51981566e-06 -3.63751224e-06 -1.88302795e-06
      7.34743310e-07 1.89177513e-06 2.28660065e-06 2.24638734e-06
      1.37013353e-06 -2.41130692e-06 -5.79478592e-06 -7.90541617e-06
      -7.64050401e-06 -7.79327274e-06 -4.12350573e-06 5.45714784e-07
      4.54080782e-06 7.74726323e-06 1.17087866e-05 1.26545829e-05
      1.17324653e-05 1.06938933e-05 1.02009744e-05 8.07144806e-06
      6.20338005e-06 3.43080774e-06 1.02831598e-06 -5.89372007e-07
      -2.75060302e-06 -4.73940554e-06 -4.22402445e-06 -3.74765227e-06
      -3.78909681e-06 -4.37916606e-06 -5.55440965e-06 -6.25185203e-06
      -6.45013779e-06 -6.13333987e-06 -4.92276695e-06 -1.47823675e-06
      2.53143071e-06 7.34971854e-06 9.77702075e-06 9.84318376e-06
      2.99124440e-06 2.51900497e-06 8.90956983e-07 -4.37582321e-06
      -7.51040670e-06 -9.46414093e-06 -9.72431280e-06 -7.08156540e-06
      -2.35151992e-06 1.16834326e-06 3.18827188e-06 3.98185330e-06
      4.05323044e-06 2.70235518e-07 -4.26186853e-06 -6.83613735e-06
      -7.79755464e-06 -8.34065486e-06 -5.72781573e-06 -1.42901467e-06
      1.46860873e-06 4.39588575e-06 7.69729832e-06 9.03520231e-06
      1.07320211e-05 1.15706798e-05 1.30606659e-05 1.26953673e-05
      1.15323874e-05 9.93403864e-06 6.60476508e-06 3.84269606e-06
      2.32632846e-08 -3.44113778e-06 -3.92084621e-06 -2.40823215e-06
      -1.31375464e-06 -1.44051228e-06 -7.80934272e-07 -1.71038252e-07
      3.34288757e-07 -4.20653805e-07 -1.20177572e-06 2.71213793e-07
      2.19379945e-06 5.07006098e-06 6.35726656e-06 5.96554628e-06
      5.61315392e-06 4.75393745e-06 2.32425441e-06 -4.43682302e-06
      -9.69998291e-06 -1.27600670e-05 -1.41199716e-05 -1.16070314e-05
      -5.73017041e-06 -1.58494572e-07 4.03869080e-06 6.48076775e-06
      8.77306411e-06 6.72950864e-06 2.57578881e-06 7.15868822e-08
      -2.40964278e-06 -4.68692951e-06 -4.88538808e-06 -2.80758582e-06
      -2.83638383e-06 -2.38312646e-06 -1.73918511e-06 -1.34151924e-06
      1.67327096e-06 3.13101418e-06 5.79047219e-06 7.43103647e-06
      8.28926659e-06 9.81487483e-06 7.88206398e-06 6.53963434e-06
      3.33806179e-06 2.24896709e-07 -2.51187259e-07 2.45377987e-06
      4.01873649e-06 3.92385391e-06 5.64327047e-06 6.69330984e-06
      7.16702334e-06 4.83982831e-06 2.03423110e-06 1.65085362e-06
      1.28516433e-06 2.39999872e-06 2.61954483e-06 2.10835879e-06
      7.57481712e-06 6.51660594e-06 3.69252575e-06 -3.80929646e-06
      -1.00818343e-05 -1.37149691e-05 -1.56959140e-05 -1.33641915e-05
      -7.08066773e-06 -5.59772843e-07 4.77170079e-06 8.13214228e-06
      1.16246383e-05 1.06386815e-05 6.89374019e-06 4.46011882e-06
      1.25069369e-06 -2.06774212e-06 -3.84777741e-06 -3.11605959e-06
      -4.76117111e-06 -5.81208769e-06 -6.68544681e-06 -6.87824013e-06
      -3.50284995e-06 -1.92721427e-06 1.17751756e-06 3.80022925e-06
      5.81750464e-06 9.03275668e-06 8.11512655e-06 7.78962385e-06
      5.20150934e-06 2.52217205e-06 2.18178707e-06 5.37973165e-06
      6.94219216e-06 6.74537932e-06 8.69605901e-06 9.71739064e-06
      9.99689382e-06 6.88017371e-06 3.22973801e-06 2.12234318e-06
      8.34414664e-07 1.32171760e-06 1.13940121e-06 6.72557576e-07
      -4.99745329e-06 -5.48052049e-06 -7.82130701e-06 -7.49989931e-06
      -7.35928688e-06 -5.68132873e-06 -2.82657902e-06 1.43630052e-06
      3.31956244e-06 3.72336422e-06 6.03276760e-07 -3.97711710e-06
      -5.23102744e-06 -3.60490071e-06 -3.71928763e-07 6.68597238e-07
      9.59268959e-07 7.08336586e-07 3.85333493e-07 -4.49065737e-07
      -9.66305080e-09 2.31037143e-06 4.07311927e-06 3.29170803e-06
      2.53102144e-06 3.47847640e-06 9.32984562e-07 -5.04119544e-06
      -7.23037874e-06 -3.58897910e-06 1.59065280e-07 1.91175923e-06
      -6.78093954e-07 -4.11697329e-06 -5.17487024e-06 -2.84053181e-06
      1.69253258e-06 3.60268723e-06 3.59381858e-07 -6.85510895e-06
      -1.59663305e-05 -1.98518119e-05 -1.74735615e-05 -1.32024270e-05
      -8.01880651e-06 -2.18475134e-06 2.00533077e-06 3.37735264e-06
      -5.67132588e-07 -1.36847416e-06 -4.92283289e-06 -8.30080353e-06
      -8.45231352e-06 -7.46344176e-06 -6.47135312e-06 -3.59684805e-06
      -8.60222997e-07 4.39217047e-07 1.35051698e-06 8.96025796e-08
      -1.23950974e-06 -2.02431193e-06 -1.17104582e-06 1.41347687e-06
      1.35523328e-06 1.11199643e-06 1.11438646e-06 4.28207215e-07
      -2.96579827e-07 6.93644665e-07 3.54335270e-06 5.55866836e-06
      3.58412058e-06 3.91376398e-06 2.59781723e-06 1.55658867e-07
      -5.33035927e-06 -6.33982518e-06 -3.69194845e-06 2.93461369e-07
      5.08864332e-07 -1.45296463e-06 -2.31260697e-06 -9.55068572e-07
      2.67864061e-06 5.31637397e-06 4.54668634e-06 2.28714202e-06
      -4.37437120e-06 -1.22959673e-05 -1.64664798e-05 -1.48482031e-05
      -1.11455502e-05 -6.29845090e-06 -9.80173695e-07 1.92716288e-06
      4.03648892e-06 4.26135421e-06 2.88155593e-06 -8.41099961e-07
      -4.77758886e-06 -6.44163993e-06 -6.90322986e-06 -6.03905437e-06
      -5.33209459e-06 -4.42686905e-06 -1.93553933e-06 4.27125428e-07
      1.22906965e-06 1.65852464e-06 4.69020421e-07 5.69020244e-07
      5.78965739e-07 -4.47933161e-07 6.40709402e-07 1.61888192e-06
      4.04317632e-07 1.71956927e-07 1.01533158e-06 5.18074376e-06
      6.19143020e-06 5.95825531e-06 4.67497421e-06 2.82023575e-06
      -9.57169505e-07 -4.74514991e-06 -6.06561844e-06 -2.59926264e-06
      5.83764972e-07 1.02906552e-06 3.35169460e-07 1.26959242e-06
      4.13596899e-06 7.55516521e-06 7.34372998e-06 7.31689988e-06
      5.75195372e-06 -2.48080624e-07 -7.15301621e-06 -1.05411573e-05
      -8.36200979e-06 -5.06870037e-06 -1.42711610e-06 4.44811775e-07
      4.75194065e-06 5.44415661e-06 4.60070214e-06 2.69546717e-06
      -1.54405825e-07 -3.12938664e-06 -5.90138370e-06 -6.98382200e-06
      -5.87680415e-06 -6.09946710e-06 -5.32389322e-06 -2.07118001e-06
      1.16596073e-06 3.84255100e-06 3.60918375e-06 3.76011189e-06
      1.92205994e-06 8.07995733e-08 8.71834089e-08 7.96424047e-07
      1.34298580e-06 1.09542623e-06 8.11829921e-07 2.60799447e-06
      6.80835728e-06 8.08751975e-06 6.46518583e-06 4.12365125e-06
      1.61356820e-06 -2.46596233e-06 -5.42911948e-06 -4.51516325e-06
      -8.58441865e-07 2.67258179e-06 3.30520174e-06 2.35443122e-06
      3.24515190e-06 6.06861386e-06 8.84910605e-06 8.38133928e-06
      8.60532055e-06 7.45688840e-06 2.04189223e-06 -2.83885265e-06
      -5.80828873e-06 -3.22657297e-06 6.43199598e-07 1.81813596e-06
      1.26378325e-06 2.45374054e-06 3.24982284e-06 3.23521567e-06
      1.09428811e-06 -9.52262326e-07 -3.66690460e-06 -6.50542916e-06
      -7.38165090e-06 -5.57291969e-06 -5.09734309e-06 -3.69840609e-06
      -3.34975880e-07 2.85254396e-06 4.62708385e-06 6.22162861e-06
      5.64569700e-06 4.30261935e-06 3.40579140e-06 1.89299749e-06
      1.69592170e-06 2.03987702e-06 2.21004984e-06 2.08579490e-06
      3.94973949e-06 7.66103039e-06 7.86162673e-06 6.19965067e-06
      3.53062092e-06 4.17493197e-07 -4.10698931e-06 -5.22946766e-06
      -1.91358504e-06 2.77299068e-06 5.25861697e-06 4.52565473e-06
      3.82528697e-06 3.43806664e-06 6.23328788e-06 6.99541988e-06
      5.56338364e-06 4.95741097e-06 3.73511057e-06 -1.10184453e-06
      -2.83970076e-06 -3.96676523e-06 -2.84770158e-06 -5.26734595e-07
      7.95854930e-07 9.94773757e-08 1.80464326e-06 3.78685172e-06
      3.61902312e-06 1.57055933e-06 -1.27542148e-06 -4.58665772e-06
      -7.40139330e-06 -7.04254899e-06 -4.30512773e-06 -2.39921451e-06
      4.78706097e-09 2.69486804e-06 4.23610618e-06 5.91443404e-06
      6.30003342e-06 5.90325772e-06 5.25579480e-06 1.65072140e-06
      5.89941521e-07 8.80282528e-07 1.52836105e-06 2.88619549e-06
      3.26772852e-06 4.69967745e-06 7.38124572e-06 7.79509355e-06
      7.58016222e-06 5.08545099e-06 1.83866121e-06 -3.30239413e-06
      -2.82969268e-06 1.64075198e-06 5.34353694e-06 6.24266841e-06
      5.34601668e-06 3.42323051e-06 3.70143584e-06 4.19820435e-06
      1.71072259e-06 -4.13106221e-07 -8.08071775e-07 -2.16994863e-06
      -4.13445878e-06 -5.53840891e-06 -7.05051252e-06 -6.74792454e-06
      3.75761465e-06 1.23868915e-06 9.13523252e-07 3.50016876e-06
      6.23710775e-06 5.25797532e-06 3.34625815e-06 8.13621625e-07
      -2.66215420e-06 -4.22960056e-06 -3.43278703e-06 -1.64251503e-06
      4.66523090e-07 2.60949446e-06 4.51575670e-06 6.67670656e-06
      8.40312077e-06 8.71955308e-06 6.64462777e-06 1.98624139e-06
      -2.30382625e-06 -2.63972106e-06 -2.25364417e-07 3.43830061e-06
      4.91538458e-06 5.28120836e-06 6.59183206e-06 8.04911542e-06
      9.69692974e-06 9.15790406e-06 7.60906551e-06 3.19009678e-06
      -6.49357105e-07 7.94523842e-08 3.70268185e-06 5.71093142e-06
      5.96312475e-06 4.68405506e-06 3.71440501e-06 3.63202594e-06
      2.57097713e-06 -3.94530730e-07 -2.74932722e-06 -4.09742916e-06
      -4.42206374e-06 -4.32809520e-06 -5.33936554e-06 -7.08555081e-06
      5.12970473e-06 3.58330112e-06 1.43745376e-06 2.17113552e-06
      5.79497646e-06 7.88621401e-06 6.55153053e-06 4.91109586e-06
      2.48883339e-06 9.08513869e-07 9.67063556e-07 1.18975072e-06
      2.56935414e-06 3.41293980e-06 3.26082568e-06 6.10950474e-06
      9.38365247e-06 1.34009551e-05 1.31730358e-05 8.62804063e-06
      2.41509520e-06 -1.20444611e-06 -3.84579721e-07 3.47036303e-06
      7.27180077e-06 7.27599900e-06 6.83995404e-06 5.72917406e-06
      7.77409150e-06 9.70504880e-06 1.18840844e-05 1.00913085e-05
      5.18397383e-06 1.63527943e-06 1.73946421e-06 2.86849149e-06
      4.08775531e-06 4.01297120e-06 2.99098815e-06 3.74255524e-06
      4.81991901e-06 4.05381797e-06 2.96080611e-06 6.94558139e-07
      -1.83000873e-06 -2.23198253e-06 -2.12243140e-06 -2.90528124e-06
      2.98222608e-06 2.59505100e-06 1.37034738e-06 1.16701472e-06
      4.66413030e-06 7.30244528e-06 7.28362511e-06 5.76141883e-06
      3.32987725e-06 2.58694536e-06 3.95029292e-06 3.13261808e-06
      3.47927198e-06 2.54055499e-06 1.26992802e-06 9.05758668e-07
      5.97300868e-06 1.31342249e-05 1.72878990e-05 1.60879517e-05
      1.19472570e-05 7.32826902e-06 4.82740825e-06 5.94038238e-06
      7.55862357e-06 7.73005013e-06 7.08329026e-06 4.22847643e-06
      4.41720977e-06 5.47363379e-06 8.76704780e-06 1.06658308e-05
      9.66700554e-06 6.20141464e-06 2.36754113e-06 1.26006978e-06
      1.89895400e-06 1.33894923e-06 1.30193871e-06 1.96627184e-06
      3.40200086e-06 5.22351274e-06 6.20253650e-06 7.34945161e-06
      6.64281561e-06 3.96084351e-06 2.00545605e-06 1.16448814e-06
      1.47151206e-06 2.41291764e-06 1.85308829e-06 2.40999242e-07
      1.56850649e-06 5.72695399e-06 7.06072660e-06 6.52803237e-06
      4.21252616e-06 2.92124355e-06 3.05329399e-06 3.33750768e-06
      3.06502511e-06 2.96771873e-06 1.42166323e-06 -9.74360148e-08
      3.84969724e-07 7.40485575e-06 1.45552358e-05 1.74295801e-05
      1.56757978e-05 1.30067056e-05 1.09055381e-05 8.62842262e-06
      6.61763806e-06 5.41371855e-06 4.22322319e-06 3.64889252e-06
      3.34468518e-06 1.31032982e-06 3.10144674e-06 5.53950349e-06
      6.78272909e-06 5.85382031e-06 2.59244052e-06 6.34788293e-08
      -8.83951316e-07 -2.05083938e-06 -2.49044911e-06 -2.28901331e-06
      -5.68016048e-07 1.43871523e-06 3.99409464e-06 6.78817241e-06
      8.79604158e-06 8.82219410e-06 6.86942531e-06 4.96116991e-06
      5.04137688e-06 3.95218149e-06 2.35410766e-06 2.05756081e-07
      2.61381729e-07 1.80280517e-06 4.99676389e-06 4.92750132e-06
      3.67608800e-06 2.10220423e-06 1.37745405e-06 2.62816843e-06
      2.68566532e-06 2.44741682e-06 1.52852806e-06 1.35115476e-06
      5.72130205e-07 2.44417720e-06 7.70144652e-06 1.12416865e-05
      1.18989201e-05 1.08055656e-05 1.04094761e-05 9.44826297e-06
      7.33256047e-06 2.75839784e-06 -5.28118392e-07 -2.18667211e-07
      1.97814711e-06 -5.58991815e-07 -5.99579096e-07 -2.56000501e-08
      1.38781786e-06 2.90576440e-06 1.10013673e-06 -7.34062553e-07
      -2.78674815e-06 -4.86194131e-06 -6.61610829e-06 -6.55344684e-06
      -5.68647420e-06 -3.96291716e-06 -6.83479016e-07 2.47968592e-06
      4.97072870e-06 7.54697430e-06 8.46481271e-06 6.95407334e-06
      7.50122081e-06 7.47053991e-06 5.67338293e-06 2.02664751e-06
      4.31292847e-07 2.02510091e-06 3.87721184e-06 3.07970640e-06
      1.14506861e-06 -1.66021778e-06 -1.09085022e-06 1.24038621e-07
      2.51868710e-06 2.69512020e-06 3.52099732e-07 3.20121899e-07
      6.42917939e-07 7.14792350e-07 1.45970625e-06 3.30297212e-06
      3.77792639e-06 4.71166595e-06 4.55625423e-06 4.38008283e-06
      3.39398139e-06 2.59148464e-06 -2.84056637e-06 -2.70266173e-06
      -1.32297757e-07 1.79001074e-06 -2.68099541e-07 -1.30542514e-06
      -1.22852896e-06 -1.43363977e-07 -3.60802602e-07 -2.44518651e-06
      -3.74704632e-06 -5.72443423e-06 -7.48801131e-06 -8.99606857e-06
      -9.18386377e-06 -7.95637334e-06 -5.51189896e-06 -2.04263506e-06
      1.03655805e-06 4.28611793e-06 6.32200545e-06 6.28567022e-06
      4.81286816e-06 5.35160598e-06 5.16971340e-06 3.16395699e-06
      2.07134190e-06 2.22930066e-06 3.78722507e-06 3.27383236e-06
      3.09765369e-07 -3.59794444e-06 -4.57550414e-06 -3.74489537e-06
      1.10814881e-06 3.21970651e-06 2.08317920e-06 -7.93847263e-08
      -4.32780098e-07 -1.02113552e-06 -1.82279575e-06 -1.50338337e-06
      -2.52978089e-06 -7.88525654e-07 -6.47029822e-07 -6.25291989e-07
      -1.47087951e-06 -3.09553593e-06 -3.56134592e-06 -2.67546648e-06
      -1.06492746e-06 2.40544750e-06 2.50500466e-06 1.56793055e-06
      8.97387451e-07 -1.44170087e-07 -2.36318456e-07 -1.50915469e-06
      -4.14040915e-06 -7.02754869e-06 -9.12780979e-06 -9.07606864e-06
      -8.94071945e-06 -9.31959494e-06 -7.59431032e-06 -6.12921258e-06
      -4.00996441e-06 -5.91745845e-07 9.67586516e-07 2.10639155e-06
      -2.26107932e-06 -5.72096326e-07 8.50224637e-07 2.00711247e-06
      2.15525733e-06 3.25010114e-06 5.68525729e-06 7.01192266e-06
      4.20604101e-06 7.87522509e-08 -3.51934113e-06 -5.12876295e-06
      -3.50769096e-06 -2.60738148e-07 1.87494516e-06 2.43912632e-06
      1.37344250e-06 -9.23573751e-08 -1.97057511e-06 -2.00536442e-06
      -3.78778282e-06 -3.92393167e-06 -1.95592725e-06 -6.34358628e-07
      -7.69580140e-07 -4.28600515e-06 -6.63512310e-06 -4.75020806e-06
      -2.88985689e-06 4.46031692e-07 1.59032618e-06 1.64071605e-06
      2.60514116e-06 3.61540401e-06 1.26631278e-06 1.40372777e-06
      -2.21741880e-06 -5.96667951e-06 -9.79898141e-06 -1.09343064e-05
      -8.71094289e-06 -9.31477462e-06 -7.31358205e-06 -6.51312575e-06
      -6.95549124e-06 -4.93984862e-06 -2.87690705e-06 -1.88724380e-06
      -6.63109768e-06 -5.49268543e-06 -3.69950976e-06 -1.05218066e-06
      4.25437065e-07 3.12984184e-06 5.77936316e-06 9.38374706e-06
      8.91610216e-06 5.93625555e-06 6.47346440e-07 -1.17328568e-06
      -3.16553701e-06 -3.93471782e-06 -1.94213590e-06 1.63898517e-06
      3.89676779e-06 2.64784217e-06 3.05856616e-07 -3.79672798e-07
      -1.60419108e-06 -2.07484049e-06 -9.64580863e-07 6.35271135e-07
      1.18499065e-06 -3.11201961e-06 -5.96193377e-06 -8.12229428e-06
      -5.87455816e-06 -4.41016527e-06 -2.99159842e-06 -2.44151533e-06
      1.22714698e-06 4.28756084e-06 5.08284256e-06 4.00104182e-06
      2.72319926e-06 -1.90182186e-06 -6.35476408e-06 -9.32879993e-06
      -8.87688657e-06 -8.10375695e-06 -6.60871638e-06 -4.86588806e-06
      -5.25234555e-06 -5.30461421e-06 -4.81618008e-06 -3.34278366e-06
      -7.75596618e-06 -7.54078064e-06 -5.89286492e-06 -3.20715344e-06
      -2.14865986e-06 5.57958401e-07 4.26590896e-06 8.32162277e-06
      8.70035728e-06 7.98478595e-06 3.50410573e-06 -3.75790421e-08
      1.35342049e-07 -7.07964773e-07 -1.79470862e-06 -2.19450453e-06
      -2.33059632e-06 -1.49195137e-06 -1.13062526e-06 -2.39236692e-06
      1.13251438e-07 1.15267574e-06 1.95061602e-06 2.15525506e-06
      2.06688674e-06 -4.95195536e-07 -4.28081103e-06 -6.61321064e-06
      -4.52034010e-06 -3.95141706e-06 -5.98103998e-06 -5.49498600e-06
      -1.94879294e-06 3.13131113e-06 4.72986312e-06 5.70897828e-06
      5.18694833e-06 4.23946267e-06 -1.36423728e-06 -3.85621570e-06
      -5.26164695e-06 -4.20276137e-06 -3.20477284e-06 -8.82779375e-07
      2.31519053e-07 5.87006411e-07 -4.39928613e-07 -9.96353151e-07
      -6.54384803e-06 -5.93487448e-06 -4.33326704e-06 -1.88266517e-06
      -1.25144891e-06 3.81754234e-07 3.03268939e-06 6.44988950e-06
      6.29642454e-06 5.89823730e-06 2.91149422e-06 -3.15455466e-08
      -4.60347792e-07 1.19040453e-06 2.89317904e-06 1.55681448e-06
      -2.26645761e-06 -5.94637140e-06 -5.45352850e-06 -5.25148744e-06
      -3.31242472e-06 2.09709441e-07 2.91327888e-06 4.25545704e-06
      2.40890859e-06 1.91059394e-06 -9.54785605e-07 -2.69102588e-06
      8.11216069e-07 4.10012217e-06 2.87171588e-06 -1.79395181e-06
      -5.29246290e-06 -2.12436430e-06 2.29958823e-06 3.15265288e-06
      3.60417812e-06 4.35060610e-06 3.46499678e-06 1.20271397e-06
      -6.58718704e-07 8.95660946e-07 3.52291931e-06 7.01483214e-06
      8.04853153e-06 8.95285575e-06 7.55171186e-06 6.17861406e-06
      -3.44520845e-06 -3.46593174e-06 -3.07977780e-06 1.22679026e-07
      2.28612930e-06 2.65577569e-06 2.99849830e-06 5.41277450e-06
      4.98644295e-06 3.18058596e-06 -1.91420054e-06 -5.44162458e-06
      -6.12529220e-06 -1.64648588e-06 6.90630259e-06 1.15584744e-05
      7.46658543e-06 -7.66860694e-07 -7.13373402e-06 -7.10187715e-06
      -5.51340463e-06 -3.79982748e-06 1.79203170e-07 3.91165531e-06
      3.34813308e-06 3.73150624e-06 2.16407147e-06 1.52821679e-06
      5.16279306e-06 1.03636239e-05 1.25167053e-05 6.62965567e-06
      -1.07509516e-06 -5.15680722e-06 -3.08956692e-06 9.40384950e-07
      -1.07412717e-07 1.94742643e-06 2.40866598e-06 4.37654171e-06
      2.03549166e-06 3.92895026e-06 7.15955366e-06 1.25555971e-05
      1.52776520e-05 1.70459152e-05 1.59884094e-05 1.37600782e-05
      -3.61245293e-06 -2.74142485e-06 -2.70256464e-06 -1.45122931e-06
      2.11799170e-06 5.02175271e-06 4.51974211e-06 3.94586323e-06
      3.40752467e-06 1.00980947e-06 -4.19746311e-06 -1.13461110e-05
      -1.29759501e-05 -8.49268417e-06 7.69853102e-07 9.99485474e-06
      1.48512827e-05 7.58141823e-06 9.35497042e-07 -6.41683073e-06
      -7.98599922e-06 -6.70343525e-06 -2.30424030e-06 1.05739775e-06
      3.11864846e-06 4.26585802e-06 2.67833457e-06 2.78565017e-06
      6.55330359e-06 1.05489753e-05 1.54416848e-05 1.37188408e-05
      6.39357268e-06 -2.15803607e-06 -6.54470068e-06 -4.61647460e-06
      -2.71328008e-06 -3.78116084e-07 1.02321201e-06 1.25761062e-06
      6.31990019e-07 2.06414597e-06 4.25778308e-06 8.71489192e-06
      1.15260254e-05 1.35612554e-05 1.50715923e-05 1.54050849e-05
      -6.87681950e-06 -5.71628743e-06 -4.57718488e-06 -2.55633267e-06
      6.61046442e-07 4.51993401e-06 6.38475103e-06 4.64221785e-06
      2.71660861e-06 3.98495899e-07 -3.42632165e-06 -8.21313097e-06
      -1.21675748e-05 -1.10539686e-05 -6.81766232e-06 4.51183865e-07
      8.04035699e-06 1.00392535e-05 4.69150609e-06 5.62243088e-07
      -6.57044711e-06 -8.41768633e-06 -7.75053013e-06 -3.93365281e-06
      -1.44639000e-06 2.16217722e-06 3.24024313e-06 4.96277653e-06
      6.98695794e-06 9.90578701e-06 1.18961116e-05 1.53764504e-05
      1.11796589e-05 4.22680978e-06 -4.73872842e-06 -7.51971720e-06
      -5.48344951e-06 -2.29437615e-06 4.39125046e-07 3.06103675e-06
      1.83679106e-06 3.30721195e-06 3.98656448e-06 5.31999513e-06
      5.32966897e-06 5.90036871e-06 7.07760773e-06 7.83107043e-06
      -8.24754443e-06 -9.28650661e-06 -9.72028192e-06 -7.83770611e-06
      -3.66534687e-06 1.95207940e-06 5.61379284e-06 6.21386653e-06
      4.36490382e-06 1.70680505e-06 -3.28770255e-07 -3.16517799e-06
      -5.77346373e-06 -7.95698998e-06 -6.90163779e-06 -4.45278056e-06
      -1.08532868e-06 3.69528334e-06 1.95965458e-06 -3.04772385e-07
      -2.52355721e-06 -7.16823297e-06 -9.78256503e-06 -1.02938338e-05
      -9.01797921e-06 -3.16972978e-06 -1.55735495e-06 1.51196275e-06
      5.79455718e-06 8.56447059e-06 9.92225978e-06 9.04764875e-06
      9.26898974e-06 6.33796344e-06 1.97412032e-06 -6.48513833e-06
      -6.93359107e-06 -3.40307474e-06 -5.40258213e-07 2.09400173e-06
      2.39626934e-06 3.68577980e-06 4.88740989e-06 7.72725434e-06
      6.03961234e-06 3.46173647e-06 1.78273319e-06 1.08520271e-06
      -5.29644694e-06 -7.61137335e-06 -9.85561928e-06 -9.54482766e-06
      -8.65782295e-06 -4.58580462e-06 7.01431361e-07 5.90086847e-06
      5.85046109e-06 2.52765199e-06 -9.33665874e-08 -2.74081174e-07
      -1.08955226e-06 -1.34923687e-06 -2.67739256e-06 -2.43809950e-06
      -8.84194321e-07 8.59267345e-07 3.50291913e-07 -4.63752076e-06
      -6.68934081e-06 -6.47673414e-06 -7.76050729e-06 -1.07505493e-05
      -1.15429293e-05 -9.00112263e-06 -6.16285843e-06 -3.26293184e-06
      2.46021472e-07 5.92984088e-06 9.25161385e-06 7.58292708e-06
      3.60074432e-06 2.39236510e-06 1.29135299e-06 -9.01528551e-07
      -5.93642471e-06 -4.20918559e-06 -1.07854999e-06 4.86886734e-07
      1.17038007e-06 2.84552766e-06 3.50635514e-06 6.61271088e-06
      9.04737135e-06 8.20913101e-06 4.65585936e-06 1.78033429e-06
      -1.53094516e-06 -1.90577964e-06 -3.03044840e-06 -5.04960508e-06
      -5.77973742e-06 -5.45027387e-06 -3.62808942e-06 1.17055492e-06
      4.07455946e-06 2.54783026e-06 -4.06407565e-07 -1.40196858e-06
      -8.69481141e-07 2.14179022e-06 2.78469543e-06 -1.33043159e-07
      -2.04132061e-06 -1.45788022e-06 3.99713656e-07 -2.72738657e-06
      -8.61553508e-06 -9.61078877e-06 -7.98407564e-06 -7.76872548e-06
      -5.98648739e-06 -6.23887900e-06 -6.00127896e-06 -5.45321973e-06
      -2.03899526e-06 2.86446880e-06 6.17036903e-06 6.17914247e-06
      2.77861886e-06 -3.05371316e-07 -2.58136333e-06 -1.44796354e-06
      -6.56266195e-07 -3.49464517e-06 -1.64909682e-06 -7.26831217e-07
      -1.04268463e-06 9.05110710e-07 1.20710936e-07 3.34646387e-07
      2.82889187e-06 5.53917425e-06 7.21366996e-06 7.20144089e-06
      1.50830181e-06 1.11992392e-06 5.39739005e-07 -2.90072450e-07
      1.03281053e-07 5.96025700e-07 -5.38557515e-07 4.16513330e-07
      3.11660574e-06 2.23286065e-06 -6.04679769e-07 -2.30769388e-06
      -3.79482822e-06 -1.80358302e-06 2.54515413e-07 1.34755999e-06
      -3.02919233e-07 -1.06738264e-06 6.48656027e-08 2.71547890e-07
      -1.56661372e-06 -2.14967235e-06 -3.01238174e-06 -4.02152909e-06
      -8.44610952e-07 2.10405165e-06 1.42070382e-06 -2.33464311e-06
      -4.81491907e-06 -3.18023353e-06 -1.04651929e-06 3.30868744e-07
      -1.60732509e-06 -3.33771595e-06 -4.45660453e-06 -3.95762117e-06
      -7.63936612e-07 -2.53562149e-07 -1.64771802e-06 -1.96860401e-06
      -3.77359970e-06 -2.87626472e-06 -2.64184587e-06 -5.00158148e-06
      -5.64792253e-06 -5.04300806e-06 -1.50261985e-06 2.48218794e-06
      2.97899669e-06 4.45105707e-06 3.92100401e-06 3.28823626e-06
      5.31966907e-06 6.46907301e-06 6.97346604e-06 6.69918245e-06
      5.66061271e-06 5.68807764e-06 6.50183210e-07 -3.18300158e-06
      -4.91885976e-06 -5.85958878e-06 -6.38609754e-06 -5.31799151e-06
      -3.83572433e-06 -3.64711673e-06 -2.85664714e-06 -1.12049668e-06
      -2.24945197e-07 6.85769521e-07 2.11701513e-06 2.29889997e-06
      3.55394582e-06 7.31870250e-06 1.05900981e-05 7.79275888e-06
      4.46765227e-07 -5.11382359e-06 -6.40205326e-06 -4.97759947e-06
      -4.12457439e-06 -3.98360226e-06 -4.65174980e-06 -2.88285082e-06
      -8.65688037e-07 4.71702833e-07 4.25730917e-07 -1.68242809e-06
      -5.50594905e-06 -6.41815313e-06 -7.08812331e-06 -9.65942490e-06
      -1.29161626e-05 -1.53319488e-05 -1.41734190e-05 -8.75145906e-06
      -2.73618321e-06 1.61611990e-06 5.68056612e-06 6.52298513e-06
      7.94709922e-06 9.64470019e-06 1.15873918e-05 1.16963311e-05
      1.05448526e-05 8.68279676e-06 5.95712891e-06 4.77493302e-07
      -3.44343607e-06 -4.19935623e-06 -5.64774018e-06 -7.51743482e-06
      -8.34966977e-06 -7.79554648e-06 -6.38817346e-06 -4.63798324e-06
      -3.18326852e-06 -4.48715309e-06 -3.82608187e-06 1.02298964e-06
      4.21841969e-06 7.28409805e-06 1.28561605e-05 1.56965834e-05
      1.17806512e-05 4.84146403e-06 -2.75977754e-06 -6.32110232e-06
      -5.95711572e-06 -6.24339918e-06 -5.72551653e-06 -4.10795928e-06
      -1.49480786e-06 6.79172103e-07 3.53435325e-07 -1.37303675e-06
      -6.44942747e-06 -8.95932862e-06 -1.09460516e-05 -1.31099150e-05
      -1.57038940e-05 -1.89367165e-05 -2.13318381e-05 -1.97220597e-05
      -7.07214576e-06 -5.01260320e-06 -7.68013706e-07 5.61283377e-06
      9.54557345e-06 1.06049511e-05 1.19519436e-05 1.42234794e-05
      1.34313259e-05 1.18494836e-05 1.02901267e-05 8.14648320e-06
      3.79161384e-06 9.24073504e-07 -4.81749680e-07 -2.65872359e-06
      -6.79164032e-06 -8.05510990e-06 -6.28131374e-06 -5.66722656e-06
      -5.65120627e-06 -5.87347176e-06 -8.19893557e-06 -7.45236503e-06
      -2.30653222e-06 1.25574752e-06 6.27863164e-06 1.18168045e-05
      1.44954092e-05 1.27729591e-05 6.71072758e-06 -8.68955453e-07
      -5.53704285e-06 -7.35837875e-06 -6.99098200e-06 -5.69538952e-06
      -3.97121721e-06 -1.28021327e-06 -2.32766340e-07 -1.17056015e-06
      -5.56075565e-06 -1.08660597e-05 -1.34508300e-05 -1.58906932e-05
      -1.80424431e-05 -2.06642744e-05 -2.10627368e-05 -2.15177333e-05
      -5.66058270e-06 -6.09609879e-06 -3.81287850e-06 4.91217747e-07
      6.12153781e-06 9.65980053e-06 1.09933153e-05 1.32480436e-05
      1.45677632e-05 1.37921434e-05 1.18014568e-05 1.10674200e-05
      8.62225079e-06 5.76830598e-06 3.15519037e-06 -1.91880162e-07
      -3.30190960e-06 -4.81729649e-06 -3.21375319e-06 -3.01554019e-06
      -4.14895885e-06 -4.70901387e-06 -6.96861298e-06 -9.58257988e-06
      -7.43018472e-06 -3.75855052e-06 -1.26904274e-06 1.71507418e-06
      5.07765708e-06 7.70345832e-06 7.43181408e-06 2.46729496e-06
      -2.47117100e-06 -5.29879890e-06 -5.13770283e-06 -4.13521775e-06
      -3.02579247e-06 -1.89402499e-06 -1.14694501e-06 -1.46785385e-06
      -4.27150189e-06 -8.62078559e-06 -1.16741976e-05 -1.47600258e-05
      -1.75473269e-05 -1.81844116e-05 -1.82835174e-05 -1.98717480e-05
      5.19293337e-07 -2.58942964e-06 -4.84774910e-06 -4.21434470e-06
      -8.73002080e-07 3.58568582e-06 6.83943836e-06 8.92067510e-06
      1.24852359e-05 1.26523119e-05 1.09207785e-05 9.74025079e-06
      8.86874568e-06 7.83418000e-06 4.87542093e-06 1.21477433e-06
      -2.51931510e-06 -4.10267103e-06 -2.12276859e-06 4.23106769e-07
      4.43420390e-07 -2.33304362e-07 -3.94595872e-07 -5.21547827e-06
      -8.57031864e-06 -6.04096704e-06 -3.24138205e-06 -1.44305056e-06
      -2.37149516e-06 -2.90631215e-06 1.22538302e-06 2.05603624e-06
      -1.36737458e-06 -2.37122731e-06 -1.81511928e-06 -2.37405700e-07
      4.40640179e-07 9.64128503e-07 7.50703521e-07 2.42177407e-08
      -2.47691082e-06 -6.22708558e-06 -9.42665974e-06 -1.17221571e-05
      -1.44076648e-05 -1.57974009e-05 -1.51229560e-05 -1.46811899e-05
      4.37182825e-06 3.00632678e-06 8.88021532e-07 -2.92401910e-06
      -6.61180047e-06 -4.91005039e-06 -7.57924397e-07 3.88468470e-06
      6.93010907e-06 8.52528137e-06 7.79633046e-06 7.01515864e-06
      5.90640639e-06 6.33200170e-06 6.10712323e-06 2.44910257e-06
      -1.36362792e-06 -5.33912180e-06 -5.27760903e-06 -1.11268128e-06
      1.85896386e-06 2.80714448e-06 3.50049845e-06 3.09263032e-06
      -5.14978547e-06 -1.10651144e-05 -9.63898674e-06 -6.62972070e-06
      -4.07517200e-06 -4.79963865e-06 -6.44895317e-06 -2.53291773e-06
      1.23394088e-07 -1.71211525e-06 -3.41640920e-08 1.08530355e-06
      3.11905046e-06 3.18554521e-06 2.99123121e-06 2.33470178e-06
      1.08085180e-06 -1.22266579e-06 -4.02287878e-06 -8.40356370e-06
      -1.35291975e-05 -1.62671295e-05 -1.54855152e-05 -1.38048672e-05
      8.94607354e-07 2.90912999e-06 3.46151000e-06 7.41764268e-07
      -4.03029571e-06 -8.42552345e-06 -6.73796285e-06 -2.49756295e-06
      1.09600546e-06 2.74834633e-06 2.90941830e-06 1.90648541e-06
      5.09660310e-07 9.07043955e-07 3.03688967e-06 3.86543979e-06
      3.51535249e-07 -5.17542185e-06 -9.89945966e-06 -6.97448650e-06
      -3.77068818e-06 2.75332695e-07 1.74277125e-06 1.27708824e-06
      -1.34019263e-06 -9.17588932e-06 -1.42847166e-05 -1.39196782e-05
      -1.12660937e-05 -5.66874769e-06 -6.39179780e-06 -7.19169066e-06
      -6.26578503e-06 -4.71369640e-06 -3.04601940e-06 -1.59954300e-06
      7.86983890e-07 3.41559894e-06 2.68514214e-06 2.17050751e-06
      2.15676573e-06 1.24102678e-06 -1.90160648e-07 -2.21378036e-06
      -5.76080129e-06 -1.03083894e-05 -1.35976925e-05 -1.40203556e-05
      -3.61068282e-06 -3.00901479e-06 -1.21155313e-06 -1.56514659e-06
      -3.68591600e-06 -7.75026911e-06 -9.04462377e-06 -6.81695064e-06
      -4.56999624e-06 -2.90463959e-06 -1.68170595e-06 -1.84059547e-06
      -1.90927040e-06 -2.27644023e-06 -7.99487736e-07 -4.74127887e-07
      -7.07325853e-07 -6.29641454e-06 -1.17951222e-05 -1.39098174e-05
      -9.16215686e-06 -4.40865051e-06 -3.16671390e-07 3.42759222e-07
      -3.17427430e-06 -6.86285193e-06 -1.21201756e-05 -1.41301698e-05
      -1.58532148e-05 -1.00743218e-05 -7.90161357e-06 -8.61496937e-06
      -9.06495279e-06 -1.02155891e-05 -1.07396199e-05 -8.75685237e-06
      -5.13011037e-06 -1.99724741e-06 3.40895014e-07 -4.43335779e-07
      -1.54672273e-06 -7.09873973e-07 -9.59791237e-07 -1.92870948e-06
      -2.82996621e-06 -4.02068235e-06 -5.68802307e-06 -7.74215096e-06
      -3.44848718e-06 -4.39154519e-06 -4.18146465e-06 -3.64199673e-06
      -5.21567063e-06 -8.70478470e-06 -1.08566037e-05 -7.69599137e-06
      -3.91700769e-06 -3.73112198e-06 -4.42442752e-06 -3.88647913e-06
      -2.92045911e-06 -1.49013567e-06 -2.85718784e-07 -1.34738059e-06
      -2.20305606e-06 -5.26509848e-06 -1.06742991e-05 -1.46657558e-05
      -1.25491861e-05 -7.82371444e-06 -3.41312079e-06 -1.77714455e-07
      -1.75355569e-06 -4.10587063e-06 -6.45826367e-06 -9.38786343e-06
      -1.34993334e-05 -1.36697490e-05 -7.59248951e-06 -7.95576761e-06
      -9.37313507e-06 -1.15181283e-05 -1.27270123e-05 -1.29647979e-05
      -1.19106098e-05 -9.81365702e-06 -6.83695771e-06 -5.01594741e-06
      -5.56239547e-06 -5.75022841e-06 -4.06948311e-06 -4.10396024e-06
      -4.95287259e-06 -4.79221580e-06 -4.79327173e-06 -5.72485578e-06
      -4.01785519e-06 -5.32199283e-06 -5.15600277e-06 -4.15254863e-06
      -4.71675503e-06 -7.72742806e-06 -1.06150346e-05 -8.26659016e-06
      -3.66439940e-06 -2.18228729e-06 -3.30354464e-06 -5.39390294e-06
      -5.91036769e-06 -3.51392282e-06 9.75391345e-07 6.15006741e-07
      3.11363237e-07 -2.31598074e-06 -6.48594096e-06 -1.09458033e-05
      -1.31535153e-05 -9.86513896e-06 -6.83603685e-06 -4.27341365e-06
      -3.12564521e-06 -3.29534691e-06 -2.44341345e-06 1.44949888e-06
      5.29013619e-07 -3.89993374e-06 -5.79724110e-06 -3.67859525e-06
      -2.54307611e-06 -7.76936849e-06 -1.02748390e-05 -1.19967153e-05
      -1.13760507e-05 -1.15453513e-05 -1.06621110e-05 -7.47749937e-06
      -6.28398539e-06 -6.48429341e-06 -5.56576651e-06 -3.91487538e-06
      -4.29212332e-06 -4.68756480e-06 -4.69869428e-06 -4.97218525e-06
      -2.76609444e-06 -3.70805060e-06 -4.33757305e-06 -3.76092407e-06
      -2.89813465e-06 -3.20591903e-06 -4.82498490e-06 -4.55143436e-06
      -1.48389927e-06 -6.58233034e-07 -2.00495310e-06 -3.59452065e-06
      -7.23394623e-06 -9.11536881e-06 -3.52968163e-06 5.54919438e-07
      3.56814508e-06 3.80836264e-06 -2.06299386e-08 -4.98913460e-06
      -8.55407143e-06 -1.31238621e-05 -1.32735813e-05 -6.87536840e-06
      -3.52197890e-06 -3.03975185e-06 -1.34277263e-06 4.13487942e-06
      8.45563227e-06 8.75347087e-06 4.69331735e-06 2.89518516e-06
      1.79935046e-06 -1.03239688e-06 -4.11584961e-06 -6.69839073e-06
      -7.33305069e-06 -8.44001079e-06 -8.76884496e-06 -7.00205965e-06
      -4.81030565e-06 -2.87742955e-06 -2.07930930e-06 -1.51848724e-06
      -2.33893772e-07 -3.82041975e-07 -6.96544646e-07 -1.32292928e-06
      -1.58130899e-06 -1.11575548e-06 -1.51605707e-06 -8.50313370e-07
      -2.97878611e-10 1.53818291e-06 1.75987805e-06 1.43422255e-06
      2.61087621e-06 2.85487977e-06 2.05919537e-06 -1.59719193e-07
      -2.93643825e-06 -5.28407509e-06 -6.36160621e-06 -2.77123013e-06
      1.93746018e-06 6.79562345e-06 5.73719171e-06 4.11924293e-06
      -2.33789524e-06 -9.02889406e-06 -1.72807140e-05 -1.67859362e-05
      -1.08544691e-05 -4.95123049e-06 -2.51855204e-06 2.50127096e-06
      8.23235769e-06 1.25454308e-05 1.06956550e-05 7.83386440e-06
      3.25038764e-06 3.30588568e-06 1.70135058e-06 -5.58410534e-07
      -2.41853422e-06 -3.85507337e-06 -4.28017938e-06 -4.22374751e-06
      -3.62559581e-06 -1.35892617e-06 1.69302382e-06 2.97817928e-06
      3.66149902e-06 4.18199488e-06 3.97116401e-06 3.00278202e-06
      -1.40231555e-06 -1.05661350e-07 1.02842728e-06 2.09856466e-06
      2.86657792e-06 3.59223941e-06 4.56232738e-06 4.53756820e-06
      4.36043183e-06 4.80365998e-06 4.78437232e-06 2.51865163e-06
      -9.46668706e-07 -1.99711212e-06 -3.24129064e-06 -4.18458239e-06
      -1.39581334e-06 3.12069915e-06 4.81466577e-06 7.45309853e-06
      5.25689757e-06 -2.30712408e-06 -1.08301438e-05 -1.92432017e-05
      -2.26802640e-05 -1.65740512e-05 -8.76170270e-06 -1.99979741e-06
      3.75404625e-06 7.94872903e-06 1.02418899e-05 9.52447044e-06
      8.10143683e-06 5.83543488e-06 3.93431674e-06 3.82360122e-06
      1.68703855e-06 3.24476815e-07 -1.78236746e-06 -3.27940188e-06
      -3.28555484e-06 -1.74476963e-06 1.45491367e-06 4.61383252e-06
      5.67285633e-06 5.34475203e-06 4.80594053e-06 3.77656193e-06
      -1.76177969e-06 2.03911512e-07 2.76057472e-06 5.29877980e-06
      6.46929084e-06 6.13058637e-06 6.01565853e-06 5.06664537e-06
      4.87612579e-06 3.75979494e-06 4.13545331e-06 2.47259436e-06
      2.11014324e-07 -2.68211011e-06 -3.67908342e-06 -2.78621587e-06
      -2.35433868e-06 -3.74618224e-07 4.50755664e-07 1.44902469e-06
      2.90806815e-06 1.86139380e-06 -3.80434199e-06 -9.65541494e-06
      -1.85020035e-05 -2.19896956e-05 -1.88272916e-05 -1.05760400e-05
      -4.13790485e-06 1.03851562e-06 6.17037949e-06 8.90095180e-06
      9.12800351e-06 8.44748502e-06 6.86999329e-06 5.53688460e-06
      3.25476549e-06 3.57616477e-06 2.03574905e-06 -1.60149199e-07
      -1.98542625e-06 -3.00374222e-06 -1.48468894e-06 5.65337814e-07
      2.87247190e-06 3.81325867e-06 3.47435707e-06 2.60079992e-06
      -1.52824398e-07 6.32413446e-07 2.34862728e-06 3.95919233e-06
      5.70092379e-06 6.87749889e-06 6.86404201e-06 7.00082455e-06
      6.94473192e-06 7.37374012e-06 7.28077748e-06 5.67218058e-06
      3.19627134e-06 -8.02192005e-07 -3.12920815e-06 -2.14081183e-06
      -1.12973089e-06 1.04604214e-06 1.10057545e-06 -2.12031736e-07
      -1.25314330e-06 -1.85601505e-06 -2.52336667e-06 -4.11425981e-06
      -8.06670232e-06 -1.49268681e-05 -1.91846848e-05 -1.60258351e-05
      -1.05953895e-05 -3.35371715e-06 6.72779720e-07 4.57982969e-06
      5.67197912e-06 5.48272601e-06 4.72338479e-06 4.92633581e-06
      1.93876394e-06 1.76807043e-06 3.42938324e-06 3.30401122e-06
      1.77431730e-06 1.83977633e-07 -1.43260070e-06 -1.74839079e-06
      -8.18586045e-07 6.50594075e-07 1.34645086e-06 1.34032632e-06
      2.40798249e-06 2.06301593e-06 2.04645630e-06 1.45259378e-06
      1.90182323e-06 3.10293012e-06 3.61003185e-06 5.05830030e-06
      7.69871986e-06 1.00899551e-05 1.15112598e-05 1.01803644e-05
      8.47147930e-06 4.22607536e-06 -8.94864570e-07 -2.36162759e-06
      -8.57617408e-07 -1.79231151e-07 1.24505254e-06 9.72767680e-07
      5.13009809e-07 -1.18825233e-06 -4.07395601e-06 -5.86571105e-06
      -5.29787758e-06 -7.37491337e-06 -1.05831332e-05 -1.21798194e-05
      -1.03499979e-05 -5.27545808e-06 -2.36054916e-07 2.76532182e-06
      1.64104222e-06 3.49291122e-06 1.72009618e-06 2.51307483e-06
      3.48062645e-06 4.46819831e-06 5.64806805e-06 6.62574485e-06
      6.43780140e-06 4.40735448e-06 2.31923968e-06 3.94280057e-08
      -1.25906990e-06 -8.08558298e-07 2.13990248e-07 7.15184910e-07
      2.61577111e-06 1.27748513e-06 1.04136075e-06 2.23607746e-08
      -1.37712129e-06 -1.69291388e-06 -1.77633115e-06 -8.67162555e-07
      2.40649251e-06 7.97004941e-06 1.15082685e-05 1.14339527e-05
      1.07550095e-05 8.06337903e-06 2.75091725e-06 -1.62916103e-06
      -4.04713956e-06 -4.00329873e-06 -3.37864731e-06 -1.62449919e-06
      4.44962069e-07 1.37649704e-06 1.07470169e-06 -1.91549680e-06
      -5.32384001e-06 -6.50379206e-06 -6.88654336e-06 -6.64718709e-06
      -5.81911900e-06 -1.83182783e-06 -3.43092637e-07 2.32519983e-06
      2.65176504e-06 5.08947505e-06 5.13307987e-06 4.55343434e-06
      4.62972912e-06 4.35841321e-06 4.68659618e-06 5.89137881e-06
      6.31103103e-06 5.01215527e-06 4.03707054e-06 1.86188834e-06
      3.81139984e-07 1.39542024e-07 3.75709504e-07 6.87336922e-07
      2.28857471e-06 7.21328490e-07 -6.07554000e-07 -1.55632210e-06
      -2.53152075e-06 -4.07473181e-06 -4.96434814e-06 -6.57509099e-06
      -4.86819908e-06 1.00358670e-06 6.49447929e-06 8.34839011e-06
      7.90949707e-06 8.10341226e-06 3.81463110e-06 -4.81604332e-07
      -3.87651517e-06 -5.79924472e-06 -6.53363850e-06 -4.63570177e-06
      -1.43180966e-06 2.73593969e-06 5.96816108e-06 5.84487407e-06
      9.67642677e-07 -2.11728752e-06 -3.91915364e-06 -5.01716295e-06
      -3.94183644e-06 -1.37363054e-06 1.10235101e-06 3.59702312e-06
      2.82345263e-06 4.05299124e-06 6.03075478e-06 5.85541056e-06
      5.92220022e-06 4.74748549e-06 2.71762929e-06 2.21967298e-06
      2.57842635e-06 2.33288711e-06 1.75412799e-06 7.62079253e-07
      5.96012967e-07 9.02756597e-07 1.35827781e-06 1.41314058e-06
      1.46008063e-07 -1.57468079e-07 -1.80348138e-06 -3.73298826e-06
      -4.27590248e-06 -4.79372693e-06 -5.30662874e-06 -7.15187889e-06
      -8.45425711e-06 -6.66981350e-06 -2.43215186e-06 7.61668502e-07
      1.92272228e-06 3.16763976e-06 2.16314311e-06 -3.25472854e-07
      -2.29910211e-06 -4.12896179e-06 -3.94095377e-06 -3.53592759e-06
      -1.38905489e-06 3.28807550e-06 7.85947486e-06 9.53609833e-06
      6.27040890e-06 1.77715867e-06 -3.51341669e-07 -3.12363977e-06
      -4.51569713e-06 -3.29825093e-06 3.26630612e-07 3.65055598e-06
      2.78160883e-06 2.40150803e-06 3.85163230e-06 3.74625870e-06
      4.21025788e-06 4.03280274e-06 3.08978247e-06 1.58791784e-06
      1.50982294e-06 7.05095317e-07 -4.30451834e-08 -4.63728867e-07
      4.89925924e-07 9.44711928e-07 1.73682042e-06 2.17755905e-06
      -2.78634184e-06 -2.43754675e-06 -3.07321829e-06 -4.82386304e-06
      -7.14873613e-06 -7.32680201e-06 -6.00940893e-06 -5.89109550e-06
      -7.69795588e-06 -9.26501434e-06 -8.15572002e-06 -5.52030588e-06
      -3.67455641e-06 -7.45474438e-07 -6.68482869e-07 -1.56984856e-06
      -1.63226446e-06 -3.23088420e-06 -4.18603713e-06 -1.92011862e-06
      6.40316159e-07 5.25194355e-06 7.55531346e-06 8.52157882e-06
      7.73918146e-06 3.00808165e-06 -1.91429663e-08 -2.82333508e-06
      -5.71088549e-06 -5.67867255e-06 -3.06228094e-06 5.46358137e-07
      1.37587119e-06 4.28550550e-07 8.27785641e-07 2.38067230e-07
      1.35385481e-08 1.87851782e-07 7.57729936e-07 2.09126188e-06
      2.48374249e-06 2.09149630e-06 1.49335426e-06 1.32285641e-06
      2.96451390e-06 2.51752158e-06 2.22108361e-06 2.37388485e-06
      -5.12637644e-06 -4.48596484e-06 -4.26083261e-06 -4.07947891e-06
      -6.91934656e-06 -9.32640705e-06 -9.39947040e-06 -8.49486423e-06
      -6.93039919e-06 -8.22819766e-06 -8.34864204e-06 -7.98839665e-06
      -4.56407906e-06 -1.06745711e-06 5.44726447e-07 1.73853607e-07
      5.82719622e-07 -6.92095625e-08 -1.40186046e-06 -2.44687726e-06
      -8.73168062e-07 4.25932512e-06 5.95141546e-06 6.31288140e-06
      5.59189039e-06 3.19226865e-06 -1.45449391e-07 -3.90212972e-06
      -8.05276704e-06 -9.43638861e-06 -7.69194321e-06 -3.74921979e-06
      -2.11295696e-06 -1.72654882e-06 -1.88128092e-06 -3.22488268e-06
      -3.53393762e-06 -3.75348759e-06 -2.34703634e-06 6.78064254e-08
      3.00500301e-06 3.80038387e-06 3.54883650e-06 3.67991834e-06
      5.44945533e-06 6.43603607e-06 4.99175076e-06 4.23220627e-06
      -6.18432750e-06 -5.18839670e-06 -4.69746010e-06 -2.52327663e-06
      -1.84368082e-06 -4.78605079e-06 -8.50010201e-06 -1.05230365e-05
      -9.81736684e-06 -7.48697676e-06 -6.15223917e-06 -6.64984282e-06
      -4.97401015e-06 -1.26604789e-06 2.68642765e-07 7.81595475e-07
      7.80888968e-07 2.49703862e-06 2.02636352e-06 -1.88468448e-06
      -3.59489923e-06 -2.37579661e-06 1.64503263e-06 1.96736505e-06
      2.22184462e-06 1.40121313e-06 1.34189645e-06 -1.44823298e-06
      -6.28304997e-06 -1.12690504e-05 -1.15569401e-05 -8.27530766e-06
      -5.08372204e-06 -3.91734739e-06 -3.29784370e-06 -5.11283451e-06
      -6.33123364e-06 -5.74888054e-06 -4.75844990e-06 -1.00088732e-06
      2.25445638e-06 3.04464925e-06 4.04082402e-06 4.62925709e-06
      5.21590073e-06 5.85277576e-06 5.16650380e-06 4.43241970e-06
      -6.60145906e-06 -5.38711765e-06 -4.23869233e-06 -1.91101685e-06
      2.49808477e-06 2.96861663e-06 -2.72270142e-07 -4.12941290e-06
      -7.65509412e-06 -8.76979993e-06 -6.24578752e-06 -2.33328251e-06
      -2.66004827e-06 -2.58556656e-06 -3.78148297e-06 -3.41952205e-06
      -3.20547269e-06 5.56040732e-07 5.02747980e-06 1.06941991e-06
      -3.11033068e-06 -7.75126318e-06 -6.88862565e-06 -4.03665717e-06
      -2.06345749e-06 -1.27331543e-06 2.13735325e-06 3.18655020e-06
      -2.13900421e-06 -9.23203515e-06 -1.39638150e-05 -1.25706420e-05
      -7.46389424e-06 -5.66616927e-06 -2.62081016e-06 -3.23755148e-06
      -5.32886270e-06 -5.22179744e-06 -5.65046685e-06 -4.16789180e-06
      -8.70067424e-07 1.32390960e-06 3.29342470e-06 3.78203640e-06
      3.50213827e-06 3.39818735e-06 2.54113911e-06 1.94317545e-06
      -6.42646364e-06 -5.97643930e-06 -4.87927491e-06 -2.96307098e-06
      9.11173501e-08 2.84077828e-06 4.80186281e-06 2.95707696e-06
      3.41542012e-08 -4.39248015e-06 -4.77649928e-06 -1.16952208e-06
      2.34361619e-06 2.43530707e-07 -3.51727408e-06 -7.16743898e-06
      -8.02860995e-06 -4.92618437e-06 3.25721430e-06 5.75034210e-06
      2.35294169e-06 -4.24228710e-06 -8.54766404e-06 -9.12690484e-06
      -5.76631510e-06 -4.88826754e-06 -2.40571217e-06 2.58172872e-06
      3.53126825e-06 -2.83116583e-06 -1.29421906e-05 -1.52646044e-05
      -9.06420973e-06 -5.41639565e-06 -3.79272979e-06 -3.63997060e-06
      -4.07941479e-06 -4.04761613e-06 -3.70032035e-06 -4.72707552e-06
      -4.40280201e-06 -1.74256093e-06 2.49321647e-06 3.69492977e-06
      2.05522292e-06 -1.28339668e-08 -5.31817307e-07 -6.59695900e-07
      1.96146198e-06 2.76077088e-07 4.24325606e-08 -2.14243101e-07
      3.13731789e-06 7.23845824e-06 7.18203864e-06 4.09173435e-06
      4.77440108e-06 5.14722387e-06 2.12637997e-06 -1.32523132e-06
      -1.66763255e-06 6.68791984e-07 -5.17196312e-08 -1.47030477e-07
      2.11995575e-06 1.65263077e-06 1.52487598e-06 2.98443570e-06
      3.21699349e-06 2.48097240e-06 9.76919750e-07 1.57673708e-06
      3.39504641e-06 3.91378944e-06 3.50009054e-06 3.75324862e-06
      5.86290889e-06 6.60641672e-06 4.11216479e-06 1.05753247e-06
      -4.05731733e-08 8.24102699e-07 6.86547367e-07 4.25242069e-06
      6.01709644e-06 -9.43882526e-07 -7.63416483e-06 -1.43866237e-05
      -1.84574092e-05 -1.97705194e-05 -1.83399607e-05 -2.03300024e-05
      -2.07770536e-05 -1.39537142e-05 -1.88044123e-06 5.85944963e-06
      2.20870925e-06 9.75716148e-07 -3.86650427e-08 3.29782637e-07
      1.26042221e-06 5.63650246e-06 6.69920155e-06 5.71698911e-06
      4.49809113e-06 4.92753406e-06 2.30233422e-06 -1.02688671e-06
      -2.25571102e-06 -5.39634925e-07 2.88449712e-07 -6.45758835e-10
      2.38856478e-06 3.28257624e-06 2.27090914e-06 2.87297303e-06
      2.38431630e-06 2.04196817e-06 1.98155112e-06 1.23697225e-06
      1.81305154e-06 2.92709910e-06 4.53060238e-06 4.66568099e-06
      4.98628788e-06 5.09853317e-06 3.31873321e-06 5.26910299e-07
      -2.17658325e-07 9.93805997e-07 3.88626972e-07 2.20490529e-06
      5.49512833e-06 7.92607182e-07 -6.70147892e-06 -1.25564284e-05
      -1.57004761e-05 -1.76819194e-05 -1.64071225e-05 -1.85145273e-05
      -2.11005427e-05 -1.67336038e-05 -4.77515641e-06 4.32371462e-06
      2.54640941e-06 2.90255457e-06 6.83555243e-07 5.23931078e-07
      9.11409302e-07 4.63288734e-06 6.86719477e-06 6.28950238e-06
      5.40633027e-06 5.45805597e-06 3.01711907e-06 -3.16030764e-07
      -2.28752970e-06 -1.21691096e-06 3.27795618e-07 7.75964963e-07
      2.08004553e-06 4.37647986e-06 3.87928048e-06 2.51690153e-06
      4.67534647e-07 -1.13510293e-06 7.78905118e-08 6.77152286e-07
      -4.25584744e-07 1.37020675e-06 4.73653836e-06 7.62851278e-06
      5.86293527e-06 4.09038239e-06 1.72469254e-06 -4.95549102e-07
      -1.46888328e-06 -7.16244926e-07 -1.02260287e-07 -1.10625820e-07
      3.08550580e-06 9.40356358e-07 -6.11026962e-06 -1.05238259e-05
      -1.22418633e-05 -1.32766372e-05 -1.33478297e-05 -1.52193888e-05
      -1.84865930e-05 -1.65859565e-05 -6.88491446e-06 1.17545403e-06
      1.04470860e-06 2.23138750e-06 2.76544438e-06 1.05166498e-06
      8.74818113e-07 3.41420923e-06 6.59746092e-06 6.20453466e-06
      6.41370207e-06 6.68762550e-06 4.23834763e-06 2.97181998e-07
      -1.95698544e-06 -1.96556698e-06 -5.41780707e-07 7.74526939e-07
      2.70447617e-06 4.84375369e-06 5.08465064e-06 2.90996127e-06
      -1.23031543e-06 -4.22412859e-06 -3.02083367e-06 -6.03703199e-07
      -1.56043939e-06 -4.51758865e-07 3.68905830e-06 7.91434377e-06
      7.16186469e-06 4.70168516e-06 1.85559736e-06 -4.82396615e-07
      -1.62760909e-06 -2.44568241e-06 -1.05239519e-06 -2.49235033e-08
      1.29977946e-06 6.01228919e-07 -5.23359176e-06 -9.36277411e-06
      -1.01930855e-05 -9.28311511e-06 -9.12312680e-06 -1.13991509e-05
      -1.48892132e-05 -1.45575559e-05 -7.28448776e-06 -8.27914278e-07
      -1.92233119e-06 -1.07713890e-06 7.48637206e-07 2.72262537e-06
      1.76499975e-06 2.54114343e-06 5.26093891e-06 5.22041591e-06
      5.19198011e-06 6.53024517e-06 5.85669568e-06 6.75196304e-07
      -2.49977938e-06 -3.82129656e-06 -2.68674717e-06 -8.51085758e-07
      3.43991428e-06 5.37090591e-06 6.73831846e-06 3.82461985e-06
      -2.05776746e-06 -6.37492531e-06 -6.06523008e-06 -2.62799836e-06
      -1.10828091e-06 -1.10316910e-06 1.61555408e-06 5.47860964e-06
      6.91025571e-06 6.39575183e-06 3.28152464e-06 1.07809524e-06
      1.83927443e-06 -5.99235932e-08 -1.13015358e-06 2.56274042e-08
      1.42958640e-06 1.65948302e-06 -1.95610119e-06 -7.07474919e-06
      -8.16300690e-06 -7.32621902e-06 -6.43448448e-06 -6.98331451e-06
      -1.05385516e-05 -1.11532800e-05 -6.67144968e-06 -2.02091474e-06
      -5.18293700e-06 -4.60035244e-06 -2.71382783e-06 2.58029354e-06
      4.31726812e-06 2.70273813e-06 3.71444753e-06 4.51254709e-06
      4.05545507e-06 6.14395231e-06 6.71946600e-06 2.75162688e-06
      -2.77180834e-06 -5.41261306e-06 -4.77474850e-06 -3.00343481e-06
      2.25470217e-06 6.26628389e-06 7.60392095e-06 5.92002925e-06
      -1.03965829e-06 -7.93921117e-06 -1.00064099e-05 -6.75777937e-06
      -2.69968655e-06 -1.88807962e-06 2.07083573e-07 2.76367405e-06
      4.50954394e-06 6.84939323e-06 5.40704423e-06 3.32312970e-06
      5.39371467e-06 4.21065442e-06 2.21615664e-06 9.89502610e-07
      1.76056676e-06 2.67679684e-06 9.54930101e-07 -2.82501219e-06
      -5.09528809e-06 -5.48955586e-06 -5.41917780e-06 -5.26919484e-06
      -6.40566032e-06 -7.44433373e-06 -5.21489756e-06 -4.13492216e-07
      -4.57914120e-06 -5.24629513e-06 -4.91374612e-06 -1.43235425e-07
      5.58914599e-06 6.21502386e-06 4.67997552e-06 4.65301764e-06
      4.26421184e-06 5.40835481e-06 6.57200690e-06 3.91596586e-06
      -1.93824008e-06 -5.95862593e-06 -5.50237701e-06 -5.12109182e-06
      -6.96558473e-08 6.05645982e-06 9.31177055e-06 8.83370194e-06
      1.27254657e-06 -8.06129174e-06 -1.29311848e-05 -1.16055671e-05
      -6.61753393e-06 -2.76017886e-06 -1.16759031e-06 5.81823087e-07
      3.37975052e-07 4.11755491e-06 7.01974386e-06 5.65463915e-06
      6.86517023e-06 7.13696772e-06 5.24186680e-06 4.29675947e-06
      3.41968121e-06 3.95575171e-06 4.06148274e-06 1.17147169e-06
      -3.79931407e-07 -1.36058839e-06 -3.24438838e-06 -3.57448243e-06
      -2.78576954e-06 -1.76926847e-06 -4.45948928e-07 3.65609799e-06
      -3.23939298e-06 -5.18167326e-06 -6.68820167e-06 -3.44281716e-06
      2.48769948e-06 6.14884812e-06 6.43673729e-06 5.64006996e-06
      6.13329166e-06 5.72452382e-06 4.96186067e-06 2.34155664e-06
      -1.94687345e-06 -4.67933842e-06 -5.24410689e-06 -5.66168410e-06
      -2.14723104e-06 5.56127861e-06 1.02762597e-05 1.07467858e-05
      4.07759035e-06 -5.61435672e-06 -1.34876591e-05 -1.54075478e-05
      -1.19407778e-05 -5.62380364e-06 -2.03656987e-06 -1.05348796e-07
      -2.42085343e-06 1.91228537e-07 6.33560649e-06 7.27593806e-06
      6.60785508e-06 6.85226132e-06 6.16177840e-06 6.91584273e-06
      6.67158702e-06 5.09280244e-06 5.23152266e-06 3.16384603e-06
      8.10679126e-07 1.45317551e-06 9.06233538e-07 -1.24441431e-06
      -7.47330319e-07 -3.11621619e-07 1.27167823e-06 5.14790872e-06
      -2.07180932e-07 -2.29404009e-06 -5.29125600e-06 -4.37089420e-06
      -4.19188353e-07 2.57185616e-06 4.89733748e-06 4.54718520e-06
      5.37542746e-06 6.34784783e-06 5.12966653e-06 1.94315021e-06
      -3.06184756e-06 -3.91786261e-06 -2.69646989e-06 -3.27562088e-06
      -1.74599973e-06 4.00396721e-06 1.00900625e-05 1.11042045e-05
      7.00327928e-06 -1.19233414e-06 -9.14369230e-06 -1.43880980e-05
      -1.45162749e-05 -9.73105307e-06 -4.51922142e-06 -2.21985852e-06
      -3.28983538e-06 -4.79413393e-06 2.36720894e-06 7.70393217e-06
      5.95833399e-06 4.71946805e-06 2.45567026e-06 4.94901860e-06
      6.15886393e-06 4.39152018e-06 4.95690119e-06 4.14776468e-06
      7.21958031e-07 4.52988104e-07 2.21338883e-06 2.42371448e-06
      2.41229895e-06 1.53842723e-06 1.69737166e-06 4.48640958e-06
      2.51576807e-06 6.43375699e-07 -2.28622844e-06 -4.29612101e-06
      -1.84840940e-06 2.89379017e-07 1.29260980e-06 1.92553421e-06
      1.52851123e-06 3.41538748e-06 4.74574063e-06 2.08376628e-06
      -3.91754111e-06 -5.64927223e-06 -2.38468897e-06 4.26901408e-07
      1.26991802e-06 5.04363334e-06 9.29533962e-06 1.01133674e-05
      7.22955610e-06 3.59602222e-06 -2.21335313e-06 -8.94442019e-06
      -1.35519085e-05 -1.33825597e-05 -7.92057290e-06 -2.88296587e-06
      -3.44372438e-06 -7.98744350e-06 -5.22025039e-06 3.15927105e-06
      4.14438682e-06 3.20343770e-06 2.00633394e-07 1.19588549e-06
      2.63326319e-06 -8.05711579e-07 5.33938248e-07 2.48288916e-06
      8.52629626e-07 -2.87658418e-06 -9.52201788e-07 1.58801572e-06
      3.91875892e-06 2.47541789e-06 -5.29619456e-07 1.00546310e-06
      2.19365302e-06 2.06307232e-06 9.72798588e-08 -2.37388099e-06
      -2.36947562e-06 -6.89521869e-07 -2.33138646e-08 -4.08660441e-07
      -2.57754414e-06 -1.02269314e-06 1.75318485e-06 2.22197559e-06
      -4.34487174e-06 -8.11921109e-06 -3.61192633e-06 1.15063585e-06
      3.26907480e-06 4.44696525e-06 8.75540718e-06 8.19676370e-06
      5.89151932e-06 3.80172651e-06 2.40570125e-06 -2.11055453e-06
      -7.05313005e-06 -1.17705440e-05 -1.07176429e-05 -3.84904206e-06
      -3.81326254e-06 -8.24219478e-06 -1.00985235e-05 -4.08586266e-06
      7.51540597e-07 9.22271965e-07 -7.88915372e-07 -1.73994715e-06
      1.05815650e-06 -1.74104628e-06 -4.23529491e-06 -1.07638016e-06
      -7.34762793e-08 -4.32428169e-06 -6.11253654e-06 -2.07407675e-06
      3.71736405e-06 4.61633954e-06 -5.09914344e-07 -3.04931564e-06
      1.50450637e-06 2.57852093e-06 3.14783347e-06 5.09126039e-07
      -1.02971683e-06 -9.67862434e-07 -1.24549138e-06 -1.60506193e-06
      -5.60480885e-06 -7.25464315e-06 -2.92438926e-06 3.86688612e-07
      -2.94448319e-06 -9.02095326e-06 -6.60021351e-06 2.92194272e-07
      3.04510991e-06 3.36026346e-06 7.24207939e-06 7.91240018e-06
      4.07338939e-06 4.08947153e-06 3.56797227e-06 2.14840952e-06
      -1.11078134e-06 -8.08783625e-06 -1.07472742e-05 -6.38449001e-06
      -3.15065813e-06 -6.68142275e-06 -1.04000837e-05 -7.87994213e-06
      -3.51929407e-06 -2.05738684e-06 -3.77187985e-06 -3.17776653e-06
      -7.04929676e-07 -2.46810714e-06 -5.90411946e-06 -6.38556139e-06
      -2.99668341e-06 -2.91714673e-06 -7.57876023e-06 -8.10067377e-06
      -1.74154479e-06 2.99237013e-06 1.18608989e-06 -3.18593334e-06
      -4.80735252e-07 -4.29209251e-07 1.70831026e-06 2.11972610e-06
      1.65232379e-07 -1.03962680e-06 -2.10502094e-06 -2.42278475e-06
      -5.84077816e-06 -1.01720634e-05 -8.03180410e-06 -3.02153080e-06
      -2.60448633e-06 -7.68374957e-06 -7.69735834e-06 -3.38078371e-06
      1.30411979e-06 1.22506731e-06 4.79206346e-06 6.22067546e-06
      1.28125680e-06 1.57439740e-06 2.38795315e-06 1.97776990e-06
      2.17723232e-06 -3.49595052e-06 -9.10683593e-06 -7.86320379e-06
      -3.22571350e-06 -2.42122360e-06 -8.07834294e-06 -8.57924715e-06
      -4.42921510e-06 -3.85425119e-06 -6.19780712e-06 -6.08249366e-06
      -1.93756364e-06 -1.54406882e-06 -6.38994470e-06 -8.01863189e-06
      -6.51340133e-06 -3.24793564e-06 -6.05820560e-06 -9.66994412e-06
      -7.49191622e-06 -1.36626682e-06 1.82356121e-06 -2.26901261e-06
      1.98989440e-07 -2.18196510e-06 -3.74483534e-07 1.68568999e-06
      3.52545726e-07 -2.21838854e-06 -4.81483085e-06 -5.06489914e-06
      -6.84742963e-06 -1.05163645e-05 -1.15362491e-05 -6.80003677e-06
      -3.64397692e-06 -4.71318617e-06 -4.85475130e-06 -2.53307780e-06
      -1.38392522e-06 5.11017220e-07 9.95170581e-07 4.07402968e-06
      -1.22687595e-06 -2.19017102e-06 -7.67344602e-07 -1.47097717e-06
      -5.80378554e-08 -1.20541472e-06 -6.42632131e-06 -7.12727979e-06
      -4.52399081e-06 -1.11753684e-06 -4.81128927e-06 -7.50048594e-06
      -4.89624699e-06 -5.55503220e-06 -7.19250056e-06 -8.34126513e-06
      -4.65121366e-06 -1.01234957e-06 -4.95753829e-06 -8.60681575e-06
      -8.27382974e-06 -2.86979412e-06 -2.50306493e-06 -6.62945649e-06
      -8.84129713e-06 -5.79738116e-06 1.34549873e-06 2.56054454e-06
      -4.91804769e-07 -2.19653248e-06 -2.24911491e-06 -4.13547411e-07
      -3.32456921e-07 -1.66864152e-06 -6.09824747e-06 -7.55342126e-06
      -6.81274605e-06 -9.22381969e-06 -1.10014262e-05 -1.06372754e-05
      -8.18137869e-06 -6.15727049e-06 -3.81360383e-06 -6.80708695e-07
      8.48461696e-07 9.19782906e-07 3.87573635e-07 1.20863274e-06
      -1.03924913e-06 -3.62118089e-06 -3.42575754e-06 -2.62301432e-06
      -2.66858046e-06 -2.52410860e-06 -6.20334595e-06 -9.10015297e-06
      -6.43716703e-06 -2.10045073e-06 -2.72367606e-06 -4.79450728e-06
      -3.41989198e-06 -3.50355481e-06 -7.41484564e-06 -8.31536090e-06
      -7.20937487e-06 -2.26149314e-06 -2.88544902e-06 -7.34219429e-06
      -8.53712027e-06 -3.50456594e-06 9.87845397e-07 -2.54567658e-06
      -6.84541374e-06 -7.18640194e-06 -3.08749577e-06 3.19455580e-06
      -3.86397602e-07 -3.06303718e-06 -3.37044662e-06 -2.07885478e-06
      -1.46213245e-06 -1.96143310e-06 -5.16680757e-06 -8.73207046e-06
      -6.99358088e-06 -6.21976142e-06 -7.87946556e-06 -1.17369736e-05
      -1.09495659e-05 -9.85657243e-06 -5.54939334e-06 -4.69781668e-07
      3.99033524e-06 5.03748015e-06 3.17475383e-06 2.57290253e-06
      -9.32474506e-07 -3.91243384e-06 -3.48671551e-06 -2.36222581e-06
      -4.02900787e-06 -5.34609262e-06 -8.07146716e-06 -1.03902348e-05
      -7.51494963e-06 -3.15565626e-06 -1.69308373e-06 -4.48707397e-06
      -4.71553813e-06 -2.33520564e-06 -5.53381324e-06 -6.77583193e-06
      -5.99697751e-06 -2.74776858e-06 -1.49955201e-06 -6.08912842e-06
      -9.04049830e-06 -5.61844126e-06 3.13664327e-06 3.94009749e-06
      3.38236532e-07 -3.35328627e-06 -2.58108730e-06 3.99915734e-06
      3.23531276e-06 -8.37623944e-08 -2.77128652e-06 -3.10886367e-06
      -2.08480901e-06 -1.65890810e-06 -3.59675300e-06 -6.78753622e-06
      -6.45681712e-06 -4.54884139e-06 -4.19642902e-06 -9.21404626e-06
      -8.68091593e-06 -9.19278864e-06 -7.97523990e-06 -2.28484441e-06
      3.88606622e-06 7.41342956e-06 7.51458265e-06 5.75007016e-06
      2.88930937e-06 -2.22153994e-06 -2.83308964e-06 -2.62633284e-06
      -3.60338731e-06 -7.54672192e-06 -1.04913343e-05 -1.08651284e-05
      -7.86906912e-06 -2.86618206e-06 1.78182700e-06 7.43533661e-08
      -1.40037741e-06 -2.25571830e-06 -1.22756626e-06 -2.93034509e-06
      -2.54780753e-06 -9.85982069e-07 7.98927772e-07 -2.87570538e-06
      -7.06752735e-06 -5.94955782e-06 3.09699544e-06 9.09671326e-06
      9.40797690e-06 5.41734971e-06 1.83521627e-06 6.87467082e-06
      4.30176578e-06 2.09237714e-06 -1.10708334e-06 -3.29370641e-06
      -2.75597040e-06 -5.02109117e-07 -7.68070265e-07 -2.62671551e-06
      -4.24657583e-06 -3.45131593e-06 -2.27011151e-06 -5.55386896e-06
      -6.50890888e-06 -6.71691760e-06 -8.52395624e-06 -3.69609620e-06
      3.31167098e-06 7.22591676e-06 1.07933402e-05 1.08811382e-05
      8.28634256e-06 2.43086333e-06 -1.38967107e-06 -2.24026758e-06
      -4.93302286e-06 -8.61347871e-06 -1.10456713e-05 -9.44251769e-06
      -7.04586682e-06 -9.69439157e-07 5.36799371e-06 7.49269293e-06
      2.74710510e-06 -9.67295477e-07 -1.08496272e-06 1.60970353e-06
      8.11023597e-07 4.76060649e-07 1.15472756e-06 1.30913645e-06
      -3.21142647e-06 -4.45491878e-06 1.80223014e-06 1.01689548e-05
      1.36474218e-05 1.00337656e-05 6.01414285e-06 7.91364891e-06
      1.64768039e-06 -9.03226237e-07 -1.04332150e-06 -3.31542651e-06
      -4.47756565e-06 -2.83805093e-06 -3.41954006e-07 -1.17565901e-06
      -3.16280284e-06 -2.64228629e-06 -1.88324361e-06 -1.19735489e-06
      -3.40667066e-06 -3.75381319e-06 -5.63548838e-06 -4.05465289e-06
      3.77107267e-06 8.40325356e-06 9.88291958e-06 1.39600497e-05
      1.37781526e-05 9.49794867e-06 3.24420785e-06 -1.50715994e-06
      -6.63028868e-06 -9.20167167e-06 -1.15749963e-05 -8.04702631e-06
      -4.96101984e-06 3.19467489e-07 8.18991248e-06 1.39910862e-05
      1.03110197e-05 3.71112742e-06 7.01389347e-09 3.69741360e-06
      5.60698754e-06 4.44424722e-06 9.67739311e-07 1.08904362e-06
      1.01136891e-06 -1.43273644e-06 6.52761003e-07 8.27785789e-06
      1.53756027e-05 1.59552401e-05 1.00327634e-05 7.38698782e-06
      2.95727034e-07 -1.02967181e-06 -1.74781542e-06 -1.13420992e-06
      -2.32070147e-06 -3.17943000e-06 -1.85188924e-06 -8.04922763e-07
      -3.36219409e-06 -4.18542186e-06 -2.79862456e-06 -4.70314419e-08
      3.15485778e-07 -5.80156836e-07 -1.36362860e-06 -2.22403946e-06
      5.11036023e-06 1.07647120e-05 9.86881969e-06 1.34269631e-05
      1.65389883e-05 1.49694251e-05 8.44149145e-06 2.38714119e-06
      -4.60398769e-06 -9.22349227e-06 -1.13401711e-05 -8.57689247e-06
      -3.26284658e-06 1.59955857e-06 8.70835720e-06 1.49478137e-05
      1.60599448e-05 6.71091721e-06 3.78049201e-08 2.49251434e-06
      7.19672835e-06 7.47005060e-06 4.35292168e-06 8.68516736e-07
      2.44982243e-06 7.33298293e-07 1.87098451e-07 5.33260391e-06
      1.19985025e-05 1.50677661e-05 1.33449257e-05 7.58936721e-06
      -6.29506758e-07 4.58098697e-07 -5.30080683e-07 -2.40196550e-06
      -1.19144784e-06 -1.91858999e-06 -2.39819701e-06 -1.48128640e-06
      -4.33736204e-06 -5.53838890e-06 -5.24137386e-06 -3.21123343e-06
      -6.18778529e-07 2.60438196e-06 3.01083469e-06 1.97594133e-07
      2.64876189e-06 9.12569340e-06 9.26049779e-06 1.07605947e-05
      1.30221497e-05 1.50070537e-05 1.19679717e-05 7.10003951e-06
      1.13180511e-06 -6.21725712e-06 -9.53718154e-06 -1.02751419e-05
      -5.21964648e-06 3.53119412e-06 8.96789697e-06 1.46169650e-05
      1.60390919e-05 1.05129329e-05 1.90144999e-06 -4.45771287e-09
      5.54773851e-06 7.47432250e-06 6.50406400e-06 1.08467941e-06
      1.07088647e-06 -1.17998823e-07 -1.97739109e-06 6.39359428e-07
      8.18358239e-06 1.15760349e-05 1.03815310e-05 5.08121957e-06
      -3.71763372e-06 -1.55555597e-06 -2.73725107e-07 -1.03491982e-06
      -1.44486410e-06 -6.35800816e-08 -3.09997233e-07 -4.54234737e-07
      -3.77215065e-06 -7.20758862e-06 -6.84648057e-06 -6.55927579e-06
      -4.17309366e-06 1.42327750e-07 6.43682642e-06 4.43217277e-06
      2.24016480e-06 4.82130736e-06 6.79704954e-06 7.09072992e-06
      8.81804590e-06 1.01523101e-05 9.49269361e-06 6.52363451e-06
      4.17717592e-06 -1.84705561e-06 -6.54055430e-06 -8.15322437e-06
      -7.42293105e-06 1.76065680e-06 8.97460177e-06 1.27704179e-05
      1.42318804e-05 1.16417477e-05 3.97092936e-06 -2.27404499e-07
      2.39342899e-06 5.76518414e-06 5.33532148e-06 1.69903808e-06
      -7.94471873e-07 -1.40954899e-06 -2.47524554e-06 -3.45216176e-06
      1.23818700e-06 6.16350189e-06 5.99768782e-06 1.08533663e-06
      -7.23445964e-06 -3.28775354e-06 -6.96696077e-07 -1.72862087e-06
      -2.46881200e-06 9.76956183e-10 3.16449018e-06 2.71958766e-06
      -1.25310351e-06 -7.11097164e-06 -9.34742820e-06 -8.08962977e-06
      -7.82176539e-06 -2.74802187e-06 3.26323493e-06 7.38353992e-06
      3.11696454e-06 7.01441536e-07 9.13900124e-07 1.26830025e-06
      2.20200968e-06 4.32680099e-06 4.93183643e-06 4.14936721e-06
      5.87768318e-06 3.96175619e-06 -6.50459299e-07 -3.15905322e-06
      -6.92398999e-06 -5.14285011e-06 5.30196439e-06 1.08240474e-05
      1.05410809e-05 9.24405776e-06 3.02480612e-06 -1.00351633e-06
      1.37646854e-08 3.33012417e-06 2.62079743e-06 -4.09172628e-07
      -2.64153687e-06 -2.87856960e-06 -3.39441999e-06 -5.42751968e-06
      -5.15364172e-06 -2.59424496e-07 2.89039917e-06 -1.01304543e-07
      -9.40007703e-06 -4.88848673e-06 -8.54202938e-07 -1.67194912e-06
      -2.57943952e-06 -1.46102309e-06 4.01552597e-06 7.08272046e-06
      4.17170168e-06 -2.01787338e-06 -7.12272640e-06 -8.61384433e-06
      -9.63283583e-06 -6.64523077e-06 4.88819808e-07 5.30047191e-06
      4.32947900e-06 -1.73888816e-06 -4.52249742e-06 -3.22323581e-06
      -4.04580669e-06 -2.24549922e-06 7.99477618e-07 1.59399792e-06
      5.90134505e-06 7.53742188e-06 5.02986313e-06 4.12103782e-06
      -1.03665798e-06 -7.09621190e-06 -3.81193831e-06 6.61647573e-06
      7.49291030e-06 4.47512502e-06 9.11024642e-07 -3.32501622e-06
      -1.08634777e-06 1.32147261e-06 1.55094739e-07 -2.44756052e-06
      -3.96734686e-06 -5.05299022e-06 -4.78790571e-06 -4.82417317e-06
      -7.22818959e-06 -8.33666400e-06 -4.58713430e-06 -1.78872654e-06
      -8.04612228e-06 -6.37660833e-06 -2.25590497e-06 -5.44047111e-07
      -1.18319201e-06 9.06435048e-07 5.67024927e-06 1.04182591e-05
      9.50415779e-06 3.75976424e-06 -2.60135812e-06 -7.61604542e-06
      -1.08658041e-05 -1.04944693e-05 -4.00862291e-06 3.22709138e-06
      5.60099761e-06 -1.41200258e-06 -6.49703316e-06 -5.85232601e-06
      -6.69901920e-06 -6.69113979e-06 -4.12657801e-06 -1.65172719e-06
      3.54542544e-06 1.09015791e-05 1.03949833e-05 1.05444678e-05
      7.00874989e-06 -9.68167001e-07 -7.08083508e-06 -2.61079958e-06
      3.25448400e-06 3.96476452e-07 -2.00826889e-06 -3.97143185e-06
      -1.57635714e-06 7.22401580e-07 -5.84150115e-08 -2.75478737e-06
      -4.42560349e-06 -5.38570293e-06 -7.38165954e-06 -5.73362558e-06
      -5.61065008e-06 -9.61609203e-06 -1.22525826e-05 -8.01027454e-06
      -5.35446770e-06 -4.94208507e-06 -1.57327224e-06 1.90324886e-06
      1.72242210e-06 2.61161654e-06 6.64463732e-06 1.07586657e-05
      1.16160109e-05 7.76869638e-06 4.06950494e-06 -2.87687885e-06
      -8.37067000e-06 -1.03540515e-05 -7.33157003e-06 -3.94864145e-07
      5.21225684e-06 2.23262759e-06 -4.56648695e-06 -4.48179662e-06
      -3.37513961e-06 -3.54968347e-06 -4.70979012e-06 -3.38600603e-06
      -1.96994332e-08 8.16592910e-06 1.27678113e-05 1.43219186e-05
      1.02094355e-05 2.53706457e-06 -4.51920869e-06 -6.48221430e-06
      -9.85910788e-07 9.78892132e-08 -2.81783377e-06 -3.34712036e-06
      -1.89010245e-06 5.94708808e-07 7.13417080e-07 -1.99902502e-06
