<?xml version="1.0"?>
<opencv_storage>
<my_svm type_id="opencv-ml-svm">
  <svm_type>C_SVC</svm_type>
  <kernel><type>LINEAR</type></kernel>
  <C>1.</C>
  <term_criteria><epsilon>2.2204460492503131e-16</epsilon>
    <iterations>1000000</iterations></term_criteria>
  <var_all>69120</var_all>
  <var_count>69120</var_count>
  <class_count>2</class_count>
  <class_labels type_id="opencv-matrix">
    <rows>1</rows>
    <cols>2</cols>
    <dt>i</dt>
    <data>
      0 1</data></class_labels>
  <sv_total>1</sv_total>
  <support_vectors>
    <_>
      -8.65129368e-06 -7.67452366e-06 -5.06494689e-06 -2.86047043e-06
      -3.56589709e-07 1.24156571e-07 -4.54582469e-08 -2.37841437e-06
      -4.46243303e-06 -7.24476195e-06 -6.68496614e-06 -8.95720405e-06
      -7.87459703e-06 -7.88551915e-06 -7.45049920e-06 -6.39936843e-06
      -5.21842185e-06 -2.44084845e-06 -1.24311669e-07 3.51351787e-06
      8.08823097e-06 1.26178920e-05 1.63923123e-05 1.90876490e-05
      2.24735013e-05 2.19555823e-05 1.93871510e-05 1.58687744e-05
      1.20789518e-05 8.24115250e-06 4.68014650e-06 3.23869517e-06
      2.88965248e-06 1.06023538e-06 1.23836560e-06 7.77434650e-07
      -1.22997574e-06 -2.61402374e-06 -3.59156797e-06 -2.22525614e-06
      -1.00307204e-06 1.70341195e-06 5.09057372e-06 8.59529791e-06
      9.74880732e-06 1.18726521e-05 1.32629411e-05 1.25363003e-05
      -6.28648877e-06 -5.43763053e-06 -3.33801108e-06 -1.80746417e-06
      6.61630395e-08 -5.96223373e-08 -8.87260342e-07 -3.40549127e-06
      -5.84418103e-06 -8.34856291e-06 -7.75061017e-06 -9.48478282e-06
      -8.10786696e-06 -7.43448072e-06 -6.57439750e-06 -5.39025496e-06
      -4.17995807e-06 -1.85903082e-06 -3.59620991e-08 2.98879650e-06
      6.79827644e-06 1.06365596e-05 1.36696572e-05 1.56592687e-05
      1.84970595e-05 1.79097551e-05 1.51793893e-05 1.17773961e-05
      8.56628867e-06 5.50545474e-06 2.50219318e-06 1.74528236e-06
      1.73979777e-06 2.17938450e-07 5.88941589e-07 3.40558728e-07
      -1.51323809e-06 -2.82871770e-06 -3.93831033e-06 -2.60655111e-06
      -1.33192293e-06 7.14536384e-07 3.74871615e-06 7.11940584e-06
      7.95207416e-06 9.98825180e-06 1.12943353e-05 1.06112866e-05
      -6.60858518e-07 -2.13884178e-07 5.52039182e-07 6.21772074e-07
      1.24070175e-06 9.24832193e-08 -1.93219080e-06 -4.50062771e-06
      -7.37979781e-06 -8.93923152e-06 -8.31259240e-06 -9.01571639e-06
      -7.44285853e-06 -5.69031181e-06 -4.22807989e-06 -3.04152832e-06
      -2.14148668e-06 -1.13029455e-06 -7.93666459e-07 4.54495677e-07
      2.03044669e-06 3.94776589e-06 5.17556373e-06 5.79409152e-06
      7.72340263e-06 7.54388293e-06 5.29617682e-06 2.91757283e-06
      1.51971233e-06 4.85030228e-07 -1.07222297e-06 -2.92985476e-07
      4.26426908e-07 -1.71204391e-07 6.33755519e-07 8.95700396e-07
      -4.34715446e-07 -1.66018060e-06 -3.03926163e-06 -2.27841565e-06
      -1.35239964e-06 -1.19736274e-06 5.87145223e-07 3.06225297e-06
      3.09551729e-06 4.58169643e-06 5.57893554e-06 5.04860145e-06
      4.93173866e-06 4.82400992e-06 4.05392575e-06 2.92020945e-06
      2.72710440e-06 1.33259914e-06 -1.18153594e-06 -3.12676343e-06
      -5.57195472e-06 -5.62765626e-06 -5.03575666e-06 -5.21571292e-06
      -4.35278025e-06 -2.58808632e-06 -1.38594817e-06 -8.59704357e-07
      -9.72586918e-07 -1.66900099e-06 -3.39136136e-06 -4.45934984e-06
      -5.84440386e-06 -6.36982440e-06 -7.03863589e-06 -7.22976301e-06
      -5.48471144e-06 -4.19923163e-06 -4.32922934e-06 -4.33472451e-06
      -3.29022555e-06 -2.25927533e-06 -2.37770018e-06 -5.24631957e-07
      5.11534438e-07 1.05845800e-06 2.24737846e-06 3.06695870e-06
      2.70232272e-06 1.66993073e-06 3.57555678e-07 -1.01250457e-07
      -2.14252324e-07 -2.24563632e-06 -2.27896226e-06 -1.63109678e-06
      -2.36126652e-06 -1.98566840e-06 -1.49721154e-06 -1.84408304e-06
      7.10227960e-06 6.61715512e-06 4.96425855e-06 3.55261750e-06
      3.42552630e-06 2.85136389e-06 9.92614105e-07 1.16871263e-07
      -1.01677767e-06 3.38005719e-07 7.36341974e-07 1.55985333e-07
      -3.76876301e-07 1.72397307e-07 2.85121473e-07 -9.31716784e-08
      -1.06530388e-06 -2.49171808e-06 -5.29749650e-06 -7.43132796e-06
      -1.05828813e-05 -1.26843661e-05 -1.45374779e-05 -1.49185025e-05
      -1.30926592e-05 -1.04285791e-05 -8.32455862e-06 -6.26828341e-06
      -3.89595562e-06 -2.33925493e-06 -2.14483248e-06 -6.59239845e-07
      -3.59742074e-07 7.00309840e-07 1.96975884e-06 3.18750517e-06
      4.01337275e-06 3.61785555e-06 3.14056547e-06 1.92070775e-06
      9.86685677e-07 -1.94367612e-06 -3.19294963e-06 -4.20619790e-06
      -5.12369888e-06 -5.75365857e-06 -5.73054058e-06 -6.06884259e-06
      5.28285500e-06 4.78239599e-06 3.34692845e-06 2.61202149e-06
      3.19973196e-06 4.04334287e-06 3.50564346e-06 3.58529087e-06
      3.55260181e-06 5.29831232e-06 4.77613003e-06 2.91063475e-06
      7.14114265e-07 -3.89966772e-07 -1.23437405e-06 -1.69786858e-06
      -2.11525344e-06 -2.02810156e-06 -3.41534019e-06 -3.80889651e-06
      -5.93824370e-06 -7.63354910e-06 -9.56583153e-06 -9.99599251e-06
      -8.77850562e-06 -6.09594827e-06 -3.71226497e-06 -1.68159374e-06
      -1.94005043e-08 3.56691658e-07 -3.67575041e-07 -3.87373035e-07
      -1.77501238e-06 -1.36016990e-06 -5.88686021e-07 4.73623146e-07
      1.81900066e-06 1.97483473e-06 2.47361027e-06 1.40828286e-06
      4.47272726e-07 -1.78734433e-06 -3.06141010e-06 -4.49913114e-06
      -4.74365379e-06 -5.47861328e-06 -5.56933901e-06 -6.06282356e-06
      3.22469532e-06 2.96526400e-06 2.35120024e-06 2.48227752e-06
      3.65787332e-06 5.42160660e-06 5.70944985e-06 6.04129673e-06
      5.88751163e-06 6.73729664e-06 4.56015550e-06 1.20275001e-06
      -2.36305868e-06 -4.58924842e-06 -5.80337473e-06 -5.66149811e-06
      -4.82809764e-06 -2.47290632e-06 -1.21782682e-06 1.41159217e-06
      2.04609728e-06 2.31329386e-06 1.56255192e-06 1.82486599e-06
      2.70224928e-06 5.10783411e-06 6.63478522e-06 7.64002380e-06
      8.03644434e-06 7.23105222e-06 5.58072907e-06 4.06723029e-06
      9.43010718e-07 -1.24069345e-07 -5.62080629e-07 -6.04801414e-07
      -3.04924924e-07 -8.09035328e-07 -4.16764351e-07 -1.30857518e-06
      -2.11059546e-06 -3.31993738e-06 -3.98816928e-06 -4.75539082e-06
      -3.71772353e-06 -3.65631945e-06 -3.50786263e-06 -4.05179071e-06
      2.95467430e-06 3.04504169e-06 3.07048253e-06 3.40670954e-06
      4.44021907e-06 5.85670568e-06 5.94797075e-06 6.00862086e-06
      5.17728540e-06 5.21994389e-06 2.47356547e-06 -8.78311596e-07
      -4.17760339e-06 -6.18121339e-06 -7.63737808e-06 -7.83741507e-06
      -7.56348300e-06 -5.81165477e-06 -4.32351908e-06 -1.28199542e-06
      6.58118950e-07 2.55527107e-06 3.47553123e-06 5.42315911e-06
      7.27068891e-06 1.03559469e-05 1.16179071e-05 1.24082035e-05
      1.25791876e-05 1.19506258e-05 1.06065854e-05 8.78239007e-06
      5.38392987e-06 3.48691310e-06 2.13085900e-06 1.02670970e-06
      -3.15213498e-07 -2.08718006e-06 -2.56884186e-06 -3.50046435e-06
      -4.30498039e-06 -5.09217034e-06 -5.36636935e-06 -5.53786958e-06
      -3.69546638e-06 -3.06576112e-06 -2.90689741e-06 -3.39012195e-06
      1.06779032e-06 1.56831493e-06 2.15675641e-06 2.41998828e-06
      3.26983127e-06 4.08738197e-06 4.14863325e-06 4.57130182e-06
      4.10597158e-06 4.80274866e-06 3.81663313e-06 2.59119156e-06
      1.64774781e-06 1.05522622e-06 -6.55437418e-07 -2.54986185e-06
      -5.00801616e-06 -7.28796158e-06 -9.09102710e-06 -9.50002322e-06
      -9.34986656e-06 -7.63060416e-06 -6.02863611e-06 -2.83838904e-06
      1.13680663e-07 3.77544870e-06 4.90226284e-06 5.64727679e-06
      5.75312060e-06 5.68013775e-06 5.42248563e-06 4.56724456e-06
      2.94304209e-06 2.27241890e-06 1.70852365e-06 1.24771384e-06
      -3.76296612e-07 -2.23179450e-06 -2.86418094e-06 -3.37337701e-06
      -4.05367518e-06 -4.65913945e-06 -4.94069172e-06 -5.25882706e-06
      -3.66252948e-06 -3.48309618e-06 -3.95408824e-06 -4.52276299e-06
      -5.30527086e-06 -4.32373372e-06 -2.69675570e-06 -1.78696348e-06
      -1.74640533e-07 1.27866247e-06 2.47595653e-06 4.02821388e-06
      4.70671466e-06 6.24482436e-06 7.06359742e-06 7.68620885e-06
      9.11627922e-06 9.92518562e-06 8.63874720e-06 6.05847163e-06
      2.24656333e-06 -2.82335895e-06 -7.52712594e-06 -1.13092356e-05
      -1.35217178e-05 -1.28447537e-05 -1.15553703e-05 -8.43735143e-06
      -5.51298172e-06 -2.63614606e-06 -2.57380088e-06 -3.02660601e-06
      -4.44597754e-06 -5.41962345e-06 -5.40867677e-06 -5.20934873e-06
      -4.63455854e-06 -2.92378377e-06 -1.59516901e-06 -3.03935593e-07
      -1.02354443e-06 -2.01126363e-06 -2.09424820e-06 -1.95037205e-06
      -2.43904242e-06 -2.35354878e-06 -2.34654885e-06 -2.62875915e-06
      -1.15778755e-06 -1.43303475e-06 -2.50478320e-06 -3.19766150e-06
      -1.24794833e-05 -1.10147676e-05 -8.23488335e-06 -6.30064596e-06
      -3.73161129e-06 -1.15839202e-06 9.79344236e-07 2.55858390e-06
      2.92883396e-06 3.02305125e-06 2.69269663e-06 2.39784981e-06
      4.12090640e-06 5.64337506e-06 5.94667927e-06 5.68299765e-06
      4.62275602e-06 1.82337646e-06 -1.70749695e-06 -4.73304908e-06
      -6.61272770e-06 -5.89169076e-06 -4.44719444e-06 -1.78757773e-06
      6.42712223e-07 2.10789472e-06 7.01198360e-07 -1.50502649e-06
      -5.35965819e-06 -8.42130157e-06 -9.28051304e-06 -8.68969437e-06
      -7.33772004e-06 -4.15209115e-06 -1.71310433e-06 3.30048834e-07
      4.53721594e-09 -9.63118509e-07 -1.09667474e-06 -8.89845751e-07
      -1.35054165e-06 1.13625607e-08 1.17897207e-06 2.20828861e-06
      4.86533781e-06 5.48419166e-06 4.73394584e-06 4.24265136e-06
      -1.26854293e-05 -1.09748225e-05 -8.04604315e-06 -6.25346956e-06
      -4.42005921e-06 -2.43476688e-06 -1.51709332e-06 -2.20965876e-06
      -4.18103718e-06 -7.24959409e-06 -1.03803513e-05 -1.25961014e-05
      -1.12670041e-05 -8.77195180e-06 -5.97935241e-06 -2.27449732e-06
      1.02427703e-06 2.69268003e-06 2.04079288e-06 1.84765952e-06
      1.57777902e-06 2.65712038e-06 4.63491824e-06 6.96832740e-06
      9.38971880e-06 1.02712002e-05 8.46335479e-06 5.75993590e-06
      9.97552206e-07 -2.89382160e-06 -4.30392947e-06 -3.45969693e-06
      -2.68895315e-06 3.67779705e-07 2.41416751e-06 3.46808588e-06
      2.47464459e-06 2.52918966e-07 -7.29589090e-07 -8.44348563e-07
      -1.25126098e-06 1.30422370e-06 3.83344695e-06 6.87952979e-06
      1.12103489e-05 1.35080945e-05 1.36909111e-05 1.36461549e-05
      -5.05008575e-06 -3.55936913e-06 -1.98922748e-06 -1.96395172e-06
      -2.69986617e-06 -2.91205129e-06 -4.41061775e-06 -7.49699575e-06
      -1.09581815e-05 -1.52268121e-05 -1.88298363e-05 -2.04914941e-05
      -1.80549268e-05 -1.40138100e-05 -9.14915927e-06 -3.06801257e-06
      1.67597170e-06 4.69474890e-06 4.22958237e-06 4.47748062e-06
      3.71901046e-06 3.43090778e-06 4.89673175e-06 6.55314307e-06
      9.22627714e-06 1.07063888e-05 1.01784781e-05 8.97588689e-06
      6.26008114e-06 4.34128515e-06 3.84215809e-06 5.09864958e-06
      4.81510278e-06 6.28028647e-06 6.53101506e-06 5.28154396e-06
      2.88019123e-06 -8.49487094e-07 -2.52226505e-06 -2.32313687e-06
      -2.19746084e-06 9.27961253e-07 3.87709679e-06 8.12804228e-06
      1.28790243e-05 1.58016082e-05 1.64062985e-05 1.65419769e-05
      2.49164896e-06 3.29362183e-06 2.67575956e-06 5.49847130e-07
      -2.48679385e-06 -3.91652884e-06 -5.87683007e-06 -8.19142224e-06
      -9.50159028e-06 -1.11144527e-05 -1.20269142e-05 -1.12835742e-05
      -7.84785789e-06 -4.00341651e-06 3.18014912e-07 5.08360790e-06
      7.17259627e-06 7.64105152e-06 4.91523087e-06 3.48455706e-06
      9.25165011e-07 -1.32021842e-06 -9.05306081e-07 2.98248523e-07
      3.36913354e-06 6.29351416e-06 7.99720874e-06 9.18083424e-06
      1.00344523e-05 1.14154764e-05 1.25067309e-05 1.35399659e-05
      1.18802291e-05 1.05458612e-05 8.16970442e-06 4.32701518e-06
      3.41423913e-07 -4.09760878e-06 -5.68700170e-06 -4.16284502e-06
      -3.01944465e-06 -6.10819839e-08 1.97579652e-06 5.80853157e-06
      9.22991239e-06 1.09437151e-05 1.09812763e-05 1.07204187e-05
      6.08526125e-06 5.90196805e-06 3.27215230e-06 -5.44663123e-07
      -4.40251370e-06 -5.31645355e-06 -5.11912731e-06 -3.68424935e-06
      -3.65136003e-07 2.24355949e-06 4.46617696e-06 6.39966720e-06
      8.48050604e-06 9.05402339e-06 9.94586117e-06 1.07514834e-05
      8.82244240e-06 6.15260751e-06 2.07392782e-06 -9.83636355e-08
      -3.00196689e-06 -5.53153404e-06 -5.17616854e-06 -3.53961036e-06
      -8.12351715e-08 4.09354561e-06 7.38834160e-06 9.83800146e-06
      1.28631154e-05 1.61444514e-05 1.79665785e-05 1.80791631e-05
      1.54662357e-05 1.20483428e-05 8.55150483e-06 4.05728724e-06
      -2.28952260e-07 -4.00097588e-06 -5.05194157e-06 -2.27549890e-06
      -6.91872629e-07 9.15492819e-07 7.47545243e-07 2.69079078e-06
      3.72911222e-06 3.18725938e-06 2.13390899e-06 1.03116383e-06
      8.83281973e-06 7.66164339e-06 3.84755049e-06 -1.31128047e-06
      -5.39727080e-06 -6.17666319e-06 -4.11543488e-06 4.03595664e-07
      6.92751246e-06 1.15130179e-05 1.46408856e-05 1.55753823e-05
      1.49962116e-05 1.13224160e-05 8.49303160e-06 5.88615285e-06
      1.84953387e-06 -1.38308383e-06 -3.81537575e-06 -4.53734083e-06
      -5.70823931e-06 -6.74476360e-06 -5.22124628e-06 -3.24609596e-06
      -4.56765747e-07 2.97451197e-06 5.56411169e-06 6.65030529e-06
      8.70866188e-06 1.14174200e-05 1.26592586e-05 1.25522138e-05
      1.12252455e-05 9.06341302e-06 8.20789501e-06 6.65775087e-06
      4.47878119e-06 2.43720865e-06 1.71294937e-06 4.31482658e-06
      4.88841897e-06 3.79984863e-06 7.61148158e-07 4.95786253e-07
      -6.85961083e-07 -3.12528118e-06 -5.01048953e-06 -6.85302803e-06
      1.06807156e-05 8.83623670e-06 5.26425674e-06 -3.14602431e-07
      -4.35796846e-06 -6.13561497e-06 -4.38021107e-06 2.60094026e-07
      6.49701997e-06 9.61663500e-06 1.11320714e-05 1.01208589e-05
      7.76358866e-06 1.38295809e-06 -3.10777546e-06 -6.72468605e-06
      -1.02882486e-05 -1.13158176e-05 -1.00890902e-05 -8.21308186e-06
      -6.82929021e-06 -5.75650984e-06 -2.75312095e-06 -1.51183451e-06
      -5.88932835e-07 2.31978888e-07 2.47781088e-07 -1.70054477e-06
      -2.33874084e-06 -1.33634410e-06 -1.14653119e-06 -2.67726080e-07
      1.56179306e-06 3.07104756e-06 6.49546246e-06 9.46682758e-06
      1.02322165e-05 9.42522092e-06 8.45209433e-06 9.60609941e-06
      8.84028123e-06 5.20456479e-06 7.77206992e-07 -3.83899703e-08
      -1.54725990e-06 -4.10289795e-06 -5.80931010e-06 -7.39294592e-06
      6.53013240e-06 4.43197450e-06 2.90682010e-06 -1.16672277e-06
      -3.57140789e-06 -5.24582447e-06 -3.98816110e-06 -5.79769221e-07
      3.72979503e-06 4.42306009e-06 3.83317092e-06 1.46891080e-06
      -1.06485516e-06 -8.03198964e-06 -1.19187816e-05 -1.47655883e-05
      -1.66401205e-05 -1.51263948e-05 -1.12013395e-05 -7.71712530e-06
      -4.91794071e-06 -2.75054845e-06 3.70929143e-07 -3.23240812e-08
      -9.61591013e-07 -2.21298615e-06 -4.06279150e-06 -7.61072261e-06
      -9.33912997e-06 -9.16665431e-06 -9.29956605e-06 -7.50435629e-06
      -3.69187228e-06 -8.31864000e-08 4.55652025e-06 9.63733510e-06
      1.14261129e-05 1.00635316e-05 8.53072470e-06 8.28990596e-06
      7.75492117e-06 3.58049147e-06 1.20964489e-06 2.16972035e-06
      2.94597271e-06 2.33280230e-06 1.99014676e-06 2.06246614e-06
      -4.96336907e-06 -6.95825474e-06 -5.34469063e-06 -6.38483789e-06
      -5.19832474e-06 -4.38207371e-06 -1.59456852e-06 1.55957821e-06
      5.03233059e-06 4.72179408e-06 3.35056006e-06 6.45497437e-07
      -1.12400824e-06 -7.51292009e-06 -1.00785210e-05 -1.20555233e-05
      -1.25418728e-05 -1.03229977e-05 -6.35013475e-06 -3.23970426e-06
      -1.01915487e-06 5.14457554e-07 2.09267728e-06 7.88333381e-08
      -1.88864476e-06 -3.60679041e-06 -5.36264088e-06 -7.97366829e-06
      -8.53484744e-06 -8.25600091e-06 -7.84311032e-06 -6.33476657e-06
      -3.16129444e-06 -4.11348907e-07 1.76382332e-06 5.87478053e-06
      6.99363773e-06 4.49477102e-06 3.13200621e-06 2.40167446e-06
      3.91370668e-06 1.05795334e-06 2.91777860e-06 5.80452297e-06
      9.55838641e-06 1.11389372e-05 1.23567679e-05 1.44988353e-05
      -1.51711347e-05 -1.68741153e-05 -1.29498349e-05 -1.15435232e-05
      -7.27755923e-06 -4.01684110e-06 9.54818574e-07 4.32152410e-06
      8.22181300e-06 7.86235250e-06 6.84642737e-06 4.32581646e-06
      3.26285817e-06 -2.62460139e-06 -5.00389660e-06 -7.28425266e-06
      -7.67390065e-06 -6.57305100e-06 -4.15388695e-06 -2.27141254e-06
      -1.21233177e-06 -5.78308516e-07 1.22010235e-09 -2.47341973e-06
      -4.74837771e-06 -6.36135928e-06 -7.22276036e-06 -8.42892678e-06
      -7.96240874e-06 -7.72870590e-06 -6.62418461e-06 -6.08874689e-06
      -4.29893453e-06 -2.91340575e-06 -3.24584403e-06 -6.74272314e-07
      2.94205194e-07 -1.99383726e-06 -2.17935190e-06 -2.99335943e-06
      9.23953223e-07 -6.89783064e-07 4.19566595e-06 6.85784516e-06
      1.17012814e-05 1.38579289e-05 1.56352471e-05 1.87906116e-05
      -1.37190073e-05 -1.51923887e-05 -1.14438690e-05 -9.99702752e-06
      -5.89022738e-06 -3.19864807e-06 1.79046049e-06 3.82854023e-06
      7.80303344e-06 7.10485165e-06 6.60462365e-06 4.54480733e-06
      3.71255601e-06 -1.87420142e-06 -5.09214806e-06 -8.39547465e-06
      -9.77660056e-06 -1.00797924e-05 -8.95743506e-06 -7.86188866e-06
      -6.90311299e-06 -6.02404725e-06 -4.63187871e-06 -6.30750856e-06
      -8.42028294e-06 -9.97964617e-06 -1.03082193e-05 -1.13040160e-05
      -1.09820949e-05 -1.07715423e-05 -9.17455418e-06 -9.02576176e-06
      -7.19858144e-06 -5.74624664e-06 -6.39056589e-06 -4.57387614e-06
      -3.16351748e-06 -4.37303061e-06 -4.02352589e-06 -5.60650642e-06
      -5.17033072e-07 -2.48324750e-06 2.87535863e-06 4.09052973e-06
      8.16762349e-06 1.00038278e-05 1.16299288e-05 1.44713504e-05
      -2.73787850e-06 -4.07200378e-06 -2.62824165e-06 -3.00209877e-06
      -1.61656578e-06 -1.86359534e-06 8.43653311e-07 4.81074238e-08
      3.11447593e-06 1.80037750e-06 1.67306041e-06 2.17015142e-07
      -6.47079275e-07 -5.25496080e-06 -8.45899103e-06 -1.17614645e-05
      -1.37111019e-05 -1.42578156e-05 -1.33074391e-05 -1.23557065e-05
      -1.05543277e-05 -8.77520324e-06 -6.12932445e-06 -6.68421262e-06
      -8.26208270e-06 -9.46788714e-06 -9.71172540e-06 -1.13387505e-05
      -1.14395580e-05 -1.09288239e-05 -9.31627164e-06 -8.94346886e-06
      -5.86204942e-06 -3.62560922e-06 -3.23307381e-06 -1.73759076e-06
      -6.61501758e-07 -1.40463590e-06 -2.41596308e-06 -5.59425871e-06
      -1.19035815e-06 -5.04692207e-06 -6.48507012e-07 7.69566526e-08
      3.26029340e-06 5.54634789e-06 7.36995480e-06 9.38441735e-06
      5.87709746e-06 4.84438715e-06 3.93217078e-06 1.93239998e-06
      1.24157646e-06 -1.19810477e-06 -6.47220304e-07 -3.50745836e-06
      -1.48110371e-06 -3.20118897e-06 -3.19590913e-06 -4.74111266e-06
      -6.01915372e-06 -9.18881415e-06 -1.11226282e-05 -1.29180071e-05
      -1.37308434e-05 -1.28418314e-05 -1.06512962e-05 -8.99723818e-06
      -6.05643527e-06 -3.50240498e-06 -5.75148704e-07 -4.57872915e-07
      -1.37580150e-06 -1.91711297e-06 -2.19750518e-06 -4.30469800e-06
      -4.48406263e-06 -3.88259832e-06 -2.86756335e-06 -2.73354976e-06
      9.08847028e-07 2.96672010e-06 4.03366221e-06 5.16556611e-06
      4.90943057e-06 4.00580075e-06 8.98161886e-07 -3.61288880e-06
      -1.12429097e-06 -7.31316641e-06 -4.57239139e-06 -3.81181076e-06
      -1.50528319e-06 1.47982450e-06 3.47039463e-06 4.62565231e-06
      8.16068041e-06 7.60564853e-06 5.74265505e-06 3.18385719e-06
      2.49341792e-06 5.13109697e-08 -2.43529055e-08 -3.00591478e-06
      -1.63619939e-06 -3.59154888e-06 -4.15777049e-06 -7.17049670e-06
      -9.46049749e-06 -1.19933757e-05 -1.26371624e-05 -1.24104736e-05
      -1.05657937e-05 -7.03301703e-06 -2.47659295e-06 7.86090027e-07
      4.84282964e-06 7.64954802e-06 9.52924620e-06 9.35913704e-06
      8.43955149e-06 8.05296168e-06 7.73757347e-06 5.63551430e-06
      5.71341297e-06 6.22033212e-06 6.75271531e-06 6.09343169e-06
      8.58571821e-06 9.02366810e-06 9.56213080e-06 9.91278193e-06
      7.91188359e-06 6.85937221e-06 2.78853236e-06 -1.77965239e-06
      -1.02271781e-06 -8.43465205e-06 -7.77315199e-06 -7.94857715e-06
      -7.17796866e-06 -4.56459657e-06 -3.54377835e-06 -3.37142683e-06
      1.11896506e-05 1.08461400e-05 9.08420134e-06 6.26667361e-06
      6.02675891e-06 4.60443471e-06 4.41251041e-06 2.04169760e-06
      2.72811167e-06 6.80328640e-07 -1.08430834e-06 -5.74029309e-06
      -8.67179551e-06 -1.11575800e-05 -1.06620946e-05 -8.65949278e-06
      -4.22323910e-06 1.44673311e-06 7.35150616e-06 1.12508305e-05
      1.49356638e-05 1.64247012e-05 1.58233906e-05 1.41760393e-05
      1.22246856e-05 1.10979363e-05 1.06396801e-05 8.68102870e-06
      8.96419260e-06 9.51213769e-06 1.00976604e-05 9.02589636e-06
      9.70956444e-06 8.50242577e-06 8.11056179e-06 7.57400130e-06
      4.30516320e-06 3.44577597e-06 2.12670372e-07 -3.02909120e-06
      -2.74343483e-06 -8.96175061e-06 -9.60204852e-06 -1.09106759e-05
      -1.13742699e-05 -9.67130291e-06 -1.03018938e-05 -1.11457994e-05
      1.46542752e-05 1.40137827e-05 1.27695703e-05 9.89436649e-06
      9.50980029e-06 9.27121437e-06 8.73495446e-06 6.74298281e-06
      6.84890756e-06 5.36737662e-06 2.85931765e-06 -1.67511928e-06
      -3.77873857e-06 -5.59712316e-06 -3.71182227e-06 -8.64685205e-07
      4.22577250e-06 9.59556928e-06 1.36802073e-05 1.54415993e-05
      1.62952001e-05 1.49305943e-05 1.15907851e-05 8.51138520e-06
      5.69599524e-06 3.96615269e-06 3.37432630e-06 1.44031594e-06
      1.40418149e-06 1.70822773e-06 2.15326872e-06 1.33548861e-06
      1.05697768e-06 -1.97880993e-07 -4.87615807e-07 -1.05597280e-06
      -4.12278087e-06 -4.25082953e-06 -5.61163688e-06 -6.93699849e-06
      -6.17618389e-06 -9.30550141e-06 -9.79767901e-06 -1.08953918e-05
      -1.11681939e-05 -9.74385603e-06 -1.12581702e-05 -1.27821168e-05
      8.72853616e-06 7.50718982e-06 7.28892155e-06 5.57031035e-06
      5.78420395e-06 7.37409800e-06 7.33416664e-06 6.15405497e-06
      6.70956706e-06 6.64611343e-06 4.65874928e-06 1.84348812e-06
      1.26763200e-06 3.86581974e-07 3.09707980e-06 5.03449064e-06
      8.42105419e-06 1.11944364e-05 1.15092662e-05 1.00133648e-05
      7.95291999e-06 4.66357005e-06 8.68082225e-07 -1.51020572e-06
      -3.35865866e-06 -4.26422639e-06 -4.46322701e-06 -6.17772321e-06
      -6.84367615e-06 -7.41728627e-06 -7.82800271e-06 -8.41720976e-06
      -8.86095131e-06 -9.16708814e-06 -8.53946676e-06 -8.54986138e-06
      -1.03585508e-05 -9.61040496e-06 -9.68166478e-06 -9.56055192e-06
      -8.44976512e-06 -8.79758682e-06 -8.70608619e-06 -8.56355291e-06
      -8.06791650e-06 -6.51430764e-06 -7.83982705e-06 -9.55736232e-06
      -3.96494806e-06 -5.96759764e-06 -4.95978520e-06 -4.63424112e-06
      -2.76394667e-06 6.16850173e-07 2.11996939e-06 2.30088585e-06
      4.00844647e-06 5.21674565e-06 4.40789609e-06 2.99473413e-06
      3.09711186e-06 2.24843780e-06 4.48137098e-06 4.07889411e-06
      4.88127807e-06 4.82014502e-06 2.41636235e-06 -7.31342766e-07
      -3.04226069e-06 -5.82171197e-06 -7.15663782e-06 -6.50270294e-06
      -5.45771172e-06 -4.09144423e-06 -2.95370774e-06 -3.57163981e-06
      -4.20575498e-06 -5.78187792e-06 -7.29108160e-06 -8.52317680e-06
      -9.61279784e-06 -1.01347150e-05 -9.24190408e-06 -9.35389471e-06
      -1.00924872e-05 -8.68080133e-06 -8.49048683e-06 -7.21854531e-06
      -5.91812250e-06 -5.09255051e-06 -5.03513320e-06 -3.95502730e-06
      -3.64505240e-06 -2.55312784e-06 -3.56836267e-06 -5.23625249e-06
      -8.46530656e-06 -1.14950853e-05 -1.01345868e-05 -8.90880710e-06
      -6.56072052e-06 -3.37808592e-06 -1.13499846e-06 -3.15413189e-07
      1.57994032e-06 2.88726710e-06 2.78889706e-06 1.68054055e-06
      1.71979741e-06 3.55259573e-07 1.76579363e-06 -4.29462887e-07
      -1.08295535e-06 -2.57839906e-06 -5.49876995e-06 -8.52496305e-06
      -9.32497551e-06 -1.09030343e-05 -9.66277912e-06 -6.38767460e-06
      -2.78875973e-06 5.01416821e-07 3.16492742e-06 4.38918369e-06
      4.80853487e-06 3.07832829e-06 1.37993163e-06 -9.38360927e-07
      -3.07567507e-06 -4.98589088e-06 -4.48894252e-06 -5.17973740e-06
      -4.99272937e-06 -2.84049452e-06 -2.42565147e-06 2.45368057e-07
      1.92136122e-06 2.52745895e-06 1.79086635e-06 2.77637582e-06
      1.78824371e-06 1.63535810e-06 5.34111109e-07 -1.04937124e-06
      -1.64568507e-06 -5.61019624e-06 -5.24087773e-06 -5.28256442e-06
      -4.89202739e-06 -3.94976814e-06 -2.55496775e-06 -2.05319225e-06
      -9.18025194e-07 -1.75174240e-08 1.39508018e-07 -6.90452509e-07
      -3.15157791e-07 -1.69721829e-06 -3.15077784e-07 -2.13441444e-06
      -2.32766683e-06 -3.68794144e-06 -5.45134844e-06 -7.56542886e-06
      -7.38851713e-06 -8.85339341e-06 -7.56654072e-06 -4.84544034e-06
      -1.77588583e-06 8.85829706e-07 3.57267595e-06 5.94753146e-06
      7.38996050e-06 6.96885763e-06 6.96961933e-06 4.86678846e-06
      3.02085118e-06 9.46921432e-07 1.50553296e-06 8.04098590e-07
      2.15848650e-06 4.80224389e-06 5.48836988e-06 8.72515375e-06
      1.01143187e-05 9.50794583e-06 7.30895727e-06 7.04273089e-06
      4.53850862e-06 2.92388995e-06 1.70896055e-06 2.84069557e-07
      7.83418636e-06 3.49536390e-06 2.13007388e-06 -3.43086583e-07
      -3.00054148e-06 -4.54087558e-06 -4.41060229e-06 -4.06621712e-06
      -3.02166063e-06 -1.78881328e-06 -1.05226366e-06 -7.74960029e-07
      2.73724311e-07 -9.34489947e-07 5.74484773e-07 9.36855429e-08
      9.36147330e-07 1.16967229e-07 4.67349750e-08 -8.65781089e-07
      -4.59803005e-07 -2.02181332e-06 -2.00395266e-06 -1.84455610e-06
      -1.58772161e-06 -1.28670285e-06 1.26334072e-07 2.46508080e-06
      4.20391143e-06 5.86532906e-06 8.54689097e-06 8.05895434e-06
      7.67389884e-06 6.82119298e-06 7.35544791e-06 6.60377736e-06
      8.51398090e-06 1.06584739e-05 1.11636127e-05 1.34150796e-05
      1.35328501e-05 1.16621459e-05 8.02878640e-06 5.97386497e-06
      2.53005055e-06 -2.43544264e-07 -1.30516173e-06 -2.51949177e-06
      1.63655986e-05 1.24281723e-05 9.47031913e-06 5.10551081e-06
      2.23769987e-07 -3.00697479e-06 -3.88439639e-06 -3.31072306e-06
      -1.71684019e-06 1.99997984e-07 1.78933055e-06 3.32131299e-06
      4.35861784e-06 2.83165809e-06 3.48411800e-06 2.91243578e-06
      3.33102275e-06 1.86044656e-06 2.23042116e-06 1.68374254e-06
      1.81208259e-06 7.87535669e-07 6.27726763e-07 -3.89315744e-07
      -1.40721784e-06 -1.74542254e-06 -4.66654711e-07 2.24645214e-06
      4.55228474e-06 7.62028776e-06 1.16290430e-05 1.18892012e-05
      1.16853935e-05 1.09609100e-05 9.98717132e-06 8.00570251e-06
      9.28926875e-06 1.05261606e-05 1.11084291e-05 1.24528951e-05
      1.18149537e-05 9.96639847e-06 6.33373338e-06 3.35222808e-06
      -4.04607619e-08 -3.23074232e-06 -3.86645524e-06 -4.89148897e-06
      2.05317483e-05 1.77747916e-05 1.43930920e-05 1.02524182e-05
      5.48169783e-06 1.99916008e-06 7.04500280e-07 1.53805286e-06
      3.23960671e-06 5.11463304e-06 7.15765236e-06 9.17944635e-06
      9.41160306e-06 7.73466581e-06 6.94900564e-06 5.03320007e-06
      3.52911707e-06 2.34291164e-07 -8.78336834e-07 -2.66603865e-06
      -3.82239477e-06 -4.55983491e-06 -4.05087940e-06 -4.19490698e-06
      -3.74076694e-06 -2.17119464e-06 3.97160363e-07 4.40429267e-06
      7.71188115e-06 1.06909119e-05 1.35948740e-05 1.25505212e-05
      1.06435928e-05 8.61413082e-06 5.42764474e-06 2.13776889e-06
      2.67856171e-06 3.75425861e-06 5.26412259e-06 7.06472156e-06
      6.97802125e-06 6.20143146e-06 4.21386540e-06 1.97684540e-06
      -2.87297382e-07 -2.78581751e-06 -2.63118454e-06 -3.28745659e-06
      1.39346184e-05 1.27329649e-05 1.06952302e-05 9.17582383e-06
      7.01551562e-06 5.22417940e-06 4.61815989e-06 5.71945338e-06
      7.12235624e-06 8.10326765e-06 9.87679687e-06 1.16290694e-05
      1.09774201e-05 1.00866910e-05 8.32309706e-06 6.02557384e-06
      3.30809371e-06 -6.52515723e-07 -3.09409074e-06 -5.93802451e-06
      -8.25805455e-06 -9.13831627e-06 -8.44191709e-06 -7.96494442e-06
      -6.20002720e-06 -3.17598983e-06 -7.06707795e-07 3.58411535e-06
      6.21445770e-06 7.63393291e-06 7.96332188e-06 4.90890852e-06
      1.34838922e-06 -1.37167774e-06 -5.33054799e-06 -7.89204387e-06
      -6.89513627e-06 -5.27945986e-06 -2.91975175e-06 -3.59054269e-07
      2.28085710e-07 1.51412678e-07 -1.06494447e-07 -5.60105320e-07
      -8.61360206e-07 -1.70762246e-06 -3.45347331e-07 -1.57072463e-07
      9.18264391e-07 8.58598696e-07 1.01776175e-06 2.71035128e-06
      3.59841124e-06 4.25084318e-06 4.75433399e-06 5.70354996e-06
      6.67261838e-06 6.26809924e-06 7.10485710e-06 8.08643199e-06
      6.67036466e-06 7.00535975e-06 5.02761623e-06 4.35348284e-06
      2.82641486e-06 1.20567597e-06 -8.71114878e-08 -1.62802189e-06
      -3.12615725e-06 -3.94333165e-06 -3.82954113e-06 -4.68151484e-06
      -4.26699444e-06 -2.40592522e-06 -2.86946693e-06 -4.68548649e-07
      -1.31446041e-06 -2.25682879e-06 -4.53636403e-06 -8.84951078e-06
      -1.27814519e-05 -1.49424413e-05 -1.77437832e-05 -1.76420108e-05
      -1.50700762e-05 -1.28749016e-05 -1.06269226e-05 -8.07212018e-06
      -7.35229696e-06 -7.13910958e-06 -6.45369028e-06 -4.92239542e-06
      -2.84720568e-06 -1.67556266e-06 1.14180546e-06 2.56271619e-06
      -5.95694155e-06 -5.74696105e-06 -4.13483713e-06 -7.47912736e-07
      1.43470186e-06 3.43905072e-06 4.33017703e-06 4.40715758e-06
      4.68457029e-06 3.00205784e-06 2.76784499e-06 2.78959760e-06
      6.38944869e-07 1.74004845e-06 -8.00162709e-08 1.37367397e-06
      2.07845119e-06 4.02841033e-06 5.51819403e-06 6.93206721e-06
      8.25559528e-06 8.44992701e-06 8.59959073e-06 6.37947869e-06
      4.62747812e-06 4.27606574e-06 -1.28098463e-07 -9.08335380e-07
      -6.40221242e-06 -9.85777388e-06 -1.43052948e-05 -1.92811967e-05
      -2.27648670e-05 -2.43360209e-05 -2.54823808e-05 -2.31369377e-05
      -1.94740442e-05 -1.73426906e-05 -1.61432981e-05 -1.41517612e-05
      -1.31973666e-05 -1.22053898e-05 -1.05369882e-05 -6.97738642e-06
      -2.60110642e-06 3.97205724e-07 4.63996366e-06 7.15992974e-06
      -2.18964487e-06 -2.34785443e-06 -7.89186856e-07 1.89306729e-06
      3.17975582e-06 4.73507589e-06 5.18216984e-06 4.36451865e-06
      3.93449045e-06 2.00835279e-06 1.44144303e-06 1.01094292e-06
      -1.47703668e-06 -5.40799704e-07 -2.52277755e-06 -7.12771964e-07
      5.86175361e-07 3.77771630e-06 6.85403211e-06 1.03970324e-05
      1.48996332e-05 1.75561581e-05 1.96275123e-05 1.88332506e-05
      1.73793924e-05 1.63847599e-05 9.79286961e-06 6.23147753e-06
      -2.30591445e-06 -7.58995020e-06 -1.32542164e-05 -1.85294357e-05
      -2.12105515e-05 -2.28842673e-05 -2.31766553e-05 -2.07358062e-05
      -1.79450180e-05 -1.71683605e-05 -1.75332843e-05 -1.62850865e-05
      -1.47585051e-05 -1.26803434e-05 -9.45163174e-06 -4.11008341e-06
      1.90086337e-06 6.05115247e-06 1.12724074e-05 1.41951568e-05
      4.91202763e-06 4.30490445e-06 4.70801297e-06 4.85320970e-06
      4.11068550e-06 4.03263721e-06 3.88811395e-06 3.14245835e-06
      2.62098706e-06 1.98133148e-06 2.17141883e-06 2.38534039e-06
      4.02064586e-07 5.09340339e-07 -1.96866904e-06 -1.64489063e-06
      -1.56450017e-06 -4.41916512e-07 1.55978375e-06 4.60441015e-06
      9.76551746e-06 1.38946707e-05 1.72799173e-05 1.90309856e-05
      1.94995500e-05 1.97222907e-05 1.43395118e-05 1.06040607e-05
      3.34053675e-06 -1.04814160e-06 -5.27473367e-06 -9.56424901e-06
      -1.11790696e-05 -1.33266312e-05 -1.38361602e-05 -1.33393405e-05
      -1.31776351e-05 -1.45394151e-05 -1.60438503e-05 -1.52019220e-05
      -1.29129530e-05 -1.00590451e-05 -5.39272150e-06 7.49373953e-07
      7.17170997e-06 1.13341393e-05 1.64764224e-05 1.88850736e-05
      6.14017972e-06 5.41501140e-06 4.76924106e-06 2.57240958e-06
      4.99977830e-07 -8.14954262e-07 -1.01298917e-06 -6.59860802e-07
      -5.44815578e-07 7.98523502e-07 2.13822818e-06 3.65025994e-06
      2.83565282e-06 2.23676761e-06 -2.42124230e-07 -1.35501296e-06
      -2.46501577e-06 -4.54666633e-06 -5.32979129e-06 -4.92463505e-06
      -2.86316117e-06 -8.70878921e-07 7.39629968e-07 3.01888076e-06
      4.21673531e-06 6.01701504e-06 4.47825141e-06 3.52749021e-06
      1.50380015e-06 1.00719410e-06 7.06254980e-07 -1.12409816e-06
      -1.90832361e-06 -4.28508383e-06 -5.48555818e-06 -7.74516047e-06
      -1.03451766e-05 -1.30469334e-05 -1.45258446e-05 -1.34116990e-05
      -1.03268903e-05 -7.26473445e-06 -2.30134583e-06 3.06295374e-06
      8.33611830e-06 1.12630505e-05 1.49644939e-05 1.61488897e-05
      1.92305674e-06 1.42068791e-06 5.78501783e-07 -2.22570657e-06
      -4.14933857e-06 -5.59408682e-06 -5.71478995e-06 -4.63554989e-06
      -4.17261344e-06 -1.95501116e-06 -1.21301611e-07 2.12896521e-06
      2.50856488e-06 1.77682693e-06 1.99867486e-07 -1.13003478e-06
      -2.58946829e-06 -6.40096050e-06 -9.40122209e-06 -1.10444780e-05
      -1.26327968e-05 -1.38485511e-05 -1.44399228e-05 -1.30785011e-05
      -1.23992504e-05 -1.01251972e-05 -8.40792836e-06 -6.92522462e-06
      -4.37651988e-06 -1.46349612e-06 1.30269518e-06 2.04609455e-06
      1.69109387e-06 7.00585048e-08 -1.13085434e-06 -5.15768988e-06
      -8.91043874e-06 -1.14441791e-05 -1.22129968e-05 -1.08400491e-05
      -7.56497820e-06 -5.08862831e-06 -1.24453163e-06 1.95155008e-06
      4.86405543e-06 5.92889273e-06 7.45778652e-06 7.24431902e-06
      -3.30858654e-07 -4.72593911e-07 -1.04528090e-06 -3.13851956e-06
      -4.29133570e-06 -5.57138264e-06 -6.43504791e-06 -6.26103656e-06
      -6.61091144e-06 -5.39992470e-06 -3.98672864e-06 -1.92687389e-06
      -6.93022685e-07 -9.46119428e-07 -1.10544283e-06 -1.72747582e-06
      -3.16792398e-06 -6.75201045e-06 -1.02770464e-05 -1.20036975e-05
      -1.47094870e-05 -1.66711980e-05 -1.69914820e-05 -1.61647913e-05
      -1.57015147e-05 -1.39944214e-05 -1.14528793e-05 -1.01067735e-05
      -6.65685593e-06 -3.24369967e-06 -1.57407570e-07 2.03529930e-06
      2.07376524e-06 2.01865510e-06 1.57422573e-06 -2.40321242e-06
      -5.61590286e-06 -7.49354604e-06 -7.98401379e-06 -7.29929525e-06
      -4.88896512e-06 -3.56540249e-06 -1.39644374e-06 -4.30101011e-07
      3.86692847e-07 1.67148642e-07 7.13317689e-08 -9.97466600e-07
      1.58860041e-06 1.81759924e-06 1.41543501e-06 4.08549909e-07
      -8.93830716e-08 -1.38421433e-06 -3.56502414e-06 -5.20226695e-06
      -6.86319026e-06 -7.25230939e-06 -6.53037250e-06 -4.66192478e-06
      -2.66373172e-06 -1.79974222e-06 -3.65933658e-07 2.09104101e-07
      -9.24663709e-07 -3.44461318e-06 -6.44126885e-06 -7.43055489e-06
      -9.42956376e-06 -1.01359465e-05 -8.76224294e-06 -7.64202287e-06
      -6.55628173e-06 -5.04119907e-06 -2.59602575e-06 -2.38308075e-06
      -1.70874486e-07 1.85881345e-06 3.71771921e-06 5.77268656e-06
      5.78833078e-06 6.52020617e-06 6.12304802e-06 2.69266457e-06
      -1.45644577e-07 -2.28674526e-06 -3.66729728e-06 -4.77035474e-06
      -3.90541209e-06 -3.59298178e-06 -2.51096208e-06 -2.32374555e-06
      -1.85712486e-06 -1.86003604e-06 -2.20855009e-06 -3.19285573e-06
      4.13247972e-06 4.62633716e-06 4.06968957e-06 4.00209819e-06
      3.86702823e-06 2.66621578e-06 -4.41470377e-07 -3.17576746e-06
      -5.40327483e-06 -6.35825199e-06 -5.95999882e-06 -3.72214413e-06
      -1.00284990e-06 1.09289510e-06 3.78354503e-06 5.65743539e-06
      5.15439251e-06 3.74026149e-06 1.61435662e-06 1.41456565e-06
      3.13593688e-07 7.49577680e-07 3.07258119e-06 4.60059118e-06
      5.95152915e-06 7.43983765e-06 9.76978208e-06 9.19920421e-06
      1.01375963e-05 1.09544117e-05 1.20381146e-05 1.34394068e-05
      1.32570185e-05 1.37745519e-05 1.26919967e-05 9.15874170e-06
      5.61030720e-06 2.54888073e-06 -3.58578689e-07 -3.45905801e-06
      -3.99264945e-06 -4.13103635e-06 -3.36642734e-06 -2.61827813e-06
      -1.24601888e-06 -2.84819475e-08 2.62168754e-07 -1.79276626e-07
      4.43725457e-06 4.98554027e-06 3.89618799e-06 4.29258171e-06
      4.14874421e-06 3.39518783e-06 2.40695869e-07 -2.27541454e-06
      -3.93378468e-06 -4.23765050e-06 -3.84521263e-06 -1.46111165e-06
      1.05192134e-06 3.23400786e-06 5.86921851e-06 8.32334263e-06
      8.07296601e-06 7.45050147e-06 6.22722382e-06 7.01642239e-06
      6.44575766e-06 6.78447304e-06 8.32967362e-06 9.09621122e-06
      8.88312752e-06 8.93237757e-06 1.01497508e-05 8.84806923e-06
      9.24677988e-06 1.04212304e-05 1.24474200e-05 1.45574486e-05
      1.54161262e-05 1.65156252e-05 1.58607418e-05 1.24826165e-05
      8.74463512e-06 6.03604303e-06 2.81887355e-06 -7.72081876e-07
      -1.61865125e-06 -1.55923635e-06 -9.46137561e-07 6.46291269e-08
      1.49899483e-06 3.20415688e-06 3.65464621e-06 3.33819457e-06
      2.41821522e-06 2.91626156e-06 1.08989843e-06 1.49488199e-06
      1.13873807e-06 1.14503098e-06 -1.28735178e-06 -2.94733240e-06
      -3.50207620e-06 -2.86940030e-06 -2.58092655e-06 -1.02523052e-06
      -1.26237481e-07 6.59269006e-07 1.95181042e-06 4.09727181e-06
      3.57872659e-06 3.37363508e-06 2.95842847e-06 4.74571107e-06
      4.48814762e-06 3.80509209e-06 3.57184058e-06 2.59094645e-06
      -3.91076433e-08 -2.09453219e-06 -2.60264892e-06 -4.52850691e-06
      -3.94179324e-06 -1.58982232e-06 1.98595239e-06 5.56935265e-06
      8.23919981e-06 1.08499153e-05 1.18746757e-05 9.71316058e-06
      7.53215591e-06 7.10087306e-06 5.52433312e-06 3.56286614e-06
      3.65932578e-06 4.33725882e-06 4.73401542e-06 4.91514584e-06
      4.59959256e-06 5.25089081e-06 4.80415474e-06 4.05950323e-06
      1.31477691e-06 1.93689652e-06 -6.32239676e-07 -4.72102869e-07
      -1.14848660e-06 -5.76633397e-07 -2.17686716e-06 -3.43946544e-06
      -3.27958060e-06 -2.23230563e-06 -2.30677392e-06 -2.08678421e-06
      -3.22533219e-06 -3.97618396e-06 -3.97601752e-06 -1.97617646e-06
      -2.07446692e-06 -1.53968097e-06 -7.86551936e-07 2.00382988e-06
      2.65869289e-06 1.37360553e-06 3.81353438e-08 -2.03425884e-06
      -5.82800840e-06 -8.76980175e-06 -1.02860731e-05 -1.26786936e-05
      -1.20616314e-05 -1.01446531e-05 -6.83902090e-06 -3.31987394e-06
      -2.18831559e-07 2.84100042e-06 4.99401585e-06 4.29989723e-06
      4.26101269e-06 6.23542383e-06 6.50032007e-06 6.56877000e-06
      7.72589556e-06 8.57528812e-06 8.81979395e-06 7.87170393e-06
      5.06562765e-06 4.18571153e-06 2.64165783e-06 1.48299307e-06
      3.63845766e-06 4.60171577e-06 1.36981771e-06 1.13938324e-06
      -5.01526785e-08 4.55793383e-07 -8.23888342e-07 -2.44212447e-06
      -2.24997939e-06 -1.30171986e-06 -1.76093238e-06 -2.47243815e-06
      -4.89627610e-06 -6.21689787e-06 -6.69084466e-06 -4.13638645e-06
      -2.76600053e-06 -9.20215371e-07 1.38896360e-06 5.25423457e-06
      7.50758545e-06 6.51147820e-06 5.14035810e-06 3.01203727e-06
      -6.73951888e-07 -3.41280565e-06 -5.14795920e-06 -8.07349261e-06
      -8.03924468e-06 -8.36503023e-06 -7.02493071e-06 -5.05336584e-06
      -3.10106748e-06 -1.12733619e-06 9.68173140e-07 1.11409270e-06
      2.36025721e-06 5.40266910e-06 6.22284233e-06 7.11066696e-06
      8.52571611e-06 8.65208131e-06 8.73610315e-06 7.08009338e-06
      2.37425252e-06 5.89763374e-07 -1.45415117e-06 -2.71610952e-06
      5.64961283e-06 6.81094207e-06 3.27929979e-06 2.82817973e-06
      1.33049184e-06 1.63656682e-06 3.49059803e-07 -1.58412570e-06
      -1.51499523e-06 -6.86713975e-07 -1.29584930e-06 -2.28214367e-06
      -5.06949436e-06 -6.39919836e-06 -6.91143487e-06 -3.94807148e-06
      -1.69566624e-06 8.76206911e-07 3.96942369e-06 8.35649371e-06
      1.14636387e-05 1.07620181e-05 9.53896688e-06 7.53137965e-06
      4.03794229e-06 1.49751361e-06 -2.39131907e-07 -3.45096646e-06
      -3.81076597e-06 -5.44981185e-06 -5.23060226e-06 -4.14935812e-06
      -2.96794860e-06 -1.76544449e-06 8.60967972e-08 4.52359984e-07
      2.03818354e-06 5.23985409e-06 5.98277393e-06 6.91375999e-06
      8.23656592e-06 7.81868948e-06 7.79796210e-06 5.91907383e-06
      5.23448819e-07 -1.49928337e-06 -3.61519619e-06 -4.85895407e-06
      -8.54922655e-06 -8.65584298e-06 -9.18414298e-06 -6.94908204e-06
      -5.12701627e-06 -4.47921593e-06 -1.34289178e-06 2.86951695e-06
      4.54350356e-06 4.56921407e-06 3.97679833e-06 1.55292196e-06
      8.29175349e-07 -1.02743797e-07 -2.25395775e-06 -3.45752983e-06
      -3.60654099e-06 -3.95655525e-06 -5.95548227e-06 -6.83166172e-06
      -4.80222889e-06 -1.65978486e-06 8.68989787e-07 1.27552210e-06
      2.40907752e-06 1.30004287e-06 1.64727680e-06 1.04644721e-06
      2.24920473e-06 4.39855421e-06 7.28574150e-06 5.43992655e-06
      5.81939821e-06 6.60072874e-06 8.91670788e-06 1.22743131e-05
      1.36218987e-05 9.48577508e-06 2.49323011e-06 -2.16739909e-06
      -4.40690019e-06 -2.59465673e-06 1.24537758e-06 4.05652327e-06
      5.67157713e-06 6.34761182e-06 7.92792252e-06 9.17273519e-06
      -8.81516280e-06 -9.15860255e-06 -9.44406565e-06 -8.20699915e-06
      -4.52474796e-06 -1.46316881e-06 -8.77956722e-07 -1.61035786e-07
      1.79506105e-06 3.01195359e-06 5.67814914e-06 4.45390833e-06
      3.83060024e-06 1.51382255e-06 -1.05197216e-06 -1.79385563e-06
      -2.23819325e-06 -2.90467301e-06 -3.56863984e-06 -3.83823271e-06
      -4.69454289e-06 -3.94378776e-06 -2.01206763e-06 -4.45404112e-07
      1.22075289e-06 2.64183768e-06 2.84584348e-06 2.33364676e-06
      2.25836493e-06 1.93554206e-06 4.43661111e-06 6.05760260e-06
      5.01163504e-06 4.42763258e-06 4.56109092e-06 6.63094033e-06
      1.00021834e-05 8.61541503e-06 4.54287101e-06 5.50004167e-08
      -3.31750743e-06 -4.16574812e-06 -2.17283400e-06 7.24773088e-07
      1.51200425e-06 3.71648866e-07 4.49900625e-07 2.16698459e-06
      -6.96331017e-06 -7.47461991e-06 -8.10558868e-06 -7.42076418e-06
      -4.77065623e-06 -4.57858562e-07 1.23820143e-06 6.03249021e-07
      -6.99767270e-07 6.83197641e-07 4.19362323e-06 6.73915156e-06
      7.09263759e-06 6.42384566e-06 2.94976303e-06 7.11017776e-07
      3.09825879e-07 -2.29582255e-07 -8.01942349e-07 -6.62973207e-07
      -1.70461090e-06 -3.11564486e-06 -2.42744318e-06 -2.19537787e-06
      -1.26104567e-06 3.63776564e-07 2.69592670e-06 2.51196775e-06
      1.50765561e-06 1.22966242e-06 1.80680343e-06 3.02282137e-06
      5.10364180e-06 4.31107037e-06 4.08749111e-06 2.72346324e-06
      2.04461890e-06 2.53031249e-06 1.10348594e-06 -5.14639680e-07
      -1.39239069e-06 -3.91574486e-06 -4.63596143e-06 -4.23799156e-06
      -2.29941156e-06 -2.34053073e-06 -4.06108620e-06 -5.10686232e-06
      -5.18583147e-06 -4.31033050e-06 -4.56939370e-06 -4.88298656e-06
      -3.79871040e-06 -6.59632292e-07 2.43893169e-06 3.30123112e-06
      1.46348862e-06 -1.72135657e-07 1.89800335e-06 6.08870050e-06
      7.71775194e-06 7.89294882e-06 6.28110683e-06 4.37803965e-06
      2.70753935e-06 2.75611654e-07 -5.61604850e-07 -4.66515928e-07
      4.17188488e-07 -7.30448562e-07 -7.60139187e-07 -2.34940799e-07
      -1.46721993e-06 -2.86128125e-06 -4.10275163e-07 1.32882303e-06
      5.87336672e-07 3.33085865e-07 4.29171507e-07 7.90347144e-07
      2.35064840e-06 4.58427121e-06 5.46907768e-06 3.55133466e-06
      1.42099609e-07 -2.15647401e-06 -1.59876924e-06 -7.25013933e-07
      -3.77257777e-07 -1.72613215e-06 -4.31611716e-06 -6.50951006e-06
      -7.08666585e-06 -5.17170156e-06 -4.50101834e-06 -5.70155225e-06
      -5.75703416e-06 -4.24364407e-06 -1.86625459e-06 -1.43782586e-06
      -1.40342092e-06 7.37801571e-08 1.86742864e-06 3.90563400e-06
      3.07509526e-06 7.93672086e-07 -1.01827379e-06 1.00252112e-06
      3.34328570e-06 4.61186710e-06 3.32518675e-06 3.87120690e-06
      3.51824747e-06 1.38118583e-06 -7.22605648e-07 -2.03634522e-06
      -2.54022689e-06 -2.01537432e-06 -1.51964264e-06 -1.45081276e-06
      -2.80478821e-06 -4.61526542e-06 -5.79811649e-06 -4.33865353e-06
      -3.55050497e-06 -2.32004140e-06 -7.94809921e-07 1.74084946e-07
      -7.13598993e-08 1.63950665e-06 4.86704857e-06 6.16524494e-06
      2.93718699e-06 -1.27719306e-06 -2.57412353e-06 -1.57108548e-06
      1.58726107e-06 1.55272926e-06 -2.81836094e-07 -3.27559883e-06
      -5.82775237e-06 -5.98342331e-06 -4.64383356e-06 -4.40306121e-06
      -4.18761329e-06 -4.69335646e-06 -2.64657365e-06 -4.03879397e-07
      3.92118153e-07 1.27102294e-06 1.59021761e-06 1.81085431e-06
      1.68596603e-06 8.16774786e-07 -1.74885486e-06 -1.63575396e-06
      -2.11301810e-07 1.19622814e-06 -7.77337846e-07 -7.46888702e-07
      5.82674431e-07 -1.64336157e-07 -2.24662222e-06 -3.19608193e-06
      -4.05890796e-06 -5.69560689e-06 -5.85814905e-06 -6.28271573e-06
      -7.50418485e-06 -9.22687468e-06 -1.04027495e-05 -1.00248335e-05
      -9.48037723e-06 -7.07000936e-06 -3.12722591e-06 4.74524256e-07
      8.52288736e-07 -4.41959429e-07 1.30183844e-06 3.75702371e-06
      4.35441234e-06 2.76130049e-06 1.52312111e-07 -6.74624971e-07
      1.24060318e-06 3.69691975e-06 3.08809012e-06 1.86924490e-06
      -3.84991978e-07 -2.39878227e-06 -2.38546500e-06 -2.11121483e-06
      -3.10364953e-07 -2.49340860e-06 -2.62142953e-06 -1.51388167e-06
      3.64321160e-08 3.99795510e-07 5.30902923e-07 4.49230924e-07
      4.73317897e-07 1.18367133e-07 -7.70294378e-07 -5.08335916e-07
      1.73225953e-06 2.19986396e-06 3.71263155e-07 -1.91685831e-06
      -1.34143170e-06 -6.58336546e-07 -1.76440017e-06 -3.59038518e-06
      -5.73720399e-06 -7.26883582e-06 -8.40085158e-06 -9.10264953e-06
      -9.48580964e-06 -1.26370542e-05 -1.44461792e-05 -1.34761749e-05
      -1.27080511e-05 -1.14887634e-05 -6.02184309e-06 1.32480466e-07
      2.28999761e-06 4.70416211e-07 -1.80882978e-06 -2.08763322e-06
      -7.77908554e-07 3.29771609e-07 2.69929899e-07 -6.70441239e-07
      3.54830689e-07 2.85380997e-06 4.95770519e-06 5.33974617e-06
      4.64662708e-06 3.95521420e-06 3.11826875e-06 2.25008853e-06
      1.84054738e-06 1.06589306e-08 -1.19210654e-06 -1.34099787e-06
      -1.20666243e-06 -1.26022383e-06 -2.55717123e-06 -2.77890990e-06
      -1.60790080e-06 -3.57882328e-07 3.15523948e-07 2.29556736e-06
      5.91284788e-06 7.09231017e-06 5.36604102e-06 3.15564193e-06
      1.78759296e-06 1.41571934e-06 8.45320471e-07 -4.56502789e-07
      -2.82791302e-06 -6.87470856e-06 -9.08620586e-06 -8.12529015e-06
      -6.21398749e-06 -7.62768013e-06 -1.23004975e-05 -1.40217753e-05
      -1.24981743e-05 -1.07126389e-05 -7.09446840e-06 -3.08117546e-06
      -1.06903180e-08 8.61186095e-07 -1.53585484e-06 -4.47204638e-06
      -6.63077481e-06 -6.43735666e-06 -4.27044279e-06 -2.34754975e-06
      -1.67119026e-06 -3.46596380e-07 1.59551848e-06 3.02635226e-06
      3.73466764e-06 4.46362901e-06 4.78978927e-06 3.99716737e-06
      9.41122380e-07 8.70577253e-07 7.68901813e-08 -6.82685368e-07
      -6.73558645e-07 4.42803127e-08 -1.94291829e-06 -3.69815757e-06
      -3.36439643e-06 -3.42254651e-07 1.36075289e-06 2.24965424e-06
      4.99630005e-06 6.99953580e-06 7.54636403e-06 7.68108566e-06
      7.90317699e-06 6.64587742e-06 3.80117194e-06 2.10161602e-06
      6.80188236e-07 -1.97455915e-06 -5.04023046e-06 -5.66099379e-06
      -3.61085040e-06 -2.93879248e-06 -5.31134810e-06 -9.86947543e-06
      -1.11984837e-05 -1.01640835e-05 -6.72398210e-06 -3.02175454e-06
      -1.36793142e-06 -6.72207591e-07 -2.02402566e-06 -4.70957457e-06
      -5.59359432e-06 -6.93614038e-06 -6.61923150e-06 -5.73549869e-06
      -5.04079617e-06 -3.96055520e-06 -3.39845565e-06 -2.37395261e-06
      -1.90073888e-06 -2.22037471e-07 1.50849087e-06 2.09551217e-06
      2.68610137e-07 2.33439337e-07 9.06961418e-07 1.79398251e-06
      5.91231583e-07 2.36975282e-07 -1.72980708e-06 -3.64062203e-06
      -4.69359020e-06 -2.41420662e-06 -5.39903681e-07 1.25993256e-06
      2.93676612e-06 3.74186243e-06 5.07182767e-06 6.79197683e-06
      9.22314211e-06 1.03742859e-05 7.93017807e-06 4.96513485e-06
      3.95926645e-06 3.30024977e-06 1.20066079e-06 -7.65713651e-07
      -2.63561537e-06 -2.98970849e-06 -3.99365126e-06 -6.81369875e-06
      -9.78959724e-06 -1.03529956e-05 -7.62090303e-06 -4.28476960e-06
      -2.47404341e-06 -9.81561129e-07 -1.79994390e-06 -3.64981497e-06
      -6.13423208e-06 -5.71406144e-06 -5.00010128e-06 -4.50995640e-06
      -5.66816607e-06 -6.51948585e-06 -8.41710153e-06 -9.46735599e-06
      -8.48426953e-06 -6.72549413e-06 -4.81741381e-06 -3.57471026e-06
      1.12689384e-06 2.14680313e-07 6.78812114e-07 3.14807767e-06
      3.13715418e-06 2.41070734e-06 1.49728507e-07 -2.09561290e-06
      -3.82783674e-06 -5.13219129e-06 -4.65954645e-06 -3.00146326e-06
      7.67417134e-07 2.02669025e-06 2.90741991e-06 4.42152486e-06
      7.16672275e-06 8.92624121e-06 8.84448218e-06 7.20169874e-06
      6.81784968e-06 6.86397152e-06 5.72113095e-06 4.37445442e-06
      3.12083284e-06 -1.28615670e-06 -4.58955856e-06 -5.73592706e-06
      -8.60607906e-06 -1.09304237e-05 -9.83615519e-06 -5.90137006e-06
      -3.05746130e-06 -2.47907769e-06 -2.81079974e-06 -3.77089191e-06
      -6.21372237e-06 -7.56546297e-06 -6.39534801e-06 -4.57489386e-06
      -3.61127991e-06 -5.99483519e-06 -8.61977423e-06 -1.21461298e-05
      -1.39459316e-05 -1.23053051e-05 -9.64612445e-06 -7.91590537e-06
      -2.08330178e-07 4.57324703e-08 1.11292047e-06 4.04050888e-06
      4.91224546e-06 4.51337019e-06 3.53588212e-06 2.15087175e-06
      -3.98992029e-07 -3.63588174e-06 -5.07444975e-06 -5.62796595e-06
      -4.17092224e-06 -4.08710520e-07 5.42130408e-07 1.23240716e-06
      2.50666221e-06 4.24968221e-06 4.69328506e-06 4.35944685e-06
      4.37653080e-06 5.86844999e-06 6.71673843e-06 6.28159569e-06
      5.58173497e-06 8.53572317e-07 -3.56581154e-06 -6.84436964e-06
      -8.13730185e-06 -9.12423820e-06 -9.82063375e-06 -8.03633793e-06
      -4.35654056e-06 -2.17077172e-06 -2.92729237e-06 -6.79647292e-06
      -1.02901877e-05 -1.11995105e-05 -9.91021079e-06 -7.69905728e-06
      -5.64414495e-06 -5.08972016e-06 -5.11385178e-06 -7.76113211e-06
      -1.05108111e-05 -1.25105935e-05 -1.20649493e-05 -1.02960639e-05
      -2.46091236e-06 -1.28722957e-06 1.79257245e-06 4.83547046e-06
      6.43184103e-06 6.79634013e-06 6.78874630e-06 6.24571157e-06
      5.43801389e-06 2.51285473e-06 -1.95884900e-06 -4.22851235e-06
      -5.52926031e-06 -4.41248085e-06 -2.16571493e-06 -1.08001939e-06
      -1.56865440e-07 9.87130022e-08 -1.71676379e-06 -2.83726285e-06
      -1.98537691e-06 -3.92316736e-07 1.55853502e-06 3.02878175e-06
      3.56836836e-06 -5.59896193e-07 -5.17999388e-06 -9.59672616e-06
      -1.10617066e-05 -8.82436325e-06 -7.24451047e-06 -7.66946687e-06
      -5.95186475e-06 -3.03167099e-06 -2.83677264e-06 -8.35851279e-06
      -1.34438060e-05 -1.42389963e-05 -1.35914597e-05 -1.13975266e-05
      -7.68491554e-06 -4.83703116e-06 -3.50191453e-06 -2.75863431e-06
      -5.15290321e-06 -7.04906506e-06 -8.39440236e-06 -9.12601172e-06
      -1.18952266e-06 -3.19503670e-06 -8.93732931e-07 3.50722235e-06
      7.07171876e-06 9.07206777e-06 9.84206144e-06 9.48291472e-06
      8.83974826e-06 7.16716750e-06 4.18480704e-06 -3.16774091e-08
      -4.53862913e-06 -5.95896881e-06 -7.94333937e-06 -5.27999509e-06
      -3.87235650e-06 -3.05920980e-06 -3.39904659e-06 -6.43045951e-06
      -6.32938099e-06 -5.81997847e-06 -4.24389054e-06 -3.16523256e-06
      -2.96352277e-06 -4.73915452e-06 -7.63761000e-06 -1.32316391e-05
      -1.45261038e-05 -1.12903417e-05 -6.03913850e-06 -2.77724212e-06
      -3.27777343e-06 -2.74895115e-06 -1.73844603e-06 -6.06401909e-06
      -1.17258469e-05 -1.33702870e-05 -1.40298444e-05 -1.35677174e-05
      -1.09216526e-05 -7.11905113e-06 -3.82994767e-06 -1.13410033e-06
      -1.02421200e-06 -3.14337649e-06 -4.57667466e-06 -5.59536556e-06
      2.99980434e-06 -9.46518867e-07 -3.02951139e-06 -2.00120689e-06
      2.41755356e-06 7.20554863e-06 9.54442021e-06 1.07075930e-05
      9.69320172e-06 9.76053525e-06 9.04183980e-06 4.13981115e-06
      -2.07070821e-06 -8.20938021e-06 -1.12731668e-05 -1.17245745e-05
      -1.01201986e-05 -7.13445615e-06 -5.38154563e-06 -5.17841636e-06
      -5.22679693e-06 -6.53901907e-06 -5.52363190e-06 -7.60758712e-06
      -7.90298873e-06 -8.62919933e-06 -1.14196955e-05 -1.54547579e-05
      -1.74381275e-05 -1.54096324e-05 -1.00646948e-05 -2.54559427e-06
      3.83288040e-07 1.03492653e-06 1.16151989e-06 -8.04500871e-07
      -6.12426447e-06 -7.84922395e-06 -1.00864381e-05 -1.16220563e-05
      -1.14893346e-05 -9.19937156e-06 -6.62925322e-06 -4.76302694e-06
      -2.46375112e-06 -2.85993065e-06 -3.49383595e-06 -3.86487091e-06
      2.70238434e-06 1.87135970e-06 -4.08683832e-07 -2.64984419e-06
      -1.82055931e-06 3.05895355e-06 6.87549300e-06 1.04079363e-05
      9.48498746e-06 8.01696387e-06 6.35694278e-06 2.19840558e-06
      -4.00531826e-06 -1.01836567e-05 -1.16266092e-05 -1.09070497e-05
      -1.23778264e-05 -1.29986947e-05 -1.11861109e-05 -8.63826790e-06
      -4.03817967e-06 -1.98740508e-06 -3.38357290e-06 -6.14519058e-06
      -9.23105108e-06 -9.48755132e-06 -1.24301096e-05 -1.35628379e-05
      -1.52194734e-05 -1.31614152e-05 -1.10485234e-05 -3.74958790e-06
      9.22231777e-07 2.22341032e-06 1.62607284e-06 7.76096272e-07
      -3.79999079e-07 -7.40454595e-07 -1.84673684e-06 -4.97130213e-06
      -8.16477859e-06 -8.42012832e-06 -7.30686179e-06 -5.83340852e-06
      -3.89582647e-06 -2.85504848e-06 -2.42887700e-06 -2.15825094e-06
      9.91347406e-07 9.34549860e-07 5.06440131e-07 2.38109692e-07
      2.69530773e-07 2.26287079e-06 4.07080597e-06 7.12926931e-06
      9.29060116e-06 6.66138158e-06 -7.35430319e-07 -7.68875270e-06
      -1.41994897e-05 -1.54628633e-05 -1.20236245e-05 -8.45738487e-06
      -9.06741752e-06 -9.87609656e-06 -1.35591181e-05 -1.48851595e-05
      -1.06121024e-05 -2.84750058e-06 -7.21089464e-07 -2.65458470e-06
      -4.16290914e-06 -2.19271101e-06 -3.15050215e-06 -4.51219876e-06
      -5.75599643e-06 -6.71408134e-06 -8.00151065e-06 -6.71631369e-06
      -1.80411337e-06 7.63315029e-07 1.50055791e-06 1.23207315e-06
      -1.36180276e-07 1.58176431e-06 3.78771892e-06 2.24749419e-06
      3.10859005e-09 -3.18761408e-06 -4.61246646e-06 -3.33134540e-06
      -3.27170278e-06 -2.33747687e-06 -1.19096433e-06 1.71104460e-07
      2.44934540e-06 1.79085566e-06 -9.73738636e-08 -4.01827549e-08
      1.15239902e-06 3.07224241e-06 5.25190353e-06 6.78264769e-06
      7.01866156e-06 5.91775961e-06 3.40325187e-07 -8.33571266e-06
      -1.82135791e-05 -2.52287682e-05 -1.72605214e-05 -7.47634840e-06
      -2.21157552e-06 -2.02057436e-06 -6.63453147e-06 -1.54148001e-05
      -1.74344495e-05 -1.10233605e-05 -5.30431362e-06 -3.99680494e-06
      -3.62859987e-06 3.54214023e-07 5.09349820e-06 8.17906675e-06
      7.29456997e-06 5.18696834e-06 1.10549536e-06 -2.66963821e-06
      -5.50824836e-07 -1.24703234e-07 -1.32378648e-06 3.57952047e-07
      -9.04064393e-07 1.47999799e-06 1.48915592e-06 2.33147603e-06
      1.55239763e-06 -8.52465860e-07 -2.66054667e-06 -1.57472994e-06
      -5.06390563e-07 -9.18567594e-07 -8.70128133e-07 -3.54017686e-07
      4.02813930e-06 4.23226220e-06 2.67445648e-06 1.64382541e-07
      -6.35267270e-08 1.48307345e-06 4.03804461e-06 7.92000537e-06
      8.40221037e-06 8.29600322e-06 4.93155721e-06 -2.01910643e-06
      -1.20817431e-05 -2.45357696e-05 -2.75199691e-05 -1.40853272e-05
      -1.56881879e-06 5.73839225e-06 2.72734133e-06 -5.97237795e-06
      -1.56995920e-05 -1.78983955e-05 -1.19036067e-05 -8.99477072e-06
      -8.46772582e-06 -3.96565065e-06 2.90314483e-06 1.09093226e-05
      1.51189306e-05 1.55063517e-05 1.28793827e-05 5.60378339e-06
      3.52861457e-06 4.22991889e-06 1.23790960e-06 -1.19200820e-06
      -1.49526875e-06 3.42434333e-07 2.21060145e-06 2.02459182e-06
      -1.63001090e-07 -2.39252722e-06 -3.07844493e-06 -1.85202805e-06
      2.66436928e-07 1.02158594e-06 4.47678673e-07 -2.64611515e-07
      6.56115844e-06 4.38891766e-06 2.66353436e-06 1.76908634e-06
      1.49169082e-07 -8.33874125e-08 6.21517017e-07 4.33162495e-06
      6.92283356e-06 8.15009662e-06 7.31146110e-06 4.08060305e-06
      -2.88426986e-06 -1.30536855e-05 -2.42695096e-05 -2.41379239e-05
      -1.06286161e-05 2.71260274e-06 7.60702960e-06 3.74573119e-06
      -4.74657509e-06 -1.50472442e-05 -1.54414356e-05 -1.33736048e-05
      -1.19324341e-05 -9.53358631e-06 -4.09075665e-06 5.55496990e-06
      1.46138127e-05 1.64718094e-05 1.70585226e-05 1.30698836e-05
      6.83169628e-06 6.20528363e-06 5.13808209e-06 1.66065740e-06
      5.93063234e-08 -2.05486081e-08 9.04892431e-07 1.00053728e-06
      -5.65816038e-07 -3.82218832e-06 -4.70296027e-06 -3.35183995e-06
      -3.26211023e-07 5.96385632e-07 1.72596197e-06 1.48630022e-06
      1.15049961e-05 8.21697722e-06 5.17712169e-06 3.50741720e-06
      2.34715458e-06 6.00125134e-07 -7.76664308e-07 1.34917445e-06
      3.13641158e-06 4.35847824e-06 4.55129930e-06 3.92906986e-06
      2.92811319e-06 -2.54868837e-06 -1.17252739e-05 -1.79074596e-05
      -1.73046501e-05 -7.72689600e-06 7.48538355e-07 4.06322988e-06
      2.30025307e-06 -4.89967624e-06 -1.00995858e-05 -1.15645917e-05
      -1.06649049e-05 -1.02806880e-05 -9.88247484e-06 -5.13446730e-06
      5.95250958e-06 1.27603307e-05 1.55010130e-05 1.33211679e-05
      8.98129565e-06 5.88142620e-06 6.49882440e-06 4.51630194e-06
      1.79242772e-06 1.37286588e-06 9.97905886e-07 1.74269110e-06
      -2.08672006e-07 -3.58672787e-06 -4.24911332e-06 -1.34841900e-06
      1.56155886e-06 2.89700915e-06 4.54219344e-06 5.50792629e-06
      1.45135873e-05 1.25413062e-05 9.11069128e-06 6.38834763e-06
      3.98100519e-06 2.13460294e-06 -9.60875695e-07 4.61286447e-07
      2.53996109e-06 3.17585909e-06 1.94390282e-06 7.57978285e-07
      1.13349404e-06 4.63585167e-07 -3.17102104e-06 -8.28138491e-06
      -1.30466642e-05 -1.31643974e-05 -7.98771634e-06 -2.20585434e-06
      -5.43811495e-07 -2.41679254e-06 -6.85144414e-06 -7.41125632e-06
      -7.04155173e-06 -7.01061026e-06 -9.98732867e-06 -1.16108195e-05
      -6.52082417e-06 2.77920731e-06 9.58617147e-06 1.07815613e-05
      7.39602319e-06 5.49355218e-06 5.00890428e-06 5.36844527e-06
      2.40586451e-06 1.56924091e-06 1.72815930e-06 3.47525724e-06
      2.44903595e-06 -1.13520184e-06 -4.67931022e-06 -2.77208824e-06
      3.61729690e-06 7.17562216e-06 8.85951886e-06 9.65221807e-06
      1.24498283e-05 1.38011192e-05 1.13552742e-05 7.98760811e-06
      4.36187884e-06 2.36009555e-06 9.08345100e-07 4.55319281e-07
      2.07360836e-06 3.28083229e-06 2.61407376e-06 7.41527595e-09
      -1.23354687e-06 -1.57489933e-06 -1.40239058e-06 -2.77591153e-06
      -6.42972554e-06 -9.48334309e-06 -9.35001572e-06 -5.41175723e-06
      -2.54866609e-06 -2.75050616e-06 -3.39219696e-06 -2.83977306e-06
      -3.75109880e-06 -5.85088992e-06 -8.40518533e-06 -1.10947849e-05
      -1.13514898e-05 -5.97493045e-06 8.98890391e-07 5.00881197e-06
      4.85855571e-06 2.32855314e-06 2.61127661e-06 4.82824817e-06
      3.54700728e-06 2.55749387e-06 2.46613376e-06 6.80873518e-06
      6.94116352e-06 3.18387015e-06 -4.94090564e-08 -2.78005496e-06
      -9.45387001e-07 3.98531301e-06 9.91045090e-06 1.18604203e-05
      4.55043210e-06 7.10517679e-06 7.82241932e-06 4.74042872e-06
      9.09503399e-07 -1.27890041e-06 -1.66956750e-06 -9.35266598e-07
      5.77604453e-07 2.23010215e-06 2.53103235e-06 1.47424953e-06
      -6.23041558e-07 -2.33975697e-06 -1.94357540e-06 1.14082766e-07
      2.11695991e-07 -2.36307301e-06 -4.06509207e-06 -4.27338318e-06
      -2.97831889e-06 -1.78071480e-06 -1.39110523e-06 1.94372251e-06
      2.60630623e-06 -2.07282392e-06 -8.28286829e-06 -1.06660564e-05
      -1.07015640e-05 -7.63179833e-06 -2.90701587e-06 1.21055336e-06
      2.68855933e-06 3.40790666e-06 2.47042362e-06 3.26403460e-06
      2.71900399e-06 1.99340252e-06 2.99334260e-06 8.92347452e-06
      1.19094684e-05 1.06275265e-05 7.45845318e-06 1.62625292e-06
      -1.25723216e-06 -3.43277804e-07 4.28215799e-06 8.13321549e-06
      2.70957486e-07 1.03735124e-06 2.43152544e-06 2.01525131e-06
      -2.23566829e-07 -2.64165374e-06 -3.50428286e-06 -2.91499146e-06
      -2.05815445e-06 -3.14717965e-07 -3.16546902e-07 6.91534524e-07
      2.14810325e-06 1.14661032e-06 1.37944198e-06 2.15030786e-06
      4.08191227e-06 4.23754864e-06 2.79145888e-06 1.44459852e-06
      2.19732016e-07 7.10747543e-07 -6.27347561e-07 2.57516177e-07
      3.57274507e-06 1.89814136e-06 -4.98901818e-06 -9.30497663e-06
      -1.00567031e-05 -7.37882692e-06 -4.20267224e-06 9.28597430e-08
      2.38391249e-06 4.75583738e-06 4.95842414e-06 4.15812247e-06
      1.37079735e-06 -9.83604764e-07 4.29474625e-07 5.65186338e-06
      9.83383961e-06 1.22255788e-05 1.27461562e-05 7.92685569e-06
      2.61398486e-06 -9.47538510e-08 8.34366858e-07 3.71883584e-06
      3.05162439e-06 3.26509394e-07 -1.77978120e-06 -3.54365579e-06
      -4.09293625e-06 -3.74279011e-06 -4.25128110e-06 -2.95011137e-06
      -3.30857324e-06 -2.42120382e-06 -3.33715093e-06 -2.70456530e-06
      8.77218213e-07 4.24334303e-06 7.25839345e-06 7.78412686e-06
      9.19686227e-06 9.59778117e-06 8.11775499e-06 7.45462376e-06
      5.34144783e-06 2.43788168e-06 1.27003318e-06 1.63569962e-06
      2.54435645e-06 2.15156501e-06 -1.65988320e-06 -6.36968707e-06
      -8.04286447e-06 -5.74661362e-06 -1.44535261e-06 1.24934763e-06
      2.68622148e-06 3.99072042e-06 5.75513332e-06 6.00218527e-06
      3.77168703e-06 1.39988811e-06 2.36513984e-07 2.25910412e-06
      5.06373908e-06 7.77293280e-06 1.11542495e-05 1.07210735e-05
      5.75430886e-06 8.21200729e-07 -1.09332711e-06 1.18152400e-06
      6.45212003e-06 4.03453532e-06 2.97279144e-07 -3.29219233e-06
      -5.75439526e-06 -5.71787314e-06 -4.25655844e-06 -2.81046459e-06
      -1.71138129e-06 -4.03662170e-06 -6.11218229e-06 -5.25702353e-06
      -2.39224050e-06 2.05563879e-06 8.08601635e-06 1.04508217e-05
      1.08423947e-05 1.15898101e-05 1.04476749e-05 7.91484945e-06
      6.64765685e-06 6.13428483e-06 4.20301512e-06 4.14462602e-06
      4.22177072e-06 4.52940952e-07 -4.74567105e-06 -5.41876761e-06
      -5.14183375e-06 -4.30081036e-06 -2.25059057e-06 2.69409696e-07
      2.40665236e-06 3.25589735e-06 5.18942306e-06 7.34662808e-06
      6.93978427e-06 6.51807977e-06 4.14464785e-06 2.05056699e-06
      1.59719912e-06 1.22520237e-06 3.53365408e-06 7.39292864e-06
      8.53854181e-06 5.50280902e-06 1.42162321e-06 1.56023070e-08
      1.37811921e-05 1.11642339e-05 7.35722642e-06 2.14144325e-06
      -2.27190776e-06 -4.26550923e-06 -3.05146841e-06 -1.62203753e-06
      -5.15644501e-07 -2.10215103e-06 -5.88296916e-06 -7.82058123e-06
      -7.01735507e-06 -3.66115250e-06 5.63184074e-07 5.50815867e-06
      7.55983183e-06 8.60390628e-06 7.75471199e-06 5.41503823e-06
      3.09187453e-06 2.64997266e-06 5.24679035e-06 6.54901805e-06
      6.84036695e-06 3.46540787e-06 -4.67197469e-06 -1.05172721e-05
      -9.56362146e-06 -6.76758918e-06 -3.54748272e-06 -1.70409714e-06
      -1.50701837e-07 2.39925498e-06 5.25596397e-06 7.39583447e-06
      9.25255154e-06 1.05025529e-05 9.03510499e-06 5.61563866e-06
      2.42681654e-06 -8.06006597e-07 -3.87107093e-06 -2.74474564e-06
      1.39767712e-06 4.33315927e-06 3.30594389e-06 7.59310581e-07
      1.98409052e-05 1.80414645e-05 1.47405653e-05 9.62574268e-06
      3.86489592e-06 1.03573302e-06 7.34231719e-07 2.92265690e-06
      4.26237148e-06 3.55022303e-06 1.19117395e-07 -3.30317653e-06
      -5.11160670e-06 -5.33894490e-06 -4.60902129e-06 -1.33435833e-06
      1.51996505e-06 2.16223430e-06 2.41857151e-06 2.02269803e-06
      1.60974380e-07 -2.49229288e-06 -1.78220561e-09 3.16697765e-06
      8.43363705e-06 8.87100214e-06 3.14117074e-06 -5.84499594e-06
      -1.26247851e-05 -1.27132353e-05 -8.46484363e-06 -2.70637861e-06
      -1.64570145e-06 2.11903597e-07 2.22632343e-06 5.35240952e-06
      7.99955797e-06 1.03430730e-05 1.20860386e-05 8.97856989e-06
      5.97769713e-06 1.80279778e-06 -5.71836108e-06 -1.03543298e-05
      -9.60724810e-06 -4.39751057e-06 -2.73071532e-06 -3.65173469e-06
      2.03170548e-05 2.13986550e-05 1.89893071e-05 1.39805334e-05
      8.49858952e-06 3.92638594e-06 1.31710601e-06 3.70981593e-06
      6.74246667e-06 8.27286385e-06 7.49920719e-06 5.55010683e-06
      3.38065888e-06 8.62514810e-07 -2.00664817e-06 -2.37326958e-06
      -7.26923417e-07 -2.60825999e-07 -3.31046863e-06 -3.32038030e-06
      -2.99956514e-06 -3.55535599e-06 -4.75089973e-06 -2.16199328e-06
      2.28700810e-06 8.31795023e-06 9.43846590e-06 3.12815860e-06
      -6.12242229e-06 -1.28041775e-05 -1.03671928e-05 -5.28370992e-06
      -3.11618510e-06 -1.28308363e-06 -1.40433474e-06 -6.92388028e-07
      9.55841202e-08 2.35593484e-06 6.13652128e-06 7.67650272e-06
      6.31857802e-06 4.88646947e-06 -9.46045077e-07 -8.62567413e-06
      -1.26966406e-05 -1.06487196e-05 -7.30448573e-06 -6.35696233e-06
      1.67646303e-05 1.92170701e-05 1.91163672e-05 1.50566757e-05
      8.55786402e-06 2.54947986e-06 -4.91855019e-07 4.73037858e-07
      3.81488280e-06 7.06542414e-06 9.06106197e-06 8.91477794e-06
      8.27652093e-06 7.09560936e-06 4.43288309e-06 1.54871589e-06
      -1.49054060e-07 2.88437747e-07 -1.82055464e-06 -2.59871831e-06
      -3.87250793e-06 -3.75792479e-06 -3.12984616e-06 -2.53072722e-06
      -1.29895773e-06 1.39717133e-06 5.04790341e-06 5.02172043e-06
      -1.07617700e-06 -8.78323499e-06 -1.07785818e-05 -7.01747194e-06
      -5.61982051e-06 -5.88019839e-06 -6.30613340e-06 -5.85323914e-06
      -5.58808779e-06 -5.31031128e-06 -3.03900947e-06 9.44592955e-07
      3.63161780e-06 3.47902824e-06 9.94652396e-07 -1.81499456e-06
      -5.69942495e-06 -7.05552111e-06 -5.54682038e-06 -3.78197115e-06
      4.39474161e-06 7.86610326e-06 1.11055542e-05 1.20892710e-05
      9.26941630e-06 1.89358821e-06 -3.16767705e-06 -3.88400213e-06
      -2.29179886e-06 1.73945625e-06 5.93933373e-06 7.71936902e-06
      8.74206762e-06 8.28971679e-06 6.16634134e-06 2.03899390e-06
      -1.92870743e-06 -2.91895935e-06 -5.01373370e-06 -4.38050256e-06
      -1.92903144e-06 -8.82437917e-07 -2.24961741e-06 -2.12557165e-06
      -4.71222052e-07 7.50009463e-07 1.58226862e-06 7.46184014e-07
      -3.39408393e-06 -9.86605937e-06 -1.27765306e-05 -1.09307839e-05
      -8.69648647e-06 -6.55588974e-06 -6.07177844e-06 -7.21444485e-06
      -6.43386011e-06 -6.05980358e-06 -6.04597881e-06 -4.09984932e-06
      -1.60814807e-06 1.46250966e-06 7.40643713e-07 -1.55369389e-06
      -2.94911024e-06 -2.78676521e-06 -2.32654384e-06 -3.30485435e-08
      -3.13251985e-06 -2.01121543e-06 2.05360593e-07 4.94010101e-06
      8.06903336e-06 5.23202789e-06 6.76089016e-08 -2.87746047e-06
      -3.53280234e-06 -1.74825436e-06 2.68266353e-06 6.57836063e-06
      9.97253937e-06 1.12902826e-05 8.14002851e-06 2.47517869e-06
      -3.52491861e-06 -6.93389984e-06 -1.03767861e-05 -9.87680778e-06
      -5.27587554e-06 -4.85164833e-07 -8.53631192e-08 -1.30081446e-06
      8.79212450e-07 4.13023417e-06 5.71133205e-06 3.63512117e-06
      -3.37597203e-06 -9.62995091e-06 -1.42099288e-05 -1.53062283e-05
      -1.46073698e-05 -1.14227769e-05 -8.14435225e-06 -6.53279585e-06
      -7.00444389e-06 -5.67179177e-06 -5.04308218e-06 -4.14877695e-06
      -3.08761128e-06 -1.43848945e-06 -2.68562047e-07 -7.35789627e-07
      -2.00085947e-06 -3.21323023e-06 -3.25138285e-06 -1.14484089e-06
      -7.99378449e-06 -7.34959394e-06 -6.88980253e-06 -4.42712462e-06
      -6.70672534e-07 1.74112802e-06 -6.20090219e-08 -8.46134810e-07
      -1.88461183e-06 -1.96853080e-06 -1.28058232e-07 2.83534769e-06
      8.55909639e-06 1.46617349e-05 1.47754490e-05 7.39931056e-06
      -3.53254973e-06 -8.35751143e-06 -1.15584889e-05 -9.22703384e-06
      -8.43238740e-06 -4.30227828e-06 -4.24989423e-07 -7.78370008e-07
      -7.87578074e-07 3.02739227e-06 6.08756318e-06 7.75665558e-06
      4.68537792e-06 -3.18303364e-06 -8.85779173e-06 -1.19206070e-05
      -1.28229394e-05 -1.10628698e-05 -1.17217915e-05 -9.34304808e-06
      -7.72186195e-06 -6.06182311e-06 -4.85403098e-06 -4.05549554e-06
      -3.12621660e-06 -1.96319002e-06 -1.33120261e-06 -6.81385416e-07
      -8.87475039e-07 -2.01689681e-06 -3.59908859e-06 -3.28887586e-06
      -1.14904697e-05 -9.84174767e-06 -9.35118987e-06 -8.22574657e-06
      -6.17710020e-06 -2.61055197e-06 -1.91652157e-06 -2.18466653e-06
      -2.21129699e-06 -2.24523956e-06 -3.62758215e-06 -3.57586305e-06
      -1.21045832e-06 6.68057146e-06 1.60043091e-05 1.45914437e-05
      5.25798578e-06 -3.19657897e-06 -9.29154703e-06 -8.50160541e-06
      -6.09597646e-06 -4.72021884e-06 -3.20376557e-06 -2.42990609e-06
      -2.59535432e-06 -3.81169070e-06 -3.39582493e-06 -1.69615566e-06
      -1.37180550e-07 1.45560637e-06 -2.49842316e-07 -2.48931701e-06
      -5.93050981e-06 -5.33135972e-06 -6.23505593e-06 -8.63388414e-06
      -7.90927061e-06 -6.84853103e-06 -6.04858087e-06 -4.89806962e-06
      -3.79302242e-06 -2.94909569e-06 -2.01019816e-06 -1.50650749e-07
      5.59717762e-07 3.59726116e-08 -1.64568075e-06 -2.54427823e-06
      -9.48444813e-06 -8.29569490e-06 -7.23451649e-06 -6.28051384e-06
      -5.60868011e-06 -3.92104448e-06 -2.16364242e-06 -2.99896965e-06
      -2.95336031e-06 -3.24623079e-06 -4.12700638e-06 -4.74114358e-06
      -4.40017857e-06 -1.54060308e-06 8.15339536e-06 1.43071238e-05
      1.17670597e-05 6.76300715e-06 -2.20282550e-06 -4.77243475e-06
      -4.55488771e-06 -4.25239296e-06 -5.08972835e-06 -4.68938970e-06
      -4.98751206e-06 -4.75686238e-06 -6.88843738e-06 -7.88693524e-06
      -7.29993781e-06 -3.79727612e-06 7.27908002e-07 4.67814789e-06
      2.80787617e-06 3.32286345e-06 3.82852505e-07 -2.35326343e-06
      -4.24214750e-06 -3.84683426e-06 -3.71217243e-06 -3.18444609e-06
      -3.51362678e-06 -2.89155378e-06 -1.59053650e-06 7.61280376e-07
      2.12550685e-06 2.40460326e-06 1.58026751e-06 5.95288327e-07
      -5.08262337e-06 -3.47108653e-06 -2.53208873e-06 -1.62621575e-06
      -1.50449978e-06 -1.74131071e-06 -2.04897489e-07 -1.04804099e-06
      -2.80229847e-06 -2.21613527e-06 -1.63985339e-06 -1.52234998e-06
      -1.48597167e-06 -2.24334872e-06 1.69824864e-06 6.84025736e-06
      1.25234910e-05 1.04759747e-05 4.75988008e-06 3.81007840e-06
      5.88876503e-07 -1.17817638e-06 -5.91178059e-06 -6.97402584e-06
      -6.58890986e-06 -3.43441911e-06 -8.18047113e-07 -1.62038725e-06
      -3.53295468e-06 -4.57610395e-06 -4.02628848e-06 1.31470881e-06
      6.97998621e-06 8.17949785e-06 5.37390315e-06 1.80530878e-06
      -1.45338072e-06 -2.06173422e-06 -1.35194296e-06 1.32202743e-07
      1.93863258e-07 -3.13019342e-07 1.17476326e-07 1.90090759e-06
      3.90871674e-06 4.82694213e-06 4.82402129e-06 4.13216003e-06
      -3.68913516e-06 -2.31578929e-06 -9.36142555e-07 -5.89111892e-07
      -2.11802757e-07 8.24855917e-09 4.06911283e-07 1.34435572e-06
      3.42045581e-07 -1.97945815e-06 -2.06434038e-06 -1.06523441e-06
      6.88819000e-07 1.60865864e-06 2.89958871e-06 4.42591545e-06
      1.00092966e-05 1.20010136e-05 1.05003855e-05 8.40383291e-06
      8.11626069e-06 4.91268338e-06 -1.96231508e-06 -6.31877219e-06
      -7.44231966e-06 -5.11237477e-06 3.25061791e-07 5.43528631e-06
      4.12205691e-06 3.14400722e-06 -1.53053554e-06 -1.36716596e-06
      1.23430448e-06 8.34025013e-06 6.25915845e-06 2.07962626e-06
      -3.12722727e-06 -4.71509884e-06 -4.25940789e-06 -5.55752138e-07
      1.44773571e-06 2.44725402e-06 2.56964040e-06 2.88789875e-06
      4.21985578e-06 5.37768619e-06 6.21864547e-06 5.95193387e-06
      -4.79930941e-06 -3.44908744e-06 -1.31908280e-06 -6.95974656e-09
      -6.56471116e-07 -1.58098294e-06 -1.59660704e-06 -1.16188517e-06
      1.97841743e-07 -6.79423096e-08 -1.42233648e-06 -2.23057009e-06
      -7.44216152e-07 1.47641572e-06 3.34104311e-06 4.75200750e-06
      8.34396815e-06 1.09528100e-05 1.20893710e-05 1.06716816e-05
      1.05991649e-05 9.00816121e-06 5.59770615e-06 -1.29808518e-06
      -4.27800023e-06 -3.75519880e-06 -2.14698684e-06 5.10061818e-06
      6.97280893e-06 7.20605067e-06 4.33039440e-06 9.87424528e-07
      -2.06700338e-06 4.72450381e-07 3.04239029e-06 1.36935000e-06
      -5.08915264e-06 -7.39261259e-06 -7.30679949e-06 -4.45024352e-06
      -7.83309304e-07 1.12172222e-06 2.13249359e-06 2.72730063e-06
      3.64079256e-06 4.58913200e-06 6.21606750e-06 6.53889219e-06
      -5.06935339e-06 -4.86431736e-06 -3.21626203e-06 -5.88315572e-07
      -1.28806590e-07 -6.92590305e-08 -1.38146405e-07 -1.50209928e-06
      -2.07214998e-06 -2.03837317e-06 -1.65614438e-06 -2.98139366e-06
      -2.05448623e-06 -2.04132448e-07 1.99913734e-06 4.14164379e-06
      6.89976787e-06 9.33883348e-06 1.17090649e-05 1.19592896e-05
      1.04881028e-05 8.06960088e-06 6.73535851e-06 3.25221208e-06
      -1.63021230e-06 -2.73940714e-06 -1.34323648e-06 2.22434869e-06
      4.13273528e-06 6.30348086e-06 4.76147852e-06 2.76709943e-06
      -5.21255288e-07 -1.27326939e-06 -1.51193433e-06 5.00473618e-07
      -1.22345989e-06 -4.56495263e-06 -6.26049632e-06 -5.69489384e-06
      -3.79169296e-06 -1.60147408e-06 2.73538433e-07 1.07241817e-06
      1.92288553e-06 2.76248238e-06 4.41001885e-06 5.72005683e-06
      -3.79885250e-06 -4.36503433e-06 -4.31113540e-06 -1.94391737e-06
      6.63977289e-07 2.78601874e-06 3.38801851e-06 2.23733036e-06
      1.11088582e-06 -7.32657213e-07 -2.22786639e-06 -3.31868159e-06
      -3.17145350e-06 -1.21659900e-06 2.40011985e-07 1.99836450e-07
      2.06026584e-06 5.49339347e-06 7.82327515e-06 9.19940612e-06
      1.06289835e-05 8.90752108e-06 7.29760495e-06 4.90336697e-06
      9.61470832e-08 -2.87165244e-06 -2.46794207e-06 1.59520056e-07
      1.04728645e-06 1.91422532e-06 3.77048173e-06 2.03808281e-06
      9.19077195e-07 -4.28944986e-07 1.02537501e-06 1.99750707e-06
      2.31226454e-06 1.63626294e-06 -4.51578558e-07 -1.43698003e-06
      -1.86981219e-06 -1.68932957e-06 -3.66793273e-07 2.53227256e-07
      9.36213439e-07 1.47387686e-06 2.28693170e-06 3.26132226e-06
      -2.47963521e-06 -2.18647347e-06 -2.89723016e-06 -2.97569704e-06
      -1.98451161e-07 3.68173505e-06 6.01900229e-06 5.64130187e-06
      5.28827650e-06 5.05550497e-06 3.16562500e-06 -6.97957660e-07
      -2.56772182e-06 -2.09634095e-06 -1.08377961e-07 -1.11331963e-06
      -3.53914083e-06 -1.14878549e-06 2.41141220e-06 5.04867921e-06
      4.88848355e-06 6.62467619e-06 5.44997420e-06 5.27407246e-06
      1.15006526e-06 -2.15142904e-06 -2.76774517e-06 -2.09927975e-06
      -1.29664124e-06 -1.95821099e-06 -8.90684134e-07 -3.11187478e-07
      3.19878109e-06 3.21089897e-06 3.54184840e-06 3.83499992e-06
      3.86950978e-06 3.57094677e-06 4.53688563e-06 4.80317249e-06
      3.62396099e-06 2.28436852e-06 1.16956198e-06 1.59268791e-06
      2.66468760e-06 2.88699630e-06 2.98591954e-06 3.14219119e-06
      -2.99535304e-06 -2.01895887e-06 -1.12949374e-06 -1.81154007e-06
      -1.68985230e-06 8.82975712e-07 5.44330805e-06 7.99024110e-06
      6.92364847e-06 6.65683365e-06 6.23987626e-06 3.78802565e-06
      1.99766976e-08 -2.11227530e-06 -2.03154582e-06 4.08609225e-07
      -1.23879965e-06 -2.84114844e-06 -1.30877959e-06 7.83382006e-07
      1.09799601e-06 4.10809861e-07 1.24171265e-06 1.66878431e-06
      1.41977841e-06 -4.49190139e-07 -2.56369322e-06 -3.74078763e-06
      -2.89000104e-06 -3.95617099e-06 -4.83623080e-06 -4.30177715e-06
      -2.20919290e-07 4.89068907e-06 6.49008598e-06 6.12772556e-06
      4.73861064e-06 4.19014304e-06 4.23020310e-06 6.01618331e-06
      6.75197407e-06 5.61614615e-06 4.67019026e-06 3.57112390e-06
      3.78708637e-06 5.23984545e-06 5.54537382e-06 4.65347875e-06
      -3.10367591e-06 -2.37227187e-06 -8.41764916e-07 1.02660442e-06
      -3.48842860e-07 -8.49234539e-07 1.34946993e-06 5.71228065e-06
      5.53027257e-06 3.98774864e-06 3.34304491e-06 1.13076885e-06
      -1.14691727e-06 -3.67033522e-06 -3.01319233e-06 -7.92285789e-07
      1.38149619e-06 7.89111425e-07 1.28626510e-07 6.09655046e-08
      -5.22245159e-07 -9.90543754e-07 -2.13406224e-06 -1.20182722e-06
      -7.53320421e-07 -3.04299220e-07 -1.23304346e-06 -1.44619560e-06
      -3.88618048e-07 -2.04708681e-06 -4.04441062e-06 -5.18286060e-06
      -4.00311365e-06 1.26320435e-06 5.15928014e-06 5.91163052e-06
      5.07293953e-06 3.17560421e-06 1.95959183e-06 2.77839786e-06
      4.15025534e-06 5.44421982e-06 5.43049919e-06 4.70893474e-06
      4.13107136e-06 4.50831158e-06 5.61477054e-06 5.62189553e-06
      -3.19955143e-06 -2.89108721e-06 -1.22395375e-06 1.52224527e-06
      2.65329641e-06 9.29563839e-07 -1.30042793e-07 1.64461642e-06
      3.75024410e-06 3.44708837e-06 1.15841897e-06 -2.52319478e-06
      -5.36145217e-06 -5.67700681e-06 -2.75124671e-06 1.13256544e-06
      2.50529865e-06 3.70792736e-06 2.10233657e-06 1.47473577e-06
      6.71394886e-08 1.94722438e-09 -3.12564765e-07 -1.66902612e-06
      -5.97756809e-07 -6.95630320e-07 -5.01150964e-07 -6.20166418e-07
      1.16057720e-07 2.08841607e-06 1.77137190e-06 1.95766893e-06
      4.09238964e-07 3.12758885e-07 1.67713199e-06 2.60133561e-06
      2.40587519e-06 3.06943306e-08 -4.92122354e-07 -3.40451152e-07
      1.00200054e-06 2.95391214e-06 5.10058817e-06 5.62488003e-06
      5.64062293e-06 4.51845426e-06 4.41257589e-06 5.11845838e-06
      -1.40609825e-06 -2.32840762e-06 -2.09283644e-06 8.16249155e-07
      2.92050254e-06 3.33415028e-06 2.27655937e-06 1.61994160e-06
      1.59028252e-06 2.91320293e-06 2.17934098e-06 -2.32522382e-07
      -4.42354758e-06 -5.85699172e-06 -2.52715813e-06 2.04970434e-06
      4.29470128e-06 3.84336136e-06 2.05210495e-06 6.86698414e-08
      -2.41853900e-06 -2.15212981e-06 -1.92587049e-06 -1.44547141e-06
      -1.74017498e-06 -9.14427076e-08 1.52093548e-06 1.50066256e-07
      -1.53684186e-06 1.18245133e-07 3.55966631e-06 5.97676717e-06
      5.46734236e-06 2.09915879e-06 -1.06288475e-07 -1.31503941e-06
      -1.93480719e-06 -3.58780517e-06 -5.22011669e-06 -3.77626816e-06
      -2.01500620e-06 9.60057832e-07 3.92712946e-06 6.06680896e-06
      6.95674726e-06 5.79667858e-06 5.42455064e-06 5.31637806e-06
      1.51348320e-06 8.93334118e-08 -9.92587843e-07 2.08828922e-07
      2.15083082e-06 4.31123908e-06 5.10938889e-06 3.85454223e-06
      1.92728976e-06 1.77450613e-06 3.07739333e-06 2.65348967e-06
      7.21268407e-07 -1.36219205e-06 -8.61092531e-07 3.07610480e-06
      5.17070112e-06 3.35057916e-06 -4.67473910e-07 -1.63780464e-06
      -3.43938746e-06 -4.37502285e-06 -6.43767726e-06 -6.18561489e-06
      -5.18466823e-06 -2.83046916e-06 1.02973036e-06 2.96419626e-06
      1.32886612e-06 2.86696746e-07 1.70913893e-06 5.20705180e-06
      6.32760248e-06 4.93189327e-06 1.85199474e-06 -2.03367472e-06
      -4.96436951e-06 -8.10823258e-06 -9.38373705e-06 -8.71253360e-06
      -5.70169641e-06 -1.66554287e-06 2.10737926e-06 5.71608916e-06
      8.13681982e-06 8.56667884e-06 8.00356611e-06 7.98711426e-06
      3.03421280e-06 2.54630800e-06 1.16098806e-06 3.23363849e-07
      1.45866829e-06 3.53488099e-06 4.00475756e-06 5.63075673e-06
      4.66301617e-06 3.65321807e-06 2.34748336e-06 3.06677862e-06
      4.27209397e-06 3.37034930e-06 2.05894025e-06 3.39979147e-06
      4.24747759e-06 2.59417857e-06 -1.71649810e-06 -2.33254286e-06
      -3.70639214e-06 -1.78034634e-06 -4.08932829e-06 -7.70429688e-06
      -1.07345686e-05 -9.13251824e-06 -3.52757343e-06 1.10606607e-06
      2.84966200e-06 3.13281976e-06 2.42568353e-06 3.20800405e-06
      4.78699167e-06 5.33471439e-06 5.05762182e-06 1.79334768e-06
      -3.85082194e-06 -8.99973929e-06 -1.44991955e-05 -1.51482127e-05
      -1.08354889e-05 -5.52128586e-06 -1.32443085e-06 3.11885401e-06
      6.95561994e-06 9.02662123e-06 9.14221800e-06 9.66327389e-06
      1.48549574e-07 -1.87596569e-07 -5.34839444e-07 -5.72514637e-07
      -2.38250777e-06 -3.65470578e-06 -1.04935985e-07 5.55004476e-07
      -8.39723498e-07 1.86302771e-06 6.19523553e-06 8.21387403e-06
      7.36411903e-06 4.14635042e-06 -2.99942855e-07 -1.58668070e-06
      2.90783419e-07 3.57349154e-06 6.12627127e-06 3.74619822e-06
      -1.14022077e-06 -1.70763906e-06 2.26836551e-06 4.66332176e-06
      3.34515062e-06 1.14991883e-06 -2.82498064e-07 -3.96741416e-06
      -6.66455571e-06 -4.41968814e-06 9.37003392e-07 1.70698843e-06
      1.14015370e-06 1.63493462e-06 1.48481172e-06 1.69997440e-06
      6.15171439e-06 8.59539250e-06 4.65306084e-06 2.61702240e-07
      1.70853355e-06 6.21545360e-06 6.72654642e-06 4.70188570e-06
      -8.42462839e-07 -4.14341366e-06 -7.54591497e-07 3.38178006e-06
      -4.75620084e-07 1.44146497e-06 1.13557940e-06 8.80741595e-07
      -4.62746755e-07 -2.72776992e-06 -1.80004702e-06 6.15164311e-07
      -5.44438819e-07 1.48157255e-06 5.76030880e-06 8.28567590e-06
      8.21180674e-06 5.21338188e-06 1.62822300e-06 -1.11767679e-06
      4.73409926e-07 3.14170666e-06 5.18395382e-06 2.87781450e-06
      -2.08835809e-06 -3.57511794e-06 4.43300451e-07 4.51170035e-06
      3.71873784e-06 2.61348214e-06 1.79853714e-06 -8.42152190e-07
      -4.24660129e-06 -3.55658153e-06 -1.42248695e-07 1.38921291e-06
      1.20263928e-06 8.66066273e-07 8.77948366e-07 1.13833630e-06
      3.79534322e-06 8.30299268e-06 7.11085477e-06 1.48519734e-06
      1.16559454e-06 4.71738304e-06 6.46053786e-06 4.40027998e-06
      3.17111585e-07 -2.41196108e-06 -1.10322333e-06 2.24559471e-06
      -7.41585723e-07 2.74488298e-06 4.06317849e-06 3.99170176e-06
      2.61158084e-06 -5.96144432e-08 -1.73166995e-06 5.56093596e-07
      9.84084068e-07 1.82448275e-06 5.75358945e-06 8.44227725e-06
      9.30671467e-06 6.16045872e-06 3.55387624e-06 6.20227752e-07
      1.33450192e-06 3.49530569e-06 4.99437101e-06 3.28302258e-06
      -3.15933721e-06 -6.17134219e-06 -3.15446778e-06 2.75962066e-06
      3.81884638e-06 3.93434721e-06 3.97499480e-06 2.04071125e-06
      -1.59966896e-06 -1.30128160e-06 1.18268974e-06 1.61653475e-06
      2.14544912e-06 7.33016520e-07 6.01714703e-07 1.72650630e-06
      2.05392826e-06 5.69683107e-06 7.89815113e-06 3.22180676e-06
      5.67615984e-07 3.94137305e-06 6.83883172e-06 5.06925107e-06
      1.36345636e-06 -6.42485304e-07 1.11739575e-06 3.95541610e-06
      -1.45499905e-06 8.05219543e-07 5.53708423e-06 6.71959742e-06
      6.95108702e-06 4.83423264e-06 8.75442936e-07 1.18148432e-06
      2.34754975e-06 2.79513847e-06 5.44659451e-06 7.95301821e-06
      9.39615438e-06 6.89449871e-06 3.47477612e-06 7.52970550e-07
      1.25925214e-06 3.62030551e-06 4.92760000e-06 3.11388180e-06
      -4.27847772e-06 -9.04533044e-06 -6.52472727e-06 2.86435807e-07
      5.10298241e-06 4.79746950e-06 5.77058745e-06 5.00731221e-06
      1.90508706e-06 4.51662345e-07 1.41669409e-06 2.25333861e-06
      2.77778736e-06 1.38360872e-06 1.48073189e-08 1.18522132e-06
      1.33825336e-06 2.43131194e-06 5.11217650e-06 2.73800424e-06
      -6.60506373e-07 1.44944249e-06 5.84154304e-06 6.30782642e-06
      3.07077403e-06 -5.10270546e-08 1.68964198e-06 4.78930042e-06
      -1.78702976e-06 8.26571124e-07 4.52203358e-06 8.90374122e-06
      9.76860974e-06 8.48069249e-06 4.35170614e-06 2.41666817e-06
      3.46032789e-06 3.56157580e-06 4.23294341e-06 6.77622893e-06
      8.39714812e-06 6.58485351e-06 2.41014982e-06 -6.08383914e-07
      -3.31736288e-07 1.57161458e-06 4.12846293e-06 1.38100756e-06
      -4.44548505e-06 -1.02580116e-05 -1.11968193e-05 -3.09779102e-06
      4.70352097e-06 6.17371279e-06 6.25517487e-06 6.06027152e-06
      3.84345412e-06 3.50493883e-06 3.81050586e-06 3.40311408e-06
      2.68843155e-06 1.65733479e-06 7.07482570e-07 1.94112545e-07
      1.30733085e-07 1.42377235e-06 2.96200642e-06 3.14710496e-06
      7.58959345e-07 2.48222875e-07 4.57347278e-06 8.08608183e-06
      6.81631445e-06 2.98388318e-06 2.90898629e-06 5.34022593e-06
      -6.27730174e-07 1.36136475e-06 4.24246855e-06 7.69798316e-06
      1.00680327e-05 9.38486755e-06 4.99201542e-06 2.37800100e-06
      1.51706877e-06 2.54855422e-06 3.29233649e-06 3.94584413e-06
      5.75495460e-06 5.13305031e-06 1.99648571e-06 -8.02908460e-07
      -2.92354321e-06 -1.01571527e-06 1.56013027e-06 1.07576932e-06
      -4.40991198e-06 -1.09682824e-05 -1.36476820e-05 -9.16776116e-06
      2.28873887e-07 4.85980036e-06 5.64170386e-06 4.82200585e-06
      2.93023868e-06 2.74685567e-06 5.71404826e-06 5.99309124e-06
      3.79569633e-06 1.89794127e-06 1.89072000e-06 1.06051694e-07
      -1.13137730e-06 -8.30617921e-07 1.79026870e-07 6.69302608e-07
      1.91662616e-06 1.07063488e-06 2.46538639e-06 5.51585663e-06
      8.14989926e-06 5.78933441e-06 4.99406588e-06 6.85353825e-06
      2.79288486e-07 3.20296590e-06 5.94823223e-06 8.20014975e-06
      9.33884712e-06 8.80188600e-06 4.16192097e-06 3.77062463e-07
      -1.11048791e-06 -1.14619399e-06 1.26086650e-06 3.11472127e-06
      3.42027465e-06 2.21239111e-06 1.21087851e-06 1.37995937e-06
      -3.44507669e-07 -8.37312825e-07 -2.29557344e-07 1.38755240e-06
      -3.33259868e-06 -8.44791793e-06 -1.26105324e-05 -1.21524936e-05
      -4.47376488e-06 1.80443612e-06 5.07118557e-06 3.09141910e-06
      -1.13490205e-06 -1.24275641e-06 3.05114759e-06 6.44095917e-06
      5.27006978e-06 3.14130148e-06 2.21372352e-06 1.17810237e-06
      -1.84622593e-06 -3.58022726e-06 -4.09656423e-06 -3.41834243e-06
      -5.30943737e-07 1.81765358e-06 9.58558871e-07 2.01274293e-06
      6.69306746e-06 8.74624038e-06 6.90764273e-06 6.47235356e-06
      8.09365531e-07 4.04032744e-06 6.10932011e-06 7.53420409e-06
      8.63180503e-06 8.15091425e-06 3.73172452e-06 -1.40899851e-06
      -3.13753708e-06 -3.68322935e-06 -1.78835080e-06 2.05047627e-06
      4.12272357e-06 3.57265390e-06 1.04027504e-06 2.23288316e-06
      3.62323658e-06 1.78087271e-06 1.26168152e-06 8.19901516e-07
      -1.05471906e-06 -6.24208724e-06 -9.81746234e-06 -1.18070902e-05
      -7.21937022e-06 -7.93612003e-07 2.70692885e-06 1.74604406e-06
      -4.63491415e-06 -7.07888648e-06 -1.49478080e-06 3.97867234e-06
      5.46317369e-06 4.46445119e-06 1.15929470e-06 -1.08261432e-07
      -2.69963562e-06 -5.68295309e-06 -7.02083753e-06 -7.35260710e-06
      -4.58963632e-06 -4.93867844e-07 5.81621066e-07 4.53182622e-07
      4.60229421e-06 8.53226720e-06 9.43333180e-06 7.29852081e-06
      3.34764241e-06 3.99710598e-06 7.10279346e-06 7.58621081e-06
      7.46622709e-06 7.17426292e-06 3.93502387e-06 -1.30779654e-06
      -4.44299258e-06 -4.82868154e-06 -3.89760362e-06 -5.92067011e-07
      3.67313373e-06 7.10886661e-06 5.23754534e-06 3.05120966e-06
      4.58387376e-06 4.54100382e-06 1.90699279e-06 -1.22899763e-07
      -1.43242494e-06 -2.27756323e-06 -5.86146052e-06 -7.61598676e-06
      -7.32476519e-06 -2.45257979e-06 1.73830836e-06 1.39279075e-06
      -5.06941387e-06 -1.01911291e-05 -4.87891157e-06 2.66137477e-06
      5.88318289e-06 4.52955919e-06 4.85289434e-07 -2.81027542e-06
      -4.02762589e-06 -4.91583023e-06 -7.80502160e-06 -9.94463971e-06
      -8.68204916e-06 -4.56232146e-06 -1.15925741e-06 -6.88155865e-07
      7.81284029e-07 4.21167169e-06 7.72667772e-06 7.77907553e-06
      2.78622929e-06 3.57001340e-06 6.22672133e-06 7.07897061e-06
      6.62546290e-06 5.73156331e-06 3.78175469e-06 2.27630110e-07
      -4.33163041e-06 -4.73682394e-06 -4.03095282e-06 -3.83098586e-06
      5.94565179e-08 7.02022226e-06 1.08263785e-05 8.15382009e-06
      5.43779879e-06 6.80354333e-06 3.25897622e-06 -4.66081957e-07
      -2.08317715e-06 -8.36925722e-07 -1.65430015e-06 -4.36260552e-06
      -5.45668036e-06 -4.06052959e-06 5.67097800e-07 1.71904014e-06
      -4.13030602e-06 -1.10645287e-05 -7.54511302e-06 -7.52105649e-08
      4.70024042e-06 3.17198442e-06 3.28971083e-07 -2.86024419e-06
      -6.45400678e-06 -4.53372468e-06 -4.43020781e-06 -7.61927913e-06
      -9.37590903e-06 -7.93336767e-06 -4.54474002e-06 -2.01740158e-06
      -6.91191815e-07 5.83930557e-07 3.18676530e-06 3.87020827e-06
      1.47314438e-06 3.79656876e-06 6.23424694e-06 6.96684765e-06
      7.28969007e-06 6.46108947e-06 4.49556455e-06 2.38900134e-06
      -1.14846284e-06 -5.01035038e-06 -3.46193815e-06 -2.39964902e-06
      -1.82366284e-06 2.84228554e-06 1.14264521e-05 1.29014370e-05
      8.25695770e-06 7.14032149e-06 4.91099763e-06 6.73639988e-07
      -2.41680345e-06 -1.06949688e-06 2.06375353e-06 1.17491550e-06
      -1.93887195e-06 -2.56593626e-06 -1.11305360e-06 8.88983323e-07
      -4.69902807e-06 -1.19633960e-05 -1.11123745e-05 -4.72534703e-06
      3.09781240e-06 2.88935667e-06 9.88183274e-07 -8.29499243e-07
      -8.05981290e-06 -7.97492703e-06 -4.95140876e-06 -4.33527566e-06
      -6.89708577e-06 -7.76653087e-06 -5.64899847e-06 -2.72107150e-06
      -1.01125852e-06 1.69487194e-07 1.14057843e-06 2.72284751e-06
      9.67473397e-07 2.67868586e-06 5.95259280e-06 6.99537031e-06
      6.03967374e-06 5.89406409e-06 5.26300937e-06 2.51344386e-06
      -5.53803943e-07 -4.89641252e-06 -5.57445946e-06 -2.04487560e-06
      -1.39608119e-06 -1.48793413e-06 6.98216218e-06 1.42558147e-05
      1.15494331e-05 6.96592133e-06 6.11680980e-06 3.14130898e-06
      -1.65446849e-07 -1.59206775e-06 4.77432309e-07 4.40629128e-06
      1.99374472e-06 -1.34581015e-07 -8.87906594e-07 -3.34553107e-07
      -4.25373764e-06 -1.09471857e-05 -1.26043769e-05 -7.98982910e-06
      -9.41844689e-07 1.46429034e-06 2.63031666e-06 2.62154549e-06
      -4.39048472e-06 -8.83733173e-06 -6.63071569e-06 -4.07159314e-06
      -3.79246490e-06 -5.68040696e-06 -4.52331460e-06 -2.44025705e-06
      -2.03684476e-06 -5.72991837e-07 1.37452957e-07 1.76899982e-06
      -1.59257738e-07 4.44352366e-07 3.52229358e-06 6.59986654e-06
      6.72993929e-06 6.09239851e-06 6.51093978e-06 4.10481698e-06
      6.11405881e-07 -2.90078515e-06 -5.39181610e-06 -1.27527142e-06
      9.01652157e-08 -3.08185804e-06 5.86496867e-07 1.13104416e-05
      1.17376512e-05 4.89135209e-06 4.87217903e-06 4.82643600e-06
      8.62570516e-07 -2.77955564e-06 -2.71969725e-06 2.58731416e-06
      4.76267223e-06 1.43832801e-06 2.79097407e-07 2.96900112e-07
      -6.68583368e-07 -5.08290077e-06 -7.71548275e-06 -8.18293574e-06
      -4.36208484e-06 -8.73462113e-07 3.95942288e-06 6.46696753e-06
      8.62356501e-07 -7.27492534e-06 -7.81788549e-06 -5.56438317e-06
      -4.51662800e-06 -4.89027479e-06 -4.91448600e-06 -2.25358258e-06
      -9.38770825e-07 -1.15650117e-07 7.24545828e-08 7.41663428e-07
      -1.26829875e-07 -1.24732048e-06 1.77690981e-06 4.99289899e-06
      6.24716949e-06 6.01779857e-06 6.07172797e-06 4.93165999e-06
      2.00884051e-06 -1.31610273e-06 -2.91805418e-06 9.96762537e-07
      4.15120530e-06 -1.09605878e-06 -2.64366327e-06 5.31370915e-06
      1.11218651e-05 4.81092366e-06 1.14932095e-06 4.51232700e-06
      3.02266585e-06 -2.57193210e-06 -5.34059154e-06 -2.09555719e-06
      2.52185032e-06 1.52030168e-06 -6.02579803e-07 4.33269349e-07
      2.05486549e-06 1.98558737e-07 -2.14560055e-06 -2.98067198e-06
      -2.06592176e-06 -6.67747429e-07 1.49715675e-06 6.38420806e-06
      4.14142141e-06 -3.49394236e-06 -7.41107533e-06 -6.66804226e-06
      -5.72807085e-06 -5.36418247e-06 -6.08242090e-06 -3.79949688e-06
      -1.44446051e-06 -1.61012409e-07 -4.74207553e-07 -2.71320630e-07
      -4.46464838e-07 -7.07740185e-07 -5.95553786e-07 2.75627417e-06
      5.41180725e-06 6.09705194e-06 5.69810709e-06 5.22017581e-06
      3.11617350e-06 1.37424365e-06 2.40472036e-06 2.55338387e-06
      6.45506179e-06 3.09707934e-06 2.55861949e-07 5.69842859e-06
      1.04213686e-05 7.25499604e-06 -2.07901309e-07 1.57292459e-06
      4.13886119e-06 -3.77833601e-07 -3.82379903e-06 -4.89857166e-06
      -9.28234044e-07 -8.62345928e-08 -2.05228480e-06 -2.02086198e-06
      2.83927739e-06 4.92425306e-06 3.77076367e-06 5.85584621e-06
      5.54438748e-06 3.57715680e-06 2.36689652e-06 3.09028701e-06
      3.82635335e-06 -1.49505991e-06 -5.12056386e-06 -5.89385400e-06
      -5.72057570e-06 -6.08395885e-06 -6.39443488e-06 -5.54925191e-06
      -1.60046943e-06 -6.05830678e-07 -1.00320119e-06 -1.04563003e-06
      -1.22857898e-06 1.83511474e-07 6.63230367e-07 1.99170222e-06
      4.03208287e-06 4.73036562e-06 5.45516104e-06 5.61477827e-06
      4.23513211e-06 3.12927705e-06 4.53322673e-06 5.15943793e-06
      6.85825535e-06 6.27642885e-06 3.73357216e-06 8.47665888e-06
      1.17546224e-05 8.47443880e-06 3.03530641e-07 -2.45083265e-06
      1.33903291e-06 1.21050869e-06 -1.33682715e-06 -4.01548596e-06
      -5.02536159e-06 -3.25119481e-06 -3.29429963e-06 -2.66104598e-06
      4.25235203e-06 1.29645996e-05 1.37104671e-05 1.51252925e-05
      1.53367127e-05 8.74865054e-06 3.10287805e-06 8.55595601e-07
      8.67475649e-07 -1.70207716e-06 -5.56903660e-06 -5.70234624e-06
      -5.40655310e-06 -7.60457669e-06 -6.35168453e-06 -4.12777445e-06
      -2.41692806e-06 -2.20218482e-07 -7.71533664e-08 -1.10002009e-06
      -1.67061978e-06 -6.39518532e-07 -8.15669864e-07 4.55191795e-08
      1.80489053e-06 4.22584799e-06 5.36922835e-06 5.14755493e-06
      5.70572502e-06 5.08267976e-06 4.71049361e-06 4.36156142e-06
      4.92882737e-06 5.93920231e-06 4.55455438e-06 7.62079389e-06
      1.30097942e-05 1.32374107e-05 2.32993011e-06 -5.38402264e-06
      -4.20777815e-06 -7.53840141e-07 -1.33908623e-06 -1.67573955e-06
      -5.21160791e-06 -4.98202098e-06 -3.42756152e-06 -1.84708949e-06
      3.83881979e-06 1.58475941e-05 2.24875021e-05 2.26338398e-05
      2.51450128e-05 1.63155273e-05 6.56740849e-06 -1.50193912e-07
      -1.74146692e-06 -2.69161956e-06 -5.91700791e-06 -7.16913792e-06
      -5.82662278e-06 -7.33348361e-06 -5.92768538e-06 -9.49643436e-07
      7.52645406e-07 1.24694930e-06 1.57697457e-06 -5.29014166e-08
      -6.24965935e-07 -1.20009429e-06 -2.17292745e-06 -8.95853077e-07
      1.94574525e-07 1.57617376e-06 4.82600626e-06 5.30378247e-06
      5.89440515e-06 6.41482802e-06 5.77996707e-06 3.62561559e-06
      3.31615934e-06 2.75731236e-06 1.78401910e-06 4.85702367e-06
      8.39828863e-06 1.47062256e-05 7.77095556e-06 -3.90039713e-06
      -8.07242941e-06 -5.26560325e-06 -3.34527112e-06 -2.19648177e-06
      -4.65602534e-06 -6.02150203e-06 -3.21190737e-06 -6.29141368e-07
      4.40514759e-06 1.33412013e-05 2.39431211e-05 2.70354867e-05
      2.77945892e-05 2.45557530e-05 1.29312111e-05 3.53465771e-06
      -2.97664997e-06 -2.60090451e-06 -6.72244960e-06 -9.72470207e-06
      -9.30983424e-06 -8.07109427e-06 -6.80466428e-06 3.09059260e-07
      3.79491507e-06 4.25469898e-06 3.30341345e-06 1.82373867e-06
      8.72229634e-07 -1.08390293e-06 -3.82730377e-06 -4.58840304e-06
      -2.06790173e-06 4.09756950e-07 3.55472230e-06 5.50997993e-06
      5.36772632e-06 6.34212165e-06 6.30716204e-06 3.46255774e-06
      2.51039160e-06 1.45785532e-06 -4.30211941e-07 -2.05607520e-07
      2.78563743e-06 1.01483247e-05 1.20411669e-05 1.17225703e-07
      -8.16309694e-06 -9.73474380e-06 -7.06514538e-06 -5.06300921e-06
      -4.97885731e-06 -6.71759335e-06 -4.46451622e-06 -2.11839415e-06
      1.56348779e-06 9.89252567e-06 1.80601837e-05 2.51776637e-05
      2.61337864e-05 2.73243440e-05 1.73303397e-05 8.86895668e-06
      3.87590319e-07 -1.76729930e-06 -2.90026605e-06 -8.92941080e-06
      -9.72090402e-06 -8.94282130e-06 -7.19645232e-06 -8.06981291e-08
      5.46883302e-06 8.79745767e-06 9.07853337e-06 5.10487007e-06
      2.71352155e-06 -1.89428033e-06 -5.80918822e-06 -7.52965570e-06
      -5.72436284e-06 -1.90482149e-06 2.08811093e-06 4.85106966e-06
      5.25156202e-06 4.88698151e-06 5.51917628e-06 3.55164184e-06
      2.35276389e-06 -9.38501614e-07 -3.21942639e-06 -3.55511520e-06
      -2.34511208e-06 2.42209876e-06 1.04705441e-05 6.95961216e-06
      -4.26912038e-06 -1.01268042e-05 -1.08116301e-05 -8.43353428e-06
      -7.53311269e-06 -6.38008214e-06 -6.13249904e-06 -5.51613584e-06
      -3.04851437e-06 3.26852728e-06 1.27826388e-05 1.89994807e-05
      2.01710318e-05 2.31196027e-05 1.94853092e-05 1.12289281e-05
      4.15650675e-06 -6.39652114e-07 -1.10641031e-06 -5.87257000e-06
      -8.98235612e-06 -9.17452144e-06 -7.62669333e-06 -1.87560590e-06
      3.30659373e-06 7.07394656e-06 1.07940868e-05 9.88719057e-06
      9.65741947e-06 2.37672998e-06 -4.40350323e-06 -8.25171992e-06
      -7.68987957e-06 -4.03910099e-06 3.66232769e-07 3.67577172e-06
      4.64811137e-06 2.93353264e-06 1.99358169e-06 2.71277918e-06
      2.10343046e-06 -6.86415319e-07 -4.26967881e-06 -6.67107724e-06
      -5.47827312e-06 -3.88579292e-06 5.15052670e-06 8.73767749e-06
      2.52124255e-06 -5.90166337e-06 -1.06468424e-05 -1.02893082e-05
      -8.23482605e-06 -6.13962266e-06 -4.36310393e-06 -6.33074796e-06
      -4.95269933e-06 -2.61533546e-06 4.75607749e-06 1.34134307e-05
      1.59620158e-05 1.56469105e-05 1.74482266e-05 1.09566372e-05
      3.86314059e-06 -1.77046545e-07 -1.25897031e-06 -2.16931107e-06
      -4.85132432e-06 -5.35414620e-06 -6.22773723e-06 -4.88324167e-06
      1.80150991e-07 5.37844790e-06 9.69015855e-06 1.25497509e-05
      1.59707579e-05 9.90022272e-06 9.26929431e-07 -8.14146642e-06
      -9.51716265e-06 -5.75565900e-06 -5.81857762e-07 3.44045134e-06
      5.61569277e-06 3.49620382e-06 -3.44331113e-07 -1.06301638e-06
      8.97297980e-07 4.87366435e-07 -1.66069151e-06 -5.99632631e-06
      -7.37824439e-06 -7.74656837e-06 1.77951634e-07 6.66733922e-06
      4.08742653e-06 -2.86911677e-06 -7.87582758e-06 -8.38404503e-06
      -7.25647806e-06 -6.73765180e-06 -2.12779992e-06 -3.30464354e-06
      -5.98907536e-06 -3.82567350e-06 -1.25248084e-06 6.81897654e-06
      1.36748504e-05 1.19801689e-05 1.40141592e-05 1.05945646e-05
      2.72194393e-06 -1.79030587e-06 -2.27014289e-06 5.40204837e-07
      -4.17850174e-07 -1.00030957e-06 -3.03557295e-06 -2.73346291e-06
      -1.69780424e-06 1.02067520e-06 5.47828813e-06 1.04766541e-05
      1.52133889e-05 1.44808018e-05 9.37034383e-06 -1.89449315e-06
      -1.00127327e-05 -7.15873284e-06 -1.81962503e-06 2.33628316e-06
      4.42940927e-06 2.90750768e-06 -6.78740719e-07 -3.85546991e-06
      -1.96321685e-06 -4.33420695e-07 1.04303297e-06 4.68242263e-07
      -6.76254740e-06 -9.31994327e-06 -3.00495731e-06 4.78951870e-06
      4.44852503e-06 -1.65670394e-06 -6.73830891e-06 -7.31667069e-06
      -5.46434649e-06 -6.43169960e-06 -3.87000000e-06 3.84885595e-07
      -2.72668649e-06 -4.95435916e-06 -3.92191214e-06 4.13356418e-07
      7.58268061e-06 1.09887023e-05 1.21119811e-05 1.27393032e-05
      5.72613953e-06 -3.40105680e-06 -5.36471271e-06 -7.54503105e-07
      2.83881377e-06 2.74950185e-06 2.95910968e-06 6.54067605e-07
      -1.19585229e-06 -2.69019324e-06 5.75326453e-07 4.96106759e-06
      1.05098807e-05 1.37510096e-05 1.40397442e-05 6.48421974e-06
      -5.01168870e-06 -8.00642465e-06 -3.58115744e-06 3.99770784e-07
      2.69343946e-06 2.90496973e-06 3.26503454e-07 -2.57259421e-06
      -2.95389441e-06 -1.25720976e-06 1.00510078e-06 3.64178732e-06
      -1.75442528e-06 -7.47365902e-06 -4.81232973e-06 2.45735941e-06
      4.25444614e-06 -5.63684409e-07 -6.17351179e-06 -8.16171269e-06
      -6.81449774e-06 -7.40892619e-06 -7.19913487e-06 1.30041018e-08
      1.11478505e-06 -2.60199931e-06 -4.61206400e-06 -3.08609287e-06
      3.30262628e-06 7.78802678e-06 1.16306001e-05 1.57726245e-05
      1.27496442e-05 -8.76964805e-07 -7.56180043e-06 -3.95624738e-06
      2.59966146e-06 5.10304153e-06 6.39979680e-06 5.14564408e-06
      2.03590457e-06 -2.87414241e-06 -5.31762271e-06 3.33389920e-07
      7.31359205e-06 8.86487669e-06 1.13655442e-05 9.86789655e-06
      5.05225785e-07 -5.12393035e-06 -4.37607514e-06 -8.79072616e-07
      6.22173218e-07 8.36355582e-07 8.81884830e-07 7.90991805e-07
      -6.52004076e-07 -8.26215057e-07 -5.83840517e-07 1.97246800e-06
      9.21298238e-07 -4.15011436e-06 -4.66636038e-06 -7.83735345e-07
      1.85494400e-06 -1.66991776e-06 -5.51015728e-06 -8.72912915e-06
      -8.53537767e-06 -9.18042588e-06 -8.97550854e-06 -5.66197787e-06
      4.55017044e-07 -3.05441915e-07 -2.08585334e-06 -3.16090882e-06
      -6.34024786e-07 4.04152024e-06 7.58858368e-06 1.43542675e-05
      1.52657540e-05 5.25332234e-06 -5.58522152e-06 -6.07364655e-06
      2.86499727e-07 4.40134727e-06 8.25762527e-06 8.96654637e-06
      4.44900934e-06 -2.70157784e-06 -8.88136401e-06 -5.41256895e-06
      8.95089761e-06 6.69570500e-06 6.74389003e-06 6.45338696e-06
      3.19452465e-06 -2.47813114e-06 -4.51752612e-06 -1.96236078e-06
      -3.15114534e-07 -6.12832537e-07 -1.32789964e-07 2.25669828e-06
      2.52899645e-06 2.12473606e-06 5.52051461e-07 1.51299594e-06
      3.02926901e-06 -2.82430221e-07 -2.12446844e-06 -1.74505772e-06
      -2.04307321e-06 -2.72209991e-06 -5.94799667e-06 -8.40105258e-06
      -9.90541230e-06 -9.63880757e-06 -8.35578885e-06 -7.70290535e-06
      -2.02189153e-06 2.04662888e-06 1.64238452e-06 9.98689870e-07
      -1.34514971e-06 6.79570519e-07 4.16598778e-06 9.79303877e-06
      1.35033115e-05 8.75972819e-06 -1.87237958e-06 -6.13169095e-06
      -1.08123925e-06 4.94923279e-06 8.35626906e-06 1.19608676e-05
