<?xml version="1.0"?>
<opencv_storage>
<my_svm type_id="opencv-ml-svm">
  <svm_type>C_SVC</svm_type>
  <kernel><type>LINEAR</type></kernel>
  <C>1.</C>
  <term_criteria><epsilon>2.2204460492503131e-16</epsilon>
    <iterations>1000000</iterations></term_criteria>
  <var_all>69120</var_all>
  <var_count>69120</var_count>
  <class_count>2</class_count>
  <class_labels type_id="opencv-matrix">
    <rows>1</rows>
    <cols>2</cols>
    <dt>i</dt>
    <data>
      0 1</data></class_labels>
  <sv_total>1</sv_total>
  <support_vectors>
    <_>
      -1.33911262e-05 -1.25188108e-05 -1.07795977e-05 -1.02426466e-05
      -8.99282895e-06 -7.97686334e-06 -7.02259831e-06 -6.42905570e-06
      -7.19920354e-06 -7.21182641e-06 -7.11501025e-06 -5.58666534e-06
      -1.36730489e-06 3.53942301e-06 8.21389040e-06 1.13371198e-05
      1.40203420e-05 1.55796497e-05 1.52265320e-05 1.48763256e-05
      1.48307345e-05 1.59910778e-05 1.53736419e-05 1.44643154e-05
      1.17040800e-05 6.74347621e-06 -1.51713593e-07 -6.57020337e-06
      -1.09702323e-05 -1.31942415e-05 -1.37057432e-05 -1.20522227e-05
      -9.70054953e-06 -8.31588113e-06 -8.08432469e-06 -8.78891751e-06
      -9.87161820e-06 -1.22740275e-05 -1.36032759e-05 -1.30085491e-05
      -1.18831722e-05 -9.88956072e-06 -7.29972407e-06 -4.72249303e-06
      -2.76452670e-06 -1.73787430e-06 1.56909465e-07 1.54529360e-07
      -1.19658453e-05 -1.11272093e-05 -9.38928406e-06 -8.67037124e-06
      -7.24492565e-06 -6.15302588e-06 -5.41950385e-06 -5.18510706e-06
      -6.21981644e-06 -6.41725592e-06 -6.71195994e-06 -5.69620988e-06
      -2.05813149e-06 2.06299296e-06 5.96078235e-06 8.54319205e-06
      1.06474390e-05 1.17816508e-05 1.14794730e-05 1.15069261e-05
      1.20329396e-05 1.36855651e-05 1.35721830e-05 1.31100433e-05
      1.07346605e-05 6.07587890e-06 -3.90174421e-07 -6.32133060e-06
      -1.02295853e-05 -1.17986501e-05 -1.15736621e-05 -9.34049422e-06
      -6.57277860e-06 -4.85688042e-06 -4.36689788e-06 -4.99398084e-06
      -6.20713217e-06 -8.45837621e-06 -9.91497836e-06 -9.60451234e-06
      -8.70739404e-06 -7.11388930e-06 -4.83770418e-06 -2.60104912e-06
      -1.00965963e-06 -2.76776664e-08 1.63678794e-06 1.55174155e-06
      -7.58629176e-06 -6.81170786e-06 -5.28558121e-06 -4.36801656e-06
      -2.83958752e-06 -1.76678043e-06 -1.69231259e-06 -2.28187082e-06
      -3.79683365e-06 -4.23211895e-06 -5.23330891e-06 -5.13650275e-06
      -2.72215516e-06 -2.29492244e-07 1.99605688e-06 3.55430961e-06
      4.56095631e-06 4.89621380e-06 4.83285521e-06 5.57185558e-06
      7.03237401e-06 9.26298253e-06 9.84302551e-06 9.91522757e-06
      8.18329045e-06 4.17164847e-06 -1.16956937e-06 -5.67983989e-06
      -8.26426185e-06 -8.34979255e-06 -6.58284262e-06 -3.32252807e-06
      6.79628087e-08 2.34963886e-06 3.25157907e-06 2.79832784e-06
      1.45478111e-06 -2.97243133e-07 -1.66539314e-06 -1.80553923e-06
      -1.25864142e-06 -4.68672113e-07 1.13506087e-06 2.51336019e-06
      3.35013169e-06 4.13452608e-06 5.14693011e-06 4.93134894e-06
      -2.02472756e-06 -1.25986128e-06 -2.34341741e-07 5.87847694e-07
      1.76036701e-06 2.50418543e-06 1.70370731e-06 2.53665888e-07
      -1.43471232e-06 -1.81366374e-06 -3.06034053e-06 -3.40088673e-06
      -2.04931780e-06 -1.03611740e-06 -4.62055482e-07 1.65528306e-07
      2.46631515e-07 -4.77053508e-09 2.82808770e-07 1.51262543e-06
      3.34370566e-06 5.41516056e-06 6.26438850e-06 6.27274767e-06
      5.07611230e-06 1.88462570e-06 -1.89860441e-06 -4.45347450e-06
      -5.39613848e-06 -4.25918142e-06 -1.48953654e-06 2.06940490e-06
      5.30047282e-06 7.73628108e-06 8.58159547e-06 8.11708742e-06
      6.87343118e-06 5.66677545e-06 4.86902309e-06 4.55684312e-06
      5.00379429e-06 5.28581222e-06 6.44011698e-06 7.06831815e-06
      7.53696850e-06 8.11332211e-06 8.39806762e-06 8.20868354e-06
      1.24986275e-06 2.07319249e-06 2.73398700e-06 3.47428363e-06
      4.33090599e-06 4.78267611e-06 3.40033148e-06 1.30668877e-06
      -1.48412752e-07 -4.80084452e-07 -1.53284066e-06 -2.14299666e-06
      -1.75392381e-06 -2.23114830e-06 -3.26514555e-06 -3.81304176e-06
      -4.68737426e-06 -5.22662458e-06 -4.58349587e-06 -2.76651053e-06
      -5.90313505e-07 1.50959897e-06 3.14048589e-06 3.29267164e-06
      2.95953600e-06 8.18272667e-07 -1.41074463e-06 -2.46873719e-06
      -2.33734750e-06 -1.06826576e-06 1.38471785e-06 4.22410358e-06
      6.43721432e-06 8.58760723e-06 8.88835712e-06 7.98543897e-06
      6.87446345e-06 5.64010452e-06 5.17984154e-06 4.81987399e-06
      5.24882716e-06 5.62099558e-06 6.86621934e-06 7.55644578e-06
      8.46555031e-06 9.18108344e-06 9.21773426e-06 9.23959215e-06
      9.54759912e-07 1.73008311e-06 2.37822564e-06 3.28727106e-06
      4.37485596e-06 5.00832584e-06 3.71643864e-06 1.49490916e-06
      5.97197470e-07 1.63142587e-07 -7.03315891e-07 -2.04316711e-06
      -2.81330131e-06 -5.07140840e-06 -7.69289545e-06 -9.69501161e-06
      -1.16819319e-05 -1.22952488e-05 -1.12072521e-05 -8.35107221e-06
      -5.18948855e-06 -2.19172875e-06 1.01444130e-06 1.98688303e-06
      2.67411588e-06 1.31593015e-06 -1.80933739e-07 -1.12688735e-06
      -1.21785592e-06 -8.14195403e-07 4.20937312e-07 2.19459093e-06
      3.38312748e-06 5.27959128e-06 5.22626624e-06 3.80181200e-06
      2.73835917e-06 8.95445055e-07 9.38391835e-08 -3.71430957e-07
      -5.21457366e-08 8.45617535e-07 2.51572442e-06 4.02310025e-06
      5.75172044e-06 6.94166647e-06 7.31103637e-06 7.55419023e-06
      -1.91579420e-06 -1.47781361e-06 -7.95234541e-07 3.70231390e-07
      2.01450848e-06 3.32206696e-06 2.83305121e-06 1.45297986e-06
      1.67300448e-06 1.76600827e-06 1.40761620e-06 -3.43222638e-07
      -1.80175402e-06 -5.25160749e-06 -8.71955672e-06 -1.17504551e-05
      -1.47809023e-05 -1.57810009e-05 -1.46990442e-05 -1.14818422e-05
      -7.79595848e-06 -4.22031189e-06 -1.56796347e-07 1.45047090e-06
      2.51317056e-06 1.24730775e-06 -4.60592616e-07 -2.27882765e-06
      -3.44824048e-06 -3.87609862e-06 -3.44687237e-06 -2.11627344e-06
      -1.05411323e-06 9.24475842e-07 1.09773384e-06 -4.73183206e-07
      -1.64566222e-06 -4.23507299e-06 -5.79044854e-06 -6.45697173e-06
      -6.17653541e-06 -4.68306325e-06 -2.58737737e-06 -2.17679869e-07
      2.02702972e-06 3.67189637e-06 4.52301356e-06 4.81848974e-06
      -5.79101106e-06 -5.85868611e-06 -5.29873796e-06 -3.86958118e-06
      -1.65385791e-06 5.53404846e-07 1.33992614e-06 1.73401236e-06
      3.52734992e-06 5.04856280e-06 5.80309006e-06 4.75136585e-06
      3.64251923e-06 4.23884870e-07 -2.57201191e-06 -5.63843241e-06
      -9.37614004e-06 -1.14806671e-05 -1.15796802e-05 -1.00774278e-05
      -7.96574750e-06 -5.63524054e-06 -2.75272282e-06 -1.48920833e-06
      -6.48865921e-07 -1.74668389e-06 -3.18819411e-06 -5.02573857e-06
      -6.39694235e-06 -6.30956538e-06 -5.21851689e-06 -3.27017278e-06
      -1.40578481e-06 6.92757737e-07 1.16894648e-06 -4.10939094e-07
      -2.09203040e-06 -5.38967697e-06 -7.74445198e-06 -8.77830280e-06
      -8.33683225e-06 -6.51921573e-06 -4.21324421e-06 -1.60809600e-06
      5.71427222e-07 2.26768088e-06 3.27343992e-06 3.37510346e-06
      -7.64990546e-06 -8.12678354e-06 -7.86348210e-06 -6.24583527e-06
      -3.70005660e-06 -9.37096047e-07 8.84459610e-07 2.94646452e-06
      5.79676544e-06 8.47042156e-06 1.01026772e-05 1.00490370e-05
      9.67055530e-06 7.79523361e-06 6.44083411e-06 4.59505281e-06
      1.22173878e-06 -1.54765428e-06 -3.09840993e-06 -4.50074049e-06
      -5.62365904e-06 -6.30404975e-06 -6.34599883e-06 -6.46599756e-06
      -5.96166456e-06 -6.09144809e-06 -5.78142817e-06 -5.70904194e-06
      -5.36606967e-06 -3.36704443e-06 -8.11230223e-07 1.89668674e-06
      4.18600257e-06 5.58053171e-06 5.67111329e-06 3.80766846e-06
      1.55480791e-06 -1.98037696e-06 -4.46508375e-06 -5.54710095e-06
      -4.65649646e-06 -2.87958051e-06 -7.96549955e-07 1.04402568e-06
      2.43577006e-06 3.36444145e-06 3.90168225e-06 3.60638069e-06
      -3.74965271e-06 -4.50884863e-06 -4.94357619e-06 -3.70536600e-06
      -1.71604222e-06 4.70639122e-07 2.18840887e-06 4.67412929e-06
      7.28946316e-06 9.87837120e-06 1.14766062e-05 1.18557327e-05
      1.18858115e-05 1.18766275e-05 1.28299516e-05 1.33573849e-05
      1.20626837e-05 1.06288117e-05 9.11847837e-06 6.04736579e-06
      2.28994350e-06 -1.58133196e-06 -4.94516325e-06 -7.22509003e-06
      -7.52092819e-06 -6.84952283e-06 -4.80321387e-06 -2.49882874e-06
      -7.63185781e-08 3.31602837e-06 6.14444480e-06 8.20225978e-06
      9.13617896e-06 8.52152425e-06 7.43988267e-06 5.33724278e-06
      3.45943727e-06 1.03738034e-06 4.31180673e-08 1.69396699e-07
      2.03744844e-06 3.73092939e-06 5.15546662e-06 5.37474898e-06
      5.20468757e-06 4.48663832e-06 3.96193263e-06 3.26995269e-06
      5.54004919e-06 4.54380188e-06 2.87832654e-06 2.78764310e-06
      2.97021961e-06 3.24041571e-06 3.61832940e-06 5.26297435e-06
      6.68117036e-06 8.39238146e-06 9.61126079e-06 1.03228258e-05
      1.07211918e-05 1.28827742e-05 1.61867683e-05 1.93798260e-05
      2.10722192e-05 2.23284987e-05 2.22084600e-05 1.94014247e-05
      1.47890260e-05 9.14610882e-06 3.42142880e-06 -1.03767297e-06
      -2.91968422e-06 -2.78067273e-06 -9.57600264e-07 1.57527052e-06
      4.13256794e-06 6.73350314e-06 7.88311081e-06 7.77680907e-06
      5.99326586e-06 2.97483211e-06 5.86531996e-07 -1.13447652e-06
      -1.37096549e-06 -1.31226614e-06 6.14578994e-07 3.22066694e-06
      6.62786579e-06 8.67006020e-06 9.48186880e-06 8.09401627e-06
      6.26175370e-06 3.81643167e-06 2.20483389e-06 1.37767699e-06
      1.40426700e-05 1.29220170e-05 9.94993752e-06 8.10634174e-06
      5.98465931e-06 3.93494747e-06 2.60595175e-06 2.92807727e-06
      3.05663639e-06 3.94784502e-06 5.12023826e-06 6.72335273e-06
      7.82737698e-06 1.20488430e-05 1.70831827e-05 2.20743459e-05
      2.60147935e-05 2.90566895e-05 2.98348987e-05 2.77752370e-05
      2.32589882e-05 1.76350059e-05 1.13608430e-05 6.09521385e-06
      3.01723821e-06 2.31153581e-06 2.75409161e-06 3.68322799e-06
      4.43721137e-06 4.59844250e-06 3.30240732e-06 7.37025346e-07
      -3.55786642e-06 -7.96992572e-06 -1.11288455e-05 -1.19404540e-05
      -1.02054410e-05 -7.63514436e-06 -3.04071636e-06 1.91991330e-06
      6.78962851e-06 9.52788378e-06 1.02339036e-05 8.20157675e-06
      5.71652572e-06 2.58090085e-06 6.33196578e-07 -8.01485189e-09
      1.52767334e-05 1.42078979e-05 1.06568823e-05 7.82230927e-06
      4.31883291e-06 1.13849717e-06 -1.21529149e-06 -1.98451471e-06
      -2.65162112e-06 -2.30485898e-06 -1.27421492e-06 1.16995454e-06
      2.65353174e-06 7.66235735e-06 1.30833232e-05 1.81835112e-05
      2.27120563e-05 2.54818660e-05 2.58196451e-05 2.40315712e-05
      1.98505822e-05 1.56583792e-05 1.10638630e-05 7.56971076e-06
      5.52799429e-06 5.84937698e-06 6.25871826e-06 5.91251865e-06
      4.78555603e-06 2.40763438e-06 -8.77817740e-07 -5.39202574e-06
      -1.10475057e-05 -1.52992216e-05 -1.82373315e-05 -1.79819381e-05
      -1.49252919e-05 -1.11447416e-05 -5.76772209e-06 -3.10520988e-07
      4.71115527e-06 7.53663517e-06 8.29378769e-06 6.48648256e-06
      4.56113912e-06 2.03769923e-06 6.57725536e-07 2.70794487e-07
      7.51491825e-06 6.63157107e-06 3.83425140e-06 1.64971243e-06
      -1.16763783e-06 -3.24584971e-06 -5.28504461e-06 -6.42457144e-06
      -7.34023206e-06 -7.61664296e-06 -7.79026868e-06 -5.95074380e-06
      -5.39894017e-06 -1.78412074e-06 2.36863912e-06 5.90576792e-06
      9.74978775e-06 1.10815554e-05 1.05603058e-05 8.98756753e-06
      5.66812696e-06 3.69061877e-06 2.45867022e-06 2.68026452e-06
      3.75277568e-06 7.01961562e-06 9.38915400e-06 9.34377931e-06
      7.57467842e-06 3.70366274e-06 -4.22873654e-07 -5.64595757e-06
      -1.09488728e-05 -1.35826313e-05 -1.49494754e-05 -1.35136816e-05
      -9.93533286e-06 -6.50538777e-06 -2.50411495e-06 9.41792507e-07
      4.05919718e-06 5.54600592e-06 5.80378128e-06 4.20155857e-06
      3.16371325e-06 1.84937460e-06 1.35099174e-06 1.01254295e-06
      -5.95520896e-06 -6.49130925e-06 -7.27119823e-06 -7.46517890e-06
      -7.59224304e-06 -6.95944436e-06 -7.55845076e-06 -8.27043914e-06
      -9.18163005e-06 -1.03371249e-05 -1.25541001e-05 -1.28480187e-05
      -1.39791127e-05 -1.29065411e-05 -1.07396700e-05 -9.12282212e-06
      -5.85710904e-06 -5.31349997e-06 -5.74335445e-06 -6.50585844e-06
      -8.25961797e-06 -8.34070124e-06 -6.63214496e-06 -3.79165203e-06
      -6.07720949e-07 4.37701101e-06 8.22271886e-06 8.93356264e-06
      7.48872162e-06 3.74567480e-06 5.94297092e-07 -3.04469836e-06
      -5.88378862e-06 -5.92761717e-06 -4.76857258e-06 -2.20416268e-06
      1.27641795e-06 3.37733013e-06 5.00063652e-06 5.16636965e-06
      5.39555595e-06 4.72350666e-06 4.07772950e-06 2.25062627e-06
      1.66361201e-06 1.28715988e-06 1.36215669e-06 8.94188702e-07
      -1.80043353e-05 -1.80525021e-05 -1.66733444e-05 -1.50653159e-05
      -1.22494075e-05 -9.40110567e-06 -8.65042784e-06 -8.60530326e-06
      -9.32307012e-06 -1.08591603e-05 -1.39354024e-05 -1.58704224e-05
      -1.74492143e-05 -1.77195743e-05 -1.67771595e-05 -1.59569663e-05
      -1.23559466e-05 -1.11321142e-05 -1.02446465e-05 -9.60352463e-06
      -9.61051228e-06 -9.09008031e-06 -6.91530749e-06 -5.13030955e-06
      -3.35691584e-06 -4.99763303e-07 1.97333293e-06 2.32688444e-06
      1.30576461e-06 -8.98344410e-07 -1.51197924e-06 -1.77541915e-06
      -1.21574635e-06 9.29699127e-07 3.93289338e-06 6.81147367e-06
      9.41344024e-06 9.79295601e-06 9.55604173e-06 7.25017799e-06
      5.65199798e-06 3.48781509e-06 2.44951161e-06 5.07794596e-07
      2.12167819e-07 2.81436286e-07 5.50692107e-07 3.73742388e-08
      -2.06107779e-05 -2.03172349e-05 -1.81484993e-05 -1.63724744e-05
      -1.24953685e-05 -9.71883674e-06 -8.89332478e-06 -8.37747666e-06
      -8.71988323e-06 -9.47981880e-06 -1.09403309e-05 -1.24581175e-05
      -1.25846782e-05 -1.20589257e-05 -1.11291083e-05 -9.90050830e-06
      -5.74952719e-06 -3.26341183e-06 -1.02397246e-06 7.58359988e-07
      1.72072430e-06 1.52962582e-06 1.90769765e-06 1.14963626e-07
      -1.42786348e-06 -2.64314826e-06 -2.95937343e-06 -3.38886161e-06
      -3.87288856e-06 -4.11039628e-06 -2.36710571e-06 7.37233776e-08
      2.40013151e-06 4.71755448e-06 7.27695806e-06 8.91383388e-06
      9.69150733e-06 8.14984014e-06 7.06457149e-06 3.92710490e-06
      2.26624638e-06 6.42337312e-08 -2.55684256e-07 -1.28579961e-06
      -4.08975069e-07 3.44914383e-07 9.85175348e-07 7.53072698e-07
      -1.17348991e-05 -1.14497398e-05 -1.01360065e-05 -9.64320770e-06
      -6.95277731e-06 -6.25176199e-06 -6.50981201e-06 -6.06779849e-06
      -6.30215345e-06 -5.88555349e-06 -4.82114638e-06 -4.87876514e-06
      -3.46471484e-06 -1.64481105e-06 -5.68932990e-07 8.26798441e-07
      4.31082390e-06 7.07616209e-06 9.23757216e-06 1.10997298e-05
      1.19258002e-05 1.09032653e-05 9.60482794e-06 5.50546520e-06
      2.37057634e-06 -9.35332366e-07 -2.49289860e-06 -2.78361381e-06
      -2.49458208e-06 -1.64378889e-06 5.19226091e-07 3.27414318e-06
      4.69255156e-06 5.31588967e-06 5.64159336e-06 5.12484030e-06
      4.00885210e-06 9.55044698e-07 -1.79164999e-07 -2.89691320e-06
      -3.66822792e-06 -4.71352996e-06 -3.46088245e-06 -2.36656160e-06
      8.53184076e-07 3.06964762e-06 4.70129089e-06 5.07494315e-06
      1.47934361e-06 1.61942944e-06 1.68075985e-06 9.58532155e-07
      1.88988338e-06 5.58802412e-07 -5.82912037e-07 -3.35008622e-07
      -8.63882349e-07 4.95540942e-09 2.28978729e-06 2.83074132e-06
      4.08571304e-06 5.58958027e-06 5.60515309e-06 5.52828078e-06
      6.42818486e-06 7.64999186e-06 7.85201155e-06 8.77538423e-06
      8.87637270e-06 8.10528581e-06 7.24536130e-06 4.28317435e-06
      2.50286303e-06 9.44028358e-08 -7.65569837e-07 -4.68514884e-07
      1.79600068e-08 3.47657505e-07 9.51452591e-07 2.35383277e-06
      1.88117633e-06 1.12948885e-06 -2.05264470e-07 -1.89121886e-06
      -3.43261650e-06 -6.44963256e-06 -6.91431705e-06 -8.42297959e-06
      -8.34652019e-06 -7.94534026e-06 -5.39707344e-06 -2.28753220e-06
      2.90191178e-06 6.38090160e-06 8.98066901e-06 9.93017420e-06
      1.05480076e-05 1.06469197e-05 1.01301903e-05 9.12585710e-06
      9.38117319e-06 7.53102358e-06 6.70409690e-06 7.29242174e-06
      6.57227292e-06 6.94865776e-06 8.85118425e-06 8.42766349e-06
      7.90205922e-06 7.28271107e-06 4.97825158e-06 2.27440455e-06
      -1.38430892e-07 -1.39995655e-06 -3.88873559e-06 -4.17346109e-06
      -4.89978493e-06 -4.62899334e-06 -3.48434537e-06 -3.35457389e-06
      -2.53140001e-06 -2.79827896e-06 -2.40039913e-06 -1.81974121e-06
      -1.99819738e-06 -3.00188640e-06 -4.33596642e-06 -4.23460597e-06
      -5.61004799e-06 -5.85690304e-06 -6.77580192e-06 -7.59151408e-06
      -7.70662791e-06 -8.97893733e-06 -8.42545342e-06 -8.62982051e-06
      -8.42574809e-06 -7.47090780e-06 -5.30388206e-06 -2.18858941e-06
      2.57515762e-06 5.57002477e-06 7.90481499e-06 8.93296783e-06
      1.27549565e-05 1.28406919e-05 1.23329755e-05 1.14949817e-05
      1.21433022e-05 1.08928352e-05 1.11058225e-05 1.25411052e-05
      1.19519036e-05 1.13735223e-05 1.23126520e-05 1.01276710e-05
      7.55131214e-06 4.69489532e-06 3.71262900e-07 -4.09761287e-06
      -8.32618662e-06 -1.10580022e-05 -1.50470014e-05 -1.59200408e-05
      -1.72509735e-05 -1.63049699e-05 -1.36873250e-05 -1.13537844e-05
      -8.83013126e-06 -7.43255259e-06 -6.23568349e-06 -5.53001246e-06
      -6.48143714e-06 -8.37931020e-06 -1.08156146e-05 -1.14731865e-05
      -1.28473530e-05 -1.17590962e-05 -1.11152913e-05 -9.92434161e-06
      -7.90942522e-06 -6.78412334e-06 -5.18736942e-06 -4.45665819e-06
      -4.50847620e-06 -3.99102282e-06 -3.62442438e-06 -2.52846121e-06
      -3.51448818e-07 5.65382663e-07 1.37211123e-06 1.93103710e-06
      8.51448658e-06 8.57571195e-06 8.35620540e-06 7.77108653e-06
      9.01860403e-06 8.60139608e-06 9.75472994e-06 1.19791503e-05
      1.17655045e-05 1.05550816e-05 1.09927723e-05 7.99039753e-06
      4.79146411e-06 1.49256459e-06 -2.86602176e-06 -6.96356301e-06
      -1.06649904e-05 -1.31005745e-05 -1.68592851e-05 -1.77931724e-05
      -1.94979184e-05 -1.88841223e-05 -1.65796482e-05 -1.41675191e-05
      -1.17262343e-05 -9.87617750e-06 -8.73803765e-06 -7.92810806e-06
      -9.15209512e-06 -1.11688432e-05 -1.39468129e-05 -1.53173969e-05
      -1.68824226e-05 -1.56658898e-05 -1.44529049e-05 -1.21230960e-05
      -9.05755405e-06 -6.22887364e-06 -3.62279843e-06 -2.11404631e-06
      -1.61533160e-06 -1.18916910e-06 -1.75001867e-06 -2.41651946e-06
      -2.45573665e-06 -3.28066449e-06 -3.88773560e-06 -3.84045052e-06
      4.49582615e-07 7.20290700e-07 1.13712383e-06 1.27590295e-06
      2.98318423e-06 3.38704763e-06 5.24126426e-06 7.68844347e-06
      8.12131839e-06 7.04571403e-06 7.88654143e-06 6.11470887e-06
      4.40708345e-06 2.75735397e-06 1.31841759e-07 -2.33343167e-06
      -4.55004556e-06 -6.23927417e-06 -9.31892373e-06 -1.05986846e-05
      -1.26785408e-05 -1.29308310e-05 -1.20166305e-05 -1.07287824e-05
      -9.52594382e-06 -8.18248918e-06 -7.64697779e-06 -6.66941605e-06
      -7.41094937e-06 -8.71127668e-06 -1.09938483e-05 -1.26952509e-05
      -1.45333961e-05 -1.45831400e-05 -1.47841802e-05 -1.35919845e-05
      -1.19676724e-05 -9.39842084e-06 -6.86187286e-06 -5.24265033e-06
      -3.51445442e-06 -2.40010741e-06 -1.76756578e-06 -2.33297806e-06
      -2.60873981e-06 -3.46251227e-06 -4.28843896e-06 -4.30511318e-06
      -5.86102260e-06 -4.97992096e-06 -3.64928610e-06 -2.15130012e-06
      4.32230394e-08 1.13427518e-06 3.38522773e-06 5.00821670e-06
      6.01466036e-06 5.18745355e-06 6.70658028e-06 7.17448665e-06
      7.80517621e-06 8.45556406e-06 7.54780240e-06 6.37171843e-06
      4.99437601e-06 3.12811380e-06 1.80492464e-07 -1.61373873e-06
      -3.81944574e-06 -4.40400981e-06 -4.27056602e-06 -3.81177642e-06
      -3.75889817e-06 -3.12993711e-06 -3.21223683e-06 -2.08439087e-06
      -1.96191513e-06 -1.96640053e-06 -2.74008084e-06 -3.69671648e-06
      -5.07078494e-06 -6.20306128e-06 -8.57675877e-06 -1.00493126e-05
      -1.16952760e-05 -1.12984044e-05 -1.07655196e-05 -1.03831508e-05
      -8.08218192e-06 -6.52605377e-06 -3.83830366e-06 -3.15255397e-06
      -2.55592499e-06 -2.20492325e-06 -2.30774071e-06 -2.00906879e-06
      -8.55304370e-06 -6.89693752e-06 -4.70688201e-06 -1.62396043e-06
      1.31383399e-06 2.93724952e-06 5.41869622e-06 5.43784790e-06
      6.67934091e-06 5.46712863e-06 6.95878407e-06 8.60624550e-06
      1.02972581e-05 1.20240456e-05 1.13360948e-05 1.03511074e-05
      8.84390920e-06 6.06505955e-06 3.11373287e-06 1.62233471e-06
      2.27866224e-07 5.30747968e-07 1.42734427e-06 2.03640025e-06
      1.90660148e-06 2.18476589e-06 1.51091103e-06 2.21799678e-06
      2.57200531e-06 3.42561771e-06 4.25572671e-06 4.72074862e-06
      4.47988441e-06 3.56990290e-06 2.88639825e-07 -3.00797115e-06
      -7.07183790e-06 -8.91527543e-06 -1.09024813e-05 -1.20476179e-05
      -1.00020643e-05 -8.65366292e-06 -4.64003006e-06 -2.96055623e-06
      -1.92513153e-06 -5.50942502e-07 4.43649881e-08 5.96926952e-07
      -1.05269719e-05 -8.41518340e-06 -5.76896946e-06 -1.54366307e-06
      2.24680321e-06 4.44696661e-06 7.51337438e-06 6.48587866e-06
      8.11035807e-06 6.41261340e-06 7.22022241e-06 8.30742465e-06
      8.99891347e-06 9.74438080e-06 7.71512987e-06 5.82860275e-06
      3.63872368e-06 1.86322282e-07 -2.23622806e-06 -2.30417845e-06
      -1.79308381e-06 4.50970361e-07 3.17769900e-06 4.74703393e-06
      5.42326097e-06 5.77822993e-06 4.35504535e-06 3.69689246e-06
      3.18652155e-06 3.61349612e-06 4.90038337e-06 6.49082631e-06
      7.35394087e-06 7.73036936e-06 5.51191488e-06 2.81217899e-06
      -9.42932445e-07 -3.46646993e-06 -6.47005390e-06 -7.95398046e-06
      -6.24576160e-06 -5.34040373e-06 -1.26017278e-06 4.41393183e-07
      9.41751750e-07 2.22197718e-06 2.88953743e-06 3.40958013e-06
      -1.05428298e-05 -8.65759193e-06 -6.43208978e-06 -2.35122320e-06
      1.45903709e-06 3.78430173e-06 7.31665205e-06 6.45869113e-06
      8.67780818e-06 7.22899449e-06 7.46569640e-06 7.31256341e-06
      6.14992450e-06 4.80209292e-06 1.28858426e-06 -1.86947307e-06
      -4.56892940e-06 -7.80532173e-06 -9.16112549e-06 -7.59727754e-06
      -5.11944972e-06 -1.09604434e-06 2.95937639e-06 5.38019322e-06
      7.02528268e-06 7.50688469e-06 5.38910444e-06 3.04464334e-06
      1.43492900e-06 4.63730487e-07 9.68131758e-07 2.84462635e-06
      4.31051785e-06 6.05230252e-06 5.89536057e-06 5.74400656e-06
      4.47294860e-06 2.78816356e-06 5.42343855e-07 -2.08949132e-07
      1.01348337e-06 1.22306869e-06 4.11778637e-06 4.84991915e-06
      4.24527207e-06 4.50869493e-06 4.80399285e-06 5.18569868e-06
      -4.22776293e-06 -3.24652660e-06 -2.71199178e-06 -5.82683128e-07
      1.37546863e-06 2.33468768e-06 4.97599967e-06 4.75092247e-06
      7.05989760e-06 6.50743914e-06 6.74437069e-06 6.00891644e-06
      3.74549086e-06 9.06506500e-07 -2.82488031e-06 -6.61449712e-06
      -9.05697289e-06 -1.13392689e-05 -1.16343781e-05 -9.48671004e-06
      -6.45128875e-06 -2.26150473e-06 1.17396542e-06 3.23397853e-06
      5.25374116e-06 5.69207941e-06 3.58703596e-06 6.68583823e-07
      -8.15749161e-07 -2.81103530e-06 -3.20022809e-06 -1.79367100e-06
      -3.69391216e-07 1.87326634e-06 3.32953164e-06 5.95921574e-06
      7.37158871e-06 6.90632669e-06 6.20158380e-06 6.27255395e-06
      6.33954232e-06 5.46905540e-06 6.33630043e-06 5.74028809e-06
      4.31271064e-06 3.62399282e-06 3.59232968e-06 3.97448048e-06
      6.77990465e-06 6.58539648e-06 4.69583347e-06 3.88049239e-06
      2.59387411e-06 8.71744476e-07 1.33399715e-06 1.33215667e-06
      2.92694745e-06 3.25768065e-06 4.02314254e-06 3.89450997e-06
      2.00049703e-06 -5.63489891e-07 -2.90057255e-06 -5.99289888e-06
      -7.22420464e-06 -8.29240253e-06 -7.99133522e-06 -6.57967666e-06
      -4.82904898e-06 -2.28373574e-06 -1.34708046e-06 -1.05170716e-06
      4.89104082e-07 5.60344802e-07 -8.22882555e-07 -2.73654723e-06
      -2.71006343e-06 -4.52435688e-06 -4.97934161e-06 -4.26336510e-06
      -3.34624906e-06 -1.51087261e-06 4.26680685e-07 4.60170122e-06
      7.31067848e-06 7.52156711e-06 8.15647581e-06 8.55482358e-06
      7.01795170e-06 5.11296957e-06 4.02954174e-06 2.60560410e-06
      1.23722418e-06 4.17872798e-07 3.10097761e-07 8.36843981e-07
      1.53316141e-05 1.42884346e-05 1.08978666e-05 8.23261871e-06
      4.64439336e-06 7.72327553e-07 -7.66449602e-07 -1.24382973e-06
      -9.33620754e-07 -4.29150589e-07 8.77325476e-07 1.97631744e-06
      1.71333534e-06 1.29539171e-06 1.70468149e-06 8.18518060e-07
      1.59071828e-06 1.73903663e-06 2.16459648e-06 2.25517283e-06
      1.52696771e-06 1.44718331e-06 -7.49502988e-07 -2.93143466e-06
      -2.96946632e-06 -4.08196502e-06 -5.09786287e-06 -5.83279689e-06
      -4.47818866e-06 -5.42119506e-06 -5.16450928e-06 -4.55282816e-06
      -3.78736627e-06 -2.03193053e-06 -1.04782579e-07 4.21098184e-06
      6.85569375e-06 7.29775184e-06 8.43738599e-06 8.50305787e-06
      5.71628743e-06 3.31631736e-06 1.13427529e-06 -3.81380147e-07
      -1.15950229e-06 -1.43953741e-06 -1.45604167e-06 -8.56596387e-07
      1.49649804e-05 1.37820252e-05 1.10185692e-05 8.99534552e-06
      6.01991314e-06 2.20016227e-06 9.02595048e-08 -1.13320664e-06
      -2.07095377e-06 -2.06830669e-06 -5.78060508e-07 1.47944593e-06
      3.17734612e-06 5.47370291e-06 8.80597599e-06 1.04613709e-05
      1.28133706e-05 1.34241864e-05 1.33586682e-05 1.19702299e-05
      8.51920959e-06 5.84871941e-06 1.27903843e-06 -2.77979120e-06
      -4.74524131e-06 -7.22825280e-06 -8.29790497e-06 -8.54429163e-06
      -6.92988078e-06 -6.88543378e-06 -5.61152274e-06 -4.28190515e-06
      -2.77771051e-06 -7.68912827e-08 2.14495117e-06 5.82271969e-06
      7.91073126e-06 8.57919622e-06 9.25187942e-06 8.40448502e-06
      5.16201226e-06 2.87263970e-06 5.37164397e-07 -6.92499725e-07
      -1.04494666e-06 -6.69561189e-07 -4.83268479e-07 -4.75174353e-08
      5.67678217e-06 4.90450611e-06 3.99430155e-06 4.01636271e-06
      3.54885128e-06 1.47846833e-06 1.15890415e-07 -1.35628125e-06
      -2.74081549e-06 -3.01097612e-06 -1.43711168e-06 1.03773914e-06
      3.89920842e-06 7.54624807e-06 1.20521690e-05 1.46161619e-05
      1.64935918e-05 1.59512037e-05 1.45550111e-05 1.16071751e-05
      6.38438905e-06 2.44893204e-06 -2.35502557e-06 -5.88016428e-06
      -7.74221280e-06 -9.52205028e-06 -9.30143597e-06 -8.58625845e-06
      -6.90639990e-06 -5.89702040e-06 -4.06668551e-06 -2.47532239e-06
      -5.85744203e-07 2.58951991e-06 4.80975586e-06 7.24294659e-06
      8.59504871e-06 9.40064274e-06 9.14229258e-06 7.18884348e-06
      4.04980028e-06 2.18583023e-06 2.59488985e-07 -6.97106145e-07
      -8.64455671e-07 5.36261737e-08 6.09880601e-07 7.81621509e-07
      -3.85590738e-06 -4.19608568e-06 -4.06511708e-06 -3.06912693e-06
      -2.19156959e-06 -2.98488339e-06 -3.53773476e-06 -4.70808209e-06
      -5.72252748e-06 -5.58382271e-06 -3.86569855e-06 -1.43891373e-06
      1.38077417e-06 4.37360450e-06 7.70901988e-06 9.29068483e-06
      8.97932750e-06 6.48059495e-06 3.61099978e-06 -3.48857753e-07
      -5.45180410e-06 -8.69682663e-06 -1.14435688e-05 -1.18776934e-05
      -1.08382037e-05 -9.41044982e-06 -6.15526505e-06 -3.34439756e-06
      -1.11516511e-06 5.17273065e-07 1.97638519e-06 2.37465065e-06
      3.08932840e-06 4.87626130e-06 5.96733935e-06 6.55625672e-06
      6.94073469e-06 7.47923696e-06 6.41703582e-06 3.62610103e-06
      6.61472370e-07 -8.46022374e-07 -2.18536638e-06 -3.05982599e-06
      -3.01332534e-06 -1.63122058e-06 -5.11341170e-07 -4.19415755e-07
      -6.20139190e-06 -6.32558340e-06 -6.55847907e-06 -6.42634268e-06
      -6.43559224e-06 -7.31912678e-06 -7.70144652e-06 -8.48568015e-06
      -8.89911917e-06 -8.16122247e-06 -6.56074144e-06 -4.67599330e-06
      -2.64309620e-06 -1.22928225e-06 6.32301749e-08 4.75921837e-07
      -1.39641179e-06 -4.54554129e-06 -7.56280588e-06 -1.10661986e-05
      -1.42061799e-05 -1.57453851e-05 -1.61148710e-05 -1.36312674e-05
      -9.80434561e-06 -5.76838147e-06 -3.74018839e-07 4.16753392e-06
      6.89239550e-06 8.57596933e-06 9.40811697e-06 8.41241763e-06
      7.50367417e-06 6.97918040e-06 6.37184530e-06 5.13003442e-06
      4.41870134e-06 4.20537572e-06 2.62728395e-06 -3.59398740e-07
      -3.14376416e-06 -4.26146562e-06 -4.77847834e-06 -5.36793959e-06
      -4.90956199e-06 -3.05242497e-06 -1.28857096e-06 -9.83053610e-07
      -3.90796140e-06 -3.78244249e-06 -4.65887933e-06 -5.78490653e-06
      -7.07722711e-06 -8.16228567e-06 -8.48480340e-06 -8.83633857e-06
      -8.68316238e-06 -7.57482985e-06 -6.58247473e-06 -5.65088612e-06
      -4.56665157e-06 -4.39049927e-06 -4.39326868e-06 -4.19645448e-06
      -5.64134689e-06 -7.43463079e-06 -8.82168752e-06 -1.03535158e-05
      -1.07280739e-05 -1.09298726e-05 -1.03901857e-05 -7.46299338e-06
      -3.67863277e-06 -2.04612306e-07 4.15045224e-06 8.37881998e-06
      1.08781860e-05 1.21009170e-05 1.27669191e-05 1.17172995e-05
      1.03894954e-05 8.48818127e-06 6.88031332e-06 4.58604791e-06
      2.98692203e-06 1.93658570e-06 3.79377639e-07 -1.77460299e-06
      -3.77158858e-06 -3.82047574e-06 -2.88579940e-06 -2.33826836e-06
      -1.19551612e-06 1.14496049e-06 3.27131602e-06 3.92595757e-06
      -2.24256587e-06 -1.69180191e-06 -2.63918082e-06 -4.27935356e-06
      -5.74516525e-06 -6.12784288e-06 -5.99987152e-06 -5.63190861e-06
      -4.78172933e-06 -3.29117051e-06 -3.10038899e-06 -3.11837880e-06
      -2.84095449e-06 -3.22195206e-06 -3.57854969e-06 -3.19785204e-06
      -3.37004280e-06 -3.44684327e-06 -2.86452655e-06 -2.18437162e-06
      -5.96531947e-07 -5.94029018e-07 -4.23848547e-07 1.08212066e-06
      2.73867204e-06 3.56554256e-06 4.63236802e-06 6.73047134e-06
      8.46143030e-06 9.00868326e-06 9.88774718e-06 9.86931627e-06
      9.40818700e-06 7.93757772e-06 6.74342891e-06 4.40694885e-06
      2.60541174e-06 1.23693326e-06 5.13069153e-07 1.55739883e-08
      -4.06850688e-07 1.19646450e-06 3.92409720e-06 5.97255257e-06
      7.73429747e-06 1.01686974e-05 1.19594533e-05 1.27969652e-05
      -1.75655623e-06 -7.75046999e-07 -1.29752243e-06 -2.70701275e-06
      -3.40337056e-06 -2.44168609e-06 -1.51157167e-06 -2.02866190e-07
      1.49521941e-06 3.49430798e-06 2.99809335e-06 2.15906539e-06
      1.62780429e-06 8.34566492e-07 1.12387198e-07 6.13398399e-08
      1.00370130e-07 3.16326577e-07 1.44656872e-06 3.02388798e-06
      4.73663067e-06 3.82867574e-06 3.35051391e-06 3.40248857e-06
      3.20148524e-06 1.92000152e-06 1.53825141e-07 8.76623147e-08
      1.32207549e-06 1.68952295e-06 3.07672735e-06 4.31280978e-06
      5.35092522e-06 5.73059242e-06 6.13407838e-06 4.52104996e-06
      3.29314821e-06 2.21757227e-06 2.62135222e-06 3.43967781e-06
      4.33184596e-06 6.83815961e-06 1.03965376e-05 1.27408093e-05
      1.42407735e-05 1.57776576e-05 1.65329275e-05 1.71763932e-05
      -7.35245749e-07 5.29198530e-07 6.45744421e-07 -1.47552401e-10
      4.70114912e-07 2.81566940e-06 4.69363977e-06 6.75356978e-06
      8.97437349e-06 1.09760267e-05 9.68198765e-06 7.61038064e-06
      5.77455239e-06 4.01217403e-06 2.12738701e-06 8.47432261e-07
      -2.82891477e-07 -1.03402851e-06 -8.05195498e-07 1.56851911e-07
      8.30893157e-07 -1.09978077e-06 -1.69079806e-06 -1.92080165e-06
      -2.31397894e-06 -3.90240393e-06 -6.27279223e-06 -7.07694699e-06
      -5.74188380e-06 -4.89072227e-06 -3.01453906e-06 -9.03522960e-07
      1.54934025e-06 3.82544704e-06 5.86931856e-06 5.22050141e-06
      4.82773976e-06 4.35030643e-06 5.40476003e-06 6.33973241e-06
      7.36240600e-06 9.22493655e-06 1.19264005e-05 1.28427018e-05
      1.29225937e-05 1.26412051e-05 1.21750090e-05 1.23635327e-05
      1.30164165e-06 2.54839847e-06 3.16113506e-06 3.35793698e-06
      4.84112888e-06 7.97339999e-06 1.05199306e-05 1.27994572e-05
      1.48302606e-05 1.59397550e-05 1.37063626e-05 1.00338966e-05
      6.54814176e-06 3.42936937e-06 1.86150757e-07 -2.08233882e-06
      -4.01517718e-06 -5.19538571e-06 -5.46896399e-06 -5.06965671e-06
      -4.82318364e-06 -6.57047804e-06 -6.40448388e-06 -5.80821552e-06
      -5.13452551e-06 -5.80775531e-06 -6.85721079e-06 -7.13187092e-06
      -5.78120216e-06 -4.84999191e-06 -3.47530749e-06 -1.73506180e-06
      8.21412414e-07 3.29607587e-06 5.48788375e-06 5.25609494e-06
      5.22693244e-06 5.33576167e-06 6.45003047e-06 6.67225504e-06
      7.06348828e-06 7.63478693e-06 8.80263360e-06 7.97593202e-06
      6.48331161e-06 4.60640467e-06 3.42228918e-06 3.27653652e-06
      2.73733190e-06 3.49007200e-06 4.05644914e-06 4.51668438e-06
      6.18946206e-06 8.98498547e-06 1.14278464e-05 1.33758758e-05
      1.47792389e-05 1.47353267e-05 1.21051744e-05 7.68169775e-06
      3.24605230e-06 -6.27295890e-07 -4.16529247e-06 -6.26431165e-06
      -7.26404687e-06 -7.34218975e-06 -6.54400037e-06 -5.43333181e-06
      -4.14697024e-06 -4.23581150e-06 -2.75257707e-06 -1.18919002e-06
      4.31465793e-07 6.66725725e-07 1.16940862e-06 1.39656038e-06
      1.95868097e-06 1.76828189e-06 1.49268044e-06 1.55288444e-06
      2.58977980e-06 3.31168371e-06 3.99644568e-06 3.42217709e-06
      3.09908887e-06 3.47733703e-06 4.29387865e-06 3.78659024e-06
      3.73087028e-06 3.66092809e-06 4.10016582e-06 2.88436718e-06
      1.05292463e-06 -9.64452852e-07 -1.89670436e-06 -2.01416287e-06
      1.36074630e-06 1.32438379e-06 1.44407329e-06 1.69344878e-06
      2.76743617e-06 4.35506263e-06 5.96719929e-06 7.17937291e-06
      7.96275890e-06 7.14952512e-06 5.00142005e-06 1.40883219e-06
      -2.71609338e-06 -6.33747641e-06 -9.11024199e-06 -1.05778909e-05
      -1.01313271e-05 -8.77388720e-06 -6.50975380e-06 -4.19269600e-06
      -1.17892387e-06 9.89158480e-07 3.99096689e-06 6.06860067e-06
      7.78633148e-06 8.24399285e-06 9.09368737e-06 8.79328945e-06
      7.86500095e-06 6.02954833e-06 4.16927696e-06 2.77572917e-06
      2.37110316e-06 1.25975839e-06 5.70127554e-07 -2.32475287e-07
      -7.56763825e-07 -4.40015953e-07 -5.59178659e-08 -8.81618291e-07
      -8.14111729e-07 -5.90940431e-07 2.33772411e-07 2.36493634e-07
      -3.79514432e-07 -1.04378250e-06 -7.98314545e-07 -6.58708075e-07
      -2.70269402e-06 -3.26002464e-06 -3.33949652e-06 -2.96767075e-06
      -2.37371296e-06 -1.97282748e-06 -1.31331819e-06 -1.01589876e-06
      -7.75399883e-07 -2.13421595e-06 -3.54811095e-06 -5.38463519e-06
      -8.40114626e-06 -1.11815416e-05 -1.29924802e-05 -1.42005510e-05
      -1.33933790e-05 -1.15229486e-05 -8.61425906e-06 -5.70419525e-06
      -1.47441142e-06 2.32210618e-06 6.52020890e-06 8.34124967e-06
      9.10804283e-06 8.85698591e-06 8.63919377e-06 6.95573272e-06
      4.72054262e-06 2.11977454e-06 -6.53271854e-08 -1.38607538e-06
      -1.77875143e-06 -3.29341674e-06 -4.02736941e-06 -4.53293569e-06
      -4.65312814e-06 -4.49835261e-06 -4.39780206e-06 -5.07646655e-06
      -4.46705008e-06 -3.54838357e-06 -1.92456423e-06 -1.56456935e-07
      1.01658657e-06 2.12802843e-06 3.79883977e-06 4.10107214e-06
      -6.95652579e-06 -7.40019914e-06 -7.05195725e-06 -5.87765908e-06
      -4.92480240e-06 -5.01603699e-06 -4.86318959e-06 -5.33975799e-06
      -5.66601329e-06 -7.69339204e-06 -8.88535851e-06 -9.15872715e-06
      -1.09577750e-05 -1.26446294e-05 -1.35581276e-05 -1.45064023e-05
      -1.40585607e-05 -1.23969157e-05 -9.38325411e-06 -6.58292493e-06
      -2.29699799e-06 1.65253130e-06 6.01860393e-06 6.76904983e-06
      5.86740043e-06 4.38288589e-06 2.74444301e-06 7.50598783e-09
      -2.33001629e-06 -4.26446013e-06 -5.59516229e-06 -5.97305598e-06
      -5.73412217e-06 -6.84416545e-06 -7.20682419e-06 -7.74736964e-06
      -7.45191028e-06 -7.48473212e-06 -7.32704848e-06 -7.52450842e-06
      -6.26037217e-06 -4.78748416e-06 -2.54765405e-06 3.93414069e-07
      2.78746575e-06 5.10298787e-06 7.57439057e-06 7.78534377e-06
      -9.62631839e-06 -9.52613118e-06 -8.33250488e-06 -6.02492537e-06
      -3.92637776e-06 -3.64152083e-06 -3.26521695e-06 -4.04050388e-06
      -4.85564533e-06 -7.49643141e-06 -9.07678259e-06 -8.71138400e-06
      -9.70210476e-06 -1.03129305e-05 -1.03463244e-05 -1.07307033e-05
      -1.04955725e-05 -9.32347302e-06 -6.42184523e-06 -4.26016004e-06
      -9.37296420e-07 2.00027489e-06 5.69855547e-06 5.64392121e-06
      3.79214453e-06 1.77796312e-06 -3.85394372e-07 -3.05923959e-06
      -4.44393845e-06 -5.34966330e-06 -5.99331361e-06 -6.25578832e-06
      -6.15170984e-06 -7.30754664e-06 -8.04747560e-06 -9.36481320e-06
      -9.17341549e-06 -9.29296493e-06 -8.75001570e-06 -8.31218131e-06
      -6.54168025e-06 -4.81597908e-06 -2.26314364e-06 8.60810928e-07
      3.52245752e-06 6.14222245e-06 8.49162643e-06 8.54290647e-06
      -1.06556718e-05 -1.00615962e-05 -8.18827357e-06 -4.96867415e-06
      -1.64265373e-06 -4.67218513e-07 8.37346818e-07 4.90494983e-07
      -4.03885906e-07 -3.07559617e-06 -4.99937005e-06 -4.83810527e-06
      -5.65397113e-06 -5.60848775e-06 -4.99366115e-06 -4.84312932e-06
      -4.62281469e-06 -4.10505527e-06 -1.70628175e-06 -7.05843604e-07
      1.18333344e-06 2.77882009e-06 5.52007896e-06 5.59144200e-06
      4.30837190e-06 2.98006694e-06 1.36790732e-06 -4.51606127e-07
      -8.87611918e-07 -1.49172615e-06 -2.45305182e-06 -3.81789368e-06
      -4.51420419e-06 -6.24009226e-06 -7.86316468e-06 -9.80959430e-06
      -9.82123493e-06 -9.62245576e-06 -8.44845454e-06 -7.35047979e-06
      -5.33789535e-06 -3.52641086e-06 -9.89313094e-07 1.46317541e-06
      3.49617267e-06 5.50839195e-06 7.11345865e-06 7.22928098e-06
      -1.00074512e-05 -9.23689731e-06 -7.34408331e-06 -3.87942555e-06
      -1.11474883e-07 1.66673340e-06 4.15575460e-06 4.92499748e-06
      4.58743125e-06 2.65032759e-06 1.23740278e-06 1.15099760e-06
      1.17736583e-07 2.10418065e-07 8.73583872e-07 1.15733383e-06
      1.20446384e-06 9.97871098e-07 2.52080349e-06 2.02615183e-06
      2.50673838e-06 2.87048215e-06 4.45159549e-06 4.69287806e-06
      4.54208293e-06 4.28079784e-06 3.62160813e-06 2.85925717e-06
      2.91753599e-06 2.27114265e-06 8.04736146e-07 -1.53060216e-06
      -2.60519437e-06 -4.66377651e-06 -6.82731297e-06 -8.60008822e-06
      -8.57177474e-06 -7.88061516e-06 -6.16762645e-06 -4.62408570e-06
      -2.66972415e-06 -7.86324506e-07 1.43843249e-06 2.81614894e-06
      3.62308197e-06 4.41151724e-06 5.08922813e-06 5.52012307e-06
      -8.03127205e-06 -7.32364424e-06 -5.91863909e-06 -2.79048095e-06
      5.67468874e-07 2.26163957e-06 5.59787986e-06 7.60026296e-06
      8.13019324e-06 7.18547790e-06 7.00770988e-06 7.13985719e-06
      5.91092703e-06 5.68532550e-06 5.78619438e-06 5.73007719e-06
      5.24976940e-06 4.30157024e-06 4.89817330e-06 3.07330606e-06
      2.58828231e-06 2.17725619e-06 2.77815366e-06 2.74245940e-06
      3.33598427e-06 3.76250750e-06 3.83001407e-06 3.92530274e-06
      4.17319416e-06 3.73420039e-06 2.37965651e-06 6.38723705e-08
      -6.36786922e-07 -2.50731478e-06 -4.68580583e-06 -5.93675804e-06
      -5.90822310e-06 -5.11301096e-06 -3.32389482e-06 -1.73869023e-06
      -5.40680993e-08 1.92273842e-06 3.81795326e-06 4.35364018e-06
      4.03400600e-06 3.70092425e-06 3.65983965e-06 4.42065993e-06
      -6.86286057e-06 -6.21801655e-06 -5.10838254e-06 -2.23065035e-06
      7.87587965e-07 2.28575277e-06 5.89848969e-06 8.43828548e-06
      9.39242364e-06 8.90336469e-06 9.41082908e-06 9.76913725e-06
      8.49041862e-06 8.07175820e-06 7.78502817e-06 7.45961916e-06
      6.62974526e-06 5.31089108e-06 5.48367734e-06 3.11335089e-06
      2.30640762e-06 1.67911173e-06 1.93461210e-06 1.70176907e-06
      2.53154485e-06 3.17475019e-06 3.49583797e-06 3.92244510e-06
      4.20963033e-06 3.94365543e-06 2.80571453e-06 7.27880490e-07
      3.44426610e-07 -1.33342314e-06 -3.42959106e-06 -4.44486204e-06
      -4.47935008e-06 -3.77640777e-06 -2.08437677e-06 -5.79327548e-07
      9.45659679e-07 2.97227257e-06 4.74967783e-06 5.00105580e-06
      4.25204144e-06 3.49138895e-06 3.18785146e-06 4.08031974e-06
      9.88157240e-07 5.81714403e-07 5.85155703e-07 9.01123144e-07
      1.45322144e-06 2.85517126e-06 4.23243546e-06 4.22100629e-06
      2.60418415e-06 1.36291760e-06 1.62679885e-06 1.50944709e-06
      -4.18792069e-07 -1.47547678e-06 -6.65476932e-07 7.56935833e-07
      9.72585099e-07 2.30421833e-07 -7.01108320e-07 -2.24723681e-06
      -3.01809723e-06 -3.76904472e-06 -2.56968701e-06 -1.51342260e-06
      -4.60256189e-07 1.68884696e-06 1.45253580e-06 1.77704749e-06
      2.93095854e-06 3.19720152e-06 2.34949698e-06 -4.34561098e-09
      -2.37676841e-06 -3.44702198e-06 -3.00328065e-06 -1.41870805e-06
      -8.78194726e-07 -1.73425826e-06 -3.02960416e-06 -4.10346001e-06
      -4.35243874e-06 -3.71952910e-06 -2.04658886e-06 -1.56908769e-07
      1.27398494e-06 1.71123679e-06 1.59994909e-06 2.18753144e-06
      -6.72389547e-07 -1.50283120e-06 -1.62149024e-06 -5.70759028e-07
      1.05427785e-06 2.99642443e-06 4.71205249e-06 5.81164932e-06
      4.50690322e-06 1.74272850e-06 1.40459099e-06 1.17876016e-06
      8.28139548e-07 -4.02038864e-08 -5.94888434e-07 8.03010778e-07
      2.04941261e-06 1.23781717e-06 -2.39719018e-08 -2.42382362e-06
      -4.21225877e-06 -6.09668405e-06 -5.52359006e-06 -3.09718598e-06
      -9.74888792e-08 9.65197728e-07 1.03334287e-06 7.10570873e-07
      7.69960877e-07 1.39917756e-06 2.71196313e-06 2.74582590e-06
      1.08618099e-06 -8.47799129e-07 -1.62074764e-06 -1.32160346e-06
      -1.25743964e-06 -1.18248579e-06 -1.74608681e-06 -1.11651832e-06
      -1.47577680e-06 -3.28871852e-06 -4.57213355e-06 -3.05894514e-06
      -1.43729267e-06 7.50359703e-08 8.64828621e-07 1.06290463e-06
      -3.29100817e-06 -3.58513057e-06 -4.24300106e-06 -3.77251399e-06
      -1.47805076e-06 1.59612011e-06 4.12361214e-06 5.60431590e-06
      5.62148443e-06 3.88287708e-06 9.31710929e-07 -2.76457570e-07
      -1.33437766e-07 3.03373149e-08 -6.50899779e-08 1.63204831e-07
      1.42254567e-06 2.73892601e-06 2.14185980e-06 2.52208395e-07
      -2.40137501e-06 -5.59509772e-06 -7.39935558e-06 -6.49540061e-06
      -2.50242078e-06 -2.27232690e-07 2.66828181e-07 -1.16815080e-07
      -9.07892456e-07 -1.11788052e-06 -5.22022333e-07 1.76921105e-06
      3.02702301e-06 2.40823579e-06 1.07767698e-06 6.20687103e-07
      1.01872395e-07 -4.71337927e-07 -9.29236762e-07 3.27249609e-07
      2.36748633e-06 1.71301417e-06 -1.65296342e-06 -3.90139303e-06
      -4.04462617e-06 -3.17992408e-06 -2.28365866e-06 -1.76611491e-06
      -3.85824342e-06 -3.26995655e-06 -3.16273758e-06 -2.91267133e-06
      -1.75832429e-06 8.34127377e-07 3.06673951e-06 4.92104164e-06
      5.24036432e-06 3.42576413e-06 1.78265759e-06 -2.90242696e-07
      -5.55727468e-07 -4.51199782e-07 -7.94996708e-08 1.34315400e-07
      3.90473872e-07 2.15603131e-06 3.59850674e-06 3.13798478e-06
      1.05561651e-06 -2.49858476e-06 -4.94779761e-06 -6.29015904e-06
      -3.79340759e-06 -8.82908409e-07 4.98493137e-07 1.97493378e-07
      -3.65129125e-07 -4.52768404e-07 -7.53240954e-07 -3.86245489e-07
      1.97513850e-06 4.02075239e-06 3.70062003e-06 2.47833805e-06
      1.09624750e-06 1.18052174e-06 -2.98679446e-08 -5.30167313e-07
      1.38684027e-06 3.50081268e-06 2.58389491e-06 -2.72602335e-07
      -2.77403433e-06 -3.63548202e-06 -3.29948148e-06 -3.16674596e-06
      -1.79806023e-06 -4.92138042e-07 5.41105010e-07 7.57557359e-07
      1.99090482e-06 3.89341994e-06 4.46547801e-06 4.76914238e-06
      4.44215038e-06 2.86138356e-06 2.10506460e-06 9.28926397e-07
      6.40805638e-07 8.30527313e-07 7.64368224e-07 1.17634249e-06
      -7.82479958e-07 -9.79662104e-07 2.23614776e-07 2.17583761e-06
      2.75640878e-06 8.32869716e-07 -1.43063596e-06 -3.47038281e-06
      -3.12574662e-06 -9.65343133e-07 8.41581993e-07 1.36113988e-06
      1.31521074e-06 1.60553896e-06 1.26104521e-06 4.86569888e-07
      1.33685376e-07 1.11329325e-06 1.67412884e-06 1.50098845e-06
      8.83180348e-07 1.27868429e-06 8.01387955e-07 4.71968832e-07
      1.98993035e-07 1.68682664e-06 2.11442671e-06 1.24910775e-06
      -8.19080753e-07 -2.82754490e-06 -3.08333233e-06 -2.95392010e-06
      -2.08081929e-06 -9.21452283e-07 5.18290449e-07 2.00487625e-06
      4.00294357e-06 6.23755022e-06 8.18066928e-06 7.90816739e-06
      5.25636415e-06 3.04574178e-06 1.88077524e-06 1.51003553e-06
      2.61411878e-06 3.95805637e-06 3.43381635e-06 2.67309974e-06
      9.90189164e-07 -8.02198713e-07 -2.60129355e-06 -1.79361609e-06
      -2.52482373e-08 1.16324566e-06 5.72593933e-07 -4.10842944e-07
      -4.53398826e-07 3.46180627e-07 1.14028694e-06 9.40832933e-07
      1.28529382e-06 2.00517638e-06 2.15854061e-06 2.02325850e-06
      5.44520162e-07 -6.12551048e-07 -1.08470647e-06 -1.13785597e-06
      -1.10136943e-06 -6.21730010e-08 3.62982888e-07 1.35673156e-06
      9.02417355e-07 7.16193199e-07 8.27209533e-07 5.96204018e-07
      -8.39599238e-07 -2.47271737e-06 -2.96092617e-06 -2.54157135e-06
      -2.08565939e-06 -1.54076258e-06 -4.83857775e-07 6.21223421e-07
      2.73435808e-06 5.51969015e-06 7.12815017e-06 7.61624869e-06
      6.43004932e-06 4.29734564e-06 2.73475803e-06 1.80172901e-06
      2.00019963e-06 3.83545239e-06 5.61706111e-06 4.64682262e-06
      2.48279775e-06 1.44962473e-06 -3.02068827e-07 -1.92639595e-06
      -1.69173120e-06 -9.49616137e-08 1.07356652e-06 1.72698037e-06
      1.55431803e-06 2.21059895e-06 1.87345688e-06 9.98152700e-07
      3.42381327e-07 5.38286088e-07 5.09034351e-07 1.53456608e-06
      1.39936719e-06 1.95150548e-07 -8.13510724e-07 -1.82438873e-06
      -2.00028398e-06 -9.68658810e-07 -1.95351419e-07 5.91620619e-07
      1.24003168e-06 1.05743140e-06 8.78992410e-07 5.08448352e-07
      -1.08912127e-06 -3.31703222e-06 -3.86273996e-06 -3.34226274e-06
      -2.84635144e-06 -2.58343880e-06 -1.88015224e-06 -1.43790555e-06
      -2.91325364e-07 1.44699277e-06 3.66575341e-06 4.61108266e-06
      4.59361172e-06 2.28645717e-06 1.89516254e-06 1.55696966e-06
      1.92479047e-06 2.66013126e-06 3.39592657e-06 4.16759440e-06
      3.10938731e-06 2.94010692e-06 2.20663992e-06 7.50974436e-07
      -1.10562340e-07 1.53193596e-07 1.24137318e-06 3.07761616e-06
      4.06110439e-06 3.78301570e-06 2.98765235e-06 1.98702514e-06
      1.56430610e-06 1.27296789e-06 4.60584850e-08 -2.38675540e-07
      -1.83506117e-07 1.12865397e-08 -1.43087831e-07 -1.27370731e-06
      -1.93974097e-06 -1.68223073e-06 -8.07694960e-08 1.07634912e-06
      1.95823168e-06 1.81116377e-06 1.24459893e-06 7.71077339e-07
      -2.98645489e-07 -1.90216076e-06 -3.78966115e-06 -4.83137410e-06
      -3.81560903e-06 -3.67210350e-06 -3.08719905e-06 -3.29191653e-06
      -3.52958864e-06 -3.01917748e-06 -1.77226923e-06 -8.81655126e-07
      9.62594413e-08 -1.17804461e-07 -2.25504451e-07 -1.07455080e-07
      5.86133524e-07 1.55817872e-06 2.37506219e-06 1.87747003e-06
      1.57699537e-06 2.14043052e-06 2.87377043e-06 2.69072166e-06
      1.72955947e-06 9.64345872e-07 1.43348871e-07 1.46642697e-06
      2.49639834e-06 4.47897082e-06 3.93181699e-06 3.61628918e-06
      3.58367265e-06 3.30110652e-06 2.93602966e-06 1.84792930e-06
      2.14727521e-07 -7.71941416e-07 -7.23481151e-07 -1.40496525e-06
      -2.08527536e-06 -2.59676108e-06 -1.31920308e-06 2.23133981e-07
      1.57103784e-06 2.72633520e-06 2.70091800e-06 1.88761385e-06
      8.51461380e-07 2.33814902e-07 -1.28531349e-06 -3.10855398e-06
      -1.87431351e-06 -2.94540951e-06 -2.81836810e-06 -2.14231363e-06
      -2.66886991e-06 -3.32236573e-06 -3.65820119e-06 -3.59295473e-06
      -3.17258082e-06 -2.60085221e-06 -1.13884244e-06 1.96082283e-07
      1.01818546e-06 1.86408488e-06 2.44318107e-06 1.82259578e-06
      1.56946567e-06 9.45438558e-07 7.69147562e-07 1.30885132e-06
      2.10240000e-06 2.53433814e-06 1.75995751e-06 1.35851406e-06
      -1.16307168e-08 1.37177301e-06 3.00752572e-06 4.48954643e-06
      5.19243576e-06 5.34249375e-06 5.44605928e-06 5.35574372e-06
      3.92551647e-06 1.39334554e-06 1.11554414e-06 5.31589137e-07
      -9.07164576e-07 -2.66258598e-06 -2.66010625e-06 -1.68933843e-06
      -3.93336308e-07 1.12272619e-06 2.27814985e-06 2.52723271e-06
      2.30035312e-06 2.39482733e-06 1.86025966e-06 1.67634255e-07
      -6.24573715e-07 -1.10304995e-06 -1.16920899e-06 -5.45349621e-07
      -6.53304369e-07 -5.83751500e-08 -1.55659473e-06 -1.39217548e-06
      -2.17223146e-06 -2.47947219e-06 -1.47954734e-06 2.46000553e-07
      2.43666432e-06 2.94765573e-06 2.70037526e-06 1.89137188e-06
      1.60091338e-06 1.07240339e-06 2.64285802e-07 -8.57376506e-07
      4.05166070e-08 2.82325573e-06 4.53541588e-06 4.60599404e-06
      2.91822107e-06 1.36259791e-06 5.17447347e-07 2.60801767e-06
      4.80515291e-06 5.58949250e-06 6.51261234e-06 8.16514239e-06
      9.02484226e-06 6.01406964e-06 3.49785796e-06 3.27351540e-06
      2.68299937e-06 2.89836720e-07 -1.57242198e-06 -1.95253460e-06
      -1.51164409e-06 -9.08325603e-07 -2.68471808e-07 9.02485965e-07
      2.05886658e-06 3.10378596e-06 4.23884921e-06 3.92608581e-06
      -1.63537777e-06 -1.16468880e-06 -7.42393070e-07 -5.61017089e-07
      -7.38535846e-07 1.27002875e-06 -1.73550291e-07 7.73010171e-08
      -3.43469225e-07 -1.01703006e-06 -1.06237530e-06 -2.15890225e-07
      1.12086798e-06 2.96200733e-06 3.34581205e-06 1.49981986e-06
      8.52231437e-07 2.52845354e-07 -9.89566161e-07 -2.05147171e-06
      -2.58326031e-06 -4.23550773e-07 3.71412921e-06 6.69365545e-06
      7.27771794e-06 5.55592351e-06 2.30851151e-06 8.60550017e-07
      1.75419109e-06 3.37640085e-06 4.28321528e-06 7.08930247e-06
      9.82996062e-06 9.20212005e-06 6.30841123e-06 6.01187958e-06
      7.33651950e-06 6.64036133e-06 3.27133853e-06 3.00748781e-07
      -2.56470287e-07 4.71234074e-08 1.13210611e-07 -7.30758245e-07
      2.86212696e-07 2.20945435e-06 4.06814161e-06 4.89580179e-06
      -3.05469371e-06 -1.39704150e-06 1.75107537e-08 2.20075378e-07
      -1.36690971e-06 2.98110677e-07 1.04519017e-07 4.72088317e-07
      -2.42810046e-07 -8.70595272e-07 -1.66169218e-06 -2.60886463e-06
      -2.03168361e-06 -5.91503635e-07 1.73961155e-06 1.85237514e-06
      1.93400425e-07 -7.38432789e-07 -2.02218098e-06 -3.59536875e-06
      -4.36795335e-06 -4.57738724e-06 -1.93133928e-06 3.32378863e-06
      7.53369886e-06 7.98888050e-06 5.23531116e-06 1.76002163e-06
      -2.11572811e-07 3.70690231e-07 1.27075384e-06 2.53396388e-06
      6.21833942e-06 7.91454841e-06 7.06300170e-06 5.89259253e-06
      8.32461228e-06 9.54513689e-06 8.37368771e-06 5.45339935e-06
      2.35030825e-06 1.73010676e-06 1.96692940e-06 1.49907919e-06
      3.55718214e-07 1.13263866e-06 3.15999864e-06 4.52439281e-06
      -1.90134733e-06 -1.36588585e-06 -4.77612616e-07 9.22816582e-07
      -1.05884885e-06 -2.27609098e-06 -2.52263430e-06 -2.71454792e-06
      -2.43619388e-06 -2.13236535e-06 -2.99388239e-06 -5.18471188e-06
      -6.57831515e-06 -5.43661599e-06 -3.13585247e-06 -9.25236293e-07
      -4.35428092e-07 -1.85878821e-06 -2.46777495e-06 -3.20375148e-06
      -4.51670394e-06 -6.09256949e-06 -6.13755628e-06 -2.51101119e-06
      2.18968194e-06 6.84738143e-06 4.66640404e-06 2.21700793e-06
      -2.60777597e-07 -1.66213863e-06 -4.98209474e-08 2.03524124e-07
      1.00284615e-06 3.68836049e-06 5.28362079e-06 4.23119218e-06
      5.09087840e-06 8.19849083e-06 9.01209478e-06 8.42004738e-06
      5.16850059e-06 3.35020991e-06 2.63543120e-06 1.48936635e-06
      4.54327477e-07 -6.10686641e-07 3.45025171e-07 1.94862423e-06
      -1.17483569e-06 -1.14327543e-06 -9.38673054e-07 -1.23862122e-07
      -1.98433952e-07 -3.31047045e-06 -6.16844318e-06 -5.87655086e-06
      -5.12647512e-06 -4.23862866e-06 -3.91488175e-06 -6.04478601e-06
      -9.42606584e-06 -9.67807136e-06 -7.97867415e-06 -5.52651636e-06
      -3.22444521e-06 -2.56726821e-06 -3.90221703e-06 -4.25912413e-06
      -4.49970275e-06 -5.79692141e-06 -6.76675108e-06 -5.28432065e-06
      -2.44457874e-06 1.84976568e-06 1.46589309e-06 1.33931792e-06
      1.77820468e-07 -5.68904113e-07 -1.28727365e-07 2.42187593e-06
      1.62383492e-06 1.58148623e-06 2.26923453e-06 2.40714303e-06
      1.21761036e-06 3.35068330e-06 5.86014448e-06 7.71417581e-06
      6.68744087e-06 4.76075002e-06 2.88272986e-06 4.95396534e-07
      -2.07611492e-06 -3.85655585e-06 -3.77088463e-06 -2.70897135e-06
      -3.14745307e-07 -8.48295315e-07 -1.18925675e-06 -1.05489221e-06
      -1.23741984e-06 -1.37200232e-06 -4.68222424e-06 -5.88717512e-06
      -4.01587249e-06 -3.29537170e-06 -3.23574909e-06 -3.86463898e-06
      -6.72937449e-06 -8.88483646e-06 -8.03046078e-06 -6.64003164e-06
      -5.20272806e-06 -3.85025533e-06 -3.72353679e-06 -4.22970834e-06
      -5.31869182e-06 -5.60710532e-06 -5.97930875e-06 -5.14040630e-06
      -3.60409103e-06 1.25859106e-06 -1.99677700e-07 2.20039936e-07
      7.09537403e-07 1.63426330e-06 3.01178829e-06 4.66580741e-06
      5.27873044e-06 3.52772258e-06 2.05827155e-06 1.39098790e-06
      -5.87688191e-07 -5.98771862e-07 2.48617596e-07 3.16018600e-06
      3.87919545e-06 3.46590082e-06 2.42238025e-06 3.42514028e-07
      -1.77876564e-06 -4.89088598e-06 -6.21422123e-06 -6.01956799e-06
      1.88466515e-06 7.28169596e-07 4.84639973e-09 -5.51559594e-07
      -1.39392819e-06 -1.45891386e-06 -1.10523229e-06 -1.95722805e-06
      -6.20993490e-07 3.55801063e-07 3.31489900e-07 -5.49038148e-08
      -2.10179496e-06 -4.45516889e-06 -4.58056275e-06 -3.40252109e-06
      -3.10755559e-06 -4.33238392e-06 -4.25982716e-06 -3.74341425e-06
      -4.35578204e-06 -4.71971771e-06 -4.41622797e-06 -4.28880594e-06
      -4.19705566e-06 4.20774825e-07 -1.50132678e-07 -1.71461750e-07
      -3.44859416e-07 2.29431180e-06 3.93819619e-06 5.88019157e-06
      6.92177582e-06 5.20567755e-06 2.54120710e-06 1.63905759e-06
      -7.03285821e-07 -3.50080404e-06 -3.46403112e-06 -1.94303516e-06
      -4.36499960e-07 -2.13605247e-07 8.59038551e-07 -8.45896977e-07
      -1.51019219e-06 -2.56207386e-06 -3.78537584e-06 -5.15066586e-06
      4.04712500e-06 3.44816885e-06 2.75538810e-06 1.75908792e-06
      2.81812191e-07 -1.29341197e-06 -8.07238905e-07 4.43460237e-07
      2.10829103e-06 3.57353952e-06 3.30575085e-06 2.74244508e-06
      1.25489817e-06 -1.57062527e-06 -2.94599658e-06 -2.49089271e-06
      1.43453360e-06 3.42823296e-06 -3.93735206e-07 -2.04652883e-06
      -2.13502062e-06 -2.31203967e-06 -3.32329250e-06 -2.93387188e-06
      -3.13020109e-06 -2.54370121e-07 1.02488457e-06 5.60528065e-07
      -4.63764849e-07 2.09609993e-06 5.84091822e-06 7.52374126e-06
      8.93284050e-06 6.93287484e-06 4.37042490e-06 2.37425138e-06
      1.10524422e-06 -7.07022537e-07 -3.33753110e-06 -4.78600759e-06
      -3.33460866e-06 -3.19198716e-06 -1.69935481e-06 -1.53750750e-06
      -2.21967525e-06 -2.22340395e-06 -1.44806256e-06 -1.69834186e-06
      7.59841942e-06 7.20092157e-06 6.73534169e-06 5.24491634e-06
      2.75815842e-06 2.09724888e-07 -3.34021109e-07 -4.22087609e-08
      2.39688484e-06 5.02920193e-06 5.32832746e-06 4.37163953e-06
      3.20077402e-06 7.28689216e-08 -1.91713025e-06 -3.26965346e-06
      5.03584090e-07 7.20890330e-06 7.67974325e-06 3.22356004e-06
      5.79217897e-07 -5.16487319e-07 -1.24294377e-06 -1.69167868e-06
      -1.68353176e-06 2.78847267e-07 1.19282447e-06 4.97734675e-07
      -1.20013192e-06 7.61808053e-07 4.15930162e-06 9.43736086e-06
      9.72272665e-06 8.51656296e-06 6.80922585e-06 4.02035676e-06
      1.84945645e-06 1.70754583e-06 1.22474557e-06 -4.41762580e-07
      -2.61856644e-06 -3.29908403e-06 -2.12886675e-06 -1.59135232e-06
      -1.53813403e-06 -1.75645368e-06 -1.41960243e-06 -1.05928279e-06
      9.56076747e-06 9.72328326e-06 1.00447141e-05 8.80913103e-06
      6.14912642e-06 2.21105483e-06 2.86852043e-07 -5.72551698e-07
      1.33277081e-06 3.31799220e-06 5.89479168e-06 5.93230425e-06
      4.68370808e-06 2.18117543e-06 -1.16147930e-06 -2.29562647e-06
      -2.63604124e-06 3.76918342e-06 8.84168276e-06 7.65311324e-06
      4.48350102e-06 2.73892670e-06 1.42921795e-06 -1.46767505e-07
      -9.68985432e-07 -9.44367173e-07 3.35131091e-07 1.07157700e-06
      -1.04267450e-07 -1.23182247e-07 1.52534699e-06 5.98641554e-06
      9.18310343e-06 8.54803693e-06 6.95832205e-06 6.24414861e-06
      4.51993856e-06 2.45225260e-06 2.52935934e-06 3.17095919e-06
      2.82982364e-06 1.22216431e-06 -6.90195407e-07 -1.35094660e-06
      -1.24608994e-06 -8.20904233e-07 -6.56795180e-07 -9.90015451e-07
      6.58898261e-06 7.82475217e-06 9.37665209e-06 1.02056993e-05
      9.39354049e-06 6.10511506e-06 1.88640831e-06 1.70215756e-07
      1.08692120e-07 5.20159176e-07 2.30594151e-06 5.00641227e-06
      4.70249097e-06 3.46630713e-06 6.22893765e-07 -1.00286661e-06
      -2.25377471e-06 -8.47414697e-07 3.58730858e-06 5.81684480e-06
      5.30287207e-06 3.24740677e-06 9.28377005e-07 -1.55556825e-06
      -2.15732939e-06 -2.78758307e-06 -2.30646151e-06 -1.28714044e-06
      1.74224311e-07 8.23742823e-07 7.81417725e-07 3.12320026e-06
      5.84717463e-06 6.25422990e-06 5.79819789e-06 5.24173765e-06
      5.48042271e-06 3.60651075e-06 2.84304474e-06 3.11186659e-06
      3.08227550e-06 3.97952363e-06 3.91174672e-06 2.02946762e-06
      -2.72283742e-08 -3.96772236e-07 4.89026434e-07 6.81449080e-07
      -1.65603211e-07 1.48909498e-06 3.84222221e-06 6.50363290e-06
      8.02697650e-06 8.56289989e-06 6.00753310e-06 2.79807978e-06
      9.85225938e-07 2.23720861e-07 2.80387304e-08 -1.04135687e-07
      1.24223300e-06 3.46535501e-07 -8.23313655e-07 -1.47032961e-06
      -1.61189621e-06 -1.96316046e-06 -8.22033257e-07 1.72189152e-06
      3.78786831e-06 2.27728538e-06 -2.05662190e-07 -2.37157155e-06
      -2.69605584e-06 -3.99551527e-06 -3.99764303e-06 -4.26697989e-06
      -3.57895487e-06 -1.74203615e-06 5.61904701e-09 1.68756674e-06
      3.51334802e-06 4.31705939e-06 4.04748471e-06 3.24837310e-06
      3.66871723e-06 4.09251788e-06 3.03579304e-06 2.65453423e-06
      9.95405799e-07 1.89172135e-06 2.69021348e-06 2.46494233e-06
      5.06222079e-07 -9.30916656e-07 -5.44047111e-07 7.44397326e-08
      -8.60440468e-06 -7.51829566e-06 -4.80723338e-06 -9.35834464e-07
      2.76525066e-06 5.72354838e-06 7.25470454e-06 5.45140665e-06
      2.96784128e-06 1.15477462e-06 1.32552805e-06 -8.00799285e-07
      -2.20827383e-06 -2.36004121e-06 -3.32420450e-06 -3.75977015e-06
      -3.56299665e-06 -3.52377219e-06 -3.93867595e-06 -2.68520830e-06
      4.29815401e-07 2.40363534e-06 1.41874636e-06 -9.02260979e-07
      -2.59318108e-06 -2.05175684e-06 -2.01479384e-06 -3.60014133e-06
      -4.95676613e-06 -4.92273966e-06 -2.78095808e-06 -4.28323602e-07
      9.59758836e-07 1.58880437e-06 1.53800818e-06 7.01648503e-07
      5.15327429e-07 8.97687016e-07 1.61728428e-06 2.04642924e-06
      1.29989269e-06 -5.04142292e-07 -2.11189004e-07 -5.37363405e-07
      -1.49295090e-06 -2.92393497e-06 -3.80920414e-06 -3.35525601e-06
      -1.04358924e-05 -1.13333863e-05 -1.05111876e-05 -8.20181685e-06
      -3.92727361e-06 1.18482910e-06 4.73125147e-06 5.36262041e-06
      4.16460216e-06 2.64496634e-06 2.35275957e-06 1.61230446e-06
      -1.13865485e-06 -2.09939276e-06 -2.69112365e-06 -3.79563085e-06
      -3.69137047e-06 -3.16147862e-06 -3.30879448e-06 -2.68558369e-06
      -7.27269196e-07 2.02234583e-06 4.09958147e-06 2.36225492e-06
      -4.89229478e-07 -6.78478841e-07 5.91122046e-07 5.06333095e-07
      -1.23358654e-06 -4.08134611e-06 -4.64851428e-06 -2.73115029e-06
      -4.32418290e-07 1.50138055e-06 1.72021794e-06 3.17578412e-07
      -6.12865790e-07 -1.30676642e-06 -6.21736376e-07 6.93571337e-07
      1.48897254e-06 5.16396632e-08 -7.53328891e-07 -1.56805618e-06
      -2.12472423e-06 -3.79469338e-06 -4.99954785e-06 -5.37625101e-06
      -4.80932158e-06 -6.57803639e-06 -7.86396231e-06 -8.26657470e-06
      -6.31389275e-06 -2.31614263e-06 2.19739968e-06 4.48527044e-06
      3.68427004e-06 2.59086733e-06 2.15101659e-06 1.68925033e-06
      4.68510308e-07 -1.38848247e-06 -2.52955942e-06 -2.10579469e-06
      -1.83152792e-06 -1.82987208e-06 -2.35160633e-06 -2.39753831e-06
      -4.47862476e-07 3.49609491e-06 6.28186262e-06 8.44692022e-06
      5.22660321e-06 1.65125948e-06 1.47864910e-06 2.10302574e-06
      2.39139627e-06 9.72209591e-07 -1.59685828e-06 -2.88538990e-06
      -2.14693819e-06 -6.30438592e-07 6.48875755e-07 3.17052098e-07
      -3.06403933e-07 -1.11469899e-06 -1.11258692e-06 -4.79652442e-07
      8.78033632e-07 8.16770694e-07 7.51630068e-07 2.93400120e-07
      -1.28603119e-06 -2.69558677e-06 -4.14789429e-06 -4.99070757e-06
      2.63736524e-06 1.07075471e-06 -1.41685894e-06 -3.67143844e-06
      -4.07067500e-06 -2.41189355e-06 4.28746745e-07 3.79726998e-06
      3.76226467e-06 2.31525587e-06 1.09671430e-06 4.05431933e-07
      -3.95146316e-08 -1.29683860e-06 -2.24607561e-06 -2.85485203e-06
      -1.46706179e-06 -1.41741350e-06 -2.09747213e-06 -2.67460678e-06
      -2.50066569e-06 8.10558447e-07 5.88894545e-06 9.53778726e-06
      1.07375363e-05 9.06281821e-06 4.94533742e-06 3.11512485e-06
      3.46290244e-06 3.53649352e-06 2.56440899e-06 1.12179475e-06
      -6.08415291e-07 -6.24429504e-07 -1.02139768e-06 -1.45764875e-06
      -2.16014132e-06 -3.12466477e-06 -3.46950333e-06 -2.34921754e-06
      -1.57644627e-06 -9.83252448e-08 1.49803338e-06 2.34671734e-06
      1.41400085e-06 1.88572558e-09 -1.82611382e-06 -4.07937023e-06
      4.55611644e-06 5.57690510e-06 4.33687546e-06 2.67508608e-06
      1.82417534e-06 1.63083052e-06 1.56176202e-06 2.70524265e-06
      3.19541164e-06 2.10612939e-06 6.25442567e-07 -1.45871456e-06
      -2.64199389e-06 -3.93256278e-06 -4.38177221e-06 -5.16353566e-06
      -3.57308318e-06 -1.67994040e-06 -7.33053412e-07 -2.52800260e-06
      -3.08946323e-06 -1.98843122e-06 2.86460272e-06 8.48145282e-06
      1.16641040e-05 1.29036325e-05 1.12373964e-05 8.14374562e-06
      5.37748929e-06 4.97703331e-06 4.18673881e-06 3.39386042e-06
      2.09064797e-06 7.96618906e-07 -5.22095263e-07 -1.29525142e-06
      -2.99575277e-06 -4.56239741e-06 -6.15663839e-06 -5.87668046e-06
      -4.04157072e-06 -2.24990799e-06 3.44272678e-07 2.51972961e-06
      3.86151851e-06 3.24792722e-06 1.66762402e-06 2.13435868e-07
      9.11071481e-07 1.86634793e-06 2.89598916e-06 2.88037586e-06
      3.21564607e-06 4.05001447e-06 3.28647752e-06 2.53249027e-06
      2.35367861e-06 1.11154873e-06 4.83347492e-07 -2.05631090e-06
      -4.20802871e-06 -5.90172522e-06 -7.17515286e-06 -8.18147419e-06
      -6.09016206e-06 -2.20127140e-06 1.15976127e-06 1.54399368e-06
      -1.31612148e-06 -2.26640213e-06 1.74121809e-07 4.74097942e-06
      8.80502103e-06 1.11544050e-05 1.15720541e-05 1.07280821e-05
      9.57239354e-06 6.20711899e-06 4.55094005e-06 3.89431307e-06
      3.25801238e-06 2.64881896e-06 6.14645046e-07 -9.89432010e-07
      -1.37344250e-06 -2.66333245e-06 -4.83537815e-06 -6.32227329e-06
      -5.93152708e-06 -4.15524437e-06 -1.17157799e-06 1.72108207e-06
      4.09577206e-06 5.46630918e-06 4.68344433e-06 3.04872628e-06
      -1.11750535e-06 -1.80670236e-06 -2.12920554e-06 -1.49568245e-06
      -8.04620697e-07 9.47568026e-07 2.64855794e-06 2.73915930e-06
      2.38178836e-06 1.13911483e-06 1.22033998e-06 -8.89281523e-07
      -3.04445507e-06 -3.97258736e-06 -5.19023979e-06 -6.12461190e-06
      -5.90735181e-06 -3.27451289e-06 1.55188229e-06 4.45502701e-06
      3.81677546e-06 -5.78721313e-07 -1.87094111e-06 -6.90803972e-07
      2.81790904e-06 5.76954380e-06 6.91756622e-06 6.87853480e-06
      7.77947116e-06 7.40846554e-06 6.40175631e-06 4.70553869e-06
      3.78212803e-06 3.19675974e-06 1.76561480e-06 2.34848059e-07
      -3.86845933e-08 -8.06899365e-08 -1.24681765e-06 -2.87727426e-06
      -3.69033842e-06 -4.07087509e-06 -1.83646580e-06 7.97379300e-07
      2.51138999e-06 4.46478498e-06 5.57611656e-06 5.25943415e-06
      -1.07366179e-06 -2.44216062e-06 -4.34210824e-06 -5.59061209e-06
      -6.05480818e-06 -5.97575763e-06 -3.40819565e-06 -3.65897051e-07
      6.99892624e-08 5.06956383e-07 2.00217505e-06 2.20405786e-06
      1.23368557e-06 -3.98542113e-07 -1.62182869e-06 -1.63585537e-06
      -2.28121326e-06 -2.71433828e-06 -1.23789880e-06 1.49567120e-06
      2.25416557e-06 -3.51849820e-07 -3.28576402e-06 -4.81025654e-06
      -3.31175920e-06 5.63573792e-07 1.85036936e-06 1.71430554e-06
      8.95353594e-07 1.95985763e-06 3.02103217e-06 2.91845527e-06
      1.74431716e-06 8.72106568e-07 1.56581643e-06 1.17108175e-06
      6.29764145e-07 3.25144413e-07 4.11070260e-07 -1.27618563e-07
      -7.46773708e-07 -8.03806358e-07 -3.04714149e-07 3.71206781e-08
      7.70520330e-07 1.37614518e-06 1.75698904e-06 1.89841330e-06
      1.28827583e-06 -1.20556535e-07 -1.97095960e-06 -4.44286343e-06
      -6.72409442e-06 -8.81545111e-06 -9.44526073e-06 -6.26565907e-06
      -3.73123817e-06 -2.34968957e-06 -3.19135296e-07 2.83229087e-06
      4.32797924e-06 4.11541214e-06 1.87735066e-06 2.64236320e-07
      -7.92526464e-07 -1.43090176e-06 -2.69329348e-06 -2.11838164e-06
      -2.73207456e-06 -5.26631402e-06 -5.76267439e-06 -6.76444279e-06
      -6.97103451e-06 -5.05272601e-06 -2.81840767e-06 -1.45469687e-06
      -3.27552607e-06 -3.46566344e-06 -2.01919215e-06 -1.64313496e-06
      -1.31659658e-06 -2.08659094e-06 -1.39547774e-06 4.41935583e-07
      1.43927571e-06 1.37029554e-06 6.24978043e-07 -3.68319377e-07
      -9.95756153e-08 6.87067882e-07 4.01978951e-07 4.10256234e-07
      6.02529042e-07 1.08352776e-06 1.11738404e-06 5.91446621e-07
      3.28289752e-06 3.35197865e-06 1.49712230e-06 -9.83912514e-07
      -2.74801232e-06 -5.75780723e-06 -7.61852289e-06 -7.23694302e-06
      -6.37649828e-06 -5.20540107e-06 -4.25848748e-06 -1.19398896e-06
      2.77324079e-06 4.69275983e-06 4.44420994e-06 3.08793051e-06
      6.49421224e-07 -1.01866135e-07 -6.07885340e-07 -6.34185540e-07
      -2.27395890e-06 -5.29004819e-06 -6.23048436e-06 -6.25281564e-06
      -7.16227851e-06 -7.13996587e-06 -5.68079577e-06 -2.91179208e-06
      -2.53402118e-06 -5.40899919e-06 -5.79040716e-06 -5.25390305e-06
      -4.30751243e-06 -3.05212666e-06 -2.57524766e-06 -1.61313267e-06
      -7.03412582e-07 9.13914619e-07 1.54380177e-06 1.99571730e-07
      -8.62082402e-07 -3.22543741e-07 8.26498592e-07 1.34809034e-06
      1.74170953e-06 2.03395325e-06 2.59026183e-06 2.29192028e-06
      2.29687589e-06 3.23851896e-06 3.20751542e-06 1.06870550e-06
      -9.33330284e-07 -2.41948692e-06 -3.78468758e-06 -3.88929266e-06
      -4.43092949e-06 -5.08894573e-06 -4.59811827e-06 -4.01068064e-06
      -9.64556534e-07 2.02252158e-06 4.22789935e-06 4.65216863e-06
      3.71620354e-06 2.99277008e-06 2.83745430e-06 4.10987832e-06
      3.48304116e-06 1.48229253e-06 -1.39810948e-06 -3.01791238e-06
      -5.02511421e-06 -6.58439194e-06 -7.08629887e-06 -4.43427689e-06
      -1.13337376e-06 1.00185069e-07 -2.62660956e-06 -4.56729822e-06
      -5.88251578e-06 -5.00569240e-06 -3.20791014e-06 -1.31125171e-06
      -7.71335351e-07 1.57923012e-07 1.35438006e-06 1.68774579e-06
      9.64949294e-08 -1.55079772e-06 -6.59967270e-07 1.16553940e-06
      2.14506349e-06 2.85270448e-06 3.72732370e-06 3.86951433e-06
      2.11262272e-06 2.95525501e-06 3.18941397e-06 2.21852497e-06
      3.27600276e-07 -8.28884424e-07 -8.42198062e-07 -1.49787496e-07
      -3.28940558e-07 -1.30220621e-06 -2.42505689e-06 -2.79530059e-06
      -2.54348424e-06 -1.28402235e-06 1.51040217e-06 3.77730362e-06
      4.25034114e-06 4.64195864e-06 4.64272944e-06 5.81168661e-06
      6.65094103e-06 8.09534049e-06 5.13689338e-06 2.29650004e-06
      -8.95572100e-07 -4.16017929e-06 -6.27481950e-06 -7.71798295e-06
      -4.26584756e-06 1.36507958e-06 3.01542423e-06 1.17920820e-06
      -1.23865470e-06 -2.18432956e-06 -3.12984548e-06 -1.99891178e-06
      -9.88185178e-08 1.18528453e-06 1.89048671e-06 2.06170216e-06
      1.49481195e-06 -9.09827804e-07 -2.12938130e-06 -1.47312164e-06
      5.88435682e-07 2.10401754e-06 2.99008411e-06 3.58343891e-06
      2.10453891e-06 3.24494931e-06 3.85733119e-06 3.69544705e-06
      2.16129115e-06 1.32598103e-07 -3.00976069e-07 8.37257744e-07
      1.25235135e-06 6.71539681e-07 3.24142604e-07 -3.31569055e-07
      -3.16080815e-07 -7.75263459e-07 -2.90985867e-07 1.34886523e-06
      3.20579625e-06 5.04068112e-06 4.49382151e-06 4.76362266e-06
      5.54947064e-06 7.89618025e-06 7.96039876e-06 4.55265535e-06
      6.25814607e-07 -2.88694901e-06 -6.57202463e-06 -8.78873107e-06
      -8.69899941e-06 -3.56575174e-06 2.17366869e-06 5.92648803e-06
      5.98077168e-06 3.51718995e-06 7.43597070e-07 -1.41381759e-06
      -1.77402103e-06 -7.30547868e-07 1.59317381e-06 2.18734112e-06
      1.76567346e-06 9.49780656e-07 -1.51638949e-06 -2.73578803e-06
      -2.13104931e-06 -2.87462456e-07 1.42626277e-06 1.90974924e-06
      2.89464651e-06 3.57089607e-06 3.81196674e-06 4.10136727e-06
      3.20805225e-06 8.49335777e-07 -1.40076122e-06 -1.52242978e-06
      -7.62881939e-07 -1.19605693e-06 -8.71127611e-07 -1.46444978e-09
      2.02308661e-06 2.61008677e-06 1.62363813e-06 1.04049798e-06
      3.12165207e-06 4.30102909e-06 3.62547121e-06 2.87038665e-06
      1.99251690e-06 2.66300890e-06 6.54965288e-06 5.07893265e-06
      1.71909426e-06 -2.43421255e-06 -6.08973733e-06 -7.73856573e-06
      -8.91752370e-06 -8.03669172e-06 -4.04364346e-06 1.69143800e-06
      5.94127596e-06 8.30841600e-06 5.52698384e-06 2.47474600e-06
      2.55223682e-08 -1.72087937e-06 -1.12116595e-06 -4.24363265e-08
      5.93047560e-07 4.55065702e-07 -2.89601871e-07 -2.18481500e-06
      -2.79916935e-06 -2.82846554e-06 -1.95398457e-06 -9.81226094e-07
      3.75542254e-06 3.97686426e-06 3.73775765e-06 3.62223273e-06
      3.27415978e-06 1.72004650e-06 -1.13677675e-06 -2.61242076e-06
      -2.77282925e-06 -2.42024612e-06 -2.17708362e-06 -1.64300388e-06
      8.44546605e-07 3.31367823e-06 3.86409192e-06 2.47835351e-06
      1.63953621e-06 3.17240915e-06 2.32752268e-06 2.02265369e-06
      5.84702434e-07 4.11152399e-07 2.18895434e-06 4.19016715e-06
      3.79354719e-06 1.46177035e-06 -2.01442390e-06 -3.93052005e-06
      -3.40167662e-06 -3.89975230e-06 -5.07160212e-06 -3.87730961e-06
      -1.00938814e-06 4.28022122e-06 6.61776949e-06 5.35193294e-06
      3.82688131e-06 2.12526970e-06 -1.95166720e-07 -1.21826065e-06
      -1.10465987e-06 -1.10605004e-06 -1.43926991e-06 -1.89618424e-06
      -2.11340011e-06 -2.17528918e-06 -2.11262000e-06 -2.09510927e-06
      3.37945676e-06 3.20147888e-06 3.17425634e-06 2.51301526e-06
      2.83830445e-06 2.92008394e-06 1.44424700e-06 -1.26902637e-06
      -2.31244849e-06 -1.46179570e-06 -9.71080681e-07 -9.14436043e-07
      -8.43824424e-08 8.39047175e-07 1.52657435e-06 2.94940060e-06
      2.36205960e-06 2.26437919e-06 3.10372161e-06 3.08964309e-06
      9.76623483e-07 1.58585564e-07 7.53683651e-07 2.51303914e-06
      3.08149288e-06 2.67863720e-06 1.50435892e-06 -9.57472537e-08
      1.30681747e-06 1.39682629e-06 9.92455966e-07 -2.11400970e-06
      -3.51999370e-06 -1.85605813e-06 1.07584708e-06 3.84982286e-06
      4.78143875e-06 4.95660697e-06 3.80413644e-06 1.08334154e-06
      -7.25985217e-07 -1.90663627e-06 -2.32452271e-06 -2.47534263e-06
      -2.13919225e-06 -1.10985832e-06 -7.39082566e-07 -1.01048408e-06
      2.14879515e-06 2.30031515e-06 2.22315089e-06 1.37689983e-06
      1.21652897e-06 1.58208661e-06 2.37683548e-06 2.11715314e-06
      1.35375717e-06 1.28620263e-06 2.15843238e-06 1.68227064e-06
      1.13103704e-06 9.38007531e-07 -1.64841993e-07 -1.42427893e-07
      1.21828396e-06 2.32846992e-06 3.78009054e-06 4.70962914e-06
      3.19679316e-06 2.15780710e-06 5.88022431e-07 8.37295715e-07
      2.32422417e-06 1.70545388e-06 1.83780037e-06 6.59551745e-07
      1.54710028e-06 2.29350371e-06 3.03062870e-06 2.16670037e-06
      -2.67937935e-07 -1.55540556e-06 -1.25103008e-06 -4.83915770e-08
      2.23986422e-06 3.70926796e-06 4.81519510e-06 4.23055508e-06
      2.31565878e-06 -4.42556285e-07 -1.96837073e-06 -2.96268831e-06
      -2.76459332e-06 -1.93929986e-06 -6.06675030e-07 -4.88260696e-07
      8.73748945e-07 1.87445119e-06 2.55213604e-06 1.80086181e-06
      5.02260562e-08 -8.55807912e-07 -2.10068606e-07 1.22169922e-06
      2.31578906e-06 3.96279120e-06 5.24949746e-06 5.04664695e-06
      3.81781274e-06 2.96443704e-06 1.48651725e-06 -1.74951310e-07
      -1.54522070e-06 -4.08290845e-07 2.16264107e-06 4.47705088e-06
      4.63970628e-06 3.10657219e-06 1.09338691e-06 3.57304003e-07
      -1.62159239e-07 -6.99420639e-07 -1.93735400e-06 -7.23896676e-07
      -1.08813697e-06 -2.03164788e-07 -2.67259423e-07 1.14132479e-06
      1.12304065e-06 1.01199788e-07 1.89492667e-07 1.32128184e-06
      2.29374132e-06 1.62267384e-06 2.57852457e-06 3.17820513e-06
      3.45978992e-06 2.23783309e-06 4.39712267e-07 -1.32182754e-06
      -2.72705120e-06 -2.74415265e-06 -2.28121280e-06 -2.06293521e-06
      -2.55964352e-07 3.61166144e-07 2.08404640e-06 2.88906108e-06
      1.85344697e-06 6.79623469e-08 -8.76286265e-07 -6.13201848e-07
      6.26577275e-07 2.99428916e-06 5.72415775e-06 6.62033290e-06
      5.54541612e-06 4.59237299e-06 4.58734485e-06 3.29309660e-06
      1.14074794e-06 -1.03280763e-06 -1.14930299e-06 7.94790708e-07
      2.85821989e-06 2.48509627e-06 7.94505411e-07 -4.18664200e-07
      -7.51949699e-07 -1.90476567e-06 -4.55536610e-06 -5.34376068e-06
      -4.62482376e-06 -3.39195435e-06 -2.61964078e-06 -7.11625148e-07
      -1.99256121e-07 4.74507402e-07 4.68984496e-07 2.48030119e-06
      3.09964457e-06 1.56733859e-06 6.26853534e-07 5.22255107e-07
      5.48877665e-07 4.61578963e-07 3.19903791e-07 -5.84361317e-07
      -1.83781935e-06 -2.75375692e-06 -3.17153490e-06 -3.62395508e-06
      5.34088485e-07 -1.38364697e-07 5.83338817e-07 2.19211051e-06
      2.50013841e-06 2.04904677e-06 1.64285950e-06 1.43279635e-06
      2.18879131e-06 2.62470735e-06 4.23051551e-06 5.35419304e-06
      5.08145831e-06 3.30248417e-06 2.73757337e-06 3.41907207e-06
      3.77171432e-06 2.05272727e-06 -5.39874804e-07 -2.79173150e-06
      -1.36710503e-06 9.38477740e-07 1.27195926e-06 3.12915006e-07
      -9.59051476e-07 -1.39702820e-06 -3.88818489e-06 -6.92096364e-06
      -8.56315364e-06 -7.26684948e-06 -5.37205369e-06 -1.82276460e-06
      5.24751556e-07 1.34999232e-06 1.50776964e-06 2.33558990e-06
      2.10395410e-06 8.60134776e-07 -4.40163575e-07 -8.26815153e-07
      -1.38413429e-06 -1.93925734e-06 -2.55195391e-06 -2.77991217e-06
      -3.57029580e-06 -3.80075903e-06 -4.23177335e-06 -4.50376001e-06
      1.86204352e-06 1.13252918e-06 1.41363202e-07 2.02097311e-07
      1.21471362e-06 2.09929635e-06 2.74602348e-06 3.41684313e-06
      4.30337059e-06 4.07730522e-06 3.89922116e-06 3.82983308e-06
      2.53773237e-06 8.09524465e-07 -6.54486243e-08 5.19019466e-07
      2.07868516e-06 2.86601585e-06 1.46297987e-06 -9.50166907e-07
      -2.37768722e-06 -8.98578321e-07 1.15318596e-06 1.98040016e-06
      1.51415600e-06 1.57041654e-07 -1.98592784e-06 -4.95401810e-06
      -8.19837624e-06 -9.82397705e-06 -7.98947076e-06 -4.66383290e-06
      -3.16895239e-07 3.54101030e-06 4.43873296e-06 3.39535904e-06
      1.72927673e-06 9.60421744e-07 4.79459459e-07 1.14265916e-07
      -5.58342379e-07 -1.27500732e-06 -2.49302366e-06 -3.59578507e-06
      -4.35869060e-06 -4.79234723e-06 -5.15278816e-06 -4.95567247e-06
      3.16587034e-06 2.63804873e-06 1.24578673e-06 -5.49179845e-07
      -9.30311217e-07 -3.12381275e-07 9.45294914e-07 2.50252106e-06
      4.33598279e-06 4.27252235e-06 3.29284626e-06 2.22160747e-06
      9.45936051e-07 -2.19000754e-06 -2.67312498e-06 -1.08663801e-06
      7.12817268e-07 7.84490396e-07 1.35472328e-06 8.73152146e-08
      -5.77859510e-07 5.34819151e-07 2.59879403e-06 2.41000043e-06
      1.54807640e-06 1.20972584e-06 8.24819111e-08 -3.06949391e-06
      -5.59960472e-06 -7.58190617e-06 -6.89863737e-06 -4.64176082e-06
      -4.07549379e-07 3.61076491e-06 7.29521844e-06 7.05694129e-06
      4.77570848e-06 2.74162039e-06 2.79257347e-06 2.94128699e-06
      2.61308060e-06 2.06629602e-06 4.49387670e-07 -1.57171860e-06
      -2.87526154e-06 -3.30407465e-06 -3.74384877e-06 -3.79351582e-06
      3.31750311e-06 3.06511447e-06 2.62346066e-06 1.11774898e-06
      -1.03709908e-06 -1.97360578e-06 -2.17462275e-06 -2.16334251e-06
      3.59297474e-07 3.01935620e-06 2.94562733e-06 1.58712760e-06
      -1.06491700e-06 -3.49914012e-06 -4.93644256e-06 -3.72540649e-06
      -6.62023410e-07 3.40707885e-07 -4.50003398e-07 -7.64517608e-07
      -1.48130403e-06 -8.51234859e-07 2.52743121e-06 2.58674982e-06
      1.10397434e-06 7.33821537e-07 1.36944288e-06 -6.12162836e-08
      -1.96418955e-06 -3.76868616e-06 -4.48805486e-06 -3.63573031e-06
      -1.24367375e-06 1.96556994e-06 6.40317239e-06 9.43270697e-06
      9.56586882e-06 6.82115615e-06 5.10788959e-06 4.80168637e-06
      4.92102390e-06 5.22582604e-06 4.73023329e-06 3.32221066e-06
      1.15054195e-06 -1.17377212e-07 -4.81380539e-07 -3.18541851e-07
      4.29995544e-06 3.35798859e-06 2.77213803e-06 1.99181545e-06
      7.20075377e-08 -1.84294015e-06 -2.56751196e-06 -3.88618173e-06
      -4.20439437e-06 -1.58217608e-06 3.04868649e-07 1.71273496e-06
      4.30724157e-07 -2.38755729e-06 -3.90176319e-06 -4.62935077e-06
      -3.64549237e-06 -1.53188068e-06 -1.08645497e-06 -2.46393574e-06
      -2.13069916e-06 -2.09314976e-06 2.54195527e-07 6.18342540e-07
      -7.04219474e-07 1.57121889e-07 1.69346606e-06 1.80869642e-06
      1.59087108e-06 3.15211054e-07 -7.56091538e-07 -4.96847861e-07
      -1.24307871e-06 -6.78488220e-07 2.70204464e-06 6.75647152e-06
      9.30114220e-06 8.31333455e-06 6.36298728e-06 4.79647815e-06
      4.84048178e-06 5.94555468e-06 5.93551522e-06 5.40910878e-06
      3.61916841e-06 1.82352142e-06 8.70478004e-07 1.19982712e-06
      6.46930721e-06 4.98972167e-06 3.75121181e-06 2.15375439e-06
      4.60599693e-07 -1.73097851e-06 -2.74291165e-06 -3.44811065e-06
      -4.69608904e-06 -4.48917262e-06 -2.46038826e-06 -5.46933450e-07
      1.18972787e-06 1.92223592e-06 7.30218346e-07 -1.89351496e-07
      -1.31373974e-06 -2.09427867e-06 -2.69338670e-06 -3.90391278e-06
      -4.95819040e-06 -3.73075341e-06 -1.47041249e-06 2.91497656e-07
      -7.19770469e-07 -1.68626093e-06 5.29870022e-07 2.72574789e-06
      3.49446645e-06 2.70275746e-06 2.13047451e-06 3.81195377e-06
      3.91990216e-06 4.54677888e-07 -5.82859343e-07 7.40270025e-07
      3.22001551e-06 4.23280107e-06 4.25922372e-06 3.65418941e-06
      3.77382275e-06 5.30838315e-06 5.93785080e-06 5.70282100e-06
      4.30489854e-06 1.97400254e-06 3.02371745e-07 -1.22351523e-07
      7.39158713e-06 6.44961665e-06 4.93806647e-06 3.74701744e-06
      2.02543811e-06 -2.76965011e-07 -2.65394874e-06 -2.90452681e-06
      -2.80202198e-06 -3.67034681e-06 -2.52031464e-06 -1.12800785e-06
      -8.47582669e-07 1.11098564e-06 3.34737524e-06 5.65912842e-06
      5.35260642e-06 2.11480915e-06 -8.44125736e-07 -2.92067671e-06
      -4.96506573e-06 -6.00849580e-06 -3.99111241e-06 -2.02626393e-06
      -6.22046514e-07 -1.18006187e-06 9.18476175e-08 2.26375073e-06
      3.28107581e-06 1.81446569e-06 1.28761826e-06 3.82690905e-06
      8.04760111e-06 8.46428975e-06 4.68098870e-06 9.96843070e-08
      -1.11871248e-06 -8.31443003e-07 1.03500753e-07 8.81600897e-07
      2.15094497e-06 4.60527644e-06 5.56303212e-06 5.12238103e-06
      3.09641882e-06 1.02989395e-06 -5.07530501e-07 -8.41253154e-07
      -4.77024685e-07 2.51609265e-07 -1.89188228e-07 -2.74295257e-06
      -4.98690497e-06 -3.10787368e-06 1.46095874e-06 3.72856698e-06
      3.68223255e-07 -1.31860327e-06 -7.23307778e-07 -1.83652287e-06
      -3.03466322e-06 -2.37964196e-06 -3.13677856e-06 -1.70144779e-06
      2.60829006e-06 5.98865699e-06 5.64851052e-06 2.48719357e-06
      -1.81509719e-07 -1.42735132e-06 -2.34741515e-06 -1.24474536e-06
      1.17803904e-06 1.14918225e-06 -5.56258044e-07 -2.31797344e-06
      -3.61424850e-06 -4.39716450e-06 -2.92231562e-06 -1.07485995e-07
      1.34531751e-06 4.84578152e-07 -7.52787969e-07 -7.57643875e-07
      -9.26454049e-07 -1.26663645e-06 -2.49088339e-06 -3.54175268e-06
      -2.73031378e-06 -2.02007186e-06 4.06726883e-07 3.74930892e-06
      4.28456087e-06 1.48970798e-06 -1.97135319e-06 -2.86818340e-06
      -6.70622313e-08 -7.04795582e-07 -9.39748872e-07 -2.48932338e-06
      -4.23111624e-06 -3.63747426e-06 3.05083859e-07 3.70028420e-06
      1.21961853e-06 -8.10041115e-07 -6.26142310e-07 -1.84721580e-06
      -2.48605761e-06 -1.47278308e-06 -2.35112202e-06 -2.11030033e-06
      2.44824992e-06 6.00058502e-06 6.06804770e-06 2.39748874e-06
      -1.18390824e-06 -2.31283070e-06 -2.06204163e-06 -2.52491020e-07
      2.16519993e-06 2.13662679e-06 -2.93757410e-07 -2.02408773e-06
      -2.86294085e-06 -3.19055516e-06 -2.51784058e-06 -3.68434279e-08
      1.62692174e-06 7.21333265e-07 -1.03345576e-06 -1.61782987e-06
      -1.61352978e-06 -1.43236639e-06 -2.77010963e-06 -4.79070923e-06
      -3.63720187e-06 -2.39312249e-06 -9.33764625e-07 2.04143294e-06
      3.59262390e-06 2.36929827e-06 -5.55076383e-07 -2.54994939e-06
      7.81180347e-07 -1.25245469e-06 -1.96957217e-06 -2.85782471e-06
      -4.12964391e-06 -4.22384346e-06 -1.21691039e-06 2.04913817e-06
      1.54214661e-06 -7.39345296e-07 7.09248695e-08 -1.69091584e-06
      -1.87731564e-06 -6.21458184e-07 -7.30656382e-07 -2.07208677e-06
      9.52070820e-07 5.49741299e-06 6.33178297e-06 2.98813939e-06
      -1.13912881e-06 -3.10352766e-06 -2.05064134e-06 2.70398914e-07
      3.28564943e-06 3.63773029e-06 5.61725813e-07 -1.87170394e-06
      -2.46736931e-06 -2.55490363e-06 -1.62188417e-06 2.42169591e-07
      2.11368956e-06 1.48872743e-06 -1.04917751e-06 -1.84430507e-06
      -1.98576299e-06 -1.94836639e-06 -2.81468397e-06 -5.31748674e-06
      -4.87837451e-06 -2.29433681e-06 -1.77040579e-06 -3.71213048e-07
      9.31708712e-07 1.33781555e-06 3.85690356e-07 -1.13448152e-06
      1.18625428e-06 -7.62086700e-07 -2.70971555e-06 -3.07338360e-06
      -3.17808963e-06 -3.52652387e-06 -1.12627504e-06 8.77523973e-07
      4.03080094e-07 -1.54160080e-06 -9.93596927e-07 -1.66573830e-06
      -2.26776751e-06 -2.07238813e-07 8.02040290e-07 9.24298060e-09
      -4.83207600e-07 3.44490445e-06 5.55324050e-06 2.51208485e-06
      -1.58574187e-06 -3.35869254e-06 -1.86389889e-06 9.10844165e-07
      3.67217604e-06 5.25720270e-06 2.39627184e-06 -1.44304249e-06
      -1.89790694e-06 -1.81163568e-06 -7.15928309e-07 1.67106236e-07
      1.87130490e-06 1.83784493e-06 -4.38695906e-07 -2.07218136e-06
      -1.93769642e-06 -2.09645327e-06 -3.06923312e-06 -4.94496817e-06
      -6.12981648e-06 -3.03179240e-06 -9.79707579e-07 -1.63893867e-06
      -1.30165506e-06 -8.62135778e-07 -2.76149080e-07 -6.13958775e-07
      1.13913723e-06 1.08162190e-07 -1.90226126e-06 -2.82831820e-06
      -2.50881476e-06 -2.49658797e-06 3.20885185e-08 1.49437233e-06
      5.40697329e-07 -2.15743967e-06 -2.74757508e-06 -2.14341981e-06
      -2.60280308e-06 -6.92748472e-07 1.15500802e-06 2.10554322e-06
      1.80119955e-07 1.16107356e-06 2.58116188e-06 1.37138898e-06
      -2.52158065e-06 -3.68125689e-06 -1.75691969e-06 1.21018957e-06
      3.69161558e-06 4.90021966e-06 3.50867413e-06 -2.08428034e-07
      -1.35230823e-06 -1.82163046e-06 -1.10782935e-06 3.16985250e-07
      1.44070714e-06 1.70187957e-06 1.80988025e-07 -1.83997088e-06
      -1.95142843e-06 -1.27381634e-06 -2.42592523e-06 -4.45705155e-06
      -6.20767696e-06 -5.40216524e-06 -1.27559611e-06 -1.35367361e-06
      -2.41086786e-06 -3.02826948e-06 -1.95006260e-06 -8.49660694e-07
      7.29463238e-07 -2.95253813e-07 -1.60049581e-06 -1.54565168e-06
      -1.70298188e-06 -2.08709821e-06 -3.82746521e-07 2.69124348e-06
      1.90653429e-06 -9.97747179e-07 -3.38230211e-06 -3.50820687e-06
      -2.47851699e-06 -1.13687372e-06 5.69528652e-07 1.38350003e-06
      1.15276589e-06 -2.64284594e-08 -2.65895977e-07 -9.49057664e-07
      -3.15954730e-06 -3.76902312e-06 -1.13870624e-06 1.31191211e-06
      4.41186648e-06 4.73187629e-06 3.68214933e-06 1.71154284e-06
      2.18067324e-08 -6.49604033e-07 -1.92897846e-06 -1.48341360e-06
      -6.83435474e-07 3.95395432e-07 -2.80300128e-07 -2.43414593e-06
      -2.95780387e-06 -1.82080066e-06 -1.36893641e-06 -3.19863693e-06
      -5.49082688e-06 -6.19248931e-06 -2.98786949e-06 4.24886565e-07
      -4.14756471e-07 -3.01374871e-06 -3.28338592e-06 -1.53282235e-06
      9.47449507e-07 -1.16259696e-06 -2.43646309e-06 -1.79408562e-06
      -8.04260765e-07 -1.62999720e-06 -6.45789441e-07 2.55021132e-06
      4.77055073e-06 2.17885258e-06 -1.18704452e-06 -3.92334641e-06
      -2.90869139e-06 -6.48754906e-07 7.80351513e-07 1.01711555e-06
      1.19515050e-06 4.90692173e-07 -1.93601431e-06 -3.03642764e-06
      -3.69321583e-06 -3.66084532e-06 -1.28005502e-06 1.17377351e-06
      4.49521849e-06 5.07233653e-06 4.40118265e-06 3.11475651e-06
      2.45519641e-06 1.71045463e-06 -1.70825089e-07 -1.57110208e-06
      -2.15074351e-06 -1.84453882e-06 -9.74337922e-07 -2.55046575e-06
      -3.66605673e-06 -2.65285394e-06 -1.02965896e-06 -2.30792580e-06
      -4.29139027e-06 -5.25819041e-06 -4.08551432e-06 -7.14272460e-07
      1.80299446e-06 -3.02751971e-07 -3.24342318e-06 -2.54081533e-06
      1.50384594e-07 -9.27478652e-07 -3.22364190e-06 -2.26000566e-06
      -5.57880014e-07 -1.52641894e-06 -2.21607615e-06 9.50181175e-07
      3.42241947e-06 3.37385995e-06 1.13200929e-06 -2.41283260e-06
      -3.28803549e-06 -1.62709341e-06 -2.79655339e-08 6.03711385e-07
      1.05810739e-06 1.16100716e-06 -6.58461204e-07 -2.72691364e-06
      -3.28717829e-06 -2.72261832e-06 -1.13930855e-06 1.24028350e-06
      4.59601551e-06 6.55179110e-06 5.66114159e-06 4.58189561e-06
      5.29749786e-06 4.73491491e-06 3.04029413e-06 4.51908704e-07
      -2.12490067e-06 -3.28880014e-06 -2.31837862e-06 -2.15824116e-06
      -3.73403464e-06 -3.84211262e-06 -8.79440393e-07 -6.32620242e-07
      -2.62712206e-06 -3.25790279e-06 -3.15229840e-06 -1.70407964e-06
      1.79567985e-06 2.25816598e-06 -1.04436742e-06 -2.01146077e-06
      -1.33678736e-06 -9.57997713e-07 -3.21611560e-06 -3.13442388e-06
      -1.26438078e-06 -1.18663354e-06 -3.36651010e-06 -1.91510344e-06
      1.55197597e-07 9.45366651e-07 5.18597325e-08 -1.65204426e-06
      -3.11367376e-06 -2.64140544e-06 -1.19213735e-06 -1.01419737e-07
      6.71280532e-07 8.93928814e-07 2.57143768e-07 -1.52241103e-06
      -2.97005454e-06 -1.79026665e-06 6.12648918e-08 2.09489144e-06
      3.45763942e-06 6.11621408e-06 6.48118021e-06 5.33953335e-06
      5.74210981e-06 6.30402383e-06 5.66375684e-06 2.81786379e-06
      -3.47302830e-07 -2.90233174e-06 -3.22212395e-06 -2.26904103e-06
      -2.09377095e-06 -3.15293846e-06 -1.49251878e-06 5.34695857e-07
      -3.68734362e-07 -1.68356416e-06 -2.19142044e-06 -1.45916124e-06
      9.89396312e-07 2.69555585e-06 7.83359098e-07 -1.15860098e-06
      -2.18135597e-06 -1.19153538e-06 -2.28156341e-06 -3.20898039e-06
      -1.92044058e-06 -7.53812969e-07 -3.14026875e-06 -3.70314478e-06
      -2.31028162e-06 -1.81296195e-06 -2.39636620e-06 -2.46083869e-06
      -2.64094342e-06 -2.76741525e-06 -2.65353742e-06 -9.70992460e-07
      -2.78885821e-08 4.21096644e-07 -1.50383926e-07 -2.82993057e-07
      -2.54978590e-06 -1.64942594e-06 1.64118063e-07 2.96947997e-06
      4.23554411e-06 4.76680179e-06 6.63290029e-06 5.50803907e-06
      4.71460953e-06 6.40585313e-06 7.35337471e-06 6.25752318e-06
      2.81753614e-06 -1.20801269e-06 -3.21204038e-06 -3.13708279e-06
      -1.56805800e-06 -1.38017356e-06 -1.73273247e-06 6.68244240e-07
      1.54889176e-06 3.64369697e-07 -9.44623935e-07 -6.63817843e-07
      1.27246199e-06 2.92179948e-06 1.73221815e-06 2.10448135e-07
      -2.46468630e-06 -1.10061296e-06 -6.81607048e-07 -2.03366881e-06
      -2.16066269e-06 -9.44272870e-07 -1.82013900e-06 -4.04646880e-06
      -3.78097934e-06 -3.30253806e-06 -4.27998066e-06 -3.55140901e-06
      -1.97533177e-06 -2.49589971e-06 -3.14186673e-06 -1.83010025e-06
      -6.82801669e-07 -6.37813628e-07 -1.25606869e-06 -1.79397932e-06
      -2.91250876e-06 -3.13771966e-06 -1.19412880e-06 2.14779629e-06
      3.79648327e-06 3.04495097e-06 4.39343967e-06 5.24543930e-06
      4.05294395e-06 4.86572662e-06 7.31859973e-06 8.26527776e-06
      6.62485445e-06 1.31194372e-06 -2.76617902e-06 -2.88553588e-06
      -7.59651414e-07 5.67711595e-07 -8.80640471e-07 -2.30321092e-07
      1.30573267e-06 1.15752880e-06 4.33164701e-07 6.06243532e-07
      1.97856707e-06 2.72981515e-06 1.87378794e-06 2.94321069e-07
      -1.40760403e-06 -1.35951950e-06 -5.63515073e-07 -1.09058284e-07
      -9.75605872e-07 1.09361295e-07 5.51632979e-07 -2.06947516e-06
      -4.62330036e-06 -4.59239300e-06 -6.22351126e-06 -6.09783910e-06
      -2.62574508e-06 -2.32552634e-06 -3.87518730e-06 -2.91026367e-06
      -5.44580814e-07 -3.27742612e-07 -1.01042951e-06 -2.84489852e-06
      -4.31670196e-06 -4.85020655e-06 -3.21152083e-06 -5.81207416e-07
      1.91444155e-06 1.65776805e-06 2.00433601e-06 3.03753677e-06
      1.97356326e-06 3.44908631e-06 5.91699563e-06 7.97904158e-06
      8.93295510e-06 4.55901773e-06 -1.81216296e-06 -3.11446433e-06
      -2.53411116e-07 2.71520867e-06 2.88834508e-06 9.02771035e-07
      9.65484901e-07 1.13327735e-06 1.05004153e-06 1.44561568e-06
      2.91452830e-06 2.33011883e-06 1.52819166e-06 4.61135159e-07
      2.31321380e-07 -9.89643468e-07 -1.61258598e-07 5.34893445e-07
      4.26921019e-07 7.89235855e-07 2.09522250e-06 1.56347575e-08
      -4.21820914e-06 -5.82948996e-06 -6.75536785e-06 -8.71975681e-06
      -6.15298950e-06 -3.49548804e-06 -5.53353266e-06 -5.49928245e-06
      -1.19434958e-06 1.28736033e-07 9.13838463e-08 -1.64922278e-06
      -3.98410475e-06 -5.42430689e-06 -4.63810875e-06 -3.08503877e-06
      3.06463136e-07 1.55510770e-06 4.39284150e-07 1.52231519e-06
      6.32957665e-07 5.09761833e-07 3.26780878e-06 6.26198516e-06
      7.75970511e-06 4.87791203e-06 -1.42308738e-06 -4.14460646e-06
      -9.59966087e-07 3.77872379e-06 6.32141746e-06 4.85384771e-06
      2.31925833e-06 1.35038476e-06 1.51955601e-06 1.95548387e-06
      3.75210402e-06 3.30296029e-06 1.38325584e-06 1.44152239e-06
      1.11868860e-06 -4.48896174e-08 -1.32478959e-07 4.15192204e-07
      6.23321341e-07 5.52397296e-07 1.19373306e-06 8.85570657e-08
      -3.69773761e-06 -7.31630189e-06 -7.74871205e-06 -8.64309095e-06
      -9.48912293e-06 -6.77756589e-06 -6.20739593e-06 -6.19310231e-06
      -2.81006965e-06 -2.50230869e-07 -4.91958758e-08 5.76926141e-07
      -1.03895229e-06 -4.48885976e-06 -4.97811288e-06 -3.54903273e-06
      -9.05230706e-07 1.18569710e-06 8.13582176e-07 9.13032466e-07
      2.16060243e-07 -1.70568728e-06 1.06203538e-06 5.24010193e-06
      6.73558861e-06 4.22588755e-06 -1.08411871e-06 -5.08166158e-06
      -2.19843946e-06 3.20693380e-06 7.79458696e-06 8.56000406e-06
      5.64439779e-06 2.54525912e-06 1.53231497e-06 2.80066160e-06
      4.48747278e-06 4.64843970e-06 1.16513831e-06 1.76470905e-07
      9.08164793e-07 1.09954590e-06 6.23961796e-07 7.11573648e-07
      5.93123673e-07 -1.86512793e-07 -4.15801964e-07 -1.13068734e-06
      -3.10287328e-06 -7.42412158e-06 -9.12447649e-06 -8.22324546e-06
      -8.69313953e-06 -9.24448159e-06 -8.63684181e-06 -7.55233941e-06
      -4.68039843e-06 -2.89612012e-06 -1.51099198e-06 -2.98594045e-07
      1.41670432e-06 -1.13403541e-06 -4.59150806e-06 -3.22642381e-06
      3.69620601e-08 2.07389598e-06 1.37361337e-06 -5.08745586e-07
      -1.46015573e-08 -2.59280296e-06 -3.32654736e-06 1.14944100e-06
      5.04210993e-06 2.52472205e-06 -2.88192473e-06 -7.31996352e-06
      -5.28444389e-06 1.10076439e-06 6.69683550e-06 9.54167899e-06
      9.09857317e-06 4.52552285e-06 1.87026853e-06 3.47391619e-06
      4.66745769e-06 5.58179909e-06 3.42824796e-06 1.03653747e-07
      -1.70998220e-07 1.11872021e-06 1.51295717e-06 6.01991303e-07
      5.62901583e-08 -7.28805674e-07 -1.36183178e-06 -1.58203204e-06
      -2.00877616e-06 -6.49795402e-06 -9.23293919e-06 -8.57578380e-06
      -7.26414646e-06 -8.03440071e-06 -8.68141888e-06 -8.08926234e-06
      -5.40858355e-06 -4.72451620e-06 -4.25677536e-06 -2.11525867e-06
      4.91479057e-07 1.22659378e-06 -2.53616554e-06 -3.74377100e-06
      -9.52002210e-07 2.18374294e-06 2.40604186e-06 3.02712067e-07
      -6.53358370e-07 -1.40054669e-06 -4.01252510e-06 -3.82404369e-06
      9.68074687e-07 1.13483929e-06 -4.96630673e-06 -1.04392639e-05
      -9.66071184e-06 -3.02480635e-06 3.71855663e-06 7.38420840e-06
      8.29428973e-06 4.09587346e-06 5.57880981e-07 2.03768900e-06
      4.39333235e-06 5.40885958e-06 4.89477998e-06 2.94012352e-06
      -6.52847348e-07 6.12308327e-07 1.48330980e-06 1.16286606e-06
      -1.37085479e-07 -1.11913346e-06 -1.88280728e-06 -2.14633269e-06
      -2.52985342e-06 -4.94453070e-06 -8.46059083e-06 -8.80744938e-06
      -7.41267513e-06 -7.26355984e-06 -7.46791602e-06 -5.62116566e-06
      -4.14305896e-06 -4.31757007e-06 -5.95839447e-06 -4.56316820e-06
      -1.41457099e-06 9.61525075e-07 -3.13347755e-07 -2.46223863e-06
      -1.43466445e-06 2.93607684e-07 6.46930459e-07 9.22090919e-07
      9.25036431e-07 2.59934694e-07 -2.24918767e-06 -7.11409757e-06
      -4.64752929e-06 3.64216049e-07 -5.38049790e-06 -1.14189306e-05
      -1.30634144e-05 -7.16535988e-06 -4.80666927e-07 3.83988618e-06
      5.30949274e-06 2.20273409e-06 -1.55067880e-06 -7.99234158e-07
      3.19979222e-06 5.83675182e-06 6.38414167e-06 4.51573123e-06
      7.59270222e-07 2.01357170e-06 1.74109823e-06 1.37496704e-06
      -5.00435931e-07 -2.13232875e-06 -2.67272594e-06 -1.68933127e-06
      -1.16215381e-06 -2.66382222e-06 -5.53742393e-06 -6.91255036e-06
      -6.91223886e-06 -6.86904968e-06 -6.45138471e-06 -4.16576859e-06
      -1.06780976e-06 -1.82284828e-06 -5.17482704e-06 -5.20221374e-06
      -2.62573167e-06 -1.01233951e-07 2.14856556e-07 -1.13444673e-06
      -1.58199816e-06 -1.06534014e-06 -2.76298488e-06 -2.68094823e-06
      -8.86321772e-08 -1.15494032e-07 -1.14228408e-06 -6.35941888e-06
      -8.67119979e-06 -2.09926134e-06 -2.82922952e-06 -9.63898856e-06
      -1.25905217e-05 -8.60544606e-06 -3.30051353e-06 2.19374570e-07
      2.24164728e-06 3.87708155e-07 -3.07847176e-06 -2.99889098e-06
      9.27180110e-07 4.56245652e-06 6.74008925e-06 5.95713755e-06
      1.24937048e-06 3.52482584e-06 3.18635011e-06 2.08841811e-06
      6.51930407e-07 -2.30005935e-06 -3.94428071e-06 -2.71672889e-06
      -7.10337360e-07 -2.03256477e-07 -1.50318613e-06 -4.22876155e-06
      -4.89970898e-06 -5.86071337e-06 -6.04350635e-06 -4.55311783e-06
      9.07132517e-07 6.01470106e-07 -3.06785000e-06 -5.43350188e-06
      -2.46204581e-06 -1.34686923e-06 -5.88869966e-07 -2.36940252e-07
      -8.80411449e-07 -1.78331004e-06 -4.37547533e-06 -6.67483664e-06
      -2.63616994e-06 -5.81820700e-07 -3.51237588e-07 -3.90478408e-06
      -9.54430743e-06 -6.64720028e-06 -4.81862855e-07 -3.63276627e-06
      -8.65917991e-06 -7.77484183e-06 -3.51725134e-06 -1.54044290e-06
      -8.21422148e-08 -4.55516755e-07 -3.30982994e-06 -4.03487365e-06
      -1.43333375e-06 2.03570335e-06 6.18772765e-06 7.07879371e-06
      2.17925549e-06 3.86434203e-06 5.77126730e-06 4.51783444e-06
      2.36698475e-06 -4.34796164e-07 -4.25743519e-06 -3.76775779e-06
      -1.27522776e-06 8.85350858e-07 1.10128030e-06 -1.30341721e-06
      -3.75336526e-06 -5.01498971e-06 -5.26051781e-06 -3.75305945e-06
      -6.64775314e-07 2.37561744e-06 -4.98221937e-07 -4.25182861e-06
      -3.16415480e-06 -6.04795389e-07 -2.15807930e-07 -2.81941738e-07
      -6.68094458e-07 -2.21653204e-06 -4.52500899e-06 -8.32593105e-06
      -6.12545546e-06 -2.11616975e-06 -8.75147066e-07 -2.00256341e-06
      -6.82545533e-06 -9.12068117e-06 -1.50261121e-06 2.01497369e-06
      -2.52974473e-06 -4.19736716e-06 -1.94915492e-06 -1.63604867e-07
      -1.58031767e-07 -6.67056099e-07 -2.39197789e-06 -3.67698999e-06
      -2.03375453e-06 1.37061591e-06 3.23230893e-06 5.69984468e-06
      2.76925061e-06 2.13377348e-06 4.34006097e-06 5.18124307e-06
      3.44015666e-06 1.17623915e-06 -1.83273801e-06 -3.10791256e-06
      -1.32708590e-06 6.01170029e-07 1.98479916e-06 1.99512692e-06
      -2.01414991e-06 -4.57926171e-06 -4.79093660e-06 -2.78144876e-06
      -7.60132878e-07 3.58519105e-06 2.73691126e-06 -1.46869377e-06
      -2.33643141e-06 -3.27356588e-07 4.14376160e-07 2.33542025e-07
      -7.07519121e-07 -2.07372045e-06 -3.88181115e-06 -6.38353549e-06
      -7.74582622e-06 -4.58128352e-06 -2.17019965e-06 -2.63127845e-06
      -4.02418573e-06 -8.05261152e-06 -4.30497948e-06 3.32754507e-06
      1.86621446e-06 -7.56145994e-07 -6.03374986e-07 1.02304898e-06
      1.00468435e-06 6.11906330e-07 -3.28425642e-07 -1.80886514e-06
      -1.63480513e-06 1.67244571e-06 2.41137536e-06 3.54142708e-06
      2.42774763e-06 1.28434397e-06 3.62208038e-06 4.75146408e-06
      3.53387782e-06 1.15244541e-06 -3.44597169e-07 -1.45100830e-06
      -8.32126318e-07 -1.89268448e-07 1.79177209e-06 2.31736294e-06
      -6.09515553e-07 -5.07434106e-06 -5.02438797e-06 -2.62018057e-06
      8.24379640e-07 2.98563691e-06 3.25113274e-06 -5.97159211e-09
      -1.92932794e-06 -4.66923780e-07 3.34376296e-07 9.94755425e-08
      -1.43367572e-06 -2.13898306e-06 -3.15329703e-06 -4.50481002e-06
      -5.97739154e-06 -6.46649278e-06 -4.41200700e-06 -4.28020803e-06
      -4.03269905e-06 -5.40398787e-06 -5.21939228e-06 8.82627830e-07
      2.98853865e-06 2.71795017e-07 -1.34239849e-06 3.92539249e-07
      1.39776660e-06 1.45647618e-06 1.04032927e-06 -4.24583135e-07
      -1.42273257e-06 -2.09345245e-07 1.82367705e-06 8.10765755e-07
      2.09379891e-06 6.09038636e-07 2.18356240e-06 3.96763789e-06
      3.55639827e-06 4.21708904e-07 -7.42569625e-07 2.88357995e-07
      6.20510434e-07 -5.97470489e-07 -7.81413618e-08 9.14944451e-07
      -7.86633677e-07 -3.85129715e-06 -6.18494778e-06 -2.95343466e-06
      2.09217546e-06 3.27484031e-06 3.05547610e-06 4.35241645e-07
      -7.43913404e-07 -2.50824939e-07 6.05339334e-09 4.45427816e-07
      -1.18177138e-06 -2.08500251e-06 -2.44812941e-06 -2.03754348e-06
      -2.88652882e-06 -4.60349474e-06 -4.92422396e-06 -4.70131636e-06
      -4.33552941e-06 -4.17770570e-06 -4.82387304e-06 -1.86262378e-06
      1.25274346e-06 -5.33747084e-07 -2.02951810e-06 -7.91623449e-07
      8.44017393e-07 1.34444713e-06 1.64172059e-06 9.13755343e-07
      -5.26216354e-07 -9.54315965e-07 -6.68922269e-07 -7.41149393e-07
      2.11262000e-06 3.37974996e-07 5.48422499e-08 2.03468062e-06
      3.52544930e-06 8.28880388e-07 -8.91137290e-07 5.50056768e-07
      1.44971170e-06 -6.34524469e-08 -1.25693282e-06 -4.59372529e-07
      -1.53033011e-06 -3.39149665e-06 -5.44030217e-06 -4.56487624e-06
      7.76465640e-07 2.56585918e-06 1.48190281e-06 -3.87260911e-07
      -8.99987242e-07 2.57741448e-07 8.27404108e-07 3.66787503e-07
      -1.02532101e-06 -2.45956130e-06 -3.58514035e-06 -1.06673360e-06
      -6.32758088e-07 -2.24505288e-06 -3.27147200e-06 -4.06696381e-06
      -4.50897733e-06 -3.58279931e-06 -4.06525487e-06 -2.48131914e-06
      -1.11803342e-06 -2.13080693e-06 -3.72147906e-06 -3.10133601e-06
      -3.81257649e-07 1.32665434e-06 1.46287846e-06 1.27667181e-06
      1.11947759e-06 -5.76666679e-08 -1.13144290e-06 -1.17933416e-06
      3.29743716e-06 2.14454872e-06 -1.15961927e-06 -1.26809300e-06
      5.09845620e-07 3.08765323e-07 -7.17117814e-07 5.39346047e-07
      1.92792163e-06 6.31738203e-07 -8.35135552e-07 -1.30458227e-06
      -2.76150081e-06 -4.25177632e-06 -5.13645091e-06 -4.84941893e-06
      -4.59140068e-07 2.83161376e-06 2.62143863e-06 -1.93976504e-07
      -2.14087913e-06 -1.64561456e-07 2.43038971e-06 2.24608880e-06
      -4.94534298e-08 -1.26934185e-06 -3.48859680e-06 -3.63250479e-06
      -5.50335130e-07 2.21904386e-07 -1.40171312e-06 -3.00516876e-06
      -5.06669812e-06 -4.53789426e-06 -4.06693380e-06 -3.09663005e-06
      -2.12166287e-06 -3.81604059e-06 -5.59725231e-06 -5.65561368e-06
      -2.42308170e-06 1.00967441e-06 1.82373969e-06 7.90911088e-07
      9.86329951e-07 1.16574506e-06 -8.42462953e-07 -1.02030504e-06
      2.65602830e-06 2.37218546e-06 7.83843177e-08 -2.49080404e-06
      -2.15038972e-06 2.66762896e-07 -5.34122762e-07 3.97705350e-07
      2.11954648e-06 9.14938653e-07 -6.75691410e-07 -1.16561614e-06
      -3.32315835e-06 -4.84914608e-06 -4.60118190e-06 -3.81521477e-06
      -1.25115696e-06 2.34102185e-06 3.49203196e-06 2.52904306e-06
      3.73796105e-09 5.26730219e-07 3.09207076e-06 4.07690277e-06
      7.83090570e-07 -3.51327202e-07 -3.00273496e-06 -5.81602990e-06
      -2.89735772e-06 1.90390551e-06 1.29836758e-06 -6.40504140e-07
      -3.89676416e-06 -5.06163769e-06 -3.38675750e-06 -2.66777079e-06
      -2.58555747e-06 -4.32503521e-06 -6.69284418e-06 -8.08765253e-06
      -5.49686865e-06 2.04358646e-08 2.49528011e-06 7.42812176e-07
