<?xml version="1.0"?>
<opencv_storage>
<my_svm type_id="opencv-ml-svm">
  <svm_type>C_SVC</svm_type>
  <kernel><type>LINEAR</type></kernel>
  <C>1.</C>
  <term_criteria><epsilon>2.2204460492503131e-16</epsilon>
    <iterations>1000000</iterations></term_criteria>
  <var_all>69120</var_all>
  <var_count>69120</var_count>
  <class_count>2</class_count>
  <class_labels type_id="opencv-matrix">
    <rows>1</rows>
    <cols>2</cols>
    <dt>i</dt>
    <data>
      0 1</data></class_labels>
  <sv_total>1</sv_total>
  <support_vectors>
    <_>
      -8.62777051e-06 -6.84168117e-06 -5.22897744e-06 -1.93006713e-06
      3.87632298e-07 3.24481061e-06 4.19010485e-06 2.40398344e-06
      1.19172626e-06 -4.82047710e-07 -1.54550662e-06 -1.85371789e-06
      -1.92530092e-06 -1.36854942e-06 -2.33443825e-06 -1.71031081e-06
      -2.48219362e-06 -3.94764947e-06 -5.91644948e-06 -6.43803742e-06
      -5.50644063e-06 -4.04062166e-06 -5.73316242e-07 3.17090939e-06
      6.30074192e-06 8.84979818e-06 1.14583072e-05 1.17538420e-05
      9.95829669e-06 8.80365951e-06 6.65139896e-06 4.93283051e-06
      4.78220454e-06 3.34530068e-06 2.06202617e-06 1.14065199e-06
      -4.34802985e-07 -2.37858171e-06 -4.45856540e-06 -6.89365879e-06
      -7.02921579e-06 -5.29480030e-06 -2.92812069e-06 1.75185050e-07
      3.73532475e-06 6.09451718e-06 8.79686013e-06 1.03573420e-05
      -7.08660218e-06 -5.56264558e-06 -3.82215057e-06 -3.37647919e-07
      2.32096295e-06 5.25735777e-06 6.23245069e-06 4.57818578e-06
      3.25135193e-06 1.55530142e-06 3.96701836e-07 -2.14510194e-07
      -3.38229114e-07 3.76524582e-07 -1.32788202e-07 7.43934663e-07
      1.80358697e-07 -1.25707606e-06 -3.36247444e-06 -4.47126058e-06
      -4.32313846e-06 -3.69029476e-06 -1.15653859e-06 1.91708205e-06
      4.82916175e-06 7.18106730e-06 9.62860668e-06 1.00119696e-05
      8.35530773e-06 7.37875462e-06 5.33631510e-06 3.69976101e-06
      3.70885664e-06 2.77257368e-06 2.03096397e-06 1.86191653e-06
      1.26252803e-06 1.22432894e-07 -1.18105493e-06 -3.02187755e-06
      -3.43189186e-06 -2.60638035e-06 -1.69661769e-06 -5.66265079e-08
      1.70598821e-06 2.49613959e-06 4.12133522e-06 5.43058786e-06
      -4.47215325e-06 -3.52380175e-06 -1.59400111e-06 2.11650331e-06
      5.28074270e-06 8.25576717e-06 9.18739988e-06 7.87546105e-06
      6.31654621e-06 4.80652443e-06 3.67980488e-06 2.80191193e-06
      2.94362189e-06 4.36259143e-06 5.15476540e-06 6.70597728e-06
      6.76483023e-06 5.44975046e-06 2.99806470e-06 4.81048687e-07
      -1.19537117e-06 -2.54520342e-06 -2.34458639e-06 -1.06970708e-06
      1.04518745e-06 2.73943192e-06 4.91463879e-06 5.65749724e-06
      4.74665922e-06 4.65520816e-06 3.48257390e-06 2.41767066e-06
      2.96976168e-06 2.92529262e-06 2.98427881e-06 3.74305273e-06
      4.64360483e-06 4.75780371e-06 4.79127220e-06 4.05212177e-06
      3.25019028e-06 2.48260312e-06 6.71058160e-07 -5.32481977e-07
      -2.40023928e-06 -4.81240704e-06 -5.32677132e-06 -4.63255719e-06
      -1.77826416e-06 -1.42577198e-06 1.58088611e-07 3.18869229e-06
      5.73748366e-06 7.95335927e-06 8.18080389e-06 7.05556977e-06
      5.30008174e-06 4.48386390e-06 3.94529570e-06 3.71205033e-06
      4.75631668e-06 7.25624523e-06 9.41706185e-06 1.15047296e-05
      1.22884321e-05 1.11759346e-05 8.58515978e-06 5.04949139e-06
      2.09328437e-06 -7.71419479e-07 -2.70494388e-06 -3.38544601e-06
      -2.51398137e-06 -1.85027159e-06 1.29874863e-07 1.30066076e-06
      1.59201511e-06 3.02081844e-06 3.67073903e-06 3.73114381e-06
      4.99739599e-06 5.24054576e-06 5.15449210e-06 5.18730076e-06
      6.04048637e-06 6.20139281e-06 6.62196908e-06 6.45108321e-06
      5.83930841e-06 4.67127711e-06 1.65869085e-06 -1.10198823e-06
      -5.33033881e-06 -9.86726081e-06 -1.17255231e-05 -1.16801884e-05
      2.33248898e-06 2.15074033e-06 2.48767878e-06 3.31305046e-06
      3.51545987e-06 3.66682434e-06 2.24254768e-06 7.77883201e-07
      -9.40111136e-07 -6.61734248e-07 -7.58114993e-08 1.05628851e-06
      3.05999129e-06 6.04173056e-06 8.38459164e-06 1.01335445e-05
      1.12125617e-05 1.03896682e-05 8.55221333e-06 5.85143061e-06
      3.80570168e-06 1.60898696e-06 -4.56694522e-07 -1.93140295e-06
      -2.07819653e-06 -2.46655895e-06 -1.01177409e-06 -1.13463145e-07
      6.08203038e-07 2.92982054e-06 5.08022868e-06 6.00431531e-06
      7.50763365e-06 7.34887590e-06 6.25294206e-06 4.29030160e-06
      3.66794484e-06 2.81888106e-06 2.59169201e-06 2.42215015e-06
      2.68163967e-06 2.62869526e-06 6.85283396e-07 -1.59084505e-06
      -5.83827523e-06 -1.03558305e-05 -1.22721312e-05 -1.26152445e-05
      4.77426602e-06 4.24061363e-06 3.15180091e-06 1.35538460e-06
      -1.03073671e-06 -3.01691989e-06 -5.66857443e-06 -7.44127692e-06
      -8.39607765e-06 -6.95064728e-06 -5.12898941e-06 -2.88806154e-06
      -6.99277564e-07 1.54822601e-06 2.66170946e-06 3.25338601e-06
      4.03071544e-06 3.72711384e-06 3.49113998e-06 3.37888878e-06
      4.08175492e-06 4.37394647e-06 3.96186897e-06 2.90658681e-06
      2.16973444e-06 8.73549084e-07 9.90775220e-07 6.15154363e-07
      5.88524927e-07 2.50893527e-06 4.89608101e-06 6.05581999e-06
      7.17581815e-06 6.76153104e-06 4.81652341e-06 1.38426253e-06
      -5.98787778e-07 -2.20725542e-06 -3.12395491e-06 -3.24281427e-06
      -1.96454403e-06 -6.20130663e-07 -6.00447720e-07 -1.70018518e-06
      -4.88900378e-06 -8.22108814e-06 -9.79816923e-06 -1.02083241e-05
      1.28981151e-06 7.99767292e-07 -7.41063957e-07 -3.62931223e-06
      -6.67255472e-06 -8.95231096e-06 -1.06970356e-05 -1.17881000e-05
      -1.10855854e-05 -8.88347313e-06 -6.35718015e-06 -4.11716292e-06
      -2.92143022e-06 -2.30958017e-06 -2.92166146e-06 -3.60398599e-06
      -3.45537023e-06 -3.07832784e-06 -1.84219130e-06 4.76108028e-07
      3.51237850e-06 5.83080555e-06 6.77655544e-06 5.96811151e-06
      4.49788286e-06 2.24454266e-06 4.82493249e-07 -1.51364497e-06
      -2.42005217e-06 -1.28937666e-06 7.12379403e-07 2.14844977e-06
      3.08860558e-06 3.32033642e-06 1.52670111e-06 -1.66519771e-06
      -3.82153212e-06 -5.17131548e-06 -6.09424387e-06 -6.00355406e-06
      -4.22712537e-06 -2.54397492e-06 -1.43426996e-06 -2.24101791e-06
      -4.90650336e-06 -7.30676129e-06 -8.94600726e-06 -9.25218046e-06
      -5.52678739e-06 -5.61496654e-06 -6.49798221e-06 -8.62129218e-06
      -1.01648766e-05 -1.09667408e-05 -1.02737595e-05 -9.96369363e-06
      -7.64518245e-06 -5.56430814e-06 -3.15833654e-06 -2.00619115e-06
      -2.47198932e-06 -3.47390392e-06 -5.26829990e-06 -6.65960488e-06
      -6.90883280e-06 -5.99219902e-06 -3.95447205e-06 -7.74574914e-07
      2.81973462e-06 5.43380929e-06 6.35537072e-06 4.86126328e-06
      2.47846992e-06 -7.00078886e-07 -3.94148219e-06 -7.10784752e-06
      -8.29664259e-06 -7.57894441e-06 -5.88708326e-06 -4.05719084e-06
      -2.65858353e-06 -1.23178017e-06 -1.98708494e-06 -3.53649943e-06
      -4.74093758e-06 -5.17895387e-06 -5.61842080e-06 -5.62472133e-06
      -4.22111543e-06 -3.62958531e-06 -2.99667863e-06 -4.55235659e-06
      -7.46929845e-06 -9.56156509e-06 -1.14746763e-05 -1.16252495e-05
      -9.75763032e-06 -9.41617418e-06 -9.45070860e-06 -1.03166230e-05
      -9.83064729e-06 -9.20164803e-06 -6.74555486e-06 -5.56715440e-06
      -2.81719895e-06 -1.55084308e-06 3.61453999e-07 3.50091852e-07
      -1.15100875e-06 -2.69138422e-06 -4.46390277e-06 -5.51323956e-06
      -5.51058520e-06 -4.37552717e-06 -1.97680265e-06 7.32220428e-07
      3.73279659e-06 5.66842209e-06 6.05007790e-06 3.94883727e-06
      1.49109633e-06 -1.82602332e-06 -5.23917060e-06 -8.64562844e-06
      -9.75553485e-06 -9.36388187e-06 -8.21672802e-06 -6.78386459e-06
      -5.03760384e-06 -3.10621931e-06 -3.00563170e-06 -3.01349633e-06
      -3.32866671e-06 -3.33160347e-06 -3.66661584e-06 -4.33915875e-06
      -3.94283870e-06 -4.94573032e-06 -5.33807861e-06 -7.27383804e-06
      -9.99028907e-06 -1.15657303e-05 -1.31754186e-05 -1.30295039e-05
      -8.34838738e-06 -7.83577707e-06 -7.69701819e-06 -8.03693456e-06
      -6.53368397e-06 -5.70481916e-06 -3.30317448e-06 -2.39367637e-06
      -4.88349087e-07 -2.46635903e-08 1.48251922e-06 1.02427259e-06
      -2.34097229e-07 -9.53280448e-07 -1.65107770e-06 -1.38728774e-06
      -7.87510942e-07 2.24407984e-07 2.50633707e-06 4.10353368e-06
      6.29427450e-06 7.44549379e-06 7.62018044e-06 6.05252353e-06
      4.86778254e-06 2.58271803e-06 2.64855970e-07 -2.35394828e-06
      -3.26870509e-06 -3.23827135e-06 -2.87186595e-06 -2.45484512e-06
      -8.41430449e-07 6.01621707e-07 8.51395953e-07 1.30795763e-06
      8.16096588e-07 1.69232052e-07 -9.11141512e-07 -2.57832539e-06
      -3.26389181e-06 -5.19957530e-06 -5.72363751e-06 -6.61757622e-06
      -7.77632522e-06 -7.90011563e-06 -8.31636589e-06 -7.62533273e-06
      -1.13240844e-06 -7.98080919e-07 -1.27961005e-06 -2.10015583e-06
      -1.14681529e-06 -1.25722477e-06 -3.17166325e-07 -4.19863994e-07
      5.37469340e-08 1.23442561e-07 1.21855987e-06 7.51263372e-07
      2.66781740e-07 6.91953289e-07 9.57726002e-07 2.38442112e-06
      3.00122406e-06 3.41259897e-06 4.81993220e-06 5.09069196e-06
      6.54627138e-06 6.91191599e-06 7.13354348e-06 6.86869225e-06
      7.49396304e-06 6.77623302e-06 5.94849780e-06 4.79871369e-06
      4.41154771e-06 4.63858760e-06 4.95714175e-06 5.11552389e-06
      6.78614606e-06 7.80937808e-06 8.20750029e-06 8.51281038e-06
      7.21216884e-06 5.48000844e-06 3.34783203e-06 8.19130378e-07
      -6.08108394e-07 -2.66652955e-06 -2.32365119e-06 -1.41686189e-06
      -2.24246108e-07 1.68010024e-06 2.79140090e-06 4.13247608e-06
      8.65312632e-06 8.52348512e-06 7.24548136e-06 5.53886184e-06
      4.97703058e-06 3.61419825e-06 2.79456981e-06 1.66981954e-06
      9.47185015e-07 1.08309780e-06 1.66567941e-06 1.16141257e-06
      9.70970063e-07 1.52964162e-06 1.58492173e-06 2.63992956e-06
      2.10055259e-06 1.19919844e-06 1.26171381e-06 4.39112029e-07
      1.37942004e-06 1.12563293e-06 1.59917249e-06 2.59402441e-06
      4.67831433e-06 5.41256259e-06 5.95180154e-06 6.44834063e-06
      7.17640296e-06 8.45902287e-06 9.92392143e-06 1.07100941e-05
      1.25700026e-05 1.35059909e-05 1.40924603e-05 1.38465048e-05
      1.16733336e-05 9.06090008e-06 6.38404890e-06 3.69182203e-06
      2.40121608e-06 9.09530684e-07 2.55143073e-06 5.11927146e-06
      8.58278145e-06 1.23216450e-05 1.45189006e-05 1.63236655e-05
      1.40837365e-05 1.34202273e-05 1.20755240e-05 1.01643172e-05
      8.67869039e-06 7.01587624e-06 5.49156539e-06 4.02956630e-06
      3.15167222e-06 3.80258371e-06 3.93886785e-06 3.32313994e-06
      2.70660712e-06 2.13943304e-06 1.01856813e-06 1.35628198e-07
      -2.07573748e-06 -4.63923880e-06 -5.48606340e-06 -6.68530583e-06
      -5.81428367e-06 -6.17931983e-06 -5.11245389e-06 -3.16295973e-06
      -1.11855250e-07 1.83890143e-06 3.66113659e-06 5.64569154e-06
      7.86153487e-06 1.04570518e-05 1.33433223e-05 1.42379495e-05
      1.52777848e-05 1.51667427e-05 1.47144310e-05 1.27627809e-05
      9.14985048e-06 5.53479686e-06 2.87005673e-06 8.49944513e-07
      9.36636525e-07 8.94474283e-07 4.10200846e-06 8.10755046e-06
      1.33966105e-05 1.83572665e-05 2.09402042e-05 2.28542249e-05
      1.04408637e-05 9.36457127e-06 9.00237865e-06 7.98755718e-06
      7.13424060e-06 6.64299296e-06 6.12482791e-06 5.30935040e-06
      5.57964722e-06 6.94727214e-06 6.87478087e-06 6.21249274e-06
      5.04536729e-06 3.07099776e-06 9.35171215e-07 -1.91405252e-06
      -4.96102712e-06 -8.48973468e-06 -9.16372574e-06 -1.00110337e-05
      -8.89251078e-06 -8.97356222e-06 -7.29975909e-06 -4.89847253e-06
      -1.40201382e-06 1.31480647e-06 4.12703139e-06 7.21614788e-06
      1.06127800e-05 1.38911655e-05 1.72592572e-05 1.70526964e-05
      1.61522094e-05 1.35234186e-05 1.06113894e-05 6.12315034e-06
      6.10351833e-07 -4.14161696e-06 -6.61319928e-06 -7.77008154e-06
      -5.85780754e-06 -4.21980940e-06 2.26753372e-07 4.88643627e-06
      1.07420274e-05 1.57369959e-05 1.80903189e-05 1.97392637e-05
      1.62593938e-06 1.92541393e-07 9.74198429e-07 8.99288352e-07
      1.07763879e-06 1.85361898e-06 2.99188332e-06 3.30628745e-06
      5.08185713e-06 6.85762507e-06 6.90700654e-06 6.57976489e-06
      5.62016976e-06 3.16935348e-06 1.11745419e-06 -2.11605857e-06
      -4.50223979e-06 -7.56495638e-06 -7.26480812e-06 -7.59443719e-06
      -6.28159023e-06 -5.92113656e-06 -3.97289796e-06 -1.78620553e-06
      1.49751270e-06 4.18183436e-06 7.10549421e-06 1.03695229e-05
      1.37298275e-05 1.63179284e-05 1.86537945e-05 1.68355709e-05
      1.42875406e-05 9.32971398e-06 4.49118534e-06 -1.26675809e-06
      -7.29647218e-06 -1.19726610e-05 -1.37966599e-05 -1.42700319e-05
      -1.12864946e-05 -9.14995599e-06 -4.92144045e-06 -1.50794699e-06
      2.47376374e-06 5.60065791e-06 6.93728907e-06 7.99082318e-06
      -4.00311819e-06 -5.82710300e-06 -4.89078457e-06 -5.28734427e-06
      -5.62156083e-06 -5.21593392e-06 -3.53186715e-06 -2.60566298e-06
      -5.67378947e-07 6.87260410e-07 7.51035259e-07 9.88952934e-07
      7.90197817e-07 -1.13443969e-06 -2.05184574e-06 -3.70205748e-06
      -4.03667173e-06 -5.07843470e-06 -3.41932127e-06 -3.23660720e-06
      -1.64876997e-06 -3.83924345e-07 1.68953477e-06 3.31414753e-06
      6.08745677e-06 8.30469162e-06 1.04207847e-05 1.25668503e-05
      1.44549176e-05 1.48357249e-05 1.49230173e-05 1.18007574e-05
      8.82139557e-06 3.42469502e-06 -1.13950489e-06 -5.51896755e-06
      -9.37642380e-06 -1.18752405e-05 -1.21559397e-05 -1.17231893e-05
      -8.60045384e-06 -7.61522551e-06 -5.24216966e-06 -4.84523798e-06
      -4.89870490e-06 -5.15818692e-06 -5.67677262e-06 -5.42003409e-06
      -4.25457438e-06 -6.24329914e-06 -6.00850535e-06 -7.61294041e-06
      -9.87688691e-06 -1.09999346e-05 -1.00777088e-05 -9.43913528e-06
      -8.68404368e-06 -8.75452861e-06 -9.27998462e-06 -8.72169130e-06
      -8.55981034e-06 -9.74357954e-06 -9.24186770e-06 -8.35999617e-06
      -5.98206907e-06 -4.24188192e-06 -1.31305046e-06 -6.27031227e-07
      1.23688255e-06 3.67916437e-06 5.50389404e-06 6.47005027e-06
      8.76509512e-06 1.06687603e-05 1.16706624e-05 1.20603318e-05
      1.21249022e-05 9.71407826e-06 7.55455994e-06 3.88401395e-06
      1.47722051e-06 -2.47896719e-06 -4.86697718e-06 -5.94610401e-06
      -5.91979506e-06 -5.13981740e-06 -3.35096001e-06 -1.63387938e-06
      1.21202947e-06 4.06783755e-07 5.21832305e-07 -2.17484558e-06
      -6.22563539e-06 -9.73878014e-06 -1.20871346e-05 -1.25680526e-05
      -3.02711896e-06 -4.61716581e-06 -4.91978471e-06 -7.13773170e-06
      -1.07812084e-05 -1.25949109e-05 -1.24589333e-05 -1.24374546e-05
      -1.28781248e-05 -1.36162580e-05 -1.47496412e-05 -1.37535326e-05
      -1.34443535e-05 -1.39804833e-05 -1.25375136e-05 -1.00378566e-05
      -6.07109723e-06 -2.76421110e-06 2.51127176e-07 8.46275952e-07
      2.27170131e-06 5.01852355e-06 5.71798410e-06 5.99376290e-06
      7.31428872e-06 8.49106800e-06 8.16052761e-06 6.88719410e-06
      5.62710102e-06 8.78042385e-07 -2.47163121e-06 -5.73982925e-06
      -6.92625144e-06 -8.44389797e-06 -7.90976355e-06 -5.41255304e-06
      -1.75009393e-06 1.98444468e-06 5.59294995e-06 8.59742613e-06
      1.11414211e-05 9.47426270e-06 8.47172123e-06 4.38659708e-06
      -1.45485467e-06 -6.52607787e-06 -9.49018158e-06 -1.03818447e-05
      -1.42036606e-06 -2.17609750e-06 -2.52499717e-06 -4.46288277e-06
      -8.03994408e-06 -9.30199258e-06 -9.61633850e-06 -1.03366710e-05
      -1.08773856e-05 -1.10206083e-05 -1.23360169e-05 -1.06862844e-05
      -9.82456095e-06 -9.75940384e-06 -8.08843924e-06 -5.66221479e-06
      -2.10477538e-06 8.28446559e-07 2.95566497e-06 3.20326467e-06
      3.78025788e-06 5.65283926e-06 4.79459186e-06 4.44704665e-06
      3.75944342e-06 2.92273739e-06 8.77638058e-07 -1.78401581e-06
      -3.74651904e-06 -9.43706891e-06 -1.24730486e-05 -1.43656880e-05
      -1.39407530e-05 -1.31845245e-05 -1.03718676e-05 -5.89454066e-06
      -6.59483192e-07 4.62718072e-06 8.85096051e-06 1.26441173e-05
      1.50653195e-05 1.40917509e-05 1.34912843e-05 1.01156556e-05
      4.75308798e-06 3.34802697e-09 -2.35522111e-06 -3.38264636e-06
      2.84555858e-06 2.79613164e-06 2.32875959e-06 4.36116096e-07
      -2.65485619e-06 -3.79015523e-06 -5.13633131e-06 -7.19029549e-06
      -7.76851903e-06 -7.51514062e-06 -9.05654633e-06 -7.36662605e-06
      -5.77363062e-06 -5.08015682e-06 -3.29858653e-06 -1.32773846e-06
      1.35915195e-06 3.59247360e-06 5.60468425e-06 6.41241195e-06
      6.83944700e-06 7.66282847e-06 5.65762275e-06 4.58320665e-06
      1.54535269e-06 -1.86352531e-06 -5.36956986e-06 -8.84045676e-06
      -1.05199206e-05 -1.48450035e-05 -1.58623116e-05 -1.55370926e-05
      -1.33622407e-05 -1.13112974e-05 -7.81450035e-06 -3.85139128e-06
      8.16678920e-08 4.53693610e-06 7.26411963e-06 1.05535810e-05
      1.25663018e-05 1.25934857e-05 1.26068117e-05 1.07024225e-05
      6.50545189e-06 2.88495517e-06 1.24044266e-06 6.32610266e-08
      8.67502149e-06 8.79289928e-06 7.82197094e-06 5.19787500e-06
      2.26868065e-06 3.08271630e-08 -2.75234811e-06 -6.18094509e-06
      -7.35316962e-06 -7.62717491e-06 -9.20094681e-06 -8.19457364e-06
      -6.08387290e-06 -4.66091979e-06 -2.42085343e-06 -1.84829446e-07
      2.50673247e-06 4.80793051e-06 7.78116737e-06 9.78028220e-06
      1.06991110e-05 1.10601050e-05 8.55744747e-06 6.67539007e-06
      2.34974254e-06 -2.51549454e-06 -6.56356315e-06 -9.97953430e-06
      -1.07203359e-05 -1.23868804e-05 -1.08672093e-05 -8.58060139e-06
      -5.13910618e-06 -2.70543001e-06 2.38006365e-07 2.41971384e-06
      3.47987861e-06 5.17545323e-06 4.98059990e-06 6.30364184e-06
      6.92269168e-06 7.05671755e-06 6.82780319e-06 5.91733760e-06
      2.90956086e-06 5.13724558e-07 -7.72009230e-07 -2.08501683e-06
      1.11989566e-05 1.11480940e-05 9.87687781e-06 6.79480581e-06
      4.62234584e-06 1.60438685e-06 -1.37089978e-06 -4.78316133e-06
      -6.32238516e-06 -7.27402175e-06 -8.47602132e-06 -8.88402883e-06
      -7.21541437e-06 -5.74747901e-06 -3.44619843e-06 -7.75070021e-07
      2.48843526e-06 5.49805145e-06 9.66385687e-06 1.27309522e-05
      1.41678984e-05 1.46682241e-05 1.22635938e-05 1.00341176e-05
      5.99087525e-06 1.34313700e-06 -2.31753302e-06 -4.91890705e-06
      -5.11172539e-06 -5.08351377e-06 -2.50262156e-06 1.31864937e-07
      3.55961015e-06 5.68861697e-06 7.50083382e-06 8.03459898e-06
      6.62819957e-06 5.55238148e-06 2.96836379e-06 1.97165923e-06
      7.42503971e-07 7.02061584e-07 2.16722100e-07 1.52635636e-07
      -9.51948607e-07 -1.73244814e-06 -2.39090537e-06 -3.46150637e-06
      7.75971421e-06 7.73669308e-06 7.08998914e-06 4.94602500e-06
      5.08693802e-06 3.20455638e-06 1.91019421e-06 9.31824502e-08
      -1.22605127e-06 -2.69034444e-06 -4.09889572e-06 -7.16637351e-06
      -7.64911510e-06 -7.75761600e-06 -6.66793494e-06 -4.26597171e-06
      -6.43916962e-07 3.35627033e-06 8.55833787e-06 1.25024008e-05
      1.43429825e-05 1.52642515e-05 1.35468144e-05 1.18657426e-05
      9.12917494e-06 5.77851779e-06 3.28349051e-06 1.79272251e-06
      1.43823240e-06 1.38074824e-06 2.95141626e-06 4.37475819e-06
      6.65672314e-06 8.13147835e-06 8.80620428e-06 8.37914467e-06
      5.96608879e-06 3.63254208e-06 3.65920869e-07 -2.14349279e-06
      -4.36260871e-06 -4.20076185e-06 -3.97246504e-06 -2.79404208e-06
      -1.34084792e-06 -1.59460427e-07 3.45166342e-07 2.88411872e-09
      7.03321632e-07 1.09972245e-06 1.74600814e-06 1.54318093e-06
      4.78931224e-06 5.27816292e-06 6.22151265e-06 6.44848114e-06
      5.60784065e-06 3.92793481e-06 1.83103305e-06 -3.86389684e-06
      -6.90944353e-06 -9.12335145e-06 -9.93497997e-06 -8.63738478e-06
      -5.66845802e-06 -1.63106438e-06 3.37784650e-06 6.96159941e-06
      8.40745361e-06 9.21798073e-06 8.20718014e-06 7.77167224e-06
      6.78650167e-06 5.48356502e-06 4.99110092e-06 4.77932690e-06
      4.22627272e-06 3.15964007e-06 2.57584134e-06 2.13398403e-06
      2.72455281e-06 3.36478365e-06 3.32430386e-06 2.97759379e-06
      1.08353925e-06 -8.11194695e-07 -3.13788996e-06 -5.89113961e-06
      -7.71473788e-06 -7.41351778e-06 -6.00469275e-06 -3.61208276e-06
      -3.29712755e-08 2.62247931e-06 4.20692004e-06 4.70651685e-06
      -4.74527360e-06 -3.89172646e-06 -2.45261867e-06 -1.06724394e-06
      4.14008446e-06 6.19714774e-06 8.32290425e-06 1.00313728e-05
      9.68334098e-06 8.53153961e-06 6.78952847e-06 8.87045076e-07
      -2.95802488e-06 -5.74283649e-06 -7.87659155e-06 -8.08334789e-06
      -6.95088966e-06 -4.81403549e-06 -2.23857342e-06 -1.29024340e-06
      -1.64660594e-06 -2.08838742e-06 -3.25183146e-06 -2.57372312e-06
      -1.90919900e-06 -7.18623141e-07 1.40593079e-06 3.19415403e-06
      3.48727053e-06 2.11506722e-06 1.31792191e-07 -1.59907484e-06
      -2.69944940e-06 -3.22964365e-06 -3.87194632e-06 -3.76907110e-06
      -4.96041821e-06 -6.05411151e-06 -7.08263906e-06 -9.32118382e-06
      -1.01198793e-05 -1.00567613e-05 -7.81245490e-06 -4.69256793e-06
      7.91241064e-08 3.46470370e-06 5.53512791e-06 6.55419126e-06
      -5.05960224e-06 -4.15729255e-06 -3.26552572e-06 -1.47719834e-06
      3.28358465e-06 5.06205424e-06 6.78336482e-06 8.93301694e-06
      8.75063415e-06 8.61900844e-06 8.26146515e-06 4.57624856e-06
      1.77285131e-06 2.12508951e-07 -2.15870477e-06 -3.38919699e-06
      -3.88711942e-06 -4.05431410e-06 -4.44617899e-06 -6.62709272e-06
      -8.84890960e-06 -1.08062104e-05 -1.28343872e-05 -1.18592070e-05
      -1.05343934e-05 -7.86405326e-06 -3.87752516e-06 1.99645072e-07
      2.24410974e-06 1.98873386e-06 6.69105987e-07 -8.74142586e-07
      -2.95816039e-06 -4.71278736e-06 -6.31783860e-06 -6.84449788e-06
      -8.76443301e-06 -1.00148563e-05 -1.06912385e-05 -1.24396629e-05
      -1.23900236e-05 -1.22721658e-05 -9.39848178e-06 -5.77021319e-06
      -4.72260240e-07 3.47099490e-06 5.50518371e-06 6.59563830e-06
      -1.48278127e-06 -8.96032191e-07 -1.29608281e-06 1.17648371e-08
      2.62894673e-06 3.05893218e-06 3.49001698e-06 5.07085269e-06
      4.50182688e-06 5.13660052e-06 5.56720170e-06 4.35534639e-06
      3.03774095e-06 3.00938382e-06 1.06011521e-06 -7.95433053e-08
      -7.59171940e-07 -1.61662467e-06 -2.94537881e-06 -6.13773864e-06
      -8.47106821e-06 -1.08308959e-05 -1.34246156e-05 -1.26946716e-05
      -1.20900486e-05 -1.02563408e-05 -6.64434720e-06 -1.78863206e-06
      1.12194232e-06 2.22629888e-06 2.74816330e-06 2.31267973e-06
      3.19858486e-07 -1.87589626e-06 -4.28426847e-06 -6.43420162e-06
      -9.96430663e-06 -1.17214277e-05 -1.25440929e-05 -1.36607769e-05
      -1.27746443e-05 -1.16328838e-05 -8.00732596e-06 -4.09687391e-06
      8.93453716e-07 5.11102553e-06 6.63840092e-06 7.41165013e-06
      2.31240278e-06 2.69838483e-06 1.78285495e-06 2.56990756e-06
      3.28006513e-06 2.68514873e-06 2.03750574e-06 2.38117605e-06
      1.13004080e-06 1.89026457e-06 1.85508850e-06 1.86257694e-06
      1.73034323e-06 2.24930795e-06 6.65127345e-07 2.48860232e-07
      6.03372570e-08 -4.43776941e-07 -9.10172048e-07 -3.06654283e-06
      -4.01290799e-06 -5.77033734e-06 -8.26628639e-06 -7.79132733e-06
      -8.55556209e-06 -9.05041816e-06 -7.58466695e-06 -4.08189317e-06
      -2.07698599e-06 -4.67609027e-07 1.58875957e-06 2.16306444e-06
      1.22257347e-06 -3.35933841e-08 -1.96972587e-06 -4.91086030e-06
      -8.71317297e-06 -9.87772910e-06 -1.00998677e-05 -1.01660189e-05
      -8.40510438e-06 -6.02078126e-06 -2.23977213e-06 6.89607930e-07
      3.79840662e-06 6.97893756e-06 7.43735245e-06 7.57708722e-06
      3.60161039e-06 4.12095187e-06 3.81739846e-06 4.09328686e-06
      3.75067475e-06 2.77234949e-06 1.70863871e-06 7.28212001e-07
      -8.16490228e-07 -2.06244110e-07 -7.61805268e-07 -2.79684770e-07
      7.23329833e-07 9.43345412e-07 -4.98879160e-07 -3.75197430e-07
      -5.63918093e-07 -1.23749305e-06 -9.00413511e-07 -1.58100283e-06
      -1.00965826e-06 -1.99306055e-06 -4.06734398e-06 -3.84189934e-06
      -5.60336412e-06 -8.06761636e-06 -8.73113095e-06 -7.46264413e-06
      -7.07840036e-06 -5.57973135e-06 -2.67752739e-06 -1.47012781e-06
      -9.50559581e-07 -3.72606024e-07 -5.69916324e-07 -2.42053216e-06
      -4.29005968e-06 -3.72207433e-06 -2.73564069e-06 -2.03609761e-06
      -2.26803436e-07 2.05937295e-06 4.25321696e-06 4.36858545e-06
      4.01674151e-06 4.67898644e-06 3.85062867e-06 3.23904601e-06
      2.00739828e-06 2.68196459e-06 2.66237316e-06 1.52038047e-06
      -3.06340866e-07 -1.85552040e-06 -3.00179909e-06 -4.54204064e-06
      -5.34402170e-06 -4.33440528e-06 -4.12595091e-06 -2.68545818e-06
      -4.64987977e-07 -6.25449559e-07 -2.06652680e-06 -1.90236165e-06
      -2.49397817e-06 -3.91071217e-06 -3.38141604e-06 -2.67189944e-06
      -6.86920032e-07 -3.02613074e-07 -1.28126590e-06 -8.73424653e-07
      -2.43513819e-06 -5.44752447e-06 -7.06983701e-06 -7.69633516e-06
      -8.62607430e-06 -7.63665230e-06 -4.66635402e-06 -3.32463901e-06
      -1.86409022e-06 1.52685217e-07 1.71112902e-06 1.98280009e-06
      2.73204023e-06 4.84171096e-06 6.45633327e-06 6.88372893e-06
      7.43377041e-06 7.97349549e-06 7.21362358e-06 4.17087540e-06
      4.72696286e-07 -1.25570716e-06 -2.80902873e-06 -3.94141489e-06
      -1.43772286e-06 -7.56608529e-07 -1.49028108e-06 -4.64398909e-06
      -8.38872438e-06 -1.06357020e-05 -1.17103391e-05 -1.26655596e-05
      -1.19846927e-05 -9.93890444e-06 -8.13305905e-06 -5.59313276e-06
      -2.88124488e-06 -3.47166861e-06 -5.44076738e-06 -5.96277459e-06
      -7.02241823e-06 -9.12213727e-06 -8.59196007e-06 -6.42176474e-06
      -2.78322614e-06 1.33404058e-07 1.52411963e-06 3.36994958e-06
      3.66748850e-06 1.83761472e-06 5.95116148e-07 -1.01702494e-06
      -2.81131952e-06 -2.99234034e-06 -1.14532463e-06 -7.07497747e-07
      3.57345783e-07 2.43708200e-06 4.74748867e-06 6.76027048e-06
      9.13433450e-06 1.18400121e-05 1.32657597e-05 1.29035179e-05
      1.18635699e-05 1.04644359e-05 7.40667565e-06 3.12041061e-06
      -1.64666949e-06 -3.90036712e-06 -5.10811969e-06 -6.24055929e-06
      -6.41462520e-06 -5.57634166e-06 -6.53496681e-06 -1.00861471e-05
      -1.37251791e-05 -1.52743414e-05 -1.55744765e-05 -1.52893172e-05
      -1.34385582e-05 -1.05844028e-05 -7.91141065e-06 -5.66477047e-06
      -3.99465353e-06 -5.32392869e-06 -8.35877108e-06 -1.02592212e-05
      -1.19033220e-05 -1.46195925e-05 -1.43375773e-05 -1.12586486e-05
      -6.78954666e-06 -1.92406969e-06 1.53923122e-06 5.08088942e-06
      7.75003809e-06 8.24416293e-06 8.23580649e-06 7.06786795e-06
      5.42461476e-06 4.22546236e-06 4.35332549e-06 3.05182448e-06
      2.51391771e-06 3.44919863e-06 5.42559610e-06 8.19996512e-06
      1.11702857e-05 1.41572118e-05 1.55261805e-05 1.51744025e-05
      1.35109767e-05 1.13763026e-05 7.93546133e-06 4.74618446e-06
      1.35408857e-06 3.19928802e-07 2.58735355e-07 -3.95487234e-07
      -1.13788319e-05 -1.01556434e-05 -9.76402589e-06 -1.10114843e-05
      -1.14629092e-05 -1.04611818e-05 -9.20387811e-06 -7.93958225e-06
      -6.08365644e-06 -3.59430805e-06 -1.72776163e-06 -1.67578969e-06
      -2.26832958e-06 -4.34672984e-06 -7.91661660e-06 -1.07660780e-05
      -1.23559876e-05 -1.51307331e-05 -1.50746801e-05 -1.20889254e-05
      -8.89376588e-06 -4.98871987e-06 -2.57632405e-06 2.20718789e-07
      3.10316000e-06 5.04755872e-06 5.96546670e-06 6.46591934e-06
      6.51341452e-06 5.87862633e-06 5.47145419e-06 3.22670030e-06
      1.28097599e-06 1.19126537e-06 2.52845621e-06 5.58214333e-06
      8.96548136e-06 1.26334744e-05 1.45886497e-05 1.53501769e-05
      1.40766624e-05 1.22702832e-05 9.66512289e-06 8.39391487e-06
      7.03794331e-06 7.61655519e-06 8.74465331e-06 8.67599556e-06
      -1.18642620e-05 -1.04691535e-05 -8.20466539e-06 -6.14500050e-06
      -2.73290857e-06 9.04832632e-07 3.28037754e-06 4.46744480e-06
      4.93787866e-06 5.64150469e-06 5.28732835e-06 2.39409405e-06
      -5.28952057e-07 -2.86550471e-06 -5.59480668e-06 -7.77315836e-06
      -7.67427900e-06 -9.08361744e-06 -8.53291476e-06 -6.00230260e-06
      -5.36289281e-06 -4.66453730e-06 -6.15835279e-06 -6.94219943e-06
      -6.75382307e-06 -5.67391089e-06 -5.07906952e-06 -3.22024971e-06
      -1.36481162e-06 -5.85150360e-07 -1.95397725e-08 -1.56675071e-06
      -3.57913314e-06 -3.37032429e-06 -1.99007150e-06 1.60980153e-06
      5.59804494e-06 1.00289972e-05 1.25651659e-05 1.42992940e-05
      1.34518668e-05 1.20264112e-05 1.03167622e-05 1.03645198e-05
      1.03521061e-05 1.21595122e-05 1.39831182e-05 1.43467496e-05
      -6.61390231e-06 -5.57947760e-06 -2.57321312e-06 1.37137295e-06
      6.44801639e-06 1.09095972e-05 1.29520831e-05 1.30815251e-05
      1.16379970e-05 1.03476632e-05 8.03079547e-06 3.56314990e-06
      -2.47450771e-07 -1.92283278e-06 -2.83680561e-06 -3.25142923e-06
      -1.09066650e-06 -1.00412296e-06 -2.51027046e-07 1.42838962e-06
      -3.27297073e-07 -2.38479652e-06 -7.01426006e-06 -1.08464828e-05
      -1.32623736e-05 -1.37861616e-05 -1.40107322e-05 -1.22260071e-05
      -1.03625925e-05 -9.41766757e-06 -8.10680831e-06 -8.54952032e-06
      -9.75917828e-06 -8.20970763e-06 -6.20759556e-06 -2.07442258e-06
      2.14460806e-06 6.39890459e-06 8.48489708e-06 9.73619626e-06
      8.61443186e-06 6.99769362e-06 5.78882009e-06 6.29413444e-06
      6.84289625e-06 9.36795277e-06 1.13604865e-05 1.20361101e-05
      -5.17675119e-07 -2.12298886e-07 1.91650997e-06 5.41365898e-06
      9.45269312e-06 1.26546711e-05 1.33275698e-05 1.23406280e-05
      9.92800778e-06 8.22937727e-06 6.20090350e-06 3.07729670e-06
      8.15646615e-07 9.00973589e-07 1.89098853e-06 2.93737571e-06
      5.23405015e-06 4.79182063e-06 3.97941722e-06 3.88506123e-06
      4.37451831e-07 -2.16926310e-06 -6.71114594e-06 -1.04317305e-05
      -1.28379015e-05 -1.36326407e-05 -1.41531518e-05 -1.37111010e-05
      -1.36693061e-05 -1.40310412e-05 -1.31684228e-05 -1.31386205e-05
      -1.35551109e-05 -1.07471697e-05 -8.62145589e-06 -4.86291947e-06
      -1.47794094e-06 1.19398328e-06 1.58927878e-06 1.09641644e-06
      -7.12843587e-07 -2.85299802e-06 -3.89975003e-06 -3.44683917e-06
      -2.91205856e-06 -3.90702610e-07 1.40199506e-06 2.26556222e-06
      2.05277843e-06 1.60388515e-06 2.05349056e-06 3.66857671e-06
      5.49973356e-06 6.47612069e-06 5.93185632e-06 4.55795589e-06
      2.58078308e-06 2.21259165e-06 2.59858416e-06 2.79924734e-06
      3.45074591e-06 5.52423671e-06 7.76483375e-06 9.33802767e-06
      9.86682426e-06 7.40792666e-06 4.39120595e-06 2.59397189e-06
      -1.13906037e-06 -1.84725752e-06 -3.85004250e-06 -5.38280801e-06
      -6.15259296e-06 -6.25327402e-06 -6.98893245e-06 -8.52595531e-06
      -1.07775168e-05 -1.24161998e-05 -1.23627024e-05 -1.20738141e-05
      -1.19009837e-05 -8.71663087e-06 -7.64768993e-06 -5.31512342e-06
      -3.65294568e-06 -3.30004605e-06 -4.87623993e-06 -6.84589440e-06
      -8.71559769e-06 -1.08248023e-05 -1.15793491e-05 -1.11778518e-05
      -1.09710190e-05 -9.11816642e-06 -7.73663032e-06 -6.88409273e-06
      1.14481873e-06 2.16772023e-07 -6.25733605e-07 -7.06541243e-07
      -4.85424721e-07 -1.17849709e-06 -1.81802147e-06 -2.56460885e-06
      -3.41909458e-06 -2.17677666e-06 5.66828589e-07 3.35757500e-06
      5.79532752e-06 8.59091961e-06 1.07234837e-05 1.17074378e-05
      1.00795569e-05 5.92339984e-06 1.75980347e-06 -7.20631704e-07
      -3.12050543e-06 -6.73465991e-07 2.73771064e-07 1.04790013e-06
      2.15238879e-06 2.98636678e-06 2.00021100e-06 -8.00984139e-07
      -4.24834434e-06 -5.96643849e-06 -6.14983310e-06 -5.40146948e-06
      -4.95398717e-06 -2.68769304e-06 -3.61261323e-06 -3.18809225e-06
      -3.48215349e-06 -5.20942103e-06 -7.79834136e-06 -9.67780215e-06
      -1.03227894e-05 -1.11653871e-05 -1.09523016e-05 -1.01162941e-05
      -1.00915313e-05 -9.08492348e-06 -8.16898500e-06 -7.46073783e-06
      -6.31791465e-07 -1.53914891e-06 -2.67332939e-06 -3.26324835e-06
      -3.36318953e-06 -4.32456454e-06 -3.98661587e-06 -3.42482508e-06
      -3.37423717e-06 -1.56287581e-06 1.84419866e-06 4.90208777e-06
      6.90241905e-06 8.88542218e-06 9.66444532e-06 9.42153292e-06
      6.45065256e-06 1.80809923e-06 -2.35309381e-06 -4.80307381e-06
      -5.40862584e-06 -7.87223314e-07 1.76516835e-06 3.75756713e-06
      6.32838328e-06 7.86487271e-06 6.77677099e-06 4.26665292e-06
      1.20250706e-06 4.14352371e-07 4.94142000e-07 1.76867263e-06
      2.15739692e-06 2.65961467e-06 3.17754600e-09 -1.13815577e-06
      -2.94781466e-06 -5.83089650e-06 -7.87975296e-06 -8.12581675e-06
      -6.80508128e-06 -5.56823943e-06 -3.81986047e-06 -2.04300363e-06
      -1.89753632e-06 -1.53841347e-06 -1.03387458e-06 -5.21387278e-07
      6.27144914e-07 1.86997880e-07 -5.24924758e-07 -7.37993275e-07
      -4.99924454e-07 -9.67146889e-07 4.57460878e-08 1.31358843e-06
      1.19628351e-06 1.99186593e-06 4.37780272e-06 5.97931466e-06
      6.41307724e-06 7.14609723e-06 6.64429990e-06 5.97068947e-06
      3.38400400e-06 -1.91853928e-08 -2.84729344e-06 -4.12055260e-06
      -3.02844364e-06 2.09095424e-06 4.75036495e-06 6.33505078e-06
      8.80927564e-06 9.37559707e-06 7.15611395e-06 4.81622737e-06
      2.12968166e-06 1.70794760e-06 1.58455077e-06 3.22865731e-06
      3.52845882e-06 2.80214840e-06 -9.19924581e-09 -1.67964083e-06
      -3.96551923e-06 -6.73918157e-06 -7.15154556e-06 -5.50926643e-06
      -2.81268899e-06 -3.48014382e-08 3.02626768e-06 5.73045008e-06
      6.00092881e-06 6.16992429e-06 6.46027684e-06 6.69202063e-06
      6.73256181e-06 6.86402382e-06 6.42504347e-06 6.28549651e-06
      6.33161972e-06 5.68050109e-06 5.71571854e-06 6.00122576e-06
      4.50754624e-06 3.26137365e-06 4.10047642e-06 4.25956250e-06
      3.67885900e-06 3.75905847e-06 3.03502634e-06 3.23613017e-06
      2.31134186e-06 1.12242969e-06 6.31755768e-07 1.78158359e-06
      4.47131833e-06 9.58378951e-06 1.23667351e-05 1.29034297e-05
      1.36725675e-05 1.16502415e-05 7.03077012e-06 3.19829246e-06
      -4.66901753e-07 -2.06329105e-06 -3.42366093e-06 -1.60746504e-06
      -1.11851296e-06 -1.56637464e-06 -2.83482768e-06 -3.86941838e-06
      -5.31521619e-06 -6.79011646e-06 -5.64495940e-06 -3.28131910e-06
      -7.80051266e-07 1.82843007e-06 4.93767311e-06 7.73071406e-06
      7.63176649e-06 8.04481351e-06 8.33683953e-06 8.18862918e-06
      1.37792858e-05 1.43181633e-05 1.33403892e-05 1.20648601e-05
      1.08179511e-05 8.89224521e-06 6.79943741e-06 5.31642809e-06
      2.73619503e-06 3.37351423e-07 7.64535230e-07 1.03652542e-06
      9.12343580e-07 1.33982689e-06 1.13978876e-06 2.44529724e-06
      2.77283289e-06 2.82658971e-06 3.62006244e-06 6.21709432e-06
      9.07165031e-06 1.35301480e-05 1.65459824e-05 1.62037049e-05
      1.50179212e-05 1.12006837e-05 5.10891550e-06 -1.30673953e-07
      -4.70753730e-06 -7.56869895e-06 -1.01659180e-05 -7.98995097e-06
      -6.95612152e-06 -6.13160728e-06 -5.29338377e-06 -4.99954331e-06
      -4.55388954e-06 -4.08210644e-06 -2.21099822e-06 -4.60073608e-07
      4.09226118e-07 1.13067085e-06 2.45104525e-06 3.82377539e-06
      2.38970142e-06 2.76909759e-06 2.90636217e-06 2.31347281e-06
      1.54560003e-05 1.62713641e-05 1.43285906e-05 1.11683385e-05
      8.41333349e-06 5.43730857e-06 2.14970737e-06 3.06662002e-07
      -1.32420632e-06 -2.47721323e-06 -7.97927441e-07 1.02989077e-06
      2.39190695e-06 3.84797977e-06 4.03651120e-06 5.64351785e-06
      6.05149398e-06 5.65256551e-06 5.35362278e-06 6.46122817e-06
      6.75767342e-06 8.55750841e-06 1.01805927e-05 8.64198864e-06
      6.32940100e-06 3.16855994e-06 -1.52690336e-06 -5.30271791e-06
      -8.42710597e-06 -1.07146107e-05 -1.33438907e-05 -1.06672687e-05
      -9.31104933e-06 -7.90076137e-06 -5.91784237e-06 -4.50741481e-06
      -1.99266537e-06 2.69653498e-07 2.40537815e-06 3.26204486e-06
      2.17849220e-06 5.29660156e-07 -1.00609464e-06 -2.29252623e-06
      -5.87606655e-06 -6.52419931e-06 -6.98913664e-06 -8.07180095e-06
      9.96633207e-06 1.10845331e-05 8.96668371e-06 4.67133123e-06
      1.89628679e-06 -4.84189400e-07 -2.87638909e-06 -3.09126926e-06
      -2.32393541e-06 -9.93562708e-07 2.00567661e-06 4.85127521e-06
      7.31182490e-06 9.63988077e-06 9.81584708e-06 1.10181791e-05
      1.12399939e-05 9.81557514e-06 7.50383151e-06 5.42376029e-06
      1.69909151e-06 -5.65207415e-07 -1.97387749e-06 -4.76866626e-06
      -6.78436209e-06 -7.43684632e-06 -8.34412822e-06 -7.83283394e-06
      -7.23656649e-06 -7.58517717e-06 -9.51363290e-06 -7.35433650e-06
      -6.84045926e-06 -6.80787161e-06 -5.53319978e-06 -4.13009320e-06
      -5.24425275e-07 2.56339695e-06 5.06659671e-06 5.58830470e-06
      3.44350292e-06 5.65860205e-07 -2.79605842e-06 -6.25009807e-06
      -1.11902436e-05 -1.31588395e-05 -1.40398843e-05 -1.54512582e-05
      2.08560141e-06 3.49173729e-06 2.44637977e-06 -1.66443374e-06
      -2.68499844e-06 -3.32908985e-06 -4.05649143e-06 -2.56836734e-06
      -4.23133741e-07 2.02141905e-06 4.77961066e-06 6.60200067e-06
      8.79021354e-06 1.11709305e-05 1.13125943e-05 1.21076473e-05
      1.31411580e-05 1.15921985e-05 9.11858751e-06 5.76795628e-06
      1.89592612e-07 -4.40360918e-06 -7.83723681e-06 -1.08867971e-05
      -1.16153969e-05 -1.03208022e-05 -8.17381624e-06 -4.23659912e-06
      -6.32178228e-07 2.98570022e-08 -1.37015172e-06 -9.77880859e-07
      -1.92550920e-06 -4.13062526e-06 -4.54746305e-06 -4.34223693e-06
      -1.25921838e-06 1.06823325e-06 3.56050555e-06 4.01352418e-06
      2.02282604e-06 -7.27542826e-08 -2.37280301e-06 -5.27228667e-06
      -8.50358083e-06 -1.00614316e-05 -9.97449479e-06 -1.11457157e-05
      -1.97468648e-06 -5.12118163e-07 -2.73010187e-07 -4.05893616e-06
      -3.40555039e-06 -3.07160803e-06 -3.23913150e-06 -1.52694258e-06
      5.97683609e-08 1.67134931e-06 3.30159264e-06 3.05414437e-06
      3.89490833e-06 5.30609395e-06 5.10235077e-06 5.25724272e-06
      7.57961243e-06 6.61567128e-06 6.30166096e-06 5.24487950e-06
      1.97027703e-06 -1.24383200e-06 -3.79837888e-06 -6.17042679e-06
      -6.20896117e-06 -5.61692332e-06 -4.02875185e-06 -6.93432128e-07
      2.88725164e-06 2.91262381e-06 2.48528454e-06 2.00044474e-06
      1.17598290e-06 -1.35142864e-06 -2.34566505e-06 -3.50111441e-06
      -1.93473534e-06 -1.63232266e-06 -3.30914474e-07 -4.29292783e-07
      -1.77369657e-06 -1.76583558e-06 -6.29022111e-07 -1.06171207e-07
      1.39403357e-06 2.78951006e-06 5.38293352e-06 5.08252242e-06
      -1.09093526e-06 1.91287512e-07 9.31252941e-07 -3.30196599e-06
      -2.43332647e-06 -2.54052952e-06 -3.25486099e-06 -2.16018907e-06
      -1.63182642e-06 -1.19041295e-06 -7.09686390e-08 -1.59437479e-06
      -2.13987437e-06 -2.24455562e-06 -3.55498082e-06 -4.81720599e-06
      -2.25906228e-06 -3.23877725e-06 -1.37974359e-06 9.55016844e-07
      1.70689611e-06 1.68288614e-06 1.66711561e-06 2.59089603e-08
      -4.39830444e-07 -2.20523361e-06 -3.56816531e-06 -3.34563083e-06
      -1.58511045e-06 -2.44803027e-06 -1.03710897e-06 -3.60214159e-07
      9.03353055e-07 3.62906860e-07 4.23076386e-07 -1.36145479e-06
      -1.03840443e-06 -2.65685253e-06 -3.21263155e-06 -4.29888769e-06
      -5.28956434e-06 -3.46147408e-06 9.60614443e-07 5.22135133e-06
      1.14471259e-05 1.64392222e-05 2.16652188e-05 2.23284369e-05
      2.48205225e-07 1.40862437e-06 2.16005219e-06 -2.48594506e-06
      -1.89007062e-06 -2.48674382e-06 -3.59844421e-06 -2.82246015e-06
      -2.69110183e-06 -2.66894813e-06 -1.53079782e-06 -3.32933632e-06
      -4.43720819e-06 -5.31667274e-06 -7.35837557e-06 -9.51958282e-06
      -7.24461279e-06 -8.51796904e-06 -5.93453342e-06 -2.14751344e-06
      4.80312167e-07 2.02984484e-06 3.34350898e-06 1.98425528e-06
      1.11906763e-06 -1.87057162e-06 -4.83093345e-06 -6.26949213e-06
      -5.48765684e-06 -6.63661513e-06 -4.17948695e-06 -2.51429196e-06
      6.92839350e-08 8.49137962e-07 1.70459691e-06 -1.67158575e-07
      -2.49523765e-07 -2.59527405e-06 -4.06104482e-06 -5.66198196e-06
      -6.60523119e-06 -4.14065789e-06 1.52323844e-06 7.29952217e-06
      1.53900692e-05 2.19483863e-05 2.82709752e-05 2.93413359e-05
      -1.61679873e-05 -1.53776928e-05 -1.41190176e-05 -1.14043887e-05
      -5.46273077e-06 2.28050726e-06 7.98530073e-06 1.04166229e-05
      8.18653916e-06 5.79865127e-06 1.27062538e-06 -2.38311691e-06
      -3.44626892e-06 -1.05269601e-06 1.92966036e-06 1.86361501e-06
      -5.77635944e-07 -3.64871835e-06 -6.26100564e-06 -7.06141373e-06
      -6.72300439e-06 -5.52846996e-06 -3.05916615e-06 -9.87973635e-07
      -1.60315858e-06 -3.47195578e-06 -3.90067771e-06 -2.51004803e-06
      -2.47863767e-07 2.37449240e-06 4.52431686e-06 5.06344395e-06
      5.36636708e-06 4.92167055e-06 3.64761900e-06 3.53233395e-06
      2.32739785e-06 1.64826190e-06 1.42016972e-06 2.63766606e-06
      2.53214489e-06 2.04275284e-06 2.34308277e-06 2.62978779e-06
      2.59273838e-06 1.58324758e-06 1.03440266e-06 1.56778628e-06
      -1.34739357e-05 -1.43321004e-05 -1.41018727e-05 -1.21766316e-05
      -8.67647486e-06 -1.76270623e-06 4.11944029e-06 7.69144026e-06
      8.88169689e-06 9.06823789e-06 6.51502842e-06 1.27999692e-06
      -3.70589646e-06 -4.03038393e-06 -1.86932812e-06 2.83491886e-07
      2.20904582e-07 -1.18752052e-06 -2.75132356e-06 -4.29040620e-06
      -4.81127290e-06 -5.46872525e-06 -4.62618209e-06 -3.22921142e-06
      -2.52987411e-06 -3.04401510e-06 -4.02496198e-06 -3.45644025e-06
      -9.33820786e-07 1.06169352e-06 3.31222805e-06 5.38319728e-06
      5.10836981e-06 4.80906738e-06 3.05019898e-06 1.80593258e-06
      -8.55886668e-08 -1.22962456e-06 -4.23308052e-07 6.54481994e-07
      2.29803595e-06 1.75546143e-06 1.35892469e-06 2.25537565e-06
      2.49266304e-06 1.58490229e-06 9.25709514e-07 8.18328999e-07
      -7.19829268e-06 -8.40716530e-06 -8.92932621e-06 -8.78990431e-06
      -7.93618256e-06 -5.76596631e-06 -1.64764151e-06 2.14188412e-06
      4.39860014e-06 6.24173663e-06 7.94353036e-06 6.28382259e-06
      2.24770383e-06 -1.47026469e-06 -1.71771774e-06 -3.43101220e-07
      1.11089696e-06 1.84046712e-06 1.24966800e-06 6.57218038e-07
      5.21587708e-07 -7.33862407e-07 -2.16760714e-06 -1.81260953e-06
      -1.87545959e-06 -1.72347688e-06 -2.94479173e-06 -3.12830707e-06
      -1.90682590e-06 5.81159263e-08 1.26021405e-06 2.90522303e-06
      3.89156503e-06 3.83169026e-06 2.31491640e-06 9.56654503e-07
      -8.97251709e-07 -2.91436481e-06 -3.88130138e-06 -4.33131481e-06
      -2.90980552e-06 -1.64564040e-06 -1.17560853e-06 -5.87852639e-07
      6.51439052e-07 1.14528757e-06 4.66976900e-07 -1.08025503e-07
      -6.22696177e-07 -2.53769736e-06 -4.21619052e-06 -4.92628760e-06
      -5.40589554e-06 -6.18589365e-06 -5.18634261e-06 -3.47050377e-06
      -7.25835207e-07 1.91592335e-06 3.61318234e-06 4.76387049e-06
      4.21876257e-06 2.01941521e-06 5.05380797e-07 6.85465636e-07
      2.05797141e-06 2.44283888e-06 2.67218957e-06 2.73711976e-06
      3.13884289e-06 2.32065645e-06 7.62707145e-07 -7.87509691e-07
      -3.95617192e-08 8.23108849e-07 -5.20150820e-08 -1.38130520e-06
      -1.52541793e-06 -5.10504378e-07 8.44270289e-07 1.83703048e-06
      2.54953579e-06 3.33548269e-06 2.61188211e-06 1.91772756e-06
      9.58887512e-08 -2.17339880e-06 -4.17158890e-06 -5.44103659e-06
      -5.91188473e-06 -5.63385174e-06 -4.44442639e-06 -3.47990817e-06
      -2.53649978e-06 -1.19800370e-06 -1.24885582e-06 -1.92430548e-06
      3.08932385e-06 1.73327317e-06 -7.05901300e-07 -2.71852559e-06
      -3.94178096e-06 -4.19268599e-06 -4.39404221e-06 -3.54903545e-06
      -2.27946634e-06 -1.65620818e-07 -1.18078196e-08 2.85843129e-07
      8.99272948e-07 6.50213224e-07 2.56420748e-07 6.40938310e-07
      4.62319491e-07 7.51853293e-07 5.44570639e-07 6.88616751e-07
      1.09873793e-06 2.05866309e-06 1.09949463e-06 -5.04330956e-07
      -5.01239754e-07 5.63534400e-07 1.05315530e-06 3.93258063e-07
      -7.71664702e-07 -6.85955058e-07 3.89319752e-07 1.85071633e-06
      1.69682096e-06 2.04605226e-06 3.47275886e-06 3.82209009e-06
      2.69793895e-06 4.85956264e-07 -1.52999598e-06 -2.75390198e-06
      -2.97580823e-06 -3.76704975e-06 -5.32399099e-06 -5.63167714e-06
      -4.43026329e-06 -3.41801706e-06 -2.77910522e-06 -3.00712873e-06
      4.60581305e-06 3.99828787e-06 2.17480601e-06 8.61759091e-08
      -2.24484461e-06 -3.21786843e-06 -3.44564160e-06 -3.04314267e-06
      -1.68572046e-06 -3.13392036e-07 -7.00296312e-07 -2.24414453e-06
      -2.51047345e-06 -2.33725405e-06 -1.09975986e-06 1.93125501e-07
      5.90932586e-07 1.81295746e-07 -1.35918560e-06 -3.14414956e-06
      -4.03213653e-06 -3.94446124e-06 -2.19643175e-06 -1.01571720e-06
      -1.76828325e-06 -9.20068487e-07 -7.25699863e-07 -1.65122810e-06
      -2.13127782e-06 -2.31123863e-06 -1.20178674e-06 1.36377162e-06
      1.80878681e-06 1.80003110e-06 2.45735873e-06 3.85856629e-06
      5.21954371e-06 4.15292743e-06 1.76087133e-06 9.29028516e-08
      9.72688554e-07 1.27085218e-06 -7.09800474e-07 -4.98330792e-06
      -7.07221579e-06 -7.24883512e-06 -5.89432921e-06 -5.03596812e-06
      7.49014760e-07 7.85062525e-07 9.61752562e-07 9.87113253e-07
      -6.48170101e-07 -2.51473352e-06 -2.87235775e-06 -2.24997484e-06
      -2.19824938e-06 -1.14494969e-06 -1.37634117e-06 -3.46835191e-06
      -4.75556226e-06 -5.25764426e-06 -4.75764546e-06 -2.10265375e-06
      8.56317854e-07 2.39100859e-06 1.50220160e-06 -1.58842067e-06
      -4.76545983e-06 -7.40540281e-06 -7.40981159e-06 -4.69253882e-06
      -3.57468662e-06 -3.66569907e-06 -2.75682692e-06 -3.51354765e-06
      -5.08361700e-06 -5.73730267e-06 -3.65127926e-06 -9.75639523e-07
      6.96133725e-07 8.45168756e-07 9.57826387e-07 2.26700399e-06
      5.04598029e-06 6.62176217e-06 5.78360414e-06 3.33488492e-06
      2.25575400e-06 3.01717023e-06 3.26926465e-06 -1.76580130e-07
      -5.18656225e-06 -7.26357212e-06 -7.07428808e-06 -5.95546226e-06
      -4.24188215e-07 -5.80620167e-07 -1.44856267e-06 -6.40336793e-07
      3.80782303e-08 -1.18712933e-06 -2.20825905e-06 -2.26604652e-06
      -1.96047131e-06 -2.15303339e-06 -2.35133302e-06 -3.05432354e-06
      -4.85588225e-06 -5.28600640e-06 -5.27591328e-06 -4.15322666e-06
      -2.79455151e-07 3.15695797e-06 4.99730868e-06 3.51947779e-06
      -1.88330759e-07 -3.93767505e-06 -6.65955213e-06 -5.48227354e-06
      -3.37745905e-06 -3.76741627e-06 -4.78545371e-06 -5.70797920e-06
      -5.49375045e-06 -5.57200610e-06 -4.87177113e-06 -1.81541407e-06
      -3.79265828e-07 -3.80751231e-07 -1.05883259e-06 1.44691001e-07
      2.89423224e-06 6.01460624e-06 6.94748724e-06 5.78102072e-06
      3.67628377e-06 2.43158865e-06 2.23351367e-06 1.54915813e-06
      -6.86867054e-07 -4.04789444e-06 -5.01705927e-06 -4.33215791e-06
      1.52571954e-06 8.66856112e-07 -5.45804312e-07 -1.06791276e-06
      3.10426827e-07 9.54601802e-08 -1.50448614e-07 -9.14519035e-07
      -1.40023415e-08 -2.21260606e-07 -4.98998702e-07 -6.81785764e-07
      -1.64370601e-06 -1.99310625e-06 -2.05349806e-06 -1.75152149e-06
      1.35413515e-07 3.33353864e-06 5.85638691e-06 6.28762928e-06
      4.31861918e-06 7.93907418e-07 -2.65703147e-06 -3.07737810e-06
      -7.95844358e-07 2.57621053e-07 -2.00243426e-06 -5.61174966e-06
      -6.46027820e-06 -4.78098809e-06 -2.71189515e-06 -1.79588255e-06
      -3.88176062e-07 -1.02102922e-06 -2.04705702e-06 -1.68212921e-06
      5.22461960e-07 4.54520068e-06 6.79486448e-06 6.77878415e-06
      4.91936862e-06 3.19444530e-06 8.68769121e-07 -1.49134485e-06
      -2.44220996e-06 -3.60410490e-06 -4.57741953e-06 -4.19028265e-06
      2.26609791e-06 1.81105509e-06 1.06083917e-06 3.29564131e-07
      1.47111678e-06 1.98278576e-06 3.00925012e-06 2.83208783e-06
      3.22074447e-06 2.40977761e-06 2.64165192e-06 2.19810408e-06
      1.52113455e-06 1.75422485e-06 2.08509005e-06 2.76592209e-06
      4.17085585e-06 5.38572749e-06 6.99456359e-06 6.87583088e-06
      5.62865489e-06 3.79524545e-06 9.83805421e-07 -5.08908386e-07
      4.70942069e-07 1.29197224e-06 2.00439808e-06 -2.06353661e-06
      -5.23498056e-06 -5.67627740e-06 -2.84587122e-06 -1.17664615e-06
      -2.39005598e-08 -8.98989754e-07 -3.09217103e-06 -3.90863806e-06
      -2.21457503e-06 1.58300895e-06 4.74567105e-06 6.22260904e-06
      4.99475891e-06 3.44865248e-06 1.63796994e-06 -1.54596830e-06
      -3.69599525e-06 -4.94932374e-06 -5.38158656e-06 -5.31177830e-06
      4.35998118e-06 2.75666071e-06 1.62266667e-06 6.83345888e-07
      1.67236021e-06 1.75555897e-06 3.18086632e-06 5.15300462e-06
      6.05740388e-06 4.93596281e-06 4.33110972e-06 2.84835733e-06
      2.02923184e-06 2.06174150e-06 3.63694994e-06 5.49236529e-06
      7.32531453e-06 8.05729087e-06 7.65921141e-06 7.76632987e-06
      6.77110165e-06 5.22854407e-06 3.25403857e-06 2.60713705e-06
      2.23703387e-06 7.78139736e-07 5.42179635e-07 -5.36913774e-07
      -2.20938387e-06 -4.43594308e-06 -2.59449803e-06 -3.39316955e-07
      2.21668211e-06 2.42030706e-06 -8.01519604e-07 -4.54037854e-06
      -5.21912580e-06 -2.80402492e-06 1.34013078e-06 3.44346836e-06
      4.32664638e-06 3.92356333e-06 2.20323113e-06 3.35814065e-07
      -1.71021554e-06 -3.16333899e-06 -4.31097897e-06 -4.34974663e-06
      6.78118113e-06 5.22845494e-06 3.45581134e-06 8.21883816e-07
      3.64143204e-08 3.71886614e-07 1.95953953e-06 3.25852216e-06
      4.43016370e-06 4.99957696e-06 4.59636703e-06 3.51552126e-06
      3.50422101e-06 1.38336907e-06 2.02878368e-06 4.50218886e-06
      8.22797665e-06 9.41356211e-06 8.72109467e-06 8.31152738e-06
      9.01965450e-06 9.23708012e-06 6.21989102e-06 3.88931812e-06
      3.07237451e-06 1.71772774e-06 6.48458780e-08 -1.76954961e-06
      -2.33232413e-06 -3.88215631e-06 -2.64062464e-06 -5.70978045e-07
      3.63857248e-06 4.75976321e-06 2.96369990e-06 -1.78549271e-06
      -5.89298043e-06 -6.04568413e-06 -4.19901744e-06 -5.07487300e-07
      1.06045320e-06 1.59284889e-06 1.50144592e-06 3.54729821e-07
      -8.99041993e-07 -2.45876890e-06 -3.10459495e-06 -3.17058107e-06
      6.11131736e-06 6.11060977e-06 5.36992866e-06 2.86300815e-06
      2.63196341e-07 -1.29284672e-06 -5.82017947e-07 1.37655945e-06
      3.19179208e-06 3.39244025e-06 4.53288612e-06 3.82001690e-06
      4.00486442e-06 3.45197100e-06 1.60868353e-06 1.68412839e-06
      5.40766769e-06 8.78547507e-06 9.17633315e-06 8.97217524e-06
      9.44296971e-06 1.01428350e-05 1.04102437e-05 8.21508092e-06
      4.84835209e-06 2.62631761e-06 3.23888372e-07 -1.91728986e-06
      -4.07682091e-06 -4.65694802e-06 -3.95904544e-06 -2.75758157e-06
      2.81793689e-07 4.02006117e-06 5.04528089e-06 2.48394463e-06
      -2.39915380e-06 -6.28987209e-06 -6.52692825e-06 -4.63182141e-06
      -2.78125458e-06 -1.38807468e-06 -5.35410834e-07 -1.26605619e-06
      -2.04767343e-06 -2.46524814e-06 -2.41048747e-06 -2.47804041e-06
      5.43226497e-06 4.94237383e-06 5.20412459e-06 4.53090297e-06
      2.32159437e-06 4.02698731e-07 -1.14795967e-06 -4.98342615e-07
      3.22214441e-06 5.15204874e-06 6.39900600e-06 6.40398730e-06
      6.43550993e-06 6.31984949e-06 4.95500444e-06 1.51633162e-06
      6.64139293e-07 3.16932733e-06 6.03572289e-06 7.62094896e-06
      8.06652770e-06 7.78595404e-06 9.19116974e-06 9.00472514e-06
      7.16114118e-06 4.67248492e-06 2.37693296e-08 -6.94225378e-07
      -2.51342544e-06 -3.69788745e-06 -3.88690250e-06 -4.43616636e-06
      -2.98809277e-06 -2.29544483e-07 2.40300324e-06 3.62526498e-06
      4.27607461e-07 -2.54274141e-06 -4.34938738e-06 -4.07911102e-06
      -3.94485687e-06 -3.37465985e-06 -2.36733422e-06 -2.24747419e-06
      -2.87781450e-06 -2.54509223e-06 -1.62526896e-06 -8.57253440e-07
      4.63431616e-06 3.23082008e-06 2.52152222e-06 3.30679222e-06
      3.77865240e-06 2.82848418e-06 1.22157519e-06 9.11193581e-07
      2.73733986e-06 4.79999426e-06 9.10752897e-06 9.78041862e-06
      8.90153296e-06 9.33269348e-06 7.82984625e-06 4.53568191e-06
      -2.48577010e-07 -2.54800943e-06 -9.14636757e-07 3.47703963e-06
      4.03396871e-06 2.10658504e-06 3.07766345e-06 3.99336568e-06
      4.99719499e-06 5.43548276e-06 4.46664018e-07 -5.91020182e-07
      5.80182245e-07 1.51855716e-06 2.37118641e-07 -1.30155456e-06
      -3.30827515e-06 -4.01094030e-06 -2.41273460e-06 4.92525146e-07
      8.71374311e-07 -3.63259744e-07 -9.48640434e-07 -1.07040364e-06
      -9.18665933e-07 -1.61655066e-06 -2.35730067e-06 -1.20671439e-06
      -1.01000262e-06 -3.10743076e-07 3.65744370e-07 1.07083508e-06
      2.59097351e-06 1.50752078e-06 -4.94855271e-07 -1.55077214e-06
      3.00467548e-07 2.38439566e-06 2.99685007e-06 2.27750888e-06
      2.66803045e-06 2.50597623e-06 5.15892771e-06 6.58585122e-06
      7.37145683e-06 7.19565423e-06 7.26143844e-06 5.64345373e-06
      8.27071005e-07 -2.91066181e-06 -5.93699178e-06 -4.41304655e-06
      -1.99889701e-06 -1.69511031e-06 -1.72862894e-06 -1.41122518e-06
      -8.58785370e-07 2.08348752e-06 7.66769688e-08 -8.88504758e-07
      2.03804984e-06 5.93741743e-06 6.01555303e-06 3.81425139e-06
      3.13080221e-07 -2.48387710e-06 -3.63407025e-06 -2.93972153e-06
      -1.98771795e-06 -1.61196647e-06 -3.53397866e-07 7.79432867e-07
      1.05069569e-06 2.35714856e-06 1.75686944e-06 9.31460647e-07
      1.80605878e-06 2.10441726e-06 2.76500145e-06 3.30110902e-06
      1.21758092e-06 9.81762582e-07 -6.32924184e-08 -2.34279673e-06
      -3.14854174e-06 -1.02273066e-06 2.10746884e-06 3.28188548e-06
      1.43947989e-06 2.14522970e-06 1.59009380e-06 -1.66928828e-06
      -2.96724124e-06 -1.08009306e-06 2.51334791e-06 2.24687915e-06
      2.97717008e-07 -5.85046905e-07 -3.25518840e-06 -7.60851617e-06
      -8.05842137e-06 -4.07685229e-06 -2.68708413e-06 -1.00051329e-06
      -2.61852256e-06 -1.98973680e-06 -1.85651572e-06 -1.34971015e-06
      3.04264631e-06 6.13035263e-06 7.53291124e-06 6.78472998e-06
      4.71430167e-06 2.65672998e-06 4.04127235e-07 -6.95672441e-07
      -1.93231608e-06 -3.38119867e-06 -3.34605284e-06 -1.53106578e-06
      5.78610582e-07 2.90629669e-06 5.15530019e-06 4.84859856e-06
      4.95874792e-06 4.45885371e-06 4.42456940e-06 4.18996297e-06
      -2.83230338e-06 -4.41134176e-07 6.24306608e-07 -5.86466513e-07
      -2.05855235e-06 -3.06920560e-06 -5.05629430e-07 1.96370115e-06
      1.37474001e-06 6.47034426e-07 -4.97653048e-07 -5.40711699e-06
      -9.13312215e-06 -9.03785258e-06 -4.25110238e-06 5.01053876e-07
      2.30621467e-07 -2.69734687e-06 -1.71261979e-06 -3.91416734e-06
      -6.54313635e-06 -7.11718030e-06 -3.80366259e-06 1.14466479e-06
      1.94072527e-06 7.28876671e-07 7.15509657e-07 7.39254858e-07
      2.77460890e-06 4.95268796e-06 4.55043846e-06 3.47778541e-06
      2.94778124e-06 4.82747510e-06 6.86215208e-06 6.17839623e-06
      3.86398324e-06 -8.83729683e-07 -4.07323660e-06 -5.34204810e-06
      -3.19024366e-06 2.13043805e-07 2.57458032e-06 3.33465823e-06
      4.20463948e-06 4.97533074e-06 4.83908570e-06 4.87028956e-06
      -5.82092298e-06 -4.94567848e-06 -3.21162247e-06 -1.61820833e-06
      -7.03677642e-07 -2.71957902e-07 -5.18815853e-07 1.33030323e-06
      7.82424024e-07 2.29754193e-07 -7.04186391e-07 -1.49132575e-06
      -5.80498227e-06 -9.71736790e-06 -9.13429631e-06 -5.07944696e-06
      -3.53643856e-07 -1.30563379e-07 -2.63769653e-06 -2.34373397e-06
      -2.50219091e-06 -4.58174190e-06 -4.57619944e-06 5.24864902e-07
      3.81153563e-06 5.78915524e-06 5.83029851e-06 5.17525177e-06
      4.87576608e-06 4.45090745e-06 3.90533796e-06 7.45040040e-07
      -1.84919793e-06 -2.00083127e-06 5.12004499e-06 1.02895583e-05
      1.03015846e-05 5.45266130e-06 -5.33772891e-07 -5.32671493e-06
      -6.43433395e-06 -2.87023045e-06 1.64781468e-07 8.74108366e-07
      1.16617241e-06 1.63524771e-06 2.07277412e-06 2.45833871e-06
      -5.75663171e-06 -6.75881302e-06 -6.91318428e-06 -5.51358335e-06
      -3.34155106e-06 -1.04252274e-06 1.42612834e-07 1.13577607e-06
      1.43602142e-06 8.11123698e-07 -1.13513581e-08 -1.49069024e-07
      2.94116205e-07 -2.51796359e-06 -6.44108923e-06 -7.34560990e-06
      -3.23634913e-06 1.08420920e-06 7.16831437e-07 -5.07683806e-09
      -6.24616519e-07 -2.49365007e-06 -2.52802374e-06 -1.71450688e-06
      2.33817423e-06 4.90538832e-06 6.86854764e-06 7.70798943e-06
      8.28899283e-06 6.12333497e-06 3.76560183e-06 6.16011846e-07
      -3.08444100e-06 -5.08456060e-06 -2.76450464e-06 4.42365126e-06
      1.15118146e-05 1.11265035e-05 4.84930615e-06 -2.08290885e-06
      -6.02753471e-06 -4.94226333e-06 4.76261306e-07 2.50212338e-06
      1.02652268e-06 -7.28455404e-07 -1.95721850e-06 -2.39354813e-06
      -1.52738357e-06 -2.64211303e-06 -4.39263658e-06 -5.63936374e-06
      -5.14279736e-06 -3.41778582e-06 -1.22462654e-06 -2.44974530e-07
      7.91966954e-07 1.11463692e-06 7.45172201e-07 3.77332697e-07
      8.91744151e-07 1.53080123e-06 3.67339766e-07 -3.09096413e-06
      -4.36729215e-06 3.47463271e-07 1.75058494e-06 2.95908740e-06
      2.14599368e-06 -6.94494645e-07 -2.92585423e-06 -2.95941118e-06
      -1.45388981e-06 3.06000334e-06 5.61284560e-06 7.05258162e-06
      8.12883172e-06 8.46720104e-06 4.83266285e-06 9.17527245e-07
      -2.83853615e-06 -5.02833609e-06 -5.32620788e-06 -2.65349854e-06
      4.45456635e-06 1.10988967e-05 7.38616291e-06 1.20819232e-06
      -4.05076435e-06 -5.27849261e-06 -1.71401211e-06 2.57741863e-06
      3.21390621e-06 9.01042029e-07 -2.40289251e-06 -4.47606362e-06
      2.45963270e-06 3.47913988e-06 2.58730256e-06 2.65101590e-07
      -3.09036977e-06 -4.55052987e-06 -2.89404966e-06 -1.10059409e-06
      -1.78743136e-07 4.79285688e-07 1.03288677e-07 6.01335728e-07
      1.03904154e-06 2.62250319e-06 4.07084508e-06 4.59454895e-06
      3.27933139e-06 3.04800778e-06 3.90100149e-06 4.29108604e-06
      4.94132610e-06 2.11607835e-06 -9.03247781e-07 -3.02218837e-06
      -4.32305387e-06 -1.91525032e-06 4.05496849e-07 3.62051946e-06
      5.51183030e-06 6.13924249e-06 5.37929964e-06 1.04231867e-06
      -3.71158376e-06 -5.04885293e-06 -5.78043637e-06 -5.81893255e-06
      -2.88975320e-06 4.73309092e-06 7.30422880e-06 3.00997999e-06
      -1.98654266e-06 -5.50362302e-06 -4.94749429e-06 -1.67218070e-06
      2.66589541e-06 4.49071695e-06 2.63060110e-06 -1.06393804e-06
      5.88917032e-07 3.62578953e-06 5.61221714e-06 5.63582989e-06
      2.59451917e-06 -6.18166553e-07 -2.67442533e-06 -2.41488669e-06
      -3.05512089e-07 2.67360122e-07 4.61575098e-07 -7.69098108e-07
      -7.72990575e-07 9.24084873e-07 3.62960259e-06 6.87737429e-06
      8.65488528e-06 7.86604323e-06 5.84729469e-06 4.69507313e-06
      5.00963324e-06 4.28954399e-06 3.71735746e-06 1.40998247e-06
      -2.36787400e-06 -4.25845110e-06 -4.31451917e-06 -4.82145242e-06
      -1.62249751e-06 7.60467685e-07 2.56737599e-06 1.17468278e-06
      -2.99857788e-06 -5.22411256e-06 -5.59898763e-06 -5.86378565e-06
      -5.38071799e-06 -2.23778056e-06 2.83260033e-06 3.27661951e-06
      -7.63126536e-07 -4.68786493e-06 -5.39711118e-06 -3.46836532e-06
      2.42558187e-08 3.85825660e-06 5.78266781e-06 3.89256729e-06
      -2.84911175e-06 -3.70899755e-07 2.45185061e-06 4.06322170e-06
      3.55648990e-06 1.67945689e-06 -6.79453422e-07 -2.02081992e-06
      -2.23472034e-06 -1.47699745e-06 -1.16785236e-06 -9.03674959e-07
      -1.25112842e-06 -1.08078666e-06 2.81951628e-07 3.35253822e-06
      7.18776482e-06 8.44721581e-06 5.51632775e-06 1.98052248e-06
      8.27691565e-07 2.93207245e-06 5.77224455e-06 5.00748774e-06
      2.25107760e-06 -7.87592796e-07 -2.73870228e-06 -4.77518688e-06
      -7.10374388e-06 -5.70869679e-06 -3.59777300e-06 -1.74523984e-06
      -2.78758398e-06 -4.01943134e-06 -4.80543395e-06 -5.08650191e-06
      -4.94793539e-06 -3.54236795e-06 -8.71043653e-07 1.02465197e-06
      3.06519013e-07 -2.45514411e-06 -3.51813856e-06 -2.74249874e-06
      5.38777556e-07 3.48003573e-06 5.10130712e-06 4.97042765e-06
      -4.64613231e-06 -4.20126617e-06 -2.38811049e-06 7.18453066e-07
      2.81031976e-06 2.18734931e-06 9.94255856e-07 -4.32445347e-07
      -2.59921421e-06 -3.94486096e-06 -5.16858381e-06 -4.41344628e-06
      -2.58871887e-06 -1.31779132e-06 -1.52802812e-07 -1.80964790e-07
      1.22657832e-06 3.52634061e-06 3.50600408e-06 3.45287646e-07
      -2.64033793e-06 -2.18962941e-06 4.74294347e-06 6.59695388e-06
      5.08850871e-06 3.41237387e-06 5.47986133e-07 -1.38218775e-06
      -2.98600958e-06 -5.81351333e-06 -5.87516388e-06 -5.17710623e-06
      -4.02740261e-06 -4.41931479e-06 -4.61973968e-06 -4.18949185e-06
      -3.83150473e-06 -3.14894078e-06 -8.77792786e-07 -3.82166945e-07
      -1.79938672e-06 -3.52880284e-06 -4.32048319e-06 -2.80781342e-06
      -2.43567513e-07 3.05576305e-06 5.02147077e-06 4.71703834e-06
      -9.18771946e-07 -2.65706535e-06 -4.30915497e-06 -4.07491052e-06
      -1.03582443e-06 2.39154429e-06 1.74178319e-06 6.86121098e-07
      -1.36005860e-06 -3.98259863e-06 -5.92362494e-06 -6.34748631e-06
      -3.96809492e-06 -6.12349709e-07 1.45583158e-06 1.10757753e-06
      3.17323668e-07 -3.81989537e-07 -2.97944950e-07 1.46728407e-08
      -1.14306988e-06 -2.76418973e-06 1.75767684e-06 6.68855910e-06
      6.12704389e-06 4.48112405e-06 1.94224617e-06 -7.18201534e-07
      -1.01781507e-06 -2.73385740e-06 -4.37866584e-06 -5.31009664e-06
      -6.04254137e-06 -5.06763581e-06 -4.90899220e-06 -5.18122033e-06
      -5.00219130e-06 -4.89463218e-06 -3.10465384e-06 -9.36474805e-07
      -7.26241922e-07 -3.47952027e-06 -6.39497466e-06 -6.58314684e-06
      -4.08213145e-06 -8.05342950e-07 2.27952796e-06 4.09413633e-06
      5.87176260e-07 1.26946463e-06 -2.69842019e-07 -2.72005582e-06
      -2.83011786e-06 -2.04554766e-07 1.59487684e-06 9.77900072e-07
      -1.49849342e-07 -3.16528644e-06 -5.40909787e-06 -6.48642572e-06
      -5.26592112e-06 -5.53983909e-07 3.14276690e-06 3.63418258e-06
      2.54868996e-06 8.96401730e-07 -2.04354507e-07 -1.51438667e-06
      -1.94371319e-06 -1.96084488e-06 2.88757036e-07 5.52097526e-06
      7.69916915e-06 4.16409557e-06 1.02390254e-06 -1.96286737e-06
      -2.32249795e-06 -3.04407718e-06 -4.09805170e-06 -4.52015547e-06
      -5.26888743e-06 -5.34731726e-06 -4.15411614e-06 -3.90132618e-06
      -3.82173130e-06 -3.85588100e-06 -3.69878580e-06 -1.85800877e-06
      -5.28939097e-07 -3.78300541e-07 -2.71335057e-06 -5.71208056e-06
      -5.70471957e-06 -3.89827937e-06 -2.57750821e-06 -1.78969015e-06
      -2.32968296e-06 -1.36162589e-06 -6.92001436e-07 -1.97083978e-06
      -3.14539875e-06 -1.59803426e-06 1.18390597e-06 2.27771170e-06
      3.96140138e-07 -2.06397840e-06 -4.66228539e-06 -6.17606383e-06
      -6.60262822e-06 -3.28036413e-06 1.95427583e-06 5.46228785e-06
      5.68295491e-06 4.34087087e-06 1.66215011e-06 -1.98368014e-07
      -2.39842961e-06 -3.38933819e-06 -2.18469540e-06 3.64768357e-06
      8.62421348e-06 8.97869904e-06 4.27113855e-06 -1.63499385e-06
      -3.21930793e-06 -4.06667050e-06 -5.87257364e-06 -6.16801708e-06
      -5.70721750e-06 -5.50506547e-06 -4.77101548e-06 -2.17849083e-06
      -8.19173408e-07 -2.97436969e-07 -1.40316729e-06 -1.17671811e-06
      -3.52581623e-07 1.74054742e-06 1.76201547e-06 -6.51881408e-07
      -1.85893975e-06 -2.53552525e-06 -1.97339978e-06 -1.05977847e-06
      -3.98492784e-06 -3.62580249e-06 -3.24103053e-06 -2.04165804e-06
      -3.49168999e-06 -3.97264284e-06 -1.40784800e-06 1.72535931e-06
      2.38222083e-06 7.24779056e-07 -1.83991767e-06 -3.95460529e-06
      -6.04321167e-06 -5.74687965e-06 -3.06490756e-06 2.06365257e-06
      6.45958653e-06 7.14456564e-06 4.62079015e-06 2.24704877e-06
      1.06560185e-06 -2.20692095e-06 -2.34234517e-06 -3.03078053e-07
      5.80391043e-06 1.03960701e-05 9.65846266e-06 5.58166221e-06
      -8.20727962e-07 -2.34147296e-06 -4.95728909e-06 -7.37122355e-06
      -8.03830790e-06 -6.71429643e-06 -5.09662550e-06 -2.51025813e-06
      -1.50606468e-06 2.94055013e-07 -9.70922201e-07 -2.03262016e-06
      -1.28978888e-06 8.01636645e-07 3.42827138e-06 3.10529640e-06
      1.54094289e-06 1.08591152e-07 -6.06329820e-07 -4.93941457e-07
      -7.08214475e-06 -5.70209249e-06 -3.85363001e-06 -9.56412919e-07
      -4.46483142e-07 -2.48798051e-06 -2.94710071e-06 4.92139263e-09
      3.27913449e-06 3.53345968e-06 1.84286648e-06 9.20367086e-07
      -1.12362966e-06 -4.10293160e-06 -5.99412942e-06 -3.21075936e-06
      1.92992820e-06 5.75754575e-06 5.72892895e-06 4.18248101e-06
      2.73628552e-06 6.41779025e-07 -7.99899908e-07 -1.02562217e-06
      2.54239580e-07 4.16182002e-06 8.91781474e-06 8.68410461e-06
      5.15868305e-06 2.57908755e-06 5.15346926e-07 -2.50188714e-06
      -5.03487490e-06 -4.49398476e-06 -4.00757017e-06 -2.79064875e-06
      -2.05260699e-06 -2.08888650e-06 -2.44514217e-06 -3.80420715e-06
      -4.00515955e-06 -1.73632509e-06 6.11693849e-07 3.52282132e-06
      3.41149826e-06 9.12436633e-07 -4.96526980e-07 -1.36911876e-06
      -8.75265232e-06 -7.31898444e-06 -5.18937486e-06 -1.45145975e-06
      1.13832346e-06 5.38707923e-07 -1.31065951e-06 -7.40493704e-07
      1.65180973e-06 3.51587914e-06 3.72491354e-06 3.11907979e-06
      3.44769001e-06 1.41796102e-06 -3.18832122e-06 -5.96693508e-06
      -3.86039710e-06 1.39077940e-06 4.31737726e-06 4.06581512e-06
      2.09090422e-06 2.01313398e-07 -1.54632710e-06 -4.74114501e-07
      -1.01443311e-06 -3.89785868e-07 3.18805814e-06 7.00199507e-06
      6.66626829e-06 5.64810443e-06 2.94459369e-06 1.93835672e-06
      6.13319969e-07 2.50174480e-07 -3.28799842e-07 3.38999371e-07
      5.81208724e-07 -6.05848015e-07 -1.79272786e-06 -4.01416082e-06
      -6.32499496e-06 -5.24130064e-06 -3.29333670e-06 -1.43590989e-06
      6.32644230e-07 1.81917619e-06 5.62479485e-08 -2.37891732e-06
      -7.94247171e-06 -6.89530725e-06 -4.82660334e-06 -1.58929322e-06
      1.50314816e-06 1.65445317e-06 7.33567788e-07 3.95857768e-07
      1.25088593e-06 2.89303853e-06 3.75156446e-06 3.05761228e-06
      2.28733302e-06 1.61723392e-06 -1.71459214e-06 -4.94281312e-06
      -6.62298498e-06 -4.52610630e-06 -1.27203450e-07 3.13255828e-06
      2.08406141e-06 -8.28550455e-08 -2.97408087e-06 -4.36710980e-06
      -3.77980200e-06 -3.27291878e-06 -2.28169483e-06 7.63095557e-07
      2.03042691e-06 2.07574340e-06 2.86146201e-06 3.75566515e-06
      4.90086131e-06 4.72037664e-06 3.01183286e-06 2.89282320e-06
      3.87556338e-06 3.33663138e-06 1.77192396e-06 -2.77062838e-07
      -4.40671693e-06 -6.73016439e-06 -6.09906829e-06 -4.24058544e-06
      -2.41836824e-06 -1.12115822e-06 -3.05182738e-07 -1.22611550e-06
      -4.08391816e-06 -3.88075978e-06 -2.85861984e-06 -6.78662886e-08
      1.94763652e-06 1.71900285e-06 6.88192642e-07 1.30019578e-06
      2.33361061e-06 3.42386534e-06 3.47206947e-06 2.45280467e-06
      1.15474927e-06 -7.02362115e-07 -3.36340077e-06 -6.26986684e-06
      -7.72218937e-06 -6.72567057e-06 -5.02745343e-06 -1.47329592e-06
      -2.40785994e-07 5.19878540e-07 -2.38858934e-06 -5.52764459e-06
      -7.67072652e-06 -7.76608977e-06 -5.88972944e-06 -5.80252345e-06
      -4.39577616e-06 -4.72622196e-06 -4.27707164e-06 -1.05933532e-06
      2.46692980e-06 4.91293849e-06 4.11066731e-06 2.93961398e-06
      2.46660920e-06 3.29156342e-06 3.61599177e-06 3.24883376e-06
      1.26183920e-06 -2.89279160e-06 -4.82821588e-06 -5.01568820e-06
      -3.37749907e-06 -1.87931187e-06 -4.26534712e-07 3.30649357e-07
      -1.09008352e-06 -1.36886001e-06 -7.40768996e-07 5.37868857e-07
      1.97695726e-06 2.54660313e-06 1.90685250e-06 1.61445234e-06
      2.26453153e-06 3.23097720e-06 3.46291154e-06 2.19279264e-06
      3.19928631e-07 -1.81296537e-06 -4.74146282e-06 -6.77759181e-06
      -8.34421735e-06 -7.32331182e-06 -6.67603854e-06 -6.42398027e-06
      -5.43153101e-06 -3.25851624e-06 -8.91755633e-07 -2.21393816e-06
      -4.21736695e-06 -8.07459946e-06 -8.47254069e-06 -7.98746078e-06
      -7.33281513e-06 -8.77961429e-06 -9.82589063e-06 -7.87802492e-06
      -3.14453723e-06 -3.11453078e-07 8.26747055e-07 1.22730125e-06
      2.46725193e-07 2.01520820e-07 1.86670661e-06 3.63019694e-06
      4.27091300e-06 2.77483741e-06 5.38587575e-09 -1.55560315e-06
      -2.59368994e-06 -2.24984797e-06 -9.91973707e-07 7.49664252e-07
      -1.30854431e-07 -4.00943406e-07 -9.40512109e-07 -2.21674014e-07
      9.51869254e-07 1.91790787e-06 1.18584887e-06 8.49461287e-07
      1.68298357e-06 1.63584969e-06 1.98797807e-06 9.94906827e-07
      -4.57587873e-07 -3.52364304e-06 -5.16130831e-06 -6.12334725e-06
      -5.90999025e-06 -4.21483992e-06 -3.43345187e-06 -5.48904882e-06
      -7.98513156e-06 -6.49945423e-06 -1.95252119e-06 1.53765961e-06
      2.78250309e-06 1.08304209e-06 -2.42881674e-06 -4.07879952e-06
      -3.91424965e-06 -5.40551491e-06 -7.57352382e-06 -8.45277646e-06
      -5.35558229e-06 -2.95045902e-06 1.18355024e-08 -2.28658294e-07
      -9.54889742e-07 -1.83219413e-06 -5.66391918e-07 8.87073838e-07
      3.22052824e-06 3.89788875e-06 3.48707022e-06 2.29165494e-06
      7.14834584e-07 -6.76058050e-07 -9.42727070e-07 8.70604921e-08
      -3.48427704e-07 2.56511399e-08 -4.99012970e-07 -6.65716129e-07
      -6.47339846e-07 -2.43535283e-07 -3.95802857e-07 -1.21500466e-06
      -1.13512363e-06 -6.25893449e-07 7.14592602e-07 5.77786693e-07
      -1.17225318e-06 -3.59711726e-06 -4.85689816e-06 -5.43406895e-06
      -3.24054622e-06 -5.80119377e-07 2.11617817e-06 1.46799991e-07
      -5.96394375e-06 -6.29023543e-06 -3.31012052e-06 4.51550449e-07
      6.16841271e-06 8.60622004e-06 6.94693836e-06 3.26373993e-06
      2.37409608e-06 1.25547183e-06 1.02927038e-06 -2.09062273e-06
      -3.45216426e-06 -2.46276022e-06 4.38528502e-07 1.84117164e-06
      1.22468350e-06 -1.51416572e-07 -1.73450417e-06 -8.91765239e-07
      1.74885770e-06 3.44535533e-06 3.87877117e-06 3.36857283e-06
      2.37916061e-06 6.06450612e-07 -6.56272618e-07 -7.32243564e-07
      -2.39214228e-06 -1.56717624e-06 -1.00784337e-06 -3.67509074e-07
      -3.97149137e-07 -5.80062249e-07 -4.94208166e-07 -1.57956799e-06
      -2.11457518e-06 -3.06215770e-06 -1.79403082e-06 8.46984278e-07
      -5.14928729e-07 -3.01885461e-06 -4.73922682e-06 -5.68152291e-06
      -1.85379474e-06 6.61842137e-08 3.05807544e-06 5.25023324e-06
      -2.96514912e-07 -4.34799631e-06 -3.96628184e-06 -1.07948347e-06
      2.86334512e-06 5.33734192e-06 7.32555873e-06 5.71296050e-06
      5.06582683e-06 5.43352053e-06 5.19888408e-06 5.11850794e-06
      2.04824528e-06 -8.68052208e-09 -4.38302763e-08 5.40544136e-07
      1.11689997e-06 9.41263522e-07 5.04361424e-07 -5.49117146e-07
      4.14697723e-07 1.71476256e-06 3.20119784e-06 3.50341156e-06
      3.02835838e-06 1.30695571e-06 -1.29859572e-07 -7.45858529e-07
      -3.31899446e-06 -2.88856495e-06 -1.92478660e-06 -8.11611699e-07
      -6.81776910e-08 6.30586669e-07 1.04731976e-06 7.45454599e-07
      -5.91108176e-07 -3.44280193e-06 -4.45200112e-06 -3.00347187e-06
      -7.82623829e-07 -1.00944601e-06 -1.87975900e-06 -4.56369753e-06
      -2.97027873e-06 1.60926319e-07 2.12901205e-06 4.85686905e-06
      2.72395209e-06 2.97921162e-07 -1.74325839e-06 7.17545504e-07
      2.75559455e-06 2.43436489e-06 3.40821816e-06 2.53820622e-06
      3.76220373e-06 5.59447471e-06 6.53597135e-06 7.56170948e-06
      6.16641228e-06 2.87496891e-06 -2.03967375e-07 -3.62478403e-07
      9.94873375e-08 7.39979782e-07 5.17799720e-07 1.10575911e-06
      1.35809580e-06 1.48243134e-06 1.76092033e-06 2.52539758e-06
      2.53752637e-06 1.66211021e-06 4.71016932e-07 -5.55926817e-07
      -3.72215868e-06 -3.55111752e-06 -2.77777576e-06 -2.19560116e-06
      -1.09455584e-06 -2.69541999e-07 6.87067541e-07 1.34397828e-06
      8.23748337e-07 -7.05026423e-07 -3.51987433e-06 -5.01291333e-06
      -4.33314290e-06 -1.62513800e-06 3.40080220e-07 -3.48380354e-07
      -5.13094392e-07 7.28006597e-08 2.75666957e-06 4.28382873e-06
      3.37282427e-06 2.25871031e-06 1.54854661e-06 3.10458017e-06
      5.57864223e-06 4.38354027e-06 2.06497566e-06 1.96059133e-07
      1.36717711e-06 3.14065096e-06 5.32795093e-06 6.01011106e-06
      4.47923048e-06 3.22801407e-06 -4.91558652e-08 -8.18135220e-07
      -7.39760466e-08 1.86359921e-06 2.05206948e-06 1.54108500e-06
      1.97150007e-06 2.70050282e-06 3.14413774e-06 2.88850742e-06
      2.30078126e-06 1.42594729e-06 1.13054386e-06 4.78177299e-07
      -4.78052198e-06 -4.33144260e-06 -3.87463206e-06 -3.22033338e-06
      -2.92787604e-06 -1.63342054e-06 -1.07310802e-06 -3.91811938e-07
      -3.26916847e-07 -7.43487021e-07 -1.97423424e-06 -4.20187871e-06
      -5.42766111e-06 -3.77905917e-06 -2.59885383e-07 2.58350474e-06
      3.64581911e-06 3.94113249e-06 3.10145106e-06 3.39739722e-06
      3.89797196e-06 3.99223745e-06 3.62272294e-06 4.34804861e-06
      6.64391337e-06 7.21691322e-06 3.74467345e-06 7.83262966e-09
      -8.16687759e-07 6.60222042e-07 2.94322012e-06 5.34157016e-06
      3.69780196e-06 -3.68455034e-07 -2.95391214e-06 -3.77336460e-06
      -1.90716355e-06 5.71597752e-07 2.99834460e-06 2.80963445e-06
      1.96622659e-06 1.82308224e-06 2.93393032e-06 3.24562052e-06
      2.47016237e-06 1.19133028e-06 5.75065314e-07 5.15726185e-07
      -3.94826020e-06 -3.82394137e-06 -3.37616893e-06 -2.61994387e-06
      -2.72768852e-06 -1.70247313e-06 -7.92992580e-07 -1.69496582e-06
      -3.53702444e-06 -4.28929343e-06 -4.31563512e-06 -3.07345204e-06
      -4.23742677e-06 -4.60262163e-06 -2.10448275e-06 9.37839047e-07
      4.04508546e-06 5.88335615e-06 5.23619883e-06 2.93550875e-06
      2.40651366e-06 2.88248725e-06 2.98926420e-06 3.78687832e-06
      4.25224107e-06 5.62032847e-06 4.00553199e-06 6.19203661e-07
      -1.86492753e-06 -2.00092427e-06 7.90038200e-07 3.47887135e-06
      3.83765791e-06 5.86963552e-07 -3.25188103e-06 -5.17609442e-06
      -4.09697623e-06 -5.81164727e-07 2.45752335e-06 3.17933518e-06
      2.50445464e-06 6.68157099e-07 2.79592172e-07 3.56848062e-07
      9.64932809e-08 -7.38537494e-07 -1.16966874e-06 -7.56077952e-07
      -6.55412578e-07 -7.13266331e-07 -8.19196771e-07 -8.06697130e-07
      -5.90439072e-07 -3.16262060e-07 1.33528249e-06 5.41019233e-07
      -2.73873297e-06 -6.18311924e-06 -8.03425428e-06 -6.66698816e-06
      -4.16816692e-06 -3.67593861e-06 -2.41891689e-06 -1.41242322e-06
      -2.70542593e-08 2.83933196e-06 3.68107339e-06 2.72344619e-06
      6.30153124e-07 -1.02631827e-06 3.37707633e-07 5.10132736e-07
      1.39073109e-06 2.28177782e-06 1.85307204e-06 -2.78721473e-07
      -1.87985927e-06 -1.97741065e-06 1.72515797e-06 3.39722146e-06
      3.71963210e-06 2.01905959e-06 -8.76064632e-07 -3.12554425e-06
      -3.52758343e-06 -1.55768464e-06 1.62841866e-06 2.76887477e-06
      1.97067720e-06 5.85572593e-07 -7.87476381e-07 -1.73744354e-06
      -2.88047522e-06 -4.29944203e-06 -5.01963859e-06 -3.89938396e-06
      9.00031409e-07 2.74648119e-06 3.60559329e-06 3.17053150e-06
      1.89206537e-06 1.02247668e-06 1.98292537e-06 2.60710658e-06
      3.35849762e-07 -2.59640865e-06 -5.88359262e-06 -7.84424446e-06
      -6.64262416e-06 -3.92012134e-06 -2.69053612e-06 -1.37687414e-06
      -2.26596308e-06 -2.54664451e-06 -1.66085920e-06 6.35000504e-07
      5.18613376e-07 -1.53046415e-06 -2.67268319e-06 -1.77700417e-06
      -1.77294373e-06 -3.55958747e-07 9.50983463e-07 2.22529636e-07
      9.01453973e-07 1.17060142e-06 5.11664894e-06 7.37313439e-06
      7.94278822e-06 6.24081895e-06 3.18318394e-06 3.15891810e-07
      -1.26457519e-06 -1.12698251e-06 4.06615641e-07 1.59381125e-06
      1.44905698e-06 -6.63839899e-07 -2.57973829e-06 -3.46815568e-06
      -4.43905492e-06 -5.43515171e-06 -6.74855073e-06 -6.74252578e-06
      -1.11205043e-06 9.67918027e-07 4.57531178e-06 6.74222110e-06
      5.19239757e-06 2.36607684e-06 1.54371889e-06 1.63939353e-06
      6.51721280e-07 -7.78876370e-07 -1.08257382e-06 -2.28481849e-06
      -3.73235957e-06 -2.97877932e-06 -1.38205451e-06 -1.56573071e-06
      -2.35527591e-06 -3.87012687e-06 -4.75435945e-06 -3.29659701e-06
      -1.04293360e-06 7.05813079e-07 -1.45876766e-06 -2.33054971e-06
      -3.59896330e-06 -3.53030441e-06 -2.34787581e-06 -9.55258770e-07
      1.23169048e-06 4.21806772e-06 7.14581802e-06 9.71172176e-06
      1.17165328e-05 1.09985203e-05 9.57551219e-06 4.84563498e-06
      1.69914495e-06 -3.67763079e-07 -6.07678771e-07 1.34744113e-07
      1.34149809e-06 2.52249919e-07 -2.33852188e-06 -3.98124030e-06
      -4.67159771e-06 -4.62288108e-06 -4.86858653e-06 -5.31062278e-06
      -4.37777658e-07 5.66334037e-08 2.47312414e-06 6.41599581e-06
      7.75701665e-06 4.19453227e-06 1.80226732e-06 1.09621544e-06
      1.82492727e-07 -2.89902964e-08 1.08522204e-06 2.37521567e-06
      2.40667805e-06 1.18831963e-06 1.34266725e-06 8.60292459e-07
      -1.17553839e-06 -2.17187153e-06 -4.49751360e-06 -5.28976443e-06
      -2.82858059e-06 -2.22091259e-07 -6.63034882e-07 -2.12376449e-06
      -4.30321461e-06 -5.52449137e-06 -3.76601406e-06 -2.27687883e-06
      -2.39537911e-07 3.03980482e-06 5.49563447e-06 9.61966907e-06
      1.13493770e-05 1.14563609e-05 1.08138056e-05 8.59456850e-06
      5.14036947e-06 1.60209345e-06 -2.74251448e-07 -1.53123869e-06
      -1.23445875e-06 -5.15285080e-07 8.16793460e-08 -6.19289210e-07
      -1.82418808e-06 -2.11370548e-06 -2.46782224e-06 -3.02844637e-06
      3.55265593e-06 3.25397241e-06 3.42580984e-06 4.59204193e-06
      5.94582798e-06 5.42663611e-06 1.96689302e-06 8.99561769e-07
      1.50733922e-06 3.51166318e-10 -6.65540711e-07 1.27815645e-06
      2.34596564e-06 3.81964583e-06 3.15743409e-06 1.45516651e-06
      -5.53971176e-07 -1.40303234e-06 -3.23412291e-06 -4.08075039e-06
      -3.94422295e-06 -2.45946944e-06 -2.87040666e-06 -4.26325687e-06
      -6.93916309e-06 -7.64331526e-06 -6.10559027e-06 -2.53462781e-06
      -7.67951008e-07 1.55705959e-06 9.05917148e-07 3.70966882e-06
      5.15889496e-06 6.46058697e-06 6.40648204e-06 6.61318245e-06
      6.71181942e-06 4.65772973e-06 1.35928008e-06 -1.66729751e-06
      -2.14508759e-06 -1.78963978e-06 -8.63074604e-07 1.71937188e-07
      -1.07514303e-07 -8.86128930e-07 -1.14094416e-06 -2.16238004e-06
      5.81031236e-06 5.99864461e-06 5.52033907e-06 5.51598032e-06
      4.84700240e-06 4.35040647e-06 2.27071700e-06 -9.18317198e-07
      -2.09164341e-06 -7.45781051e-07 -6.94067978e-07 -7.30416332e-07
      -1.03049342e-06 1.21250855e-06 2.27843384e-06 9.33996944e-07
      -9.81003382e-07 -2.12908935e-06 -2.86094064e-06 -2.49490404e-06
      -2.92188952e-06 -3.55896873e-06 -4.87481884e-06 -8.33315153e-06
      -1.05794743e-05 -1.22935417e-05 -9.81165340e-06 -4.63111246e-06
      -6.21839433e-07 1.10697215e-06 -3.11841632e-07 -2.01736293e-06
      -2.93722542e-06 -2.02484330e-06 -1.52381540e-06 2.48981110e-07
      2.55325949e-06 4.48969922e-06 4.77931189e-06 1.84388284e-06
      -3.47325283e-07 -2.06939376e-06 -2.50506810e-06 -2.41822227e-06
      -1.49889445e-06 -8.50560639e-07 -8.02297791e-07 -1.86843499e-06
      7.38885137e-06 7.66893118e-06 7.83612268e-06 7.61193314e-06
      7.42765678e-06 6.13048951e-06 4.02928708e-06 -8.88207182e-07
      -3.07724986e-06 -3.97379836e-06 -2.44671764e-06 3.69769140e-07
      -9.03749878e-07 -1.54345901e-06 -8.66382891e-07 -1.99435317e-06
      -2.09156974e-06 -3.25395467e-06 -3.32422269e-06 -2.84823977e-06
      -2.36216124e-06 -2.12033729e-06 -3.85298927e-06 -7.82945244e-06
      -1.18526359e-05 -1.42287017e-05 -1.30658818e-05 -7.73268494e-06
      -1.76373192e-06 1.44886678e-06 2.05803326e-06 -6.87359602e-07
      -4.22178573e-06 -6.17157593e-06 -7.05981574e-06 -5.83425572e-06
      -3.91421281e-06 -1.11038901e-06 2.03449258e-06 3.78998061e-06
      4.11233714e-06 1.77423965e-06 -1.28143608e-06 -3.27761632e-06
      -5.14695284e-06 -4.20071774e-06 -1.82646181e-06 -1.16243018e-06
      -8.05552281e-06 -9.33314914e-06 -8.17638193e-06 -6.35732795e-06
      -7.37042956e-06 -7.84763779e-06 -5.37781079e-06 -2.00773002e-06
      3.79147082e-06 1.02211779e-05 1.09638349e-05 6.12408894e-06
      -7.78156846e-07 -6.05141395e-06 -5.79523066e-06 -2.95075256e-06
      -2.33979085e-06 -3.49266384e-06 -4.39872792e-06 -3.18344541e-06
      -1.49905327e-06 5.12697170e-07 2.25640588e-06 2.91813603e-06
      3.10959058e-06 8.67607127e-07 -1.36565086e-06 -2.00417139e-06
      -5.05767446e-07 -6.35616061e-07 -2.34375125e-06 -4.46801096e-06
      -4.99198632e-06 -4.14850410e-06 -2.22920733e-07 2.75282696e-06
      2.40765689e-06 -4.19823164e-06 -1.04692990e-05 -1.25502629e-05
      -8.32582646e-06 -2.30334399e-06 2.36785718e-06 2.49559662e-06
      2.65802532e-06 2.85187389e-06 1.62680362e-06 -3.21731477e-07
      -8.14569376e-06 -7.68964946e-06 -8.12372491e-06 -7.75646186e-06
      -7.25107202e-06 -8.35359333e-06 -6.16243597e-06 -2.82083988e-06
      3.21146877e-06 9.32490457e-06 1.10015935e-05 7.04405147e-06
      4.93515095e-09 -5.52180381e-06 -6.18605736e-06 -3.42271437e-06
      -2.90316211e-06 -3.91245931e-06 -3.90077730e-06 -2.37901190e-06
      -6.78288416e-07 2.54848089e-07 1.32314028e-06 2.10401731e-06
      2.62006893e-06 1.71987847e-06 -6.50936727e-07 -2.86115710e-06
      -1.77521315e-06 -1.24801750e-06 -1.65768824e-06 -3.14117665e-06
      -4.34631329e-06 -4.74483659e-06 -1.83829309e-06 1.67511166e-06
      3.34887613e-06 -2.22189351e-06 -9.72794442e-06 -1.31546831e-05
      -9.03348700e-06 -2.80957534e-06 1.82223891e-06 3.80958454e-06
      3.21962602e-06 4.08549977e-06 2.85585861e-06 4.66029519e-07
      -5.64549600e-06 -4.68358257e-06 -5.20692402e-06 -6.62070852e-06
      -7.25372001e-06 -7.85261000e-06 -7.32837771e-06 -3.84083478e-06
      1.46865307e-06 7.31400633e-06 9.38427183e-06 6.93075344e-06
      7.52599021e-07 -4.40845133e-06 -5.53187056e-06 -3.72595196e-06
      -2.51750112e-06 -4.91771971e-06 -5.15837110e-06 -2.14723991e-06
      1.86461321e-07 1.82407325e-06 6.43866201e-07 8.27884890e-07
      1.57304908e-06 1.89438720e-06 9.09751137e-08 -3.61224329e-06
      -3.22037317e-06 -1.51136101e-06 -9.74910790e-07 -1.41425062e-06
      -2.95616314e-06 -4.09306085e-06 -3.11183612e-06 -3.13849995e-08
      3.55684824e-06 7.90433887e-07 -6.27724285e-06 -1.13449314e-05
      -9.15121564e-06 -2.64186815e-06 1.61524292e-06 4.08936739e-06
      3.33556181e-06 4.29539432e-06 3.45012768e-06 1.13834574e-06
      -1.51870574e-06 -2.52506857e-06 -2.42661417e-06 -3.42569410e-06
      -5.62075547e-06 -6.00163185e-06 -6.52292329e-06 -4.05381115e-06
      8.33305535e-07 5.12370571e-06 6.59500984e-06 5.66985682e-06
      1.65681683e-06 -2.70694250e-06 -4.39003088e-06 -3.38426798e-06
      -9.18874264e-07 -2.87327521e-06 -5.58794500e-06 -3.05902586e-06
      5.43232147e-07 1.93417941e-06 5.83886731e-07 -1.14138618e-06
      -1.84577999e-07 1.80393067e-06 8.19292723e-07 -2.99614703e-06
      -4.46396189e-06 -2.50861763e-06 -1.09230075e-06 -1.34776235e-06
      -1.41259954e-06 -3.05822414e-06 -3.85628118e-06 -1.66074358e-06
      2.38431062e-06 3.09796724e-06 -1.42442434e-06 -6.91380319e-06
      -7.64143715e-06 -1.48456161e-06 2.80483550e-06 4.71008570e-06
      4.15345085e-06 4.81844518e-06 3.84093528e-06 1.37030190e-06
      2.44008970e-06 4.34842349e-07 -1.02668764e-06 -1.57230056e-06
      -4.30779619e-06 -5.36833159e-06 -5.81274981e-06 -4.05181208e-06
      8.57641496e-08 3.59660999e-06 4.15600880e-06 3.44575210e-06
      1.91597314e-06 -1.17868751e-06 -2.53701683e-06 -1.83622024e-06
      5.16152227e-07 5.15921840e-07 -3.01261571e-06 -4.08405685e-06
      -1.48228662e-06 4.22495958e-07 4.48338646e-08 -2.02708156e-06
      -2.49664413e-06 9.01583803e-08 9.43831026e-07 -1.78942776e-06
      -4.27709529e-06 -2.59370654e-06 4.02063307e-07 -1.26712829e-09
      -3.36620474e-07 -1.33956428e-06 -2.99701492e-06 -2.44888633e-06
      6.85911175e-07 4.45914293e-06 2.29303805e-06 -1.64622986e-06
      -3.72397085e-06 -8.02881061e-07 3.83203769e-06 6.03511944e-06
      5.00070564e-06 5.46796673e-06 4.76151945e-06 2.48639549e-06
      4.20916012e-06 2.82060432e-06 3.07383885e-07 -1.25862550e-06
      -2.65351650e-06 -5.28642067e-06 -5.54162534e-06 -4.04484172e-06
      -1.46937475e-06 6.54413327e-07 1.19715412e-06 -4.58126095e-07
      -1.12140003e-06 -1.44023420e-06 -1.61971820e-06 -1.74469437e-06
      -4.39500297e-07 2.24926521e-06 1.14613886e-06 -2.41588873e-06
      -3.07647861e-06 -1.66746293e-06 -6.67299958e-07 -1.49567347e-06
      -2.83047484e-06 -1.24609255e-06 7.55140377e-08 -1.99942201e-06
      -3.62518654e-06 -3.04657442e-06 1.37806592e-06 2.79712685e-06
      2.37439212e-06 7.27074791e-07 -1.43025943e-06 -1.81011410e-06
      -1.16164749e-08 4.37791095e-06 3.93044047e-06 2.14256647e-06
      7.50776053e-07 1.50167239e-06 4.00909812e-06 5.25376208e-06
      4.38670531e-06 4.61150466e-06 4.07284915e-06 2.67468158e-06
      2.95269660e-06 2.90406956e-06 7.63545358e-07 -1.23982750e-06
      -1.85071929e-06 -3.65558185e-06 -5.91905746e-06 -4.52156246e-06
      -2.92316236e-06 -2.26013481e-06 -1.62551191e-06 -3.36194103e-06
      -3.34058268e-06 -2.56884687e-06 -1.26268151e-06 -2.14369197e-06
      -2.18847731e-06 1.37847371e-06 3.46578304e-06 7.91755781e-07
      -1.80983136e-06 -1.15706780e-06 -7.68465952e-07 -3.91958196e-07
      -4.05289455e-07 -4.68335370e-09 3.93494844e-07 -2.35529660e-06
      -4.13861744e-06 -2.49705249e-06 1.51850600e-06 4.23599158e-06
      4.57870237e-06 2.67170753e-06 4.03987457e-08 -1.38900100e-06
      -4.62964920e-07 2.91922152e-06 4.80228027e-06 2.64561254e-06
      1.17014520e-06 1.10699443e-06 2.84457428e-06 5.06791139e-06
      3.90149353e-06 3.19601509e-06 3.21976881e-06 2.50651692e-06
      -5.21780308e-08 1.42802151e-06 4.24051905e-07 -1.92717107e-06
      -2.40256827e-06 -2.09309201e-06 -3.93422488e-06 -4.14295801e-06
      -2.62145340e-06 -2.93150674e-06 -3.22199139e-06 -3.82572807e-06
      -4.56036560e-06 -2.95718564e-06 -7.83891892e-07 -1.08987774e-06
      -3.03783440e-06 -1.27469116e-06 2.32126604e-06 2.31516151e-06
      5.98115832e-07 4.93000414e-07 8.76421495e-07 1.07801793e-06
      2.61560808e-06 3.53601672e-06 2.27503483e-06 -1.13850638e-06
      -5.17315948e-06 -3.24470011e-06 1.77801303e-06 4.80296558e-06
      5.81536051e-06 3.78098161e-06 3.06747012e-07 -2.03185664e-06
      -7.90194804e-07 1.04544245e-06 2.72095053e-06 1.93297024e-06
      1.01643195e-06 7.11909252e-07 1.98867451e-06 2.79373126e-06
      3.20369418e-06 2.44139778e-06 2.53176677e-06 1.87740739e-06
      2.06956130e-07 -1.22241681e-06 -8.68917084e-07 -1.82159852e-06
      -2.67705354e-06 -2.07784637e-06 -1.85176793e-06 -2.31686045e-06
      -1.72032173e-06 -1.21701805e-06 -1.68810152e-06 -2.26404427e-06
      -3.86195052e-06 -2.90434809e-06 1.26942794e-07 8.61210708e-07
      -1.29441139e-06 -1.40185728e-06 9.92196306e-07 2.37728364e-06
      2.00878503e-06 2.38540588e-06 2.63927359e-06 2.86043064e-06
      3.90944933e-06 5.85105272e-06 5.61752586e-06 1.58193552e-06
      -4.19820435e-06 -5.51289440e-06 3.19318445e-07 4.17326328e-06
      5.99570785e-06 5.24554252e-06 1.16319222e-06 -2.67146152e-06
      -1.43040950e-06 1.38939981e-06 1.17387674e-06 4.97667997e-07
      6.00076135e-07 4.36992593e-07 1.54832696e-06 1.44041269e-06
      1.29877481e-06 1.62379547e-06 2.61345417e-06 3.01135765e-06
      2.25085969e-07 -2.40957593e-06 -3.27018392e-06 -2.98140139e-06
      -2.85847000e-06 -2.43276099e-06 -1.38074074e-06 1.39673375e-07
      -5.26088797e-07 -7.37099697e-07 3.32667923e-07 1.79387698e-07
      -1.48959919e-06 -1.94698509e-06 2.06284163e-08 2.28637327e-06
      1.92284620e-06 1.44151755e-07 8.77038872e-07 1.90905803e-06
      2.50173844e-06 2.66992924e-06 4.01949410e-06 3.56045257e-06
      3.39174221e-06 5.42290809e-06 7.03716796e-06 4.85446935e-06
      -1.03013599e-06 -5.13608120e-06 -1.99772012e-06 2.85621218e-06
      4.94507412e-06 5.98359611e-06 2.95886912e-06 -1.68450913e-06
      -2.22550375e-06 6.05516789e-07 1.70390138e-06 -5.09722440e-07
      -5.18389356e-07 4.38855238e-07 1.04459389e-06 1.29918408e-06
      1.62834311e-07 3.57502302e-07 1.80452912e-06 3.21185871e-06
      9.08786888e-07 -9.44935096e-07 -3.52924872e-06 -3.00393776e-06
      -8.44683484e-07 7.39949471e-08 6.00612054e-07 1.94300810e-06
      1.13946601e-06 -3.01554252e-07 2.50828379e-07 1.32283276e-06
      -2.54388340e-07 -1.28200372e-06 -3.25005431e-07 1.26268560e-06
      4.19760818e-06 3.41627697e-06 2.66635220e-06 2.67509017e-06
      1.35139396e-06 1.02059721e-06 3.35604409e-06 4.57164833e-06
      4.69691167e-06 4.37452036e-06 6.71385078e-06 6.98958775e-06
      1.26380314e-06 -3.53054179e-06 -4.11691599e-06 -4.77482899e-07
      2.20155766e-06 5.80231608e-06 4.84975499e-06 -2.23385079e-08
      -2.96122835e-06 -1.51868494e-06 1.62122967e-06 9.46346347e-07
      -2.82808401e-07 9.24412475e-08 3.25917341e-07 1.62037975e-06
      7.84152121e-07 -5.14808562e-07 1.97211179e-07 2.17402248e-06
      1.70984083e-06 -3.97834356e-07 -2.63979814e-06 -2.96134272e-06
      -2.83362056e-07 2.06354161e-06 2.55682949e-06 2.76781225e-06
      1.57582815e-06 1.46905720e-07 4.04188683e-07 1.87025864e-06
      1.80801976e-06 -4.44709940e-07 -6.34960941e-07 -5.31205842e-07
      1.89625996e-06 4.80775861e-06 5.62165542e-06 5.55857014e-06
      2.71111571e-06 -4.76005113e-07 -1.48616294e-07 3.15887519e-06
      3.34220795e-06 2.93106609e-06 3.78533719e-06 6.06472304e-06
      2.66731740e-06 -1.93958249e-06 -3.81583914e-06 -3.42409635e-06
      -1.83005761e-06 2.99103908e-06 4.86287354e-06 1.62661706e-06
      -2.60668276e-06 -2.66913662e-06 6.49759784e-07 1.77091454e-06
      1.64330538e-06 5.36586583e-07 2.16031609e-07 9.61692308e-07
      1.57735474e-06 2.95883442e-08 -7.57701002e-07 1.06812297e-06
      2.86368640e-06 6.69321139e-07 -1.19213144e-06 -2.13500766e-06
      1.40205856e-07 3.20266668e-06 3.93224400e-06 3.37789288e-06
      2.84108114e-06 1.41046269e-06 1.21196706e-06 2.43601039e-06
      3.60708191e-06 1.18831724e-06 -2.25240854e-07 -1.89992966e-06
      -1.81748180e-06 1.46037780e-06 5.18818888e-06 7.04712602e-06
      5.52294932e-06 1.69166313e-07 -1.16693468e-06 1.30029014e-06
      2.48582251e-06 1.28615557e-06 8.59045599e-07 2.39948099e-06
      3.44217733e-06 -1.37570877e-09 -1.51106337e-06 -4.17985848e-06
      -5.81383892e-06 -2.47171761e-06 2.80986774e-06 3.08064091e-06
      -1.32534399e-06 -3.11216991e-06 -3.84952841e-07 1.41277781e-06
      3.01523301e-06 2.62626440e-06 7.93402876e-07 2.03896178e-07
      1.17251545e-06 1.09400821e-06 -1.15004320e-06 3.14837649e-07
      3.84682244e-06 1.79253288e-06 -1.50823291e-06 -1.69400835e-06
      4.82206985e-07 4.57755687e-06 6.68865050e-06 5.67834104e-06
      4.74116769e-06 3.89399702e-06 2.75903130e-06 3.33582830e-06
      3.11837175e-06 8.00947703e-07 -3.29374785e-07 -2.00636214e-06
      -4.11975270e-06 -3.26826080e-06 7.52636709e-07 5.91739717e-06
      6.23114602e-06 1.02813044e-06 -1.65920903e-06 1.61117555e-08
      7.08358755e-07 1.12115686e-06 2.97017749e-07 3.24638080e-07
      2.22302856e-06 1.76542392e-06 6.23692074e-07 -1.25103395e-06
      -5.46774481e-06 -5.85848420e-06 -8.90440958e-07 2.18342984e-06
      -2.67592497e-07 -3.15166062e-06 -1.97863415e-06 5.07289769e-07
      2.35975449e-06 4.54146948e-06 2.68648751e-06 9.10195297e-07
      8.38983738e-07 1.30862122e-06 -4.55706754e-07 -5.49736797e-07
      1.81606345e-06 6.72247609e-07 -1.42069587e-06 -2.32820958e-06
      2.37506470e-07 4.36255050e-06 7.52367896e-06 8.05315631e-06
      6.36901086e-06 5.44573822e-06 4.50976040e-06 3.59135470e-06
      2.79030724e-06 2.03261607e-06 -4.79552853e-07 -1.48508525e-06
      -4.14703072e-06 -4.40705890e-06 -2.88241199e-06 2.64546929e-06
      6.20513902e-06 3.31292767e-06 -1.65637539e-06 -9.06094328e-07
      -6.75685783e-07 -6.25458767e-07 -6.19160289e-07 -1.33279184e-06
      -4.91427727e-07 1.46679508e-06 1.50889957e-06 1.37682616e-06
      -1.95205962e-06 -4.82233554e-06 -3.42080693e-06 5.32493004e-07
      -3.81548205e-07 -2.32173511e-06 -2.15699015e-06 -5.38284382e-07
      1.89873458e-06 4.96485245e-06 6.68342636e-06 3.20451522e-06
      1.12746977e-06 3.77257066e-07 1.97061851e-07 -4.61251631e-07
      -8.02798411e-07 -4.33654918e-07 -2.15811315e-06 -2.93065614e-06
      -8.16248985e-07 2.52340169e-06 5.97317239e-06 8.69880841e-06
      7.40911037e-06 6.14510100e-06 6.18813056e-06 2.51370238e-06
      -7.15735439e-07 3.00750230e-06 1.86189061e-06 -2.12124052e-09
      -2.81627308e-06 -2.87688931e-06 -2.30389810e-06 -5.07474056e-07
      2.96260532e-06 3.37468600e-06 -1.02363401e-06 -1.83552049e-06
      -6.00423562e-07 -2.26665043e-06 -3.18723664e-06 -1.93522737e-06
      1.71940158e-07 3.42612907e-06 1.85068586e-06 4.24840619e-06
      1.88563365e-06 -6.41550386e-08 -4.31591786e-07 2.37357199e-07
      -3.87989672e-07 -2.56806220e-06 -2.46561399e-06 -1.49996754e-06
      1.16841272e-06 4.66057963e-06 9.63422735e-06 7.62067884e-06
      2.95337304e-06 8.06472599e-07 8.72700525e-07 1.00629279e-06
      -5.08295943e-06 -2.16242006e-06 -3.04507853e-06 -4.49417075e-06
      -2.62566550e-06 1.10377607e-06 3.54785902e-06 6.95744484e-06
      7.84020540e-06 8.16890406e-06 8.42840473e-06 2.79141068e-06
      -2.44456555e-06 6.11026508e-07 3.68706947e-06 3.25360429e-06
      -1.17110335e-06 -1.15650596e-06 -7.32767660e-07 -1.11365875e-06
      -9.96695803e-07 4.83026270e-07 -7.77758146e-07 -1.52392465e-06
      -2.25981552e-07 -9.27778387e-07 -4.14225360e-06 -2.68642225e-06
      1.98393309e-06 6.16377838e-06 5.99368695e-06 3.86086094e-06
      4.80134076e-06 3.98514840e-06 4.09270797e-06 4.51097685e-06
      2.67349060e-06 -1.86878799e-06 -3.57305703e-06 -1.81351334e-06
      -1.07824303e-06 2.76762148e-06 8.28950215e-06 1.08192689e-05
      6.54657879e-06 2.12960117e-06 1.38325106e-07 1.85156648e-06
      -5.04738182e-06 -2.09062136e-06 -1.43506429e-06 -3.75723835e-06
      -4.17158981e-06 -1.48566721e-06 1.01813191e-06 2.80067229e-06
      5.38147106e-06 6.95934568e-06 9.79137349e-06 4.92297568e-06
      -2.33116111e-06 -1.80475320e-06 2.48338301e-06 4.60287401e-06
      1.37374707e-06 2.83330934e-07 7.14301848e-07 -7.36259338e-08
      -1.62574952e-06 -2.30408705e-06 -2.87287662e-06 -2.16606213e-06
      8.41505283e-08 1.99632268e-06 -8.52225185e-07 -2.71513841e-06
      2.23924712e-06 7.84103668e-06 1.06711213e-05 6.54526593e-06
      5.30621446e-06 5.48653861e-06 6.73522709e-06 6.87618194e-06
      5.77306582e-06 1.01159719e-06 -4.68007420e-06 -4.92005574e-06
      -2.94876941e-06 -1.12519422e-06 4.44748912e-06 8.59805641e-06
      7.95491269e-06 5.40163956e-06 2.00357090e-06 4.38236555e-07
      -3.73356897e-06 -2.21149935e-06 5.04733748e-07 -1.81938867e-06
      -4.34289859e-06 -2.76454512e-06 -1.04165304e-06 6.22016671e-07
      2.72557213e-06 4.55869304e-06 8.40979101e-06 8.17769705e-06
      1.53112944e-06 -2.22842073e-06 -8.84319817e-08 4.62918069e-06
      4.38640200e-06 1.18448486e-06 2.07983499e-06 1.09927930e-06
      -8.85835760e-08 -1.11319719e-06 -2.78553784e-06 -2.91922811e-06
      -3.75157214e-07 2.81968983e-06 3.97962458e-06 3.33166668e-07
      2.25278563e-06 7.80321352e-06 1.29260079e-05 1.20970208e-05
      6.17031083e-06 5.99485202e-06 6.08053188e-06 8.36590698e-06
      7.33569414e-06 4.05392393e-06 -2.10731196e-06 -6.80348148e-06
      -6.78378819e-06 -4.39030691e-06 1.35326133e-07 4.86682848e-06
      5.86477154e-06 5.03000865e-06 3.61997331e-06 1.69875011e-06
      6.32992737e-07 -1.88530043e-06 -6.11416681e-07 4.36719105e-08
      -2.82681390e-06 -3.80992242e-06 -2.41765315e-06 -1.69352904e-06
      2.42410820e-08 2.43990507e-06 5.84678946e-06 8.06481421e-06
      4.91465471e-06 -1.13844305e-06 -2.12429632e-06 1.30554338e-06
      5.24539200e-06 3.32907462e-06 4.05845822e-06 3.15714169e-06
      1.50504968e-06 1.11888812e-06 -1.24971862e-07 -2.00001364e-06
      -3.55981513e-07 1.67655730e-06 5.65420760e-06 4.38463485e-06
      4.73127193e-06 7.50340632e-06 1.22652800e-05 1.40107413e-05
      9.32448074e-06 5.82071470e-06 3.51021572e-06 6.48903006e-06
      7.59809973e-06 5.22203254e-06 1.45080548e-06 -4.00757244e-06
      -7.69296639e-06 -6.83963754e-06 -2.87952503e-06 2.66979077e-06
      3.72548266e-06 2.69140492e-06 3.50975210e-06 3.33257549e-06
      5.48744947e-06 9.00206430e-07 -8.51880088e-07 -5.61528054e-07
      -1.29032867e-06 -2.68821100e-06 -2.65111044e-06 -2.01266403e-06
      -1.14708871e-06 8.73767249e-07 3.65834990e-06 5.15189777e-06
      4.34437379e-06 6.72407168e-07 -2.04090225e-06 -1.69364387e-06
      4.72419970e-06 5.37033065e-06 5.23940889e-06 5.79840389e-06
      3.44999216e-06 3.00805732e-06 1.89151217e-06 9.33082873e-08
      -6.66135520e-07 -3.77243168e-07 3.22113692e-06 6.27073814e-06
      7.98602377e-06 9.88592365e-06 1.11400313e-05 1.20135210e-05
      9.97413008e-06 6.10106827e-06 1.24465555e-06 1.67474491e-06
      5.72942054e-06 4.86218505e-06 1.91929485e-06 -8.44077590e-07
      -3.55379711e-06 -5.93507093e-06 -4.48969195e-06 5.07659479e-07
      3.10448195e-06 1.63550328e-06 1.53499377e-06 3.37433835e-06
      7.38725657e-06 4.26355336e-06 1.51308791e-06 -1.44857825e-06
      -1.93880396e-06 -1.53828501e-06 -2.21285745e-06 -2.64384175e-06
      -1.88612444e-06 -3.33786147e-07 1.81010500e-06 2.51445272e-06
      1.84492922e-06 -5.47835498e-07 -1.82534245e-06 -2.60541697e-06
      2.44485841e-06 6.95778499e-06 7.03016485e-06 7.51858488e-06
      6.20813807e-06 4.45537307e-06 3.79808262e-06 1.87173907e-06
      -5.46870751e-07 -2.89073455e-06 -9.51050865e-08 4.66001075e-06
      8.31456964e-06 1.20533477e-05 1.36474691e-05 1.07038259e-05
      8.90275533e-06 6.05980540e-06 2.25932604e-06 -9.42643624e-07
      3.91829917e-06 4.66502888e-06 1.44929288e-06 2.33995110e-07
      1.13429948e-07 -2.57105626e-06 -4.27972645e-06 -2.08549039e-07
      3.55174006e-06 2.19805816e-06 -1.92962460e-07 1.59815272e-06
      3.57523027e-06 3.06855691e-06 1.09839664e-06 -3.79042405e-07
      -2.16875264e-06 -1.04559763e-06 -1.44845740e-06 -1.92990137e-06
      -1.73488388e-06 1.00263662e-07 1.13639032e-06 1.95522648e-06
      1.39215604e-06 -1.51391191e-07 -1.01579235e-06 -1.68803922e-06
      1.98377802e-06 6.91821060e-06 8.60350337e-06 6.90137858e-06
      7.82040024e-06 6.10798088e-06 5.50383538e-06 3.81730661e-06
      -7.95745247e-09 -3.66332620e-06 -2.88362821e-06 1.84130795e-06
      5.92147353e-06 9.77214131e-06 1.30696426e-05 1.18119833e-05
      6.45531281e-06 4.00519684e-06 2.18890523e-06 -1.39069300e-06
      1.84493024e-06 3.91141612e-06 2.31178501e-06 3.84072905e-07
      1.05192851e-06 -1.05262166e-06 -4.31709077e-06 -2.84614930e-06
      3.26162944e-06 5.12296401e-06 1.60867239e-06 -2.50759143e-07
      1.39941477e-07 8.38113465e-07 -1.60470370e-06 -2.79147343e-07
      -6.97542760e-07 -1.09829534e-06 -5.98052907e-07 -1.66918937e-06
      -1.77773290e-06 5.17233474e-08 1.83779821e-06 2.21576670e-06
      1.69160080e-06 1.31056731e-06 3.25769150e-07 2.12522995e-08
      7.89718001e-07 5.69525491e-06 9.31607701e-06 7.15266242e-06
      5.55761881e-06 4.94842652e-06 5.06907418e-06 5.90899981e-06
      3.01767022e-06 -5.28056376e-07 -3.33418166e-06 -1.31537740e-06
      1.42680312e-06 5.94439371e-06 8.50223751e-06 1.04263254e-05
      6.80043195e-06 3.17731133e-06 1.31579634e-06 -1.50371875e-06
      9.54481791e-08 2.50421340e-06 2.92217510e-06 2.06625464e-06
      4.79601511e-07 -1.31306399e-06 -4.53082794e-06 -4.61129684e-06
      1.24986968e-07 6.71228463e-06 7.70924999e-06 2.22218250e-06
      -2.75672210e-06 -2.12181340e-06 -4.13550333e-06 -3.97003714e-06
      -6.69369967e-07 2.74670242e-07 -1.62704374e-08 -1.08584902e-06
      -2.43426007e-06 -1.46600451e-06 9.61121373e-07 2.68012013e-06
      3.04312357e-06 2.43935483e-06 1.77277639e-06 8.67836647e-08
      1.44643764e-07 2.57078364e-06 7.14606267e-06 7.54784151e-06
      4.02698561e-06 3.14572026e-06 3.98156499e-06 6.79944742e-06
      6.21462004e-06 3.35464802e-06 8.50140395e-07 -9.89553314e-07
      -9.89740215e-07 4.01399689e-07 4.94295409e-06 7.07722893e-06
      5.86767919e-06 3.59709088e-06 1.67332223e-06 -7.88070963e-07
      -4.09018355e-07 1.48517495e-06 2.70231794e-06 3.13886312e-06
      2.23198685e-06 -6.44817646e-07 -5.50541699e-06 -6.58781846e-06
      -3.19312380e-06 3.47297055e-06 9.46620548e-06 8.07848573e-06
      -3.96261385e-06 -3.52424877e-06 -5.44176783e-06 -6.67272116e-06
      -3.62340779e-06 7.36804111e-08 1.09537928e-06 -1.20392727e-07
      -2.78693824e-06 -3.22690858e-06 -2.50187372e-06 -4.00819090e-07
      1.62887682e-06 3.08758831e-06 3.14729800e-06 1.92386392e-06
      -8.65656148e-07 -2.18608716e-06 1.48334220e-06 6.13725888e-06
      5.54088410e-06 2.38785424e-06 2.85534634e-06 6.24604581e-06
      8.60170348e-06 6.90900151e-06 6.03325452e-06 4.13737871e-06
      1.87888941e-06 -2.62475578e-06 -1.07318590e-06 2.94342794e-06
      4.57288979e-06 3.11138592e-06 1.63698257e-06 3.77403865e-07
      9.24980611e-07 2.36236815e-06 2.81128723e-06 3.29076806e-06
      3.51516701e-06 1.94566064e-06 -3.61797242e-06 -7.53960148e-06
