<?xml version="1.0"?>
<opencv_storage>
<my_svm type_id="opencv-ml-svm">
  <svm_type>C_SVC</svm_type>
  <kernel><type>LINEAR</type></kernel>
  <C>1.</C>
  <term_criteria><epsilon>2.2204460492503131e-16</epsilon>
    <iterations>1000000</iterations></term_criteria>
  <var_all>69120</var_all>
  <var_count>69120</var_count>
  <class_count>2</class_count>
  <class_labels type_id="opencv-matrix">
    <rows>1</rows>
    <cols>2</cols>
    <dt>i</dt>
    <data>
      0 1</data></class_labels>
  <sv_total>1</sv_total>
  <support_vectors>
    <_>
      1.09329212e-05 1.11249747e-05 1.04880892e-05 9.75727107e-06
      8.62602792e-06 6.17567412e-06 2.71834324e-06 -2.49703226e-06
      -5.86801161e-06 -8.50102697e-06 -9.40137761e-06 -8.97298378e-06
      -6.00295198e-06 -1.90974197e-06 1.58222190e-06 4.30281170e-06
      5.87802379e-06 6.35129300e-06 5.90864420e-06 6.16615353e-06
      7.33998013e-06 9.08519905e-06 1.15668090e-05 1.26956220e-05
      1.26543400e-05 1.09010543e-05 7.65278037e-06 4.59708099e-06
      2.65882795e-06 2.01476428e-06 2.86136788e-06 5.19429068e-06
      6.53287952e-06 6.89249964e-06 5.15070678e-06 2.63708171e-06
      -1.50198798e-06 -5.20606363e-06 -7.37990331e-06 -6.91145260e-06
      -5.84291138e-06 -3.49163270e-06 -8.48669970e-07 2.14465717e-06
      4.10360417e-06 5.39887742e-06 5.93420509e-06 6.41106817e-06
      1.05330910e-05 1.07436326e-05 1.06419830e-05 1.02287586e-05
      9.43946543e-06 7.41734584e-06 4.09094537e-06 -1.09728364e-06
      -4.63829929e-06 -7.41011581e-06 -8.68166444e-06 -8.53413621e-06
      -5.84991631e-06 -2.43120826e-06 4.68641502e-07 2.52417090e-06
      3.83894076e-06 3.99194914e-06 3.50061691e-06 3.90159448e-06
      5.26738086e-06 7.26776716e-06 9.86181021e-06 1.09107950e-05
      1.05707650e-05 8.36672825e-06 4.77971116e-06 1.45358013e-06
      -7.16578484e-07 -1.50692631e-06 -5.02157775e-07 2.06797858e-06
      3.92814036e-06 5.00854958e-06 3.84052964e-06 1.90969308e-06
      -1.49533321e-06 -4.86485260e-06 -6.83655207e-06 -6.58506178e-06
      -5.63577896e-06 -3.39336475e-06 -6.43763542e-07 2.32909656e-06
      4.45192791e-06 5.89626097e-06 6.71368980e-06 7.43852888e-06
      1.02823915e-05 1.06022144e-05 1.15569874e-05 1.17846448e-05
      1.16802285e-05 1.05875642e-05 7.67319125e-06 2.77367326e-06
      -8.89079558e-07 -3.70054750e-06 -5.69705026e-06 -6.10888355e-06
      -4.12604004e-06 -2.20448032e-06 -7.96708377e-07 -3.32045175e-07
      2.98603027e-07 -2.94561971e-07 -8.67884012e-07 -2.84851296e-07
      1.39450344e-06 3.76489470e-06 6.39283371e-06 7.14130465e-06
      6.12247186e-06 2.93760536e-06 -1.27180272e-06 -4.98112604e-06
      -7.48280490e-06 -8.50202559e-06 -7.23737912e-06 -4.29083229e-06
      -1.46663365e-06 9.44494445e-07 9.68301720e-07 3.03732179e-07
      -1.33381718e-06 -3.76558751e-06 -4.96782650e-06 -5.06127026e-06
      -4.34902222e-06 -2.48462766e-06 1.76696702e-07 2.65415019e-06
      4.72359807e-06 6.06236790e-06 7.23216954e-06 8.34355160e-06
      1.04434430e-05 1.09915864e-05 1.26426776e-05 1.33622689e-05
      1.37246734e-05 1.34694747e-05 1.13235246e-05 7.28179066e-06
      4.20551396e-06 1.99531814e-06 -3.02490264e-07 -1.03392824e-06
      2.03200045e-07 7.01252986e-07 3.95494652e-07 -8.74039756e-07
      -1.14883505e-06 -2.39800352e-06 -2.96312419e-06 -2.43249383e-06
      -5.85817304e-07 1.87025717e-06 4.33337573e-06 4.84029943e-06
      3.39035410e-06 -3.51101448e-07 -4.67305699e-06 -8.23851042e-06
      -1.06557254e-05 -1.17501604e-05 -1.05933441e-05 -7.77552850e-06
      -4.60639512e-06 -1.65357369e-06 -8.09784069e-07 -5.33452578e-07
      -4.49500988e-07 -1.67577787e-06 -1.69137854e-06 -1.79458357e-06
      -1.27485646e-06 -1.59091105e-08 1.89199477e-06 3.08563222e-06
      4.27764280e-06 4.66996244e-06 5.57761450e-06 6.65770540e-06
      9.04953868e-06 9.87769272e-06 1.17143345e-05 1.28116917e-05
      1.33666254e-05 1.35942591e-05 1.23690470e-05 9.38612357e-06
      7.31630234e-06 5.88022658e-06 3.76818025e-06 2.95060318e-06
      3.55539532e-06 3.07633354e-06 1.50367191e-06 -9.61172418e-07
      -2.07290896e-06 -3.35121558e-06 -3.64209313e-06 -3.08304061e-06
      -9.19731008e-07 1.68798329e-06 4.33929745e-06 5.29333829e-06
      4.14789747e-06 9.02737213e-07 -2.78739890e-06 -5.73710304e-06
      -7.73374177e-06 -8.77029834e-06 -8.22566471e-06 -6.08370783e-06
      -3.35364552e-06 -8.99626173e-07 1.26042636e-07 4.79517212e-07
      1.33034609e-06 1.00641671e-06 1.77912762e-06 2.00107365e-06
      2.32566572e-06 3.01931209e-06 3.81539985e-06 3.66847439e-06
      3.61209686e-06 2.76192281e-06 2.95540281e-06 3.48758567e-06
      4.61412719e-06 5.73385569e-06 7.72428120e-06 9.56764870e-06
      1.05332756e-05 1.10980491e-05 1.05268191e-05 8.09916583e-06
      6.46582339e-06 4.98271447e-06 2.84245630e-06 1.76324215e-06
      1.66369136e-06 5.72219108e-07 -1.61459604e-06 -4.45336946e-06
      -6.15269619e-06 -6.84545375e-06 -6.60649994e-06 -5.52794472e-06
      -2.65683457e-06 4.94187077e-07 3.91274352e-06 5.99449595e-06
      5.65698883e-06 3.47318473e-06 5.67282825e-07 -1.84449755e-06
      -3.52618986e-06 -4.32331581e-06 -4.34724097e-06 -2.64368873e-06
      -2.76283998e-07 1.57541172e-06 2.77728441e-06 2.66165807e-06
      3.25303608e-06 3.09606457e-06 3.67713938e-06 4.10854454e-06
      4.09181848e-06 4.47322509e-06 4.40453869e-06 3.67959842e-06
      2.78430753e-06 1.25406279e-06 8.87545241e-07 6.19959565e-07
      -1.85163742e-06 -4.97447900e-07 1.80566281e-06 4.81851339e-06
      6.62832463e-06 7.70525639e-06 7.58364786e-06 5.44872455e-06
      3.77501942e-06 1.76280003e-06 -4.87998307e-07 -1.69587111e-06
      -2.34188951e-06 -3.63678396e-06 -5.94648054e-06 -8.65956827e-06
      -1.09497105e-05 -1.13712504e-05 -1.09908806e-05 -9.46106684e-06
      -6.20479523e-06 -2.66708366e-06 1.45241836e-06 4.56778707e-06
      5.06594188e-06 3.70737234e-06 1.38437508e-06 -7.63346804e-07
      -2.35365201e-06 -2.59471858e-06 -2.56930593e-06 -6.16711361e-07
      2.01560579e-06 3.86316424e-06 5.60291573e-06 4.99923954e-06
      4.81369625e-06 4.14014858e-06 3.86791362e-06 4.02290652e-06
      3.57441240e-06 3.82109374e-06 3.25504288e-06 2.50537164e-06
      1.16289220e-06 -5.35268725e-07 -1.24180769e-06 -2.29087141e-06
      -6.70118516e-06 -5.35162962e-06 -3.17693866e-06 4.18904676e-07
      2.71123508e-06 4.04627008e-06 4.34441836e-06 2.89635750e-06
      1.70151225e-06 5.42414946e-10 -1.32229081e-06 -1.57399234e-06
      -1.74749232e-06 -2.42576652e-06 -4.26147335e-06 -6.56930661e-06
      -9.60368561e-06 -1.09012954e-05 -1.14914465e-05 -1.07725027e-05
      -8.58816384e-06 -5.82001803e-06 -2.02787669e-06 1.24245776e-06
      2.35412540e-06 1.52007419e-06 4.47162449e-08 -1.67627240e-06
      -3.00141301e-06 -2.37880568e-06 -1.79304004e-06 5.20665367e-07
      3.51369226e-06 5.53668178e-06 7.64400738e-06 6.75237607e-06
      5.90303762e-06 4.67561722e-06 3.79991479e-06 3.47002083e-06
      2.78296466e-06 2.86141608e-06 1.84054818e-06 7.83856251e-07
      -1.20585332e-06 -3.24845973e-06 -4.46003787e-06 -6.10334700e-06
      -6.81915344e-06 -5.81170889e-06 -4.78402353e-06 -2.17148295e-06
      -6.51871062e-07 -8.60425402e-08 3.18728183e-07 -2.49231363e-07
      -2.33050230e-07 -4.73987626e-07 4.44129114e-07 2.37693257e-06
      3.98552129e-06 4.96688699e-06 4.51127198e-06 3.30842590e-06
      1.83205913e-08 -2.66925076e-06 -4.87220950e-06 -6.29321812e-06
      -6.63622905e-06 -6.10036886e-06 -4.14878696e-06 -1.97901954e-06
      -8.07232084e-07 -1.13562260e-06 -1.21154176e-06 -1.91618824e-06
      -2.43820682e-06 -8.37706864e-07 2.19638011e-07 2.21289611e-06
      4.79835853e-06 6.32774936e-06 8.02246814e-06 7.09518918e-06
      6.22455173e-06 5.15136298e-06 4.56822727e-06 4.20939614e-06
      3.64242123e-06 3.41368559e-06 1.79837832e-06 -5.75151624e-08
      -2.93291214e-06 -5.63015601e-06 -7.45687521e-06 -9.35035223e-06
      -2.97573752e-06 -2.51822598e-06 -3.22048254e-06 -2.64389109e-06
      -2.73531418e-06 -3.70741941e-06 -3.64303355e-06 -3.72228214e-06
      -2.50524249e-06 -1.14436079e-06 2.13508565e-06 6.28593489e-06
      9.85842507e-06 1.28419260e-05 1.42527342e-05 1.47755891e-05
      1.22099918e-05 8.92926437e-06 5.74840305e-06 2.29026864e-06
      -5.34781861e-07 -2.65375638e-06 -3.37857864e-06 -3.23662152e-06
      -2.83702093e-06 -2.82773522e-06 -1.67031851e-06 -1.10946587e-06
      -4.73256478e-07 1.97732379e-06 3.14593262e-06 4.33775222e-06
      5.87680324e-06 6.33537593e-06 7.17110697e-06 6.53124471e-06
      6.37552876e-06 6.17578644e-06 6.53107554e-06 6.68494840e-06
      6.41160477e-06 5.75987997e-06 3.67021016e-06 1.22549852e-06
      -2.01619218e-06 -4.98026520e-06 -6.92364847e-06 -8.62114666e-06
      1.90416040e-06 1.80728057e-06 -3.37736395e-07 -1.60731395e-06
      -3.04781247e-06 -5.30915486e-06 -5.55502402e-06 -5.43486794e-06
      -3.44992509e-06 -1.12650002e-06 3.54801773e-06 8.68171264e-06
      1.28624533e-05 1.68345305e-05 1.92226325e-05 2.06432996e-05
      1.88749509e-05 1.58111161e-05 1.25597435e-05 8.28522752e-06
      4.41261454e-06 7.67295830e-07 -1.90554317e-06 -3.63410163e-06
      -4.41841257e-06 -4.48297851e-06 -3.06311722e-06 -1.71917998e-06
      2.94987945e-08 3.18549360e-06 4.58038039e-06 5.67628149e-06
      6.66171309e-06 6.54151108e-06 6.92690583e-06 6.69667997e-06
      7.37426080e-06 7.94578591e-06 9.02521606e-06 9.66868083e-06
      9.66664993e-06 8.74697253e-06 6.78260949e-06 4.66362962e-06
      2.11437282e-06 -1.76497650e-07 -1.44258104e-06 -2.66193842e-06
      5.55349470e-06 5.01954173e-06 2.07335597e-06 -3.70806930e-07
      -2.52778818e-06 -5.23982180e-06 -5.24459847e-06 -4.70456416e-06
      -2.07265930e-06 6.89216961e-07 5.67958978e-06 1.02954154e-05
      1.32857622e-05 1.64829762e-05 1.81181567e-05 1.86133257e-05
      1.68778988e-05 1.41137925e-05 1.11520239e-05 7.30851116e-06
      3.82024382e-06 2.73203256e-07 -2.74663580e-06 -5.33911953e-06
      -6.96292909e-06 -7.34919922e-06 -6.49798358e-06 -5.20295225e-06
      -2.83521558e-06 6.44186002e-07 2.50633639e-06 4.38750430e-06
      5.56875693e-06 5.74015667e-06 6.17586602e-06 6.07818947e-06
      7.08309926e-06 7.79460242e-06 9.04058288e-06 1.00135849e-05
      1.05601903e-05 1.01287060e-05 9.22997151e-06 8.43218368e-06
      7.39898496e-06 6.48511059e-06 6.33279979e-06 5.57100066e-06
      6.36297364e-06 5.61408660e-06 2.66436018e-06 -1.87891175e-07
      -2.51427991e-06 -4.86115823e-06 -4.28331850e-06 -3.34824358e-06
      -4.54978618e-07 1.96883047e-06 5.97970347e-06 8.85814279e-06
      9.68526365e-06 1.10235842e-05 1.12484322e-05 1.03112143e-05
      8.84239034e-06 6.74823559e-06 4.59061130e-06 2.12880059e-06
      -3.79704545e-07 -2.90773914e-06 -5.21760649e-06 -7.75342505e-06
      -9.57081284e-06 -1.02322147e-05 -1.00887037e-05 -9.63289403e-06
      -7.72412477e-06 -5.09670372e-06 -3.42809790e-06 -1.49325103e-06
      -4.16602745e-07 1.77806669e-07 6.83988048e-07 7.19240177e-07
      1.92841685e-06 2.72955253e-06 4.20987226e-06 5.74199157e-06
      7.38502285e-06 8.27617896e-06 8.99148290e-06 9.77249783e-06
      1.03144475e-05 1.06616280e-05 1.14597833e-05 1.10360825e-05
      1.85930116e-06 1.29890827e-06 -5.24836537e-07 -2.46777586e-06
      -3.95546022e-06 -5.20709546e-06 -4.21251661e-06 -3.55302677e-06
      -1.59352044e-06 -8.20825164e-07 7.83445273e-07 1.37325958e-06
      5.50287268e-07 5.98430290e-07 6.37729499e-07 -2.37495200e-07
      -2.05435668e-07 -9.50278945e-07 -1.73809804e-06 -2.74581112e-06
      -4.67298196e-06 -6.28613589e-06 -7.76108300e-06 -9.63293405e-06
      -1.08837512e-05 -1.13431888e-05 -1.11473237e-05 -1.14509894e-05
      -1.06026473e-05 -9.73621536e-06 -9.14317570e-06 -8.69060932e-06
      -8.52478024e-06 -8.04773572e-06 -7.91640286e-06 -7.52518372e-06
      -6.01710553e-06 -4.85832925e-06 -2.88031447e-06 -8.77854518e-07
      1.69484963e-06 3.65483925e-06 5.32971535e-06 6.62261800e-06
      7.70074257e-06 8.26133237e-06 9.22803247e-06 9.11485313e-06
      -9.04381977e-06 -8.91625587e-06 -8.72554574e-06 -8.41404744e-06
      -7.74709042e-06 -7.24651636e-06 -5.92762035e-06 -5.85777798e-06
      -5.43779652e-06 -6.56503926e-06 -7.24177517e-06 -8.05121908e-06
      -8.68138977e-06 -8.10494839e-06 -6.71234466e-06 -6.07071934e-06
      -4.31859553e-06 -4.10098710e-06 -4.19828075e-06 -5.03269121e-06
      -7.50706704e-06 -9.11989991e-06 -1.01443247e-05 -1.10685905e-05
      -1.11087957e-05 -1.06930183e-05 -9.18627939e-06 -8.75821024e-06
      -7.83279665e-06 -7.71197665e-06 -7.61659476e-06 -8.60218915e-06
      -9.48473280e-06 -9.88917054e-06 -1.11956042e-05 -1.14255126e-05
      -1.07361248e-05 -1.00024845e-05 -8.17069122e-06 -6.49146341e-06
      -3.83588213e-06 -1.77921163e-06 -1.47718410e-07 3.00588425e-07
      4.77326012e-07 1.04088592e-07 3.45518401e-07 5.56411749e-07
      -2.04884382e-05 -1.94319709e-05 -1.74684883e-05 -1.48923309e-05
      -1.17524387e-05 -9.46041655e-06 -7.70124552e-06 -7.64129254e-06
      -7.90263039e-06 -9.41555936e-06 -1.03330085e-05 -1.08929780e-05
      -9.84354301e-06 -7.60383637e-06 -5.08185485e-06 -3.41127725e-06
      -1.35725213e-06 -1.52473706e-06 -2.37611403e-06 -4.20611650e-06
      -7.77054447e-06 -9.99204440e-06 -1.08459690e-05 -1.11340387e-05
      -1.00307743e-05 -8.90229421e-06 -5.98457973e-06 -3.68722385e-06
      -1.39270310e-06 -4.09520396e-07 5.55586723e-07 -3.47553197e-07
      -1.65972858e-06 -3.28850638e-06 -6.68673238e-06 -9.02986721e-06
      -1.05797280e-05 -1.15567345e-05 -1.08347494e-05 -9.92709374e-06
      -7.50424761e-06 -5.56025998e-06 -3.80439565e-06 -4.07498192e-06
      -4.96158873e-06 -6.25019993e-06 -6.74572675e-06 -6.30055456e-06
      -2.24032756e-05 -2.06795812e-05 -1.81668820e-05 -1.46893999e-05
      -1.02524509e-05 -7.24247957e-06 -5.25340465e-06 -4.66095344e-06
      -4.76067680e-06 -5.36985954e-06 -4.94747292e-06 -4.84184829e-06
      -2.83749364e-06 2.40308662e-09 1.66423956e-06 2.45720548e-06
      3.06848847e-06 1.73364799e-06 -2.57721439e-07 -2.56502949e-06
      -6.22809875e-06 -8.22620495e-06 -8.60948421e-06 -8.70750409e-06
      -6.98900521e-06 -6.08046639e-06 -3.29462841e-06 -7.23580627e-08
      2.72307420e-06 4.26260158e-06 5.93710456e-06 5.87458908e-06
      4.78333732e-06 2.74541026e-06 -1.35415110e-06 -5.09998517e-06
      -8.00155885e-06 -1.03715820e-05 -1.06870166e-05 -1.01806108e-05
      -7.96566201e-06 -5.78495838e-06 -3.38040718e-06 -3.18463526e-06
      -3.95291454e-06 -5.05743174e-06 -5.39359962e-06 -4.90748516e-06
      -1.15304692e-05 -9.72037105e-06 -7.92771425e-06 -5.09909478e-06
      -1.16853960e-06 9.20138064e-07 2.39396695e-06 3.22737151e-06
      2.91924130e-06 2.86955242e-06 4.23466417e-06 4.02412752e-06
      4.98149620e-06 6.47438901e-06 5.70874818e-06 4.37381732e-06
      2.74744707e-06 4.63289041e-07 -2.15311297e-06 -3.84221494e-06
      -6.46438002e-06 -7.01794897e-06 -6.50440643e-06 -6.26385145e-06
      -4.16534749e-06 -3.64105381e-06 -2.11124097e-06 5.16722196e-07
      1.98197699e-06 2.59073749e-06 3.29454110e-06 3.38274617e-06
      2.55434816e-06 1.35758648e-06 -1.10607687e-06 -3.66109543e-06
      -5.23519111e-06 -6.86760905e-06 -7.30498505e-06 -6.64257641e-06
      -5.12357201e-06 -2.79067717e-06 -3.30431391e-07 9.57073325e-07
      1.17788727e-06 1.23853079e-06 1.86263924e-06 2.28583667e-06
      3.56807232e-06 4.95172799e-06 5.45453668e-06 6.83593635e-06
      9.13112126e-06 9.40793325e-06 9.66140215e-06 1.01645837e-05
      8.84393557e-06 8.44436636e-06 9.64695300e-06 8.44936403e-06
      7.85470820e-06 7.81617564e-06 5.38654376e-06 2.72082320e-06
      -4.91922265e-07 -3.11867689e-06 -6.32004821e-06 -7.64976357e-06
      -9.79776178e-06 -9.31929208e-06 -8.38733740e-06 -7.52212281e-06
      -5.06083416e-06 -4.05261881e-06 -3.17355943e-06 -1.16471119e-06
      -1.22087988e-06 -1.82331439e-06 -3.02552053e-06 -3.55098518e-06
      -4.46596869e-06 -4.46630929e-06 -4.60224965e-06 -4.67279597e-06
      -3.67806661e-06 -2.96670601e-06 -3.15916668e-06 -2.07398170e-06
      -1.79129881e-06 2.97341217e-07 1.86455520e-06 4.25655890e-06
      5.45359944e-06 6.99686052e-06 8.74016860e-06 9.20785624e-06
      1.17530972e-05 1.24669968e-05 1.19244096e-05 1.19356655e-05
      1.27789408e-05 1.15653729e-05 1.05945564e-05 1.06979423e-05
      8.18464832e-06 7.05306002e-06 7.69018152e-06 5.83001429e-06
      5.05328080e-06 5.10179370e-06 3.39499729e-06 1.58251828e-06
      -1.31038018e-06 -3.22884421e-06 -6.89464196e-06 -8.71414431e-06
      -1.17725522e-05 -1.19711995e-05 -1.19862061e-05 -1.11919617e-05
      -9.03750060e-06 -7.47405966e-06 -6.41017277e-06 -4.32437764e-06
      -4.52445693e-06 -5.06578272e-06 -7.06989249e-06 -7.63576918e-06
      -8.24584095e-06 -6.94689697e-06 -5.39706707e-06 -3.65969208e-06
      -1.16921433e-06 1.28285967e-06 6.76072034e-07 1.76563947e-06
      5.94100470e-07 1.77621973e-06 1.95925122e-06 5.00378701e-06
      6.59088846e-06 9.10039944e-06 1.13637598e-05 1.19296064e-05
      1.07046171e-05 1.07907163e-05 9.97178995e-06 9.28255395e-06
      9.62212107e-06 7.76061188e-06 6.16238003e-06 5.99805571e-06
      2.66776851e-06 5.87891861e-07 5.96993232e-07 -1.43906959e-06
      -1.46098193e-06 -3.18534433e-07 2.48582609e-07 7.89447427e-07
      1.49809779e-07 4.29029058e-07 -2.31998547e-06 -4.03119930e-06
      -7.81216568e-06 -9.40679274e-06 -1.11456866e-05 -1.17577965e-05
      -1.13598662e-05 -1.07803671e-05 -1.01570458e-05 -8.38457709e-06
      -7.94382868e-06 -7.49339279e-06 -8.61916669e-06 -7.91769799e-06
      -7.20845674e-06 -4.10103348e-06 -1.10125609e-06 1.70895305e-06
      4.53875509e-06 7.41121539e-06 6.17570504e-06 6.58203135e-06
      4.06814297e-06 3.65937854e-06 2.15786167e-06 4.37068775e-06
      5.11636154e-06 7.15404803e-06 8.68505686e-06 9.01680141e-06
      5.07381901e-06 4.84857628e-06 4.79145683e-06 4.61390073e-06
      5.36577545e-06 3.77070705e-06 2.30879959e-06 1.63306140e-06
      -2.12063628e-06 -5.48873868e-06 -6.46337776e-06 -8.47095816e-06
      -8.20404875e-06 -6.44440843e-06 -3.92449192e-06 -1.38698385e-06
      5.71372766e-07 3.56807777e-06 3.08813037e-06 2.78847710e-06
      -1.38934681e-07 -2.14046509e-06 -4.88011847e-06 -7.20819344e-06
      -9.30192073e-06 -1.09282646e-05 -1.19734214e-05 -1.15683442e-05
      -1.11012387e-05 -1.03410175e-05 -1.05372965e-05 -8.55244889e-06
      -6.68125404e-06 -2.35251082e-06 1.57684860e-06 4.88730984e-06
      7.80457140e-06 1.08725944e-05 1.00096850e-05 9.79876131e-06
      6.80244102e-06 5.04985019e-06 2.22345557e-06 2.04013895e-06
      7.94146501e-07 1.09101643e-06 9.93399340e-07 6.50240509e-07
      7.08263428e-07 5.72627528e-07 1.99897545e-06 3.52015286e-06
      4.91845549e-06 4.22612675e-06 3.42548515e-06 1.80735515e-06
      -2.09427208e-06 -6.80692574e-06 -9.16297085e-06 -1.09493203e-05
      -1.12033867e-05 -9.77903528e-06 -6.80379981e-06 -3.93532355e-06
      -8.92249830e-07 3.43133979e-06 4.73171758e-06 5.85463749e-06
      4.67260634e-06 3.62301694e-06 1.42011902e-06 -1.28433760e-06
      -4.70766236e-06 -7.71179930e-06 -1.03101056e-05 -1.12700163e-05
      -1.15045414e-05 -1.15573912e-05 -1.19911138e-05 -1.00175512e-05
      -8.31507623e-06 -4.52907580e-06 -1.16153171e-06 1.46669481e-06
      3.95421876e-06 7.05661887e-06 6.81941583e-06 6.13466364e-06
      3.52368056e-06 1.10869587e-06 -1.97219629e-06 -4.47304046e-06
      -7.57057296e-06 -8.84873134e-06 -1.01579917e-05 -1.11190730e-05
      1.96238875e-06 2.09857649e-06 4.65913809e-06 7.83194810e-06
      9.14948760e-06 9.20831462e-06 9.07526282e-06 6.56400562e-06
      2.96139478e-06 -2.48687252e-06 -6.10116876e-06 -7.51225934e-06
      -8.77883394e-06 -8.62053093e-06 -7.21114384e-06 -5.94692938e-06
      -3.92644733e-06 -5.10363236e-07 8.88515956e-07 2.52273412e-06
      2.96956750e-06 3.64004313e-06 3.36032485e-06 2.14133411e-06
      -4.62741212e-07 -2.95134896e-06 -5.75716012e-06 -6.96424559e-06
      -7.94935386e-06 -9.03981982e-06 -1.01352580e-05 -8.88619070e-06
      -7.94380230e-06 -5.38754466e-06 -3.35564232e-06 -2.29552143e-06
      -1.05627032e-06 8.80648088e-07 -2.25309734e-07 -2.09068571e-06
      -4.69412862e-06 -7.76479374e-06 -1.03990878e-05 -1.36334693e-05
      -1.71832344e-05 -1.87388359e-05 -1.99575825e-05 -2.09655336e-05
      7.03638943e-06 7.39449570e-06 9.99723488e-06 1.36254912e-05
      1.41209593e-05 1.44669475e-05 1.48097724e-05 1.21654512e-05
      9.55718315e-06 4.56209273e-06 5.00746523e-07 -5.57344094e-07
      -2.86818590e-06 -4.51402502e-06 -6.16944135e-06 -7.68417067e-06
      -7.95996948e-06 -7.00388318e-06 -6.79262394e-06 -5.30816669e-06
      -3.50972391e-06 -9.39694360e-07 1.37726238e-06 2.59586568e-06
      2.20042966e-06 1.25829558e-06 -9.42765837e-07 -1.71654960e-06
      -3.31436581e-06 -5.05131175e-06 -6.00797830e-06 -4.79776372e-06
      -3.74769502e-06 -1.25421673e-06 5.02621731e-07 4.88990167e-07
      5.09282302e-07 1.02749247e-07 -3.12796419e-06 -6.74526063e-06
      -1.02982021e-05 -1.40633974e-05 -1.60833461e-05 -1.83296870e-05
      -2.05523065e-05 -2.10597227e-05 -2.10508315e-05 -2.16104509e-05
      9.44732346e-06 9.92090918e-06 1.17601385e-05 1.48171557e-05
      1.47205392e-05 1.54138415e-05 1.62473098e-05 1.44305759e-05
      1.32536697e-05 9.88965985e-06 6.41706083e-06 5.70739894e-06
      3.03540992e-06 1.74267669e-07 -3.98343036e-06 -7.77199784e-06
      -1.01188425e-05 -1.17315740e-05 -1.30249073e-05 -1.21592766e-05
      -9.51869606e-06 -5.48761864e-06 -1.03698460e-06 2.16570584e-06
      3.76994240e-06 4.03555532e-06 2.05598576e-06 1.06423420e-06
      -1.20033314e-06 -3.36761946e-06 -3.49446327e-06 -1.38559221e-06
      8.20090349e-07 4.52228960e-06 7.37895243e-06 7.45464104e-06
      7.14643647e-06 4.57927308e-06 -1.57624143e-07 -4.77709455e-06
      -9.09970822e-06 -1.25966335e-05 -1.35863374e-05 -1.37653496e-05
      -1.33713456e-05 -1.21554394e-05 -1.04924156e-05 -1.05637646e-05
      5.70575867e-06 6.22604830e-06 7.13491772e-06 9.41466624e-06
      9.54051302e-06 1.09966231e-05 1.24537255e-05 1.21702715e-05
      1.23424697e-05 1.12435500e-05 9.14815882e-06 8.95211724e-06
      7.02803663e-06 4.33380774e-06 2.51525130e-08 -4.18208174e-06
      -7.37728396e-06 -1.03676903e-05 -1.26561890e-05 -1.27752082e-05
      -1.03229295e-05 -5.92622609e-06 -7.94790708e-07 3.07180744e-06
      5.37533197e-06 5.99565237e-06 3.80270421e-06 1.54936129e-06
      -1.37641791e-06 -4.14896840e-06 -4.16996090e-06 -1.64585765e-06
      1.23393613e-06 5.68302812e-06 9.37427194e-06 1.00131056e-05
      1.03369202e-05 7.38972176e-06 3.13112014e-06 -5.24019526e-07
      -3.89829711e-06 -5.52671099e-06 -4.86387717e-06 -2.71989688e-06
      1.97616458e-07 2.83916415e-06 5.73879879e-06 5.87108298e-06
      -2.45881301e-06 -1.85262024e-06 -1.56283977e-06 3.36432805e-07
      1.30125727e-06 3.55257703e-06 5.56804616e-06 6.86601197e-06
      7.86146302e-06 8.60802174e-06 8.07625020e-06 8.38526466e-06
      7.81313611e-06 6.21120762e-06 3.73794887e-06 8.66799780e-07
      -1.89803666e-06 -4.61227864e-06 -6.84986981e-06 -7.68863083e-06
      -6.32400361e-06 -2.70358373e-06 1.72341549e-06 5.17140961e-06
      7.22862569e-06 7.92444916e-06 6.16852776e-06 2.87779972e-06
      -1.96731918e-07 -3.61864363e-06 -5.03462525e-06 -3.87422779e-06
      -2.16483750e-06 1.27320948e-06 4.35495122e-06 5.37087590e-06
      7.05623006e-06 6.02163573e-06 4.16320336e-06 3.36466769e-06
      2.53522853e-06 3.49937181e-06 5.45250396e-06 8.93258857e-06
      1.25257948e-05 1.51633130e-05 1.81063024e-05 1.80971838e-05
      -9.89084310e-06 -9.16348927e-06 -9.09548999e-06 -7.26335384e-06
      -5.64244101e-06 -3.39842927e-06 -1.47632011e-06 3.61886180e-07
      1.21354356e-06 2.34640697e-06 2.79146661e-06 3.35045365e-06
      3.96570795e-06 3.68634028e-06 3.58671059e-06 2.83704230e-06
      1.39650808e-06 7.99172000e-08 -1.27779379e-06 -2.26077805e-06
      -2.32413436e-06 -2.66192416e-07 2.79936012e-06 5.53050950e-06
      7.47575723e-06 8.75966271e-06 8.70697568e-06 6.12309213e-06
      4.04063621e-06 7.30383817e-07 -2.35019502e-06 -3.47632567e-06
      -3.98379461e-06 -2.49492814e-06 -5.80513927e-07 9.56226813e-07
      4.38277402e-06 6.18516651e-06 7.31867294e-06 9.47997978e-06
      1.07212954e-05 1.29276796e-05 1.41895380e-05 1.66151585e-05
      1.82574768e-05 1.88418489e-05 2.04610078e-05 2.00874911e-05
      -1.18754642e-05 -1.11755171e-05 -1.13038623e-05 -9.81851463e-06
      -8.54909194e-06 -7.37676964e-06 -6.48546484e-06 -5.45186913e-06
      -5.47112586e-06 -4.97494420e-06 -4.20734659e-06 -3.29781847e-06
      -1.78688515e-06 -6.31098828e-07 1.17636944e-06 2.26982706e-06
      2.26002908e-06 2.18418268e-06 1.38527150e-06 6.12271336e-08
      -1.60558830e-06 -1.54242150e-06 8.12904375e-08 2.22838912e-06
      4.52628728e-06 6.97082260e-06 9.07501453e-06 8.68843381e-06
      8.45520299e-06 6.32667434e-06 3.03163347e-06 7.35898425e-07
      -1.01603200e-06 -6.91217338e-07 8.85879558e-07 3.29482691e-06
      7.99659756e-06 1.13066071e-05 1.40624015e-05 1.71293614e-05
      1.82438507e-05 1.90799037e-05 1.75642126e-05 1.67330545e-05
      1.50143887e-05 1.24494045e-05 1.22294223e-05 1.14648101e-05
      -8.68620918e-06 -8.15120620e-06 -8.77973980e-06 -8.18616536e-06
      -8.09573612e-06 -8.27033182e-06 -8.64887352e-06 -8.67246126e-06
      -9.22463551e-06 -8.86965881e-06 -7.72103976e-06 -6.16185480e-06
      -4.12916825e-06 -1.86890043e-06 4.49508917e-07 2.01413468e-06
      2.45960609e-06 2.49790605e-06 1.30744513e-06 -8.80441007e-07
      -3.76252274e-06 -4.98087911e-06 -4.17182400e-06 -2.37857080e-06
      2.29057164e-07 3.71232409e-06 7.02429816e-06 8.56483075e-06
      9.71539430e-06 9.02372176e-06 7.09262667e-06 5.50873938e-06
      4.30068030e-06 4.64231425e-06 6.46898297e-06 9.15441797e-06
      1.35321397e-05 1.59398769e-05 1.78330120e-05 1.94755157e-05
      1.89395087e-05 1.72234668e-05 1.31256829e-05 9.47086119e-06
      5.54832241e-06 1.04412209e-06 -2.21505118e-07 -1.23673351e-06
      -3.01505406e-06 -2.57191459e-06 -4.05603259e-06 -4.70318400e-06
      -5.88914963e-06 -7.02927173e-06 -8.09304129e-06 -8.36466370e-06
      -8.48822037e-06 -7.24541360e-06 -5.29554518e-06 -3.34294486e-06
      -1.63456093e-06 3.94764157e-07 1.11680106e-06 1.24765779e-06
      6.00415945e-07 -2.27121660e-07 -2.10889812e-06 -4.84058819e-06
      -7.53484119e-06 -8.16963347e-06 -6.91135756e-06 -5.04636955e-06
      -2.39328460e-06 1.49964853e-06 4.82903260e-06 7.18261481e-06
      8.68011193e-06 8.94314508e-06 8.67679591e-06 8.57234227e-06
      8.55719281e-06 8.88240538e-06 1.01735532e-05 1.14598515e-05
      1.35869532e-05 1.36088729e-05 1.32093865e-05 1.29970422e-05
      1.14153081e-05 8.79783147e-06 4.73914542e-06 1.25403983e-06
      -2.09718473e-06 -5.89914180e-06 -6.91517789e-06 -7.93731942e-06
      3.69531813e-06 4.13430871e-06 1.65100948e-06 -1.03267247e-07
      -2.26320890e-06 -4.00914496e-06 -5.06384504e-06 -4.81791949e-06
      -4.05704941e-06 -1.81787459e-06 8.49963214e-07 2.61524724e-06
      3.14463955e-06 3.51372751e-06 1.50141739e-06 -6.12215786e-07
      -3.23940208e-06 -5.15924876e-06 -7.39289317e-06 -9.95164464e-06
      -1.12196612e-05 -1.01962733e-05 -7.68098471e-06 -5.27456223e-06
      -2.45137767e-06 1.47582614e-06 4.57137776e-06 7.06957644e-06
      8.46471539e-06 9.07163849e-06 9.55270116e-06 1.01298201e-05
      1.04509154e-05 9.88641932e-06 9.74653358e-06 8.61846820e-06
      7.85951488e-06 5.78140907e-06 3.66860377e-06 2.69393786e-06
      1.39669237e-06 2.61542219e-08 -1.72125488e-06 -2.66817710e-06
      -3.53512655e-06 -4.92224262e-06 -5.01499289e-06 -5.75353306e-06
      9.16296085e-06 9.54386542e-06 6.46825538e-06 4.31550461e-06
      1.83801933e-06 -1.71856755e-07 -8.90179251e-07 -9.78033015e-08
      1.01242551e-06 3.21831044e-06 5.85056205e-06 7.15718443e-06
      6.49699086e-06 5.19622381e-06 1.78051619e-06 -1.13949454e-06
      -4.85303462e-06 -7.22462255e-06 -9.29074577e-06 -1.14791319e-05
      -1.14033337e-05 -9.60327543e-06 -6.56979046e-06 -4.07408061e-06
      -1.22150232e-06 2.37968675e-06 5.09348229e-06 6.94816845e-06
      7.98096426e-06 8.21679077e-06 8.36654181e-06 8.52733592e-06
      8.39497261e-06 6.90725483e-06 6.07630773e-06 3.76093089e-06
      1.61589458e-06 -1.03618981e-06 -3.31971978e-06 -4.13491853e-06
      -4.82015821e-06 -4.89293961e-06 -4.45995147e-06 -3.31085221e-06
      -1.95305029e-06 -1.25663769e-06 -6.13083273e-07 -8.50760046e-07
      9.89326327e-06 1.01050800e-05 7.26425833e-06 5.42654743e-06
      3.49757761e-06 1.66357677e-06 1.26932241e-06 2.17719298e-06
      2.82567180e-06 3.88654962e-06 5.71527426e-06 6.63209676e-06
      5.63244066e-06 4.01725174e-06 1.93994561e-06 6.85446309e-07
      -1.93838673e-06 -3.63567483e-06 -4.95807899e-06 -7.11948178e-06
      -6.92883123e-06 -6.23199639e-06 -4.45615979e-06 -3.35657273e-06
      -1.35824519e-06 1.39277279e-06 3.17818899e-06 3.59397109e-06
      4.05438232e-06 3.44409864e-06 2.87967396e-06 2.27770261e-06
      1.90485923e-06 3.55228309e-07 3.16603490e-07 -1.01409603e-06
      -2.25571443e-06 -3.84854184e-06 -4.96396933e-06 -5.07325831e-06
      -5.25413270e-06 -5.03052343e-06 -3.71219380e-06 -2.19535968e-06
      -3.88154966e-08 1.31011780e-06 2.12783721e-06 2.37181621e-06
      4.94494088e-06 4.98642930e-06 3.05693652e-06 1.79547442e-06
      9.83844643e-07 -1.26883336e-07 -7.44087600e-08 8.78519472e-07
      1.11736676e-06 9.94428319e-07 1.86533805e-06 2.61513310e-06
      2.10382223e-06 1.35576249e-06 2.00504928e-06 3.41318673e-06
      3.12363704e-06 2.45105662e-06 1.75985883e-06 -1.11118959e-06
      -2.50283006e-06 -4.45558771e-06 -5.19678088e-06 -6.54752421e-06
      -5.96763857e-06 -3.93014625e-06 -2.82163774e-06 -3.04956757e-06
      -2.33340893e-06 -3.01253885e-06 -3.58050283e-06 -4.43020235e-06
      -4.36621349e-06 -5.41358986e-06 -4.46604554e-06 -4.24382642e-06
      -3.83250335e-06 -3.98910151e-06 -3.54674899e-06 -2.67248402e-06
      -2.23541178e-06 -1.98122507e-06 -4.93427649e-07 6.01599595e-07
      2.53330950e-06 3.43196166e-06 4.02333808e-06 4.53228631e-06
      -2.87592843e-06 -2.77397385e-06 -3.44405817e-06 -3.98629709e-06
      -3.47595460e-06 -3.15283933e-06 -2.15600994e-06 -7.06645324e-07
      -4.18261479e-08 -4.66562255e-07 -1.98452270e-07 5.29111730e-07
      6.49582319e-07 8.27119379e-07 3.07680716e-06 5.86081387e-06
      6.99764223e-06 6.32586170e-06 5.13919667e-06 9.71925260e-07
      -2.80610448e-06 -7.31310547e-06 -9.95326536e-06 -1.28900392e-05
      -1.28594029e-05 -1.06724256e-05 -9.23368134e-06 -8.58303156e-06
      -6.78055540e-06 -6.56089424e-06 -6.42682335e-06 -6.95294921e-06
      -6.12946678e-06 -6.66913593e-06 -5.55334782e-06 -4.61974105e-06
      -3.40730389e-06 -3.02361195e-06 -1.62058166e-06 -2.67782411e-07
      5.19218531e-07 7.65968252e-07 2.00393879e-06 2.57923512e-06
      3.79742733e-06 3.78854907e-06 3.98434804e-06 4.49916388e-06
      -9.42137922e-06 -8.96886468e-06 -8.30354929e-06 -7.95653432e-06
      -6.22070274e-06 -4.12034797e-06 -2.01228409e-06 8.64708127e-09
      1.35161156e-06 1.13667511e-06 9.88519446e-07 1.42463796e-06
      1.82553219e-06 2.50051448e-06 4.55514328e-06 6.99376506e-06
      8.24289509e-06 6.81095389e-06 4.66562233e-06 -6.07482633e-08
      -4.83388021e-06 -9.56320400e-06 -1.16514520e-05 -1.37418247e-05
      -1.25755823e-05 -9.72076305e-06 -7.75940498e-06 -6.63057745e-06
      -5.10423388e-06 -5.25278801e-06 -5.59390219e-06 -6.48928699e-06
      -5.55218594e-06 -5.93950199e-06 -5.09590018e-06 -3.88570561e-06
      -2.43824979e-06 -2.10200710e-06 -4.06317469e-07 6.22053221e-07
      1.31849879e-06 1.23969016e-06 1.72641774e-06 1.59110925e-06
      1.76927301e-06 7.82207678e-07 4.96603889e-07 7.59056775e-07
      -1.07391297e-05 -9.95773735e-06 -8.28674092e-06 -7.15594615e-06
      -4.73504542e-06 -1.58526268e-06 8.40172447e-07 2.55508553e-06
      3.53584528e-06 2.84112389e-06 1.83346197e-06 1.32196806e-06
      1.47873516e-06 2.44417402e-06 3.89238994e-06 5.71884266e-06
      7.29183648e-06 6.15377849e-06 4.47041384e-06 1.14913280e-06
      -2.13388876e-06 -4.54856308e-06 -4.23172378e-06 -4.19783009e-06
      -1.69567386e-06 1.14458066e-06 2.52941663e-06 2.24560426e-06
      1.38015685e-06 -1.15122725e-06 -3.66656968e-06 -6.02093678e-06
      -5.99189843e-06 -6.69520068e-06 -6.16008583e-06 -4.71897647e-06
      -2.98173018e-06 -2.45697629e-06 -7.60356329e-07 -1.48912477e-07
      6.14139935e-07 3.30715778e-07 2.26206936e-07 -3.07038903e-07
      -8.83807502e-07 -2.30976434e-06 -2.89851755e-06 -3.02938702e-06
      -5.32729882e-06 -4.62718299e-06 -2.59184162e-06 -1.10178087e-06
      1.22119491e-06 4.06098980e-06 5.68111864e-06 6.06563117e-06
      5.46613683e-06 3.17775994e-06 7.54937162e-07 -1.08268330e-06
      -1.70474357e-06 -8.62216439e-07 4.01444481e-07 1.97698682e-06
      4.34642971e-06 4.64923505e-06 4.66885740e-06 3.81720338e-06
      2.99558724e-06 3.22290271e-06 5.45608464e-06 6.47097431e-06
      8.64186677e-06 1.02327094e-05 9.95100618e-06 7.51962716e-06
      4.43216277e-06 7.81969192e-08 -3.90756941e-06 -6.99896327e-06
      -7.74028103e-06 -8.49740354e-06 -8.12020971e-06 -6.70653844e-06
      -4.90133880e-06 -4.05562287e-06 -2.66359234e-06 -2.11675979e-06
      -1.04564606e-06 -1.00141074e-06 -7.89111539e-07 -6.46589797e-07
      -8.75932983e-07 -1.52140876e-06 -1.78215487e-06 -2.12563691e-06
      2.57131455e-06 2.77286517e-06 4.68473536e-06 6.03193530e-06
      7.69615508e-06 9.40134487e-06 9.75314833e-06 8.61227272e-06
      6.38570555e-06 2.41492671e-06 -1.12741384e-06 -3.76828234e-06
      -5.25350151e-06 -5.28714509e-06 -4.35093989e-06 -3.56210171e-06
      -1.35647110e-06 -4.42243305e-07 4.50376888e-07 1.32241507e-06
      2.29882471e-06 4.27873283e-06 7.39518055e-06 8.21829690e-06
      9.06912828e-06 8.98099643e-06 6.93474976e-06 2.99355997e-06
      -7.63162802e-07 -5.00051146e-06 -8.33570175e-06 -1.02416143e-05
      -1.03394395e-05 -9.99252006e-06 -9.04781427e-06 -7.49021274e-06
      -5.78727986e-06 -4.91266837e-06 -4.23664142e-06 -3.92513584e-06
      -3.10198675e-06 -2.76804190e-06 -1.71128977e-06 -1.92263386e-07
      8.95438177e-07 2.04232333e-06 2.87428020e-06 2.68645772e-06
      5.85651605e-06 5.52844767e-06 7.35277763e-06 8.37621246e-06
      9.29867565e-06 1.00744146e-05 9.56159329e-06 7.42111160e-06
      4.48666560e-06 -5.45967822e-08 -3.63151889e-06 -5.92340575e-06
      -7.63780736e-06 -8.66130722e-06 -8.38988944e-06 -9.05291927e-06
      -8.08997993e-06 -7.89791648e-06 -7.38382460e-06 -5.62713649e-06
      -3.05329968e-06 7.20514606e-07 5.08747598e-06 6.30573686e-06
      6.68469193e-06 5.48461912e-06 2.04304183e-06 -3.05112621e-06
      -7.30200554e-06 -1.13325414e-05 -1.35826212e-05 -1.38646155e-05
      -1.24789003e-05 -1.05262707e-05 -8.33089780e-06 -6.09418612e-06
      -4.13245471e-06 -3.54119152e-06 -3.74113733e-06 -4.25384269e-06
      -4.57343731e-06 -4.67664631e-06 -3.33346475e-06 -1.10843359e-06
      1.03230832e-06 3.61380171e-06 5.69375288e-06 5.79010748e-06
      2.43087470e-06 1.84250200e-06 3.99348210e-06 5.08247149e-06
      5.55536508e-06 6.13701377e-06 5.56907935e-06 3.10828500e-06
      3.22570770e-07 -3.61628213e-06 -6.38640131e-06 -7.46992600e-06
      -8.50476954e-06 -9.53491326e-06 -9.42188581e-06 -1.10579967e-05
      -1.09540215e-05 -1.13615115e-05 -1.14263585e-05 -9.20996536e-06
      -5.14979365e-06 2.01777368e-07 6.03136004e-06 8.34797629e-06
      9.28486133e-06 7.93863546e-06 3.85973772e-06 -1.85460806e-06
      -6.83905000e-06 -1.14817112e-05 -1.35858427e-05 -1.35979708e-05
      -1.16076990e-05 -9.31275463e-06 -6.57179271e-06 -4.06946674e-06
      -1.72541354e-06 -1.53772146e-06 -2.24173891e-06 -3.48119897e-06
      -4.91250103e-06 -5.86344458e-06 -5.21376523e-06 -3.78137702e-06
      -1.91155732e-06 3.83069647e-07 2.87698140e-06 3.08572839e-06
      -3.14021281e-06 -3.78263667e-06 -1.13015187e-06 4.94838503e-07
      8.22346237e-07 1.59589320e-06 1.59145566e-06 -5.74994544e-07
      -2.82074075e-06 -5.71142482e-06 -7.57457246e-06 -7.52773030e-06
      -7.40763744e-06 -7.34544892e-06 -6.39819746e-06 -7.80130540e-06
      -7.37102391e-06 -7.14848966e-06 -7.36034235e-06 -5.44560635e-06
      -1.30752869e-06 3.61934235e-06 9.14078464e-06 1.14926916e-05
      1.26310979e-05 1.16145329e-05 8.00540420e-06 3.16689989e-06
      -1.21889116e-06 -5.72564431e-06 -7.84784515e-06 -8.67677863e-06
      -7.50931031e-06 -6.68965095e-06 -5.13116629e-06 -3.73131434e-06
      -1.60642662e-06 -1.77461993e-06 -2.22565268e-06 -3.15030866e-06
      -4.50933703e-06 -5.80076130e-06 -6.03447552e-06 -6.02738237e-06
      -5.27318480e-06 -4.73208729e-06 -2.79374080e-06 -2.59927970e-06
      -5.97033795e-06 -6.67960558e-06 -3.92716902e-06 -1.86472732e-06
      -1.50416543e-06 -7.53803761e-07 4.10438972e-08 -1.23135840e-06
      -2.68526196e-06 -4.54696965e-06 -5.68290352e-06 -5.38477616e-06
      -4.51705364e-06 -3.45119656e-06 -1.57853435e-06 -2.16695935e-06
      -9.17946579e-07 8.96027871e-07 1.31223010e-06 2.55608643e-06
      5.52596475e-06 8.28669999e-06 1.13619444e-05 1.19105935e-05
      1.19955712e-05 1.06754933e-05 7.76487013e-06 4.78636775e-06
      2.56116959e-06 -2.07559609e-07 -1.63024674e-06 -2.86799695e-06
      -2.66219240e-06 -3.70713883e-06 -4.11000656e-06 -4.53512166e-06
      -3.35086315e-06 -3.86669853e-06 -3.60867898e-06 -3.42548446e-06
      -3.70085831e-06 -4.47064758e-06 -4.68535609e-06 -5.03772844e-06
      -4.69070619e-06 -5.62200603e-06 -4.18291211e-06 -3.94664448e-06
      -5.33370439e-06 -6.24320228e-06 -3.87561795e-06 -1.80787049e-06
      -1.16183469e-06 -6.55623637e-07 9.28337442e-07 9.70455176e-07
      5.88854789e-07 -3.32811283e-07 -7.65844618e-07 -1.15948467e-06
      -5.47277125e-07 1.71412893e-07 1.80015479e-06 1.33422509e-06
      2.62897311e-06 5.70100883e-06 7.27072984e-06 8.32142541e-06
      1.03812617e-05 1.12686239e-05 1.15011671e-05 9.55243650e-06
      7.95358301e-06 5.48019443e-06 2.61795481e-06 1.29403816e-06
      1.53414419e-06 1.36123731e-06 1.48567779e-06 1.22946039e-06
      1.80208190e-06 1.63441129e-07 -1.31816421e-06 -2.90414482e-06
      -2.91222250e-06 -3.98935845e-06 -3.34091578e-06 -2.47438675e-06
      -2.04477010e-06 -2.06205505e-06 -1.40677059e-06 -8.24310405e-07
      3.38985870e-07 -7.36330890e-07 9.30880219e-07 1.29648936e-06
      -3.33376829e-06 -4.50561538e-06 -2.53969756e-06 -6.25515213e-07
      5.42086809e-07 9.25905510e-07 3.09678626e-06 4.31551689e-06
      4.94897267e-06 4.72246120e-06 4.91196215e-06 3.51197400e-06
      3.22457390e-06 2.49963796e-06 2.88094179e-06 1.59212448e-06
      1.97926647e-06 5.22831169e-06 7.65687673e-06 8.93338347e-06
      1.08059940e-05 1.09323646e-05 9.30415263e-06 5.51853145e-06
      2.69488100e-06 -8.55098563e-07 -3.92223956e-06 -4.04562797e-06
      -1.85267402e-06 3.79549277e-07 2.41770090e-06 3.97979238e-06
      5.98587394e-06 4.98314012e-06 3.55141515e-06 1.81145538e-06
      8.44718727e-07 -9.66320840e-07 -5.21589186e-07 8.36862881e-08
      1.41241145e-07 3.91976869e-07 1.78095979e-06 3.28832766e-06
      5.48624621e-06 4.93403923e-06 7.10465247e-06 7.60851799e-06
      -2.32754451e-06 -3.62369633e-06 -1.79219967e-06 6.43194156e-08
      1.52221912e-06 1.90894093e-06 4.29740430e-06 5.97920280e-06
      7.03066780e-06 7.05446428e-06 7.49593255e-06 5.62279183e-06
      4.83882650e-06 3.28394026e-06 2.94230472e-06 1.09391021e-06
      8.87963097e-07 3.96652649e-06 6.65069365e-06 8.06641856e-06
      9.97196912e-06 9.95662231e-06 7.71954092e-06 3.29796489e-06
      8.25270092e-08 -3.84088889e-06 -6.95885456e-06 -6.56785869e-06
      -3.57484578e-06 -3.13163611e-07 2.65860035e-06 5.15299280e-06
      7.96221320e-06 7.43682131e-06 6.21098343e-06 4.58132718e-06
      3.24152415e-06 1.06094569e-06 1.28655904e-06 1.56426756e-06
      1.19999083e-06 1.41921510e-06 3.01203499e-06 4.79122809e-06
      7.38428525e-06 7.09462438e-06 9.47760600e-06 1.00416528e-05
      -2.11381959e-07 -6.17712772e-07 -1.43604859e-06 -2.30751903e-06
      -2.06085883e-06 -1.03395155e-06 1.25726285e-06 3.68662586e-06
      3.67820053e-06 1.65463280e-06 -7.47835259e-07 -2.74321428e-06
      -2.40786017e-06 -3.68084727e-07 2.44993407e-06 4.37051358e-06
      4.20443484e-06 3.44256000e-06 2.87391435e-06 1.23879502e-07
      -2.99036742e-06 -5.99196619e-06 -6.63733863e-06 -5.02585135e-06
      -3.70108910e-06 -2.38171992e-06 -2.46320838e-06 -3.28624037e-06
      -2.89276136e-06 -1.23089205e-06 9.16893896e-07 2.91367428e-06
      3.30488956e-06 3.06711263e-06 2.60191996e-06 3.12646853e-06
      3.35209393e-06 2.35731068e-06 3.27224143e-06 3.44546856e-06
      3.63639651e-06 2.92650429e-06 1.12943803e-06 4.44303822e-07
      8.13926306e-07 1.34578431e-06 1.84996190e-06 2.11089855e-06
      -8.23670405e-07 -1.83753059e-07 2.32861339e-07 1.59603360e-07
      2.42010117e-07 2.37668914e-07 8.58562544e-07 2.25318377e-06
      4.25407325e-06 3.32592708e-06 1.70856322e-06 -2.09143650e-07
      -6.63093488e-07 -2.57149651e-07 1.24680298e-06 2.87516650e-06
      3.09275492e-06 2.68546546e-06 2.74014315e-06 3.64839877e-07
      -2.55122382e-06 -5.42277439e-06 -6.30092791e-06 -5.28574355e-06
      -3.33235153e-06 -3.09225607e-06 -2.56487806e-06 -3.09052484e-06
      -3.65858250e-06 -2.76983201e-06 -8.62872014e-07 9.60740863e-07
      2.39372230e-06 2.93414450e-06 2.42603710e-06 2.71577892e-06
      3.56735472e-06 3.87014006e-06 3.67577582e-06 3.52246525e-06
      2.60097909e-06 1.80128632e-06 5.47441687e-07 -9.64089850e-07
      -7.86651981e-07 6.92228696e-07 1.82210624e-06 1.72831051e-06
      -1.37295956e-06 -2.89235913e-07 6.36757193e-07 1.29413922e-06
      2.39969950e-06 2.69001612e-06 2.40350982e-06 1.96795145e-06
      1.83718055e-06 3.03513889e-06 2.62151116e-06 1.26455677e-06
      1.04801279e-06 1.70260910e-06 3.08261247e-06 3.42769044e-06
      2.53511325e-06 2.18537821e-06 2.53874327e-06 1.49012953e-06
      -2.10790802e-07 -4.03989679e-06 -6.53007419e-06 -5.76157026e-06
      -3.79720177e-06 -2.77016716e-06 -2.44313742e-06 -1.97191912e-06
      -2.69874045e-06 -2.97439510e-06 -2.58567343e-06 -1.37786787e-06
      8.56646523e-07 2.36661754e-06 2.28369572e-06 2.40480426e-06
      3.32468744e-06 4.22194626e-06 4.91910214e-06 4.19535354e-06
      2.25881945e-06 3.40717975e-07 -9.20718264e-07 -1.31014860e-06
      -1.66452764e-06 -7.32741114e-07 4.59344704e-07 1.31482625e-06
      -6.68871110e-07 -4.82556629e-07 -1.69915637e-07 5.83456540e-07
      1.58689977e-06 2.89991908e-06 3.51182689e-06 3.03080606e-06
      1.28900444e-06 -2.20807493e-07 4.67390862e-07 1.01846001e-06
      2.25665713e-06 2.34821687e-06 3.91544518e-06 4.32928346e-06
      3.62981905e-06 2.35290713e-06 3.65352844e-06 3.56037344e-06
      2.56335170e-06 1.12665667e-07 -2.33556307e-06 -3.98066095e-06
      -3.67261714e-06 -2.71356635e-06 -2.22638300e-06 -1.51347456e-06
      -1.33970730e-06 -1.60670356e-06 -2.22054177e-06 -2.44564103e-06
      -8.72273802e-07 1.52685300e-06 2.35063226e-06 2.31648482e-06
      2.38398025e-06 2.96204234e-06 3.86461488e-06 4.80051222e-06
      3.60263721e-06 1.39465556e-06 -1.11640384e-06 -2.23223151e-06
      -2.46466107e-06 -1.66454106e-06 -8.18416197e-07 1.96662626e-07
      9.88350166e-07 9.89369596e-07 7.07910658e-07 6.47735135e-07
      6.77359481e-07 1.47476464e-06 3.17588911e-06 3.07880532e-06
      2.16314106e-06 1.84322474e-07 -1.22897836e-06 -1.04973685e-06
      1.08727193e-06 1.57203397e-06 2.82875726e-06 4.19955268e-06
      4.15122850e-06 2.86450063e-06 2.58113027e-06 3.04617242e-06
      3.73269017e-06 3.22630194e-06 2.32051821e-06 2.36023311e-07
      -1.58563705e-06 -2.51360962e-06 -2.45802221e-06 -2.58993100e-06
      -1.94495169e-06 1.95794652e-08 -5.78542370e-07 -1.71304544e-06
      -1.69482098e-06 -1.25803467e-06 -3.00212292e-07 1.49791833e-06
      2.03247396e-06 1.76411561e-06 1.60578838e-06 2.85017063e-06
      3.58814032e-06 3.14333556e-06 6.85226439e-07 -2.01781177e-06
      -3.11536792e-06 -2.83614804e-06 -1.97782947e-06 -7.67735628e-07
      1.93321648e-06 1.99880492e-06 1.39933877e-06 1.19289098e-06
      9.82588858e-07 6.99163820e-07 9.03105104e-07 1.31135403e-06
      6.26186420e-07 2.32044613e-07 -5.58152067e-07 -1.46449497e-06
      -2.41289627e-07 4.05322027e-07 1.41238718e-06 2.19519643e-06
      3.04704463e-06 2.57699821e-06 1.53707811e-06 2.42314144e-07
      -2.35352559e-07 8.41613542e-07 2.69966245e-06 3.02231933e-06
      1.48385641e-06 -1.26653356e-06 -2.72735292e-06 -3.23680501e-06
      -3.31103888e-06 -1.44328396e-06 1.68890540e-06 2.69613042e-06
      1.01264675e-06 -1.17910922e-07 -1.49786410e-06 -8.23710081e-07
      2.69060820e-07 9.83316681e-07 1.07188498e-06 1.01813919e-06
      1.59707986e-06 2.78933953e-06 1.81698317e-06 -1.28181614e-06
      -4.11352403e-06 -4.85845567e-06 -4.66569600e-06 -2.79695178e-06
      3.08924677e-06 3.38469181e-06 2.57374586e-06 1.59641797e-06
      6.81063682e-07 -3.88093014e-07 -1.37359848e-06 -1.59124261e-06
      -2.00064937e-06 -2.45869023e-06 -1.92869243e-06 -1.83742407e-06
      -1.46276125e-06 -5.86440365e-07 -2.72655342e-07 -8.94245655e-09
      1.06526625e-06 2.21859682e-06 1.51795746e-06 -6.59721195e-07
      -2.70235910e-06 -2.55502573e-06 -3.16345051e-07 2.06529512e-06
      2.68189478e-06 1.69146313e-06 3.29228840e-07 -1.69741600e-06
      -2.51218808e-06 -2.41958537e-06 -4.45173953e-07 2.95799191e-06
      4.64050345e-06 3.21877837e-06 1.22059896e-06 -2.68088598e-07
      -5.59759883e-07 -3.83668947e-07 1.03384559e-06 1.86757700e-06
      2.41630391e-06 2.52117684e-06 2.11770748e-06 -3.74627064e-07
      -4.21908271e-06 -6.51254049e-06 -7.37747860e-06 -6.38966321e-06
      4.43979752e-06 4.31538137e-06 3.83222368e-06 2.47058324e-06
      1.01248213e-06 -4.79808307e-07 -2.19450203e-06 -4.02537444e-06
      -4.23222218e-06 -5.10146947e-06 -4.40488202e-06 -3.79773314e-06
      -2.31408694e-06 -8.14580631e-07 -8.28931377e-07 -1.70943417e-06
      -1.33225660e-06 4.74032788e-07 1.18319952e-06 -4.96220025e-08
      -2.48086621e-06 -4.09296536e-06 -3.20816707e-06 -4.84021978e-09
      3.30176090e-06 3.30525290e-06 2.80537961e-06 1.71333932e-06
      1.39223602e-07 -5.63756714e-07 -1.06585389e-06 5.32300760e-07
      1.41756914e-06 2.77953995e-06 2.41909447e-06 1.18313847e-06
      4.25643634e-07 -2.99734495e-07 6.23202254e-07 2.34259323e-06
      4.13397311e-06 4.53124312e-06 3.36790777e-06 5.42516489e-07
      -3.06293873e-06 -6.34425260e-06 -8.31233774e-06 -8.96225993e-06
      5.02235525e-06 4.43507952e-06 3.78301775e-06 2.93150879e-06
      1.81191422e-06 3.05220283e-07 -1.41872749e-06 -2.97499582e-06
      -3.45362537e-06 -4.39599353e-06 -4.44273974e-06 -4.13457064e-06
      -2.03326385e-06 -1.81079784e-07 3.54877272e-07 -1.18888534e-06
      -2.65454878e-06 -2.09733639e-06 -7.45745865e-07 -3.31181525e-07
      -1.02136573e-06 -2.72547277e-06 -4.01289435e-06 -2.62731737e-06
      1.18395303e-06 4.08033657e-06 4.25712960e-06 3.70389762e-06
      2.82046813e-06 1.39179997e-06 5.23380834e-07 -1.27340769e-07
      -9.37596667e-07 -1.40158420e-06 -1.46653701e-06 -1.34717038e-06
      -1.53249709e-06 -1.57214208e-06 -1.43884267e-06 5.14008775e-07
      2.56614567e-06 3.90060950e-06 3.37539609e-06 6.37134463e-07
      -2.69375118e-06 -5.24355028e-06 -7.87795307e-06 -9.17067337e-06
      4.64612640e-06 4.13166845e-06 3.28175292e-06 2.87155444e-06
      2.50319931e-06 1.65338645e-06 4.84424334e-07 1.34317261e-07
      -1.44457303e-07 -1.50433902e-06 -1.32121363e-06 -1.64167921e-06
      -1.24913143e-07 1.14027125e-06 2.03178979e-06 1.74789352e-06
      -3.39704059e-07 -2.38244706e-06 -1.71704721e-06 -1.67679445e-06
      -1.28470663e-06 -1.15320211e-06 -2.14420857e-06 -2.17629190e-06
      -1.36220149e-06 1.85813053e-06 4.40507392e-06 4.81610505e-06
      4.21670802e-06 2.13647013e-06 2.35431571e-06 1.53275164e-06
      1.24519417e-07 -1.51696452e-06 -3.32855097e-06 -4.30209730e-06
      -5.06051083e-06 -5.60227090e-06 -4.56453427e-06 -3.18484695e-06
      -1.18627997e-06 9.08216748e-07 1.56901808e-06 4.70355332e-07
      -1.20225718e-06 -3.11528606e-06 -4.78820130e-06 -6.84350562e-06
      3.95794541e-06 3.94301333e-06 2.64444361e-06 1.53441169e-06
      7.36351637e-07 2.11292928e-07 2.73483835e-07 1.86014245e-06
      1.25598456e-06 -8.50373354e-08 -4.02111255e-07 4.31419380e-07
      2.84740236e-06 2.66175607e-06 3.53361156e-06 3.03819002e-06
      1.94541531e-06 -5.12015902e-07 -1.86530053e-06 -1.59249407e-06
      -1.53314897e-06 -6.82461348e-07 8.80392221e-08 2.58030948e-08
      -8.52741607e-07 8.86419457e-07 3.26108989e-06 4.94915048e-06
      5.45479952e-06 2.54453425e-06 1.96246083e-06 2.86133218e-06
      3.51357471e-06 2.03561422e-06 -9.54951929e-07 -3.22040637e-06
      -5.34230367e-06 -7.59347176e-06 -7.76860725e-06 -5.72885892e-06
      -4.02433170e-06 -2.19105391e-06 -8.63887806e-07 -3.89422354e-07
      -6.37838525e-07 -9.13122847e-07 -9.90091621e-07 -1.47267951e-06
      2.13755516e-06 2.45415413e-06 1.61259516e-06 2.43024999e-07
      -1.64821176e-06 -1.39591236e-06 -3.79752606e-07 1.72992804e-06
      6.13825762e-07 -1.11850068e-06 -2.32338311e-06 -1.28703277e-06
      2.27639293e-06 4.34983212e-06 4.49338404e-06 3.52322013e-06
      2.70645978e-06 8.11535358e-07 -1.01716751e-06 -1.05167487e-06
      5.93262719e-08 1.60240802e-06 1.94347831e-06 2.50252629e-06
      1.94719360e-06 2.53661869e-06 3.26007262e-06 3.81938662e-06
      4.47261118e-06 2.28627141e-06 8.42100633e-07 1.42179033e-06
      3.99769169e-06 4.97558904e-06 1.69250040e-06 -1.85295460e-06
      -4.30278715e-06 -6.88874115e-06 -8.51633922e-06 -7.40612904e-06
      -4.28076146e-06 -3.10132941e-06 -2.23407164e-06 -1.98787188e-06
      -1.32304103e-06 -1.24996905e-06 -6.14942962e-07 3.21121604e-07
      5.68602786e-07 1.51214920e-06 1.30660635e-06 4.71086764e-07
      -1.08929248e-06 -1.42273382e-06 -1.40667794e-07 1.31486308e-06
      -6.33969890e-08 -2.09535028e-06 -4.06217760e-06 -3.85348403e-06
      -1.29778459e-06 2.37118957e-06 4.57601209e-06 3.54768054e-06
      2.27403643e-06 1.22687572e-06 5.40105020e-07 -1.06139430e-06
      -1.06179220e-06 9.42825267e-08 2.10306234e-06 4.54967221e-06
      4.58147542e-06 4.48061473e-06 4.33564219e-06 4.26238103e-06
      3.44282512e-06 2.06895061e-06 3.10574563e-07 -8.95677772e-07
      9.11154359e-07 3.96319456e-06 3.36876587e-06 -1.34542790e-06
      -4.19989283e-06 -6.02047294e-06 -7.61584852e-06 -7.45959687e-06
      -4.75876777e-06 -2.06013829e-06 -9.21466665e-07 -7.17447563e-07
      -1.02220633e-06 -1.19584968e-06 -1.07412257e-06 -1.85423048e-07
      8.79646848e-07 1.99583314e-06 2.54110205e-06 1.98938324e-06
      6.99420696e-07 -1.61021234e-07 1.01870057e-06 2.76526407e-07
      -4.67316596e-07 -2.32765569e-06 -5.05944763e-06 -5.65823029e-06
      -4.21693176e-06 -1.11044676e-06 2.09694008e-06 2.60224283e-06
      9.05013906e-07 -1.64664478e-08 1.45315346e-06 1.12050054e-06
      -7.43514903e-08 -9.99580493e-07 -5.13310454e-07 2.23861321e-06
      4.10535995e-06 5.81234553e-06 4.15663590e-06 4.72131569e-06
      4.74089120e-06 4.13684529e-06 1.95705161e-06 -9.59715408e-07
      -1.84559394e-06 1.32159769e-07 2.07867174e-06 9.19522904e-07
      -2.62833237e-06 -3.15305078e-06 -5.42265434e-06 -6.12591339e-06
      -4.91221772e-06 -1.94246377e-06 3.02669520e-07 1.39962106e-06
      7.22630375e-07 -5.50211382e-07 -1.36495805e-06 -1.39515862e-06
      1.42847261e-06 2.26395423e-06 3.31577917e-06 4.04749471e-06
      2.81805023e-06 1.36647077e-06 7.58803878e-07 8.07573485e-07
      -8.76815565e-11 -1.76024764e-06 -3.37456822e-06 -5.14856220e-06
      -5.39610528e-06 -1.99956276e-06 1.26305599e-06 1.88346382e-06
      4.41896617e-07 -8.57591203e-07 -5.49955416e-07 9.28326529e-07
      1.81805262e-06 1.71937620e-06 6.33596358e-07 6.46919545e-07
      8.41099393e-07 2.24654718e-06 2.39413180e-06 2.11834140e-06
      2.64345044e-06 4.90130242e-06 4.20431434e-06 1.89228172e-06
      -2.63062219e-07 -1.43893942e-06 -1.12783027e-06 -5.55903569e-07
      -1.24906114e-06 -7.04094361e-07 -1.70391286e-06 -1.97287773e-06
      -3.05143408e-06 -2.12129680e-06 3.08039120e-07 2.15993896e-06
      2.61630066e-06 1.14102204e-06 -6.62512775e-07 -1.77834954e-06
      1.02073284e-06 1.70655107e-06 2.86142813e-06 3.75041782e-06
      3.51621520e-06 2.06090067e-06 5.41428562e-07 6.31448358e-07
      2.09286850e-06 1.07306266e-06 -2.29239845e-08 -1.20981190e-06
      -2.67796418e-06 -2.57573191e-07 4.02533487e-06 4.80622566e-06
      2.97599513e-06 2.16946637e-06 1.79732160e-06 1.88267961e-06
      1.31674324e-06 2.64487812e-06 3.88732269e-06 3.77533570e-06
      2.44291641e-06 1.07406879e-06 -1.65282984e-06 -1.78024391e-06
      2.90472514e-07 6.10676352e-07 1.32125888e-06 5.92086792e-07
      3.65640773e-07 -1.32792513e-06 -2.56609997e-06 -2.88306819e-06
      -3.66841732e-06 -1.25274119e-06 -2.72786082e-07 1.35297046e-06
      3.96305552e-07 -3.68628150e-07 2.90715093e-07 1.29491582e-06
      2.99327189e-06 3.16748697e-06 2.54024008e-06 9.42135898e-07
      2.43624669e-07 6.56812404e-07 1.94894255e-06 3.12213342e-06
      4.21451659e-06 2.97051565e-06 1.61805474e-07 -4.24230450e-07
      1.46099956e-06 3.10556834e-06 3.13321038e-06 3.15141187e-06
      1.33727247e-06 1.28709848e-06 4.85941882e-06 8.20614969e-06
      8.48433683e-06 6.60342084e-06 6.75067304e-06 6.13002294e-06
      4.31380431e-06 3.07159098e-06 3.20225581e-06 4.76503237e-06
      4.10534813e-06 2.12624832e-06 -3.29826184e-06 -5.91814432e-06
      -5.11121789e-06 -3.14315412e-06 -3.40426595e-06 -2.66520874e-06
      -1.66983432e-06 -1.27960993e-06 -4.25417602e-06 -6.22563948e-06
      -5.92376227e-06 -4.90181355e-06 -2.67781547e-06 8.06336629e-07
      1.54648217e-06 1.18952130e-06 2.29776347e-07 -4.90551031e-07
      4.13712826e-07 1.02081447e-06 3.56872147e-06 4.18278341e-06
      -3.99106845e-08 4.55134710e-07 1.32179514e-06 2.46562377e-06
      4.20198467e-06 4.37640756e-06 2.45043748e-06 -1.30109959e-06
      -1.53063183e-06 9.60467446e-07 2.57241027e-06 4.00933277e-06
      2.36618234e-06 7.41435997e-07 1.53063820e-06 5.11678445e-06
      1.01796295e-05 1.38567648e-05 1.21329776e-05 1.16089668e-05
      9.61284331e-06 6.12327494e-06 2.75647835e-06 2.74800914e-06
      2.82503220e-06 2.22175322e-06 -1.62788331e-06 -5.70694783e-06
      -9.59133558e-06 -6.56040856e-06 -3.41401505e-06 -5.14227895e-06
      -4.93450443e-06 -2.70963801e-06 -1.78320545e-06 -5.39096436e-06
      -8.21361573e-06 -7.56379404e-06 -5.36291327e-06 -1.73377998e-06
      -1.48330912e-07 1.82599280e-07 -5.48725041e-07 -3.46998490e-06
      -5.24587358e-06 -5.57183330e-06 -2.87152398e-06 1.37312071e-07
      -9.79512151e-07 -2.38528827e-07 1.37025472e-06 3.08192807e-06
      5.47686977e-06 6.33442824e-06 4.84666953e-06 1.58881858e-06
      -1.31352738e-06 -7.66104336e-07 1.65571191e-06 3.43406487e-06
      2.32303341e-06 -4.92906679e-07 -1.60340869e-06 -5.98566487e-07
      5.19857349e-06 1.14303220e-05 1.53878027e-05 1.36236640e-05
      1.24998805e-05 1.02437925e-05 5.46811862e-06 2.63774928e-06
      8.93348329e-07 8.13760892e-07 -9.80848313e-07 -4.22472294e-06
      -9.34917807e-06 -1.03128759e-05 -5.17566923e-06 -1.88076581e-06
      -5.93997129e-06 -6.86731391e-06 -1.77205686e-06 -7.93291406e-07
      -3.39669350e-06 -6.17191699e-06 -5.82039274e-06 -2.52426457e-06
      -1.27110559e-06 -1.47334595e-06 -3.22350274e-06 -4.55020336e-06
      -5.77413448e-06 -7.52032611e-06 -7.30108104e-06 -5.38462245e-06
      -2.79464030e-06 -2.44738294e-06 -1.98608149e-07 2.26206453e-06
      5.01580826e-06 6.39291284e-06 5.79938842e-06 2.85304532e-06
      2.81629923e-07 -7.08464484e-07 -3.34607648e-08 1.41425392e-06
      2.44791551e-07 -1.87353999e-06 -4.28729572e-06 -4.99879707e-06
      -3.51832932e-06 3.37105985e-06 9.37279674e-06 1.30526896e-05
      1.19602828e-05 1.06186526e-05 7.67048095e-06 3.68875567e-06
      -3.40995072e-08 -1.90591186e-06 -2.34892809e-06 -4.53040320e-06
      -7.18686124e-06 -9.97430016e-06 -8.12227336e-06 -2.08844813e-06
      -7.26767269e-07 -5.65058463e-06 -6.18422428e-06 -9.82127631e-07
      1.85302554e-07 -1.35130017e-06 -3.94159315e-06 -2.98013424e-06
      -2.92326672e-06 -2.17487241e-06 -3.08600670e-06 -3.88506623e-06
      -4.39080441e-06 -5.27903148e-06 -6.39985637e-06 -6.88835553e-06
      -5.72438876e-06 -4.62561684e-06 -3.36883772e-06 -1.04519938e-06
      2.04019875e-06 3.69387521e-06 4.54313385e-06 3.44682189e-06
      1.00075476e-06 -6.15752128e-07 -3.81050540e-07 1.74956881e-07
      -1.13269266e-06 -3.63970048e-06 -5.59877390e-06 -6.57727105e-06
      -7.54949087e-06 -4.64789809e-06 1.43149828e-06 6.44251622e-06
      8.55681719e-06 7.21942752e-06 6.59072703e-06 3.14567797e-06
      -1.48271852e-06 -3.92589845e-06 -3.87402361e-06 -4.10403891e-06
      -6.42309260e-06 -7.96328914e-06 -7.85765860e-06 -4.35824131e-06
      5.78740867e-07 -6.58753606e-07 -3.78457662e-06 -3.53635915e-06
      -1.14981482e-07 7.50426580e-07 -1.76048468e-06 -3.15778334e-06
      -4.74734907e-06 -4.72342435e-06 -3.99372902e-06 -2.55170062e-06
      -2.84686007e-06 -3.25883912e-06 -3.45891749e-06 -4.41753446e-06
      -9.25077802e-06 -7.28652822e-06 -6.18382819e-06 -5.08959965e-06
      -2.96837220e-06 -6.09970925e-07 1.17786988e-06 2.14333636e-06
      1.52818393e-06 2.33230423e-07 -7.41649160e-07 -1.01299429e-06
      -1.67201608e-06 -3.49251945e-06 -5.67685174e-06 -6.62291177e-06
      -6.41049519e-06 -5.50932555e-06 -1.36972847e-06 1.35618461e-06
      3.68778319e-06 3.23769700e-06 2.14476609e-06 8.01041040e-07
      -2.90057278e-06 -4.66087067e-06 -4.81730103e-06 -4.22491576e-06
      -3.51578137e-06 -5.60215631e-06 -6.33801983e-06 -5.04248374e-06
      -1.77668392e-06 3.28973130e-07 -3.76252473e-07 -2.84023213e-06
      -1.54554596e-06 1.70047144e-06 1.17028286e-07 -2.33091555e-06
      -6.23687492e-06 -6.38406527e-06 -5.28375267e-06 -2.26837574e-06
      -2.83567090e-07 6.01175259e-07 8.51029370e-07 -4.60123289e-07
      -1.25286097e-05 -9.56424446e-06 -6.37973699e-06 -5.12093266e-06
      -4.49281652e-06 -2.87683361e-06 -1.66045163e-06 -7.43738326e-07
      -2.29972592e-08 -6.72311103e-07 -3.93272472e-07 -9.74075874e-07
      -1.42559236e-06 -2.38630832e-06 -3.07127971e-06 -3.52052461e-06
      -3.97291387e-06 -3.25651945e-06 -1.18771288e-06 1.34154482e-06
      1.76789570e-06 1.63805305e-06 1.31664297e-06 5.56109228e-07
      -1.81793439e-06 -3.19688934e-06 -2.75186494e-06 -3.74069964e-06
      -3.06822403e-06 -2.64736059e-06 -4.03772992e-06 -4.81907318e-06
      -3.36738321e-06 -1.50766027e-06 -9.68865379e-07 -1.58612374e-06
      -2.32882735e-06 -4.86876502e-07 3.35049144e-08 -1.34770539e-06
      -2.97507154e-06 -3.51567246e-06 -4.07374228e-06 -2.91276569e-06
      -5.64048264e-07 2.59140666e-06 5.06066772e-06 5.25308360e-06
      -1.07737833e-05 -1.03383536e-05 -7.04195327e-06 -2.47915659e-06
      4.19611439e-07 1.68166275e-06 1.78739424e-06 8.12290921e-07
      -1.16357717e-06 -1.90590083e-06 -1.55317116e-06 -7.87062334e-07
      -4.04637291e-07 -2.41729424e-07 -1.27124542e-06 -1.72716307e-06
      -4.01589944e-07 4.88787634e-07 7.21971162e-07 1.77799359e-06
      2.96762414e-06 3.66152358e-06 3.18290540e-06 3.41566056e-06
      2.12786176e-06 -7.95798712e-07 -1.70730414e-06 -1.84881708e-06
      -2.35848620e-06 -2.39375777e-06 -2.78778680e-06 -4.11508245e-06
      -4.92880235e-06 -3.57745580e-06 -2.48702645e-06 -1.72677392e-06
      -2.10965595e-06 -2.72744592e-06 -3.14643762e-06 -2.45814908e-06
      -1.33680317e-06 4.94377218e-07 9.84505846e-07 7.20112041e-07
      6.36921754e-07 2.09454856e-06 5.66335621e-06 9.20396815e-06
      -3.02631270e-06 -4.92219033e-06 -4.17685305e-06 -1.03697084e-06
      3.17486479e-06 6.23131882e-06 7.65936511e-06 7.07944764e-06
      3.43353759e-06 -5.36309699e-07 -2.17782781e-06 -1.72390617e-06
      -1.04113508e-06 -4.79854862e-07 -6.74967453e-07 -1.91436743e-06
      -2.05014089e-06 -6.63542380e-07 1.07552034e-06 2.53102212e-06
      3.83622819e-06 6.34080698e-06 5.85153794e-06 6.50004722e-06
      5.53244081e-06 3.44527575e-06 -3.01477911e-07 -3.01382943e-06
      -3.05253093e-06 -2.90436537e-06 -2.82969654e-06 -3.18954608e-06
      -3.80585652e-06 -3.30486318e-06 -1.52537859e-06 -9.40866698e-07
      -4.08979957e-07 -1.44923399e-06 -2.98887039e-06 -3.56886449e-06
      -3.14856470e-06 -1.26607108e-06 1.14425222e-06 2.75929324e-06
      2.09539280e-06 1.52256951e-06 2.55550935e-06 5.45155308e-06
      5.18761090e-06 1.17180025e-06 -1.35736275e-06 -1.15403373e-06
      1.88880892e-06 5.32686818e-06 7.61305864e-06 9.21390165e-06
      8.32418664e-06 3.62700735e-06 -1.41373380e-06 -2.76429296e-06
      -1.51265942e-06 -2.94716870e-07 3.00600391e-07 -1.58661908e-06
      -3.92823904e-06 -5.14753401e-06 -4.03412378e-06 -1.69888017e-06
      1.24789085e-06 5.56206669e-06 8.35334686e-06 9.13098756e-06
      8.60936507e-06 7.04839522e-06 3.12929046e-06 -1.46117463e-06
      -4.59825060e-06 -5.07191271e-06 -4.66170150e-06 -3.54936242e-06
      -3.09446727e-06 -2.98575151e-06 -1.81773214e-06 -7.72153896e-07
      -4.89656351e-08 2.50718244e-07 -1.54032455e-06 -2.75251409e-06
      -4.04648563e-06 -3.45629587e-06 -1.64519986e-06 3.38969443e-07
      9.66292532e-07 4.14418395e-07 -1.55879331e-06 -2.23801294e-06
      6.76506806e-06 4.95073755e-06 3.22711742e-07 -3.66546169e-06
      -3.06541756e-06 -2.64266760e-07 2.41981570e-06 4.84972952e-06
      7.16379463e-06 5.79959942e-06 1.84977114e-06 -1.42859972e-06
      -3.30218472e-06 -1.21689550e-06 1.27111105e-06 1.16350645e-06
      -1.71978763e-06 -6.06132016e-06 -7.37239452e-06 -6.47444267e-06
      -3.77656488e-06 1.15412547e-06 7.27092993e-06 1.04870542e-05
      1.09067250e-05 1.01027945e-05 7.94027073e-06 4.01689931e-06
      -1.10447604e-06 -4.42644523e-06 -5.18055094e-06 -5.08823996e-06
      -4.08793630e-06 -3.67203597e-06 -2.26956263e-06 -3.65932067e-07
      9.20003117e-07 1.46199613e-06 1.32308159e-07 -1.79474671e-06
      -2.66345501e-06 -2.99490489e-06 -2.15058935e-06 -6.11871599e-07
      -3.73900576e-07 -1.29500302e-06 -3.49488164e-06 -5.93745290e-06
      3.27688008e-06 3.70265207e-06 1.04394564e-06 -3.50532446e-06
      -5.32057447e-06 -5.53319796e-06 -4.15061959e-06 -1.37702216e-06
      1.56647229e-06 4.24798691e-06 3.76218713e-06 1.84635780e-06
      -5.98028180e-07 -1.93999472e-06 -3.17456568e-08 2.23756365e-06
      2.21347614e-06 -5.01111515e-07 -3.02614899e-06 -5.69955773e-06
      -6.22825337e-06 -4.14499254e-06 8.08338598e-07 6.60852311e-06
      8.99224869e-06 9.30242368e-06 9.40918926e-06 8.35239916e-06
      5.10552400e-06 -2.19369213e-07 -4.17556066e-06 -5.42046610e-06
      -5.10546215e-06 -4.26928773e-06 -3.03918910e-06 -1.00773082e-06
      1.17259174e-06 2.94811866e-06 2.54765723e-06 5.14136616e-07
      -6.45207649e-07 -1.16969454e-06 -1.15832199e-06 1.22968186e-06
      2.69590987e-06 2.58453724e-06 2.46324561e-07 -2.63406173e-06
      2.36609040e-07 2.15849627e-06 2.02283582e-06 -7.57732892e-07
      -3.97140366e-06 -5.80470214e-06 -6.82825203e-06 -5.23907602e-06
      -1.12457099e-06 2.66135680e-06 4.50794641e-06 4.17409774e-06
      3.36791959e-06 2.26019461e-06 1.09199505e-06 1.35628454e-06
      2.72265856e-06 3.10469613e-06 3.09565166e-06 1.63775880e-07
      -3.60262857e-06 -6.35696460e-06 -5.50794539e-06 -2.51058123e-06
      2.00153886e-06 5.14991916e-06 6.76921309e-06 7.75053013e-06
      7.02306306e-06 4.45799469e-06 2.81740228e-07 -4.31675153e-06
      -5.54925100e-06 -4.52824133e-06 -3.68200813e-06 -2.48474248e-06
      3.21124645e-07 3.01485466e-06 3.89421621e-06 2.68387180e-06
      1.99281590e-06 1.00583009e-06 1.31948786e-06 2.48208221e-06
      4.33006971e-06 5.95858000e-06 7.03203068e-06 6.32813453e-06
      2.04671380e-07 9.64222409e-07 5.02872808e-07 -4.02922609e-07
      -1.60973923e-06 -3.44855926e-06 -3.64577409e-06 -2.76197261e-06
      -1.00918828e-06 1.99989290e-06 4.85091823e-06 4.97222391e-06
      5.55167026e-06 5.76931961e-06 4.97431347e-06 2.71017757e-06
      1.89118589e-06 1.82080066e-06 2.32731622e-06 1.56471845e-06
      -9.12644794e-07 -6.35160995e-06 -8.61478657e-06 -9.10474500e-06
      -6.62811453e-06 -2.59115859e-06 3.93875013e-07 2.37442077e-06
      4.00833460e-06 5.52335723e-06 3.23798713e-06 -1.17210777e-06
      -3.85493195e-06 -5.56416353e-06 -4.59431931e-06 -3.46403590e-06
      -1.34061668e-06 1.29047999e-06 3.20700292e-06 3.37253118e-06
      2.45809838e-06 1.67262215e-06 1.83475345e-06 2.91432025e-06
      4.27584655e-06 5.20166759e-06 6.50836819e-06 7.99487134e-06
      3.09715460e-06 3.07771052e-06 1.71876434e-06 6.16364048e-07
      -6.25242478e-07 -2.48526680e-06 -2.14766305e-06 -1.64475253e-07
      2.68927039e-07 3.39411002e-07 9.42803808e-07 2.17779643e-06
      4.07807875e-06 5.72387671e-06 5.75078366e-06 5.09260826e-06
      3.50462551e-06 1.09162772e-06 -1.11184033e-06 -1.30771480e-06
      -1.37686118e-06 -4.28310932e-06 -6.59741272e-06 -9.38458743e-06
      -9.71094869e-06 -6.99349039e-06 -3.54436497e-06 -2.01328658e-06
      -1.02905551e-06 6.91590174e-07 1.13500676e-06 -1.16868853e-06
      -3.99759347e-06 -5.28044893e-06 -5.42273756e-06 -4.15987279e-06
      -1.32905711e-06 1.13761894e-06 2.69832549e-06 3.16327942e-06
      2.68077792e-06 8.31009459e-07 1.14603509e-07 9.26147152e-07
      2.59388207e-06 3.03673960e-06 3.36713629e-06 4.74884564e-06
      4.29289958e-06 4.15087288e-06 2.42959504e-06 9.66427024e-07
      2.45246383e-07 -9.35681157e-07 -1.46669424e-06 -8.49038997e-07
      -4.10040798e-07 -1.45115803e-06 -1.60142281e-06 -1.52217081e-06
      -8.47787362e-07 6.90893899e-07 2.82686142e-06 5.42111957e-06
      5.90431819e-06 3.68263773e-06 1.41431804e-06 -1.75346008e-06
      -2.13711360e-06 -2.46474610e-06 -3.71062833e-06 -3.60533318e-06
      -5.02086732e-06 -5.20725416e-06 -3.94249219e-06 -2.07610333e-06
      -2.79165647e-06 -2.11331803e-06 -2.01655985e-06 -1.61685000e-06
      -2.53344115e-06 -3.14327053e-06 -4.89727972e-06 -4.99981616e-06
      -3.26716849e-06 4.42108330e-07 3.32919717e-06 3.81521295e-06
      3.42004932e-06 2.11451402e-06 6.18615161e-07 -4.02752818e-07
      4.21376484e-07 7.82239681e-07 6.44378133e-08 2.70631631e-07
      5.04125137e-06 5.62341620e-06 4.46855029e-06 2.20886113e-06
      3.47969404e-07 -8.31115528e-07 -9.66264679e-07 -5.50857521e-07
      -4.33454204e-07 9.43447560e-08 -1.57426564e-06 -1.40221562e-06
      -2.65507447e-06 -2.40852705e-06 -1.65006020e-06 1.83613156e-06
      4.82144742e-06 5.29091858e-06 5.36737525e-06 2.41230441e-06
      -4.00503779e-07 -3.54793457e-07 -1.63874040e-06 -7.56795600e-07
      -1.19161803e-06 -1.23013979e-06 -8.60376417e-07 -1.54886732e-06
      -1.36400206e-06 -2.60931006e-06 -1.37388702e-06 -4.69427704e-07
      -9.18365330e-08 -2.75162307e-07 -1.69174916e-06 -2.88833871e-06
      -3.52891379e-06 -2.24392920e-06 6.62267610e-07 3.26960412e-06
      3.80451456e-06 2.91582228e-06 1.92446646e-06 7.55034534e-07
      4.84682460e-07 9.87210910e-07 4.15082695e-07 -6.11987730e-07
      5.19966716e-06 5.94096855e-06 5.85605630e-06 5.03548563e-06
      2.86411819e-06 6.11275993e-07 1.24608064e-07 3.25413055e-07
      1.08685208e-06 2.59931562e-06 2.90887351e-06 1.93016672e-06
      5.90872133e-08 -2.03484501e-06 -3.40505130e-06 -2.46002583e-06
      3.80526416e-07 2.99887984e-06 6.07902984e-06 5.86237866e-06
      5.07742470e-06 3.15133684e-06 1.62784420e-06 1.08525637e-06
      1.56172257e-06 7.86649963e-08 -6.54477674e-07 -1.91900540e-06
      -3.94129211e-06 -4.19459411e-06 -1.37277618e-06 6.96009238e-07
      1.93587107e-06 3.17685658e-06 1.91306412e-06 1.12385976e-06
      -1.03626371e-06 -2.52080144e-06 -2.06702430e-06 1.43726623e-07
      2.27134751e-06 2.45714273e-06 1.99667738e-06 1.25122654e-06
      4.65395829e-07 5.59255795e-07 1.58194462e-06 1.11264910e-06
      4.21155528e-06 4.98593454e-06 4.91330502e-06 4.62981143e-06
      4.32660499e-06 3.26770464e-06 2.66751817e-06 2.23536722e-06
      1.94285553e-06 2.23593702e-06 4.42938153e-06 5.02846569e-06
      4.17712272e-06 9.12298106e-07 -2.83099075e-06 -4.30434557e-06
      -3.43117154e-06 -1.66347797e-06 2.48259585e-06 4.04733510e-06
      6.96396228e-06 7.35063304e-06 6.55986651e-06 4.63941296e-06
      3.50259870e-06 1.87415037e-06 -1.23294478e-06 -1.87692365e-06
      -2.51158781e-06 -3.43119109e-06 -2.71346357e-06 2.72890844e-07
      2.61115883e-06 3.73766966e-06 4.14792339e-06 4.18708805e-06
      2.79882784e-06 -1.17864452e-07 -1.95386838e-06 -1.73076228e-06
      -5.26889551e-07 3.85160462e-07 -3.14387094e-08 -3.57437557e-07
      -9.22912136e-07 -1.16887952e-06 -5.69263477e-07 3.50419867e-07
      3.06545098e-06 3.71567603e-06 3.48878507e-06 2.78494940e-06
      2.25543090e-06 2.22841254e-06 2.77822187e-06 2.93487028e-06
      1.03168179e-06 -1.93413836e-08 2.22007520e-06 3.44171895e-06
      4.70948589e-06 4.43131876e-06 1.68710778e-06 -1.08028860e-06
      -1.45273395e-06 -2.17145066e-06 -1.03085199e-06 -3.18552793e-07
      1.17756031e-06 4.32856723e-06 5.89767933e-06 5.10294967e-06
      4.09049926e-06 2.53238636e-06 -3.94895324e-07 -1.75749631e-06
      -2.60278716e-06 -2.46526474e-06 -3.42924250e-06 -1.69613304e-06
      1.36606047e-06 4.00216322e-06 4.20357719e-06 4.37234849e-06
      3.76970888e-06 2.23360053e-06 -7.65331492e-07 -1.76051640e-06
      -1.79730250e-06 -1.79757239e-06 -1.93986943e-06 -2.63931724e-06
      -2.80520339e-06 -2.96058442e-06 -2.99463409e-06 -2.40324584e-06
      2.64063146e-06 2.93379935e-06 2.39769543e-06 1.58077205e-06
      1.07771052e-06 3.93585367e-07 1.53670442e-07 6.84533973e-07
      5.20959020e-07 -8.12567748e-07 -5.30436466e-07 5.71285739e-07
      1.74925981e-06 3.50211621e-06 3.59143496e-06 2.05616334e-06
      1.32778848e-06 -2.50594951e-07 -1.53207020e-06 -1.91373988e-06
      -2.81619668e-06 -1.78247035e-06 6.32720514e-07 1.76929473e-06
      1.85571082e-06 1.79493725e-06 9.68794893e-07 9.30761956e-08
      -1.38457540e-06 -1.88788317e-06 -2.43437898e-06 -2.72459215e-06
      -2.70972760e-06 1.09608686e-06 3.42818680e-06 4.58576778e-06
      3.98255179e-06 3.37762845e-06 1.34962659e-06 -1.42893123e-06
      -2.41673752e-06 -2.28228578e-06 -1.89384366e-06 -2.80388008e-06
      -4.04234561e-06 -4.20526885e-06 -4.36156370e-06 -4.42563896e-06
      1.80932466e-06 1.86783791e-06 1.60779439e-06 6.02769830e-07
      5.67193808e-07 8.18781132e-07 7.71747523e-07 4.70678060e-07
      3.29132178e-07 4.77917183e-07 5.04229547e-07 2.44934398e-07
      1.45120373e-06 1.78913456e-06 2.01495982e-06 1.79876929e-06
      2.49446680e-06 3.15018110e-06 5.36624498e-07 -1.08990139e-06
      -2.27562668e-06 -3.58943703e-06 -2.76813398e-06 -3.24851771e-06
      -3.21871062e-06 -1.42418878e-06 2.14200838e-07 2.09469545e-06
      2.37824042e-06 2.78429752e-06 8.92011258e-07 -4.64769329e-07
      -3.64013385e-06 -2.06784443e-06 -9.42365659e-07 2.86281079e-06
      3.23444146e-06 4.38942789e-06 2.98904411e-06 4.43108206e-07
      -1.49512698e-06 -2.56216526e-06 -2.09060931e-06 -1.85008764e-06
      -2.56256067e-06 -3.89322577e-06 -4.46986360e-06 -4.98853296e-06
      8.60897444e-07 7.84430767e-07 8.04011108e-07 -1.46933923e-08
      -3.41746244e-07 7.46013882e-08 1.09180769e-06 1.55333112e-06
      1.35656228e-06 1.31840773e-06 6.76518312e-07 5.68036626e-07
      1.29343164e-06 1.99491069e-06 9.93687877e-07 8.82766528e-07
      1.46489674e-06 3.19436572e-06 3.59517708e-06 1.00265697e-06
      -1.80817801e-06 -2.74178092e-06 -2.85167448e-06 -1.99682700e-06
      -4.77070580e-06 -3.71453189e-06 -6.30179500e-07 3.02502622e-06
      3.43761053e-06 5.31112664e-06 4.15928707e-06 3.77810261e-06
      -2.33190647e-07 -2.16499893e-06 -2.91309789e-06 4.29938922e-07
      1.55613316e-06 2.62477602e-06 2.72252441e-06 1.20862251e-06
      -1.06193727e-06 -2.01288481e-06 -1.82032818e-06 -2.30057594e-06
      -2.60049956e-06 -3.17236959e-06 -3.71528540e-06 -4.86363024e-06
      4.56976380e-07 7.90902845e-07 1.02471176e-06 7.64399147e-07
      -6.31647197e-07 -8.90533556e-07 -8.48800312e-07 -2.20141587e-07
      4.97870531e-07 1.29446846e-06 8.18094463e-07 2.80864100e-07
      3.67388054e-07 1.64868004e-06 2.80993049e-06 1.65161680e-06
      6.67804784e-07 -1.04662652e-08 9.11807319e-07 5.00616125e-07
      -1.42977979e-06 -3.32583272e-06 -2.78768835e-06 -7.54270957e-07
      -1.51354379e-06 -3.49643142e-06 -1.50026892e-06 1.51734798e-06
      2.98931423e-06 3.74702222e-06 2.00953650e-06 2.92897857e-06
      7.30022350e-07 6.06231012e-08 -2.43217710e-06 -1.54172551e-06
      -4.92711365e-07 -5.71056376e-07 -5.50155221e-07 -1.41253224e-06
      -2.85232431e-06 -3.11940948e-06 -2.35204675e-06 -1.62904473e-06
      -2.02320484e-06 -3.01434511e-06 -3.35626146e-06 -4.43805493e-06
      4.53627024e-07 9.86338364e-07 1.92724974e-06 2.49518621e-06
      1.03731793e-06 -1.12398531e-07 -1.16138256e-06 -1.70939916e-06
      -1.40364546e-06 2.13271790e-07 1.42431088e-06 9.89755904e-07
      5.03512922e-07 1.19011258e-06 2.19889125e-06 3.06468064e-06
      1.32333685e-06 -5.23423182e-07 -2.64182268e-06 -3.13289411e-06
      -3.34524862e-06 -3.32518675e-06 -2.56662179e-06 -7.73681450e-07
      1.99056103e-06 3.96205962e-07 7.32154660e-07 1.42795921e-06
      1.85754141e-06 1.21382766e-06 -2.70550430e-07 -8.32225950e-08
      -1.05100185e-06 -4.18529225e-07 -2.25991175e-06 -2.74985905e-06
      -3.11349254e-06 -3.55270868e-06 -3.70414296e-06 -4.06113804e-06
      -5.24779989e-06 -5.67440520e-06 -4.44814441e-06 -2.80861241e-06
      -1.83031727e-06 -2.07140306e-06 -2.71110457e-06 -3.50019400e-06
      1.37498057e-06 1.96647011e-06 2.73018122e-06 3.27439921e-06
      2.81193047e-06 1.80565098e-06 1.54586314e-06 6.19056038e-07
      2.54366029e-07 6.15887870e-07 1.39799442e-06 2.23753750e-06
      1.89644197e-06 8.73593990e-07 7.13665202e-07 1.82532176e-06
      1.68422525e-06 -8.48922994e-08 -2.32981392e-06 -5.07812501e-06
      -5.85154339e-06 -4.22978565e-06 -1.65555753e-06 1.95607242e-07
      2.51041411e-06 4.34835965e-06 3.73340231e-06 2.05406081e-06
      1.45574768e-06 1.75703349e-07 -1.23876237e-06 -1.35695950e-06
      -2.56953331e-06 -1.49958248e-06 -2.20602988e-06 -1.63963739e-06
      -2.88815500e-06 -4.58742988e-06 -5.40393694e-06 -6.13830116e-06
      -7.05645516e-06 -7.65016375e-06 -7.00829651e-06 -5.17404442e-06
      -3.45365061e-06 -2.57895363e-06 -2.63469042e-06 -2.99050316e-06
      1.37963639e-06 1.92693210e-06 2.31905415e-06 2.46485934e-06
      2.13315616e-06 2.34903268e-06 2.76860374e-06 4.14835722e-06
      4.28951853e-06 3.45895114e-06 3.64001312e-06 4.36340497e-06
      4.81753568e-06 3.96386349e-06 1.12070609e-06 4.82904703e-08
      -3.11716235e-07 -5.53214306e-07 -2.41307384e-06 -3.33523553e-06
      -4.10750226e-06 -4.24660129e-06 -2.23797019e-06 5.69427812e-07
      2.46937998e-06 4.48295941e-06 5.96031441e-06 4.10303710e-06
      1.40593124e-06 -4.19713700e-07 -1.35106416e-06 -2.25929170e-06
      -1.86046623e-06 -1.42682779e-06 -1.31306592e-06 -6.33070385e-07
      -1.00003001e-06 -3.05271715e-06 -3.86198644e-06 -5.55201723e-06
      -6.78644619e-06 -7.22237110e-06 -7.14046746e-06 -5.75850618e-06
      -3.77561264e-06 -2.81398411e-06 -2.84061753e-06 -2.92306413e-06
      1.28763759e-06 1.51364645e-06 1.10327153e-06 4.74547960e-07
      -2.88689733e-07 -2.07525641e-08 1.08520476e-06 3.56803957e-06
      6.56718976e-06 7.13219697e-06 6.76502623e-06 6.72276974e-06
      7.50317486e-06 6.35341576e-06 4.35329730e-06 1.14693114e-06
      -1.07162111e-06 -2.49770301e-06 -2.86150180e-06 -4.53396660e-06
      -4.24966538e-06 -1.91621461e-06 -5.33334969e-07 7.91019517e-08
      7.73638078e-07 2.43829822e-06 3.29345426e-06 2.08140909e-06
      6.99183943e-07 -4.95064896e-08 5.63421395e-07 8.82711390e-07
      2.23143797e-06 2.83711756e-06 4.45208298e-06 2.56706130e-06
      1.41516225e-07 -1.95777670e-06 -2.04920048e-06 -2.41518114e-06
      -3.03066281e-06 -3.44431851e-06 -4.10519078e-06 -3.63615868e-06
      -1.87017986e-06 -6.15919589e-07 -9.37730931e-07 -1.77232721e-06
      5.86256135e-07 8.46143905e-07 9.37703362e-07 3.26358276e-07
      -1.04171954e-06 -1.72283706e-06 -1.32539697e-06 3.11761141e-07
      3.45507578e-06 6.88175987e-06 7.94354855e-06 8.14299983e-06
      7.94082553e-06 7.35071762e-06 5.47115360e-06 2.13501175e-06
      -1.08840970e-06 -2.95115888e-06 -2.98172245e-06 -4.23087522e-06
      -5.92924198e-06 -4.17517231e-06 -6.04445120e-07 3.98718896e-07
      -7.30121599e-08 6.69826250e-07 1.41091766e-06 3.21282386e-07
      -1.28032275e-06 -2.27491614e-06 -8.33947297e-07 2.68034000e-07
      2.72954708e-06 5.59387126e-06 7.65318509e-06 6.96152756e-06
      3.93274831e-06 1.83460577e-06 5.91709068e-07 1.85541012e-07
      1.20755089e-07 4.87170951e-07 5.29423801e-07 3.83705938e-08
      8.07524032e-07 1.73548221e-06 1.60047750e-06 6.99547343e-07
      4.94767392e-07 6.59787588e-07 1.20576919e-06 1.35115022e-06
      2.26439894e-07 -6.06201581e-07 -8.53120525e-07 -5.24550728e-07
      7.12045789e-07 3.66016616e-06 5.21313723e-06 5.23697190e-06
      5.78722211e-06 5.87104205e-06 5.62367359e-06 3.03372985e-06
      -1.64802520e-06 -4.40237500e-06 -3.84553778e-06 -4.12609052e-06
      -5.02294279e-06 -5.83141173e-06 -3.68375663e-06 -7.84161330e-07
      -8.74175726e-07 3.64097787e-07 7.53033873e-07 -8.26419253e-08
      -2.44152352e-06 -4.64548384e-06 -4.47848197e-06 -3.21502012e-06
      -1.01280227e-06 2.36016103e-06 6.50673201e-06 8.75629121e-06
      7.90686499e-06 6.01405600e-06 4.11040946e-06 2.84867792e-06
      2.94922461e-06 2.79211872e-06 1.90256014e-06 1.07582491e-06
      9.55980795e-07 1.65402059e-06 1.86842772e-06 1.98790144e-06
      2.10003350e-06 1.33695971e-06 1.45844638e-06 1.90597700e-06
      1.65845165e-06 1.12498594e-06 1.17916568e-06 2.01852981e-06
      2.12398481e-06 2.73659589e-06 2.66710708e-06 2.05140168e-06
      1.99169540e-06 3.18379034e-06 4.37238759e-06 3.37832898e-06
      -3.49387221e-07 -5.40244127e-06 -5.91001071e-06 -5.49261085e-06
      -4.99232647e-06 -5.62264177e-06 -4.81283087e-06 -3.00258625e-06
      -1.74911747e-06 -1.07978133e-06 7.09345755e-08 -9.17475944e-08
      -1.96061478e-06 -4.94330152e-06 -6.02217870e-06 -5.22611936e-06
      -2.23831921e-06 -5.63174865e-07 2.05234255e-06 5.63467665e-06
      7.45804118e-06 7.56595500e-06 6.36065943e-06 6.09390099e-06
      6.14541932e-06 5.95385973e-06 4.54837891e-06 2.58397836e-06
      5.15145643e-07 -7.57120347e-07 -1.06920550e-06 -6.24888116e-07
      2.93259518e-06 2.03930858e-06 8.52938285e-07 1.02868842e-06
      1.40313068e-06 1.82629185e-06 3.53038399e-06 4.77627054e-06
      5.68238329e-06 5.57548674e-06 4.43240424e-06 2.78416474e-06
      -7.39768552e-07 -7.40938503e-07 1.83476743e-06 2.69326461e-06
      1.70782448e-06 -2.38251459e-06 -6.35419201e-06 -6.56793554e-06
      -6.03748322e-06 -5.55716679e-06 -5.36779316e-06 -4.07834750e-06
      -1.95323310e-06 -1.41202543e-06 2.39174540e-07 5.28467524e-07
      -9.72491421e-07 -3.96665291e-06 -5.97003145e-06 -5.27131397e-06
      -1.12175348e-06 2.04135540e-06 2.60952470e-06 3.08825815e-06
      4.29188822e-06 5.57821477e-06 5.72359977e-06 6.84152837e-06
      7.55958672e-06 7.69529197e-06 6.00957037e-06 3.49190964e-06
      3.15135310e-07 -1.14189959e-06 -2.65456265e-06 -2.68003578e-06
      -4.56012185e-06 -3.24796133e-06 -1.54313022e-06 -1.45963975e-06
      -1.23375253e-06 1.09285315e-06 3.62889841e-06 4.63457491e-06
      4.06481058e-06 3.74146043e-06 3.36705966e-06 -8.33567924e-07
      -1.98908856e-06 1.06274126e-06 2.89320906e-06 3.33294838e-06
      4.85107512e-06 6.31431931e-06 5.67031202e-06 2.19137110e-06
      -1.71187594e-06 -4.22918129e-06 -5.17679973e-06 -2.96843359e-06
      -5.79612902e-07 6.68552673e-07 2.05743981e-06 1.55661235e-06
      1.35769551e-06 1.09354380e-06 3.43990314e-06 4.14548504e-06
      -1.07436584e-07 -3.83921360e-06 -4.66984056e-06 -4.35444281e-06
      -1.07657092e-06 2.84122484e-06 3.44188265e-06 2.17672459e-06
      6.55732265e-07 -5.27439454e-07 -5.01254647e-07 5.25548614e-07
      2.25474287e-06 3.24746020e-06 3.95806273e-06 4.29574447e-06
      -4.22523908e-06 -3.76502385e-06 -1.49583468e-06 -8.33329352e-07
      -6.16023328e-07 6.00489670e-07 2.87598095e-06 4.54907240e-06
      4.30493401e-06 4.01681655e-06 4.35511947e-06 -1.22287801e-07
      -2.86728778e-06 7.49828857e-08 2.61405853e-06 3.65587925e-06
      4.73819773e-06 5.99909708e-06 5.83165593e-06 2.59470835e-06
      -1.49502080e-06 -4.03578224e-06 -4.88507067e-06 -2.79434767e-06
      3.67790562e-07 8.37467155e-07 1.15552098e-06 8.53491940e-07
      1.55326154e-06 1.95212738e-06 2.43427144e-06 3.92341508e-06
      1.15337002e-06 -2.89101877e-06 -4.53167468e-06 -4.30461660e-06
      -2.20919173e-06 1.84110752e-06 2.66812231e-06 1.90495189e-06
      1.81078553e-06 8.01889428e-07 -6.52222241e-07 -4.86187503e-07
      1.06938035e-06 2.95050427e-06 3.88379158e-06 4.56498674e-06
      -3.21239418e-06 -3.81480913e-06 -2.36327537e-06 -1.37118059e-08
      -4.82847398e-08 -2.97522774e-07 1.67326266e-06 3.22190317e-06
      3.50840628e-06 3.28204283e-06 4.31817489e-06 1.18969319e-06
      -2.36417850e-06 -1.47227195e-06 2.29915713e-06 4.44445413e-06
      4.94431197e-06 5.84480267e-06 5.81212271e-06 3.51456060e-06
      -7.08177708e-07 -3.27809676e-06 -4.37372182e-06 -2.90278922e-06
      1.08017468e-06 1.84435032e-06 3.90715911e-07 -1.83899445e-07
      5.26875112e-07 2.30861474e-06 2.74603781e-06 3.17636159e-06
      1.84558837e-06 -1.37946563e-06 -3.88353101e-06 -4.13697035e-06
      -2.77219806e-06 3.29116375e-07 1.71969327e-06 1.22605513e-06
      2.49762434e-06 2.72084139e-06 6.23431163e-07 -9.56641543e-07
      -1.18216360e-06 7.99649627e-07 2.30183241e-06 3.81105770e-06
      -2.00417912e-06 -2.94727647e-06 -2.70864871e-06 -9.07496656e-08
      9.80053528e-07 3.57081937e-08 -2.19539842e-07 4.59749515e-07
      8.00844418e-07 1.24606288e-06 2.27116129e-06 2.28845897e-06
      -1.05271056e-06 -1.66219058e-06 4.91526407e-07 4.80401422e-06
      5.37849928e-06 5.67877487e-06 6.13380644e-06 4.16627699e-06
      2.52303010e-07 -2.57782608e-06 -3.27346515e-06 -2.80296672e-06
      6.34177070e-07 2.18386117e-06 5.57396902e-07 -2.00388149e-06
      -6.90816705e-07 1.36065592e-06 2.48211768e-06 1.89086893e-06
      1.48347715e-06 -5.75979357e-07 -2.93394760e-06 -3.56996134e-06
      -3.03756110e-06 -9.82938786e-07 1.44554747e-07 2.78319874e-07
      1.83074110e-06 4.19076196e-06 2.72268176e-06 -3.83556170e-07
      -1.51586505e-06 -1.63415746e-06 -1.07265940e-07 1.67253108e-06
      -1.43883153e-06 -1.37311008e-06 -2.17680827e-06 -1.13253384e-06
      5.45459102e-07 6.58549084e-07 -4.37066831e-07 -1.87730870e-06
      -2.95299947e-06 -2.39689348e-06 -1.29568878e-06 9.91372076e-07
      3.38581231e-07 -1.11552868e-06 -9.76820502e-07 3.01350838e-06
      5.35836580e-06 5.21598668e-06 4.36963001e-06 3.85474186e-06
      1.06263133e-06 -1.44656167e-06 -2.05998595e-06 -8.86315604e-07
      1.31733236e-06 2.85276656e-06 1.84373664e-06 -1.88451122e-06
      -2.51016013e-06 -1.80180479e-07 1.05615220e-06 1.01316846e-06
      1.05697995e-06 -1.86823268e-08 -2.00308250e-06 -2.72185480e-06
      -2.44380271e-06 -8.62220475e-07 -1.15168848e-06 -1.34899688e-06
      1.10260123e-06 4.17204546e-06 5.66643757e-06 1.40748375e-06
      -1.40739814e-06 -3.04822311e-06 -3.37996448e-06 -1.11567545e-06
      -1.24585404e-06 -2.65813327e-07 -4.21770750e-07 -8.17871921e-07
      -1.18733023e-08 4.84120903e-07 3.58087192e-07 -1.53009159e-06
      -4.57525175e-06 -5.41949339e-06 -4.25716144e-06 -1.68777046e-06
      1.18128526e-06 1.11222982e-06 -3.30925161e-07 -2.04441491e-07
      3.28294482e-06 4.64577215e-06 2.74850368e-06 1.60424338e-06
      8.49168828e-07 -1.09753864e-06 -7.67289009e-07 5.26985332e-07
      3.29154750e-06 3.92521679e-06 3.06580637e-06 -3.65708303e-07
      -2.70359396e-06 -1.12981400e-06 3.52665666e-08 -6.89345200e-07
      -1.44759667e-07 -7.62000312e-08 -1.60126274e-06 -2.78635525e-06
      -2.11413590e-06 -9.03914554e-07 -1.62387187e-06 -1.89705372e-06
      -7.03958619e-07 2.51004735e-06 5.71492819e-06 4.44737270e-06
      1.07638137e-07 -2.49907907e-06 -4.55943018e-06 -3.47642731e-06
      -1.99502438e-06 -2.70708995e-07 1.30558794e-06 1.11183124e-06
      5.18839329e-07 7.00210308e-08 8.81418316e-07 7.12724898e-07
      -1.98527027e-06 -6.11823134e-06 -6.13877410e-06 -4.14167789e-06
      3.21471525e-08 3.34740571e-06 2.42138753e-06 -9.07408207e-07
      -3.49216691e-07 2.44838543e-06 2.05241236e-06 8.12519772e-07
      3.55621239e-07 -2.88393608e-07 -2.88200738e-07 1.28067529e-06
      5.28271130e-06 6.10843153e-06 5.23028029e-06 1.47747630e-06
      -9.39880238e-07 -7.99171744e-07 -3.96879983e-07 -7.34710852e-07
      -9.67225560e-07 -5.84436144e-08 -1.07706205e-06 -2.83825580e-06
      -2.48966398e-06 -1.23378209e-06 -3.79587732e-07 -9.11914583e-07
      -1.14360409e-06 8.97865505e-07 3.50834375e-06 3.94372864e-06
      1.10332905e-06 -2.13824433e-06 -5.06815695e-06 -5.64838865e-06
      -2.65230688e-06 -1.36938115e-06 7.96466907e-07 2.80726681e-06
      1.70782278e-06 7.98309259e-07 5.96384325e-07 1.65040979e-06
      1.05813763e-06 -3.51692324e-06 -7.13004738e-06 -5.92436572e-06
      -2.25534586e-06 2.92188429e-06 4.93171228e-06 8.83436826e-07
      -2.11505903e-06 2.63478256e-07 7.88702380e-07 -7.27752010e-08
      1.21314872e-06 1.79374524e-06 1.54501424e-06 1.96281530e-06
      4.86961926e-06 7.84843633e-06 8.36822528e-06 4.59737794e-06
      1.40763495e-06 9.97564257e-07 2.90650178e-07 -7.90098682e-07
      -1.25214513e-06 -4.03573466e-07 1.49990498e-07 -2.61697573e-06
      -4.23900974e-06 -3.08074709e-06 -4.44116409e-07 8.53250469e-07
      -8.42884731e-07 -1.01105320e-06 7.96637835e-07 1.45315596e-06
      1.17102695e-06 -1.60590116e-06 -4.55583222e-06 -6.31327111e-06
      -2.85138935e-06 -2.95165069e-06 -1.29168973e-06 1.75481057e-06
      3.56548458e-06 1.79872063e-06 8.88335251e-07 2.13369981e-06
      2.84203770e-06 -1.90610265e-07 -4.89533659e-06 -6.36042205e-06
      -3.36615017e-06 1.51785127e-06 4.78326456e-06 3.81943073e-06
      -1.28754698e-06 -2.58157274e-06 -5.49773347e-07 7.07628445e-08
      2.14000877e-07 3.57729823e-06 4.08726555e-06 3.24095822e-06
      4.22541689e-06 7.27923998e-06 8.08300229e-06 6.18430704e-06
      3.59272894e-06 2.35499442e-06 1.25362783e-06 -6.20864398e-07
      -1.20134234e-06 3.04549502e-07 1.88088973e-06 -5.44674094e-07
      -3.88061699e-06 -5.00132046e-06 -2.72101715e-06 1.47526112e-06
      8.79032200e-07 -1.06618938e-06 -1.40717998e-06 -1.25399106e-06
      -9.51980724e-07 -1.98954831e-06 -3.82057260e-06 -5.01073509e-06
      -4.52429867e-06 -5.73918805e-06 -4.17586489e-06 -1.30410422e-06
      2.42631813e-06 2.82526548e-06 9.41892324e-07 1.91806612e-06
      3.34527499e-06 2.08357301e-06 -2.44398984e-06 -5.50369259e-06
      -4.08735104e-06 3.28536032e-07 3.50271262e-06 4.82706264e-06
      1.18434491e-06 -2.64643973e-06 -2.44113471e-06 2.97306542e-07
      5.80404105e-07 2.32569437e-06 5.35321624e-06 5.50259074e-06
      5.16783348e-06 5.93794175e-06 7.08580455e-06 5.28083774e-06
      3.50260598e-06 3.26331178e-06 1.56711383e-06 -3.93207273e-07
      -1.25701092e-06 -1.55632549e-07 2.88084357e-06 8.97240227e-07
      -3.74282308e-06 -5.46701358e-06 -4.10601388e-06 8.37064036e-08
      2.05551305e-06 4.62011549e-08 -1.47998549e-06 -1.41664111e-06
      -1.41383532e-06 -2.23592951e-06 -3.96730229e-06 -4.36472646e-06
      -4.52995846e-06 -6.88108821e-06 -7.00901182e-06 -4.18967375e-06
      -5.30105865e-07 1.91740946e-06 1.91065033e-06 2.10552025e-06
      2.69914449e-06 1.98414841e-06 -1.12379610e-06 -5.22183063e-06
      -4.89389231e-06 -8.55320877e-07 2.19906610e-06 5.22293885e-06
      2.57486909e-06 -1.40682255e-06 -3.00006809e-06 -8.25862344e-07
      6.72121132e-07 9.16228657e-08 3.02679200e-06 5.71617329e-06
      6.60487058e-06 5.93669711e-06 6.02392493e-06 5.57932390e-06
      2.21160940e-06 2.02569890e-06 2.08318238e-06 1.85495452e-07
      -1.01589649e-06 -9.18818671e-07 1.96488691e-06 1.84812745e-06
      -3.44327373e-06 -6.47241450e-06 -4.59701550e-06 -6.79485026e-07
      2.21193181e-06 1.38324765e-06 -8.45614522e-07 -1.53525730e-06
      -1.58000262e-06 -3.05761682e-06 -4.40645908e-06 -5.16165119e-06
      -3.94237486e-06 -5.71394548e-06 -6.55419080e-06 -6.24548193e-06
      -2.98302689e-06 9.03438377e-07 2.58839168e-06 2.32600019e-06
      1.54724194e-06 5.75477713e-07 -2.06951472e-06 -5.95335769e-06
      -6.17690057e-06 -2.15478417e-06 9.70756560e-07 3.95436064e-06
      4.56777934e-06 6.99393297e-07 -8.56789200e-07 -1.96034762e-07
      8.16297529e-07 -1.63361653e-06 -8.77858781e-07 3.57424892e-06
      5.21279981e-06 5.21121774e-06 4.65144603e-06 5.14749763e-06
      2.69985753e-06 1.10460792e-06 9.26703308e-07 -1.11923747e-07
      -1.75169407e-06 -1.57740214e-06 -2.02697152e-07 1.11022155e-06
      -2.46856735e-06 -7.94803054e-06 -7.06654191e-06 -2.21218306e-06
      1.66471636e-06 1.70548719e-06 1.05746062e-06 4.89169281e-07
      7.05524201e-07 -1.48749018e-06 -3.97178565e-06 -4.58444720e-06
      -4.38167262e-06 -4.50622929e-06 -4.53143593e-06 -4.70968189e-06
      -3.68992232e-06 -5.59119201e-07 2.29716443e-06 2.37305244e-06
      4.17190847e-07 -1.02480988e-06 -3.02101489e-06 -6.85891428e-06
      -8.05909713e-06 -3.58125658e-06 -1.68122710e-07 2.03768195e-06
      3.97308031e-06 2.18033642e-06 1.20437790e-06 1.12599275e-06
      1.16711647e-06 -1.92545463e-06 -3.83516544e-06 -1.00942529e-07
      3.12263182e-06 4.13855787e-06 3.04912123e-06 2.97355314e-06
      3.24723442e-06 2.13464409e-06 1.22521527e-07 -1.06420657e-06
      -1.95576877e-06 -3.64706148e-06 -2.52411519e-06 -5.33067919e-07
      -2.03473542e-06 -6.73402747e-06 -9.26762368e-06 -5.06689321e-06
      2.78222387e-07 1.56002125e-06 1.68242548e-06 1.59446415e-06
      2.72072793e-06 1.23837458e-06 -1.61428386e-06 -3.01842556e-06
      -5.85861835e-06 -2.98295390e-06 -3.21380526e-06 -3.26795771e-06
      -2.90120943e-06 -1.82926783e-06 1.26047723e-06 2.74712920e-06
      2.89943841e-07 -2.52854102e-06 -3.72487352e-06 -5.83938800e-06
      -8.96937763e-06 -5.74794240e-06 -8.01667113e-07 1.16224373e-06
      2.28047202e-06 1.58090302e-06 7.30703164e-07 2.63361267e-06
      2.74182344e-06 -6.23263929e-07 -4.63896913e-06 -3.36026937e-06
      9.80961886e-07 2.22709514e-06 2.16755757e-06 7.85786995e-07
      1.35852963e-06 1.79015876e-06 4.72536584e-07 -1.52451219e-06
      -1.76592584e-06 -4.56818634e-06 -3.46082652e-06 -6.12212489e-07
      -1.20594177e-06 -4.64254299e-06 -8.14751547e-06 -7.18180399e-06
      -1.62615402e-06 1.48259437e-06 1.26092721e-06 2.17266438e-06
      3.73587886e-06 3.23352583e-06 5.10998859e-07 -1.55135001e-06
      -6.38802612e-06 -3.32693730e-06 -1.28264708e-06 -1.47250739e-06
      -2.02478827e-06 -1.39927465e-06 3.01519435e-07 2.26108136e-06
      -1.58411439e-07 -3.38084374e-06 -4.78523589e-06 -5.31801879e-06
      -7.24310212e-06 -7.73394731e-06 -4.72012380e-06 -9.48173863e-07
      6.50627840e-07 1.31785953e-06 6.41113843e-07 1.04203389e-06
      2.93097037e-06 1.42536067e-06 -4.29952570e-06 -5.01129625e-06
      -9.40171901e-07 9.56981012e-07 5.89801743e-07 -8.28529153e-07
      6.12304405e-07 1.20428274e-06 -7.03694070e-07 -3.13755459e-06
      -3.10964788e-06 -4.55356940e-06 -5.99947134e-06 -2.74135459e-06
      -3.88564644e-07 -2.24995824e-06 -6.22483049e-06 -7.16237264e-06
      -2.97329143e-06 4.20282447e-07 9.13899100e-07 1.15948853e-06
      2.77073013e-06 4.53984194e-06 2.96751773e-06 1.23060417e-07
      -3.29685463e-06 -1.90827313e-06 7.67429867e-07 9.21160449e-07
      -4.55438567e-07 -9.13811732e-07 4.18076695e-07 2.08072038e-06
      1.29058844e-06 -2.16634180e-06 -3.74113711e-06 -3.90263176e-06
      -4.02235219e-06 -5.41411509e-06 -6.56905877e-06 -3.85259455e-06
      -6.35289666e-07 1.53331530e-06 3.36275093e-06 2.54809402e-06
      1.40112320e-06 1.39890165e-06 -2.45122055e-06 -5.13367240e-06
      -3.47842820e-06 -7.44712509e-07 -6.28760290e-07 -1.43511863e-06
      1.35792118e-06 3.52738152e-06 6.43646558e-07 -4.80370227e-06
      -6.31913326e-06 -4.56964563e-06 -5.42230009e-06 -6.23281448e-06
      -1.78435005e-06 -8.01530575e-07 -3.48474509e-06 -5.93809909e-06
      -3.09110214e-06 1.05713627e-06 9.64764354e-07 1.02250044e-06
      1.74334980e-06 3.77569813e-06 5.03344381e-06 3.21523817e-06
      -1.19905587e-06 -1.54125473e-06 1.23407767e-06 2.32164552e-06
      1.41101009e-06 4.78274501e-07 1.04935611e-06 2.04980961e-06
      1.73390129e-06 -6.49303956e-07 -1.52185476e-06 5.63541732e-07
      -1.16263732e-06 -2.89131185e-06 -4.05939818e-06 -5.02121429e-06
      -6.19506977e-07 2.99553471e-06 4.60156116e-06 5.38783115e-06
      2.78817947e-06 8.84577844e-07 -8.83897030e-07 -3.10604696e-06
      -3.28146689e-06 -1.90056971e-06 -1.11274676e-06 -2.34895606e-06
      4.54014355e-07 5.43006581e-06 4.69912266e-06 -4.03231388e-06
      -8.94827372e-06 -6.46888611e-06 -4.27455097e-06 -5.73720899e-06
      -5.53598647e-06 -1.74441357e-06 -1.97283407e-06 -3.90479590e-06
      -3.38384098e-06 2.52575546e-07 1.49541279e-06 -1.08608695e-08
      -6.49012122e-07 4.41952807e-07 3.34208767e-06 4.74393755e-06
      -5.40631675e-07 4.28317435e-07 2.02825549e-06 3.53978407e-06
      3.00147622e-06 1.85170177e-06 1.58307728e-06 2.30952378e-06
      1.97290819e-06 4.40862721e-07 -6.85155499e-07 2.13185831e-06
      2.12638201e-06 -1.78567961e-06 -2.21752589e-06 -4.56306634e-06
      -8.92013418e-07 4.01748002e-06 6.65887183e-06 7.28389205e-06
      5.63662161e-06 2.47018329e-06 1.48154626e-07 -1.29155205e-06
      -2.65923563e-06 -1.64709706e-06 -6.80151061e-07 -2.03330728e-06
      -7.14629095e-07 4.58838349e-06 8.41862766e-06 1.77767402e-06
      -8.21301637e-06 -8.17828641e-06 -3.09611278e-06 -3.11489180e-06
      -6.08501887e-06 -5.44060413e-06 -3.03872821e-06 -2.87007197e-06
      -3.30061948e-06 -8.91005413e-07 1.13301576e-06 7.00833141e-07
      -7.68067025e-07 -9.53787548e-07 5.33786420e-08 2.09479458e-06
      -3.11430966e-07 -1.85640374e-08 2.07296034e-06 3.46440947e-06
      4.10849589e-06 3.75528975e-06 2.35122479e-06 1.48280071e-06
      2.08637312e-06 1.06422374e-06 -4.27574946e-07 5.56203304e-07
      2.95626864e-06 -7.22316713e-07 -2.73655701e-06 -4.56602129e-06
      -1.54172312e-06 3.96099813e-06 8.53214169e-06 7.46631440e-06
      7.23321637e-06 4.32691832e-06 1.69135910e-06 5.23531753e-07
      -7.72890246e-07 -1.05817765e-06 5.13664872e-07 1.05854028e-07
      -2.86043331e-07 2.87787566e-06 8.34827733e-06 8.66713890e-06
      -3.68544556e-06 -8.89480543e-06 -3.31217370e-06 -3.60378067e-07
      -3.34835363e-06 -5.78418303e-06 -5.21096899e-06 -3.63909226e-06
      -4.34353751e-06 -3.22523965e-06 -8.89339901e-07 3.78120184e-08
      -4.93943560e-07 -1.94011886e-06 -1.91035724e-06 -5.56282828e-07
      -2.39669674e-07 -1.10111148e-06 1.41709199e-06 3.71013107e-06
      4.13892485e-06 4.04074581e-06 2.61279388e-06 9.69122766e-07
      1.02239164e-06 1.40897066e-06 -4.42353752e-07 -1.19685922e-06
      2.04638894e-07 -9.22939989e-07 -4.50208881e-06 -4.45000478e-06
      -4.39005044e-06 2.24527230e-06 8.67070594e-06 9.31672821e-06
      5.53569362e-06 3.93719301e-06 2.24859173e-06 6.26905660e-07
      -8.14767304e-07 -1.87148623e-06 2.28473425e-07 2.50293670e-06
      1.61286323e-06 2.97173369e-06 6.35312108e-06 1.06580255e-05
      2.59366266e-06 -6.32025012e-06 -5.01830391e-06 6.85642874e-07
      -4.63446611e-07 -3.58310422e-06 -4.41503198e-06 -3.71115334e-06
      -3.72855584e-06 -5.25676478e-06 -2.57437136e-06 -1.99351689e-07
      -9.23974767e-07 -2.20466904e-06 -3.82045982e-06 -3.78498589e-06
      -8.53083179e-07 -4.16088642e-06 -2.68608551e-06 1.53829023e-06
      4.02491287e-06 4.34100139e-06 3.55018597e-06 1.74804791e-06
      9.12839198e-07 1.16588001e-06 5.49361403e-07 -2.47237335e-06
      -2.76888454e-06 -3.57254430e-06 -5.36171183e-06 -5.37238793e-06
      -6.36873528e-06 -1.89414934e-07 6.88176078e-06 9.43666782e-06
      5.19942660e-06 2.15847695e-06 2.08158758e-06 1.21312542e-06
      -1.16611068e-06 -2.30085698e-06 -2.02832939e-06 1.59245519e-06
      3.82785083e-06 3.86259990e-06 5.34539367e-06 8.20867263e-06
      6.24427048e-06 -2.89059585e-06 -4.71149315e-06 1.29286781e-09
      1.03998752e-06 -1.01480998e-06 -2.85813803e-06 -3.07499590e-06
      -3.53300152e-06 -5.03171714e-06 -4.27755322e-06 -1.07452979e-06
      -1.06969264e-06 -2.75368279e-06 -4.55205281e-06 -4.04513366e-06
      -2.49642949e-06 -3.92062157e-06 -3.64274820e-06 5.92035406e-07
      4.11389010e-06 4.50614243e-06 3.66373160e-06 2.36957453e-06
      1.09554492e-06 1.07412586e-06 1.11767679e-06 -1.47089099e-06
      -5.59162254e-06 -6.40229291e-06 -6.51112214e-06 -6.24701534e-06
      -5.50035656e-06 -2.49696313e-06 4.52804625e-06 7.80217124e-06
      4.53293524e-06 8.17460034e-07 2.00253368e-07 9.52839116e-07
      -2.38576422e-06 -4.64413324e-06 -5.38982067e-06 -1.97082318e-06
      3.41507348e-06 5.23026347e-06 4.90697175e-06 5.51294488e-06
      5.21927586e-06 -2.21490765e-07 -3.09795359e-06 -9.60178909e-07
      1.25260351e-06 2.55215213e-07 -5.22384198e-07 -1.47784431e-06
      -3.38156315e-06 -4.75427169e-06 -5.66052131e-06 -3.63704930e-06
      -2.73153637e-06 -4.63301058e-06 -6.36274672e-06 -4.71453677e-06
      -7.76698562e-06 -5.73965963e-06 -4.01381976e-06 -2.19439599e-07
      4.08176675e-06 5.21616312e-06 3.73590819e-06 2.76358628e-06
      1.12954194e-06 9.01914120e-07 -2.81052071e-08 -8.25328129e-07
      -4.36371511e-06 -8.76007471e-06 -7.33533352e-06 -6.20514584e-06
      -4.27474424e-06 -2.62566914e-06 2.37626000e-06 3.97016993e-06
      2.58947671e-06 1.83348376e-07 -6.93406719e-07 1.47608262e-06
      -8.61771639e-07 -5.22122718e-06 -7.36374250e-06 -4.33524201e-06
      2.00124623e-06 4.77444655e-06 5.29342515e-06 3.67955249e-06
      2.70855526e-06 -1.88763863e-07 -1.68253143e-06 -8.12320934e-07
      6.64134859e-07 2.92254526e-07 8.58288331e-07 -1.63486121e-07
      -2.98449640e-06 -4.43505814e-06 -5.87245495e-06 -5.28932514e-06
      -3.86529518e-06 -4.32454726e-06 -8.02195700e-06 -5.91888602e-06
      -1.24268963e-05 -8.55046619e-06 -4.17209139e-06 1.49906532e-06
      5.82227585e-06 6.22527114e-06 4.41074326e-06 3.50514210e-06
      1.43476950e-06 5.70860095e-07 -4.03074750e-07 -2.76092379e-07
      -9.60452439e-07 -5.81311360e-06 -8.76169906e-06 -6.39628070e-06
      -3.77114134e-06 -6.03191779e-07 1.45031697e-06 1.53883548e-06
      -1.50688919e-07 -3.96976077e-07 -6.40731514e-07 1.08400820e-06
      -7.67571677e-08 -3.44131217e-06 -7.35399453e-06 -5.25567111e-06
      -7.21413699e-07 4.19235221e-06 4.04033381e-06 3.21628136e-06
      1.05854554e-06 -5.97312237e-07 -1.34695301e-06 4.23068258e-07
      7.71207567e-07 8.70954693e-07 1.60768354e-06 7.92038932e-08
      -2.59355829e-06 -3.94453309e-06 -4.83720351e-06 -5.16128239e-06
      -3.99884175e-06 -3.28144165e-06 -6.24206632e-06 -8.17164619e-06
      -1.07692276e-05 -1.28267930e-05 -9.21313949e-06 -2.28741897e-06
      4.39218184e-06 5.98346014e-06 3.86306692e-06 3.03205888e-06
      1.73379988e-06 7.68906204e-07 -6.78488945e-08 -9.76475803e-07
      -2.89666417e-07 -1.96340443e-06 -5.96082828e-06 -7.61629462e-06
      -4.25075586e-06 3.69273550e-07 2.37710424e-06 -1.26414994e-08
      -2.82332621e-06 -2.87602870e-06 -7.99350858e-07 1.46023169e-07
      -1.26981718e-07 -2.03356831e-06 -5.09741812e-06 -4.90030607e-06
      -1.15054263e-06 2.41563521e-06 3.40176962e-06 2.20547804e-06
      9.59009867e-07 -8.87961988e-08 -7.37048140e-07 7.93979382e-07
      2.59852277e-06 1.92827906e-06 1.54941040e-06 -8.56983377e-07
      -3.50994196e-06 -3.06993775e-06 -2.79611822e-06 -2.99284238e-06
      -3.10143309e-06 -2.24783389e-06 -3.14850013e-06 -6.25847497e-06
      -3.90812693e-06 -1.12980379e-05 -1.26599734e-05 -7.74979435e-06
      2.47867717e-07 4.63008701e-06 3.13394435e-06 1.32627463e-06
      1.66377981e-06 7.28075520e-07 -4.29556820e-07 -1.54371730e-06
      -1.93898973e-06 -1.54833094e-06 -2.59311810e-06 -4.93126072e-06
      -4.69661200e-06 -1.19654226e-06 4.31274998e-07 2.05508130e-07
      -2.62624280e-06 -3.46669117e-06 -3.45402583e-07 9.29999374e-07
      -3.67134191e-07 -1.43268164e-06 -2.75009711e-06 -2.64458754e-06
      8.85013662e-07 3.72815089e-06 3.57605563e-06 2.30782030e-06
      5.92937852e-07 -6.27501549e-07 1.13858626e-07 1.21358892e-06
      3.66672816e-06 3.86073316e-06 1.90175058e-06 -1.75943796e-06
      -5.88639477e-06 -5.34291667e-06 -3.23794234e-06 -1.50963012e-06
