<?xml version="1.0"?>
<opencv_storage>
<my_svm type_id="opencv-ml-svm">
  <svm_type>C_SVC</svm_type>
  <kernel><type>LINEAR</type></kernel>
  <C>1.</C>
  <term_criteria><epsilon>2.2204460492503131e-16</epsilon>
    <iterations>1000000</iterations></term_criteria>
  <var_all>69120</var_all>
  <var_count>69120</var_count>
  <class_count>2</class_count>
  <class_labels type_id="opencv-matrix">
    <rows>1</rows>
    <cols>2</cols>
    <dt>i</dt>
    <data>
      0 1</data></class_labels>
  <sv_total>1</sv_total>
  <support_vectors>
    <_>
      -8.22968161e-07 -1.73511341e-06 -2.19070944e-06 -2.70913961e-06
      -2.78658149e-06 -1.79274821e-06 -9.67558321e-07 1.61537673e-06
      3.16883984e-06 5.05895241e-06 6.04829665e-06 5.55155430e-06
      4.55032159e-06 2.62886761e-06 9.76732736e-07 -1.66745633e-06
      -2.84125031e-06 -2.01053581e-06 -4.87913709e-08 2.62083631e-06
      5.97820963e-06 1.07314618e-05 1.51362538e-05 1.74631750e-05
      1.89542297e-05 1.86476518e-05 1.63511013e-05 1.30022590e-05
      8.76348895e-06 3.85506746e-06 -1.23624136e-06 -5.81151244e-06
      -8.25512780e-06 -1.01971846e-05 -1.09208513e-05 -9.92041623e-06
      -7.81573090e-06 -6.23883307e-06 -5.55109182e-06 -4.35678248e-06
      -4.27000350e-06 -4.19920116e-06 -3.90029982e-06 -3.31370893e-06
      -2.40313921e-06 -1.51001927e-06 -1.84832032e-07 6.99425129e-07
      -1.51463689e-06 -2.37805716e-06 -2.76023775e-06 -3.14693330e-06
      -3.05367348e-06 -2.20721381e-06 -1.60847799e-06 4.13830548e-07
      1.65083782e-06 3.33120579e-06 4.34610729e-06 4.04752291e-06
      3.39214489e-06 1.70273245e-06 1.19545732e-07 -2.30229512e-06
      -3.56668511e-06 -3.09549500e-06 -1.62126048e-06 5.98963709e-07
      3.66377981e-06 7.74167074e-06 1.15822077e-05 1.35114387e-05
      1.46061366e-05 1.41706796e-05 1.21717812e-05 9.35690787e-06
      5.72427734e-06 1.78827975e-06 -2.31230842e-06 -5.86556735e-06
      -7.63374373e-06 -8.77068396e-06 -8.73540012e-06 -7.28626037e-06
      -4.79315713e-06 -3.12951192e-06 -2.51886854e-06 -1.59178444e-06
      -1.85711053e-06 -2.22758263e-06 -2.40128293e-06 -2.13293742e-06
      -1.46595767e-06 -7.70116912e-07 4.45120349e-07 1.30000444e-06
      -2.01306739e-06 -2.78630432e-06 -3.06253764e-06 -3.27620796e-06
      -3.00573424e-06 -2.69075986e-06 -2.75769594e-06 -2.13276167e-06
      -1.68694089e-06 -5.43611463e-07 5.37665017e-07 7.28366388e-07
      8.87282511e-07 -1.73256936e-07 -1.41516477e-06 -3.23564564e-06
      -4.51621963e-06 -4.65465155e-06 -4.23604661e-06 -3.01702994e-06
      -8.94854736e-07 1.35090249e-06 3.51952440e-06 4.23382835e-06
      4.12647887e-06 3.22404321e-06 2.01559715e-06 7.16080876e-07
      -1.04622734e-06 -2.27195414e-06 -3.65218261e-06 -4.52916674e-06
      -4.54511292e-06 -3.79489416e-06 -2.24193127e-06 -1.54586004e-07
      2.73300020e-06 4.33037258e-06 4.59624925e-06 4.72647980e-06
      3.59598630e-06 2.38454231e-06 1.30316823e-06 1.10351687e-06
      1.50045685e-06 1.99073816e-06 3.05766730e-06 3.84438863e-06
      -3.99098980e-07 -1.13711224e-06 -1.54934094e-06 -1.94937047e-06
      -1.96929545e-06 -2.52941550e-06 -3.42745943e-06 -4.14886108e-06
      -4.40646681e-06 -3.72063846e-06 -2.44786156e-06 -1.67001531e-06
      -7.71006626e-07 -1.03098591e-06 -1.60977822e-06 -2.67620794e-06
      -3.50401319e-06 -3.77081710e-06 -4.13973930e-06 -3.75900458e-06
      -3.02569924e-06 -2.98716895e-06 -3.07566756e-06 -4.10096800e-06
      -5.90821628e-06 -7.63522530e-06 -8.06539083e-06 -7.65191817e-06
      -6.99224665e-06 -5.06040078e-06 -3.23809672e-06 -1.08180711e-06
      8.49806440e-07 3.41121563e-06 5.91419621e-06 7.79769471e-06
      1.00194648e-05 1.09658267e-05 1.04887404e-05 9.46667569e-06
      7.43611417e-06 5.81955874e-06 4.33858213e-06 4.35995844e-06
      5.16647924e-06 6.11486530e-06 7.30834472e-06 8.02470095e-06
      2.55363761e-06 1.75380046e-06 7.84026270e-07 -2.93505963e-07
      -1.14695229e-06 -2.64779283e-06 -4.14183887e-06 -5.37621600e-06
      -5.69128088e-06 -4.89013473e-06 -3.11873941e-06 -1.64147514e-06
      -3.06865843e-07 2.26202104e-07 3.95645287e-07 4.46609683e-09
      -3.99512210e-08 6.66039585e-11 -6.00290377e-07 -6.62782554e-07
      -1.21687174e-06 -2.74080071e-06 -4.61038280e-06 -7.04246941e-06
      -1.01359410e-05 -1.25667893e-05 -1.26232862e-05 -1.12936377e-05
      -9.00398300e-06 -5.23952576e-06 -1.45833405e-06 2.51313895e-06
      5.52275242e-06 8.81029064e-06 1.10571809e-05 1.18348844e-05
      1.24224907e-05 1.22375877e-05 1.07737560e-05 8.61406352e-06
      5.99569739e-06 4.48874835e-06 3.28097713e-06 4.10863413e-06
      5.76095908e-06 7.67743222e-06 9.18965816e-06 9.83037171e-06
      5.44303248e-06 4.54912197e-06 2.88883848e-06 9.91232241e-07
      -9.38962387e-07 -3.25312067e-06 -5.09280744e-06 -6.25680605e-06
      -6.17169326e-06 -4.82246332e-06 -2.34752656e-06 7.96466111e-08
      1.92500397e-06 3.28806823e-06 4.10236362e-06 4.22582752e-06
      4.63171273e-06 4.69311544e-06 3.86884039e-06 3.26015720e-06
      1.75933042e-06 -2.89712403e-07 -2.79034248e-06 -5.47728314e-06
      -8.57424766e-06 -1.07976412e-05 -1.04711671e-05 -8.87550050e-06
      -6.09133804e-06 -2.13511589e-06 1.76154958e-06 5.59666660e-06
      8.28420707e-06 1.08094018e-05 1.16071105e-05 1.09857128e-05
      9.79632114e-06 8.56231873e-06 6.43596650e-06 3.66757604e-06
      8.85563566e-07 -5.13394582e-07 -1.46641764e-06 -2.42179595e-07
      1.72602824e-06 4.07053358e-06 5.54852841e-06 6.10512416e-06
      7.54016719e-06 6.73049635e-06 4.95024005e-06 2.77861864e-06
      2.24968744e-07 -2.51266579e-06 -4.55572126e-06 -5.78156050e-06
      -5.51479252e-06 -3.90923969e-06 -9.92649007e-07 2.40307600e-06
      5.04528089e-06 7.25898963e-06 8.53608890e-06 8.94599816e-06
      9.07056892e-06 8.45101931e-06 6.97757105e-06 5.40918018e-06
      3.27886914e-06 1.57093018e-06 -4.46989333e-07 -2.12022405e-06
      -3.85060412e-06 -4.67770224e-06 -3.45279364e-06 -1.50654807e-06
      1.20778634e-06 4.59916146e-06 7.40771839e-06 9.45298143e-06
      1.05799900e-05 1.10774963e-05 9.48512297e-06 7.55434985e-06
      4.89955391e-06 3.08079188e-06 1.11635870e-06 -1.24277597e-06
      -3.49073161e-06 -4.66402389e-06 -5.55221459e-06 -4.56149974e-06
      -2.93474341e-06 -1.13919953e-06 -2.96122437e-07 2.30585542e-07
      7.30189686e-06 6.95999097e-06 5.94378480e-06 4.40599160e-06
      2.28517774e-06 -1.47996360e-07 -2.13912494e-06 -3.74532283e-06
      -3.83263341e-06 -2.68346525e-06 5.14889074e-08 3.83827273e-06
      7.21088463e-06 1.01267005e-05 1.16494220e-05 1.22236988e-05
      1.17045229e-05 1.00634707e-05 7.75673470e-06 5.08658650e-06
      2.67959285e-06 1.77534503e-06 8.31945044e-07 7.88704256e-07
      1.15950616e-06 2.32426282e-06 4.81372126e-06 7.35767844e-06
      9.80506502e-06 1.25144406e-05 1.39065942e-05 1.34879292e-05
      1.25719926e-05 1.05082163e-05 6.29586657e-06 3.21331981e-06
      -5.94156063e-07 -2.66071152e-06 -3.80999904e-06 -4.79942719e-06
      -5.60368289e-06 -5.74322348e-06 -6.03540184e-06 -4.98604004e-06
      -3.45419085e-06 -2.40946429e-06 -2.30337059e-06 -1.73375804e-06
      4.62378375e-06 5.02228613e-06 5.06609240e-06 4.54574592e-06
      3.58620969e-06 1.98048588e-06 2.74779836e-07 -1.84721148e-06
      -2.70605960e-06 -2.66204552e-06 -9.47222816e-07 2.10081544e-06
      5.62667128e-06 9.04124499e-06 1.08532186e-05 1.21840594e-05
      1.17425734e-05 9.80000095e-06 7.20226944e-06 3.70376392e-06
      1.14781790e-06 5.98124927e-07 2.58947409e-07 1.27213343e-06
      3.35941877e-06 6.01002466e-06 9.49092282e-06 1.25246215e-05
      1.44475325e-05 1.63675140e-05 1.63362620e-05 1.37725865e-05
      1.11868058e-05 7.05175535e-06 1.23761038e-06 -2.40409872e-06
      -6.58227191e-06 -8.34917410e-06 -8.24240851e-06 -7.35530739e-06
      -6.13917064e-06 -4.46177819e-06 -3.33071102e-06 -1.44873832e-06
      6.08983100e-07 1.44873570e-06 1.25326778e-06 1.83473958e-06
      2.10694293e-06 3.09369375e-06 3.64766402e-06 3.63216304e-06
      3.57836711e-06 2.59755075e-06 1.16150829e-06 -1.48188406e-06
      -3.26710983e-06 -4.73603723e-06 -4.90142565e-06 -3.66974018e-06
      -7.62373247e-07 3.07846335e-06 5.71913415e-06 9.17807029e-06
      1.04858773e-05 9.98465748e-06 8.32832575e-06 4.65230960e-06
      1.69825728e-06 1.23724220e-07 -1.05465472e-06 -4.82293899e-07
      1.90919468e-06 4.83793110e-06 8.59837382e-06 1.19288625e-05
      1.33099220e-05 1.44754895e-05 1.30850794e-05 9.20642742e-06
      5.53882410e-06 3.94517372e-07 -5.43089573e-06 -8.74527723e-06
      -1.20724644e-05 -1.25926726e-05 -1.07928872e-05 -8.01813803e-06
      -4.97503697e-06 -1.72416458e-06 8.65615903e-07 3.59526666e-06
      6.03318267e-06 7.02406714e-06 6.84336283e-06 7.29901012e-06
      3.12864586e-07 1.47315893e-06 1.82912947e-06 1.58765545e-06
      1.72246143e-06 8.35006745e-07 -3.67726216e-07 -3.27280100e-06
      -5.64696120e-06 -8.33075137e-06 -1.03677412e-05 -1.09029543e-05
      -8.87671467e-06 -4.64472714e-06 -8.23645166e-07 5.37741107e-06
      9.23348671e-06 1.12240041e-05 1.11973623e-05 7.90543254e-06
      4.36728533e-06 8.15924523e-07 -2.22583617e-06 -3.11346957e-06
      -1.62184017e-06 8.59706745e-07 4.55345980e-06 8.45653994e-06
      1.00624384e-05 1.12536964e-05 9.19914692e-06 5.07703317e-06
      6.81825895e-07 -4.77869844e-06 -9.97723691e-06 -1.28543979e-05
      -1.49717971e-05 -1.40588136e-05 -1.07676287e-05 -6.70453801e-06
      -2.69527823e-06 1.00816635e-06 4.14789656e-06 6.79162622e-06
      8.70333861e-06 9.55204359e-06 9.27491055e-06 9.46114324e-06
      -2.74598460e-06 -1.66373934e-06 -1.60590059e-06 -2.13345879e-06
      -2.03233822e-06 -2.87251692e-06 -3.62184187e-06 -6.17510204e-06
      -8.31209309e-06 -1.10199026e-05 -1.36469062e-05 -1.47930232e-05
      -1.33557924e-05 -9.35197841e-06 -5.38271706e-06 1.73993021e-06
      6.49395452e-06 9.77907257e-06 1.05455283e-05 7.85523389e-06
      4.38676761e-06 -6.98615139e-08 -4.08018150e-06 -5.64275251e-06
      -4.75525621e-06 -2.38507505e-06 1.41950238e-06 6.12439862e-06
      8.58934163e-06 1.04690662e-05 8.68014195e-06 5.07952791e-06
      8.82262370e-08 -5.60963827e-06 -1.05937906e-05 -1.35802929e-05
      -1.51491331e-05 -1.37521165e-05 -9.95649043e-06 -5.52856591e-06
      -1.47336357e-06 1.71143461e-06 4.36955088e-06 5.99904706e-06
      6.68288158e-06 6.88478121e-06 6.29748774e-06 6.14016380e-06
      -6.90348134e-06 -5.93520872e-06 -5.76686034e-06 -6.02994760e-06
      -5.54399139e-06 -5.74743171e-06 -5.66230074e-06 -7.16216618e-06
      -8.17248929e-06 -9.55334144e-06 -1.12082434e-05 -1.20582226e-05
      -1.11918444e-05 -8.81553933e-06 -6.84661518e-06 -2.20470133e-06
      5.06738274e-07 2.63645506e-06 2.70432656e-06 9.19780121e-07
      -9.15135900e-07 -3.53926021e-06 -5.91091384e-06 -5.87376053e-06
      -3.92389893e-06 -7.84106760e-07 3.17625586e-06 7.84639997e-06
      1.02293770e-05 1.17026020e-05 9.83081281e-06 6.49785034e-06
      9.80539767e-07 -4.80852077e-06 -9.61823935e-06 -1.25813540e-05
      -1.38770056e-05 -1.28612437e-05 -9.46581440e-06 -5.46257570e-06
      -1.95321581e-06 4.03519067e-07 2.21173036e-06 2.79716119e-06
      2.44645435e-06 1.99870692e-06 1.23910979e-06 7.82512302e-07
      -9.97001825e-06 -9.19397826e-06 -8.70236090e-06 -8.42311692e-06
      -7.27112501e-06 -6.31911098e-06 -5.23449535e-06 -5.25917903e-06
      -4.66639221e-06 -4.02484375e-06 -3.87072032e-06 -4.17552974e-06
      -3.96626501e-06 -3.90861351e-06 -4.91536684e-06 -4.50982770e-06
      -5.24516554e-06 -5.70537941e-06 -7.20127991e-06 -8.01344959e-06
      -7.41695840e-06 -6.55498206e-06 -5.39189523e-06 -2.25951976e-06
      2.05453898e-06 6.52901917e-06 1.04158726e-05 1.37413308e-05
      1.43320340e-05 1.34863476e-05 1.02750701e-05 6.49202821e-06
      9.06844491e-07 -4.29625561e-06 -8.13117185e-06 -1.02004997e-05
      -1.07309907e-05 -1.02108497e-05 -7.65733239e-06 -4.75737670e-06
      -2.22077688e-06 -6.62712864e-07 5.79677817e-07 8.54421160e-07
      3.32864460e-07 -2.01288742e-07 -6.03466560e-07 -1.18936828e-06
      -1.00528096e-05 -9.68701897e-06 -9.26955090e-06 -9.17894249e-06
      -8.09441462e-06 -6.56316433e-06 -5.21446418e-06 -4.14876422e-06
      -2.47227240e-06 -2.59411422e-07 1.46782338e-06 1.84481598e-06
      2.07495714e-06 1.08317158e-06 -1.23176733e-06 -3.11975646e-06
      -5.48370599e-06 -7.44861563e-06 -9.78677963e-06 -9.90711305e-06
      -7.89487876e-06 -4.77205140e-06 -1.06019183e-06 3.73894750e-06
      9.34643867e-06 1.44540409e-05 1.79492472e-05 1.95787270e-05
      1.79069739e-05 1.45891117e-05 9.92961395e-06 5.58475313e-06
      5.48889375e-07 -3.57771955e-06 -6.04983143e-06 -6.96588040e-06
      -6.45561704e-06 -6.11585119e-06 -4.45222258e-06 -2.98396230e-06
      -1.51878839e-06 -4.89487093e-07 6.35617255e-07 1.30735850e-06
      1.52128041e-06 1.61227786e-06 2.04448247e-06 1.51992128e-06
      -5.39532948e-06 -5.67511597e-06 -6.18179911e-06 -7.83143150e-06
      -8.50346714e-06 -8.23810569e-06 -8.40112261e-06 -7.52556025e-06
      -6.36899176e-06 -4.08815640e-06 -1.87322564e-06 -8.81722826e-07
      3.16394249e-07 1.81242299e-07 -8.04584545e-07 -1.23579025e-06
      -1.65587596e-06 -2.16774697e-06 -3.06193533e-06 -2.12548252e-06
      5.89963882e-08 3.11316512e-06 6.58980844e-06 9.70107794e-06
      1.35300425e-05 1.72383479e-05 1.96388319e-05 1.99013921e-05
      1.67416074e-05 1.25232255e-05 7.70163297e-06 3.27223961e-06
      -1.10716087e-06 -4.37100471e-06 -5.91765411e-06 -6.22526750e-06
      -4.96375515e-06 -4.42163355e-06 -3.27145108e-06 -2.85666601e-06
      -1.99011629e-06 -9.46783416e-07 3.79950848e-07 1.65366396e-06
      3.20040385e-06 4.44634679e-06 5.74188016e-06 5.33766070e-06
      3.92177617e-06 2.97469978e-06 1.00217608e-06 -3.32733771e-06
      -6.78595097e-06 -9.17824582e-06 -1.21019830e-05 -1.23899499e-05
      -1.31157813e-05 -1.20255563e-05 -1.02577224e-05 -9.13263375e-06
      -6.83626286e-06 -5.63507410e-06 -4.45451951e-06 -1.80557527e-06
      1.22800168e-06 3.78027744e-06 5.57965495e-06 7.94024436e-06
      9.93855974e-06 1.17907002e-05 1.32315208e-05 1.27834783e-05
      1.28473957e-05 1.37062498e-05 1.43404641e-05 1.34374413e-05
      9.81640733e-06 6.17764772e-06 2.62560934e-06 -1.15325281e-06
      -4.75118895e-06 -7.24195525e-06 -8.04996944e-06 -8.08085224e-06
      -6.60826117e-06 -5.94640096e-06 -5.05980643e-06 -5.30729585e-06
      -4.73954697e-06 -3.57849694e-06 -2.08421102e-06 -6.69296526e-07
      2.21923347e-06 4.46976310e-06 6.18276044e-06 5.83957490e-06
      1.40463908e-05 1.27456742e-05 9.81318590e-06 3.74355614e-06
      -1.30864908e-06 -5.40808151e-06 -1.02065178e-05 -1.12850275e-05
      -1.36843510e-05 -1.36359786e-05 -1.25834840e-05 -1.20246759e-05
      -9.29858834e-06 -7.69366397e-06 -5.51647736e-06 -1.28167392e-06
      3.31306205e-06 7.29715930e-06 9.97704865e-06 1.24701064e-05
      1.37000525e-05 1.38679798e-05 1.30677690e-05 1.00269317e-05
      7.20127446e-06 5.89123238e-06 5.25052428e-06 3.81482232e-06
      1.04397782e-06 -1.06455730e-06 -2.35204675e-06 -4.54838664e-06
      -6.68446728e-06 -7.84074564e-06 -7.61124465e-06 -7.29989188e-06
      -6.24282438e-06 -6.12255508e-06 -5.78395839e-06 -6.90517936e-06
      -7.12088467e-06 -6.52508334e-06 -5.30105399e-06 -4.66831716e-06
      -1.14724526e-06 1.16971444e-06 2.62263961e-06 2.38651478e-06
      2.01426719e-05 1.89378334e-05 1.62818051e-05 1.05278241e-05
      6.35014521e-06 2.93755602e-06 -1.57926218e-06 -2.59900048e-06
      -5.58437114e-06 -5.99065697e-06 -6.17117621e-06 -7.21959259e-06
      -5.16691262e-06 -4.37793005e-06 -2.55361556e-06 1.31235174e-06
      5.19641753e-06 8.37151129e-06 9.69367920e-06 1.07294745e-05
      1.03993871e-05 8.30996578e-06 5.75228796e-06 2.11620795e-06
      -1.46402147e-06 -3.33788262e-06 -3.96394262e-06 -4.71523254e-06
      -5.45671037e-06 -5.46830779e-06 -4.21644972e-06 -4.23497704e-06
      -4.33159494e-06 -3.52025131e-06 -2.10650524e-06 -1.34432480e-06
      -9.16324552e-07 -1.65264976e-06 -2.04307321e-06 -4.30236969e-06
      -6.05810783e-06 -6.74379635e-06 -6.46813214e-06 -7.42741713e-06
      -4.38097186e-06 -2.97456199e-06 -2.33318224e-06 -2.24678161e-06
      1.87561527e-05 1.79885355e-05 1.67549806e-05 1.28225902e-05
      1.12478228e-05 9.93632239e-06 7.23824905e-06 6.57038663e-06
      3.64144398e-06 2.47888033e-06 3.14487039e-07 -3.35474761e-06
      -3.02672220e-06 -3.89780007e-06 -3.06888273e-06 -2.36597671e-07
      2.56263161e-06 4.69894576e-06 5.05312437e-06 4.98784902e-06
      3.55637212e-06 -2.36838531e-07 -3.49923653e-06 -6.50169341e-06
      -9.44723342e-06 -1.10691772e-05 -1.10417723e-05 -1.03769335e-05
      -9.00790747e-06 -6.96706002e-06 -3.69724125e-06 -1.89675291e-06
      -1.17507156e-07 2.55629993e-06 4.78424863e-06 5.96910468e-06
      6.21452136e-06 5.15847751e-06 4.47428829e-06 1.41625787e-06
      -1.98560497e-06 -4.00337103e-06 -5.25898940e-06 -8.05473701e-06
      -6.38874008e-06 -6.24353015e-06 -6.58178669e-06 -6.02498494e-06
      7.73086595e-06 7.64015294e-06 8.60680666e-06 7.10236145e-06
      8.93064862e-06 9.81291305e-06 9.72541784e-06 9.91811703e-06
      7.67189795e-06 5.64809397e-06 2.44385865e-06 -3.21576113e-06
      -4.19254184e-06 -6.35298375e-06 -6.48891319e-06 -4.73217779e-06
      -2.80159315e-06 -1.44624676e-06 -8.55159612e-07 -1.22653807e-06
      -2.85691749e-06 -6.81756728e-06 -9.66244534e-06 -1.19631004e-05
      -1.40498205e-05 -1.54664976e-05 -1.52078965e-05 -1.35771252e-05
      -1.11071686e-05 -7.75036006e-06 -3.45423450e-06 -1.00639875e-06
      1.83845032e-06 5.32607828e-06 7.59303975e-06 9.01698331e-06
      9.73020542e-06 9.24413234e-06 9.03989439e-06 6.18484592e-06
      2.29424904e-06 -3.06009241e-07 -2.76608125e-06 -6.65032621e-06
      -6.30218710e-06 -6.87121565e-06 -7.74616365e-06 -6.75170804e-06
      -1.01828000e-05 -9.46192358e-06 -6.10211191e-06 -5.09431266e-06
      3.54035251e-07 3.32100217e-06 6.37842913e-06 8.67518702e-06
      8.19031357e-06 6.45557247e-06 4.63284368e-06 -8.07080141e-07
      -1.32121568e-06 -3.36576477e-06 -3.99722740e-06 -3.28022816e-06
      -2.45810907e-06 -2.40392478e-06 -1.79978838e-06 -2.92966888e-06
      -4.84235261e-06 -8.08790173e-06 -1.01724881e-05 -1.23279578e-05
      -1.39971689e-05 -1.55614198e-05 -1.58744988e-05 -1.45562999e-05
      -1.25424349e-05 -9.33724368e-06 -5.47468426e-06 -3.78768982e-06
      -9.15413807e-07 2.14585793e-06 3.85855401e-06 5.44263366e-06
      7.11605617e-06 7.81867129e-06 8.63966761e-06 7.01832369e-06
      4.41342263e-06 2.41530870e-06 2.71847568e-07 -2.95267660e-06
      -2.67971882e-06 -2.65637664e-06 -3.03908678e-06 -1.69561156e-06
      -2.49618788e-05 -2.35280095e-05 -1.86127709e-05 -1.57803643e-05
      -7.92691571e-06 -3.37987035e-06 2.14740408e-06 6.96054531e-06
      8.30309818e-06 7.73325155e-06 8.16016109e-06 4.32559955e-06
      5.01431350e-06 3.75585478e-06 2.98217606e-06 2.98523196e-06
      2.90186017e-06 1.92534071e-06 2.26957241e-06 3.88087898e-07
      -1.80702409e-06 -3.97179656e-06 -5.28126520e-06 -7.48683942e-06
      -9.08455695e-06 -1.09688663e-05 -1.20977074e-05 -1.21077383e-05
      -1.16671135e-05 -1.00831294e-05 -8.14878513e-06 -8.12307007e-06
      -6.09116341e-06 -4.11116207e-06 -3.11898702e-06 -1.49215418e-06
      1.04234925e-06 2.72989746e-06 4.36222490e-06 4.01278157e-06
      3.35391292e-06 2.54197857e-06 1.99719079e-06 7.99623422e-07
      2.14775400e-06 3.66255244e-06 4.49000936e-06 5.99859823e-06
      -2.65647050e-05 -2.47536645e-05 -1.99869373e-05 -1.69599189e-05
      -9.58150395e-06 -5.04390391e-06 4.97443068e-07 6.15467570e-06
      7.69854159e-06 7.71006034e-06 8.76030572e-06 6.19581760e-06
      7.01660565e-06 5.91726302e-06 5.03167394e-06 4.78116044e-06
      4.71548083e-06 4.30977843e-06 5.30157513e-06 4.23251140e-06
      2.75962793e-06 2.13861222e-06 1.75953824e-06 -1.40744717e-07
      -1.71996044e-06 -3.66680069e-06 -4.96909206e-06 -6.10063444e-06
      -6.65274138e-06 -6.66154847e-06 -6.82560812e-06 -8.04960837e-06
      -7.08236485e-06 -6.13270777e-06 -5.91999606e-06 -4.87553689e-06
      -2.57564216e-06 -1.10389237e-06 2.11069079e-07 -8.38585450e-08
      -2.15743263e-08 -3.98770510e-07 2.71455235e-07 7.94381890e-07
      2.99220255e-06 5.46697447e-06 7.10729546e-06 8.41949895e-06
      -1.45465028e-05 -1.27814119e-05 -9.79691322e-06 -8.34037473e-06
      -4.35863967e-06 -1.79356141e-06 1.04242133e-06 4.91691026e-06
      4.95137692e-06 4.54670499e-06 4.27347550e-06 2.24342375e-06
      2.03629702e-06 6.18230331e-07 -3.03116110e-07 -4.48237586e-07
      3.38064041e-07 1.82100882e-06 4.39266660e-06 5.55457063e-06
      5.68904943e-06 6.58960016e-06 7.07738491e-06 5.79520201e-06
      4.29393413e-06 2.78063794e-06 2.15048476e-06 1.18196158e-06
      1.42598310e-06 1.25030033e-06 2.98597826e-07 -8.64701519e-07
      -5.81179336e-07 -3.47347964e-07 -1.12197790e-06 -1.63231323e-06
      -1.04485514e-06 -1.14498164e-06 -1.43225702e-06 -2.83265990e-06
      -3.73918147e-06 -4.70155237e-06 -4.00860927e-06 -2.75531011e-06
      -6.13909833e-07 1.71703937e-06 3.29452382e-06 4.14232181e-06
      8.43612554e-07 2.25743497e-06 3.00308830e-06 2.30826413e-06
      2.06137065e-06 1.87218507e-06 1.07201538e-06 1.65247866e-06
      -1.75491451e-07 -1.29177431e-06 -3.35269419e-06 -5.07175082e-06
      -6.16722627e-06 -7.43906230e-06 -8.19070192e-06 -7.91437287e-06
      -6.08731261e-06 -2.92595610e-06 9.71906388e-07 4.20294418e-06
      5.89783394e-06 7.76395791e-06 8.86165981e-06 8.36322033e-06
      7.20553453e-06 6.38522761e-06 6.60236537e-06 6.79668483e-06
      8.44494298e-06 8.88797877e-06 8.27395070e-06 7.83560517e-06
      7.75858734e-06 7.43556620e-06 5.68311179e-06 3.45868284e-06
      2.05475953e-06 3.92353087e-07 -1.51274753e-06 -3.52251823e-06
      -5.62894047e-06 -7.00341570e-06 -6.85676787e-06 -5.26279791e-06
      -3.82086637e-06 -2.29390025e-06 -1.31365118e-06 -9.18166677e-07
      9.06524110e-06 1.00694606e-05 9.60970374e-06 7.76595334e-06
      4.93939342e-06 2.91995934e-06 -2.12235207e-07 -2.53088274e-06
      -5.29338149e-06 -6.77464004e-06 -9.72782800e-06 -1.09642906e-05
      -1.18742892e-05 -1.25470588e-05 -1.32110745e-05 -1.25296074e-05
      -1.03441007e-05 -7.11473558e-06 -3.40671136e-06 3.42952887e-07
      2.76140850e-06 4.93429206e-06 6.33921354e-06 6.75513047e-06
      6.42686246e-06 6.30102340e-06 7.15952365e-06 8.46974217e-06
      1.03304428e-05 1.08506665e-05 1.06479538e-05 1.05838217e-05
      1.02085560e-05 9.48916750e-06 7.41195345e-06 4.76996729e-06
      2.76226751e-06 1.04564629e-06 -1.00968305e-06 -1.98929160e-06
      -4.16439707e-06 -5.04362015e-06 -5.53904556e-06 -3.99837018e-06
      -3.91545700e-06 -3.75613581e-06 -3.74661204e-06 -3.72183649e-06
      9.70835026e-06 1.04022029e-05 1.00184625e-05 8.31923990e-06
      4.99455882e-06 2.56867293e-06 -8.64387573e-07 -4.57172246e-06
      -6.91248670e-06 -8.19253364e-06 -1.07737278e-05 -1.11440713e-05
      -1.09549137e-05 -1.11626659e-05 -1.20238674e-05 -1.13472852e-05
      -9.94323364e-06 -8.40161465e-06 -6.80120684e-06 -4.64115601e-06
      -3.14348449e-06 -1.75763523e-06 -7.04587762e-07 3.90188774e-07
      1.27627584e-06 2.15995487e-06 4.06983690e-06 6.26897736e-06
      7.40045198e-06 7.47125205e-06 7.24610754e-06 6.92122057e-06
      6.05110608e-06 5.15011516e-06 3.40069323e-06 1.80857649e-06
      7.38751396e-07 2.93817351e-07 -4.21579728e-07 5.24818745e-07
      -6.58487011e-07 -5.87323370e-07 -1.73524882e-06 -1.04768390e-06
      -2.78072253e-06 -4.42138980e-06 -5.67277129e-06 -5.96726522e-06
      7.61286401e-06 8.16782722e-06 8.19506658e-06 7.16721388e-06
      4.34777121e-06 2.45722345e-06 3.96447994e-08 -3.42117119e-06
      -4.44201032e-06 -5.09401616e-06 -6.60809155e-06 -5.89589035e-06
      -4.63133301e-06 -4.53396524e-06 -5.52287975e-06 -4.85995361e-06
      -4.54570909e-06 -4.87141915e-06 -5.83563769e-06 -6.27681993e-06
      -7.13409418e-06 -7.64122069e-06 -7.69688813e-06 -6.73480918e-06
      -4.99362068e-06 -2.91279207e-06 3.82699852e-07 3.26648978e-06
      3.70361545e-06 3.34080983e-06 2.57779107e-06 1.47889443e-06
      -2.21371224e-07 -1.06913058e-06 -2.37610152e-06 -2.50927042e-06
      -2.07066660e-06 -1.12959196e-06 -1.81719003e-07 2.20315997e-06
      2.21062601e-06 2.99720932e-06 1.39831536e-06 9.65138724e-07
      -2.07965218e-06 -5.06812194e-06 -7.30250940e-06 -7.74330147e-06
      3.59994601e-06 4.28455905e-06 4.60785304e-06 4.60571800e-06
      3.07595792e-06 2.58584714e-06 1.79768870e-06 -1.19838120e-07
      2.37596652e-07 2.51002660e-07 -3.81438667e-07 8.49454864e-07
      2.12587702e-06 2.38436928e-06 1.52968687e-06 2.58298996e-06
      2.55431473e-06 1.80657992e-06 -5.24588302e-08 -1.97435475e-06
      -4.89818422e-06 -7.24558595e-06 -8.63301557e-06 -8.92076332e-06
      -7.74745240e-06 -5.50463938e-06 -1.95738130e-06 7.34745811e-07
      6.31504520e-07 1.03603703e-07 -1.15518776e-06 -2.71420686e-06
      -4.73454566e-06 -4.90255115e-06 -5.57073599e-06 -4.49966410e-06
      -2.69208363e-06 -1.05103311e-06 7.56068459e-07 3.47040623e-06
      4.14651959e-06 5.15569809e-06 3.57123076e-06 2.84656426e-06
      -1.37119159e-07 -3.11754070e-06 -5.35198433e-06 -5.60360422e-06
      -2.70466171e-06 -1.77943787e-06 -1.19780736e-06 1.03655317e-07
      5.11185988e-07 1.98945418e-06 2.93005905e-06 3.16887827e-06
      4.57319948e-06 5.27785824e-06 5.30098578e-06 6.31331341e-06
      6.62271532e-06 6.69403835e-06 5.97688995e-06 7.13579448e-06
      6.99327074e-06 6.63732180e-06 5.25501082e-06 3.23398081e-06
      -5.58709644e-07 -3.87315458e-06 -6.29852275e-06 -8.31281704e-06
      -8.75635487e-06 -7.53885161e-06 -5.06730203e-06 -3.31414253e-06
      -3.47897662e-06 -3.56967030e-06 -4.40032863e-06 -5.23994322e-06
      -6.21560685e-06 -5.14664589e-06 -4.87075658e-06 -3.05737785e-06
      -5.61461547e-07 8.63850119e-07 2.32875709e-06 4.45603655e-06
      5.22479468e-06 6.19082039e-06 5.40661495e-06 5.78019080e-06
      4.46025115e-06 3.04032437e-06 2.00264299e-06 2.30324167e-06
      -8.09771154e-06 -7.29309977e-06 -6.92592039e-06 -5.22733762e-06
      -3.91576486e-06 -1.37000450e-06 6.07889490e-07 2.71178101e-06
      5.00125770e-06 6.88060663e-06 8.10168967e-06 9.25172935e-06
      9.03348609e-06 8.97637165e-06 8.42958980e-06 8.90800584e-06
      8.00734415e-06 7.27815677e-06 5.92610877e-06 3.82340249e-06
      -8.05666147e-08 -3.50464052e-06 -6.31188232e-06 -9.07111462e-06
      -1.03478751e-05 -9.94180846e-06 -8.45845352e-06 -7.53170525e-06
      -7.19526906e-06 -6.54354608e-06 -6.33680611e-06 -6.11654195e-06
      -5.50469667e-06 -3.63429376e-06 -2.71266390e-06 -8.23961386e-07
      1.29250202e-06 1.74338936e-06 2.05522974e-06 3.10547784e-06
      3.70505882e-06 4.52407403e-06 5.15550300e-06 7.45947727e-06
      8.81985125e-06 9.79450306e-06 1.06472153e-05 1.17094551e-05
      -9.69321536e-06 -9.51091351e-06 -1.01227006e-05 -9.75252260e-06
      -9.71662666e-06 -8.07826655e-06 -6.29857141e-06 -3.37881602e-06
      -4.82824760e-07 2.80645691e-06 5.68693213e-06 7.80831851e-06
      8.31279067e-06 8.86586713e-06 8.86317866e-06 8.73641056e-06
      7.28862460e-06 5.79904872e-06 4.26957240e-06 2.14460806e-06
      -1.05834465e-06 -3.71863189e-06 -6.09709696e-06 -8.18798799e-06
      -8.95864378e-06 -8.83186294e-06 -8.05006221e-06 -7.90563445e-06
      -7.61631782e-06 -7.09011465e-06 -6.46686840e-06 -6.44312786e-06
      -5.12871657e-06 -3.46395655e-06 -2.52612949e-06 -9.45853742e-07
      3.37377060e-07 -9.88026301e-08 -6.11091082e-07 -3.85997339e-07
      1.34255302e-07 7.47245394e-07 2.44964986e-06 6.06147069e-06
      9.52336541e-06 1.21058129e-05 1.43518118e-05 1.59804931e-05
      -7.32531544e-06 -7.82954430e-06 -9.53005201e-06 -1.12689549e-05
      -1.35654855e-05 -1.42683266e-05 -1.39162839e-05 -1.17787013e-05
      -9.46477758e-06 -5.93520554e-06 -2.35787365e-06 4.24565570e-07
      2.04358093e-06 3.86558395e-06 4.82324458e-06 5.05384469e-06
      4.49733034e-06 3.20614618e-06 2.46792729e-06 1.08060340e-06
      -6.77390574e-07 -2.10129519e-06 -3.68150586e-06 -4.57996157e-06
      -4.36924574e-06 -4.37767221e-06 -4.42652799e-06 -4.96580014e-06
      -5.50588220e-06 -6.19284810e-06 -6.06496224e-06 -7.42502698e-06
      -6.56819157e-06 -5.68712494e-06 -4.96880739e-06 -3.58664420e-06
      -2.68602457e-06 -3.07912887e-06 -3.22404071e-06 -2.81629605e-06
      -1.97645295e-06 -1.37060192e-06 4.28147928e-07 3.71679266e-06
      7.24463098e-06 9.43727446e-06 1.15411985e-05 1.31039051e-05
      -1.52622169e-06 -2.36217056e-06 -4.44763236e-06 -7.61228011e-06
      -1.16221827e-05 -1.47819728e-05 -1.65722104e-05 -1.66385089e-05
      -1.66012142e-05 -1.47515020e-05 -1.23692789e-05 -1.01998185e-05
      -8.20289733e-06 -5.29046974e-06 -3.42923408e-06 -2.36403616e-06
      -1.26052487e-06 -1.63311961e-06 -1.26623911e-06 -1.76450715e-06
      -2.33714286e-06 -2.79102733e-06 -3.68614883e-06 -3.19592550e-06
      -1.84075418e-06 -1.20573100e-06 -1.46289744e-06 -1.73975525e-06
      -2.46172544e-06 -4.09114136e-06 -4.43277759e-06 -6.74763805e-06
      -6.69676410e-06 -6.47885963e-06 -5.86303258e-06 -4.78062566e-06
      -4.24185419e-06 -4.29305783e-06 -3.88434091e-06 -2.98123564e-06
      -1.87512717e-06 -1.31881541e-06 -1.79046424e-07 1.54798727e-06
      3.40769907e-06 3.88090712e-06 4.61847048e-06 5.53998598e-06
      4.59691319e-06 3.83407905e-06 2.22784251e-06 -1.03830928e-06
      -5.31782507e-06 -9.68259064e-06 -1.29496711e-05 -1.49830657e-05
      -1.74379893e-05 -1.77385264e-05 -1.74083634e-05 -1.65372621e-05
      -1.50173546e-05 -1.19747656e-05 -9.97478128e-06 -8.75393653e-06
      -6.78845481e-06 -6.61635522e-06 -5.90353693e-06 -6.00052863e-06
      -6.01983083e-06 -5.83591782e-06 -6.17331261e-06 -4.14679289e-06
      -1.81533062e-06 2.45278017e-07 6.60125409e-07 1.40438419e-06
      1.69014743e-06 3.21443594e-07 2.15372864e-07 -1.72439945e-06
      -2.14879719e-06 -2.26773136e-06 -1.73879585e-06 -1.49818516e-06
      -2.03150012e-06 -2.57460192e-06 -2.88140836e-06 -2.47218986e-06
      -1.94159315e-06 -2.15163732e-06 -2.03444574e-06 -2.05542938e-06
      -2.07338962e-06 -3.06541961e-06 -3.65412689e-06 -3.43545162e-06
      6.30297291e-06 5.88258035e-06 5.23480912e-06 2.96842904e-06
      -1.02225009e-07 -3.67779376e-06 -6.47452998e-06 -8.49458229e-06
      -1.15380353e-05 -1.26081877e-05 -1.34936308e-05 -1.35494411e-05
      -1.28378306e-05 -1.06299913e-05 -9.42992210e-06 -8.93182914e-06
      -7.13254076e-06 -6.84696215e-06 -6.28031012e-06 -6.16905618e-06
      -5.82439043e-06 -5.31665683e-06 -5.38621407e-06 -2.85191641e-06
      -7.30546844e-07 2.01902117e-06 2.80258246e-06 4.10854227e-06
      5.38791210e-06 4.87001716e-06 5.32328704e-06 4.37197741e-06
      3.65858750e-06 3.24777034e-06 3.65672099e-06 2.96557050e-06
      1.53988401e-06 1.65019088e-07 -1.31361037e-06 -1.77620529e-06
      -2.18016226e-06 -3.47870650e-06 -4.29010606e-06 -5.47140689e-06
      -6.49613457e-06 -8.00762336e-06 -9.14615339e-06 -9.35471871e-06
      3.33805428e-06 3.32865511e-06 3.61250045e-06 2.81849384e-06
      1.78679727e-06 4.26685091e-07 -3.53632231e-07 -6.21795834e-07
      -2.24328892e-06 -2.82385031e-06 -3.83679753e-06 -4.33726154e-06
      -4.48923447e-06 -3.58043371e-06 -3.66142353e-06 -4.13199677e-06
      -2.94236952e-06 -2.64409687e-06 -2.33560127e-06 -2.03583568e-06
      -1.47387982e-06 -1.19111064e-06 -1.28048953e-06 1.99681821e-07
      9.74774366e-07 2.93509561e-06 3.05982894e-06 4.06746540e-06
      5.38850281e-06 5.46962701e-06 6.39742757e-06 6.35123843e-06
      5.49438619e-06 5.02725152e-06 5.67992129e-06 4.76948253e-06
      3.72652926e-06 2.29645912e-06 8.63782248e-07 5.96805307e-07
      -2.89521882e-08 -1.61900141e-06 -2.76425499e-06 -4.31138596e-06
      -5.39361736e-06 -6.82114705e-06 -7.99537429e-06 -8.42537429e-06
      1.16086497e-07 3.57314690e-07 1.18129788e-06 1.68562110e-06
      2.54328097e-06 3.37233996e-06 4.53602297e-06 6.06050662e-06
      6.18948661e-06 6.03192211e-06 5.00738906e-06 4.02946580e-06
      2.91666288e-06 2.41384078e-06 1.04011588e-06 -2.40360407e-07
      3.71054405e-08 5.22063388e-08 -1.17036187e-07 1.70963915e-07
      6.09627364e-07 4.88692422e-07 7.68731354e-07 1.21312576e-06
      1.00838383e-06 1.76526100e-06 9.80580239e-07 1.51317283e-06
      2.36328856e-06 2.77490221e-06 4.26987117e-06 5.22312939e-06
      4.83810345e-06 5.13691748e-06 6.47317074e-06 5.88039484e-06
      5.77105402e-06 4.77936192e-06 4.29362763e-06 4.86434101e-06
      4.55017516e-06 3.47620994e-06 2.56800445e-06 1.06735854e-06
      3.36412853e-07 -9.25623624e-07 -2.11037946e-06 -2.67076871e-06
      2.09505828e-07 4.28258772e-07 1.18193589e-06 2.24931591e-06
      4.02760134e-06 5.67831012e-06 7.43589271e-06 9.44435942e-06
      1.02751901e-05 9.91488560e-06 8.56402039e-06 7.09553797e-06
      5.23350991e-06 3.64760035e-06 1.55079806e-06 1.22719968e-07
      -3.91623161e-07 -7.49225535e-07 -1.19470246e-06 -1.07059054e-06
      -1.11563816e-06 -1.58270859e-06 -8.43650241e-07 -6.54521386e-07
      -1.08829238e-06 -1.20812877e-06 -2.32684874e-06 -1.86176408e-06
      -1.12826251e-06 -2.02955633e-07 2.19003346e-06 4.40011172e-06
      5.19515561e-06 6.94958135e-06 8.83015218e-06 8.39962740e-06
      8.52133053e-06 7.54731991e-06 7.53943641e-06 8.15128533e-06
      7.82752795e-06 7.22729919e-06 6.74450393e-06 5.28173223e-06
      4.89454897e-06 3.79884068e-06 2.62650747e-06 2.10832377e-06
      2.76116634e-06 2.78861080e-06 2.91174661e-06 3.64887774e-06
      5.21837092e-06 6.11147243e-06 7.09762617e-06 8.24391191e-06
      8.75975365e-06 8.14403120e-06 6.81335814e-06 5.51266157e-06
      3.77286642e-06 2.05277843e-06 3.91672074e-07 -1.08255334e-08
      -3.94371028e-07 -5.08589949e-07 -2.64787133e-07 -4.71777746e-08
      -5.88826765e-07 -1.61376931e-06 -1.56310148e-06 -2.22492190e-06
      -3.54661961e-06 -5.07403411e-06 -6.60251408e-06 -6.29454917e-06
      -5.41699001e-06 -3.77526635e-06 -3.24625717e-07 3.05477238e-06
      5.20395633e-06 8.22937091e-06 1.00309871e-05 9.45232478e-06
      8.95370431e-06 7.46021442e-06 7.16345949e-06 6.88591172e-06
      6.27045893e-06 6.04248589e-06 6.20955780e-06 5.04599893e-06
      5.26345912e-06 4.74945227e-06 3.94408835e-06 3.77398601e-06
      3.68124029e-06 3.57058457e-06 2.97134329e-06 3.04289961e-06
      3.97579424e-06 3.66820927e-06 3.62600213e-06 3.66991617e-06
      3.83497854e-06 3.65738879e-06 3.28960186e-06 3.17827266e-06
      2.61175933e-06 1.82142264e-06 1.56524743e-06 2.85532383e-06
      3.42649651e-06 4.13485623e-06 5.86101851e-06 6.61735521e-06
      6.13161455e-06 4.62015396e-06 3.05928620e-06 5.29909016e-07
      -2.73797764e-06 -6.52339941e-06 -9.29068392e-06 -9.94102538e-06
      -9.41141388e-06 -7.49438959e-06 -3.59520345e-06 1.20277363e-07
      2.99685166e-06 6.24175937e-06 7.27883207e-06 6.42504301e-06
      4.92376103e-06 2.81365237e-06 1.99393457e-06 7.91925061e-07
      1.48259915e-07 5.98135387e-07 1.73820888e-06 1.59083754e-06
      2.97440533e-06 3.69315967e-06 3.64368543e-06 4.08472806e-06
      1.33364540e-06 1.27103942e-06 2.88994556e-07 -8.93835903e-08
      3.95228625e-07 -5.93425511e-07 -1.10424173e-06 -1.55569637e-06
      -1.27221688e-06 -4.79578375e-07 5.06541312e-07 1.95562393e-06
      2.91867104e-06 3.40919269e-06 4.49996742e-06 6.96431516e-06
      8.24340805e-06 9.48276465e-06 1.22997317e-05 1.34969932e-05
      1.35905993e-05 1.21820549e-05 9.60557645e-06 5.84424470e-06
      1.23708276e-06 -4.05069250e-06 -7.91240655e-06 -9.78684147e-06
      -1.00953712e-05 -8.70708755e-06 -5.68105543e-06 -2.86985619e-06
      -2.78842379e-07 2.10402413e-06 2.21332311e-06 1.36198094e-06
      -9.00966825e-07 -3.21286029e-06 -4.39608129e-06 -6.12813938e-06
      -6.66250799e-06 -5.76375305e-06 -4.00628596e-06 -2.87307216e-06
      -3.59210674e-07 1.67352562e-06 2.31550939e-06 3.40627184e-06
      -4.53479629e-07 -2.63018336e-07 -1.33137053e-06 -2.16897411e-06
      -2.22375752e-06 -3.63903632e-06 -4.41278144e-06 -5.06581864e-06
      -4.75744991e-06 -3.48791377e-06 -1.94077006e-06 2.57474937e-07
      2.08167580e-06 3.23784843e-06 4.65840321e-06 7.22650157e-06
      8.38272899e-06 9.47453464e-06 1.23367163e-05 1.35601686e-05
      1.43289508e-05 1.36897042e-05 1.14794548e-05 8.27320491e-06
      4.10517850e-06 -7.66304709e-07 -4.57100805e-06 -7.19132959e-06
      -8.38306914e-06 -8.08613095e-06 -7.02439593e-06 -5.74648948e-06
      -3.95622919e-06 -2.52238647e-06 -2.63028983e-06 -2.62273397e-06
      -4.63813421e-06 -6.29497117e-06 -7.42844077e-06 -9.25550194e-06
      -9.90161607e-06 -9.51489528e-06 -8.22899983e-06 -6.53030793e-06
      -3.88592753e-06 -1.42582735e-06 -6.22236769e-07 9.15851842e-07
      2.49644381e-06 3.05944741e-06 1.93097685e-06 1.12158297e-07
      -1.10741098e-06 -3.22641449e-06 -4.63459401e-06 -5.62160312e-06
      -5.89778347e-06 -5.16089267e-06 -4.15739396e-06 -2.43395493e-06
      -7.87951024e-07 2.10483808e-08 6.62692230e-07 2.62543267e-06
      3.33395974e-06 4.08727283e-06 6.40251619e-06 7.64638662e-06
      8.90309002e-06 9.48844809e-06 8.50385914e-06 6.81143001e-06
      4.13382759e-06 8.08046650e-07 -2.24632754e-06 -5.21810807e-06
      -7.22993673e-06 -8.16152988e-06 -9.06962396e-06 -8.94702316e-06
      -7.79168840e-06 -6.62703087e-06 -6.19346292e-06 -4.63379229e-06
      -5.29249246e-06 -5.60577882e-06 -6.12737631e-06 -7.29563999e-06
      -7.91820548e-06 -8.35023820e-06 -8.14413852e-06 -6.69984775e-06
      -4.99001999e-06 -3.25682481e-06 -2.81288499e-06 -1.14993099e-06
      9.34264790e-06 1.01899050e-05 8.90686533e-06 5.64773018e-06
      2.74164881e-06 -2.49522060e-07 -2.55170494e-06 -3.69576287e-06
      -4.80170911e-06 -4.99549287e-06 -4.80271956e-06 -3.98096381e-06
      -2.94675851e-06 -3.02636022e-06 -3.48716389e-06 -2.11437577e-06
      -1.42403519e-06 -6.76016782e-07 1.13244187e-06 2.65913832e-06
      4.04096727e-06 6.01147121e-06 6.30784234e-06 5.82109578e-06
      4.61344462e-06 2.95076347e-06 7.82728989e-07 -2.30312889e-06
      -5.13985697e-06 -7.16282284e-06 -9.28896225e-06 -9.85150655e-06
      -9.31368868e-06 -8.26363339e-06 -7.60317289e-06 -4.89808463e-06
      -4.08516780e-06 -3.24757912e-06 -2.88818205e-06 -2.50830317e-06
      -2.35113112e-06 -2.57657530e-06 -2.82697511e-06 -1.46288926e-06
      -6.69384690e-07 6.06084356e-08 8.98838124e-08 1.65873325e-06
      1.58761904e-05 1.68088918e-05 1.53545716e-05 1.08409886e-05
      6.43685416e-06 2.80209656e-06 -2.02943085e-07 -1.10499650e-06
      -2.73011392e-06 -3.53854466e-06 -3.72729642e-06 -3.38230211e-06
      -2.70257033e-06 -3.46016304e-06 -4.56643829e-06 -3.34868309e-06
      -2.16247986e-06 -1.10631754e-06 4.55242173e-07 2.31982062e-06
      3.50221239e-06 6.59708530e-06 7.81380641e-06 7.88588295e-06
      7.69777489e-06 7.43211922e-06 6.15646422e-06 3.17911372e-06
      -3.99694017e-07 -3.23572363e-06 -5.91546177e-06 -7.14442103e-06
      -7.49775245e-06 -7.02845182e-06 -6.99233215e-06 -4.15090653e-06
      -2.64956361e-06 -1.43195166e-06 -4.40373441e-07 1.67172971e-06
      3.13436362e-06 4.14785382e-06 4.38952702e-06 6.40887629e-06
      7.15719852e-06 7.50999016e-06 7.44883937e-06 8.92996013e-06
      1.84908313e-05 1.94197000e-05 1.78933933e-05 1.28977872e-05
      7.90078138e-06 4.04333969e-06 7.85293821e-07 8.11118426e-08
      -1.68420479e-06 -2.67256632e-06 -2.91689889e-06 -2.64929372e-06
      -2.03504305e-06 -3.00189708e-06 -4.26136285e-06 -3.00503848e-06
      -1.49707898e-06 -2.53081168e-07 1.24711562e-06 3.24778557e-06
      4.27647183e-06 7.80309074e-06 9.36033211e-06 9.57168595e-06
      9.75787771e-06 1.00890966e-05 9.24030246e-06 6.36220739e-06
      2.46488094e-06 -6.87003421e-07 -3.52400116e-06 -5.11210692e-06
      -5.96185509e-06 -5.90313175e-06 -6.34901608e-06 -3.67363054e-06
      -2.07082644e-06 -8.64800882e-07 3.24033664e-07 3.19983610e-06
      5.33433558e-06 7.08860125e-06 7.74589080e-06 1.02515514e-05
      1.12198841e-05 1.15940993e-05 1.15867233e-05 1.30517583e-05
      1.01100579e-06 3.94777118e-07 -1.53366315e-07 -1.79802853e-07
      -1.08765641e-06 -2.18554987e-06 1.13346374e-07 5.04846048e-06
      7.97081520e-06 8.21387312e-06 7.53547647e-06 5.18999104e-06
      2.12970144e-06 -7.68834013e-07 -2.63076140e-06 -3.52090547e-06
      -3.72697673e-06 -3.89096249e-06 -3.32310810e-06 -2.29673014e-06
      -2.40374061e-06 -4.21172854e-06 -5.39374923e-06 -4.43400404e-06
      -3.33019739e-06 -2.50030075e-06 -1.05830907e-06 -6.10000484e-07
      -1.85494358e-07 -2.39565338e-07 -1.29288367e-06 -2.45175056e-06
      -5.02564353e-06 -7.70825500e-06 -9.78309163e-06 -9.24062442e-06
      -6.59502757e-06 -4.31079661e-06 -3.36907101e-06 -5.86763372e-06
      -9.38919857e-06 -9.50586946e-06 -5.49565493e-06 -2.00057866e-06
      8.03120713e-07 2.42068791e-06 2.92578079e-06 3.15012380e-06
      -8.47893844e-08 1.85866122e-06 2.98549890e-06 2.87554280e-06
      1.64757137e-06 5.10466350e-07 -4.32046619e-07 9.72773819e-07
      3.99171267e-06 5.30656280e-06 5.14885460e-06 5.20077128e-06
      3.70345833e-06 1.56254657e-06 -2.10965510e-07 -1.76096057e-06
      -3.08191238e-06 -3.88539456e-06 -3.88541412e-06 -2.64617825e-06
      -2.59632043e-06 -5.55093220e-06 -7.38295466e-06 -6.33229592e-06
      -4.32282650e-06 -2.44660896e-06 -2.31421654e-06 -1.00043189e-06
      -1.03291279e-06 -1.02783656e-06 -6.09586266e-07 -5.75290585e-07
      -8.17381249e-07 -2.99220142e-06 -5.51905259e-06 -7.11923667e-06
      -7.13120107e-06 -5.06381457e-06 -2.97000179e-06 -2.62030176e-06
      -5.11058943e-06 -7.93222716e-06 -7.26446751e-06 -3.91246476e-06
      -1.34711604e-06 3.84812552e-07 1.14113959e-06 1.43496607e-06
      -1.53451128e-06 7.75841841e-07 2.73968271e-06 3.92658740e-06
      3.90542073e-06 2.68642202e-06 2.24004179e-06 1.26862301e-06
      6.13341228e-07 1.07756887e-06 1.43118791e-06 1.47938908e-06
      2.17980346e-06 2.02089132e-06 2.14592001e-06 6.66890116e-07
      -1.66398411e-06 -3.02430408e-06 -3.77706669e-06 -3.63757658e-06
      -2.73886485e-06 -4.33090918e-06 -6.89202307e-06 -7.34482046e-06
      -6.22739935e-06 -3.56533792e-06 -2.99762746e-06 -1.96707697e-06
      -1.13054728e-06 -1.30086619e-06 -1.90309026e-06 -1.00052910e-06
      -8.65098286e-07 -2.19431683e-07 -3.98642612e-07 -1.29600301e-06
      -3.23924473e-06 -4.31334320e-06 -3.51987296e-06 -1.57002012e-06
      -1.20566881e-06 -3.44130672e-06 -5.74194792e-06 -5.60734088e-06
      -3.86813235e-06 -2.16179023e-06 -1.39012548e-06 -1.25889551e-06
      -2.87597618e-06 -1.41690407e-06 9.18935825e-07 2.62508206e-06
      3.04419063e-06 2.93201947e-06 1.91440040e-06 8.76426043e-07
      -5.33004254e-07 -1.67388544e-06 -2.15684099e-06 -2.87913099e-06
      -1.84132239e-06 -4.53336668e-07 1.09736141e-06 2.42169176e-06
      1.33660581e-06 -1.34854054e-06 -2.86240356e-06 -4.66471238e-06
      -5.03650108e-06 -5.07895129e-06 -5.06127071e-06 -4.81828829e-06
      -4.20579545e-06 -3.02718695e-06 -2.20388142e-06 -1.46129253e-06
      -7.05699904e-07 5.81707809e-07 -2.88529890e-07 -1.09807024e-06
      -1.38137489e-06 -1.45984507e-06 -5.52642916e-07 1.11714803e-06
      1.08133167e-06 -7.90207480e-07 -2.86735735e-06 -2.05355968e-06
      -7.66139294e-07 -9.11595464e-07 -2.91630022e-06 -4.45248588e-06
      -4.18642094e-06 -3.37505821e-06 -2.90797152e-06 -2.98501868e-06
      -1.62216577e-06 -2.15374257e-06 -1.07475250e-06 1.33930413e-07
      9.51360619e-07 1.28276633e-06 6.61419790e-07 -8.39791085e-07
      -2.26281145e-06 -3.81128234e-06 -4.72508600e-06 -4.99508815e-06
      -5.21408356e-06 -3.76417847e-06 -2.09092377e-06 -1.37370921e-06
      8.51730633e-08 -5.92217404e-08 -1.36027847e-06 -4.17263163e-06
      -6.11308360e-06 -6.78481683e-06 -6.04310389e-06 -3.25890483e-06
      8.51128164e-08 1.38026985e-06 1.29245188e-06 -6.94918114e-08
      -3.17922627e-07 1.00458158e-06 1.84215457e-06 1.40975453e-06
      2.89738381e-07 -7.98876158e-07 -4.13729737e-07 3.92450858e-07
      1.08103268e-06 9.34389959e-07 4.59323530e-07 -7.75281876e-07
      -7.99764223e-07 -3.35933862e-07 -7.17841360e-08 -7.03519277e-07
      -8.75040769e-07 -1.03988202e-06 -1.65254926e-06 -1.96712540e-06
      1.52126393e-06 7.46885405e-07 -1.85958751e-08 -6.80838184e-07
      -9.40032976e-07 -9.90914373e-07 -1.25434235e-06 -2.18594028e-06
      -3.37978213e-06 -4.39403857e-06 -4.97332076e-06 -5.24616871e-06
      -4.65271842e-06 -4.50291964e-06 -4.38611369e-06 -4.20274546e-06
      -3.88091894e-06 -2.63016568e-06 -1.46342165e-06 -2.29549278e-06
      -4.82104679e-06 -6.68811663e-06 -6.95788322e-06 -5.76958291e-06
      -1.52651558e-06 2.24319297e-06 3.73315061e-06 2.15194632e-06
      -8.08622588e-07 -1.57791317e-06 -1.81639237e-07 1.21907703e-06
      2.16555259e-06 1.90052788e-06 1.19682932e-06 1.24289954e-06
      1.13929252e-06 1.14252066e-06 1.05331742e-06 1.33418280e-06
      1.13863246e-06 9.56452823e-07 6.38570214e-07 8.72255157e-07
      1.41943281e-06 2.72451462e-06 2.34767117e-06 1.68026440e-06
      3.66858762e-06 3.56838655e-06 3.56013470e-06 2.03024524e-06
      1.27293958e-07 -2.17836941e-06 -3.20690424e-06 -3.57236604e-06
      -4.01598436e-06 -3.89402385e-06 -3.71693363e-06 -4.10805023e-06
      -4.67445852e-06 -3.85861313e-06 -3.27053931e-06 -4.29016609e-06
      -5.05692742e-06 -4.72794318e-06 -3.19666151e-06 -2.34773233e-06
      -2.20207630e-06 -4.02130945e-06 -5.54631106e-06 -6.10247207e-06
      -5.18588422e-06 -2.62571621e-06 1.52526908e-07 1.66291022e-06
      1.99765935e-07 -3.69544887e-06 -4.83695339e-06 -3.15395778e-06
      -1.00581690e-06 1.15910905e-06 1.64490871e-06 1.77615493e-06
      1.07717801e-06 9.16870363e-07 1.47972150e-06 1.88485558e-06
      2.08064307e-06 2.25044755e-06 2.20724360e-06 9.82549523e-07
      5.51938911e-07 1.51179324e-06 2.71314525e-06 3.14538806e-06
      2.37238351e-06 3.01982891e-06 4.23194433e-06 4.47735692e-06
      3.43589591e-06 4.46826817e-07 -2.08079928e-06 -3.68839687e-06
      -3.63269191e-06 -3.52779375e-06 -2.31779927e-06 -1.34459481e-06
      -2.88959723e-06 -3.61656998e-06 -3.14469798e-06 -2.50544758e-06
      -2.21026062e-06 -3.39708413e-06 -3.94118615e-06 -3.04630703e-06
      -1.96893166e-06 -2.01391617e-06 -3.25032624e-06 -3.43153602e-06
      -4.66096390e-06 -4.43743647e-06 -4.14142232e-06 -2.96244730e-06
      -1.85470003e-06 -3.33108846e-06 -6.07023458e-06 -6.31284911e-06
      -5.10177779e-06 -2.36303276e-06 7.07910246e-08 8.32343176e-07
      4.09586249e-07 -6.89013149e-08 3.07795005e-07 1.14705711e-06
      2.06517961e-06 2.11021370e-06 1.87382568e-06 1.11214968e-06
      -3.30192961e-07 -7.54550911e-07 -1.15275543e-06 -6.30707802e-07
      8.99713314e-07 9.40801101e-07 1.79110680e-06 2.76189780e-06
      3.67442431e-06 3.18660614e-06 1.14495947e-06 -1.47055289e-07
      -1.12846931e-06 -2.09060090e-06 -1.73615717e-06 6.65597426e-08
      -1.35685127e-07 -1.44924320e-06 -2.62498224e-06 -3.01921227e-06
      -2.03720265e-06 -1.52054338e-06 -1.29882505e-06 -1.10184078e-06
      -2.24592853e-07 -4.66663437e-07 -1.10929818e-06 -1.09512996e-06
      -2.05129072e-06 -2.15141995e-06 -3.21383027e-06 -4.06659638e-06
      -4.38687130e-06 -3.40487441e-06 -4.37255540e-06 -5.84558074e-06
      -5.90565287e-06 -4.61621221e-06 -2.21212804e-06 -6.90363606e-07
      -2.91135194e-07 -1.08220797e-06 -1.70887608e-06 -1.30594879e-06
      -2.01413627e-07 8.66987534e-07 1.10800693e-06 2.93146911e-07
      -1.54449572e-06 -2.79635219e-06 -3.63054573e-06 -3.84002260e-06
      3.06222489e-07 -5.81936774e-07 -1.24970074e-06 -8.23850314e-07
      6.80900200e-07 2.86614818e-06 3.06013499e-06 3.07554501e-06
      1.74551087e-06 4.44247064e-07 -9.67844926e-07 1.59569112e-07
      1.73266551e-06 7.79146774e-07 -1.15967019e-07 -1.43972966e-06
      -1.44762976e-06 -7.75836781e-07 -3.12064685e-07 4.20266133e-07
      2.44050125e-06 2.99213730e-06 1.61099410e-06 1.28163902e-06
      -4.11225983e-07 -1.96868669e-07 -1.68582380e-06 -1.75812738e-06
      -3.36814810e-06 -3.73842249e-06 -2.75164621e-06 -3.64672974e-06
      -3.89490515e-06 -3.87526416e-06 -3.08034987e-06 -1.30939929e-06
      -3.77181465e-07 -8.48292473e-07 -2.44546936e-06 -3.66197969e-06
      -3.54918461e-06 -2.47435105e-06 -1.04254514e-06 -1.01735213e-06
      -1.91812796e-06 -3.39041299e-06 -4.12003419e-06 -4.23018764e-06
      2.14343095e-06 1.06104733e-06 -9.56873123e-07 -3.04572882e-06
      -3.24252483e-06 1.32023130e-08 1.81975952e-06 3.66000563e-06
      2.42333977e-06 1.71253009e-06 -6.51262837e-07 -5.79691573e-07
      5.47860452e-07 2.20907327e-06 1.62998992e-06 1.07253902e-06
      6.07610957e-07 5.79516382e-07 9.04632202e-07 6.24020004e-07
      2.50422340e-06 4.57455462e-06 5.12956467e-06 3.91809863e-06
      1.93207370e-06 2.02810867e-07 -2.24822907e-06 -2.21191794e-06
      -3.25783435e-06 -4.30070577e-06 -3.72703084e-06 -2.46516402e-06
      -1.51724760e-06 -8.67608605e-07 -1.03044897e-08 1.10091344e-06
      2.70595820e-06 2.02303227e-06 5.28947112e-07 -1.52944187e-06
      -2.91192646e-06 -2.97716861e-06 -1.84938426e-06 -1.48116715e-06
      -2.26356838e-06 -3.54544045e-06 -4.10944494e-06 -4.11057681e-06
      2.96369103e-06 2.48005972e-06 1.36107531e-06 -5.82768166e-07
      -2.85289252e-06 -3.63138383e-06 -1.18432069e-06 2.70678015e-06
      3.16941600e-06 2.48886045e-06 8.77796936e-07 -3.35535589e-07
      -1.10935082e-06 6.28380832e-08 7.93313916e-07 3.66711220e-07
      4.55080055e-07 3.88511609e-07 5.38648067e-07 6.08261644e-07
      1.51968379e-06 2.37996824e-06 3.78560958e-06 3.39024132e-06
      3.10701830e-06 9.53752306e-07 -1.68036661e-06 -4.17760020e-06
      -5.87626209e-06 -6.46469061e-06 -6.20136643e-06 -4.14827127e-06
      -2.57008287e-06 -8.52681978e-07 1.20547122e-06 3.32999616e-06
      4.87591660e-06 5.59430782e-06 4.47705270e-06 2.59336093e-06
      1.18650019e-06 -9.53335700e-07 -1.38787709e-06 -1.33456376e-06
      -2.28014164e-06 -3.41624354e-06 -3.67903749e-06 -3.65995425e-06
      1.42169665e-06 1.54516840e-06 1.41018995e-06 1.09877953e-06
      4.89209135e-08 -2.13100134e-06 -2.38642406e-06 1.14434238e-06
      4.71042358e-06 4.61647915e-06 3.23643940e-06 1.64276469e-06
      4.43810876e-07 3.37801907e-07 9.54306927e-08 -7.70533518e-07
      -1.60905654e-06 -1.85461727e-06 -1.80838356e-06 -1.25051497e-06
      -8.99812136e-08 6.05365301e-07 6.76161335e-07 -1.39685156e-07
      3.94760605e-07 1.17759839e-06 1.55450394e-07 -3.67351981e-06
      -6.89957460e-06 -8.42327154e-06 -7.31605951e-06 -5.72298177e-06
      -3.57897829e-06 -2.28786325e-06 -1.03702712e-06 9.51524100e-07
      3.50843334e-06 6.66911865e-06 8.96451729e-06 8.50521428e-06
      6.30056866e-06 3.10326004e-06 1.36392231e-07 -1.00056752e-06
      -1.93690562e-06 -3.48534581e-06 -4.16190369e-06 -3.88447370e-06
      2.11660563e-07 6.99670807e-07 9.43903729e-07 1.04956916e-06
      1.38163648e-06 1.04061724e-06 8.47016508e-07 1.68949816e-06
      4.25787675e-06 6.36634513e-06 7.06173932e-06 6.35191645e-06
      3.85394287e-06 2.36188293e-06 9.54348820e-07 -5.75223424e-08
      -1.92110406e-06 -3.19666447e-06 -3.51338781e-06 -3.63059507e-06
      -2.22955532e-06 -5.00959800e-07 -5.85290934e-07 -2.23453412e-06
      -2.89778905e-06 -1.36175493e-06 1.48786569e-07 -5.98052281e-07
      -2.22459948e-06 -5.03910087e-06 -5.31046499e-06 -4.75502065e-06
      -3.46527236e-06 -2.25737472e-06 -1.69331531e-06 -2.25213034e-06
      -1.07012454e-06 3.88499120e-06 9.14710927e-06 1.33046997e-05
      1.23551608e-05 8.67576182e-06 2.88459478e-06 -1.39911901e-06
      -2.65553263e-06 -3.11087138e-06 -4.41541215e-06 -4.84539260e-06
      -1.22215476e-06 -7.83083181e-07 -1.12407662e-07 3.54121880e-07
      1.83263103e-06 2.36254368e-06 2.54729821e-06 3.70988437e-06
      3.29025011e-06 4.69766974e-06 6.77034677e-06 7.79524362e-06
      7.08776224e-06 6.03338049e-06 4.48780429e-06 2.45637852e-06
      7.54543180e-07 -1.87901674e-06 -3.65854044e-06 -4.27210898e-06
      -4.06072468e-06 -2.89651825e-06 -2.03058812e-06 -2.65421113e-06
      -3.55582506e-06 -1.76175161e-06 3.00862240e-07 1.31351817e-06
      1.96357269e-06 1.10826147e-06 1.06128607e-06 3.66317607e-07
      -2.81136749e-07 3.41382780e-08 4.14090351e-07 -1.14302929e-06
      -3.65870733e-06 -6.25015218e-07 4.76333344e-06 1.03428383e-05
      1.31318602e-05 1.24129838e-05 7.42539078e-06 5.17369358e-07
      -3.06444190e-06 -3.30020407e-06 -3.82044709e-06 -4.69232373e-06
      -2.06119216e-06 -2.20813854e-06 -2.15075329e-06 -1.59194519e-06
      -6.49248648e-07 1.40410464e-06 2.32370598e-06 4.16633702e-06
      4.22805988e-06 4.29967940e-06 4.62850767e-06 5.32492550e-06
      3.72365071e-06 3.58789953e-06 4.75498427e-06 4.89745389e-06
      4.46864624e-06 2.34828963e-06 -7.84686506e-07 -2.74302397e-06
      -3.74365527e-06 -2.67338874e-06 -3.55992756e-06 -2.98313194e-06
      -3.42339922e-06 4.28412292e-08 3.00211605e-06 4.41422435e-06
      4.82239329e-06 3.55786619e-06 3.09150369e-06 1.63233710e-06
      9.21144988e-07 1.58599948e-06 1.04833248e-06 1.14174185e-07
      -2.73766841e-06 -3.84415898e-06 -8.52279584e-07 2.86013005e-06
      6.76050740e-06 8.93273955e-06 8.13336737e-06 2.93297376e-06
      -4.20338154e-07 -2.27984970e-06 -2.37119775e-06 -3.08706194e-06
      -6.30140420e-08 -1.39902795e-06 -1.39826648e-06 -1.12046519e-06
      -9.73242550e-07 -9.19376589e-07 1.39924600e-06 3.28183000e-06
      4.06048412e-06 3.72343993e-06 2.87283501e-06 1.64633286e-06
      1.60557619e-07 -3.20446333e-07 2.75163302e-06 5.11616645e-06
      6.53554707e-06 4.90822458e-06 2.97457905e-06 1.57560112e-06
      -9.91139814e-07 -1.99019746e-06 -2.00699037e-06 -2.62459776e-06
      -3.40953125e-06 4.60377805e-07 3.22568872e-06 5.94174435e-06
      6.95204562e-06 5.95904567e-06 2.78061157e-06 -1.55688531e-06
      -2.58401883e-06 -8.40617815e-07 1.10520011e-06 6.38093923e-07
      -2.08477582e-06 -4.40371423e-06 -4.69880888e-06 -2.22926064e-06
      -1.61141486e-07 2.12180339e-06 3.59150181e-06 2.10345183e-06
      1.39377278e-07 -1.59340709e-06 -1.59132037e-06 -1.60611444e-06
      1.37081543e-06 8.39289612e-07 4.00718505e-07 5.28909879e-07
      4.89049967e-07 8.18438139e-07 1.15049296e-07 1.98948533e-06
      2.50026437e-06 3.10247378e-06 3.39935036e-06 3.27945850e-06
      3.76069443e-06 1.52433643e-06 2.41609155e-06 5.14869862e-06
      8.09154517e-06 9.42219776e-06 7.74093678e-06 4.53353277e-06
      2.47874505e-06 -2.51127176e-07 -1.81240421e-06 -2.73086084e-06
      -4.03896684e-06 -1.06726145e-06 1.32757066e-06 4.25709004e-06
      7.07922163e-06 8.12779308e-06 6.69740257e-06 6.75841022e-07
      -4.17666251e-06 -1.49073253e-06 1.17757031e-06 2.94858751e-06
      7.69609869e-07 -3.83813676e-06 -6.27524423e-06 -5.97128155e-06
      -4.08247752e-06 -2.94694860e-06 -2.23903794e-06 -2.10445319e-06
      -2.43330487e-06 -3.81802738e-06 -3.84564873e-06 -3.40547604e-06
      2.07691141e-06 2.05194237e-06 1.90933565e-06 1.71930651e-06
      1.49165135e-06 1.54437521e-06 1.08743325e-06 1.55521241e-06
      1.65996005e-06 2.44864327e-06 3.28133569e-06 3.87369028e-06
      5.66218114e-06 5.63100139e-06 3.97988606e-06 6.56088378e-06
      9.72959151e-06 1.13562000e-05 1.07557707e-05 7.93211075e-06
      4.82577161e-06 2.35371067e-06 2.06894541e-07 -2.39073506e-06
      -3.28874353e-06 -2.19824165e-06 -1.56010219e-06 1.33049900e-06
      3.54406916e-06 6.18577860e-06 7.78075264e-06 5.44150771e-06
      -1.56236365e-06 -2.18045420e-06 3.57787417e-06 6.76072023e-06
      6.32964884e-06 1.74304307e-06 -3.07640084e-06 -5.67493316e-06
      -5.39256598e-06 -4.80636345e-06 -4.20633160e-06 -4.01187299e-06
      -3.50370374e-06 -3.69088207e-06 -4.42101236e-06 -5.29401996e-06
      2.04934599e-06 1.76101901e-06 2.17686852e-06 2.50923108e-06
      2.22346785e-06 2.29590432e-06 1.90727121e-06 2.22492758e-06
      1.49035634e-06 2.00456179e-06 2.92293862e-06 2.78261564e-06
      4.14764963e-06 4.77825415e-06 4.88353726e-06 6.77327625e-06
      1.11892150e-05 1.32726818e-05 1.29957916e-05 1.05252921e-05
      6.65904554e-06 3.58701664e-06 2.31928811e-06 -8.95955878e-08
      -2.08986899e-06 -1.36999199e-06 -2.62865882e-07 4.46266199e-07
      1.61258038e-06 2.39638189e-06 5.34206447e-06 6.34478192e-06
      2.04517187e-06 -2.12878626e-06 2.00658610e-06 8.57909617e-06
      1.01291880e-05 7.23358380e-06 2.00068143e-06 -3.81562222e-06
      -5.89266483e-06 -6.38503434e-06 -4.67994141e-06 -4.78728089e-06
      -4.02759451e-06 -3.42281601e-06 -3.46828824e-06 -4.48083802e-06
      -5.90682392e-09 -3.99673212e-07 -6.21291818e-09 1.05097342e-06
      1.69921816e-06 1.66663494e-06 1.91366144e-06 1.86825582e-06
      1.97159966e-06 1.86588602e-06 1.20184609e-06 9.31533009e-07
      1.22296638e-06 1.88412127e-06 2.54323345e-06 4.71468593e-06
      8.94332697e-06 1.23678910e-05 1.16353631e-05 1.08759705e-05
      7.88816851e-06 3.17046488e-06 2.13521093e-06 1.36814137e-07
      -9.56085046e-07 -1.45331012e-06 8.23468316e-09 2.07691687e-06
      2.92187974e-06 2.27271698e-06 2.39370866e-06 4.40803251e-06
      3.21750758e-06 -1.35050826e-07 -3.55640509e-07 4.40950726e-06
      9.54601364e-06 8.31902616e-06 5.41594318e-06 -1.10675705e-06
      -5.09372603e-06 -7.49450101e-06 -5.89093179e-06 -5.50170353e-06
      -4.47917591e-06 -3.63489471e-06 -3.88504168e-06 -4.79508208e-06
      -1.26051600e-06 -1.40138047e-06 -2.05892752e-06 -2.25694612e-06
      -1.47016829e-06 -5.39398400e-07 1.74758910e-07 1.41975795e-06
      1.61937942e-06 1.87657940e-06 7.01063811e-07 -6.39534733e-07
      -1.33953245e-06 -1.68208874e-06 -1.50604694e-06 -2.65705552e-07
      1.93091478e-06 6.17432443e-06 8.64353478e-06 8.23711071e-06
      6.99747989e-06 3.56242731e-06 1.95533062e-06 -1.29802018e-07
      -5.68829002e-08 -1.57439479e-06 -2.37640529e-06 3.08300258e-07
      3.61187563e-06 4.14306805e-06 3.51952099e-06 2.48324909e-06
      2.18584341e-06 8.74124964e-07 -6.34149444e-07 5.67889970e-07
      4.43738463e-06 5.40105975e-06 3.43940064e-06 -6.47545050e-07
      -4.50544030e-06 -6.49074627e-06 -5.45904686e-06 -5.81030008e-06
      -3.74120532e-06 -1.28535385e-06 -1.52812675e-06 -3.09119241e-06
      -1.65741574e-06 -2.55395116e-06 -3.64227230e-06 -4.16265993e-06
      -3.65209189e-06 -2.43053682e-06 -1.84351757e-06 -1.35865128e-06
      5.34366279e-07 1.76250001e-06 2.31898957e-06 5.52168046e-07
      -1.71874808e-06 -2.69942825e-06 -3.04669243e-06 -2.72607599e-06
      -1.99709507e-06 -1.26111019e-07 2.61854598e-06 2.65166773e-06
      2.08276651e-06 1.42246654e-06 1.59711624e-06 9.28716361e-07
      1.68679173e-06 1.91555387e-06 6.25335304e-07 -4.40002083e-07
      6.64955280e-07 3.00081297e-06 3.20892877e-06 2.42023634e-06
      5.44389820e-07 -9.55809355e-07 -2.06614436e-06 -2.16045578e-06
      9.20253456e-08 1.36177277e-06 1.34528716e-06 -6.70384622e-07
      -3.69435156e-06 -5.52273650e-06 -3.75841410e-06 -3.51818153e-06
      -2.48385868e-06 6.47709655e-08 1.77139987e-06 1.16323622e-06
      -1.81776045e-06 -3.35934192e-06 -4.34924732e-06 -5.10367909e-06
      -5.48813068e-06 -4.41069460e-06 -3.58604689e-06 -3.04477248e-06
      -1.28671581e-06 3.96607845e-07 3.45532453e-06 3.62864580e-06
      1.24860526e-06 -9.59664362e-07 -2.25632607e-06 -2.75952493e-06
      -3.32027571e-06 -3.35434470e-06 -1.99279589e-06 -1.57121485e-06
      -1.46695754e-06 -1.28699594e-06 -5.27178408e-08 -7.81510380e-07
      1.10538133e-06 3.26681834e-06 3.53907421e-06 2.45790693e-06
      8.17546663e-07 3.55942234e-07 5.51109110e-07 1.14058378e-06
      -3.98059001e-07 -2.27661417e-06 -4.70420582e-06 -5.48479829e-06
      -3.95756524e-06 -1.66250788e-06 5.45607236e-07 3.92746188e-07
      -1.22204165e-06 -2.84835824e-06 -1.85977660e-06 -9.46942635e-07
      4.89744309e-07 2.32536308e-06 4.91023548e-06 5.58474994e-06
      -2.46079503e-06 -2.74087006e-06 -2.96692292e-06 -3.67167240e-06
      -5.44019622e-06 -5.93518553e-06 -5.43245642e-06 -4.21435334e-06
      -2.30346882e-06 -5.56313694e-07 2.12478267e-06 4.28816338e-06
      3.50835239e-06 4.52096515e-07 -5.08881953e-07 -1.77943059e-06
      -2.32759248e-06 -2.69805037e-06 -3.33872208e-06 -4.09441736e-06
      -4.27866962e-06 -3.51287008e-06 -2.11690485e-06 -1.83424993e-06
      -1.44161629e-06 -6.48933451e-07 1.57072304e-06 2.89605919e-06
      1.98921225e-06 6.60458227e-07 -4.83138024e-07 -9.18743183e-07
      -7.04017566e-07 -5.22084747e-07 -2.55874465e-06 -4.94203005e-06
      -5.62006835e-06 -4.58435397e-06 -1.89318553e-06 -4.19603339e-07
      -2.70143889e-08 -8.86273881e-07 -1.19908987e-06 -1.01848207e-06
      6.48767468e-07 3.63757772e-06 6.95961671e-06 8.67227300e-06
      -1.73958222e-06 -2.41395264e-06 -2.44407215e-06 -1.99031683e-06
      -2.83179838e-06 -3.91191224e-06 -5.15682314e-06 -4.18482523e-06
      -1.57231204e-06 3.91966637e-07 1.35050550e-06 2.18069249e-06
      2.70633882e-06 1.76045819e-06 4.72056087e-07 -1.34299910e-06
      -2.33131459e-06 -3.15654165e-06 -3.22083292e-06 -3.88410490e-06
      -4.33477089e-06 -4.64560526e-06 -4.50254947e-06 -2.82903738e-06
      -1.84397049e-06 -1.21143364e-06 -1.37128393e-06 1.36158519e-07
      3.41114998e-07 -4.82389339e-07 -1.39076440e-06 -1.85253452e-06
      -1.37276299e-06 3.24209850e-07 1.05781407e-06 -4.09526308e-07
      -2.12519558e-06 -2.83266490e-06 -2.35800485e-06 -1.97698751e-06
      -1.88107310e-06 -1.88024546e-06 -1.87935518e-06 -2.69225461e-06
      -2.92584264e-06 -1.15801629e-06 1.89629839e-06 4.20821243e-06
      2.32597654e-06 8.95149768e-08 -2.56809744e-06 -3.66161976e-06
      -2.94422807e-06 -1.54267730e-06 -2.37906715e-06 -3.19836272e-06
      -1.13675628e-06 1.97271606e-06 2.99238741e-06 2.56715634e-06
      1.50668916e-06 7.81587460e-07 1.56355270e-07 -1.37468771e-06
      -9.13619374e-07 -2.52869972e-06 -3.78782170e-06 -2.90993557e-06
      -3.09595043e-06 -3.50971618e-06 -4.61751006e-06 -4.56220187e-06
      -3.05790377e-06 -1.65203255e-06 -1.73874946e-06 -2.01644752e-06
      -2.38908910e-06 -1.77232846e-06 -2.77541926e-06 -3.19739729e-06
      -2.13723320e-06 -1.19580548e-07 2.52958375e-06 2.99318208e-06
      1.81944256e-06 7.23190908e-07 -9.69768976e-08 -8.38710321e-07
      -1.66985501e-06 -3.10363112e-06 -4.48453648e-06 -5.93712321e-06
      -6.82400878e-06 -6.63212950e-06 -5.08209723e-06 -3.22399501e-06
      4.13703083e-06 3.63535946e-06 2.30529622e-07 -3.13166606e-06
      -4.50482275e-06 -2.65785957e-06 -2.04812886e-06 -1.87054445e-06
      -1.47757498e-06 1.78136088e-06 4.59154398e-06 3.54386657e-06
      1.05231584e-06 5.11237147e-07 3.75484149e-07 -6.27379961e-07
      -1.04465141e-06 -5.46986826e-07 -1.28472686e-06 -2.72373040e-06
      -1.12054067e-06 -7.92625599e-07 -2.05230776e-06 -3.23457334e-06
      -4.29119518e-06 -2.38571170e-06 -2.49942815e-07 -1.16275760e-06
      -2.17770094e-06 -1.67073824e-06 -9.28932820e-07 -1.44441287e-06
      -1.59384354e-06 -3.24418210e-07 1.61996252e-06 2.70595820e-06
      2.61256105e-06 2.29044372e-06 1.48438164e-06 8.91821799e-07
      1.76725749e-07 -1.47640276e-06 -3.57950262e-06 -5.90117725e-06
      -7.49229912e-06 -7.98997462e-06 -7.61099773e-06 -7.76323668e-06
      3.25601127e-06 3.94987137e-06 2.63410448e-06 -2.23167604e-07
      -3.31327306e-06 -3.33776552e-06 -2.87758439e-06 -2.53923736e-06
      -2.95011364e-06 -1.26893167e-06 2.73669207e-06 4.83139820e-06
      3.01196269e-06 -2.46240376e-07 -3.80263714e-07 8.67803038e-08
      4.94319579e-07 -1.34611753e-07 2.59450246e-07 2.22352242e-07
      7.69469523e-07 1.54529562e-06 -4.43094564e-07 -5.92401307e-07
      -1.69154100e-06 -2.38385746e-06 -4.03719270e-07 1.28166994e-06
      2.06365257e-07 -4.78183750e-08 1.67448809e-06 1.77045035e-06
      1.12513544e-06 8.43788598e-07 1.04576361e-06 1.84960584e-06
      1.54389295e-06 1.18705589e-06 7.87771228e-07 5.31795138e-07
      1.09391328e-06 8.17973216e-07 -1.94156826e-07 -1.31432159e-06
      -3.10419773e-06 -3.87989394e-06 -3.24881694e-06 -3.27354110e-06
      1.82897384e-06 2.84547014e-06 2.86393583e-06 1.67276639e-07
      -1.07317851e-06 -2.25193662e-06 -3.40486849e-06 -3.22008827e-06
      -4.04319553e-06 -3.69620193e-06 -1.01283558e-06 3.11131566e-06
      4.82189489e-06 1.66754069e-06 -1.46434968e-06 -1.74940783e-06
      5.14025317e-07 1.54285283e-06 1.55989210e-06 -3.10988838e-07
      6.16688226e-07 2.08192159e-06 7.28866041e-07 -1.30116268e-06
      -1.99923352e-06 -2.97089423e-06 -3.51705080e-06 -6.22276218e-07
      1.01370563e-06 1.01931494e-06 2.50331800e-06 3.88491526e-06
      4.44395937e-06 4.37398012e-06 2.36073015e-06 1.13774922e-06
      9.24592371e-07 1.53992161e-08 -4.61768792e-07 -6.62815012e-07
      -4.06877462e-07 8.79308061e-07 2.59488297e-06 3.35699951e-06
      4.35811035e-06 4.16900821e-06 4.45714613e-06 4.51589221e-06
      1.18613650e-06 2.04328035e-06 2.73663886e-06 2.54428801e-06
      1.92209598e-07 -1.62488823e-06 -3.45070725e-06 -4.02096430e-06
      -4.68104599e-06 -4.62084563e-06 -2.66384177e-06 8.58869328e-07
      4.26932957e-06 4.12192639e-06 1.20168875e-06 -1.03132822e-06
      -1.31166269e-06 7.92816138e-07 3.01675573e-06 1.00105626e-06
      -1.79125288e-06 -1.29750129e-06 -4.76248033e-07 -1.83678287e-06
      -2.96790995e-06 -3.58944794e-06 -5.55423821e-06 -5.90754871e-06
      -3.30185003e-06 -1.40112661e-06 8.93504648e-07 3.06723064e-06
      4.77084677e-06 6.12748408e-06 5.83326619e-06 2.30800265e-06
      5.27177747e-07 -5.33135619e-07 -9.40036500e-07 -1.16093020e-06
      -5.96011944e-07 7.41703388e-07 3.23508425e-06 5.16702630e-06
      7.16052637e-06 1.00982588e-05 1.12563339e-05 1.16298570e-05
      7.73517513e-07 1.70866895e-06 3.64022685e-06 5.37085816e-06
      4.32080287e-06 2.67911196e-06 8.73442190e-08 -1.77337267e-06
      -2.97486008e-06 -4.16742751e-06 -3.93488881e-06 -1.03600598e-06
      2.00201475e-06 4.45020896e-06 2.58716227e-06 8.68641052e-07
      -5.45054718e-07 -8.22086690e-07 -5.24657423e-07 4.20692345e-07
      -1.40871794e-06 -3.03928800e-06 -2.67992118e-06 -3.47370133e-06
      -4.16908688e-06 -4.81692859e-06 -6.70374811e-06 -9.04992430e-06
      -8.20630976e-06 -5.28838882e-06 -2.72683292e-06 9.04256410e-07
      2.63060520e-06 3.45277590e-06 4.91418632e-06 4.21441655e-06
      2.12457348e-06 -2.07315011e-07 -1.26952489e-06 -1.60491595e-06
      -1.57611180e-06 -6.93982201e-07 2.01204489e-06 5.74537353e-06
      7.50181880e-06 1.05036461e-05 1.29289547e-05 1.37079714e-05
      -1.02045519e-07 3.21563220e-07 1.48989488e-06 3.30098555e-06
      4.43409772e-06 5.45731518e-06 5.16117916e-06 3.80859683e-06
      1.54011286e-06 -2.84166049e-07 -8.27509496e-07 -3.96685323e-07
      3.31874503e-07 2.03322907e-06 1.43051636e-06 -3.07830788e-07
      -2.15497082e-07 -1.35952507e-06 -3.38018458e-06 -3.94984772e-06
      -3.06036736e-06 -2.88035403e-06 -3.02726448e-06 -3.49987567e-06
      -3.92136326e-06 -5.39996199e-06 -7.33514253e-06 -8.86273938e-06
      -8.22609854e-06 -5.70073280e-06 -4.30941645e-06 -2.35012021e-06
      -5.59953094e-07 -1.99209680e-07 1.37949417e-06 2.87721900e-06
      2.63387210e-06 1.94511313e-06 -1.08429589e-07 -1.45137210e-06
      -1.66609061e-06 -1.69366251e-06 -6.54423673e-07 2.50127482e-06
      6.39567270e-06 8.94346522e-06 1.11267436e-05 1.26289096e-05
      -7.10288148e-08 1.23267853e-07 4.58106939e-07 1.16136800e-06
      2.45436013e-06 4.40290614e-06 7.07282607e-06 8.41223482e-06
      7.08332846e-06 4.90741286e-06 3.70109251e-06 2.53136318e-06
      1.88681793e-06 1.75937282e-06 -3.78456036e-07 -2.06652885e-06
      -3.05149911e-06 -1.98370253e-06 -2.30245541e-06 -4.46735021e-06
      -4.78245374e-06 -3.07590858e-06 -2.20661627e-06 -2.40835743e-06
      -2.91012930e-06 -3.17973399e-06 -6.03461058e-06 -7.49036781e-06
      -6.23439473e-06 -2.77584559e-06 -7.02721422e-07 -1.29685930e-06
      -2.08105257e-06 -2.10414169e-06 -2.49789355e-06 -1.50504661e-06
      -7.62842376e-08 1.17614888e-06 4.87381669e-07 -2.29214407e-07
      -8.91790307e-07 -1.19727406e-06 -1.41082558e-06 -7.11209225e-07
      2.04777848e-06 4.86914087e-06 6.88230648e-06 8.64886897e-06
      5.37893243e-07 7.31021203e-07 6.88332705e-07 4.72198110e-07
      3.01429566e-07 1.85267311e-06 4.90321690e-06 8.12694179e-06
      9.12455016e-06 8.77541424e-06 6.83954931e-06 5.09165557e-06
      3.41629061e-06 1.46391881e-06 -1.74956358e-06 -4.03866579e-06
      -5.69855911e-06 -4.95425365e-06 -2.05795823e-06 -2.41507678e-06
      -3.19378296e-06 -2.89379591e-06 -1.53825420e-06 -4.41805241e-08
      5.39113159e-07 1.80286719e-07 -2.35872312e-06 -4.43998351e-06
      -4.70024770e-06 -1.67576934e-06 8.58211365e-07 1.48366189e-06
      5.83028168e-07 -1.00510192e-06 -2.22112203e-06 -3.90735840e-06
      -3.74444426e-06 -1.59862418e-06 -7.50223251e-07 -1.16620015e-06
      -1.07581218e-06 -9.31742306e-07 -5.87281306e-07 -1.52111159e-06
      -1.37742029e-06 5.02565570e-07 2.07530798e-06 3.53487121e-06
      9.89957925e-07 1.03027787e-06 1.12267912e-06 8.47091769e-07
      -3.61697147e-07 -5.60611397e-07 1.80277459e-06 5.51449557e-06
      7.88120178e-06 7.87220233e-06 6.63596984e-06 5.52745996e-06
      4.19735261e-06 1.17256343e-06 -7.72104897e-07 -3.86082274e-06
      -5.81480890e-06 -6.65170546e-06 -3.98133625e-06 -1.96859537e-06
      -1.41048349e-06 -3.30249577e-07 7.50029074e-07 2.53121289e-06
      3.42641897e-06 3.58122384e-06 1.21015728e-06 -7.07199945e-07
      -1.28346323e-06 -7.56336192e-07 6.21282823e-07 1.17995501e-06
      2.63194323e-07 2.12347437e-08 -5.74761430e-07 -1.75442096e-06
      -3.67637790e-06 -2.49012419e-06 -1.07061726e-06 -1.02019362e-06
      -2.24390760e-06 -2.30181945e-06 -1.54864847e-06 -1.33327762e-06
      -2.24360087e-06 -2.06005006e-06 -1.39083363e-06 -4.78447703e-07
      2.48163497e-06 2.04758294e-06 1.70118642e-06 5.88425564e-07
      -3.03826539e-07 -1.15674436e-06 -5.28135388e-07 1.72348803e-06
      4.55909640e-06 6.38436859e-06 5.24365760e-06 3.89194975e-06
      3.39056260e-06 9.96123731e-07 -9.23553898e-07 -3.18660113e-06
      -3.63814547e-06 -5.22103392e-06 -4.74416720e-06 -2.92201435e-06
      -1.62891934e-06 -1.87727082e-07 1.83031045e-06 4.53048233e-06
      4.12629652e-06 4.61467562e-06 3.56900023e-06 1.52228029e-06
      1.00609304e-06 4.04030203e-07 5.05058381e-07 6.34005517e-07
      -1.31196703e-06 -1.71756221e-06 -1.45224715e-06 -4.21522515e-07
      -1.82599138e-06 -1.50682831e-06 -6.72624651e-07 3.15769626e-07
      -7.82512473e-07 -2.39741075e-06 -2.68624922e-06 -2.16685385e-06
      -2.17192132e-06 -2.55400391e-06 -2.68745430e-06 -2.86931618e-06
      3.69857662e-06 3.49644711e-06 3.15869670e-06 1.92142193e-06
      1.51314140e-07 -1.77137281e-06 -1.83365410e-06 -3.25326141e-07
      2.21797427e-06 4.62420212e-06 5.10220843e-06 2.83452323e-06
      9.45487955e-07 2.61439084e-08 -1.25965994e-06 -3.23246149e-06
      -4.08660208e-06 -5.80820961e-06 -6.81154188e-06 -4.55183681e-06
      -1.64726464e-06 1.18566550e-06 2.47319554e-06 5.95967731e-06
      6.96607322e-06 3.95488269e-06 3.45804665e-06 2.57013153e-06
      3.00520242e-06 2.52569885e-06 8.69061239e-07 -1.05343069e-07
      -1.48080744e-06 -2.92043069e-06 -2.59423928e-06 -1.42506349e-06
      -6.99155748e-07 2.66013416e-07 5.22820756e-07 1.34152731e-06
      1.42514182e-06 -3.39307206e-07 -2.09356404e-06 -2.56079829e-06
      -2.47168146e-06 -1.95599728e-06 -1.68752626e-06 -2.01426383e-06
      3.27607700e-06 3.07003188e-06 2.97664565e-06 2.63067182e-06
      1.34090510e-06 -1.15803311e-06 -3.01865725e-06 -3.07953951e-06
      -7.63054516e-07 2.64006462e-06 4.45926617e-06 3.86083229e-06
      1.79204051e-06 -4.95031202e-07 -1.83805093e-06 -3.07161758e-06
      -4.44142324e-06 -7.14320277e-06 -8.33414379e-06 -7.70407678e-06
      -3.97151689e-06 1.01856835e-06 3.25346855e-06 6.31243165e-06
      9.40157133e-06 7.70569204e-06 5.02509101e-06 4.75594334e-06
      4.97898918e-06 4.07795415e-06 2.07354378e-06 7.58697297e-07
      -6.24592190e-07 -1.08637596e-06 -3.92566506e-07 2.33063091e-07
      -8.36711749e-08 1.05345327e-06 1.76692595e-06 2.13082762e-06
      2.28908357e-06 1.67392477e-06 -5.55644647e-07 -2.64984737e-06
      -2.30393493e-06 -1.13389081e-06 -3.84045045e-08 1.55409339e-07
      1.81580674e-06 1.96048700e-06 2.08709071e-06 2.49299433e-06
      2.33310948e-06 8.26703058e-07 -1.37467509e-06 -2.74493755e-06
      -2.69668931e-06 -1.74141533e-07 3.67643679e-06 5.60789294e-06
      5.32470767e-06 2.46222544e-06 -8.46774597e-08 -2.01490320e-06
      -1.78651271e-06 -3.23868767e-06 -5.20159574e-06 -7.08176731e-06
      -6.44506827e-06 -1.97130498e-06 2.11035263e-06 5.15982128e-06
      7.23113772e-06 7.00341161e-06 6.20242190e-06 5.38971199e-06
      5.30683474e-06 5.64519678e-06 4.17487900e-06 1.07913047e-06
      -1.85755050e-06 -2.37033282e-06 -6.59994839e-07 -1.54568033e-06
      -1.00891066e-06 7.11003509e-07 2.38227767e-06 3.58522516e-06
      3.52071038e-06 2.50763969e-06 9.48505317e-07 -1.31605384e-06
      -2.66373058e-06 -1.72568821e-06 -1.48821485e-07 5.67777420e-07
      9.51452137e-07 1.04426840e-06 1.27738690e-06 2.47702087e-06
      3.39080907e-06 2.81239249e-06 9.87452950e-07 -6.09531355e-07
      -1.53489646e-06 -9.48136517e-07 7.91330990e-07 3.43156216e-06
      5.57143585e-06 5.84581312e-06 3.65917936e-06 -1.38080711e-08
      -1.92535640e-06 -1.04850346e-06 -8.50361118e-07 -1.92441530e-06
      -3.77945480e-06 -2.87077251e-06 -5.66251856e-07 2.66138841e-06
      4.14402939e-06 4.46790409e-06 4.25600001e-06 4.28869407e-06
      2.33298169e-06 3.30946273e-06 4.50991183e-06 3.38615450e-06
      1.03167872e-06 -1.74327897e-06 -1.70524970e-06 -2.58638261e-06
      -3.22003302e-06 -2.18933064e-06 -5.37205892e-07 1.51379606e-06
      2.95279597e-06 2.57423153e-06 1.70342537e-06 2.76583677e-07
      -1.22181780e-06 -1.80499649e-06 -1.37060499e-06 -6.10486950e-07
      2.15566160e-06 2.30222508e-06 2.27259898e-06 2.48738479e-06
      4.01313355e-06 4.55070676e-06 3.13167698e-06 9.55937821e-07
      -5.87300917e-07 -1.41238058e-06 -8.29472413e-07 3.24293865e-07
      2.84607336e-06 4.49896152e-06 4.12376630e-06 2.13630778e-06
      -7.32895842e-07 -2.62384879e-06 -2.04493585e-06 -2.92319982e-07
      -7.54438986e-07 -1.57466093e-06 -1.33723063e-06 3.86348404e-07
      1.77362995e-06 2.18530340e-06 1.88947638e-06 2.41813177e-06
      1.63021593e-06 -3.22469504e-07 1.04096807e-06 2.15019531e-06
      2.18867694e-06 6.67745724e-07 -8.54085954e-07 -1.60384423e-06
      -2.58867408e-06 -3.24322878e-06 -2.72994271e-06 -1.82832218e-06
      -8.43310488e-07 2.12204796e-07 7.47069635e-07 8.26627570e-07
      6.42383043e-07 -2.38720730e-07 -9.76744218e-07 -1.27603096e-06
      3.25160954e-06 2.89694481e-06 2.71656108e-06 2.71882345e-06
      3.27715702e-06 4.59894545e-06 4.71772864e-06 2.60804586e-06
      4.75216353e-07 -7.97648681e-07 -9.87623821e-07 -1.19822323e-06
      -1.07493520e-06 3.75800028e-07 2.10713233e-06 1.78522532e-06
      3.56069052e-07 -4.78700201e-07 -2.21313758e-06 -1.54422071e-06
      -1.02518197e-06 -1.01783360e-06 -1.57060595e-06 -8.31475631e-07
      4.96661244e-07 9.24541325e-07 -3.32553554e-07 -5.09912923e-07
      -6.31881321e-08 -1.40778684e-06 -1.09456448e-06 4.53205438e-08
      1.13029807e-06 7.96734867e-07 2.27334539e-07 -5.28451324e-07
      -1.00188697e-06 -1.79093490e-06 -2.98263035e-06 -3.92649235e-06
      -4.20702054e-06 -3.47082732e-06 -2.43809905e-06 -5.45863941e-07
      9.02083457e-07 1.49465222e-06 8.92328501e-07 -1.36507524e-07
      3.40649353e-06 2.57182296e-06 1.82182669e-06 1.56127498e-06
      1.54087058e-06 2.25578356e-06 4.11489327e-06 4.08982169e-06
      2.14665829e-06 -1.86524414e-08 -7.96615382e-07 -9.41308485e-07
      -1.85650731e-06 -2.84645103e-06 -2.32157481e-06 -5.23380663e-07
      -5.92951210e-07 -4.30952213e-07 -6.81954305e-07 -6.38262577e-07
      -5.97450537e-07 -3.81918284e-07 -4.26635808e-07 -9.93956405e-07
      6.06731533e-07 1.90312039e-06 3.62422924e-07 -7.50539755e-07
      -1.23547704e-06 -2.08526330e-06 -2.07856692e-06 -1.42336603e-06
      3.15365213e-07 1.39701649e-06 1.67299834e-06 5.47814523e-07
      4.15235405e-07 1.08827088e-07 -1.71848842e-06 -3.58886314e-06
      -5.22332448e-06 -5.91861090e-06 -5.83641031e-06 -3.13561009e-06
      -1.26923283e-07 2.08362690e-06 2.62533536e-06 1.91945855e-06
      2.38879306e-06 1.61140497e-06 2.26363298e-07 -6.37032144e-07
      -6.83673875e-07 -1.84343676e-07 1.23772202e-06 4.11442670e-06
      4.20997685e-06 1.53448786e-06 -2.41534099e-08 -1.39215638e-06
      -2.67028463e-06 -3.66544941e-06 -3.47929927e-06 -2.28649697e-06
      -2.05036145e-06 -2.14853799e-06 -2.52522614e-06 -1.56277895e-06
      -3.12146085e-07 4.86116960e-07 1.25225324e-06 1.36156268e-06
      1.32836090e-06 4.28759950e-06 5.37251572e-06 2.57436432e-06
      -1.55988090e-07 -1.59731951e-06 -1.21798143e-06 -7.52951905e-07
      -2.46175489e-07 1.84816668e-06 3.66192353e-06 3.39342409e-06
      2.12097530e-06 9.32086266e-07 -7.46567196e-07 -3.11256076e-06
      -5.26282747e-06 -5.72216186e-06 -5.86309170e-06 -4.21132745e-06
      -4.72705722e-07 2.77343452e-06 4.07109155e-06 3.98631710e-06
      7.75229580e-07 5.29326769e-07 -9.52955190e-07 -2.30407113e-06
      -2.58007094e-06 -2.21770119e-06 -1.16534284e-06 1.19678089e-06
      3.70589078e-06 3.08866902e-06 7.37918583e-07 -1.45059425e-06
      -3.80340271e-06 -4.51574670e-06 -3.88293893e-06 -2.52891823e-06
      -2.03422042e-06 -3.32509080e-06 -4.54715746e-06 -4.04484899e-06
      -1.84322630e-06 -4.56905582e-07 1.16863146e-06 2.64026880e-06
      2.97492602e-06 3.00803254e-06 5.17108447e-06 5.31382011e-06
      3.75691616e-06 7.91532216e-07 -5.58903821e-07 -1.06427808e-06
      -3.00354998e-07 9.43498549e-07 2.45715160e-06 2.99336489e-06
      2.31993045e-06 1.18366825e-06 -4.57257102e-07 -2.06289337e-06
      -3.94603876e-06 -4.74865374e-06 -3.55395605e-06 -8.04676120e-07
      2.51609299e-06 5.23295512e-06 6.38986012e-06 6.34697926e-06
      -3.79533361e-07 -1.43216639e-07 -9.79679271e-07 -3.01921864e-06
      -3.96663518e-06 -3.27014004e-06 -1.96288011e-06 -8.28504376e-09
      1.92526613e-06 2.63836614e-06 1.50274468e-06 -1.47490437e-06
      -4.59058901e-06 -6.35801098e-06 -5.31362093e-06 -3.47007312e-06
      -3.03655247e-06 -3.88768058e-06 -4.83592339e-06 -4.46726108e-06
      -2.58308455e-06 -2.10978158e-07 1.00769205e-06 2.20258448e-06
      1.86439081e-06 1.21143773e-06 3.64163952e-07 1.94959648e-06
      2.91041943e-06 2.58372143e-06 1.59852027e-06 -9.03855266e-08
      -8.58866883e-07 -9.94890001e-07 -9.51218396e-07 2.96521193e-07
      3.91716839e-07 2.06725232e-07 -6.86958970e-07 -2.04489652e-06
      -2.69408747e-06 -3.15005764e-06 -1.95819803e-06 1.25480028e-06
      5.24224652e-06 7.68783229e-06 8.44684473e-06 8.48709988e-06
      -7.14818043e-07 -5.63291906e-07 -6.13701900e-07 -2.11236579e-06
      -3.94918106e-06 -3.62174183e-06 -1.86883119e-06 5.20441290e-07
      3.42168278e-06 4.16737157e-06 2.16083822e-06 -2.19647873e-07
      -3.58553461e-06 -5.83251222e-06 -6.35706147e-06 -4.39706082e-06
      -3.92836910e-06 -5.11281269e-06 -5.78371282e-06 -3.29661316e-06
      -8.08459276e-07 1.07806022e-06 1.64559572e-06 1.63476375e-06
      1.80949326e-06 1.01393289e-06 -7.85320708e-07 -2.39606197e-06
      -1.60053105e-06 -8.62219679e-07 1.17276716e-06 1.58134310e-06
      1.01223202e-06 -6.46467811e-07 -2.03259697e-06 -1.81727319e-06
      -9.92905143e-07 -1.21147889e-06 -1.50301662e-06 -2.75545403e-06
      -3.63951654e-06 -2.90506478e-06 -2.11969950e-06 1.31699403e-06
      5.41639793e-06 8.56770657e-06 8.71036991e-06 8.71884913e-06
      -1.15816783e-06 5.10166672e-07 3.27053590e-06 4.82123960e-06
      4.74806575e-06 4.91819674e-06 5.97638063e-06 5.08009043e-06
      3.99703913e-06 4.04759646e-07 -5.66499557e-06 -1.15107114e-05
      -1.37725438e-05 -9.87337353e-06 -3.68641895e-06 -5.57305043e-07
      6.12269218e-07 1.37598181e-06 2.35963330e-06 1.47266485e-06
      -5.71859061e-07 -4.68677445e-06 -6.94307255e-06 -5.13038549e-06
      -2.28080853e-06 -4.27598820e-07 1.09022062e-06 7.52680819e-07
      3.44781540e-07 1.75919820e-06 1.95537064e-06 -7.19001321e-07
      -3.66528479e-06 -5.17221360e-06 -5.70061411e-06 -3.78037248e-06
      -3.46668207e-06 -3.62320907e-06 -4.02495260e-07 3.66468316e-06
      4.43859881e-06 2.01249304e-06 -1.19529062e-07 1.29251339e-06
      3.46561865e-06 7.94870346e-07 -2.90449293e-06 -5.39514713e-06
      -1.56563829e-06 -1.00943737e-07 2.91171546e-06 4.91546507e-06
      5.03529645e-06 4.88778414e-06 5.87571230e-06 5.39970733e-06
      4.12347208e-06 1.65859524e-06 -3.70983639e-06 -9.63881030e-06
      -1.23685159e-05 -1.01059504e-05 -4.90152024e-06 -1.41770408e-06
      8.99421053e-08 1.43616978e-06 2.53523604e-06 1.56837950e-06
      7.85005838e-08 -3.26334180e-06 -6.48959713e-06 -5.50924869e-06
      -1.73864100e-06 -2.14595460e-07 8.16836632e-07 1.06807181e-06
      2.53173312e-07 1.18934236e-06 2.13741828e-06 1.45804137e-07
      -3.03710726e-06 -4.60403908e-06 -4.70281657e-06 -3.42015869e-06
      -2.97089082e-06 -3.43679972e-06 -2.02879664e-06 2.69888301e-06
      4.94785900e-06 3.24699931e-06 3.70311312e-07 2.14581874e-07
      2.79068399e-06 1.50164283e-06 -2.12532905e-06 -4.86708632e-06
      -1.44107503e-06 -8.36450624e-07 2.10222242e-06 4.17827914e-06
      4.68103144e-06 4.34666936e-06 5.10559403e-06 5.61279512e-06
      4.07343032e-06 2.25636973e-06 -1.67511860e-06 -7.19428863e-06
      -1.01584465e-05 -9.42331826e-06 -5.76282309e-06 -2.31854733e-06
      -6.75591025e-07 1.16108197e-06 2.68660119e-06 1.83730333e-06
      3.11459019e-08 -2.04990170e-06 -5.49768356e-06 -5.33859702e-06
      -1.34797676e-06 8.09384517e-07 1.54058603e-06 2.17389311e-06
      1.55610815e-06 1.57628619e-06 2.73382739e-06 1.86504269e-06
      -1.39278427e-06 -3.15888929e-06 -2.94128881e-06 -1.08700669e-06
      -1.62966501e-06 -2.73082173e-06 -2.10536086e-06 1.09238181e-06
      4.38389361e-06 4.25618873e-06 1.22272229e-06 -3.97976265e-07
      4.51035987e-07 6.62912100e-07 -1.91494291e-06 -4.62820708e-06
      -1.05840809e-06 -1.38130122e-06 6.05008722e-07 3.03170054e-06
      3.70221187e-06 2.76026890e-06 3.28747910e-06 4.32944398e-06
      3.66478957e-06 1.73328294e-06 -5.99049770e-07 -4.95744644e-06
      -7.30518013e-06 -7.20232038e-06 -5.63130561e-06 -3.07039682e-06
      -1.65707013e-06 3.17782479e-07 2.23568804e-06 1.51523409e-06
      -6.57412386e-07 -1.71863837e-06 -3.99481814e-06 -4.64556706e-06
      -1.72246098e-06 7.88577438e-07 2.01267835e-06 2.93985772e-06
      2.91604420e-06 2.43490126e-06 2.61150421e-06 2.83733971e-06
      1.93038986e-07 -2.42141232e-06 -1.90238541e-06 1.29314765e-06
      1.11183908e-06 -9.78954745e-07 -4.62254434e-07 2.16412354e-06
      4.12141117e-06 4.72455213e-06 2.11797806e-06 -5.06163587e-07
      -1.65506128e-06 -9.44054250e-07 -1.50317146e-06 -2.89753098e-06
      -1.53755167e-07 -3.21215907e-07 8.24874320e-08 1.86697514e-06
      1.95739131e-06 5.97780854e-07 2.21745111e-07 1.80520033e-06
      2.35609832e-06 1.37038126e-06 -5.48958610e-07 -3.30319745e-06
      -4.72787542e-06 -4.62540402e-06 -4.29620923e-06 -2.86505451e-06
      -2.18975356e-06 -1.21758990e-06 1.10293229e-06 5.91227774e-07
      -8.79451648e-07 -1.41089538e-06 -3.35399091e-06 -3.48658000e-06
      -2.50237235e-06 -2.59491117e-07 1.67420649e-06 3.28989813e-06
      2.63115794e-06 1.16164733e-06 1.33773005e-06 2.12449663e-06
      1.51512575e-06 -1.70837052e-06 -1.38666348e-06 2.38573148e-06
      3.37440656e-06 1.67886640e-06 1.36448523e-06 3.23654558e-06
      4.96624762e-06 4.70937766e-06 2.64446794e-06 2.33123004e-07
      -1.70392627e-06 -1.46913180e-06 -9.05738489e-07 -9.50371430e-07
      2.09362369e-07 2.41126395e-06 2.02771230e-06 2.13083558e-06
      1.95722987e-06 4.34410367e-07 -1.08378026e-06 -7.01787940e-07
      3.04264461e-07 3.76442642e-07 5.31181684e-07 -1.44331727e-06
      -2.23081611e-06 -1.82752410e-06 -1.94878294e-06 -1.99576198e-06
      -2.05971673e-06 -1.67140990e-06 -2.75101343e-07 -5.69421161e-07
      -1.64869061e-06 -1.12198791e-06 -1.61301762e-06 -2.66226630e-06
      -3.07672349e-06 -2.27057490e-06 3.77370981e-07 2.34122354e-06
      1.98466319e-06 -4.14111895e-07 -1.38808707e-06 4.05259257e-08
      1.06551818e-06 -1.03466641e-06 -1.81472251e-06 1.22084077e-06
      3.45945796e-06 3.19154515e-06 2.46192235e-06 2.89906870e-06
      3.76069647e-06 3.76690787e-06 2.75578714e-06 1.28700847e-07
      -4.84472594e-07 -1.20643676e-06 -6.57212638e-07 1.22206146e-07
      3.10930147e-07 3.73812031e-06 6.05841933e-06 4.32793559e-06
      2.65278459e-06 1.04252081e-06 -7.46431795e-07 -2.09086738e-06
      -2.64618257e-06 -1.96445603e-06 -5.01537556e-07 4.23846842e-08
      -4.90694390e-07 4.35580489e-07 1.54682084e-06 1.36310484e-06
      -6.28365228e-07 -2.08094548e-06 -1.74797356e-06 -1.40114730e-06
      -1.87231262e-06 -1.28646070e-06 5.12641407e-07 -7.75946603e-07
      -3.42378189e-06 -3.77494575e-06 -1.35786615e-06 9.92571017e-07
      1.30048829e-06 -1.36031463e-06 -4.01420675e-06 -2.99264138e-06
      -1.22737890e-06 -5.91429000e-07 -1.44356773e-06 1.49463105e-07
      2.14094371e-06 2.90237745e-06 2.25167901e-06 1.79791971e-06
      1.52706832e-06 9.74980821e-07 7.68002451e-07 -2.97423838e-07
      -1.46530044e-06 5.59382762e-08 -1.13115355e-07 2.79841004e-07
      -4.76743168e-07 3.10917562e-06 7.47487502e-06 7.92125957e-06
      3.89533989e-06 1.79778806e-06 1.00470891e-06 -7.03761771e-07
      -3.07839082e-06 -3.93225173e-06 -2.45604474e-06 -1.24697817e-06
      -2.69544920e-08 1.08131826e-06 2.83400004e-06 4.22472795e-06
      2.85716624e-06 4.55180157e-07 -1.48523657e-06 -1.21795347e-06
      -1.09224868e-06 -1.26618431e-06 3.67257286e-07 3.95271627e-07
      -3.36667699e-06 -4.44560828e-06 -2.78626044e-06 -6.75588637e-07
      5.54009603e-07 -1.09044561e-06 -6.06209869e-06 -6.44591091e-06
      -4.53901612e-06 -2.18391961e-06 -9.34996649e-07 -1.86786096e-07
      1.16016531e-06 8.51043751e-07 1.19768151e-06 8.26940209e-07
      -1.62234187e-07 -1.04992989e-06 -1.11132181e-06 -4.88264220e-07
      -1.69294265e-06 -8.40622818e-07 3.51625999e-07 -9.22169363e-07
      -7.74154273e-07 3.28353735e-07 4.85521514e-06 8.14465784e-06
      5.85294083e-06 1.66311111e-06 1.54095653e-06 1.50657388e-06
      -1.15271337e-06 -3.76691423e-06 -3.36882499e-06 -2.79743836e-06
      -1.03371849e-06 7.06990022e-07 2.67763448e-06 4.74652506e-06
      5.47768605e-06 4.19602429e-06 7.70159886e-07 -9.69984399e-07
      1.47787588e-07 -5.77918797e-07 -2.93139323e-07 1.04256719e-06
      -1.27775149e-06 -4.07279140e-06 -3.49965740e-06 -1.67117787e-06
      6.05912021e-07 4.35572872e-07 -4.73232376e-06 -7.71173927e-06
      -6.69092879e-06 -4.80859035e-06 -1.54562076e-06 8.45137649e-08
      6.17262344e-07 8.01213275e-07 4.65409585e-07 2.30126886e-07
      -8.54550592e-07 -2.30921228e-06 -2.53113444e-06 -9.55661449e-07
      -1.08007396e-06 -1.07902156e-06 4.41646421e-07 -3.16187538e-08
      -1.43280067e-06 -1.47566436e-06 1.57991451e-06 4.73984073e-06
      5.64448601e-06 3.05498179e-06 1.86582940e-06 3.15627290e-06
      8.57818350e-07 -2.45363617e-06 -3.22783580e-06 -3.14646331e-06
      -1.82647807e-06 -4.11888657e-08 1.17867205e-06 3.15561192e-06
      5.13328814e-06 5.34794663e-06 2.92641153e-06 -5.10431676e-07
      8.66674725e-07 1.68120753e-08 -1.75271646e-06 -5.46582584e-08
      1.69926651e-07 -2.91760284e-06 -3.91855565e-06 -2.13135741e-06
      7.49498781e-07 2.86012801e-06 -1.18736887e-06 -6.13646807e-06
      -6.41552833e-06 -6.59933130e-06 -3.64973539e-06 1.15103349e-08
      2.65222502e-06 2.64189885e-06 1.82994825e-06 1.04082346e-06
      -4.18230400e-07 -2.45615183e-06 -2.94479264e-06 -1.61506159e-06
      -8.00248984e-07 -9.31710190e-07 -1.98673547e-07 4.42515216e-07
      -1.01366652e-06 -2.52992618e-06 -3.42641954e-07 1.85133024e-06
      2.98383270e-06 3.15614011e-06 3.30300418e-06 4.01490752e-06
      2.68893154e-06 -1.24242422e-06 -2.70998748e-06 -2.52144810e-06
      -1.37947200e-06 -5.10959069e-07 -3.66675295e-07 1.01960995e-06
      2.64632445e-06 4.05432274e-06 3.57686235e-06 -7.84067367e-07
      1.78970723e-07 1.45287572e-06 -2.37661379e-06 -1.94240283e-06
      2.21534492e-07 -8.73950796e-07 -2.95431983e-06 -2.22529047e-06
      4.68632720e-07 4.38356665e-06 3.18111438e-06 -2.59146032e-06
      -5.00049509e-06 -6.60571914e-06 -4.96644361e-06 -6.70071472e-07
      3.96529822e-06 6.01793272e-06 5.40223937e-06 3.96774658e-06
      2.49725849e-06 -3.53359951e-07 -2.47403523e-06 -1.78021742e-06
      -9.91056709e-07 -9.13097892e-07 -3.38965151e-07 -5.77331383e-09
      2.74408745e-08 -2.69478915e-06 -1.48092693e-06 6.09179665e-07
      8.63788443e-07 1.07040250e-06 2.55865143e-06 3.99348346e-06
      3.49707580e-06 -5.50671864e-08 -3.02619628e-06 -2.41689600e-06
      -7.26701387e-07 -6.20421929e-07 -1.14727857e-06 -1.20404184e-06
      3.81724220e-07 7.99488930e-07 3.44771320e-06 3.55041976e-07
      -1.54511929e-06 1.77466674e-07 -1.22904873e-06 -3.55239558e-06
      -1.63728646e-06 2.65375348e-07 -3.74771815e-07 -1.02431693e-06
      7.34997855e-07 2.92109689e-06 5.23633116e-06 1.62462470e-06
      -2.25629992e-06 -5.32324566e-06 -6.22438120e-06 -2.60062006e-06
      2.63129664e-06 6.77136086e-06 8.81763208e-06 7.56749887e-06
      5.07974664e-06 2.96293388e-06 1.66309789e-07 -3.48054442e-07
      5.52433974e-08 1.22630439e-07 -5.39753273e-07 2.97276852e-08
      1.76279650e-06 -7.87712281e-07 -2.27008650e-06 2.72104955e-07
      6.26815563e-07 -4.50587919e-07 1.06378752e-06 2.86565933e-06
      2.70707824e-06 1.76135373e-07 -3.47604373e-06 -3.82770031e-06
      -8.35723711e-07 -5.50361108e-07 -5.73299758e-07 -3.15112118e-07
      4.46782380e-08 -1.13073793e-06 -2.63099253e-07 1.63134996e-06
      -7.86237479e-07 -1.84137070e-06 -8.98865835e-07 -2.67690143e-06
      -2.01963257e-06 4.16596833e-07 1.89102013e-06 1.20227310e-06
      2.04552180e-06 1.87136584e-06 2.33951459e-06 2.15709861e-06
      2.47595068e-07 -1.99288456e-06 -5.69277427e-06 -5.61540583e-06
      -3.75132828e-07 5.22921073e-06 9.47363151e-06 1.12143489e-05
      8.85129884e-06 5.90204218e-06 2.11687507e-06 1.45227304e-07
      6.32913100e-07 1.75097125e-06 7.22321772e-07 -6.25412326e-07
      2.78030552e-06 1.78215555e-06 -3.70782033e-07 -2.73755262e-07
      8.15387807e-07 6.36752446e-08 -4.78648758e-07 1.32844877e-06
      1.67525945e-06 6.07065658e-07 -2.76591572e-06 -4.29123929e-06
      -2.06858795e-06 -1.37619611e-06 -4.65050903e-07 8.54393818e-07
      1.25939698e-06 1.75621580e-07 -1.55068085e-06 1.15348840e-07
      1.04098569e-06 -9.63027674e-07 -9.62067134e-07 -7.65574612e-07
      -1.35203504e-06 7.04292006e-07 3.63595268e-06 4.76143668e-06
      4.87474517e-06 4.09077302e-06 -2.98287404e-07 -6.18901481e-07
      -9.11880022e-07 -7.45898205e-08 -2.87561170e-06 -6.20250239e-06
      -4.12353029e-06 1.95977009e-06 7.91731236e-06 1.21285293e-05
      1.11482514e-05 7.94211064e-06 3.83932684e-06 9.74816203e-07
      3.15778664e-07 2.13983867e-06 1.91825416e-06 -3.34026907e-07
      2.07129756e-06 3.05097956e-06 1.36152494e-06 -2.06684561e-07
      6.00922903e-08 1.07756364e-06 1.21104433e-08 -2.86540768e-07
      1.04117953e-06 1.27815849e-06 -1.02414525e-07 -3.13489386e-06
      -3.46204934e-06 -1.76278490e-06 2.82379972e-07 2.18781815e-06
      2.11914312e-06 1.34608808e-06 6.50917571e-07 8.67015160e-07
      1.41812427e-06 1.75886294e-06 1.53911472e-07 9.25320705e-07
      1.04397975e-06 2.55077589e-06 5.66526478e-06 6.37150242e-06
      8.66880782e-06 7.54877829e-06 1.59886906e-06 -3.15080479e-06
      -2.67890891e-06 -2.02765818e-06 -1.35692619e-06 -4.71967223e-06
      -6.20684705e-06 -1.94102245e-06 3.67357325e-06 1.01693977e-05
      1.22925821e-05 9.46691307e-06 4.59405601e-06 9.34348066e-07
      1.43999273e-07 2.30560681e-06 4.24178052e-06 2.41650355e-06
      9.34254103e-07 2.07866674e-06 1.62244987e-06 -6.89117996e-07
      -9.51701224e-07 2.99898005e-07 9.08176446e-07 -1.01415071e-06
      -1.30781473e-06 6.14950721e-08 1.17058607e-06 -2.88501752e-07
      -1.62927836e-06 -8.60697583e-07 2.93026028e-06 4.44950638e-06
      2.00868408e-06 6.31446426e-07 1.44907540e-06 1.53957023e-06
      8.40571659e-07 1.92893071e-06 1.54239990e-06 1.75488367e-06
      2.86802720e-06 4.19793105e-06 7.59449540e-06 7.97432403e-06
      9.49734385e-06 1.08626091e-05 4.93100106e-06 -2.06521713e-06
      -3.40800580e-06 -1.49195466e-06 -2.92050436e-06 -3.89976094e-06
      -5.51547555e-06 -3.95326924e-06 6.89268347e-07 6.28519228e-06
      1.05310110e-05 9.42077077e-06 5.74652040e-06 1.92876951e-06
      -2.81236453e-07 1.22282142e-06 3.90064906e-06 4.23322808e-06
      -6.11211817e-07 1.01526922e-07 1.36702852e-06 1.54729172e-08
      -2.08345500e-06 -1.21776384e-06 5.10702364e-07 5.48293713e-08
      -2.45645151e-06 -3.10182122e-06 -1.14533634e-06 -3.35919623e-07
      5.31769331e-07 8.95604956e-07 4.30256068e-06 8.46061084e-06
      4.90679622e-06 1.12538169e-06 5.08569144e-07 1.76769493e-06
      1.73952890e-06 7.67354209e-07 1.18546632e-06 1.43943203e-06
      2.87966873e-06 5.04048649e-06 8.02046725e-06 8.18779881e-06
      7.95236610e-06 9.03992986e-06 8.59278316e-06 8.87294050e-07
      -1.97438749e-06 -4.73703210e-08 -1.13193073e-06 -4.67323207e-06
      -5.40910059e-06 -3.75522700e-06 -1.14072088e-06 3.25533870e-06
      6.95523340e-06 8.10291931e-06 5.25917221e-06 1.97187410e-06
      9.64205356e-07 4.29126885e-07 3.59099204e-06 5.11556800e-06
      -4.82041628e-07 -1.21912262e-06 7.94798041e-07 1.06821790e-06
      -7.79448044e-07 -1.66413088e-06 1.28086441e-07 8.87065937e-07
      -1.34523737e-06 -4.09031509e-06 -4.28597514e-06 -2.82927385e-06
      1.26158284e-06 3.67995676e-06 6.31836838e-06 1.12715270e-05
      8.49931530e-06 3.74116576e-06 -6.34349419e-07 -9.77066634e-07
      8.69037876e-07 7.43755606e-07 5.15538659e-07 -3.25241771e-08
      1.60491220e-06 4.04972570e-06 6.82770724e-06 7.05922002e-06
      5.58660076e-06 5.52174379e-06 8.65798393e-06 4.98590362e-06
      1.76291948e-07 1.96979400e-07 1.72931800e-06 -2.06338109e-06
      -5.36356538e-06 -3.71460214e-06 -2.40083341e-06 8.78179549e-07
      4.02831529e-06 5.17972421e-06 4.44134412e-06 2.23515394e-06
      6.97175153e-07 -1.88672800e-07 8.13526526e-07 4.55029567e-06
      -4.97233771e-07 -2.35080779e-06 -6.85347118e-07 1.36637743e-06
      1.10261658e-06 -7.82171298e-07 -4.40396946e-07 1.25683971e-06
      2.74290471e-07 -2.16911712e-06 -5.14182830e-06 -5.25400992e-06
      -1.20422703e-06 3.75835884e-06 6.84540191e-06 1.06378438e-05
      1.12757434e-05 7.48814273e-06 1.77782397e-06 -2.96063035e-06
      -1.98637258e-06 -2.53737031e-09 5.60751687e-07 3.81865675e-07
      -1.71491436e-07 1.76761966e-06 3.82981125e-06 4.25939106e-06
      2.91891001e-06 2.74644003e-06 5.28635928e-06 6.52089557e-06
      7.82707218e-07 1.05976301e-06 1.79974586e-06 1.36446101e-06
      -2.02202546e-06 -3.50658274e-06 -1.64488893e-06 -5.08968469e-07
      1.72430452e-06 2.06246773e-06 2.37181257e-06 2.37581253e-06
      1.91626600e-06 1.27172632e-06 1.08587278e-06 3.70358521e-06
      3.84048974e-07 -1.71040131e-06 -2.28872591e-06 -4.46442868e-07
      4.77191236e-07 -1.28220599e-08 -5.85566681e-07 7.33449838e-07
      6.55274732e-07 -4.38338162e-07 -3.76983439e-06 -5.91947855e-06
      -4.21037794e-06 8.58614726e-07 4.43128101e-06 8.36508116e-06
      1.05954268e-05 9.10585641e-06 5.04632953e-06 -1.77861148e-06
      -4.98846066e-06 -2.61931928e-06 -7.67621600e-07 1.74312777e-06
      4.43942909e-08 -4.57803964e-07 1.39404369e-06 1.59794263e-06
      2.59359467e-07 -3.98233020e-08 2.51305914e-06 5.35431673e-06
      1.34234483e-06 -7.63156777e-07 1.13905237e-07 1.71261343e-06
      1.28897091e-06 -1.07904452e-06 -1.26597820e-06 -6.46369131e-07
      7.31893238e-07 2.57061913e-07 6.20583478e-07 2.02293245e-06
      3.04623518e-06 3.44748537e-06 2.12414147e-06 1.39093754e-06
      1.48486848e-07 -7.21495780e-07 -1.87079831e-06 -1.48875392e-06
      -6.28312307e-07 5.12234237e-08 -1.15577038e-07 -3.38427441e-07
      -4.03890908e-07 -1.49852227e-07 -1.95937741e-06 -4.74587068e-06
      -4.93890457e-06 -2.48578885e-06 1.11479983e-06 3.26303598e-06
      6.58635417e-06 7.19308218e-06 6.70098234e-06 1.63480058e-06
      -4.37223161e-06 -5.71456167e-06 -3.35035907e-06 3.10974428e-07
      1.21956498e-06 -1.11582540e-06 -9.59172212e-07 1.32931348e-06
      -7.72730857e-07 -2.39035421e-06 -8.73038459e-07 2.77484128e-06
      2.06430059e-06 -3.31260935e-06 -2.11977022e-06 1.85140991e-07
      2.31138210e-06 1.30128547e-06 -3.70793884e-07 -9.88771717e-07
      2.02695887e-07 6.56792167e-07 8.22167124e-07 1.96736119e-06
      3.50000323e-06 5.19851255e-06 5.10185964e-06 3.63877848e-06
      -4.54710431e-07 -3.18033415e-07 -1.01217790e-06 -1.70884982e-06
      -2.05936635e-06 -1.58231762e-06 -9.40834468e-07 -1.69554141e-06
      -2.14191255e-06 -1.06381412e-06 -1.39410645e-06 -3.15207603e-06
      -3.88247781e-06 -3.84770374e-06 -2.07066842e-06 -8.98517243e-08
      1.31391391e-06 1.82380074e-06 4.16396279e-06 2.84184080e-06
      -3.37271581e-06 -7.08234120e-06 -6.26293968e-06 -2.60535899e-06
      7.71173063e-07 4.12678077e-07 -2.41052726e-06 -8.24275276e-07
      -5.96507505e-07 -2.45929596e-06 -3.45625381e-06 -8.92538083e-07
      1.45572119e-06 -2.73976480e-06 -4.22474977e-06 -2.12995633e-06
      1.75176683e-06 2.53919029e-06 1.15275668e-06 -9.69584519e-08
      -1.33904976e-07 1.80902646e-07 1.36742443e-07 2.22734843e-06
      4.73791897e-06 7.09593132e-06 8.45347950e-06 8.85123245e-06
      1.55999132e-07 -6.29614135e-07 9.97983278e-08 -2.71500056e-07
      -1.64907556e-06 -1.83515920e-06 -1.26255065e-06 -2.02977003e-06
      -3.60773038e-06 -3.34532001e-06 -2.11184806e-06 -2.05410356e-06
      -2.30064347e-06 -2.86185718e-06 -3.16854539e-06 -2.07833727e-06
      -1.66045845e-06 -2.10845474e-06 7.26525116e-07 1.46597620e-06
      -2.50251128e-06 -7.13498366e-06 -8.67114977e-06 -6.91585410e-06
      -2.60792422e-06 -2.44925303e-07 -1.65851031e-06 -2.87766534e-06
      -1.15190380e-06 -8.89989963e-07 -3.74377169e-06 -3.29574459e-06
      -1.98818680e-06 -2.27202304e-06 -4.25059852e-06 -3.22126311e-06
      -5.09463014e-08 2.66407051e-06 1.88816887e-06 1.59500587e-06
      5.10502673e-07 -4.91000094e-07 -1.32998912e-06 7.43639589e-07
      3.85266458e-06 6.21651225e-06 8.25735060e-06 1.06829666e-05
      2.36669052e-06 -1.02673164e-06 -1.65665779e-06 -5.26718054e-07
      1.60084781e-07 7.63065430e-07 4.10461752e-07 -1.05453807e-06
      -3.27177509e-06 -4.17114825e-06 -3.13484907e-06 -1.41679038e-06
      -1.30594810e-06 -1.51396205e-06 -2.59842363e-06 -2.77833715e-06
      -1.48894821e-06 -6.68515838e-07 -1.53151419e-07 5.27392899e-07
      -2.19289313e-06 -7.05772482e-06 -9.83342306e-06 -1.01916503e-05
      -6.86748035e-06 -2.43326758e-06 -1.37953043e-06 -2.57057195e-06
      -3.28893771e-06 -1.38508892e-06 -1.85377689e-06 -3.47034938e-06
      -3.41248619e-06 -3.51556901e-06 -4.67563495e-06 -1.84278872e-06
      -4.11424566e-07 1.84178339e-06 1.25664599e-06 1.83592533e-06
      1.78919413e-06 4.25436298e-07 -8.66903633e-07 -1.67982307e-07
      2.93832022e-06 5.10649033e-06 5.45478815e-06 8.87081114e-06
      6.11813130e-06 1.44310457e-06 -1.29634248e-06 -1.04766366e-06
      -4.25518429e-08 1.85434124e-06 3.35295476e-06 1.76241122e-06
      -1.60175603e-06 -3.24531061e-06 -3.83625684e-06 -1.81339419e-06
      -8.92912482e-08 4.59766994e-07 -1.15229307e-06 -3.05576441e-06
      -2.66365987e-06 -3.26567800e-07 1.05404774e-06 1.65173310e-06
      -1.02822764e-06 -5.80440565e-06 -8.44398164e-06 -1.00290808e-05
      -9.41167036e-06 -4.57840360e-06 -1.27245175e-06 -1.85253600e-06
      -3.08020208e-06 -1.52335815e-06 -4.99728330e-08 -1.33090100e-06
      -2.97392921e-06 -2.91598599e-06 -3.17513695e-06 -1.17640775e-06
      1.24663677e-06 1.22973313e-06 8.52578921e-07 1.21944595e-06
      1.74454658e-06 1.23786651e-06 6.43713179e-07 2.30906934e-07
      1.40895190e-06 3.40015686e-06 4.26235147e-06 3.27966700e-06
      8.45035629e-06 4.00297859e-06 -3.78272233e-07 -7.27872646e-07
      1.27617525e-07 1.31097636e-06 3.40317752e-06 3.68927499e-06
      1.60314687e-06 -1.02859099e-06 -2.61365949e-06 -2.57015790e-06
      -5.72887018e-07 1.64896221e-06 1.71962336e-06 -3.21613555e-07
      -2.51956499e-06 -1.71503586e-06 4.05821936e-07 2.05446327e-06
      1.28311513e-06 -2.63068569e-06 -5.19452578e-06 -7.02630405e-06
      -8.28309840e-06 -5.47746413e-06 -8.46670005e-08 -1.74673840e-08
      -1.38723090e-06 -1.36860899e-06 7.02713521e-07 1.50396511e-06
