<?xml version="1.0"?>
<opencv_storage>
<my_svm type_id="opencv-ml-svm">
  <svm_type>C_SVC</svm_type>
  <kernel><type>LINEAR</type></kernel>
  <C>1.</C>
  <term_criteria><epsilon>2.2204460492503131e-16</epsilon>
    <iterations>1000000</iterations></term_criteria>
  <var_all>69120</var_all>
  <var_count>69120</var_count>
  <class_count>2</class_count>
  <class_labels type_id="opencv-matrix">
    <rows>1</rows>
    <cols>2</cols>
    <dt>i</dt>
    <data>
      0 1</data></class_labels>
  <sv_total>1</sv_total>
  <support_vectors>
    <_>
      7.28199211e-06 9.01759176e-06 1.14333498e-05 1.27729527e-05
      1.46684024e-05 1.51299446e-05 1.49283678e-05 1.29724394e-05
      1.00082316e-05 6.92292269e-06 4.67843211e-06 3.20516392e-06
      4.56524822e-06 6.40478584e-06 6.79836194e-06 7.20764183e-06
      5.88936837e-06 4.53708572e-06 2.00898921e-06 -1.20258164e-06
      -2.25580357e-06 -2.04150706e-06 1.22444953e-06 5.55720953e-06
      9.03614819e-06 1.29882956e-05 1.51442955e-05 1.61591452e-05
      1.52642151e-05 1.30366525e-05 9.27528981e-06 5.92365677e-06
      2.97851898e-06 2.88305387e-07 -4.51943208e-07 -2.71350291e-06
      -2.79225378e-06 -3.67452026e-06 -3.72740942e-06 -3.49340394e-06
      -4.06594017e-06 -4.11027622e-06 -3.80647589e-06 -1.75489026e-06
      9.18061119e-07 2.35716880e-06 4.11011797e-06 3.45976378e-06
      6.71093767e-06 8.22490256e-06 1.05231138e-05 1.19683100e-05
      1.36981735e-05 1.43924944e-05 1.41712690e-05 1.23308155e-05
      9.54491406e-06 6.95600193e-06 4.80858853e-06 3.62784363e-06
      4.80980134e-06 6.56776365e-06 6.88141108e-06 7.08138714e-06
      5.71442433e-06 4.22951280e-06 1.65691006e-06 -1.57323973e-06
      -2.60997876e-06 -2.48339825e-06 4.62523303e-07 4.57225724e-06
      7.99034842e-06 1.19158449e-05 1.40185775e-05 1.53329020e-05
      1.48095069e-05 1.30063754e-05 9.76447154e-06 6.85682744e-06
      4.28555495e-06 1.60089144e-06 8.29736280e-07 -1.56926512e-06
      -2.01397438e-06 -3.15393640e-06 -3.43677016e-06 -3.19269157e-06
      -3.57521071e-06 -3.52670622e-06 -2.96938720e-06 -8.65000118e-07
      1.57744751e-06 2.94031474e-06 4.61254785e-06 3.85400972e-06
      5.99239138e-06 7.00375995e-06 8.98436338e-06 1.05740319e-05
      1.19058950e-05 1.28847705e-05 1.25011675e-05 1.07357382e-05
      8.18554327e-06 6.37821677e-06 4.26104862e-06 3.55028988e-06
      4.13250427e-06 5.55390534e-06 5.68476344e-06 5.40700739e-06
      3.91881076e-06 2.12329610e-06 -5.76624132e-07 -3.91569620e-06
      -5.18133447e-06 -5.50370351e-06 -3.59035539e-06 -2.40941574e-07
      2.89826812e-06 6.77451089e-06 9.03938508e-06 1.12968482e-05
      1.19133256e-05 1.14175691e-05 9.49306923e-06 7.73735974e-06
      6.00494695e-06 3.41140640e-06 2.52113477e-06 4.24247730e-08
      -1.03177706e-06 -2.51447022e-06 -3.04005016e-06 -2.74794093e-06
      -2.56423141e-06 -2.18270793e-06 -1.01785008e-06 1.12964051e-06
      3.09489019e-06 4.30755608e-06 5.79341122e-06 4.98479858e-06
      6.55241593e-06 7.07205800e-06 8.39010772e-06 9.63174352e-06
      1.02650492e-05 1.07742544e-05 9.93696085e-06 7.92586434e-06
      5.51705989e-06 3.97935128e-06 1.93323831e-06 1.56461908e-06
      1.40321424e-06 2.26025918e-06 2.19398271e-06 1.37400241e-06
      -4.44061754e-07 -2.60572142e-06 -5.56430314e-06 -9.00588839e-06
      -1.08274317e-05 -1.18833386e-05 -1.13409951e-05 -9.19538343e-06
      -6.69774181e-06 -3.05799153e-06 -3.70724962e-07 2.98061286e-06
      5.11402413e-06 6.46295348e-06 6.09215795e-06 5.90006357e-06
      5.14228032e-06 3.01067803e-06 1.99988744e-06 -1.26129336e-07
      -1.45409103e-06 -2.89489185e-06 -3.22922529e-06 -2.93050107e-06
      -2.11820679e-06 -1.23890118e-06 5.29075749e-07 2.65354447e-06
      4.36083883e-06 5.51986523e-06 6.87758529e-06 6.41767519e-06
      7.54637404e-06 7.74993259e-06 7.93592335e-06 8.13362749e-06
      7.68581140e-06 6.87435795e-06 5.42255111e-06 3.09210145e-06
      1.13010276e-06 -3.38432528e-07 -1.58349928e-06 -1.30175863e-06
      -1.61985611e-06 -1.15020748e-06 -1.29897160e-06 -2.56243948e-06
      -4.97373594e-06 -7.41919575e-06 -1.06712305e-05 -1.37203770e-05
      -1.56543792e-05 -1.68664501e-05 -1.69750383e-05 -1.58758521e-05
      -1.43886600e-05 -1.16427955e-05 -9.22324307e-06 -5.93125742e-06
      -2.98182476e-06 -2.51125527e-07 6.97693622e-07 2.31506738e-06
      2.80079780e-06 1.92557104e-06 1.09634573e-06 -3.89561535e-07
      -1.74084687e-06 -3.16129490e-06 -3.42256931e-06 -3.57524232e-06
      -2.84999169e-06 -1.95160669e-06 -1.38436775e-07 1.80346740e-06
      3.55503289e-06 4.68412281e-06 5.94096991e-06 6.09092831e-06
      6.24970198e-06 6.32640104e-06 5.46020692e-06 4.75800107e-06
      3.50260120e-06 1.52023392e-06 -2.73563757e-07 -2.63613833e-06
      -3.84788200e-06 -5.11086455e-06 -5.07228060e-06 -3.85812928e-06
      -3.62900209e-06 -3.09621282e-06 -3.05125400e-06 -4.33353443e-06
      -7.01551880e-06 -9.28909230e-06 -1.23480886e-05 -1.40857428e-05
      -1.49687348e-05 -1.50854758e-05 -1.45377853e-05 -1.36969666e-05
      -1.32801297e-05 -1.21547591e-05 -1.13468705e-05 -1.00041334e-05
      -7.94006155e-06 -5.38735048e-06 -3.89353772e-06 -8.67129700e-07
      9.51079983e-07 1.99119813e-06 1.89207697e-06 1.27642534e-06
      -2.52783536e-08 -1.66982386e-06 -2.41114640e-06 -3.54679628e-06
      -3.91907088e-06 -4.11428982e-06 -3.31756269e-06 -2.11484507e-06
      -5.91503465e-07 1.09007594e-07 9.24264555e-07 1.56452973e-06
      1.53101246e-06 1.60268758e-06 4.82453459e-07 -1.80389890e-07
      -1.24276426e-06 -3.39271173e-06 -4.91949595e-06 -6.93199945e-06
      -7.55161182e-06 -8.78732408e-06 -8.06948628e-06 -6.54411042e-06
      -5.75796321e-06 -4.87383022e-06 -4.24866084e-06 -4.71612202e-06
      -6.47354727e-06 -7.53971926e-06 -9.30152692e-06 -9.09922346e-06
      -8.21713820e-06 -6.59840316e-06 -4.78464290e-06 -3.49128845e-06
      -3.63635468e-06 -4.05499850e-06 -5.35121808e-06 -6.83810458e-06
      -7.25294240e-06 -6.76283435e-06 -6.32218052e-06 -3.68528049e-06
      -1.52194377e-06 8.79571076e-07 1.79332847e-06 2.53914163e-06
      2.03792797e-06 9.22119966e-07 1.64590077e-07 -1.39265649e-06
      -2.90116486e-06 -4.65605945e-06 -5.68039741e-06 -5.89148840e-06
      -5.35891832e-06 -5.76055891e-06 -5.90565514e-06 -5.14959811e-06
      -5.01328941e-06 -4.86559611e-06 -5.41069130e-06 -5.40470319e-06
      -5.50222876e-06 -6.99345173e-06 -7.63109256e-06 -8.90475076e-06
      -9.01158637e-06 -1.04016935e-05 -9.71341251e-06 -8.74439138e-06
      -7.54096345e-06 -6.10182497e-06 -4.49140816e-06 -3.33836851e-06
      -2.98519649e-06 -1.95943380e-06 -1.62893332e-06 4.83101488e-08
      1.94789754e-06 4.46423019e-06 6.76592799e-06 8.31476700e-06
      8.27323674e-06 7.08958123e-06 4.58567911e-06 1.15943135e-06
      -1.97425743e-06 -4.34289223e-06 -6.40241979e-06 -6.34705884e-06
      -5.42455155e-06 -3.26181157e-06 -1.70450789e-06 7.45398893e-07
      2.13096837e-06 2.96813187e-06 3.74643469e-06 3.31067486e-06
      1.78949165e-06 -5.69736869e-07 -3.18766183e-06 -4.92234858e-06
      -5.83488873e-06 -7.65964160e-06 -8.89878356e-06 -8.42083500e-06
      -1.10063083e-05 -1.07205360e-05 -1.02592348e-05 -9.46840373e-06
      -8.43679663e-06 -8.90252250e-06 -8.20345213e-06 -8.42193003e-06
      -7.66842095e-06 -8.93517972e-06 -8.21882350e-06 -7.97936900e-06
      -6.14916507e-06 -4.10775283e-06 -1.53488656e-06 1.21367373e-06
      3.64745188e-06 6.43130261e-06 8.40689790e-06 1.02605782e-05
      1.15322227e-05 1.32792138e-05 1.43953366e-05 1.49090001e-05
      1.46923412e-05 1.28390820e-05 9.92098376e-06 5.85518637e-06
      9.62115109e-07 -3.28821102e-06 -7.42803286e-06 -1.01283968e-05
      -1.07344586e-05 -9.54426832e-06 -7.76124216e-06 -3.74349224e-06
      -2.18144024e-07 3.02037938e-06 6.15483532e-06 7.75320859e-06
      7.25397558e-06 5.67750203e-06 2.58090154e-06 1.32338485e-07
      -1.73203114e-06 -4.37710469e-06 -6.12461599e-06 -5.99824261e-06
      -1.41943165e-05 -1.38263222e-05 -1.23875006e-05 -1.08175036e-05
      -8.76265494e-06 -8.03208331e-06 -5.92702781e-06 -4.99958878e-06
      -3.27585440e-06 -4.24810423e-06 -3.54721351e-06 -4.20525475e-06
      -2.30479236e-06 -4.93562140e-07 2.03751824e-06 5.34949277e-06
      8.71069187e-06 1.22241108e-05 1.49242314e-05 1.63004061e-05
      1.61386979e-05 1.62501856e-05 1.50645237e-05 1.32862815e-05
      1.17443005e-05 8.50310244e-06 4.95047789e-06 8.25966538e-07
      -4.67479549e-06 -8.96021447e-06 -1.32515079e-05 -1.67227063e-05
      -1.76656285e-05 -1.67807575e-05 -1.49279595e-05 -9.98792257e-06
      -5.18581464e-06 -4.91050912e-07 4.22156563e-06 7.54073380e-06
      8.30306908e-06 8.21138747e-06 5.87030399e-06 4.09807717e-06
      2.45464707e-06 2.14042785e-07 -1.06919731e-06 -9.69332177e-07
      -1.17811705e-05 -1.15312941e-05 -9.72879025e-06 -7.83838186e-06
      -5.24519146e-06 -3.65237020e-06 -9.56306280e-07 7.26284043e-07
      2.50014637e-06 1.27730709e-06 1.01055900e-06 -1.35319874e-06
      -1.04220328e-06 -8.33565025e-07 3.13794317e-07 3.08925587e-06
      6.24236100e-06 9.96229755e-06 1.29493619e-05 1.42730405e-05
      1.32144460e-05 1.22725951e-05 9.40138580e-06 5.87127488e-06
      3.08897597e-06 -8.45262093e-07 -4.44395437e-06 -7.64687229e-06
      -1.23951286e-05 -1.52197736e-05 -1.84105938e-05 -2.12017676e-05
      -2.21474347e-05 -2.16176013e-05 -2.05474898e-05 -1.62302149e-05
      -1.17158634e-05 -7.16363093e-06 -2.29286502e-06 1.90868468e-06
      3.71549413e-06 4.99995076e-06 3.98966358e-06 3.81399195e-06
      3.25354745e-06 2.14794909e-06 1.86027808e-06 2.23510278e-06
      -3.45309104e-06 -3.51581912e-06 -2.23610118e-06 -1.05171694e-06
      1.04350636e-06 2.48657739e-06 4.20609467e-06 5.67807001e-06
      6.07849961e-06 4.10364373e-06 2.19674780e-06 -1.92289144e-06
      -3.73084322e-06 -5.17783064e-06 -5.53777818e-06 -3.58390253e-06
      -1.23883262e-06 2.35589050e-06 4.91878518e-06 6.29052147e-06
      5.05064963e-06 3.94396466e-06 1.08377105e-06 -2.09840618e-06
      -4.24555265e-06 -6.52026074e-06 -8.17547061e-06 -8.84134261e-06
      -1.13398537e-05 -1.19781116e-05 -1.39962240e-05 -1.60369364e-05
      -1.77945640e-05 -1.86624638e-05 -1.94867553e-05 -1.76438098e-05
      -1.50237202e-05 -1.24158532e-05 -8.79686195e-06 -4.94906635e-06
      -2.79305641e-06 -8.82096344e-07 -8.49569631e-07 4.56607182e-07
      1.16851368e-06 1.04064122e-06 1.63809113e-06 2.28546878e-06
      5.09932261e-06 4.62629714e-06 4.91607398e-06 4.62191019e-06
      5.23433710e-06 5.70761176e-06 5.59863111e-06 6.22255357e-06
      5.28893224e-06 3.68240103e-06 1.64921516e-06 -1.97820714e-06
      -3.78650839e-06 -5.18393563e-06 -6.09549897e-06 -5.18967545e-06
      -4.58082923e-06 -2.59353465e-06 -2.36128039e-06 -2.13315616e-06
      -3.51621702e-06 -4.70282885e-06 -6.43844896e-06 -7.84382610e-06
      -8.07256492e-06 -7.65043660e-06 -6.61514696e-06 -4.56999078e-06
      -4.39849418e-06 -2.87759644e-06 -3.48412618e-06 -4.20634069e-06
      -6.21317213e-06 -8.03858711e-06 -1.01454752e-05 -1.10863302e-05
      -1.09909925e-05 -1.16647079e-05 -1.06362049e-05 -8.78603623e-06
      -7.52014375e-06 -6.03888611e-06 -5.49027391e-06 -3.22514984e-06
      -1.28254430e-06 -6.95631741e-07 6.83364021e-07 1.51183747e-06
      7.23262337e-06 6.31540797e-06 5.72227918e-06 3.98232169e-06
      2.92772529e-06 2.57754778e-06 1.43149634e-06 1.79426297e-06
      1.39709869e-06 2.24311907e-06 2.51839970e-06 1.98316752e-06
      2.37236532e-06 2.13143881e-06 1.00621628e-06 3.83611223e-08
      -2.13516978e-06 -3.45336321e-06 -6.91477726e-06 -8.84373003e-06
      -1.04530591e-05 -1.19035240e-05 -1.23464370e-05 -1.19498518e-05
      -1.06052930e-05 -8.46976491e-06 -5.86029682e-06 -2.49504228e-06
      -4.78381139e-07 2.42389024e-06 3.44493924e-06 4.83865961e-06
      4.09514587e-06 2.91707784e-06 1.23325458e-06 -1.05613265e-06
      -2.65424478e-06 -6.16463694e-06 -8.05803029e-06 -9.02518059e-06
      -9.49246987e-06 -9.15989585e-06 -8.36084928e-06 -5.55749648e-06
      -2.72595139e-06 -1.36749020e-06 8.78578419e-07 1.90756123e-06
      2.54352312e-06 1.29490661e-06 2.16853124e-07 -2.32809748e-06
      -4.34768344e-06 -4.80562539e-06 -5.66182598e-06 -4.73401997e-06
      -3.50825985e-06 -2.62566459e-07 2.06028631e-06 4.04342609e-06
      5.83608062e-06 5.84868849e-06 4.37423842e-06 1.91653885e-06
      -1.74491004e-06 -5.10079553e-06 -1.03121774e-05 -1.32088435e-05
      -1.45312470e-05 -1.60582968e-05 -1.55549715e-05 -1.39708682e-05
      -1.18749722e-05 -8.92940079e-06 -5.40447309e-06 -1.55878411e-06
      1.49445975e-06 4.65938228e-06 6.29289389e-06 8.79529762e-06
      9.00783562e-06 8.58036492e-06 7.71656141e-06 5.49564993e-06
      3.73353828e-06 -3.00723258e-07 -3.70269868e-06 -6.52761855e-06
      -8.24977906e-06 -9.16031422e-06 -8.37634070e-06 -5.65816617e-06
      -2.91360379e-06 -1.02396928e-06 1.77459788e-06 2.94384358e-06
      -2.99906219e-06 -4.20286233e-06 -5.31994510e-06 -7.87836780e-06
      -9.92396781e-06 -1.00868447e-05 -1.02165704e-05 -8.95220091e-06
      -7.02814668e-06 -3.78568961e-06 -1.79070798e-06 3.98030098e-09
      1.13686201e-06 3.08455668e-07 -9.70376163e-07 -2.75050684e-06
      -4.81297275e-06 -6.74038529e-06 -1.01421019e-05 -1.18352946e-05
      -1.23523505e-05 -1.39686845e-05 -1.33257809e-05 -1.16459451e-05
      -9.64750234e-06 -6.35034939e-06 -1.81613666e-06 2.22976382e-06
      5.74550450e-06 8.32502701e-06 8.93940251e-06 1.03444918e-05
      9.84148392e-06 8.98991766e-06 8.20970854e-06 6.63575565e-06
      5.81980157e-06 3.44543582e-06 5.65120899e-07 -2.30804608e-06
      -3.79027460e-06 -5.56820396e-06 -5.02782495e-06 -3.02713670e-06
      -1.13387034e-06 5.63475623e-07 3.17479657e-06 4.20454171e-06
      -3.75789068e-06 -4.40054237e-06 -5.14023304e-06 -7.08184189e-06
      -8.55288090e-06 -8.40067150e-06 -8.09793983e-06 -7.14059252e-06
      -5.57909289e-06 -4.04691855e-06 -3.35177424e-06 -3.03897582e-06
      -2.92762593e-06 -4.65758285e-06 -5.43051920e-06 -5.39766233e-06
      -4.77612775e-06 -3.77019842e-06 -4.05474111e-06 -3.67887424e-06
      -3.34638867e-06 -5.19754576e-06 -5.05263824e-06 -4.40964459e-06
      -3.37520692e-06 -7.96292454e-07 4.00578756e-06 7.18984484e-06
      1.02961485e-05 1.18409480e-05 1.07441338e-05 9.97647021e-06
      8.16208922e-06 6.55095346e-06 5.69565009e-06 4.97311294e-06
      5.29182125e-06 4.85423016e-06 3.51529911e-06 1.76195965e-06
      1.74653428e-06 -2.85190566e-07 2.89690433e-07 1.68661677e-06
      3.18368325e-06 4.25593271e-06 6.28736643e-06 6.92294861e-06
      -2.09921313e-06 -1.78465643e-06 -1.50234496e-06 -2.06877348e-06
      -2.36748929e-06 -1.39862800e-06 -7.31930129e-07 -2.63889945e-07
      5.54231008e-07 1.46731773e-08 -6.33236937e-07 -1.89600689e-06
      -2.36430560e-06 -4.88493652e-06 -5.55159022e-06 -4.27879013e-06
      -1.65306426e-06 1.87131343e-06 4.20855940e-06 6.60403884e-06
      7.71025952e-06 5.92733886e-06 5.55488714e-06 4.75702063e-06
      4.39832775e-06 4.99916177e-06 8.60829095e-06 9.64557603e-06
      1.15436378e-05 1.16722922e-05 9.16125373e-06 6.69952078e-06
      4.31127683e-06 2.78604762e-06 2.52062887e-06 2.91848983e-06
      4.25116377e-06 4.92441177e-06 5.17012586e-06 4.78692300e-06
      6.29965507e-06 4.46326203e-06 5.46390720e-06 6.65877405e-06
      8.47477531e-06 8.85342070e-06 1.04218498e-05 1.06239013e-05
      -3.06248899e-06 -1.79107315e-06 5.37493356e-08 1.53089161e-06
      2.80896052e-06 5.38957556e-06 6.41155566e-06 6.06528556e-06
      5.62147534e-06 2.98242253e-06 1.53580800e-07 -2.73278806e-06
      -3.74613887e-06 -6.50220181e-06 -6.55795702e-06 -4.19383878e-06
      3.61557994e-07 6.00737258e-06 1.01991909e-05 1.39140129e-05
      1.52305529e-05 1.36635226e-05 1.28602733e-05 1.11933477e-05
      9.82191341e-06 8.39329641e-06 9.97526240e-06 8.42481313e-06
      8.60968976e-06 6.59535772e-06 2.72868169e-06 -7.55254462e-07
      -2.88468277e-06 -3.27099292e-06 -2.17565844e-06 -9.56990860e-08
      2.85504802e-06 4.72866350e-06 6.68979510e-06 7.59616751e-06
      1.00419411e-05 8.27673193e-06 9.42195948e-06 1.00294274e-05
      1.16230149e-05 1.09258681e-05 1.20653667e-05 1.19477081e-05
      -3.89536945e-06 -2.18778200e-06 6.49225285e-07 3.56490023e-06
      5.41077134e-06 9.07887170e-06 9.62709237e-06 7.62683840e-06
      5.47184709e-06 1.49247410e-06 -3.70169550e-06 -7.32326498e-06
      -8.51171899e-06 -1.02664926e-05 -8.87176702e-06 -5.66850667e-06
      -1.43830292e-07 6.02901900e-06 1.03364264e-05 1.36204117e-05
      1.45000258e-05 1.34189477e-05 1.29787859e-05 1.23197551e-05
      1.14872410e-05 9.63114780e-06 9.58267356e-06 5.99538680e-06
      4.25343069e-06 -3.21688162e-07 -5.75378772e-06 -1.00344259e-05
      -1.15669063e-05 -1.05621975e-05 -8.08440382e-06 -4.27479654e-06
      8.00567079e-07 4.48734363e-06 8.31867874e-06 1.03042976e-05
      1.33131534e-05 1.11608324e-05 1.17772443e-05 1.09663688e-05
      1.10957344e-05 8.71428711e-06 9.14953216e-06 8.83774283e-06
      -9.48415504e-07 5.79390644e-07 3.10148948e-06 5.96247128e-06
      6.62519506e-06 9.62606464e-06 8.71572138e-06 4.90336151e-06
      1.47439960e-06 -2.30326964e-06 -8.17019736e-06 -1.07072783e-05
      -1.12830976e-05 -1.13725200e-05 -9.28364625e-06 -6.83376720e-06
      -3.15248576e-06 5.43656483e-07 2.80119048e-06 4.03476679e-06
      4.70879786e-06 4.98069858e-06 6.39572181e-06 8.72011151e-06
      1.02724462e-05 9.98743235e-06 9.59608042e-06 5.67690768e-06
      2.90026833e-06 -2.90869752e-06 -9.04726858e-06 -1.38341911e-05
      -1.49397265e-05 -1.37034322e-05 -1.11359377e-05 -7.19056652e-06
      -1.35347045e-06 3.25004407e-06 8.38365395e-06 1.10876281e-05
      1.45577515e-05 1.21383709e-05 1.20596596e-05 9.72051475e-06
      8.08569348e-06 3.83291126e-06 3.24302937e-06 2.72502621e-06
      1.84737007e-06 3.01405430e-06 4.52614813e-06 6.63709261e-06
      5.74130399e-06 6.99820885e-06 4.92362233e-06 5.69521262e-07
      -2.92652749e-06 -5.47289756e-06 -9.78650223e-06 -9.97533607e-06
      -9.51558286e-06 -8.14812211e-06 -6.67686072e-06 -6.07400489e-06
      -5.81791710e-06 -6.02079444e-06 -6.37842231e-06 -7.47307331e-06
      -6.74186276e-06 -5.27521343e-06 -2.25840427e-06 2.33931064e-06
      6.11190580e-06 7.80156097e-06 8.12942744e-06 6.04121396e-06
      4.24790187e-06 -6.51899557e-09 -4.81256347e-06 -9.30897386e-06
      -1.02658132e-05 -1.03796583e-05 -9.31662271e-06 -7.31531145e-06
      -3.12123643e-06 1.95332774e-07 5.52605024e-06 8.63595051e-06
      1.23087302e-05 1.05691170e-05 1.03138464e-05 7.53159475e-06
      5.31189698e-06 -8.38060430e-08 -1.57212446e-06 -2.34874619e-06
      -3.24977520e-07 6.26788108e-07 1.22095332e-06 2.87299531e-06
      1.52531891e-06 1.36197934e-06 -5.38894938e-07 -3.78207187e-06
      -6.24982886e-06 -7.63888056e-06 -9.44458134e-06 -7.66671474e-06
      -6.65992638e-06 -4.46685590e-06 -3.84547729e-06 -4.36122536e-06
      -6.08314349e-06 -8.44114038e-06 -9.78578737e-06 -1.19985734e-05
      -1.13788201e-05 -1.01555970e-05 -7.84014719e-06 -4.09998574e-06
      -4.03106839e-07 1.75368325e-06 2.72997499e-06 3.27956741e-06
      3.90705736e-06 3.17846889e-06 1.20761820e-06 -2.11086990e-06
      -2.92918367e-06 -4.80297285e-06 -5.59269620e-06 -5.92097967e-06
      -4.36255004e-06 -3.71049737e-06 7.56922077e-07 3.89330216e-06
      7.05599132e-06 6.55297754e-06 6.50845095e-06 4.79329492e-06
      3.63660092e-06 -1.28913507e-06 -2.81977964e-06 -3.67065013e-06
      -6.54786572e-06 -5.69573695e-06 -5.71275496e-06 -4.16686134e-06
      -4.94156575e-06 -5.52029405e-06 -6.09066001e-06 -7.25001337e-06
      -8.07266315e-06 -8.53761321e-06 -8.17987075e-06 -5.60673789e-06
      -4.74560375e-06 -2.34145682e-06 -1.98978387e-06 -2.41187672e-06
      -3.82534790e-06 -5.78465097e-06 -6.30722707e-06 -8.31892794e-06
      -8.05387299e-06 -8.17547607e-06 -8.34913862e-06 -7.74243745e-06
      -6.05595187e-06 -5.06575543e-06 -4.11819701e-06 -1.89576485e-06
      1.02500644e-06 3.61669368e-06 4.49574281e-06 2.85529131e-06
      2.45582191e-06 -2.58261252e-07 -2.06290451e-06 -3.54766644e-06
      -4.00671388e-06 -5.80995493e-06 -3.29516820e-06 -1.12072951e-06
      3.69649371e-07 1.18781166e-07 -1.40746707e-07 -2.60130662e-07
      2.04924376e-07 -2.70233932e-06 -3.28828719e-06 -3.84056511e-06
      -1.04678365e-05 -9.72840826e-06 -1.01611649e-05 -8.95492030e-06
      -9.36765446e-06 -9.75501189e-06 -8.98505732e-06 -8.16895863e-06
      -7.25041582e-06 -6.54380892e-06 -4.74205126e-06 -1.88227057e-06
      -1.01306273e-06 1.37988877e-06 1.90965602e-06 1.83155078e-06
      1.39645761e-06 4.00647082e-07 5.57481258e-07 -1.36131814e-06
      -1.89307173e-06 -3.46126012e-06 -5.90107538e-06 -8.02169143e-06
      -8.24022482e-06 -8.56646238e-06 -7.74583441e-06 -5.03357342e-06
      -6.61168258e-07 3.63896129e-06 6.46904346e-06 6.47453908e-06
      6.60616843e-06 3.91351068e-06 1.56886165e-06 -3.88210651e-07
      -2.43742215e-06 -5.87405020e-06 -6.06485310e-06 -5.73823081e-06
      -6.43412159e-06 -7.64550532e-06 -8.37132939e-06 -7.20534126e-06
      -5.62407013e-06 -5.87779232e-06 -5.19178593e-06 -5.15962711e-06
      -6.87027796e-06 -6.31325247e-06 -7.03398291e-06 -6.67679933e-06
      -7.66552421e-06 -7.94423249e-06 -7.04313970e-06 -5.45576449e-06
      -3.61054140e-06 -1.92307311e-06 2.19893863e-07 2.93663970e-06
      4.08453161e-06 6.18027298e-06 6.75831052e-06 6.58950876e-06
      6.56899783e-06 5.86458827e-06 5.78019899e-06 3.67258440e-06
      2.39882183e-06 2.59863981e-07 -2.74875742e-06 -5.54536882e-06
      -6.14690316e-06 -6.90885417e-06 -5.86436909e-06 -3.35280356e-06
      1.41724468e-06 5.45791454e-06 8.66286427e-06 9.25085351e-06
      9.12443920e-06 6.16380066e-06 2.78769721e-06 4.31455192e-08
      -3.67537496e-06 -7.80612481e-06 -9.82547408e-06 -1.04757019e-05
      -1.20873656e-05 -1.35968867e-05 -1.39075883e-05 -1.14769045e-05
      -9.18031947e-06 -7.21672268e-06 -5.77074570e-06 -5.12789484e-06
      1.16048841e-06 1.45134197e-06 7.89931562e-07 5.92474066e-07
      -9.51269897e-07 -9.96664767e-07 -1.01665444e-06 5.04511135e-08
      1.38863584e-06 2.79896472e-06 3.69893610e-06 4.94555161e-06
      5.65692653e-06 6.85989198e-06 7.46411888e-06 7.50989830e-06
      8.07137258e-06 8.16413285e-06 8.50002380e-06 7.36470292e-06
      6.24834593e-06 4.47973480e-06 2.04536377e-06 -3.42060389e-07
      -5.35120989e-07 -1.58459432e-06 -6.98626422e-07 7.83796338e-07
      4.67015070e-06 7.11328357e-06 9.13269196e-06 8.85889858e-06
      7.63716434e-06 4.07118705e-06 -2.33581915e-07 -3.42823068e-06
      -8.12934741e-06 -1.17696363e-05 -1.34093625e-05 -1.30480839e-05
      -1.37488632e-05 -1.39555905e-05 -1.32470241e-05 -9.86187570e-06
      -7.36830407e-06 -4.70996793e-06 -3.65935125e-06 -2.72249736e-06
      6.70282861e-06 6.58657882e-06 6.37936137e-06 6.60665455e-06
      5.65584969e-06 6.37106950e-06 5.66258723e-06 6.05099831e-06
      6.14274131e-06 6.15447379e-06 4.94037840e-06 3.72113095e-06
      3.08438734e-06 3.20524828e-06 4.37079279e-06 5.55585711e-06
      7.46574960e-06 9.43324358e-06 1.12870139e-05 1.19990937e-05
      1.12990210e-05 9.66627431e-06 7.15676151e-06 4.50637026e-06
      3.97021358e-06 2.10132271e-06 2.08311258e-06 2.06656591e-06
      4.50583502e-06 5.64892252e-06 6.49118920e-06 5.45062903e-06
      3.90651257e-06 7.62853517e-07 -2.86935710e-06 -4.93490825e-06
      -9.15366400e-06 -1.12614753e-05 -1.11360232e-05 -9.00929535e-06
      -8.28671273e-06 -6.89569242e-06 -5.89934962e-06 -2.78771017e-06
      -1.08706377e-06 5.60782723e-07 1.57042820e-07 9.20717241e-07
      6.56393331e-06 5.93609002e-06 6.10218240e-06 7.13960708e-06
      7.69942926e-06 9.42784573e-06 9.08387938e-06 9.77074069e-06
      9.32011972e-06 8.35521951e-06 5.80531878e-06 2.67320593e-06
      6.01782688e-07 -5.77570098e-08 1.69921066e-06 3.80421511e-06
      6.62059983e-06 9.90825447e-06 1.25102742e-05 1.40609154e-05
      1.29919854e-05 1.09736766e-05 7.69856433e-06 4.65683570e-06
      3.37244296e-06 1.36835911e-06 9.15706778e-07 3.16007259e-07
      1.91064169e-06 2.96914709e-06 3.81647669e-06 3.40640463e-06
      3.04774790e-06 1.69676730e-06 9.50690406e-08 2.75575218e-07
      -2.61220816e-06 -3.00082979e-06 -1.62104459e-06 1.18583580e-06
      2.55010991e-06 4.52891982e-06 5.01954673e-06 7.02678926e-06
      7.72095791e-06 8.09102039e-06 6.32906222e-06 6.75360707e-06
      2.99082308e-06 1.99664601e-06 1.99804731e-06 3.29984800e-06
      5.30966918e-06 7.76379693e-06 8.43200087e-06 1.02690001e-05
      1.03761186e-05 9.72509497e-06 7.29488420e-06 3.40409224e-06
      1.94116495e-07 -1.07784354e-06 2.72665346e-07 1.92476341e-06
      4.26381166e-06 7.21864262e-06 9.11152074e-06 1.02883996e-05
      8.48846776e-06 6.66799679e-06 3.45127592e-06 1.21689925e-06
      -1.81309616e-08 -6.05890307e-07 -3.75526156e-07 -1.58942285e-07
      1.31711568e-06 2.84768180e-06 4.40586746e-06 5.38451832e-06
      6.64531080e-06 7.47653758e-06 7.64148535e-06 9.54871484e-06
      7.76907746e-06 8.31673970e-06 9.36887045e-06 1.11286863e-05
      1.17605741e-05 1.30533554e-05 1.28953552e-05 1.40625925e-05
      1.47320388e-05 1.50138967e-05 1.31078359e-05 1.34515285e-05
      1.73594299e-06 7.24202607e-07 1.95801817e-07 1.06112191e-06
      3.50510027e-06 5.77254059e-06 6.85787063e-06 9.31420254e-06
      9.86760915e-06 9.87483509e-06 8.35352694e-06 4.55838517e-06
      6.44908653e-07 -9.18068224e-07 -7.45100465e-07 -4.69145988e-07
      5.77055459e-07 2.03816808e-06 2.74716581e-06 3.13372402e-06
      7.79611753e-07 -2.41040738e-07 -2.44359239e-06 -3.41015016e-06
      -3.92777656e-06 -2.65059316e-06 -1.51714528e-06 1.85089291e-07
      2.04806906e-06 4.03155855e-06 6.48220339e-06 8.62519300e-06
      1.11041445e-05 1.37562411e-05 1.47428545e-05 1.71481952e-05
      1.59676747e-05 1.64563771e-05 1.59797892e-05 1.55696944e-05
      1.41654891e-05 1.37351781e-05 1.27425446e-05 1.33581934e-05
      1.47039536e-05 1.58700332e-05 1.48314284e-05 1.54291265e-05
      5.16505497e-06 4.41889233e-06 3.59119508e-06 3.79877110e-06
      5.30807756e-06 6.20429637e-06 6.35339984e-06 7.86491364e-06
      7.66687026e-06 7.62533227e-06 7.11704479e-06 4.29348165e-06
      8.82676090e-07 1.23317761e-07 -3.49692300e-07 -1.19612548e-06
      -1.33220578e-06 -1.65049221e-06 -2.05200217e-06 -2.75425646e-06
      -5.49386823e-06 -6.09129575e-06 -7.35741969e-06 -7.77347032e-06
      -7.46828846e-06 -5.08027506e-06 -3.51006133e-06 -4.32990106e-07
      2.19055710e-06 4.38952202e-06 7.50103209e-06 1.00100679e-05
      1.28521760e-05 1.60803011e-05 1.69307550e-05 1.88513241e-05
      1.77898964e-05 1.77201346e-05 1.58645253e-05 1.35587607e-05
      1.01766191e-05 8.04176398e-06 6.24095173e-06 6.23030792e-06
      7.89306523e-06 9.75618696e-06 9.51262791e-06 1.04866695e-05
      8.08783898e-06 7.71360101e-06 7.11747634e-06 6.92201957e-06
      6.88884165e-06 6.01608008e-06 4.53980465e-06 4.12349891e-06
      2.45879278e-06 1.97499708e-06 2.38089297e-06 1.32027253e-06
      2.51974779e-08 1.27200212e-06 1.51773634e-06 7.51037078e-07
      4.05787233e-07 -6.32448121e-07 -1.32599246e-06 -2.47240041e-06
      -4.58888917e-06 -4.79814526e-06 -5.52746997e-06 -6.11482119e-06
      -5.56265968e-06 -3.69818736e-06 -2.80262861e-06 2.34475394e-07
      2.91454148e-06 4.46147578e-06 7.24488154e-06 9.06162404e-06
      1.10235742e-05 1.28729735e-05 1.24624994e-05 1.32384230e-05
      1.16919418e-05 1.10427218e-05 8.97236259e-06 6.26977044e-06
      2.73767819e-06 3.60524780e-07 -1.29177954e-06 -1.64842481e-06
      -2.53067952e-07 1.63575521e-06 1.57028205e-06 2.83531131e-06
      5.37230790e-06 5.35182562e-06 5.29672297e-06 5.13187751e-06
      4.18992886e-06 2.36595315e-06 -1.16948669e-07 -1.97433042e-06
      -4.53256507e-06 -5.04643276e-06 -3.88665285e-06 -3.13806777e-06
      -1.85969452e-06 1.29489297e-06 2.97165457e-06 3.29359841e-06
      3.81524569e-06 3.81237987e-06 4.32158868e-06 4.44086027e-06
      4.44809348e-06 5.33362709e-06 4.75688967e-06 3.30472517e-06
      2.46807258e-06 1.68043459e-06 2.13651234e-07 8.91082323e-07
      2.28213571e-06 2.57272245e-06 4.50184280e-06 5.50184450e-06
      6.27184272e-06 5.93066989e-06 3.88672197e-06 3.42868930e-06
      1.03057221e-06 -7.96797224e-08 -1.52697339e-06 -3.31944716e-06
      -5.12033193e-06 -6.20559649e-06 -6.49522326e-06 -6.41376209e-06
      -5.07285449e-06 -3.20609843e-06 -3.19462561e-06 -1.83155146e-06
      -6.82813550e-07 -4.79264202e-07 -1.62972484e-07 -1.09191106e-07
      -9.68153586e-07 -2.67769860e-06 -4.96207986e-06 -6.92993490e-06
      -9.14263364e-06 -9.06017794e-06 -7.25840073e-06 -5.32840704e-06
      -2.67202063e-06 8.69891494e-07 3.15461079e-06 4.21404957e-06
      5.38867971e-06 6.68358553e-06 8.61947501e-06 1.04210385e-05
      1.24890603e-05 1.45403719e-05 1.38585256e-05 1.14072045e-05
      8.43407724e-06 4.98085365e-06 1.33524986e-06 -7.00147496e-07
      -4.65074095e-07 -5.75710430e-07 1.26188627e-06 2.33876744e-06
      2.71447925e-06 1.07272058e-06 -1.81656878e-06 -3.27471480e-06
      -6.57005148e-06 -8.23693154e-06 -9.51109996e-06 -1.05334766e-05
      -1.04729233e-05 -1.01844580e-05 -8.85725422e-06 -7.72651765e-06
      -5.56027862e-06 -3.07981713e-06 -2.52103109e-06 -1.33245408e-06
      -5.71280134e-06 -5.40985684e-06 -5.11172675e-06 -4.98898817e-06
      -5.36171001e-06 -6.50862512e-06 -7.71562372e-06 -8.78211449e-06
      -9.74932209e-06 -8.83896246e-06 -6.53882398e-06 -4.04677348e-06
      -1.40091515e-06 1.28230192e-06 2.97763836e-06 3.98397924e-06
      4.81616826e-06 6.22607286e-06 8.14888881e-06 1.00062371e-05
      1.22423608e-05 1.43931366e-05 1.37192019e-05 1.13248752e-05
      7.78291724e-06 4.51554024e-06 1.48480376e-06 -7.46117394e-07
      -3.00899146e-08 9.40353175e-07 3.44446607e-06 5.12491761e-06
      5.58305874e-06 3.77961419e-06 8.69489213e-07 -1.63737570e-06
      -5.82437360e-06 -8.35725314e-06 -1.06598491e-05 -1.21085995e-05
      -1.16295960e-05 -1.11791369e-05 -9.25736913e-06 -7.36608035e-06
      -4.18774061e-06 -9.56370059e-07 2.70989602e-07 9.70263500e-07
      -9.41106373e-06 -8.90815136e-06 -8.58852218e-06 -8.33658669e-06
      -8.15313251e-06 -8.55097096e-06 -8.35687115e-06 -8.30837325e-06
      -7.90487047e-06 -6.47268689e-06 -4.13107273e-06 -1.42357533e-06
      8.92475043e-07 2.84051816e-06 3.79760922e-06 4.85891587e-06
      5.24987217e-06 6.23639016e-06 7.15751776e-06 7.51698735e-06
      8.06143180e-06 8.85772261e-06 7.71301893e-06 5.67447887e-06
      2.51513097e-06 8.90923275e-07 -1.58514965e-07 -6.99011935e-07
      1.33122467e-06 4.01742227e-06 7.37674782e-06 9.93918638e-06
      1.10321444e-05 1.02550166e-05 8.12736653e-06 5.15081229e-06
      6.93387847e-07 -2.52729387e-06 -6.23235610e-06 -8.82920085e-06
      -9.37892037e-06 -9.93146114e-06 -8.81961569e-06 -7.16909472e-06
      -4.03049535e-06 -9.53465417e-07 4.69001094e-07 5.56215923e-07
      -1.19044853e-05 -1.09769389e-05 -1.01253781e-05 -9.33280808e-06
      -8.40192752e-06 -7.83577707e-06 -6.42275745e-06 -5.53053223e-06
      -4.24768677e-06 -2.79376718e-06 -1.00628586e-06 1.58219973e-06
      3.79526318e-06 5.53595737e-06 5.96635164e-06 7.18426691e-06
      7.58848500e-06 8.38223787e-06 8.66360097e-06 7.48303682e-06
      5.98397219e-06 4.97147948e-06 2.41368298e-06 -2.92177674e-07
      -4.08727874e-06 -5.71299870e-06 -6.51404071e-06 -5.96653626e-06
      -3.35103482e-06 5.50347636e-07 4.79986511e-06 8.62895286e-06
      1.13452279e-05 1.26609575e-05 1.20299292e-05 9.97070583e-06
      6.26880774e-06 3.00365855e-06 -1.26871726e-06 -4.59091416e-06
      -6.44357215e-06 -7.99642112e-06 -8.07799006e-06 -7.17329294e-06
      -5.01213935e-06 -2.92197069e-06 -1.66906648e-06 -1.89510308e-06
      -1.05313047e-05 -9.17814032e-06 -7.62240916e-06 -6.18814602e-06
      -4.57389251e-06 -3.34872152e-06 -1.49404013e-06 -3.02252772e-07
      1.05488300e-06 2.14911165e-06 3.08202107e-06 5.06304104e-06
      6.96835377e-06 8.33132981e-06 7.64832203e-06 7.98293422e-06
      7.78706544e-06 7.95405413e-06 7.92006813e-06 5.86881060e-06
      3.29617274e-06 1.63700838e-06 -1.70085696e-06 -4.66261417e-06
      -8.80412608e-06 -1.11484642e-05 -1.25351025e-05 -1.14132336e-05
      -8.80726657e-06 -4.49602794e-06 2.26252482e-07 4.85228838e-06
      8.94208915e-06 1.17942627e-05 1.19484912e-05 1.09326111e-05
      7.83366522e-06 4.51158803e-06 4.00826565e-07 -2.97892439e-06
      -5.29803901e-06 -6.73153727e-06 -6.93189349e-06 -6.01900365e-06
      -4.42212604e-06 -2.99318413e-06 -1.79873837e-06 -1.76898618e-06
      -3.49161701e-06 -2.05871788e-06 -5.80914502e-07 7.60797491e-07
      2.17541537e-06 2.93066432e-06 3.98342945e-06 4.63454080e-06
      5.34353376e-06 5.87613704e-06 6.01866532e-06 6.99358043e-06
      8.00886210e-06 8.41847759e-06 5.90747914e-06 4.32067327e-06
      2.30582623e-06 1.17939499e-06 6.48763717e-07 -1.51859922e-06
      -3.65726123e-06 -4.42109695e-06 -6.62790626e-06 -8.01079204e-06
      -1.06367379e-05 -1.24948019e-05 -1.33029735e-05 -1.13784508e-05
      -8.85189183e-06 -4.71856447e-06 -4.17988389e-07 3.90920150e-06
      7.92173978e-06 1.07314308e-05 1.04090977e-05 9.37966161e-06
      5.99761279e-06 2.28683825e-06 -1.41395174e-06 -4.45510295e-06
      -6.01008014e-06 -6.05045716e-06 -4.82085488e-06 -2.48794845e-06
      -8.44765964e-08 1.89365801e-06 3.43527222e-06 4.14287706e-06
      6.83372764e-06 7.79946458e-06 7.78692083e-06 7.67653728e-06
      7.40580163e-06 6.40520147e-06 5.66278231e-06 5.18993284e-06
      5.25819860e-06 5.56384839e-06 5.42057887e-06 5.68798077e-06
      5.81138465e-06 5.38518771e-06 1.63401728e-06 -1.22582867e-06
      -4.67889004e-06 -6.33812306e-06 -6.77264870e-06 -7.72450858e-06
      -7.79698348e-06 -6.80161975e-06 -6.82813516e-06 -6.05460309e-06
      -7.00346754e-06 -8.54761311e-06 -9.14643533e-06 -7.77950299e-06
      -6.50181755e-06 -3.76063622e-06 -1.04080073e-06 2.07053836e-06
      4.92902882e-06 6.90620391e-06 6.16325224e-06 4.95197128e-06
      1.42466922e-06 -2.14664624e-06 -5.02996772e-06 -7.31724094e-06
      -7.40250152e-06 -5.63506183e-06 -2.30350838e-06 2.30378032e-06
      6.64751133e-06 1.03073771e-05 1.27126641e-05 1.41343526e-05
      1.49081652e-05 1.48921681e-05 1.24326434e-05 9.79379274e-06
      6.78664537e-06 3.60534773e-06 1.13152794e-06 -5.43060850e-08
      3.71395942e-07 1.60770492e-06 2.28558088e-06 3.03392790e-06
      3.26763438e-06 3.00151487e-06 -3.49780038e-07 -2.91286119e-06
      -6.02922182e-06 -6.88147429e-06 -6.33965283e-06 -5.21255242e-06
      -2.77106824e-06 -1.92013715e-07 1.54442500e-06 3.62694323e-06
      3.04145192e-06 5.75957131e-07 -1.43635964e-06 -2.48634888e-06
      -3.84292025e-06 -3.87751425e-06 -3.68474684e-06 -2.50411381e-06
      -1.23785696e-06 -2.13258929e-07 -7.75043532e-07 -1.57719023e-06
      -4.47248340e-06 -7.05621278e-06 -8.88082923e-06 -1.02365411e-05
      -9.31318391e-06 -6.59675243e-06 -2.00437671e-06 4.35274751e-06
      1.04999208e-05 1.59740866e-05 1.94350487e-05 2.13229196e-05
      1.65972833e-05 1.54104182e-05 1.09649754e-05 6.01948659e-06
      5.57492967e-07 -4.06904155e-06 -7.25549990e-06 -8.22087259e-06
      -6.50104994e-06 -3.31625051e-06 -8.39013012e-07 1.42489955e-06
      2.75455363e-06 3.32323248e-06 1.42237445e-06 -3.35312393e-07
      -2.24829819e-06 -2.36551773e-06 -1.30633805e-06 7.99783834e-07
      3.99130613e-06 6.63059291e-06 8.52945686e-06 1.07233700e-05
      9.89996170e-06 6.73922204e-06 3.67573898e-06 1.01738976e-06
      -1.83663849e-06 -3.81856671e-06 -5.57850308e-06 -6.17533260e-06
      -6.28394810e-06 -6.16444731e-06 -6.63580431e-06 -6.81923939e-06
      -8.80651623e-06 -1.01100295e-05 -1.10498750e-05 -1.16541050e-05
      -1.07704118e-05 -8.57135365e-06 -4.59255943e-06 1.65534186e-06
      7.72858311e-06 1.35237833e-05 1.72274977e-05 1.92264397e-05
      1.34256788e-05 1.13877268e-05 6.57674218e-06 8.61703143e-07
      -5.63888625e-06 -1.04783039e-05 -1.33477033e-05 -1.37248026e-05
      -1.10744322e-05 -6.38346910e-06 -2.40420059e-06 1.09613347e-06
      3.35713980e-06 4.31214949e-06 3.49994798e-06 1.78578284e-06
      5.67115308e-07 2.60352778e-07 8.90020544e-07 2.38817165e-06
      4.46305876e-06 5.94020821e-06 6.60653723e-06 8.07507240e-06
      7.28758505e-06 4.54007795e-06 2.13267754e-06 2.14740879e-07
      -1.73442663e-06 -3.41286182e-06 -5.58748570e-06 -6.86777639e-06
      -7.51854213e-06 -7.95283540e-06 -8.65211496e-06 -8.18687931e-06
      -9.20003276e-06 -9.18742899e-06 -9.20252205e-06 -9.12728956e-06
      -8.81601591e-06 -8.04812680e-06 -6.28452199e-06 -2.25303756e-06
      1.07609708e-06 4.76842024e-06 7.15068472e-06 8.84437577e-06
      9.65489198e-06 7.35435742e-06 3.58567627e-06 -1.29880959e-06
      -7.30999545e-06 -1.14206459e-05 -1.33921621e-05 -1.31277884e-05
      -1.05322315e-05 -5.75951935e-06 -1.56415342e-06 1.96263113e-06
      4.05320816e-06 4.45297428e-06 3.63214554e-06 1.08228608e-06
      -1.76141640e-07 -1.11333804e-06 -1.01514604e-06 -4.16407318e-07
      5.95610970e-07 1.67264045e-06 1.58162447e-06 2.71500994e-06
      2.72457305e-06 1.21754726e-06 2.81165569e-07 -2.15391216e-09
      -5.92972697e-07 -1.43766181e-06 -3.49808693e-06 -4.66158372e-06
      -5.21032871e-06 -5.63231788e-06 -6.24572567e-06 -4.76910782e-06
      -4.54501833e-06 -3.32660466e-06 -2.35389007e-06 -1.80920802e-06
      -2.11181828e-06 -2.81764778e-06 -3.50711252e-06 -2.42548913e-06
      -2.84454359e-06 -2.28297631e-06 -2.00995282e-06 -9.34937987e-07
      6.08313348e-06 3.98271595e-06 1.65025472e-06 -1.68563872e-06
      -6.15666659e-06 -8.94930963e-06 -9.47351145e-06 -7.89108799e-06
      -5.48165235e-06 -1.53806491e-06 1.79744779e-06 4.27385248e-06
      5.11681174e-06 4.40966915e-06 2.80386712e-06 -8.15298506e-07
      -2.39437463e-06 -3.99221699e-06 -4.20567312e-06 -4.17830142e-06
      -3.56212445e-06 -1.69950033e-06 -1.20625953e-06 6.53806353e-07
      2.21097389e-06 2.56154976e-06 3.12686348e-06 4.01566831e-06
      3.73602302e-06 2.82003020e-06 8.30263673e-07 9.00263473e-08
      -7.66437225e-08 2.38195611e-07 6.77237836e-07 3.56000010e-06
      4.96899020e-06 6.69465453e-06 7.86659712e-06 7.90916511e-06
      6.68100665e-06 4.73790760e-06 2.51423921e-06 1.79170183e-06
      -4.65225611e-07 -1.43799900e-06 -2.37905306e-06 -1.84661985e-06
      1.84065539e-06 1.19437473e-07 -1.06778566e-06 -2.92169352e-06
      -5.51012681e-06 -6.75662386e-06 -5.49761990e-06 -1.97861891e-06
      7.35363415e-07 3.84177974e-06 6.01581451e-06 7.07078289e-06
      6.35788774e-06 4.59715784e-06 2.13584462e-06 -2.20205675e-06
      -3.99558849e-06 -6.13765360e-06 -6.61304148e-06 -6.97574524e-06
      -6.68914527e-06 -4.04829143e-06 -2.60946968e-06 2.81432307e-07
      3.27232306e-06 5.41945064e-06 7.20249272e-06 8.69709766e-06
      8.13493898e-06 6.83435337e-06 5.29237877e-06 5.19907326e-06
      5.63031563e-06 7.20473963e-06 9.31495561e-06 1.34792945e-05
      1.55285561e-05 1.69136074e-05 1.72520959e-05 1.58691146e-05
      1.33755029e-05 1.04221135e-05 7.61512183e-06 6.64085564e-06
      5.02986768e-06 4.63762581e-06 3.83922998e-06 4.16157809e-06
      -4.11507216e-07 -1.93614324e-06 -2.66903976e-06 -3.87288628e-06
      -5.54991266e-06 -6.03842773e-06 -3.89391835e-06 6.19207640e-07
      3.59500723e-06 6.36474488e-06 7.98522979e-06 8.34629918e-06
      6.90888464e-06 4.70400573e-06 1.88131094e-06 -2.68215035e-06
      -4.52867471e-06 -6.88912314e-06 -7.49135961e-06 -8.01747228e-06
      -7.93826894e-06 -5.06335164e-06 -3.24247776e-06 8.15172996e-08
      3.61140496e-06 6.49421054e-06 8.76033118e-06 1.04404307e-05
      9.71364534e-06 8.28790689e-06 7.10198037e-06 7.37328628e-06
      8.14768555e-06 1.04019418e-05 1.33663916e-05 1.80517363e-05
      2.02530264e-05 2.13162257e-05 2.10657636e-05 1.88652557e-05
      1.57217764e-05 1.23324235e-05 9.39987331e-06 8.59161901e-06
      7.73057673e-06 7.98458859e-06 7.50857180e-06 7.80980827e-06
      1.47989670e-06 8.47854835e-07 -7.56611200e-08 6.28713394e-07
      1.53012479e-06 1.53954659e-06 3.45823508e-07 4.37339139e-07
      -1.37800362e-06 -1.98577141e-06 -1.95933194e-06 -1.93129881e-06
      -1.38732423e-06 2.19033882e-06 5.18079696e-06 5.51503445e-06
      4.51206915e-06 3.29058162e-06 3.24631606e-06 1.43224838e-06
      -1.44306199e-07 -6.46796650e-07 -4.45754154e-07 -1.93924939e-06
      -2.68683266e-06 -1.66306597e-06 -1.22843332e-07 8.94538630e-08
      -1.49315451e-06 -2.74007925e-06 -3.28644524e-06 -2.47800654e-06
      -1.41086969e-06 -1.72443254e-06 -7.75457352e-07 2.52728614e-06
      5.89151841e-06 6.93994025e-06 5.23819290e-06 2.64550113e-06
      1.50833534e-06 2.81237135e-06 3.16229739e-06 3.43979968e-06
      2.59143053e-06 1.38170537e-06 1.00759884e-07 4.42767139e-08
      8.81939343e-07 1.26072155e-06 -3.27734746e-08 -9.08794391e-07
      -9.81873654e-07 -2.34433756e-07 -5.15790020e-07 -6.79170796e-07
      4.77448225e-07 7.64527442e-07 4.37980162e-07 -1.43865108e-07
      -4.27155044e-07 1.46920104e-06 4.84521252e-06 6.36958248e-06
      5.29644512e-06 2.10039025e-06 5.37342828e-07 -1.10840108e-06
      -2.10261464e-06 -2.31751551e-06 -2.36932510e-06 -1.64605001e-06
      -1.32816081e-06 -1.72429816e-06 -1.55489306e-06 -5.26860447e-07
      -6.24285917e-07 -2.18436776e-06 -2.92483696e-06 -2.07446556e-06
      -8.40692422e-08 2.81738988e-08 -7.07496554e-07 -5.93426250e-07
      1.33615504e-06 5.09650590e-06 6.33659010e-06 4.99149473e-06
      1.99271039e-06 5.31338458e-07 2.57950745e-07 2.25127542e-06
      5.06125252e-06 5.86196165e-06 4.26056295e-06 1.89176501e-06
      3.04458787e-08 8.28666032e-07 9.54634970e-07 -1.03580771e-06
      -3.36580911e-06 -3.35573077e-06 -2.52799168e-06 -2.07282210e-06
      -1.45570368e-06 -1.66799737e-07 1.42744295e-06 2.53285589e-06
      1.91204276e-06 1.91196000e-06 4.65735911e-06 7.13371492e-06
      7.77997229e-06 4.42078453e-06 6.46887145e-07 -2.49145774e-06
      -3.29223553e-06 -3.38525433e-06 -2.66909228e-06 -1.96109931e-06
      -8.14786631e-07 -1.39216888e-06 -1.61278308e-06 -1.85891452e-06
      -1.09665768e-06 -5.14467672e-07 -1.78100140e-06 -2.29676652e-06
      3.92712195e-07 1.87028252e-06 1.81801170e-06 1.85690823e-07
      -1.67195230e-06 -1.05818583e-06 1.06559878e-06 2.53234452e-06
      2.47460343e-06 7.05836271e-07 -6.45927344e-07 -8.11012512e-07
      1.87587409e-06 5.18761408e-06 6.41205406e-06 5.26205486e-06
      -1.62872846e-06 -1.44079092e-06 -6.32524007e-08 5.12328654e-07
      -1.96219685e-06 -3.67980738e-06 -3.74325168e-06 -2.74208423e-06
      -1.98022099e-06 -1.36437427e-06 -1.39946735e-07 1.80604593e-06
      2.47976322e-06 2.54485076e-06 3.31395154e-06 5.56795840e-06
      8.45373415e-06 7.46689420e-06 3.18874982e-06 -1.47317473e-06
      -2.90375556e-06 -3.52242387e-06 -2.70124701e-06 -9.90085596e-07
      -8.35700234e-07 -1.34204186e-06 -2.04390744e-06 -2.41096086e-06
      -1.67302881e-06 -9.27638268e-07 -3.53064479e-07 -1.29092189e-06
      -2.32284322e-07 2.19353933e-06 2.77472986e-06 2.04584967e-06
      -8.20515766e-07 -3.15793682e-06 -3.75187506e-06 -3.09472489e-06
      -2.29803800e-06 -1.16108993e-06 -7.83584653e-07 -6.67919153e-07
      5.57368935e-07 2.67838550e-06 4.66217443e-06 5.29195904e-06
      -2.16334388e-06 -2.47579055e-06 -1.96431097e-06 -8.26118878e-07
      -4.96326074e-08 -1.34156733e-06 -2.68749568e-06 -2.83435088e-06
      -2.39209157e-06 -2.20874381e-06 -1.83123268e-06 -3.29718176e-07
      1.23227517e-06 1.85767806e-06 2.54035876e-06 2.92880350e-06
      4.79525897e-06 7.15409396e-06 5.37126425e-06 1.01982300e-06
      -2.16178114e-06 -2.81468351e-06 -1.96455767e-06 -8.50088441e-07
      3.20181499e-07 6.75338924e-07 -1.36904873e-06 -2.54807264e-06
      -2.58007208e-06 -1.93307778e-06 -1.92132734e-06 -1.46504021e-06
      -7.25846007e-07 7.61237516e-07 2.29768739e-06 3.18111506e-06
      1.63947323e-06 -1.17878051e-06 -4.03027798e-06 -5.56768373e-06
      -6.96392863e-06 -5.72735507e-06 -4.02714841e-06 -2.07311700e-06
      5.96224766e-07 2.16043668e-06 3.04074979e-06 3.91543790e-06
      -3.78412119e-06 -3.21230664e-06 -2.47116031e-06 -2.12001123e-06
      -1.01766034e-06 -1.15400269e-06 -1.64107689e-06 -1.92126140e-06
      -2.08104962e-06 -1.73155661e-06 -2.10153121e-06 -2.34835534e-06
      -1.11738757e-06 -6.78670773e-08 4.13951966e-07 1.09726125e-06
      2.42618876e-06 3.16328305e-06 3.60968079e-06 2.20097627e-06
      -5.90048103e-07 -1.98470002e-06 -1.21057769e-06 -4.29515893e-07
      2.98378012e-07 1.65725976e-06 1.31826528e-06 -9.45124043e-07
      -2.50560424e-06 -2.90270941e-06 -2.62583103e-06 -2.26568250e-06
      -1.53039355e-06 6.30082582e-08 1.15872911e-06 2.43098543e-06
      2.72369039e-06 7.03766489e-07 -2.40859458e-06 -4.81290272e-06
      -6.97555197e-06 -8.47412684e-06 -7.12360725e-06 -5.54000053e-06
      -3.61705384e-06 -2.19508047e-06 -6.28974590e-07 2.18183573e-07
      -3.55403677e-06 -3.39906001e-06 -2.50450626e-06 -1.56310239e-06
      -9.51476920e-07 -1.08144184e-06 -1.61376829e-06 -2.38846678e-06
      -2.77137610e-06 -1.93697315e-06 -1.54162456e-06 -1.57040654e-06
      -1.54689508e-06 -6.52691767e-07 2.83837323e-07 5.21492098e-07
      1.58567423e-06 1.93315850e-06 1.40745124e-06 1.47799381e-06
      8.03056878e-07 -1.28332942e-06 -1.44227795e-06 1.77650023e-07
      8.94262598e-07 2.68885947e-06 2.95541463e-06 1.45013939e-06
      -5.63664912e-07 -1.77041727e-06 -1.44952605e-06 -1.05900187e-06
      -9.20507091e-07 -4.83815541e-07 3.24185010e-07 8.55868961e-07
      1.30190347e-06 1.24295036e-06 -2.88734157e-07 -2.73212891e-06
      -3.80148072e-06 -5.48513890e-06 -6.33480386e-06 -6.09342987e-06
      -6.60056003e-06 -6.98122449e-06 -6.25101620e-06 -4.96116309e-06
      -3.34843412e-06 -3.66135191e-06 -2.99207750e-06 -1.20110553e-06
      4.24216665e-07 7.67545998e-07 -2.30903410e-07 -2.05411015e-06
      -4.23992378e-06 -3.99607461e-06 -2.20100310e-06 -6.02905459e-07
      -1.61216303e-08 3.80433789e-07 1.34451989e-06 2.52561131e-06
      2.41937028e-06 2.16495573e-06 1.04181333e-06 6.17735282e-07
      9.24006656e-07 3.40212750e-07 -3.99271329e-07 -2.81491765e-07
      8.06794333e-07 2.76779610e-06 2.88299771e-06 2.59431636e-06
      2.70174246e-06 1.79195183e-06 1.42215140e-06 9.55279233e-07
      1.09590012e-07 6.53640654e-07 1.18134858e-06 -8.86364404e-08
      -6.06717776e-07 -1.14429810e-07 9.62563036e-07 1.50623066e-06
      7.33022773e-07 -3.69111859e-07 -2.01811986e-06 -3.66784229e-06
      -5.34346509e-06 -7.24920346e-06 -8.47316642e-06 -8.83089979e-06
      -4.31414310e-06 -4.21624964e-06 -3.64254242e-06 -2.38430539e-06
      -1.25245705e-07 1.98742009e-06 9.74411591e-07 -5.48080891e-07
      -3.85415888e-06 -5.22429673e-06 -3.78837672e-06 -8.99331496e-07
      1.56275621e-06 1.91096433e-06 2.43462728e-06 3.89007482e-06
      5.93415189e-06 6.49496496e-06 4.50917378e-06 2.05903598e-06
      9.98016617e-07 1.59910712e-06 1.69659199e-06 4.18038439e-08
      -2.10609755e-06 -9.04564388e-07 -7.98357078e-08 -3.18249676e-07
      1.31868012e-06 1.98157295e-06 3.78432605e-06 4.45803698e-06
      3.19906621e-06 2.35943594e-06 2.41000089e-06 8.94965297e-07
      -8.17996010e-07 -9.05838533e-07 -4.33917435e-08 1.43949126e-06
      2.80816130e-06 2.45769775e-06 1.85424210e-06 1.21861135e-07
      -1.90978153e-06 -3.54236522e-06 -5.49570905e-06 -7.27247470e-06
      -3.41983741e-06 -4.14003944e-06 -3.42277917e-06 -2.55828263e-06
      -1.15466059e-06 2.75211687e-06 2.83739723e-06 2.58603654e-06
      -9.45224258e-07 -3.94655217e-06 -4.52988616e-06 -2.28684212e-06
      1.32059188e-06 2.50288713e-06 2.30925730e-06 3.19096148e-06
      6.00372141e-06 9.12015548e-06 9.71832287e-06 6.97752148e-06
      3.81772088e-06 2.71847557e-06 2.82008205e-06 2.16152648e-06
      -2.56613544e-06 -5.35848085e-06 -5.48127082e-06 -3.98464317e-06
      -2.87097146e-06 -5.11271992e-07 1.94485506e-06 4.24410564e-06
      5.27736256e-06 4.79890969e-06 4.07562220e-06 2.58614091e-06
      1.66904783e-07 -1.38856876e-06 -1.74509205e-06 -1.10486792e-06
      5.37705830e-07 9.57313546e-07 1.06287121e-06 1.17131344e-06
      8.28761983e-07 8.83213644e-08 -9.23443565e-07 -3.03983825e-06
      -1.33653757e-07 -1.18549269e-06 -2.18075934e-06 -3.52303755e-06
      -3.29624095e-06 5.24704156e-08 1.78454752e-06 3.65918413e-06
      2.10934559e-06 -1.03218713e-06 -4.30883301e-06 -3.58128818e-06
      -5.87508509e-07 1.67769872e-06 9.48969159e-07 -3.52128694e-07
      1.38336191e-06 5.15259762e-06 9.54893949e-06 1.03878410e-05
      8.83466964e-06 5.45333569e-06 3.76749904e-06 2.19862591e-06
      2.12380371e-07 -4.16161402e-06 -7.96383574e-06 -7.86072724e-06
      -6.22036077e-06 -4.52019231e-06 -2.00670229e-06 1.05343747e-06
      2.73175465e-06 3.86775901e-06 3.92124502e-06 3.06164816e-06
      1.89328432e-06 1.09229944e-07 -2.16016429e-06 -3.46233196e-06
      -2.50195762e-06 -2.19282310e-06 -2.57574743e-06 -2.25593681e-06
      -1.09691052e-06 3.80512404e-07 6.04807951e-07 -2.48324312e-07
      -8.57071427e-08 2.03808145e-06 2.23359984e-06 -1.07401695e-06
      -4.04809725e-06 -3.00146917e-06 -4.13184921e-07 2.76781952e-06
      2.18950277e-06 6.37644973e-07 -2.01457783e-06 -3.50640721e-06
      -2.14640954e-06 1.32978334e-06 5.15833733e-07 -1.96736914e-06
      -2.86501904e-06 -1.56742112e-06 1.74605486e-06 5.02082094e-06
      6.07284846e-06 5.48231037e-06 3.25547967e-06 9.86048008e-08
      -5.13268468e-08 -2.89037939e-06 -6.10498273e-06 -7.76548859e-06
      -7.54548410e-06 -5.52915753e-06 -3.97218218e-06 -1.68668100e-06
      6.65306914e-07 4.30311985e-07 6.10547090e-07 1.08155314e-06
      4.84862369e-07 6.66001540e-07 -6.41553754e-07 -2.43570162e-06
      -3.02819649e-06 -3.67911025e-06 -4.06409208e-06 -4.83768827e-06
      -3.44976365e-06 -1.33341598e-06 1.07532188e-07 7.01154761e-07
      -1.47121079e-06 1.08973961e-06 3.03340357e-06 1.43942714e-06
      -1.17335844e-06 -2.89402692e-06 -1.76892911e-06 4.21764268e-09
      2.13791395e-06 1.56155522e-07 -7.99931229e-07 -2.88100250e-06
      -2.51785696e-06 6.29563658e-07 1.73546141e-06 -1.29070088e-06
      -3.01735736e-06 -4.60819501e-06 -4.29122974e-06 -2.80022186e-06
      -1.40528061e-06 2.76661268e-07 -6.59168165e-07 -3.10538803e-06
      -4.21562208e-06 -4.46585818e-06 -5.10274094e-06 -5.03475121e-06
      -5.70549764e-06 -4.69599900e-06 -2.23515940e-06 -3.77999385e-07
      1.71884665e-06 1.23579127e-06 -6.67081224e-07 -1.16774243e-06
      1.84817264e-08 1.07346034e-06 1.53101746e-06 7.95910921e-07
      -2.31129036e-07 -1.43505304e-06 -1.89831235e-06 -3.12595967e-06
      -2.87505054e-06 -2.07291691e-06 -9.91417551e-07 -2.01253300e-07
      -3.09698680e-06 -9.57501470e-07 1.21334438e-06 1.99152919e-06
      9.40787913e-07 -3.91088747e-07 -3.93946863e-07 -1.09903021e-06
      -5.90421052e-07 -1.08094753e-06 -2.22892800e-06 -4.60154206e-06
      -4.18215632e-06 -2.15690784e-06 8.61780563e-07 8.12271708e-07
      -6.44895522e-07 -3.49343213e-06 -6.40347116e-06 -7.71068699e-06
      -7.30179090e-06 -5.04468380e-06 -4.65888388e-06 -6.34139360e-06
      -8.48012132e-06 -8.24326617e-06 -7.55589645e-06 -4.89476588e-06
      -3.47257901e-06 -2.36167170e-06 -9.57766588e-07 1.47152457e-06
      4.41420661e-06 6.22134394e-06 3.63762956e-06 7.38701260e-07
      -6.58103048e-08 7.29767919e-07 1.60368336e-06 2.55187615e-06
      2.75161733e-06 1.35516802e-06 1.13922522e-06 5.90131947e-07
      5.10179348e-07 2.03660818e-07 2.24071300e-07 -1.37163823e-07
      -1.84999749e-06 -2.33264313e-06 -1.12101043e-06 8.19147317e-07
      2.53317739e-06 7.59242653e-07 9.74532099e-07 -8.88715022e-07
      -1.51568747e-06 -2.57081138e-06 -2.49216237e-06 -3.67431812e-06
      -5.28727060e-06 -4.51172536e-06 -2.54729343e-06 7.82585303e-08
      1.99121723e-06 1.28210729e-06 -2.76635387e-06 -6.18956619e-06
      -7.85362681e-06 -7.35976209e-06 -6.96624556e-06 -7.64443121e-06
      -1.07017540e-05 -1.07978394e-05 -9.01183830e-06 -5.97470489e-06
      -3.73245712e-06 -2.92225081e-06 -2.29784951e-06 -2.19320640e-07
      3.13702367e-06 8.34688944e-06 1.03957445e-05 6.91089735e-06
      2.92783488e-06 1.50134099e-06 1.38558801e-06 2.17247475e-06
      4.24738073e-06 3.72645900e-06 2.57259626e-06 1.02571335e-06
      1.02004390e-06 -9.93449731e-08 -7.31983434e-08 -1.84789485e-07
      2.50317999e-06 1.16136266e-06 -3.04434252e-07 -8.57389296e-07
      7.16983607e-07 2.12284613e-06 1.31478407e-06 -5.79723007e-07
      -1.64560186e-06 -3.40729594e-06 -4.74312719e-06 -5.34181618e-06
      -5.48745948e-06 -3.46715024e-06 -6.30736963e-07 5.69043834e-07
      1.11204963e-06 4.31932996e-08 -1.60991522e-06 -2.85591386e-06
      -4.12515510e-06 -3.96441692e-06 -5.62031619e-06 -5.94846415e-06
      -8.74650141e-06 -8.74616399e-06 -7.84651820e-06 -5.42064026e-06
      -2.48701326e-06 -2.09977156e-06 -3.30894341e-06 -4.14909937e-06
      -1.95715393e-06 2.85915871e-06 8.66563096e-06 1.12528132e-05
      8.59422653e-06 5.38010681e-06 3.56749024e-06 2.53244662e-06
      3.66033055e-06 5.42464522e-06 5.15293641e-06 3.08206450e-06
      1.94476320e-06 1.81126836e-07 -2.46465447e-07 -1.85535683e-07
      5.35655636e-06 5.57162775e-06 4.64929008e-06 2.30664409e-06
      4.26235943e-07 2.11598348e-07 1.00879777e-06 -2.61562917e-07
      -2.08490701e-06 -3.56472833e-06 -5.88941066e-06 -7.47048580e-06
      -7.82570714e-06 -5.88983221e-06 -2.04380217e-06 1.28962347e-06
      -9.02680370e-07 -2.99488079e-06 -5.71298915e-06 -3.21629909e-06
      -2.64049436e-06 -1.32574519e-06 -1.78250184e-06 -3.05085769e-06
      -4.86097497e-06 -3.99459532e-06 -1.47409571e-06 -8.13610598e-07
      3.79869675e-07 4.02369494e-07 -9.95940241e-07 -4.18235686e-06
      -3.85715111e-06 -1.08774418e-06 4.72814236e-06 7.64859305e-06
      8.63478272e-06 7.92948413e-06 6.79216328e-06 4.80389735e-06
      3.73068065e-06 5.36749349e-06 6.40848475e-06 5.61477418e-06
      3.53332575e-06 2.36308028e-06 1.78540915e-06 2.40459917e-06
      3.44330306e-06 4.87674333e-06 6.46418039e-06 6.41654879e-06
      4.48437140e-06 7.34611490e-07 -9.28146846e-07 -1.45025140e-07
      -2.02974957e-06 -2.63884363e-06 -4.34800813e-06 -5.98790166e-06
      -7.56851159e-06 -8.04735646e-06 -6.04116121e-06 -3.36240930e-07
      2.52296377e-06 -2.73509750e-06 -6.40861208e-06 -5.53295513e-06
      -4.81680763e-06 -2.13486305e-06 -2.86481395e-07 -4.56905610e-07
      -3.42022213e-06 -1.01484932e-06 3.48357707e-06 8.17819000e-06
      1.02944732e-05 8.59735883e-06 5.14545354e-06 2.06441371e-07
      -2.99084672e-06 -2.93704852e-06 1.01496448e-06 5.26456824e-06
      6.93241009e-06 6.05681998e-06 6.06886988e-06 6.03613444e-06
      3.79100493e-06 3.03931233e-06 4.66751044e-06 4.49313120e-06
      3.97861822e-06 3.32789045e-06 3.23315794e-06 4.09139329e-06
      2.47906269e-06 2.50617859e-06 3.92036009e-06 5.45281682e-06
      6.84968791e-06 4.59203193e-06 1.12359271e-06 -5.60659544e-07
      -1.19470258e-06 -2.94422148e-06 -4.78225274e-06 -5.47098534e-06
      -6.43094836e-06 -7.26330109e-06 -6.98540498e-06 -2.45359274e-06
      5.72380532e-06 6.87294960e-06 5.80133076e-07 -1.71581758e-06
      -4.66016309e-06 -4.79689606e-06 -2.57640863e-06 -1.20719267e-06
      -2.41048588e-06 -7.14089822e-07 1.62356662e-06 8.95741232e-06
      1.57462964e-05 1.79734343e-05 1.51693803e-05 7.74758973e-06
      1.26251223e-07 -3.02508670e-06 -2.54225961e-06 1.86449392e-06
      4.16251305e-06 4.12183044e-06 2.38409211e-06 3.40829138e-06
      4.02853857e-06 2.19244657e-06 1.69015152e-06 7.87647025e-07
      7.16825696e-07 2.08491329e-07 3.19340955e-07 1.20396862e-06
      4.62208254e-06 2.14850115e-06 1.26075793e-06 2.25779809e-06
      4.68648705e-06 5.72475392e-06 4.67107611e-06 1.21863241e-06
      -7.90885395e-07 -1.97315194e-06 -4.01760735e-06 -5.29165527e-06
      -5.51237918e-06 -5.54435428e-06 -5.63814547e-06 -2.69788939e-06
      4.45568412e-06 1.34178617e-05 1.37012448e-05 9.43203031e-06
      4.24237533e-06 -9.58027272e-07 -3.73498392e-06 -2.29979651e-06
      -1.79089511e-06 -3.02356540e-07 1.09345024e-06 3.14794192e-06
      1.03351713e-05 1.78456285e-05 2.14279389e-05 1.64174235e-05
      6.23642154e-06 -1.58981925e-06 -4.04068533e-06 -2.11340284e-06
      1.30738169e-06 1.36133849e-06 7.13261727e-07 1.55986498e-07
      1.18215974e-06 2.00105501e-06 2.24389646e-06 -7.42726201e-08
      -8.92568266e-07 -2.51871484e-06 -2.85488886e-06 -2.80541553e-06
      7.87305180e-06 4.51238111e-06 1.31791398e-06 -5.68847895e-07
      5.69059694e-07 2.83191866e-06 4.19553317e-06 4.09164113e-06
      1.15453031e-06 -1.02855336e-06 -3.30477428e-06 -4.52306494e-06
      -4.98965164e-06 -4.90128514e-06 -3.70510634e-06 -1.98562043e-06
      2.57915394e-06 1.14875138e-05 1.77703059e-05 1.79339004e-05
      1.33955637e-05 7.36171796e-06 -6.33236183e-08 -2.31955505e-06
      -3.32937589e-06 -9.49540379e-07 -7.39124573e-07 -5.04968123e-10
      1.64378901e-06 7.52211872e-06 1.43445150e-05 1.79549243e-05
      1.11422669e-05 3.30320722e-06 -2.64654068e-06 -4.10461553e-06
      -2.33832725e-06 -1.28527631e-06 -7.43161081e-07 -1.51976849e-06
      -1.57411591e-06 3.26498906e-07 1.13628573e-06 2.38939401e-06
      2.19916069e-06 7.41257766e-09 -1.83657914e-06 -3.18624893e-06
      1.19865326e-05 1.03182520e-05 6.29159149e-06 2.27370924e-06
      -3.10616542e-07 2.82077739e-08 1.74071727e-06 2.79316851e-06
      2.85846295e-06 7.72288899e-07 -1.25506733e-06 -2.56823660e-06
      -4.07728157e-06 -3.53877658e-06 -2.37935296e-06 -6.64199547e-07
      3.19124047e-06 8.29335295e-06 1.21680223e-05 1.44994219e-05
      1.34193788e-05 1.01107371e-05 2.83349573e-06 -2.40044051e-06
      -4.06753315e-06 -3.16401974e-06 -2.93066319e-06 -2.56836529e-06
      -3.03794286e-06 -1.62671711e-06 3.24953976e-06 7.82814368e-06
      8.46475723e-06 4.41885049e-06 -1.19844103e-07 -2.52231666e-06
      -3.15553689e-06 -3.78739310e-06 -3.39395297e-06 -3.69241729e-06
      -4.39917312e-06 -2.63748575e-06 -2.25630947e-06 -5.05628634e-07
      3.02434523e-06 5.15063311e-06 4.42414694e-06 1.71091381e-06
      1.05182053e-05 1.15571465e-05 1.00200477e-05 6.38666643e-06
      2.30257638e-06 4.45833820e-07 8.05476930e-07 1.84323255e-06
      2.49506706e-06 1.37903419e-06 -3.69215002e-07 -1.69601822e-06
      -2.62504705e-06 -2.13864610e-06 -1.23205791e-06 2.11826006e-07
      2.88357000e-06 3.95501593e-06 5.12668566e-06 6.91121295e-06
      8.85882218e-06 8.38403776e-06 3.42005683e-06 -2.51305846e-06
      -4.64743243e-06 -4.20346851e-06 -3.42037993e-06 -2.39572387e-06
      -3.38056270e-06 -4.46086324e-06 -3.82468716e-06 -7.57057535e-07
      1.89807679e-06 2.54293923e-06 1.21655171e-06 -7.47991677e-08
      -9.01597161e-07 -2.04242133e-06 -2.20185143e-06 -3.50373148e-06
      -4.65853509e-06 -4.92663230e-06 -5.98431689e-06 -6.01712009e-06
      -3.15785633e-06 1.30736328e-06 4.90148796e-06 4.81936058e-06
      6.68387656e-06 7.95657434e-06 8.33841295e-06 6.70980398e-06
      2.98105442e-06 5.13940073e-08 -8.47927254e-07 -1.71663189e-07
      1.86578222e-06 1.91472441e-06 2.16477517e-07 -1.68498866e-06
      -2.14384386e-06 -9.56802069e-07 1.02274385e-06 2.69144948e-06
      4.13989437e-06 2.56802036e-06 2.27054147e-06 1.95459756e-06
      3.50505934e-06 5.65808932e-06 3.94036351e-06 -2.10049848e-07
      -3.13412579e-06 -4.45658179e-06 -3.52084362e-06 -1.35215134e-06
      -6.14188536e-07 -1.22387985e-06 -2.83199734e-06 -2.58198611e-06
      -1.21454411e-06 9.49959372e-07 2.29588159e-06 1.66630207e-06
      1.43693569e-06 8.19325692e-07 1.13995816e-06 5.44225657e-07
      -1.19229560e-06 -4.31972512e-06 -6.55330905e-06 -9.59130739e-06
      -1.03375287e-05 -7.59763907e-06 -2.85790816e-06 9.60288730e-07
      4.61222999e-06 6.05213290e-06 7.31622958e-06 7.06481114e-06
      6.00178237e-06 2.42739293e-06 -6.99267105e-07 -1.04369008e-06
      -4.94960318e-07 1.09778478e-06 4.37516974e-07 -1.24115832e-06
      -1.75723426e-06 -7.99437373e-07 9.64612127e-07 3.26226063e-06
      3.49520747e-06 1.75078162e-06 -7.17104854e-07 -2.07286371e-06
      -1.27783028e-06 1.49913672e-06 3.41700093e-06 3.77033689e-06
      2.54768707e-07 -2.12573673e-06 -1.98859948e-06 -3.43972005e-07
      1.09201642e-06 1.14735701e-06 5.66171309e-07 -3.15753766e-07
      -9.01669011e-07 -3.41291980e-07 1.70441126e-06 2.64822893e-06
      2.62037611e-06 1.71947408e-06 1.88287243e-06 2.18291393e-06
      2.10846952e-06 -2.52286370e-08 -3.03987827e-06 -8.00715225e-06
      -1.25027436e-05 -1.33864023e-05 -1.16538768e-05 -8.39185395e-06
      1.76579090e-06 2.72613192e-06 4.42069631e-06 5.79008338e-06
      6.66998949e-06 5.06512333e-06 1.56852263e-06 -5.60246065e-07
      -1.26054306e-06 -1.83196630e-06 -1.61741593e-06 -2.21826735e-06
      -2.42340957e-06 -1.30544595e-06 1.69454586e-06 4.62134267e-06
      4.72370857e-06 3.14324029e-06 3.31405374e-07 -2.48084211e-06
      -2.95012774e-06 -1.17502293e-06 8.90076421e-08 2.25273448e-06
      1.02679871e-06 -9.21595415e-07 -7.50558456e-07 8.87875331e-07
      2.27303372e-06 2.48821766e-06 1.80447364e-06 1.13124838e-06
      4.55987426e-08 -2.47842877e-07 6.07925415e-07 3.37712368e-06
      3.80475353e-06 2.54034649e-06 1.60489981e-06 1.92384914e-06
      2.10277994e-06 2.14322768e-06 1.43664784e-06 -2.16192257e-06
      -8.00856651e-06 -1.25405768e-05 -1.39889244e-05 -1.33100584e-05
      8.10536221e-07 5.38937172e-07 -3.71621269e-07 2.48864978e-07
      2.84925659e-06 4.05780065e-06 1.68317172e-06 -7.84163490e-07
      -1.97270947e-06 -2.35094535e-06 -2.72935313e-06 -3.75685386e-06
      -4.44563193e-06 -4.64802042e-06 -1.54925772e-06 3.12171255e-06
      6.22428161e-06 5.31511978e-06 3.72789350e-06 1.93052460e-06
      8.12470660e-07 7.81041024e-07 2.50260132e-06 2.16762533e-06
      2.93454320e-07 -1.96135738e-06 -2.47147636e-06 -9.16242641e-07
      8.24433698e-07 2.10156577e-06 2.04354251e-06 7.32096794e-07
      3.13302650e-07 -4.54898355e-07 -2.84934771e-07 1.13935960e-06
      3.13466967e-06 3.39485405e-06 2.04389357e-06 4.31164324e-07
      1.02600143e-06 1.98232487e-06 1.61731441e-06 3.33879740e-07
      -2.78459333e-06 -7.31039881e-06 -9.93618323e-06 -1.08427466e-05
      2.60017509e-06 1.91271533e-06 8.44718162e-09 -1.86021794e-06
      -1.47567698e-06 8.85329996e-07 1.02582078e-06 -9.14289387e-07
      -1.91980530e-06 -1.27021701e-06 -9.46997886e-07 -2.43555451e-06
      -4.07722018e-06 -6.44748479e-06 -6.23317464e-06 -2.33021569e-06
      2.54204929e-06 5.33922912e-06 5.92692095e-06 4.29541296e-06
      4.72992588e-06 4.33401601e-06 5.40739302e-06 5.84654981e-06
      4.13982980e-06 5.59732598e-07 -2.53608664e-06 -3.46633828e-06
      -3.05371327e-06 -7.91256639e-07 9.18725220e-07 1.29267789e-06
      7.32163414e-07 1.28839176e-07 -1.00229045e-06 -8.68072959e-07
      2.17484256e-07 1.08979395e-06 8.13188080e-07 5.84510431e-08
      2.52506936e-07 6.59884790e-07 1.50391475e-06 5.40615872e-07
      -1.41842770e-06 -3.15686157e-06 -4.93277230e-06 -6.35054039e-06
      6.27092868e-06 5.72071804e-06 3.68772567e-06 1.13997828e-06
      -8.56296538e-07 -5.50366565e-07 3.31398411e-08 3.22871841e-07
      -4.62164763e-07 -2.62586610e-07 3.94326293e-07 3.97458422e-07
      -1.08661482e-06 -4.04133607e-06 -5.05065373e-06 -4.72438524e-06
      -1.43181535e-06 1.73169576e-06 5.30771467e-06 5.32734111e-06
      5.89500769e-06 5.83503106e-06 6.42395253e-06 8.13682709e-06
      6.93382890e-06 5.17752142e-06 7.84628298e-07 -1.00637408e-06
      -1.69973077e-06 -2.45620117e-06 -1.27715361e-06 2.14342009e-07
      6.04054492e-07 1.52598011e-06 8.18117883e-07 -9.57476459e-07
      -1.32799482e-06 -6.63257936e-07 4.62136654e-07 5.32457932e-07
      1.20137292e-06 7.33401009e-07 1.48625247e-06 2.33731339e-06
      8.22218681e-07 -3.60870217e-07 -2.12149257e-06 -3.67035159e-06
      1.12935577e-05 1.15403182e-05 9.53031304e-06 5.61228899e-06
      2.04049297e-06 -2.02032595e-07 -1.76788103e-06 -2.02781212e-06
      -2.08452639e-06 -1.15335354e-06 6.59865123e-08 1.91013987e-06
      1.24789267e-06 3.54119685e-08 -1.09103826e-06 -1.62710126e-06
      -8.81158883e-07 3.30889605e-07 3.47751620e-06 3.89280058e-06
      4.70535315e-06 5.12842735e-06 5.31843898e-06 6.86823842e-06
      7.31360842e-06 5.13867144e-06 3.49235506e-06 4.00287263e-07
      -9.89859700e-07 -2.69668271e-06 -3.55687393e-06 -2.58830892e-06
      -6.30629643e-07 1.97238208e-07 1.61063167e-06 1.13039926e-06
      5.52555548e-07 3.47015060e-07 7.55652081e-07 2.43933664e-06
      3.16924775e-06 2.50989933e-06 2.40626878e-06 3.40508313e-06
      3.24767211e-06 2.60579668e-06 2.20421703e-06 1.29291220e-06
      1.00449233e-05 1.16609481e-05 1.14207733e-05 8.74425496e-06
      4.64625418e-06 1.05018864e-06 -1.18861499e-06 -2.74404783e-06
      -3.25178576e-06 -2.78828634e-06 -1.47845492e-06 5.93248672e-07
      2.29450393e-06 1.71499414e-06 1.07964888e-06 1.44029241e-06
      1.19752849e-06 5.30410489e-07 9.07187655e-07 8.73180340e-07
      1.10210271e-06 2.16420608e-06 3.66825952e-06 3.90743071e-06
      4.59352077e-06 3.94105882e-06 2.06576397e-06 5.83862914e-07
      -8.07076447e-07 -3.07222444e-06 -4.10069924e-06 -4.40695430e-06
      -3.48607568e-06 -2.05669971e-06 -5.29788622e-07 6.81774424e-08
      1.34461436e-06 9.82769279e-07 6.30817794e-07 1.54350573e-06
      3.24244252e-06 3.60149693e-06 2.56593421e-06 3.08334506e-06
      4.16333296e-06 5.16745013e-06 4.91917763e-06 3.93776963e-06
      3.56050714e-06 5.62251216e-06 6.12707163e-06 6.60199839e-06
      6.03556009e-06 4.01034595e-06 2.81349571e-06 1.60770662e-06
      1.72805983e-07 -9.64053470e-07 -1.38193514e-06 -4.29690999e-07
      1.19292804e-06 2.62479193e-06 1.79187589e-06 2.09471818e-06
      1.75309390e-06 1.72319244e-06 2.55601179e-07 -1.46143918e-06
      -2.29908824e-06 -1.39862880e-06 2.68379063e-06 4.43898261e-06
      4.08172036e-06 4.29641659e-06 3.30228181e-06 1.72114392e-06
      1.13592910e-06 1.73558362e-07 -2.76199671e-06 -3.93073105e-06
      -3.90237756e-06 -2.83500162e-06 -6.07223683e-07 -7.41401891e-07
      -1.49964876e-07 1.55534309e-07 6.35049162e-07 4.10300316e-07
      8.40016583e-07 1.68368081e-06 1.81305438e-06 1.19229435e-06
      1.93235314e-06 3.35246341e-06 4.33866353e-06 4.59964485e-06
      3.09785719e-07 1.92077596e-06 2.57355282e-06 2.70932196e-06
      3.06908282e-06 4.05155697e-06 4.47902539e-06 4.73158070e-06
      5.01247541e-06 3.28564784e-06 6.64648383e-07 3.04211369e-07
      6.55044175e-07 1.28203726e-06 1.36973529e-06 1.83809914e-06
      1.06204777e-06 1.62047252e-06 -4.11802489e-07 -3.63645427e-06
      -5.90153604e-06 -4.53399662e-06 -3.18526418e-07 3.78224649e-06
      6.36806271e-06 5.43557644e-06 4.91264427e-06 3.95290090e-06
      3.15117813e-06 3.88402032e-06 4.33504920e-06 9.50834703e-07
      -9.87767862e-07 -1.08893687e-06 3.52107719e-07 -6.93697757e-08
      -8.79427034e-07 -1.77486243e-06 -7.20618402e-07 5.70214070e-07
      8.06224875e-07 4.49686667e-07 -1.03084048e-07 -2.90254036e-07
      -4.07547020e-07 4.22443577e-07 1.40559450e-06 1.56819078e-06
      -1.16878618e-06 -3.72984175e-07 3.00956344e-07 3.44783643e-07
      1.63423834e-07 1.29829994e-06 2.24946734e-06 4.22335825e-06
      5.42286125e-06 4.89030526e-06 2.78203311e-06 2.23067491e-06
      2.62770368e-06 1.21008873e-06 -1.35118205e-06 -5.29440172e-07
      -4.34845219e-07 1.79948287e-07 1.33604118e-07 -2.89364334e-06
      -6.35139850e-06 -8.76639206e-06 -5.93985806e-06 -8.29757425e-07
      4.55097506e-06 4.98929057e-06 4.93704192e-06 3.99733335e-06
      3.76776211e-06 4.42613236e-06 6.48953528e-06 5.88102148e-06
      2.80376526e-06 1.28783620e-06 8.31770592e-07 4.96551991e-08
      3.96297217e-08 -1.71751481e-06 -2.91659330e-06 -9.54654070e-07
      1.27248700e-06 2.15781597e-06 8.16839474e-07 -1.44833950e-06
      -2.57532224e-06 -2.25384724e-06 -1.39433348e-06 -5.98563247e-07
      -1.29437944e-06 -1.01661260e-06 -7.82914924e-07 -5.45640887e-07
      -2.83416767e-07 -3.15566439e-07 4.10381432e-07 8.42175552e-07
      2.32451043e-06 2.65588551e-06 1.33400135e-06 -4.26263362e-08
      1.83381485e-06 1.60972809e-06 -1.15659407e-06 -3.52903226e-06
      -4.46833837e-06 -3.60518743e-06 -1.99096894e-06 -2.14629176e-06
      -3.52111124e-06 -6.77831531e-06 -8.14438863e-06 -5.20478943e-06
      3.29235860e-07 2.95530299e-06 2.23330062e-06 -1.14350804e-08
      4.24950997e-07 1.08404936e-06 2.59467060e-06 4.37824974e-06
      5.12568067e-06 4.40671101e-06 3.17977151e-06 1.50162953e-06
      1.68436486e-07 -9.79380047e-07 -2.23126699e-06 -2.29270040e-06
      -4.31261213e-07 1.87892795e-06 2.17494312e-06 4.53129836e-08
      -2.91205697e-06 -3.42711655e-06 -2.50322887e-06 -1.50796382e-06
      -2.00291015e-06 -2.01429134e-06 -1.71204704e-06 -1.57258626e-06
      -1.44477360e-06 -1.30734168e-06 -8.80187315e-07 -3.99414205e-07
      -4.36075354e-08 -1.95380196e-07 -1.42544695e-06 -2.75290063e-06
      -2.66246116e-06 -1.86346642e-06 -1.24898895e-06 -3.36910102e-06
      -6.85224995e-06 -7.15657052e-06 -4.36473420e-06 -1.85754891e-06
      -2.31427202e-06 -5.54683402e-06 -6.88366572e-06 -7.17614284e-06
      -6.28897442e-06 -2.22287940e-06 -6.02423313e-07 -2.28486351e-06
      -2.81831808e-06 -1.18444189e-06 -2.28831183e-07 4.64508446e-07
      2.68542863e-06 3.70157795e-06 4.04982393e-06 3.38541736e-06
      1.92092762e-06 2.43442884e-07 -4.49138184e-07 -3.72304186e-07
      -4.84317184e-07 3.87162714e-07 2.08346250e-06 2.28616955e-06
      4.76930325e-07 -1.26492125e-06 -1.39374765e-06 -4.22210888e-07
      -2.49509117e-06 -2.19600452e-06 -1.99073429e-06 -1.76236995e-06
      -1.51971790e-06 -1.78593200e-06 -2.24619384e-06 -2.11776796e-06
      -1.99987039e-06 -1.70753913e-06 -2.66483107e-06 -4.37894323e-06
      -4.22046696e-06 -3.09351526e-06 -6.02724867e-07 1.13156000e-06
      -2.52149971e-06 -6.45265709e-06 -7.36939137e-06 -4.82045061e-06
      -3.55201678e-06 -4.50997413e-06 -7.24888741e-06 -8.05847321e-06
      -9.13720123e-06 -9.06584592e-06 -6.87847341e-06 -6.82496511e-06
      -6.28682847e-06 -5.91611706e-06 -3.90639661e-06 -2.12883629e-06
      -4.06403160e-07 1.08204556e-08 8.18884303e-07 1.68900920e-06
      1.06340201e-06 -2.08230219e-07 -4.11367836e-07 -6.32059482e-07
      -7.72136701e-08 1.02388583e-06 1.84475039e-06 2.87620355e-06
      3.04618811e-06 2.45423143e-06 1.21975188e-06 1.02746151e-06
      -2.59339436e-06 -2.17457432e-06 -1.62334402e-06 -1.31045681e-06
      -8.40042844e-07 -9.01263206e-07 -1.43351167e-06 -2.17374895e-06
      -2.27510282e-06 -2.22358744e-06 -2.29789862e-06 -3.64491552e-06
      -4.83750409e-06 -4.15681097e-06 -1.07393691e-06 3.32434001e-06
      3.23594872e-06 6.42645318e-07 -4.08085907e-06 -7.14164071e-06
      -7.05801176e-06 -6.36339246e-06 -7.79652419e-06 -7.58718897e-06
      -7.33181696e-06 -8.30636964e-06 -8.23671689e-06 -8.49830394e-06
      -8.09777794e-06 -8.12128746e-06 -7.83810628e-06 -6.68198481e-06
      -2.85931901e-06 -1.37080372e-06 -1.13362830e-06 -2.07360245e-06
      -2.77210847e-06 -3.26096506e-06 -2.65370295e-06 -2.26073939e-06
      -2.20124957e-06 -9.71569762e-07 5.85058558e-07 2.02332194e-06
      2.66021971e-06 3.35307959e-06 2.47320668e-06 1.72500972e-06
      -1.09691962e-06 -1.08426673e-06 -7.44508156e-07 -5.04333570e-07
      -2.74629315e-07 -7.56564305e-07 -1.04350681e-06 -1.80532129e-06
      -2.48357219e-06 -2.79304800e-06 -2.28277872e-06 -2.98792611e-06
      -4.38319194e-06 -4.90292678e-06 -2.80896620e-06 2.63046377e-06
      3.95273491e-06 3.13579903e-06 -1.34326640e-07 -4.33315745e-06
      -7.47679042e-06 -9.05750403e-06 -9.89356067e-06 -8.91720447e-06
      -6.26079191e-06 -4.63922788e-06 -4.35780248e-06 -5.57992689e-06
      -7.48087677e-06 -7.34012883e-06 -7.29606563e-06 -6.45416549e-06
      -4.14171836e-06 -2.47567414e-06 -1.02885144e-06 -1.85314548e-06
      -4.66412394e-06 -4.80038852e-06 -4.26970473e-06 -3.96853284e-06
      -3.69626105e-06 -3.05653930e-06 -1.52978055e-06 9.74955228e-08
      1.41897090e-06 1.72971806e-06 1.57946067e-06 9.04484978e-07
      8.58654346e-07 5.59435648e-07 -7.92777044e-08 -2.90051446e-07
      -3.38771940e-07 -7.75021363e-07 -2.01539729e-06 -2.37960398e-06
      -2.06128743e-06 -2.14008787e-06 -2.80493350e-06 -3.43459078e-06
      -4.70729083e-06 -6.22829748e-06 -5.66015160e-06 -2.57170859e-06
      8.82287793e-07 1.45487877e-06 4.08760350e-08 -2.51065171e-06
      -4.66515166e-06 -7.66473568e-06 -1.12189136e-05 -1.12990774e-05
      -7.08574271e-06 -2.68873396e-06 -1.66593793e-06 -2.26789552e-06
      -3.58541206e-06 -4.55095960e-06 -5.45619559e-06 -4.68809685e-06
      -3.44815066e-06 -1.81545215e-06 -8.79277934e-07 -1.99677265e-06
      -3.42765065e-06 -3.91871708e-06 -4.24183963e-06 -4.66478514e-06
      -4.21756022e-06 -3.77955871e-06 -3.14624117e-06 -1.80990446e-06
      -5.24159020e-07 3.91991477e-07 7.54885548e-07 8.59224798e-08
      1.91341837e-06 1.50776964e-06 7.02557543e-07 -6.18576053e-08
      -1.05991660e-06 -1.34723757e-06 -2.24454379e-06 -2.99150565e-06
      -2.96535518e-06 -1.83502823e-06 -1.14727936e-06 -2.63157858e-06
      -5.16925729e-06 -7.44105500e-06 -8.18218541e-06 -7.44793169e-06
      -6.06661115e-06 -4.44418174e-06 -3.26324084e-06 -3.83968018e-06
      -4.75321349e-06 -6.08617120e-06 -7.89590285e-06 -9.51159018e-06
      -7.90403374e-06 -2.88688670e-06 -2.04747437e-07 -2.87187191e-07
      -8.91795253e-07 -2.98591118e-07 -2.82205178e-06 -2.32335015e-06
      -1.74631805e-06 -5.05036496e-07 7.12614337e-07 2.85741208e-07
      -1.45959768e-06 -2.10764006e-06 -2.92167510e-06 -3.85785688e-06
      -4.80256040e-06 -5.43250871e-06 -5.03610727e-06 -4.44931538e-06
      -2.79308915e-06 -1.37192387e-06 -8.32751482e-07 -8.75134276e-07
      1.08742586e-06 8.96487904e-07 7.33445404e-07 1.24673733e-07
      -1.54822214e-06 -2.32290154e-06 -2.65267727e-06 -2.77988966e-06
      -2.93057815e-06 -2.28499948e-06 -9.43403165e-07 -9.89016485e-07
      -2.62742219e-06 -6.47620573e-06 -9.31385966e-06 -9.83725749e-06
      -9.71158534e-06 -9.43512623e-06 -8.45950308e-06 -7.47670629e-06
      -6.38620713e-06 -5.87954128e-06 -6.00735120e-06 -6.00212979e-06
      -6.35944298e-06 -5.78133086e-06 -3.49860443e-06 -1.32336288e-06
      -7.10478048e-07 1.18018500e-06 1.89621716e-07 -5.42872840e-07
      -8.45680120e-07 5.47381148e-07 5.32577985e-07 1.32825721e-06
      1.25580755e-07 -3.71807545e-07 -6.39397683e-07 -1.79526444e-06
      -4.15371824e-06 -6.19581260e-06 -7.22365394e-06 -6.61733475e-06
      -4.79475511e-06 -3.16115916e-06 -2.28859244e-06 -2.03305262e-06
      -6.52453878e-08 -1.72709804e-07 -3.82424723e-08 5.38460654e-07
      -6.79868435e-07 -2.45375509e-06 -2.81950520e-06 -3.01923410e-06
      -2.00433487e-06 -1.43580587e-06 -5.11491351e-07 -5.06807908e-07
      -7.13886621e-08 -2.23596021e-06 -6.29777605e-06 -8.86789076e-06
      -1.02357935e-05 -9.96848576e-06 -8.65567745e-06 -7.55734254e-06
      -7.40117139e-06 -6.52831977e-06 -4.75592969e-06 -3.34921674e-06
      -2.65723384e-06 -4.60868023e-06 -6.66084634e-06 -6.84631232e-06
      -5.69213944e-06 -2.74567992e-06 -1.30381773e-06 -4.93133484e-07
      -1.17526736e-06 -1.94836980e-06 -4.22615994e-06 -3.39357007e-06
      -2.92853792e-06 -2.05004471e-06 -9.42384020e-07 -5.89771673e-07
      -1.75378989e-06 -4.24374684e-06 -6.27817917e-06 -6.73817976e-06
      -5.03584579e-06 -3.69384179e-06 -3.02755620e-06 -2.42061128e-06
      8.72881216e-08 -5.61251738e-07 -5.86323154e-07 -4.07116431e-07
      -1.26210082e-07 -1.38891437e-06 -2.65819563e-06 -2.59652620e-06
      -2.32665934e-06 -1.94533345e-06 -9.44273950e-07 -7.14080329e-07
      -4.24539053e-07 -3.22827958e-07 -2.08500478e-06 -4.16048078e-06
      -6.81970914e-06 -8.15435396e-06 -6.68842313e-06 -5.13588338e-06
      -4.03533204e-06 -3.82759299e-06 -2.48343122e-06 -1.25354597e-06
      8.74748821e-07 4.22595434e-07 -2.09835594e-06 -5.80860660e-06
      -7.66605990e-06 -6.62480898e-06 -5.05773551e-06 -3.66105905e-06
      -3.25116071e-06 -3.78413165e-06 -7.34860078e-06 -8.28188513e-06
      -7.65785353e-06 -5.77516721e-06 -3.70404405e-06 -1.51090160e-06
      -2.26721255e-07 -1.04972241e-06 -2.60338561e-06 -4.22148014e-06
      -3.04616447e-06 -2.01447187e-06 -2.00697673e-06 -1.85828208e-06
      1.58746730e-06 8.23114092e-08 -6.95823530e-07 -4.79435471e-07
      -9.00281734e-08 1.66120060e-07 -6.62584057e-07 -2.01788976e-06
      -1.59584874e-06 -2.05005335e-06 -2.68371787e-06 -2.91284869e-06
      -2.23164238e-06 -1.16568299e-06 -1.40282441e-06 -1.21176231e-06
      -2.91251467e-06 -4.52786389e-06 -4.20010338e-06 -2.18648711e-06
      -1.28728558e-07 6.59880072e-07 1.14780880e-06 1.36214317e-06
      2.16486319e-06 2.79666347e-06 1.89785487e-06 -1.39519148e-06
      -4.18822265e-06 -5.77226092e-06 -5.43188207e-06 -4.92257095e-06
      -4.75702791e-06 -4.81941561e-06 -6.51985738e-06 -8.37764037e-06
      -9.17441503e-06 -8.39923268e-06 -6.32526962e-06 -3.98568545e-06
      -9.72789067e-08 2.11703400e-06 1.90899868e-06 4.45669627e-07
      1.06862245e-07 8.56671704e-07 3.73574352e-07 -1.24653798e-09
      2.29004149e-06 1.06483355e-06 -6.45150010e-07 -1.80442805e-06
      -1.30441424e-06 5.81273127e-07 1.54427175e-06 7.93932941e-07
      3.43014506e-08 -9.74141699e-07 -2.28550357e-06 -4.30011505e-06
      -5.02109197e-06 -3.41793748e-06 -2.73741102e-06 -1.33623303e-06
      2.65817135e-07 -2.60665104e-07 -1.80968027e-06 -2.10738813e-06
      -2.15533433e-07 2.77449772e-06 4.19630669e-06 4.49834806e-06
      3.63486856e-06 3.12998895e-06 2.34503568e-06 2.16978947e-07
      -3.06753259e-06 -5.29980434e-06 -4.55823056e-06 -3.46913453e-06
      -4.28304065e-06 -4.17849697e-06 -4.38312236e-06 -5.52870506e-06
      -7.02233046e-06 -8.03093189e-06 -7.16400473e-06 -4.70848818e-06
      -2.51739266e-07 2.78700168e-06 3.09842562e-06 1.29983039e-06
      6.11504518e-08 1.10469585e-07 2.34793603e-07 7.40273435e-07
      4.44050283e-06 2.95239488e-06 7.52791323e-07 -1.54352995e-06
      -3.19183596e-06 -2.66930010e-06 -4.32750028e-07 1.48357128e-06
      2.65140693e-06 9.29233920e-07 -1.36587130e-06 -3.11609483e-06
      -5.42470843e-06 -5.89639149e-06 -5.75677541e-06 -4.46788226e-06
      -2.82056430e-06 -3.23542110e-07 5.18864908e-07 -4.61589423e-07
      -1.04475066e-06 4.79704283e-07 2.06123354e-06 4.27080795e-06
      4.53587836e-06 3.05121921e-06 1.14008162e-06 -3.22231813e-07
      -4.26337419e-06 -6.14981946e-06 -5.81045697e-06 -3.26556847e-06
      -7.92937215e-07 -1.16774549e-06 -1.98482644e-06 -2.78088737e-06
      -3.75691138e-06 -5.48264461e-06 -5.97254893e-06 -4.30815771e-06
      -7.22986471e-08 4.02235219e-06 5.25818132e-06 3.78432628e-06
      8.08679772e-08 -2.42798501e-06 -3.06762058e-06 -2.48578431e-06
      5.99902205e-06 5.17444687e-06 3.37373262e-06 7.97096618e-07
      -1.98752787e-06 -3.59552564e-06 -3.44107912e-06 -1.30103285e-06
      1.08262782e-06 2.33064407e-06 1.02157060e-06 -1.79825838e-06
      -4.02403475e-06 -4.65160065e-06 -5.98983797e-06 -7.44700174e-06
      -7.00304599e-06 -4.21273535e-06 -2.03420541e-06 2.20097732e-07
      1.08208110e-06 2.25925123e-06 1.78653443e-06 1.52759935e-06
      3.24466123e-06 3.17128524e-06 1.33762740e-06 -8.01219187e-07
      -4.78431684e-06 -8.57944451e-06 -9.06016430e-06 -6.79551249e-06
      -2.43642467e-06 1.69527357e-06 2.45550223e-06 1.44667536e-06
      -7.70436372e-07 -2.60552383e-06 -3.67827079e-06 -3.95835696e-06
      -5.49335027e-07 4.10439998e-06 6.38960319e-06 5.01888235e-06
      8.13391807e-07 -2.59417038e-06 -4.74590115e-06 -5.79192692e-06
      1.69387454e-06 3.84553778e-06 6.19199045e-06 6.54042105e-06
      3.64641824e-06 2.91709830e-06 5.13715759e-06 6.92051299e-06
      6.08410028e-06 5.05239268e-06 3.71114993e-06 1.79148708e-06
      9.43192276e-07 1.58316209e-06 2.11221140e-06 4.56984390e-06
      5.25434598e-06 3.24433677e-06 -4.64600333e-07 -3.73308308e-06
      -6.67467066e-06 -9.29194812e-06 -8.84391739e-06 -6.57157034e-06
      -8.07595279e-06 -1.10728870e-05 -1.09577704e-05 -5.28427427e-06
      6.04234117e-07 3.52931443e-06 3.30664466e-06 3.05337676e-06
      2.76006767e-06 2.31782928e-06 -2.81247907e-07 -4.55387408e-06
      -4.89383228e-06 -7.55054714e-07 3.11703798e-06 2.83827967e-06
      -3.51571543e-07 -4.42786268e-06 -7.77852711e-06 -7.56282316e-06
      -6.51395567e-06 -6.91437981e-06 -8.70902477e-06 -9.83730752e-06
      2.17138131e-06 3.11637996e-06 4.61527588e-06 4.69894348e-06
      2.10755888e-06 1.82940380e-06 4.61237551e-06 7.05558932e-06
      5.92729157e-06 4.13557109e-06 3.01707860e-06 2.28401677e-06
      2.15616433e-06 2.12437976e-06 2.33444598e-06 4.27344230e-06
      5.67113602e-06 3.77946230e-06 -6.81474887e-07 -4.24025029e-06
      -6.90551633e-06 -8.58589101e-06 -8.09662015e-06 -6.47527440e-06
      -6.52709696e-06 -9.33194133e-06 -1.04184846e-05 -5.74249043e-06
      9.84255394e-07 4.65433141e-06 3.88472654e-06 3.52748680e-06
      3.38760378e-06 3.71350779e-06 1.87292960e-06 -2.75620027e-06
      -5.69070926e-06 -2.58960381e-06 1.54398697e-06 2.47953244e-06
      -6.40172715e-08 -3.60218996e-06 -7.93041909e-06 -9.03621367e-06
      -7.63732442e-06 -5.53723339e-06 -5.97665257e-06 -7.67279835e-06
      2.24268024e-06 1.60337447e-06 3.38928044e-06 3.19077094e-06
      2.62792952e-07 -4.83803831e-07 3.27970724e-06 6.36276491e-06
      6.05650303e-06 3.22025608e-06 1.59228250e-06 1.71541581e-06
      2.96388907e-06 3.24276084e-06 3.66532686e-06 5.52071833e-06
      7.24954089e-06 5.78633853e-06 1.32347679e-06 -3.37686743e-06
      -7.19409536e-06 -8.34932598e-06 -7.89270689e-06 -6.05910736e-06
      -5.94382209e-06 -7.24166557e-06 -9.56638723e-06 -6.24161703e-06
      5.92922788e-07 5.32021477e-06 5.67633197e-06 3.76345179e-06
      4.13940188e-06 4.27342593e-06 3.90358719e-06 2.94209769e-07
      -4.21207324e-06 -4.06475465e-06 -1.21982328e-06 4.45817136e-07
      -2.52750283e-07 -2.96838425e-06 -7.20657454e-06 -1.06651432e-05
      -9.80142340e-06 -6.14386136e-06 -3.61637217e-06 -3.99637702e-06
      1.57237844e-06 5.82773453e-07 2.08725305e-06 2.64564892e-06
      -3.10304983e-07 -2.65211293e-06 3.57710576e-07 4.08369260e-06
      4.91626588e-06 2.24191854e-06 3.65893669e-07 5.92230720e-07
      2.89664627e-06 4.46982949e-06 5.19286914e-06 6.19357070e-06
      7.83096129e-06 7.68071550e-06 4.21311643e-06 -9.48182162e-07
      -6.82422706e-06 -8.30226145e-06 -6.93505490e-06 -5.82634175e-06
      -4.69160568e-06 -5.40956444e-06 -7.53495306e-06 -7.39986717e-06
      -2.18172772e-06 3.88922808e-06 6.98936265e-06 5.15985994e-06
      3.91450385e-06 4.81398911e-06 4.97534438e-06 3.14919498e-06
      -1.09834673e-06 -4.15208524e-06 -4.20243941e-06 -3.95147845e-06
      -3.58371494e-06 -2.83581835e-06 -5.33469392e-06 -9.06721016e-06
      -1.11175104e-05 -8.44304850e-06 -4.09556014e-06 -1.99979468e-06
      1.78240305e-06 1.27574367e-07 8.32242847e-07 2.29084912e-06
      1.47888250e-06 -2.35807465e-06 -1.81716382e-06 6.68370660e-07
      2.64485016e-06 1.06767459e-06 -8.59641602e-07 -1.50276708e-06
      2.17433058e-06 4.69470888e-06 6.19347293e-06 6.09159724e-06
      7.60792727e-06 8.37569678e-06 6.76424770e-06 1.71287820e-06
      -4.41063412e-06 -7.15635178e-06 -5.24007692e-06 -3.86433067e-06
      -2.62530830e-06 -2.35169409e-06 -5.01645764e-06 -6.39029440e-06
      -4.77146705e-06 1.67370516e-07 3.96786254e-06 5.20385765e-06
      3.50684945e-06 4.53842267e-06 5.26218901e-06 4.76015748e-06
      1.71586021e-06 -2.37263566e-06 -4.92443496e-06 -7.03067462e-06
      -7.32875105e-06 -5.29695171e-06 -2.67041014e-06 -5.50029381e-06
      -7.68513473e-06 -8.80441348e-06 -6.04269144e-06 -2.90618982e-06
      2.26849261e-06 -4.46611352e-07 -2.35889033e-07 1.10225301e-06
      2.15163300e-06 7.38010826e-08 -1.96337260e-06 -1.34750258e-06
      -1.30187050e-06 -1.50629580e-06 -2.41993007e-06 -2.68245208e-06
      5.10689290e-07 4.34611184e-06 6.33597574e-06 5.84325471e-06
      5.05864000e-06 5.61167917e-06 5.69205758e-06 4.00566387e-06
      -1.35180824e-06 -4.85791361e-06 -3.59170053e-06 -1.19691765e-06
      -5.41894792e-07 5.02407147e-07 -1.18939874e-06 -3.78130062e-06
      -4.46882677e-06 -2.75788352e-06 4.51186708e-07 2.27358964e-06
      2.14118131e-06 2.93623611e-06 4.36027358e-06 4.76422520e-06
      3.06520201e-06 -3.63144181e-07 -2.82096062e-06 -6.01945931e-06
      -7.02435273e-06 -6.71643556e-06 -2.76951118e-06 -9.58465648e-07
      -3.67019243e-06 -5.63305639e-06 -6.28444968e-06 -4.42815372e-06
      1.78071502e-06 9.47566576e-08 -9.25955248e-07 -2.72166631e-07
      1.44636806e-06 2.21197683e-06 8.83100881e-08 -1.51230597e-06
      -2.15697492e-06 -2.68762892e-06 -2.67153723e-06 -2.39677047e-06
      -8.02361114e-07 2.89301920e-06 6.09512836e-06 6.28896078e-06
      4.09312270e-06 2.85880219e-06 3.15011926e-06 3.11837607e-06
      4.49674616e-07 -2.07898506e-06 -1.21775076e-06 2.85563260e-07
      1.45283593e-07 1.13896397e-06 2.31824447e-06 1.09431568e-07
      -1.66632856e-06 -3.01832824e-06 -1.40360112e-06 -2.61663388e-07
      7.74795126e-07 1.45799515e-06 3.36128664e-06 3.78002142e-06
      2.41096245e-06 -2.67919006e-07 -2.13162275e-06 -3.92572019e-06
      -4.56873749e-06 -4.79406754e-06 -3.30117928e-06 1.47465599e-07
      2.84377222e-07 -2.24988867e-06 -4.23460779e-06 -4.79371283e-06
      1.27850184e-08 -3.89384581e-07 -6.69960400e-07 -8.94963705e-07
      7.85953205e-08 1.54438658e-06 2.00259569e-06 -1.93788196e-07
      -2.16705394e-06 -3.02035050e-06 -2.31109493e-06 -1.27361295e-06
      -5.84662644e-07 7.19196692e-07 3.80416077e-06 6.27065856e-06
      5.82710072e-06 2.86311092e-06 1.62792071e-06 1.75345519e-06
      8.68874565e-07 4.00309432e-07 6.98750569e-07 1.19578181e-06
      -1.27036890e-06 -1.28781414e-06 1.07735980e-06 2.46563445e-06
      1.60283014e-06 -7.79678032e-07 -1.70365672e-06 -1.04958690e-06
      -4.41822294e-07 6.81311747e-07 2.70233454e-06 4.81120424e-06
      3.12163024e-06 -5.95143661e-07 -2.08450592e-06 -1.92348148e-06
      -1.95922894e-06 -9.40736413e-07 -8.41847225e-07 2.84200439e-07
      1.89470995e-06 1.03674722e-07 -2.56832095e-06 -4.88031083e-06
      -1.22987285e-06 -1.06092921e-06 -1.04210210e-06 -1.00332772e-06
      -1.06392281e-06 2.11946912e-07 2.70012538e-06 1.81483472e-06
      -1.54685142e-06 -2.95415612e-06 -2.36879100e-06 -4.27130573e-07
      3.96783804e-07 5.33010621e-07 1.72095167e-06 4.88695514e-06
      7.40459518e-06 6.60547175e-06 3.42677617e-06 1.33546723e-06
      4.04263290e-07 7.83028213e-07 1.45599586e-06 1.65052893e-06
      -1.62816491e-06 -5.10067912e-06 -3.41837313e-06 4.45232445e-07
      2.28555587e-06 5.50407208e-07 -1.13067767e-06 -1.10392045e-06
      -9.67958158e-07 2.66675528e-07 1.72313048e-06 5.98261931e-06
      5.85760381e-06 1.40193060e-06 -2.57656120e-06 -1.97890995e-06
      -8.40501343e-07 4.08717199e-07 8.98962867e-07 7.51477387e-07
      8.89273281e-07 8.54151551e-07 -1.18020557e-06 -3.74498882e-06
      -2.68387475e-06 -2.90829917e-06 -2.42310898e-06 -2.02889032e-06
      -2.62838989e-06 -2.19125104e-06 6.75412480e-07 1.88875651e-06
      -9.86582904e-07 -3.17120157e-06 -1.77333970e-06 -1.25334054e-07
      2.53636813e-07 -1.95646663e-07 3.87179597e-07 3.00824740e-06
      6.54480618e-06 9.89707769e-06 8.39651420e-06 3.85921885e-06
      1.20742868e-06 -4.56935396e-07 -1.28176083e-07 2.63620876e-07
      -2.02174601e-06 -6.54838914e-06 -7.68197515e-06 -3.60209560e-06
      9.48580748e-07 2.43523999e-07 -8.33204467e-07 -1.06533344e-06
      -1.65897279e-06 -4.51085583e-07 1.32318075e-06 5.33183857e-06
      7.86011515e-06 4.13436419e-06 -7.37615494e-07 -3.34805281e-06
      -1.41925091e-06 2.17082899e-07 1.83805173e-06 1.32635648e-06
      4.55736199e-07 1.44329832e-07 -3.99591698e-07 -1.67813675e-06
      -2.73481419e-06 -2.42033980e-06 -3.13400892e-06 -3.02092803e-06
      -4.15880277e-06 -4.53866778e-06 -2.38992288e-06 3.67057908e-07
      -8.30817612e-07 -2.66872735e-06 -1.99502460e-06 8.86790474e-07
      5.91074297e-07 -1.55644898e-06 -1.11821794e-06 1.59176363e-06
      4.73189993e-06 7.96260247e-06 1.16830552e-05 7.93225081e-06
      2.27761120e-06 -2.90023945e-06 -4.18968466e-06 -2.95890436e-06
      -3.82365170e-06 -6.05304831e-06 -9.64301398e-06 -7.98960627e-06
      -2.43448744e-06 -1.52671126e-10 -2.05060496e-06 -2.09190807e-06
      -2.89731429e-06 -2.78496555e-06 2.22844776e-07 3.65397204e-06
      7.62449645e-06 6.36353025e-06 2.09843870e-06 -1.54389147e-06
      -2.26663497e-06 -1.06404866e-06 6.33436684e-07 1.46290245e-06
      6.53019185e-07 -2.08637303e-07 -3.79011453e-07 -3.60928311e-07
      -2.93806079e-06 -2.42157876e-06 -3.26794407e-06 -3.98040993e-06
      -5.10105201e-06 -5.44404929e-06 -4.09718359e-06 -1.99862257e-06
      -2.08141205e-06 -3.51021845e-06 -3.22034043e-06 -1.53879185e-07
      1.04594437e-06 -6.13837130e-07 -1.92747552e-06 4.67218854e-07
      3.43235229e-06 5.60680837e-06 8.53095389e-06 1.03014045e-05
      3.35569416e-06 -2.92524987e-06 -6.75185493e-06 -5.80553933e-06
      -4.65028870e-06 -4.71336625e-06 -5.79972084e-06 -7.20662911e-06
      -5.01979821e-06 -8.18518629e-07 -2.46836748e-06 -3.47115565e-06
      -3.45686817e-06 -4.54685232e-06 -2.77354866e-06 1.75470927e-06
      5.68660562e-06 6.98971917e-06 4.47993898e-06 1.21818277e-06
      -1.51576921e-06 -1.49653602e-06 -1.04697001e-07 8.20753826e-07
      1.45554498e-06 5.52463291e-07 9.37631626e-07 1.12462112e-06
      -4.24812106e-06 -2.69280736e-06 -2.63692687e-06 -3.67254870e-06
      -5.09004121e-06 -5.73287889e-06 -4.54880501e-06 -4.01892294e-06
      -3.78719756e-06 -3.56771648e-06 -3.90775858e-06 -1.13183523e-06
      1.58621140e-06 3.47923219e-07 -3.00196598e-06 -1.19063759e-06
      2.67540895e-06 4.08357710e-06 3.05820072e-06 6.09134850e-06
      3.66973632e-06 -2.60706088e-06 -7.63664593e-06 -7.67459642e-06
      -5.67904090e-06 -3.46213073e-06 -2.31564559e-06 -2.85235660e-06
      -4.17951105e-06 -3.37683127e-06 -2.37539257e-06 -3.40312454e-06
      -2.22027870e-06 -3.56907799e-06 -3.81076984e-06 2.07036791e-07
      4.38100551e-06 5.96244354e-06 5.01478144e-06 4.01742909e-06
      1.71781767e-06 -1.07071330e-07 -6.21798790e-07 5.29916690e-07
      1.40480995e-06 8.46771854e-07 5.45578729e-08 7.10120617e-07
      -5.79906919e-06 -3.21858556e-06 -1.75463174e-06 -2.05673632e-06
      -3.17881177e-06 -4.05671062e-06 -3.52527309e-06 -5.21963921e-06
      -7.22579625e-06 -6.11548148e-06 -4.83843951e-06 -1.49880896e-06
      2.86332033e-06 2.31689114e-06 -9.31943703e-07 -2.05474521e-06
      1.12183955e-06 4.53250505e-06 2.50182711e-06 2.95480191e-07
      1.78670359e-06 -1.49004529e-06 -5.72721638e-06 -7.24942038e-06
      -5.28990677e-06 -2.79148344e-06 -1.92572247e-06 -1.17729167e-06
      -1.34771244e-06 -3.11105327e-06 -3.61318553e-06 -3.34772312e-06
      -1.74256002e-06 -1.10848646e-06 -1.96059136e-06 -3.29132916e-07
      3.64038374e-06 5.37525284e-06 3.32273203e-06 3.64236939e-06
      4.28630392e-06 2.54439101e-06 1.65434938e-06 1.22572601e-06
      1.54795032e-06 1.18514868e-06 1.76109921e-07 3.35565858e-07
      -5.09239680e-06 -3.46969318e-06 -9.02711236e-07 -2.11492519e-07
      -1.06802395e-06 -2.02804858e-06 -2.62844560e-06 -4.68834787e-06
      -7.86059900e-06 -8.42000827e-06 -6.91833111e-06 -3.92312586e-06
      2.54337874e-06 4.74992657e-06 3.02150352e-06 2.31298756e-07
      -1.03900788e-06 2.08838878e-06 4.06765048e-06 -5.21799137e-08
      -1.12548196e-06 -1.42049464e-06 -3.89864772e-06 -6.08658138e-06
      -4.97294877e-06 -2.81090729e-06 -1.04046433e-06 -1.94347672e-06
      -7.59722184e-07 -2.70729333e-06 -6.44392185e-06 -6.94517985e-06
      -2.13708677e-06 1.96807355e-06 1.98110956e-06 1.42993679e-06
      3.90491005e-06 4.72024749e-06 2.99098610e-06 1.01757564e-06
      3.55352245e-06 4.05012679e-06 2.63373522e-06 2.02108049e-06
      6.86407191e-07 7.39635254e-07 6.57670569e-07 -8.20400388e-08
      -2.67155224e-06 -3.69053191e-06 -8.44994304e-07 1.24161841e-06
      1.39132840e-06 -4.61681076e-08 -1.73595481e-06 -3.14553085e-06
      -6.47074239e-06 -8.75725527e-06 -8.94568075e-06 -7.40261703e-06
      6.57422419e-08 5.61287561e-06 3.82264898e-06 4.41560042e-06
      -3.38700630e-07 -2.32302068e-06 2.76986299e-07 1.31386685e-06
      -1.77532445e-06 -1.69116709e-06 -2.41302268e-06 -4.15692784e-06
      -4.79898608e-06 -2.33193373e-06 7.05641298e-07 -1.36364429e-06
      -3.13456439e-06 -2.96681765e-06 -6.51919163e-06 -9.12357973e-06
      -4.35924812e-06 4.03447484e-06 5.58356533e-06 3.86307556e-06
      4.72296460e-06 5.09782330e-06 3.70286966e-06 1.12864893e-06
      1.69873408e-06 3.97590929e-06 3.96095265e-06 3.22213191e-06
      2.18168020e-06 5.01646184e-07 3.36641449e-07 1.31584284e-06
      3.82522330e-07 -2.62906519e-06 -1.48081733e-06 1.84486294e-06
      2.54007614e-06 9.11684140e-07 -2.58926150e-07 -2.27003443e-06
      -4.26636507e-06 -7.19322315e-06 -8.79412073e-06 -8.23595656e-06
      -1.26163172e-06 6.02085765e-06 6.61611284e-06 8.23597384e-06
      5.19869991e-06 -2.15627801e-06 -3.61519210e-06 -1.01702278e-06
      4.19294736e-07 -8.85677309e-07 -7.60671981e-07 -2.47694697e-06
      -3.47681657e-06 -1.95134294e-06 1.57171883e-06 4.33353392e-07
      -2.82828023e-06 -3.87909722e-06 -5.72707086e-06 -8.68192001e-06
      -5.21152106e-06 5.41102236e-06 8.79018171e-06 6.30220347e-06
      4.60458341e-06 5.76474213e-06 3.73029138e-06 2.05101401e-06
      1.27830288e-06 2.50310109e-06 3.67400639e-06 3.43973693e-06
      3.10251494e-06 1.76326091e-06 8.96400820e-07 3.00768761e-06
      2.00280920e-06 -1.93987466e-06 -2.88559841e-06 -4.04347475e-07
      3.25516112e-06 2.85695342e-06 1.30068554e-06 -1.19667220e-06
      -2.93019070e-06 -4.95302766e-06 -6.85744408e-06 -7.20530898e-06
      -1.89397099e-06 6.53478355e-06 9.12309679e-06 1.06548678e-05
      1.13548458e-05 3.24960547e-06 -4.30310274e-06 -4.86308454e-06
      -1.77467246e-06 1.51577964e-07 5.29294198e-07 2.02258462e-07
      -5.44515444e-07 -8.33318779e-07 1.45668605e-06 1.53656470e-06
      5.08460801e-07 -1.98493012e-06 -4.12531108e-06 -6.81229176e-06
      -4.61213631e-06 5.01806062e-06 1.18791559e-05 9.79746619e-06
      4.43815225e-06 3.72369300e-06 2.86398290e-06 9.05073534e-07
      1.80853226e-06 1.84858413e-06 4.12931240e-06 5.72782892e-06
      5.41547706e-06 4.63493143e-06 2.39843553e-06 1.75305865e-06
      2.33729361e-06 -4.90746572e-07 -3.23199311e-06 -3.09686675e-06
      5.00480382e-07 3.12355724e-06 2.42123065e-06 4.04818536e-07
      -1.67743917e-06 -2.87489615e-06 -4.66789515e-06 -6.23361802e-06
      -4.42488317e-06 3.75827290e-06 9.58093460e-06 1.04013261e-05
      1.35976024e-05 1.07651949e-05 1.10045498e-07 -5.86636634e-06
      -4.65622179e-06 -1.47841160e-06 8.34911305e-07 3.07894766e-06
      2.38956909e-06 1.27516785e-06 8.05096477e-07 6.35797676e-07
      1.85546833e-06 2.38206303e-06 3.90710824e-07 -3.19944434e-06
      -4.81171310e-06 3.19412607e-06 1.29620648e-05 1.27557869e-05
      6.80669655e-06 3.06519064e-06 1.77031291e-06 -4.26682277e-07
      4.54134977e-07 2.23615575e-06 3.64362154e-06 5.61272964e-06
      5.67037296e-06 4.60353931e-06 3.28804867e-06 1.33184585e-06
      3.53548216e-06 2.00160480e-06 -1.50414508e-06 -3.78574100e-06
      -1.99112674e-06 2.29619400e-06 3.47133687e-06 1.85544434e-06
      -3.90073893e-07 -9.54454094e-07 -2.66085522e-06 -5.34029414e-06
      -6.80889480e-06 -2.14356555e-06 5.17736862e-06 8.74374382e-06
      1.14994218e-05 1.50565438e-05 8.14427221e-06 -2.92055006e-06
      -5.93159621e-06 -3.30490730e-06 5.95925201e-07 3.38839527e-06
      5.01331579e-06 4.62175103e-06 1.63217044e-06 -2.12419991e-06
      -9.53961376e-07 2.63309835e-06 5.59545560e-06 2.18478772e-06
      -2.47312028e-06 8.61033342e-08 1.07984888e-05 1.46011807e-05
      9.04757326e-06 4.10496023e-06 1.64458004e-06 -1.31053514e-06
      -1.99697797e-06 -2.07741823e-06 5.95155001e-08 3.40841598e-06
      5.70367547e-06 4.92876688e-06 2.97813426e-06 1.24117651e-06
      2.05982633e-06 4.86506178e-06 1.39725762e-06 -2.41243879e-06
      -3.15052580e-06 1.46037236e-08 3.55859311e-06 2.95031555e-06
      1.02308923e-06 3.63222938e-07 -1.02628690e-06 -4.02765227e-06
      -7.45385751e-06 -6.46826038e-06 -1.29951786e-06 4.57908982e-06
      7.69799226e-06 1.28238162e-05 1.34084203e-05 3.30011244e-06
      -4.42002784e-06 -4.25230246e-06 -8.20409468e-07 2.06750315e-06
      4.66124993e-06 6.55033682e-06 4.30649516e-06 -1.51122640e-06
      -4.42274813e-06 -3.20940984e-07 5.74160367e-06 7.55392375e-06
      2.26135603e-06 -2.43647105e-06 4.59972262e-06 1.23000145e-05
      1.01429341e-05 4.39455471e-06 2.58621185e-06 -7.41277404e-07
      -3.02738977e-06 -3.99941655e-06 -3.09688085e-06 -1.22671656e-06
      2.47173239e-06 3.79623793e-06 1.76852859e-06 1.67208071e-07
      -1.27590704e-06 3.82770122e-06 6.22654215e-06 2.04003709e-06
      -1.83568613e-06 -6.43120813e-07 2.69580210e-06 3.61466073e-06
      1.91745335e-06 1.73060073e-06 6.38493930e-07 -3.33409412e-06
      -6.64556319e-06 -7.66801713e-06 -3.98802149e-06 3.26885399e-08
      2.72110447e-06 6.36228606e-06 1.19258984e-05 7.31105820e-06
      -2.42578017e-06 -5.28527971e-06 -2.87613216e-06 3.58035066e-07
      2.86108320e-06 5.23842164e-06 5.64698666e-06 4.72177334e-07
      -4.61758600e-06 -5.63193589e-06 1.58787498e-06 8.51076948e-06
      6.70505415e-06 -9.03132332e-07 -9.53133338e-07 6.48794730e-06
      8.05188938e-06 3.94033304e-06 2.37597328e-06 -4.70199467e-07
      -2.69674251e-06 -4.45212163e-06 -5.39354960e-06 -4.30357113e-06
      -2.12909868e-06 1.38524479e-06 9.98310611e-07 -7.86067233e-07
      -3.42751719e-06 -1.41490389e-07 6.76879381e-06 7.60641751e-06
      2.23490929e-06 1.43392000e-08 1.33268622e-06 2.79953497e-06
      2.16374133e-06 2.15210889e-06 1.25138638e-06 -2.50837297e-06
      -6.61378908e-06 -6.42134182e-06 -4.36126675e-06 -2.48539459e-06
      -1.88117440e-06 2.27416695e-06 7.17212470e-06 6.93779793e-06
      -2.26626454e-07 -5.57907833e-06 -4.38020879e-06 -8.79531115e-07
      9.32901287e-07 4.01220132e-06 4.77424919e-06 2.89057334e-06
      -2.12592818e-06 -5.31934802e-06 -4.42232613e-06 4.55952659e-06
      7.96538916e-06 3.06032302e-06 -2.06488289e-06 -1.40572549e-08
      3.67336770e-06 3.11480653e-06 2.05876972e-06 7.31781313e-07
      -4.27918422e-07 -1.55296732e-06 -3.68629412e-06 -4.92022400e-06
      -4.85413830e-06 -3.65389496e-06 -2.25410076e-06 -1.30919648e-06
      -2.67580140e-06 -3.03556362e-06 3.10742030e-06 8.67810741e-06
      6.84518955e-06 2.38971984e-06 6.70004226e-07 1.04990113e-06
      1.01457601e-06 2.33706601e-07 1.32153303e-07 -1.89925925e-06
      -5.91416938e-06 -6.61956528e-06 -2.69762791e-06 -1.29612420e-06
      -2.25512622e-06 -5.30180046e-07 3.55413999e-06 4.04187767e-06
      -1.68063181e-07 -4.72275815e-06 -5.43654915e-06 -2.35184098e-06
      -6.76791217e-07 1.71657041e-06 4.49044956e-06 4.07429116e-06
      1.41714025e-07 -2.02053843e-06 -3.21367224e-06 -2.93895852e-07
      6.11528958e-06 5.43862370e-06 8.93269814e-09 -2.93012249e-06
      -9.73853957e-07 1.66744553e-06 1.18822550e-06 7.26952806e-07
      1.39582630e-06 1.17110937e-06 -8.83355710e-07 -3.55797306e-06
      -5.34312494e-06 -5.99827945e-06 -5.93352934e-06 -4.37316066e-06
      -1.47976294e-07 -3.55744987e-06 -5.41323345e-07 6.71696353e-06
      8.14880605e-06 4.12258305e-06 3.34020086e-07 -8.02880265e-07
      -1.34000197e-06 -1.76649678e-06 -1.18934599e-06 -1.49704385e-06
      -3.85614931e-06 -5.86765145e-06 -3.11537951e-06 2.55588795e-08
      -2.74575342e-07 -6.05543207e-08 2.35840275e-06 1.04667595e-06
      -8.71000850e-07 -3.52705365e-06 -4.01657917e-06 -3.45438957e-06
      -1.77383947e-06 -7.26165794e-08 2.81264033e-06 4.67556129e-06
      2.47936600e-06 2.35921306e-07 8.45022271e-07 6.71403598e-07
      2.28222370e-06 5.84543977e-06 3.62731794e-06 -9.33643378e-07
      -2.10569328e-06 -6.05388834e-07 6.43495852e-08 -4.82144571e-07
      5.48282912e-07 2.45690649e-06 2.43973955e-06 -4.01961898e-07
      -4.50589141e-06 -7.39850839e-06 -8.96403708e-06 -8.29121927e-06
      4.12531426e-06 -2.93809944e-06 -3.08697918e-06 3.01828391e-06
      9.00096620e-06 7.04365402e-06 1.73057924e-06 -1.07704432e-06
      -2.67628911e-06 -4.32257093e-06 -3.72957038e-06 -1.93322126e-06
      -2.20983384e-06 -3.80091547e-06 -3.05043750e-06 3.67137034e-07
      7.90589183e-07 5.62687319e-07 2.30368687e-06 1.73419755e-06
      -1.03835009e-06 -3.31282081e-06 -2.78765401e-06 -3.02988133e-06
      -3.53395558e-06 -2.75435877e-06 -1.04509218e-06 2.66771463e-06
      3.20871095e-06 2.86769432e-06 4.20411016e-06 3.96568521e-06
      1.64407174e-06 2.77823415e-06 3.98487919e-06 1.27409942e-06
