<?xml version="1.0"?>
<opencv_storage>
<my_svm type_id="opencv-ml-svm">
  <svm_type>C_SVC</svm_type>
  <kernel><type>LINEAR</type></kernel>
  <C>1.</C>
  <term_criteria><epsilon>2.2204460492503131e-16</epsilon>
    <iterations>1000000</iterations></term_criteria>
  <var_all>69120</var_all>
  <var_count>69120</var_count>
  <class_count>2</class_count>
  <class_labels type_id="opencv-matrix">
    <rows>1</rows>
    <cols>2</cols>
    <dt>i</dt>
    <data>
      0 1</data></class_labels>
  <sv_total>1</sv_total>
  <support_vectors>
    <_>
      2.29105171e-06 4.06149547e-06 5.97999042e-06 6.05142941e-06
      7.42136035e-06 8.88685281e-06 1.04529290e-05 1.11884574e-05
      1.20100740e-05 1.03607726e-05 8.05249601e-06 6.23873575e-06
      6.02724276e-06 6.60205569e-06 5.01029581e-06 4.10051598e-06
      4.68565941e-06 3.22687288e-06 1.15618320e-06 -2.33538094e-06
      -4.73500313e-06 -5.80840424e-06 -3.11172471e-06 1.33728929e-06
      5.92023662e-06 1.11532690e-05 1.68561710e-05 1.98197486e-05
      1.92841471e-05 1.52295888e-05 9.98488213e-06 1.99998613e-06
      -4.46816557e-06 -9.48358957e-06 -1.16270212e-05 -1.16255615e-05
      -1.05920690e-05 -6.83192002e-06 -3.50027653e-06 -1.45294212e-06
      2.55606608e-07 -5.09967720e-07 -1.27754345e-06 -2.43020008e-06
      -3.10985524e-06 -3.34566607e-06 -5.01161230e-06 -5.57318390e-06
      1.32992443e-06 3.01502200e-06 4.91876926e-06 5.12015185e-06
      6.49261483e-06 8.12847702e-06 9.92094556e-06 1.10703741e-05
      1.22278025e-05 1.11029904e-05 9.32482635e-06 8.06246135e-06
      8.17113414e-06 8.76437389e-06 7.17761304e-06 6.20088940e-06
      6.33832178e-06 4.44624538e-06 1.85459760e-06 -2.11330416e-06
      -5.26316262e-06 -7.10464928e-06 -5.48041771e-06 -2.08741494e-06
      1.42559111e-06 6.07645097e-06 1.12921480e-05 1.43515590e-05
      1.42441268e-05 1.10074470e-05 6.56655766e-06 -4.39649398e-07
      -6.09995186e-06 -1.05682566e-05 -1.24948947e-05 -1.25355273e-05
      -1.14274426e-05 -7.76107390e-06 -4.57336046e-06 -2.27755777e-06
      -3.99781328e-07 -6.43868589e-07 -9.68004770e-07 -1.67383109e-06
      -2.12354234e-06 -2.25243366e-06 -3.65721462e-06 -4.22710309e-06
      -9.32459159e-08 1.23321774e-06 2.94564052e-06 3.29799445e-06
      4.28902376e-06 5.97348344e-06 8.03097828e-06 9.81579433e-06
      1.14447930e-05 1.12611715e-05 1.04667079e-05 1.03912653e-05
      1.09873909e-05 1.15023367e-05 9.97189454e-06 8.95840549e-06
      8.27670192e-06 5.74869773e-06 2.36502706e-06 -2.21251025e-06
      -6.60894057e-06 -9.90314857e-06 -1.06268235e-05 -9.73579517e-06
      -8.86649013e-06 -5.94462426e-06 -2.30301816e-06 6.19249477e-07
      1.18951209e-06 -9.56567803e-08 -2.52719178e-06 -6.94517803e-06
      -1.03682405e-05 -1.31571960e-05 -1.42502449e-05 -1.41514665e-05
      -1.27459034e-05 -9.25107906e-06 -6.30623344e-06 -3.47113973e-06
      -1.23716427e-06 -2.70831833e-07 3.14800900e-07 5.83788221e-07
      5.89733418e-07 6.27078691e-07 -2.57416701e-07 -7.96574682e-07
      3.85202839e-08 6.27688337e-07 1.60000673e-06 1.53466385e-06
      1.20681375e-06 2.11466158e-06 3.86859392e-06 5.71358760e-06
      7.28994337e-06 7.54448729e-06 7.20645085e-06 8.05380569e-06
      8.56406768e-06 8.72520923e-06 7.47777722e-06 6.85916166e-06
      6.14528881e-06 4.10738539e-06 1.11624718e-06 -2.77094523e-06
      -7.19663058e-06 -1.11498630e-05 -1.37970928e-05 -1.54236495e-05
      -1.74015149e-05 -1.68076622e-05 -1.54321315e-05 -1.32752266e-05
      -1.24997568e-05 -1.17580512e-05 -1.19113001e-05 -1.31241577e-05
      -1.37114703e-05 -1.41663886e-05 -1.38431751e-05 -1.33594331e-05
      -1.16319288e-05 -8.53199344e-06 -6.01693318e-06 -3.05208710e-06
      -7.75148862e-07 1.19216077e-06 2.42510760e-06 3.59326327e-06
      4.04110187e-06 4.23334177e-06 3.86504234e-06 3.37043434e-06
      1.48180857e-06 1.13321869e-06 7.07908953e-07 -6.11373423e-07
      -2.96869985e-06 -3.60612080e-06 -2.78552488e-06 -1.46991476e-06
      -4.24185771e-07 -3.06352376e-07 -8.54326174e-07 3.38689688e-07
      3.34307799e-07 1.51079064e-07 -2.30106679e-07 2.50845659e-07
      8.61525621e-07 7.36782056e-07 -4.07754982e-07 -2.17287720e-06
      -5.07033974e-06 -8.26848554e-06 -1.12959087e-05 -1.41129858e-05
      -1.76372814e-05 -1.86866801e-05 -1.90666706e-05 -1.80265233e-05
      -1.74965899e-05 -1.56970982e-05 -1.43474117e-05 -1.30934332e-05
      -1.15500106e-05 -1.00884554e-05 -8.50208380e-06 -7.93606887e-06
      -6.52441258e-06 -4.62669868e-06 -3.39126063e-06 -1.57199577e-06
      -7.00131508e-08 1.88637625e-06 3.30343778e-06 5.06930655e-06
      6.12718122e-06 6.75879755e-06 6.99689917e-06 6.49617959e-06
      2.25810550e-06 1.20021798e-06 -7.07538561e-07 -3.47213449e-06
      -7.51915150e-06 -9.62970080e-06 -9.90044555e-06 -9.32476814e-06
      -8.93218476e-06 -8.98658072e-06 -9.64852461e-06 -8.15353087e-06
      -8.12459257e-06 -7.94047537e-06 -6.74530929e-06 -4.69525867e-06
      -2.26302905e-06 -5.63092215e-07 2.42885125e-08 1.36576205e-07
      -1.02294098e-06 -2.63937432e-06 -4.56079715e-06 -6.63429864e-06
      -9.56840177e-06 -1.05696035e-05 -1.13520709e-05 -1.13817123e-05
      -1.14678651e-05 -1.02526355e-05 -8.89860985e-06 -6.93515494e-06
      -4.69477118e-06 -2.22706535e-06 -8.09994489e-08 2.31314345e-07
      6.04269758e-07 6.36783739e-07 -1.84964193e-07 -7.08760354e-07
      -6.54342728e-07 2.56749075e-07 1.69035332e-06 3.78663458e-06
      5.81344602e-06 7.33649904e-06 8.22547372e-06 7.82195548e-06
      7.67883989e-07 -4.25886185e-07 -3.13957526e-06 -6.55062559e-06
      -1.09770899e-05 -1.36534882e-05 -1.45065123e-05 -1.44454616e-05
      -1.44919350e-05 -1.44526130e-05 -1.45681479e-05 -1.25519373e-05
      -1.16298870e-05 -1.03575221e-05 -7.61351566e-06 -4.22889343e-06
      -7.75916533e-07 1.26490215e-06 2.09505015e-06 2.38120060e-06
      1.89718719e-06 1.51168808e-06 1.16902629e-06 9.57084808e-07
      1.03315287e-07 4.55289722e-07 3.90190053e-07 -2.17023782e-07
      -1.03835850e-06 -1.50823632e-06 -1.22315498e-06 1.83103321e-09
      2.02198135e-06 5.02847843e-06 7.43514738e-06 7.91795628e-06
      7.44815407e-06 6.08353412e-06 3.61139178e-06 7.19390357e-07
      -8.62939885e-07 -1.54112445e-06 -2.86203203e-07 1.81284270e-06
      4.95989798e-06 7.50335585e-06 8.79910749e-06 8.70437361e-06
      -2.20424727e-06 -3.00980105e-06 -5.53175096e-06 -8.36938943e-06
      -1.17706659e-05 -1.39427957e-05 -1.45850463e-05 -1.45657423e-05
      -1.47712271e-05 -1.47087521e-05 -1.41121473e-05 -1.19977385e-05
      -1.02634804e-05 -8.26428732e-06 -5.05972594e-06 -1.22721315e-06
      2.12702889e-06 3.54253757e-06 3.77626202e-06 3.17136823e-06
      2.58894124e-06 2.49573714e-06 3.08826088e-06 3.98289012e-06
      4.75772322e-06 5.97674352e-06 6.59826674e-06 5.93529603e-06
      4.73561749e-06 3.07375012e-06 2.66242137e-06 3.25904080e-06
      5.42904399e-06 9.22662821e-06 1.24739609e-05 1.41278588e-05
      1.39084377e-05 1.23279278e-05 9.51172842e-06 5.12865699e-06
      1.84275189e-06 -6.85953125e-07 -3.83717207e-07 1.19332026e-06
      5.13180521e-06 8.31632588e-06 9.64846913e-06 9.89090677e-06
      -4.00966883e-06 -4.31722810e-06 -5.92755941e-06 -7.34777541e-06
      -8.97537484e-06 -9.99688109e-06 -9.93311278e-06 -9.57906377e-06
      -9.79143351e-06 -1.00696516e-05 -9.41057442e-06 -8.11824339e-06
      -6.57758756e-06 -4.97552355e-06 -2.40871714e-06 1.06005905e-06
      3.84185478e-06 4.96920438e-06 5.22092432e-06 4.17020783e-06
      3.58238731e-06 3.04000855e-06 3.32769537e-06 3.48884600e-06
      3.98955081e-06 4.26570614e-06 4.46737204e-06 3.53363907e-06
      2.26212160e-06 7.97456948e-07 7.75838430e-07 1.75939533e-06
      5.00227361e-06 9.91776142e-06 1.47123810e-05 1.82240492e-05
      1.92261177e-05 1.83331922e-05 1.63702662e-05 1.15765342e-05
      6.81664005e-06 2.57265674e-06 1.11680356e-06 1.74375054e-06
      5.77773335e-06 8.94962250e-06 1.00490415e-05 1.04139799e-05
      -3.10462838e-06 -3.21731568e-06 -4.01170792e-06 -4.07335529e-06
      -4.06152458e-06 -3.93865776e-06 -3.20724575e-06 -2.34494405e-06
      -2.38947769e-06 -3.03976708e-06 -2.95097539e-06 -2.98206669e-06
      -2.52518635e-06 -1.84795078e-06 2.31731363e-08 3.08342669e-06
      5.57885687e-06 7.13391091e-06 8.26381438e-06 7.52963433e-06
      6.91997639e-06 5.37790902e-06 4.23209030e-06 2.74892636e-06
      1.80478048e-06 4.63101003e-07 -1.98300327e-07 -1.44414128e-06
      -2.49930781e-06 -2.83320560e-06 -2.20907532e-06 -9.44825274e-07
      2.82082692e-06 7.71904615e-06 1.30716617e-05 1.74741363e-05
      1.91725067e-05 1.90604533e-05 1.85067074e-05 1.46314142e-05
      9.71883128e-06 5.10251266e-06 2.42407123e-06 2.52690643e-06
      6.22162224e-06 8.89733201e-06 9.62834747e-06 9.84112921e-06
      -1.59246753e-07 -4.04936344e-07 -1.21314326e-06 -7.03147577e-07
      1.04790679e-07 7.21555011e-07 1.46416698e-06 2.62076583e-06
      2.66049756e-06 1.88899185e-06 1.38116616e-06 2.60895717e-07
      -3.61179929e-07 -4.03250482e-08 1.78679090e-06 4.84060320e-06
      7.43810324e-06 9.56176154e-06 1.13816131e-05 1.09859975e-05
      9.82975689e-06 7.14622138e-06 4.51735423e-06 2.37157838e-06
      9.11119002e-07 -4.65290469e-07 -6.38105632e-07 -9.66845732e-07
      -1.12335965e-06 -3.88067548e-07 7.63910037e-08 -1.94729868e-08
      1.72048294e-06 3.90235391e-06 6.91272407e-06 9.61768728e-06
      1.00259122e-05 1.00656644e-05 1.09041412e-05 9.35717253e-06
      6.36888308e-06 3.65951928e-06 1.56413262e-06 2.21733944e-06
      5.66980270e-06 7.67592883e-06 7.82269763e-06 7.71103987e-06
      2.31981426e-06 1.93614233e-06 5.41616771e-07 1.04785693e-06
      1.78308278e-06 2.26126826e-06 2.19866524e-06 3.11569966e-06
      2.70790702e-06 1.99731608e-06 1.22868983e-06 -3.99372567e-07
      -1.41675798e-06 -8.63612456e-07 9.68807058e-07 3.62470928e-06
      5.77607943e-06 7.78182039e-06 9.09373830e-06 8.62407614e-06
      6.84229644e-06 3.88552735e-06 1.08785332e-06 -7.97056998e-08
      -5.02264072e-07 -4.03625961e-07 1.08593008e-06 2.59890749e-06
      3.79931930e-06 5.07068762e-06 5.05223807e-06 3.05328058e-06
      1.45098943e-06 -1.40065239e-07 -1.01541548e-06 -1.51551762e-06
      -3.69035661e-06 -4.26802353e-06 -2.62762842e-06 -1.62213655e-06
      -1.90045591e-06 -1.65102972e-06 -2.13521184e-06 -6.90286356e-07
      2.43451359e-06 3.59889509e-06 2.80994300e-06 2.34349841e-06
      2.08913116e-06 1.75536047e-06 1.10398318e-07 7.34276455e-07
      1.12020223e-06 1.63210996e-06 7.02385478e-07 1.27761859e-06
      3.06976460e-07 1.46098515e-07 -4.20601367e-07 -1.90786523e-06
      -2.75727871e-06 -2.38379380e-06 -1.61739115e-06 -8.73762133e-07
      -6.96172606e-07 1.01778731e-07 -1.48983617e-07 -7.19836464e-07
      -2.23551956e-06 -4.13044290e-06 -5.68836367e-06 -5.45013427e-06
      -4.94728374e-06 -4.36408618e-06 -2.49508639e-06 -2.46159942e-07
      1.88891829e-06 3.55638076e-06 4.14280112e-06 2.52911059e-06
      -6.48390781e-08 -2.89729041e-06 -5.69655003e-06 -8.12930466e-06
      -1.20958512e-05 -1.36273893e-05 -1.22165757e-05 -1.01920623e-05
      -9.30140322e-06 -7.44755607e-06 -7.19356785e-06 -6.05087826e-06
      -4.00104955e-06 -3.93629443e-06 -5.73755733e-06 -6.47309207e-06
      9.09801031e-07 6.27520194e-07 -7.78414403e-07 -3.73238578e-08
      -1.85018152e-07 5.81981112e-07 -9.03467026e-07 -4.54669049e-07
      -1.67165194e-06 -7.31241869e-07 -8.53993640e-07 -1.64418259e-06
      -2.15456566e-06 -2.46845480e-06 -3.25034671e-06 -4.89177000e-06
      -6.96955840e-06 -7.41449776e-06 -8.77455568e-06 -8.80945481e-06
      -9.14293923e-06 -9.52863411e-06 -9.76899082e-06 -9.04338413e-06
      -8.94839650e-06 -9.72701673e-06 -9.46467298e-06 -7.99880399e-06
      -5.53859854e-06 -3.32620698e-06 -1.29026000e-06 -3.64751912e-07
      -1.33250580e-06 -2.73720229e-06 -5.01339491e-06 -7.47507238e-06
      -1.16445444e-05 -1.38139185e-05 -1.32884688e-05 -1.20198883e-05
      -1.20205204e-05 -1.06835250e-05 -1.12218022e-05 -1.16759356e-05
      -1.15941084e-05 -1.27704370e-05 -1.52477696e-05 -1.61211665e-05
      2.78269363e-06 2.29156876e-06 7.89711578e-07 7.08652863e-07
      -9.19127274e-07 -9.76854380e-07 -3.57150248e-06 -3.81650216e-06
      -5.73737952e-06 -4.21183904e-06 -4.23474376e-06 -4.07881726e-06
      -4.01349234e-06 -4.16208741e-06 -4.67028258e-06 -6.24735912e-06
      -7.93943218e-06 -7.69988583e-06 -8.19390243e-06 -6.94847859e-06
      -6.30041768e-06 -6.00103749e-06 -6.10661982e-06 -5.89687761e-06
      -6.71917496e-06 -8.48875334e-06 -9.32008970e-06 -8.20006881e-06
      -5.27483189e-06 -2.58313003e-06 5.92743703e-08 2.46245372e-06
      2.30465844e-06 1.88959052e-06 -8.05340949e-09 -2.23124903e-06
      -5.87784552e-06 -7.95847609e-06 -8.22905258e-06 -8.33895047e-06
      -9.88660759e-06 -1.00861389e-05 -1.22028669e-05 -1.47481551e-05
      -1.69360337e-05 -1.93017313e-05 -2.21054524e-05 -2.30670357e-05
      7.46323894e-06 6.62538287e-06 4.39919586e-06 2.59026433e-06
      -1.22988729e-06 -3.33396338e-06 -7.61714909e-06 -9.25965469e-06
      -1.23867039e-05 -1.13254409e-05 -1.15408538e-05 -1.05874751e-05
      -9.74958039e-06 -8.64061894e-06 -6.92764206e-06 -5.85309999e-06
      -4.64714276e-06 -2.05355809e-06 -3.35755601e-07 2.27880764e-06
      3.01705290e-06 3.00844454e-06 2.12262330e-06 1.55011048e-06
      3.40683499e-07 -6.25258394e-07 -6.34452817e-07 1.35000175e-06
      4.86069030e-06 7.70980751e-06 9.58941655e-06 1.10956253e-05
      9.75865896e-06 8.98667713e-06 6.61756212e-06 4.28657995e-06
      1.28611111e-06 1.18880346e-08 -7.02171121e-07 -1.91645267e-06
      -4.43980070e-06 -5.82086295e-06 -9.24863343e-06 -1.33600606e-05
      -1.70996373e-05 -2.02142128e-05 -2.30547648e-05 -2.41835132e-05
      8.74475700e-06 7.94538118e-06 5.46820138e-06 2.83664463e-06
      -1.60086120e-06 -4.68366170e-06 -9.32601415e-06 -1.14068762e-05
      -1.45668009e-05 -1.40637148e-05 -1.40242400e-05 -1.27882231e-05
      -1.15804414e-05 -9.90425542e-06 -6.85875193e-06 -4.08853839e-06
      -1.19346339e-06 2.69741895e-06 5.75365766e-06 9.10794461e-06
      9.63328966e-06 9.35661956e-06 8.27425265e-06 7.34988680e-06
      6.36071445e-06 6.57358760e-06 7.48428556e-06 9.69926623e-06
      1.26406376e-05 1.48501167e-05 1.53745150e-05 1.52697703e-05
      1.28673837e-05 1.22669189e-05 1.04268593e-05 8.65334005e-06
      6.74344437e-06 6.73295699e-06 6.07388984e-06 4.31946501e-06
      1.69975226e-06 3.18432200e-07 -3.26585086e-06 -7.77743844e-06
      -1.15772427e-05 -1.45462227e-05 -1.70233598e-05 -1.83770790e-05
      2.31516265e-06 2.20681113e-06 9.20436150e-07 -3.30104029e-07
      -2.32307457e-06 -3.79688436e-06 -6.43915155e-06 -7.17823104e-06
      -8.67705421e-06 -8.46475086e-06 -7.83168525e-06 -7.06571700e-06
      -6.15660474e-06 -5.41933605e-06 -2.96412668e-06 -9.68512268e-07
      1.11887869e-06 4.31668514e-06 7.11659914e-06 1.04602477e-05
      1.10373303e-05 1.11041772e-05 1.08816121e-05 1.00182779e-05
      9.54567713e-06 9.71809914e-06 1.00529787e-05 1.04382125e-05
      1.11940444e-05 1.15909743e-05 1.05776462e-05 9.35952721e-06
      7.00019473e-06 7.68560403e-06 7.85677094e-06 7.76088200e-06
      7.58593433e-06 9.10660674e-06 9.55090127e-06 8.14462783e-06
      6.52938070e-06 6.32913134e-06 4.07437346e-06 1.86397799e-07
      -2.44246212e-06 -4.51998721e-06 -6.38957954e-06 -7.81080053e-06
      -6.38689380e-06 -5.58587226e-06 -4.93773814e-06 -3.72592422e-06
      -2.03495188e-06 -7.68332541e-07 -5.97531823e-07 9.87348940e-08
      1.38670131e-07 -7.40554356e-07 -7.68117332e-07 -1.63840514e-06
      -1.96476071e-06 -2.88732917e-06 -1.38507767e-06 -5.07709785e-07
      9.65616323e-07 3.68337874e-06 6.21364643e-06 9.49042897e-06
      1.04941273e-05 1.10869860e-05 1.16684796e-05 1.08301465e-05
      1.06830003e-05 9.80307232e-06 8.57067880e-06 5.87887826e-06
      3.92317133e-06 1.76811557e-06 -1.06908988e-06 -3.17464287e-06
      -5.38165159e-06 -3.53743326e-06 -1.33983929e-06 8.52316134e-07
      2.88940782e-06 6.42088526e-06 9.30606802e-06 9.55169435e-06
      1.03477232e-05 1.17122972e-05 1.18384678e-05 9.17369925e-06
      8.02852810e-06 7.09652886e-06 5.82181747e-06 4.71271505e-06
      -9.91039451e-06 -8.57855957e-06 -6.57157489e-06 -3.56801002e-06
      3.76656459e-07 3.57277258e-06 5.67760389e-06 6.46915987e-06
      6.69449128e-06 3.81344739e-06 1.21797848e-06 -2.39471410e-06
      -5.26659323e-06 -8.01051465e-06 -7.32018589e-06 -6.67595987e-06
      -4.30746240e-06 -5.10439634e-07 2.81333678e-06 6.59522493e-06
      8.65533184e-06 9.78298976e-06 1.05695708e-05 9.85942279e-06
      9.71612917e-06 8.01701117e-06 5.36010975e-06 3.07504052e-07
      -3.43662919e-06 -7.63740809e-06 -1.20280802e-05 -1.48141462e-05
      -1.73324588e-05 -1.54320587e-05 -1.25768338e-05 -8.77176990e-06
      -4.94343203e-06 6.36032496e-07 6.07172524e-06 8.83799021e-06
      1.28753627e-05 1.54001100e-05 1.82186886e-05 1.72419223e-05
      1.73194094e-05 1.76636931e-05 1.70624444e-05 1.66057926e-05
      -9.89867749e-06 -8.55759936e-06 -6.22011521e-06 -2.51949859e-06
      1.79112851e-06 5.84906593e-06 8.99206771e-06 9.49231708e-06
      9.54318421e-06 5.66767312e-06 9.46799446e-07 -4.62622620e-06
      -9.85329461e-06 -1.36434364e-05 -1.38316736e-05 -1.32299410e-05
      -1.02298454e-05 -5.40377278e-06 -1.49177504e-06 2.43066143e-06
      5.59723730e-06 7.19577929e-06 8.05695072e-06 7.98841484e-06
      8.10417805e-06 6.69228848e-06 3.59063756e-06 -1.67513508e-06
      -5.50656068e-06 -1.00850339e-05 -1.48044992e-05 -1.76170051e-05
      -2.04297612e-05 -1.96601468e-05 -1.79476992e-05 -1.48062209e-05
      -1.11364607e-05 -5.19313608e-06 7.26113683e-07 5.19057676e-06
      1.14579116e-05 1.43314455e-05 1.91178115e-05 1.98374219e-05
      2.05428332e-05 2.19733265e-05 2.21099399e-05 2.22878298e-05
      -1.05081908e-05 -9.54932420e-06 -7.79327365e-06 -4.47601542e-06
      -9.29662747e-07 3.07071105e-06 6.57892997e-06 7.59881959e-06
      8.08476034e-06 5.33989169e-06 1.13435192e-06 -3.94095241e-06
      -9.23265998e-06 -1.23594291e-05 -1.29033460e-05 -1.23899126e-05
      -1.00430598e-05 -5.63830235e-06 -2.41183307e-06 2.17808420e-07
      3.41316309e-06 4.85509781e-06 5.78451318e-06 6.48968899e-06
      7.24690062e-06 6.89392527e-06 4.45119485e-06 7.35884157e-07
      -1.97872646e-06 -5.40763222e-06 -9.34922718e-06 -1.16660431e-05
      -1.41144101e-05 -1.46689463e-05 -1.45560671e-05 -1.36783701e-05
      -1.17301661e-05 -7.69779581e-06 -3.76165963e-06 4.06188406e-07
      6.32200681e-06 8.46962575e-06 1.32794512e-05 1.48642539e-05
      1.54093414e-05 1.69941723e-05 1.76160192e-05 1.80887655e-05
      -1.03904886e-05 -1.00681682e-05 -9.51944730e-06 -7.72171825e-06
      -5.51533776e-06 -2.69774705e-06 3.35689485e-08 1.76370372e-06
      2.44644593e-06 1.32190405e-06 -1.02915851e-06 -4.48132232e-06
      -8.05175387e-06 -9.50679532e-06 -9.39276106e-06 -8.22616494e-06
      -6.25326629e-06 -2.44971557e-06 1.88123920e-07 1.14235877e-06
      3.33115304e-06 3.54507142e-06 3.88059698e-06 4.28454041e-06
      5.23583913e-06 5.57476051e-06 4.28390285e-06 2.51958227e-06
      1.20807658e-06 -5.28408862e-07 -3.53027417e-06 -5.55767656e-06
      -7.25898690e-06 -8.43902490e-06 -8.67244125e-06 -9.13919393e-06
      -8.04009505e-06 -6.42475470e-06 -4.55548707e-06 -1.58668195e-06
      2.13687144e-06 3.02154240e-06 5.89145429e-06 7.33709430e-06
      7.36793027e-06 7.95278083e-06 8.63164951e-06 9.05188790e-06
      -7.12810879e-06 -7.39033567e-06 -8.03710009e-06 -8.15879412e-06
      -7.11001348e-06 -6.14892542e-06 -5.35441177e-06 -3.85112571e-06
      -4.22278072e-06 -4.96408620e-06 -6.23816140e-06 -8.74834677e-06
      -1.02367212e-05 -9.73074020e-06 -7.71698160e-06 -4.51109827e-06
      -1.21537903e-06 3.12294924e-06 6.27080772e-06 6.12529357e-06
      6.55920212e-06 4.32411252e-06 2.53635199e-06 8.31671571e-07
      8.34127775e-07 8.08394873e-07 5.65396249e-07 5.43612657e-07
      8.19911179e-07 8.47031004e-07 -1.35243897e-06 -3.53318364e-06
      -4.93010657e-06 -6.42887790e-06 -6.20742730e-06 -6.42199075e-06
      -4.54224346e-06 -4.23544770e-06 -2.44021567e-06 3.22368550e-08
      1.65597896e-06 1.73230217e-06 1.90472383e-06 2.35739526e-06
      1.72599016e-06 4.24788936e-07 5.62632692e-07 7.06751280e-07
      -2.86995828e-07 -7.28018620e-07 -2.14081479e-06 -3.74007027e-06
      -3.18365437e-06 -3.94031031e-06 -5.41427335e-06 -4.99293401e-06
      -7.16742761e-06 -8.32280875e-06 -9.33197862e-06 -1.14906461e-05
      -1.11368536e-05 -8.56833412e-06 -4.30451610e-06 1.00376212e-06
      6.05873856e-06 1.10744359e-05 1.46823377e-05 1.34708907e-05
      1.17137779e-05 6.92469075e-06 2.31980721e-06 -1.89283048e-06
      -3.42840599e-06 -4.31358558e-06 -3.95655161e-06 -2.44816079e-06
      -3.50327014e-07 1.28080774e-06 7.83746614e-08 -2.04087860e-06
      -3.40592624e-06 -5.34708306e-06 -5.40599422e-06 -5.17739090e-06
      -2.76212222e-06 -2.95537234e-06 -2.05237143e-07 2.22088624e-06
      2.36687197e-06 2.18738614e-06 -4.80660178e-10 -1.24383041e-06
      -2.91386596e-06 -6.31553530e-06 -7.30618967e-06 -7.48433649e-06
      7.22280083e-06 6.99580232e-06 5.18865818e-06 2.70775649e-06
      3.30904595e-06 1.51401503e-06 -1.37252914e-06 -1.79120536e-06
      -5.24307097e-06 -6.60742580e-06 -7.51657035e-06 -9.86751638e-06
      -9.00482246e-06 -5.54559529e-06 -9.05973195e-07 4.19971229e-06
      9.50937101e-06 1.41668106e-05 1.74759789e-05 1.54878398e-05
      1.26401674e-05 7.44095905e-06 1.81538246e-06 -2.89144964e-06
      -5.16071304e-06 -6.18056538e-06 -5.69043959e-06 -3.00403190e-06
      5.56801581e-07 2.98717464e-06 2.83722511e-06 1.29735861e-06
      3.33654214e-07 -1.95123994e-06 -3.20527033e-06 -3.17075614e-06
      -1.82754366e-06 -2.51570714e-06 1.99347923e-07 2.07894345e-06
      9.70765768e-07 6.83523467e-07 -2.74832837e-06 -5.29464523e-06
      -7.59728437e-06 -1.19055812e-05 -1.38584528e-05 -1.41126648e-05
      9.64767787e-06 9.72164980e-06 7.98992369e-06 5.42644011e-06
      6.50450147e-06 4.80584549e-06 2.19908065e-06 1.93370192e-06
      -1.63267384e-06 -3.03449951e-06 -4.09788981e-06 -7.49607079e-06
      -8.05823493e-06 -5.84040845e-06 -3.14677436e-06 -2.56347477e-07
      4.26008455e-06 8.17387991e-06 1.11881491e-05 9.78649950e-06
      7.91993443e-06 4.62925072e-06 3.09374116e-07 -2.82650603e-06
      -4.72420152e-06 -4.94711958e-06 -4.39421683e-06 -1.14840361e-06
      2.95157679e-06 5.11985536e-06 5.62800460e-06 4.57570286e-06
      4.02801516e-06 1.52484984e-06 -8.33054969e-07 -1.17497802e-06
      -1.78700611e-06 -2.84878070e-06 -1.18283026e-06 -9.22139876e-08
      -1.98266753e-06 -2.32803654e-06 -5.69118583e-06 -8.18414901e-06
      -9.83924656e-06 -1.32624045e-05 -1.54987938e-05 -1.55506568e-05
      7.44594672e-06 7.63698517e-06 6.42796385e-06 4.58222303e-06
      5.95098936e-06 5.09002712e-06 3.78376899e-06 4.13756607e-06
      1.18772982e-06 -5.15634270e-07 -2.15782529e-06 -6.37177072e-06
      -8.69394262e-06 -8.52021367e-06 -7.74430009e-06 -6.32534920e-06
      -2.01120133e-06 1.67012115e-06 4.63273273e-06 4.80907602e-06
      4.57137094e-06 3.01982800e-06 2.20770062e-07 -1.39321162e-06
      -3.04689820e-06 -2.63739844e-06 -1.88602587e-06 9.23001721e-07
      4.42746204e-06 5.76295588e-06 6.47956722e-06 5.39371058e-06
      4.58864906e-06 1.92866264e-06 -6.55749716e-07 -1.01557737e-06
      -3.18451885e-06 -3.90310470e-06 -2.82914812e-06 -1.85340025e-06
      -3.45048602e-06 -3.58209422e-06 -6.14592955e-06 -7.76187244e-06
      -8.11559130e-06 -1.00193829e-05 -1.24387543e-05 -1.23697282e-05
      5.72347926e-06 5.79634707e-06 4.99896441e-06 3.98185830e-06
      4.66882011e-06 4.34910407e-06 4.06685695e-06 4.75216211e-06
      2.71488034e-06 8.04936633e-07 -1.27670819e-06 -4.52640052e-06
      -7.03090291e-06 -7.65041477e-06 -6.94219671e-06 -5.15930560e-06
      -4.99772852e-07 2.94520441e-06 5.20254889e-06 6.23345159e-06
      6.24480617e-06 4.59617286e-06 2.23719621e-06 1.24813675e-06
      -8.31564364e-07 -3.75936480e-07 7.01219733e-07 2.34229674e-06
      4.44412535e-06 4.84820066e-06 5.34493483e-06 3.93035225e-06
      2.31489366e-06 -1.51891683e-07 -2.13553790e-06 -2.19833100e-06
      -4.96488656e-06 -4.44088937e-06 -2.83577515e-06 -1.21345852e-06
      -1.63519962e-06 -1.07463188e-06 -2.74423587e-06 -3.51994322e-06
      -2.93885432e-06 -3.77281822e-06 -6.74370995e-06 -6.80335279e-06
      4.85921873e-06 4.77789126e-06 3.76561047e-06 2.98159898e-06
      2.30730689e-06 1.89483490e-06 1.97351164e-06 2.75301613e-06
      1.99257852e-06 7.95553717e-07 -7.69224357e-07 -1.50762207e-06
      -2.72077114e-06 -2.49687059e-06 -7.93932998e-07 1.53526639e-06
      5.72660610e-06 8.09509947e-06 8.67926246e-06 9.11056304e-06
      7.94483367e-06 5.47004811e-06 3.37745064e-06 3.00470879e-06
      7.97497989e-07 1.39727490e-06 2.88333263e-06 3.70479893e-06
      4.70779833e-06 4.43431873e-06 4.44629086e-06 3.04776631e-06
      1.01467526e-06 -5.59366185e-07 -1.67963731e-06 -1.46292950e-06
      -4.00686804e-06 -2.13582621e-06 1.20942929e-07 1.92663356e-06
      2.09641462e-06 3.09782217e-06 1.78594939e-06 1.36401070e-06
      2.13838916e-06 1.98473481e-06 -1.41515716e-06 -1.59859428e-06
      5.59886666e-06 5.48752041e-06 3.68481005e-06 2.34179106e-06
      3.29235917e-07 -7.80528239e-07 -1.23697828e-06 -7.11045800e-07
      -4.90740206e-07 -3.40923719e-07 -5.84810834e-07 8.90030606e-07
      9.56732947e-07 2.37294989e-06 4.36908294e-06 5.78544950e-06
      8.02948307e-06 8.54399150e-06 7.39192956e-06 6.72738952e-06
      4.75058187e-06 2.72588795e-06 1.93991968e-06 2.73833348e-06
      1.61122773e-06 2.85294277e-06 4.56981525e-06 5.33235107e-06
      6.31073181e-06 5.91310391e-06 5.68358246e-06 5.07401955e-06
      3.75703280e-06 3.47359560e-06 3.00358352e-06 3.23663653e-06
      1.16391914e-06 3.14921931e-06 4.75325396e-06 5.19653759e-06
      4.18359923e-06 4.19801245e-06 2.32020216e-06 1.67583971e-06
      2.01869307e-06 2.54608312e-06 -4.66435722e-07 -5.24069776e-07
      9.40740756e-06 9.32648982e-06 6.82303880e-06 4.77848289e-06
      2.04429557e-06 -1.39707041e-07 -2.03043169e-06 -2.39410065e-06
      -2.33257902e-06 -1.31288959e-06 -2.19388781e-07 1.98526027e-06
      2.56849148e-06 4.48419951e-06 5.71045757e-06 5.20022468e-06
      4.72672355e-06 3.21271091e-06 9.20384366e-07 -5.55722067e-07
      -2.14887632e-06 -2.62346975e-06 -1.57778732e-06 3.97298777e-07
      1.37182508e-06 3.77394622e-06 5.81403901e-06 7.15111855e-06
      9.10263861e-06 9.40469727e-06 9.52878872e-06 1.01040387e-05
      1.00999305e-05 1.03963357e-05 1.00450288e-05 9.94212405e-06
      8.00758426e-06 8.51999812e-06 8.16867396e-06 6.41144834e-06
      3.29135037e-06 1.11895190e-06 -1.79742028e-06 -2.90516505e-06
      -3.38771724e-06 -2.35848006e-06 -4.25985218e-06 -4.02552450e-06
      1.05360823e-05 1.04735536e-05 8.03040894e-06 6.08156870e-06
      3.78954064e-06 1.00795876e-06 -1.99469514e-06 -3.16467253e-06
      -3.56668670e-06 -2.33129140e-06 -5.08168085e-09 2.17308707e-06
      3.18811885e-06 5.17896979e-06 5.69395115e-06 4.02064643e-06
      1.60032778e-06 -1.18254945e-06 -3.87113369e-06 -5.63944786e-06
      -6.35882634e-06 -5.79904145e-06 -3.83455699e-06 -1.62555114e-06
      9.98301743e-07 4.16702278e-06 6.49578669e-06 8.33163722e-06
      1.11807794e-05 1.26674804e-05 1.33933718e-05 1.48847084e-05
      1.58275543e-05 1.55389171e-05 1.49189509e-05 1.45103413e-05
      1.24366879e-05 1.11570407e-05 9.16890258e-06 6.09032531e-06
      1.79975825e-06 -2.18826881e-06 -5.94922403e-06 -7.57940415e-06
      -9.25285076e-06 -8.61002718e-06 -9.55863925e-06 -9.17339821e-06
      3.96439191e-06 3.94825975e-06 2.34137269e-06 1.36930601e-06
      4.78958668e-07 -1.86892453e-06 -4.58464456e-06 -5.65724758e-06
      -5.73514262e-06 -4.61709442e-06 -1.29022646e-06 9.73876922e-07
      2.71322415e-06 4.60157753e-06 5.09197753e-06 3.74853039e-06
      1.06346499e-06 -1.43934540e-06 -3.52188317e-06 -4.43291538e-06
      -3.96263931e-06 -2.79291862e-06 -7.53620611e-07 7.31583782e-07
      3.16161550e-06 5.18381285e-06 6.35873448e-06 6.91226296e-06
      8.89920557e-06 1.07367268e-05 1.15486791e-05 1.35666551e-05
      1.51137192e-05 1.42354756e-05 1.39196682e-05 1.40188158e-05
      1.21346256e-05 1.02388494e-05 8.26852920e-06 5.58191277e-06
      1.90719391e-06 -2.32208822e-06 -6.25733492e-06 -8.31208399e-06
      -1.11573818e-05 -1.17718873e-05 -1.24629260e-05 -1.22590600e-05
      -5.40394103e-06 -5.31425894e-06 -5.76739967e-06 -5.57145950e-06
      -5.00868373e-06 -6.30828526e-06 -7.81419567e-06 -8.28399243e-06
      -7.81990275e-06 -7.31367663e-06 -4.10904295e-06 -2.16889748e-06
      -3.02461046e-07 6.75818114e-07 1.06475795e-06 4.47220060e-07
      -1.60113200e-06 -2.83392501e-06 -3.74340493e-06 -2.72383613e-06
      -8.48133880e-07 1.33484264e-06 3.50431219e-06 4.25207827e-06
      5.17255512e-06 4.74901390e-06 3.60289459e-06 1.38605753e-06
      1.30119656e-06 2.53659960e-06 3.15028683e-06 5.80778396e-06
      8.02068553e-06 7.70367114e-06 8.66582286e-06 9.99515396e-06
      8.71561315e-06 7.47767035e-06 6.75608771e-06 5.63588628e-06
      3.88082844e-06 9.28233817e-07 -2.12325244e-06 -4.04853517e-06
      -7.25249811e-06 -8.96486654e-06 -9.82988149e-06 -1.00811812e-05
      -1.13065516e-05 -1.10200053e-05 -1.05238123e-05 -9.62033573e-06
      -8.28750126e-06 -8.55272901e-06 -8.87303941e-06 -8.86919315e-06
      -8.21660706e-06 -8.33917147e-06 -6.29208353e-06 -5.14562407e-06
      -3.76709818e-06 -4.08819096e-06 -4.23654774e-06 -4.41379325e-06
      -5.86036140e-06 -5.89562842e-06 -5.87923796e-06 -3.06799075e-06
      -4.40900067e-07 2.47722232e-06 4.53063740e-06 4.83716440e-06
      4.21834420e-06 2.08316624e-06 -3.44108201e-07 -4.04748516e-06
      -5.00930673e-06 -3.91358844e-06 -3.01925161e-06 2.28225488e-07
      2.45258298e-06 2.93717835e-06 4.56025919e-06 6.32372394e-06
      5.22493201e-06 4.81053667e-06 5.29165618e-06 5.86450733e-06
      6.29700708e-06 5.24365760e-06 3.88331819e-06 2.65282688e-06
      5.75192338e-08 -1.89926982e-06 -3.04427226e-06 -3.82792905e-06
      -1.36757044e-05 -1.30304024e-05 -1.21271732e-05 -1.11868221e-05
      -9.89989894e-06 -9.45151169e-06 -8.90537649e-06 -8.55231883e-06
      -7.53609447e-06 -7.25640894e-06 -5.77831543e-06 -4.54151677e-06
      -2.72643479e-06 -2.90980370e-06 -3.23402901e-06 -2.83667168e-06
      -3.85970407e-06 -3.51434551e-06 -3.37964184e-06 -4.04465254e-07
      1.62935703e-06 4.13195494e-06 5.41153577e-06 5.31647629e-06
      3.86085412e-06 1.53019391e-06 -4.73951275e-07 -3.26063014e-06
      -3.67975417e-06 -2.32908428e-06 -1.26138036e-06 1.17902334e-06
      1.84135183e-06 1.84407281e-06 2.13326325e-06 2.88681417e-06
      1.46499156e-06 1.53006931e-06 2.75867660e-06 4.64582945e-06
      6.62768389e-06 7.15356373e-06 7.30254033e-06 6.68141911e-06
      5.01703971e-06 3.45176386e-06 2.01426133e-06 8.92583216e-07
      -1.34636703e-05 -1.23965037e-05 -1.15142284e-05 -1.09442453e-05
      -1.00958387e-05 -9.33615593e-06 -8.19959951e-06 -7.51998141e-06
      -5.88419061e-06 -4.48023366e-06 -2.32089292e-06 1.20828474e-07
      3.40944939e-06 4.72334523e-06 4.40888834e-06 4.95749646e-06
      3.57985323e-06 2.48622177e-06 1.37056452e-06 2.16363287e-06
      2.41350904e-06 4.05017818e-06 4.91461924e-06 5.00253373e-06
      4.17176852e-06 3.17106628e-06 2.35593507e-06 1.42380736e-06
      1.07261235e-06 1.53965186e-06 1.59297201e-06 1.19865661e-06
      -5.00967417e-07 -1.61890489e-06 -3.27556222e-06 -3.28520241e-06
      -4.11268184e-06 -3.19859373e-06 -1.27520707e-06 1.56477086e-06
      3.96277937e-06 5.14503790e-06 5.80737196e-06 5.24059988e-06
      4.27995383e-06 3.25278575e-06 1.66582970e-06 6.31226442e-07
      -9.32797138e-06 -8.08285677e-06 -7.28869190e-06 -7.03389696e-06
      -6.53918869e-06 -5.77356332e-06 -4.40224630e-06 -3.49690299e-06
      -1.68535360e-06 2.48067607e-07 3.16162482e-06 6.49238245e-06
      1.06016987e-05 1.26585837e-05 1.15679231e-05 1.10533028e-05
      8.08814639e-06 3.75084528e-06 2.32014568e-08 -2.94470146e-06
      -5.29544968e-06 -4.48800756e-06 -3.40512156e-06 -2.33500441e-06
      -1.13055364e-06 4.66981902e-07 1.47208129e-06 2.48288939e-06
      1.56797466e-06 5.70220038e-07 -7.65691425e-07 -4.40311533e-06
      -7.51023526e-06 -8.79388153e-06 -1.10923165e-05 -1.04783530e-05
      -9.55085306e-06 -7.40780297e-06 -4.97649671e-06 -1.93257324e-06
      -2.69076338e-07 5.61729507e-07 8.02508396e-07 -2.39582825e-08
      -4.67182986e-07 -1.10619169e-06 -2.49163554e-06 -3.00599413e-06
      -1.58952207e-06 -5.52013319e-07 1.39706742e-07 2.85179993e-07
      4.63113480e-07 9.94327706e-07 2.05988044e-06 2.84161615e-06
      4.05685250e-06 5.42089902e-06 7.99966892e-06 1.11846721e-05
      1.49195630e-05 1.64764497e-05 1.45095282e-05 1.29794817e-05
      8.54435802e-06 1.49018183e-06 -4.92575464e-06 -1.14845243e-05
      -1.67952730e-05 -1.77210095e-05 -1.73229782e-05 -1.56535771e-05
      -1.27189905e-05 -8.67418476e-06 -5.03140154e-06 -1.69887392e-06
      -2.18637592e-06 -3.02740227e-06 -4.44063608e-06 -9.52635128e-06
      -1.24989265e-05 -1.31848874e-05 -1.51704908e-05 -1.39053845e-05
      -1.19884662e-05 -9.45482043e-06 -7.19072932e-06 -5.07155573e-06
      -4.56796261e-06 -4.38772759e-06 -4.62843673e-06 -5.34902438e-06
      -5.11276494e-06 -5.51512676e-06 -6.31149396e-06 -6.11877658e-06
      6.46624449e-06 7.09001870e-06 7.44454655e-06 7.39713869e-06
      6.93642960e-06 6.95380822e-06 7.22102732e-06 7.31099635e-06
      7.52282904e-06 7.69634244e-06 8.84041037e-06 1.11815079e-05
      1.40630091e-05 1.50845954e-05 1.34859110e-05 1.26927453e-05
      9.00259329e-06 2.63351194e-06 -4.07774587e-06 -1.15580215e-05
      -1.81928772e-05 -2.12070627e-05 -2.25309304e-05 -2.14966531e-05
      -1.90490628e-05 -1.50001670e-05 -9.80226741e-06 -5.07957338e-06
      -4.40309077e-06 -3.71923784e-06 -4.08477808e-06 -8.44450642e-06
      -1.05426416e-05 -1.10756018e-05 -1.31400529e-05 -1.27540561e-05
      -1.19975612e-05 -1.05635227e-05 -9.19214835e-06 -8.60562523e-06
      -8.60326782e-06 -8.32843853e-06 -8.01858914e-06 -7.54785151e-06
      -6.04081470e-06 -5.79531297e-06 -5.61459137e-06 -4.78237462e-06
      1.12184562e-05 1.14023296e-05 1.11779764e-05 1.07084443e-05
      9.29519047e-06 8.74133184e-06 8.34892853e-06 7.69178405e-06
      7.26171038e-06 6.53653160e-06 6.11970381e-06 7.31316959e-06
      9.07084723e-06 9.80154800e-06 9.33655247e-06 1.02485938e-05
      9.27659403e-06 6.83546159e-06 3.06714014e-06 -1.71971828e-06
      -6.44486317e-06 -9.89933596e-06 -1.23542795e-05 -1.26902769e-05
      -1.28577749e-05 -1.16254914e-05 -7.91025923e-06 -4.32724846e-06
      -3.20609456e-06 -1.51517543e-06 -8.31597845e-07 -3.23018344e-06
      -4.26788210e-06 -5.11053076e-06 -7.79872062e-06 -9.43717805e-06
      -1.12344787e-05 -1.18424014e-05 -1.19515216e-05 -1.26525638e-05
      -1.21930925e-05 -1.08373561e-05 -8.62753222e-06 -5.68993255e-06
      -2.07510061e-06 -1.34439290e-07 1.43554962e-06 2.80935478e-06
      1.05376457e-05 1.03062848e-05 9.73529768e-06 9.15241526e-06
      7.15421857e-06 6.47577372e-06 6.32442925e-06 5.70793190e-06
      5.46641377e-06 4.75016577e-06 3.60585159e-06 3.78755522e-06
      4.08737878e-06 4.12767486e-06 4.19870139e-06 5.65540086e-06
      6.72840133e-06 8.13302267e-06 8.06224853e-06 7.09299275e-06
      5.91828302e-06 3.90660171e-06 1.62639606e-06 2.62170374e-07
      -2.33896776e-06 -4.03459671e-06 -3.42762974e-06 -2.38500616e-06
      -1.46923514e-06 3.38812384e-07 1.64387700e-06 1.26009581e-06
      1.32431762e-06 3.19139730e-07 -2.89072977e-06 -6.23375718e-06
      -1.01888909e-05 -1.26875802e-05 -1.43115203e-05 -1.54334175e-05
      -1.40879893e-05 -1.13181331e-05 -6.76019681e-06 -1.06108678e-06
      4.85430201e-06 8.89827697e-06 1.18784610e-05 1.36872268e-05
      5.49448441e-06 4.96215034e-06 4.79990604e-06 4.91408355e-06
      3.37378901e-06 3.07744722e-06 3.81065729e-06 3.77899596e-06
      3.97171880e-06 3.64024186e-06 2.53692497e-06 2.23209690e-06
      1.28728595e-06 3.30787742e-07 1.60137816e-07 5.56955570e-07
      1.50116125e-06 4.15610430e-06 5.94798257e-06 7.17769262e-06
      8.77179173e-06 8.86834550e-06 7.81922427e-06 6.58418594e-06
      3.77189122e-06 1.39105521e-06 -2.24507151e-08 -7.75573483e-07
      -9.02703263e-08 1.49172854e-06 2.80970630e-06 3.48499384e-06
      4.25407234e-06 3.09624511e-06 -2.80573317e-07 -4.21338700e-06
      -8.82051791e-06 -1.22052597e-05 -1.43490688e-05 -1.48088966e-05
      -1.26259683e-05 -8.78872197e-06 -2.76152787e-06 4.41542579e-06
      1.14289523e-05 1.63070945e-05 1.99417664e-05 2.18672121e-05
      -3.59227755e-07 -1.08078871e-06 -4.31009369e-07 4.78990785e-07
      -6.69143319e-08 -1.96169424e-07 9.11938173e-07 1.08621180e-06
      1.17065179e-06 8.16943384e-07 2.76862000e-08 -6.91934048e-08
      -1.24865858e-06 -2.50997095e-06 -2.77143909e-06 -3.52466327e-06
      -3.61909861e-06 -1.82024371e-06 -2.15516991e-08 1.58633611e-06
      4.43211229e-06 6.27606732e-06 6.80704443e-06 6.59876514e-06
      5.28617784e-06 3.84793066e-06 2.12883424e-06 9.36219635e-07
      1.37480356e-06 2.73594037e-06 3.76018943e-06 4.66704660e-06
      5.75107333e-06 4.29390184e-06 1.18522223e-06 -2.23921757e-06
      -6.14940518e-06 -9.33333649e-06 -1.07038377e-05 -1.00345114e-05
      -7.35852700e-06 -3.26018835e-06 2.52153245e-06 8.99187398e-06
      1.49856724e-05 1.85064455e-05 2.16315402e-05 2.31644553e-05
      -5.39009307e-06 -6.39816744e-06 -5.49643892e-06 -4.78250513e-06
      -4.93056905e-06 -5.57293697e-06 -4.97626252e-06 -4.91228320e-06
      -5.16954287e-06 -5.65949267e-06 -5.94390985e-06 -5.21535367e-06
      -5.61008574e-06 -6.04997149e-06 -5.66321933e-06 -6.37977564e-06
      -6.64583104e-06 -5.93497816e-06 -4.56481621e-06 -3.16063029e-06
      -3.04043510e-07 2.40728218e-06 3.84340092e-06 4.55385270e-06
      4.48678293e-06 3.96751511e-06 2.75031312e-06 2.07698008e-06
      2.40305258e-06 3.96578071e-06 5.26373697e-06 6.49495178e-06
      8.03287639e-06 6.51317714e-06 4.09803715e-06 1.78747416e-06
      -9.72650469e-07 -3.42574708e-06 -3.64328025e-06 -2.40441113e-06
      1.30435950e-07 3.44958426e-06 7.29126714e-06 1.11191048e-05
      1.42633689e-05 1.47982728e-05 1.65374076e-05 1.72417258e-05
      -9.85184306e-06 -1.12697226e-05 -1.08244003e-05 -1.10403389e-05
      -1.14782479e-05 -1.28113579e-05 -1.28444262e-05 -1.25796387e-05
      -1.27800677e-05 -1.30257840e-05 -1.27205731e-05 -1.10648170e-05
      -1.05427043e-05 -9.85667702e-06 -8.56822226e-06 -8.47602405e-06
      -8.05083164e-06 -7.74316959e-06 -6.44672991e-06 -5.05808566e-06
      -2.82803512e-06 5.69810652e-08 1.56368924e-06 2.72877173e-06
      2.97754787e-06 2.95694576e-06 2.40756617e-06 2.70173086e-06
      3.30706371e-06 5.53988230e-06 7.72060775e-06 9.53724157e-06
      1.16114443e-05 1.03062393e-05 8.51592995e-06 7.08863763e-06
      5.09474012e-06 3.25194151e-06 3.66510790e-06 4.69244105e-06
      6.63136007e-06 8.66874507e-06 1.00593070e-05 1.07993628e-05
      1.07785954e-05 8.29796772e-06 8.55318194e-06 8.36582603e-06
      -1.19297938e-05 -1.35562259e-05 -1.34392367e-05 -1.41537548e-05
      -1.48159806e-05 -1.64256999e-05 -1.66739574e-05 -1.61855387e-05
      -1.62256420e-05 -1.62482502e-05 -1.56722108e-05 -1.36250428e-05
      -1.27526464e-05 -1.15926214e-05 -9.91204888e-06 -9.38477297e-06
      -8.53920210e-06 -8.25969892e-06 -6.90123034e-06 -5.45066541e-06
      -3.59440446e-06 -7.23994503e-07 6.84144254e-07 1.99113902e-06
      2.22751555e-06 2.39921906e-06 2.18999844e-06 3.00819988e-06
      3.85649128e-06 6.49041613e-06 9.16695990e-06 1.12787784e-05
      1.35726905e-05 1.23944628e-05 1.08081258e-05 9.65406980e-06
      7.87129193e-06 6.23533469e-06 6.77776825e-06 7.56284953e-06
      9.16619774e-06 1.05756581e-05 1.08457070e-05 1.02023150e-05
      8.78494484e-06 5.03583124e-06 4.64617597e-06 4.06329264e-06
      4.97324163e-06 4.71536578e-06 3.38743826e-06 2.36440496e-06
      1.65828715e-06 -6.78308698e-09 -2.51068013e-06 -5.13831719e-06
      -9.62263584e-06 -9.96840390e-06 -5.14346448e-06 6.98384568e-08
      4.48176570e-06 7.94941025e-06 7.80268965e-06 6.40316875e-06
      5.89889169e-06 5.31335718e-06 5.53929203e-06 5.28177679e-06
      5.12739416e-06 4.56562111e-06 2.85132091e-06 -1.41240378e-07
      -3.18748050e-07 9.24199128e-07 2.95801351e-06 4.32907791e-06
      4.62996513e-06 2.82611404e-06 1.79832318e-06 2.45510842e-06
      2.02187198e-06 8.98811550e-08 -2.47270009e-06 -2.68966346e-06
      -2.56481826e-06 -4.33582818e-06 -5.79610287e-06 -6.25959001e-06
      -5.43326632e-06 -3.30519674e-06 -2.26373686e-06 -1.16806143e-06
      6.69145948e-07 1.24223448e-06 2.98587366e-07 -7.86223154e-07
      1.94541940e-06 2.32166190e-06 1.84129692e-06 2.28647900e-06
      1.26286707e-07 -1.61090475e-06 -3.15713805e-06 -4.97919700e-06
      -6.93585162e-06 -8.58306885e-06 -5.58049805e-06 -6.16014859e-07
      3.17748527e-06 5.14076373e-06 5.32854028e-06 4.13112411e-06
      3.70728799e-06 4.69003362e-06 6.22275002e-06 6.86060503e-06
      5.07124651e-06 4.06636900e-06 4.10316943e-06 3.34478113e-06
      1.52680616e-06 4.51317504e-07 1.17753621e-06 1.23150960e-06
      6.34140633e-07 2.08277370e-07 -1.42045872e-06 -1.21862786e-06
      7.96184281e-07 1.47858668e-06 -6.08113950e-08 -2.25479107e-06
      -3.93018672e-06 -4.86697218e-06 -6.25600160e-06 -6.18472450e-06
      -6.43474050e-06 -5.52297479e-06 -4.29892998e-06 -2.86576187e-06
      -6.49661786e-07 1.43090017e-06 1.35562277e-06 -1.91225723e-07
      -1.23012103e-06 -1.39671920e-06 -2.74732815e-06 -3.59340243e-06
      -3.36153812e-06 -5.11284179e-06 -6.23223650e-06 -6.74112835e-06
      -7.16936074e-06 -8.21192316e-06 -6.60263277e-06 -1.85398414e-06
      1.70958401e-06 3.57558429e-06 3.25235737e-06 1.46639775e-06
      8.87822978e-07 1.21863127e-06 2.83619897e-06 4.66471056e-06
      4.83812437e-06 3.77645051e-06 3.06073275e-06 4.82102587e-06
      4.97996189e-06 3.28438841e-06 1.60165598e-06 3.62922208e-07
      -2.48599667e-06 -3.09361553e-06 -3.38717041e-06 -4.59689636e-06
      -2.92912409e-06 3.57389212e-07 1.65090444e-06 2.65734002e-07
      -2.18343098e-06 -5.05627213e-06 -6.99697011e-06 -7.07365234e-06
      -5.79524431e-06 -5.67117604e-06 -5.57748626e-06 -4.83480380e-06
      -2.58366708e-06 -1.10512239e-07 4.23499586e-07 -4.90205423e-07
      -3.35348341e-06 -3.53261430e-06 -4.48189030e-06 -5.79686412e-06
      -6.99625707e-06 -7.63436674e-06 -8.32459773e-06 -7.54906068e-06
      -6.11959467e-06 -5.57405247e-06 -6.23595452e-06 -4.46163494e-06
      -5.33615946e-07 1.78893595e-06 1.82380018e-06 1.84193732e-06
      6.66614369e-07 8.74224440e-07 6.12137512e-07 5.82793973e-07
      9.17333011e-07 1.02452395e-06 8.22941558e-07 2.48009246e-06
      3.98700740e-06 3.16763931e-06 1.60309708e-06 9.00723194e-07
      -3.02274969e-07 -2.50744438e-06 -3.66102290e-06 -4.47826869e-06
      -4.62585240e-06 -1.49139589e-06 1.09421046e-06 2.10893904e-06
      7.78728406e-07 -2.01359876e-06 -3.89683055e-06 -6.12968051e-06
      -6.72283795e-06 -5.85444013e-06 -4.90070852e-06 -4.33658715e-06
      -3.29911973e-06 -1.78275138e-06 -1.54623046e-06 -1.89340756e-06
      -4.71523572e-06 -5.34087121e-06 -5.13414670e-06 -5.59747241e-06
      -6.49750791e-06 -6.69521251e-06 -6.69990050e-06 -5.85354428e-06
      -4.64476625e-06 -2.88794149e-06 -2.38518714e-06 -2.88023148e-06
      -2.01581634e-06 4.94229823e-07 1.16238664e-06 1.77385220e-06
      1.30814556e-06 1.08971153e-06 7.63576963e-07 -4.43779953e-07
      -2.31212471e-06 -2.91041761e-06 -2.73482578e-06 -1.37012830e-06
      6.48658613e-07 7.04784668e-07 -3.20552147e-07 -8.64751939e-07
      -1.04282172e-07 4.13418206e-07 -1.09990447e-06 -2.57972806e-06
      -2.91686297e-06 -2.24327687e-06 1.63960522e-07 2.27757710e-06
      2.30927435e-06 1.01339594e-06 -1.11401755e-06 -3.25111409e-06
      -5.89624597e-06 -7.37117944e-06 -7.45403167e-06 -5.90491618e-06
      -4.09876748e-06 -2.17190791e-06 -1.57026761e-06 -1.68829501e-06
      -4.58933209e-06 -5.48800062e-06 -5.72944236e-06 -5.28432020e-06
      -5.59007276e-06 -5.44869954e-06 -4.01882153e-06 -2.42029637e-06
      -1.61829280e-06 -9.86874511e-07 -2.41200269e-07 -4.06921941e-07
      -7.42583495e-07 5.48972764e-07 1.71480121e-06 2.77027675e-06
      2.77097479e-06 1.94605764e-06 1.46153866e-06 3.49860443e-07
      -2.10900521e-06 -5.51757785e-06 -6.39911605e-06 -5.31192791e-06
      -3.63922413e-06 -2.72743955e-06 -3.02897274e-06 -4.00228146e-06
      -2.58471869e-06 -5.87094007e-07 5.10131713e-07 5.92983760e-08
      7.11029458e-08 -9.53855590e-08 -4.76322327e-07 4.27720749e-07
      1.77471111e-06 1.82725614e-06 8.33858223e-07 -7.05159607e-07
      -3.05355002e-06 -5.08655330e-06 -6.56599877e-06 -7.80141363e-06
      -8.04144020e-06 -6.94495111e-06 -5.50439427e-06 -4.72601596e-06
      -3.79298513e-06 -4.39527230e-06 -4.50011021e-06 -3.84377290e-06
      -4.29105148e-06 -4.89601643e-06 -2.99883413e-06 -5.60481112e-07
      4.88696742e-07 3.28687378e-07 8.36177151e-07 7.51774337e-07
      7.77184709e-07 1.45425145e-06 2.39323094e-06 3.83491306e-06
      4.69359929e-06 3.71791680e-06 2.77030608e-06 8.34547336e-07
      -9.81665266e-07 -3.94607059e-06 -7.14254293e-06 -8.54857899e-06
      -7.95745746e-06 -5.69201575e-06 -4.55425015e-06 -6.17741534e-06
      -4.95066797e-06 -2.50645030e-06 1.33898163e-06 3.21235552e-06
      3.13643886e-06 2.84781663e-06 1.71550937e-06 1.02888478e-07
      2.76724847e-07 1.07083576e-06 8.98331734e-07 2.96319030e-07
      -6.61830768e-07 -1.62067067e-06 -2.80950621e-06 -5.13035639e-06
      -8.37400057e-06 -9.98683026e-06 -9.70157271e-06 -8.44614988e-06
      -4.33578771e-06 -4.44551506e-06 -3.29853970e-06 -1.91084882e-06
      -1.89808225e-06 -2.15302475e-06 -1.66882887e-06 -8.59994032e-07
      2.44402088e-07 -4.82477674e-07 -2.13864979e-07 4.67562074e-07
      5.63566005e-07 1.25314557e-06 1.03292416e-06 3.26928830e-06
      5.35515983e-06 5.98252564e-06 4.69308270e-06 2.62200069e-06
      1.04034325e-06 -4.64262712e-07 -3.75916852e-06 -6.86026942e-06
      -8.22904076e-06 -5.66948665e-06 -4.11154770e-06 -4.61946684e-06
      -4.22178255e-06 -2.67084010e-06 7.63700655e-07 4.42634746e-06
      5.73303987e-06 5.63500771e-06 4.47732009e-06 2.24382075e-06
      9.90353826e-08 3.32629241e-07 1.94703989e-06 2.75492221e-06
      2.39432165e-06 2.30719070e-06 1.75784044e-06 5.19326193e-07
      -2.85462693e-06 -6.50644370e-06 -8.58830208e-06 -8.96469646e-06
      -4.49426307e-06 -4.16779449e-06 -2.83824193e-06 -9.80470077e-07
      -8.02206841e-07 -2.01059223e-08 -2.91004312e-07 -8.02696263e-07
      -2.01054240e-06 -2.95796872e-06 -4.03189006e-06 -2.95930613e-06
      -2.27131636e-06 -1.24984695e-06 -4.00115965e-07 4.30546692e-07
      3.71627198e-06 6.26663450e-06 5.92904462e-06 3.66098698e-06
      1.79260473e-06 2.23253710e-06 1.91826643e-06 -1.74055413e-06
      -5.14898420e-06 -5.88655257e-06 -5.26097074e-06 -4.17320052e-06
      -2.73936871e-06 -1.55961800e-06 1.44866840e-06 5.19151035e-06
      7.04432023e-06 7.18413639e-06 6.18519971e-06 3.63426557e-06
      1.67108897e-06 -5.17068486e-08 8.32810258e-07 2.74736703e-06
      3.61092134e-06 3.63229492e-06 3.31557749e-06 3.06824313e-06
      1.82783288e-06 -1.11639380e-07 -2.54116185e-06 -4.51038841e-06
      -4.46960030e-06 -4.03979402e-06 -2.15765021e-06 -5.28082325e-08
      8.55078952e-07 2.84641828e-06 1.91612003e-06 4.61161733e-07
      -2.95026666e-06 -3.94713879e-06 -6.94038863e-06 -7.20353682e-06
      -5.67379857e-06 -4.87316993e-06 -3.74153592e-06 -2.09351560e-06
      1.31815887e-06 5.79290327e-06 6.86998283e-06 4.85715100e-06
      1.65218364e-06 1.11454210e-06 3.53213068e-06 5.72168983e-06
      1.89979528e-06 -2.53305097e-06 -6.25704797e-06 -6.85280338e-06
      -5.65093842e-06 -3.16620481e-06 -4.00394669e-07 4.57946999e-06
      6.48121249e-06 7.14003363e-06 7.01605768e-06 5.54018152e-06
      3.10751125e-06 1.12494718e-06 -4.15247968e-07 -2.78189617e-07
      1.55010696e-06 2.36955884e-06 2.09861219e-06 1.89008551e-06
      1.69529073e-06 1.83225200e-06 1.84019109e-06 6.87557815e-07
      -2.21549931e-06 -2.23111851e-06 -1.82029908e-06 -1.43266982e-06
      6.79283801e-07 4.09342692e-06 5.73486068e-06 5.55729184e-06
      1.41453700e-06 -1.46540947e-06 -5.15185639e-06 -6.93462243e-06
      -7.61471301e-06 -5.38843824e-06 -4.16107332e-06 -3.25741644e-06
      -1.17284571e-06 2.66531674e-06 6.60489513e-06 5.20743060e-06
      2.25528174e-06 -1.13811416e-06 -6.65036566e-07 3.66059430e-06
      7.67957317e-06 6.62128014e-06 2.19833191e-06 -3.44510045e-06
      -6.61918239e-06 -6.25771600e-06 -3.66995778e-06 7.88830107e-07
      4.20708102e-06 4.51863161e-06 4.71654175e-06 5.12976158e-06
      4.30562159e-06 2.17731690e-06 -5.44958425e-07 -2.45805631e-06
      -1.75804735e-06 -6.52679944e-07 -5.64537537e-08 -1.25078395e-06
      -1.60349771e-06 -7.18010654e-07 4.12932934e-07 1.16934132e-06
      -2.10566157e-07 1.23730740e-06 1.67280598e-06 9.96587275e-08
      -1.58751632e-07 3.08557037e-06 6.64323170e-06 8.45046452e-06
      6.82850805e-06 2.46964123e-06 -1.17838169e-06 -3.95198185e-06
      -5.44723207e-06 -4.53440953e-06 -2.21110122e-06 -2.21065147e-06
      -1.86541888e-06 -1.12802434e-06 1.03066543e-06 1.99660030e-06
      9.98793894e-07 -1.05966672e-06 -3.44974274e-06 -2.58483419e-06
      3.17768649e-06 8.45114118e-06 7.94297739e-06 5.12268070e-06
      -1.79342896e-06 -5.26085569e-06 -5.32878721e-06 -1.54951590e-06
      2.70534497e-06 3.74749698e-06 2.97832389e-06 3.22026699e-06
      2.97237284e-06 3.23883705e-06 1.51596601e-06 -1.26649965e-07
      -1.20434709e-06 -1.84667942e-06 -1.59627416e-06 -1.89975708e-06
      -2.54766496e-06 -2.08389383e-06 -8.22329412e-07 2.67802022e-07
      4.59816860e-08 1.84772887e-06 3.23904396e-06 1.90565709e-06
      1.43911780e-06 2.76981109e-06 6.25326220e-06 9.29858106e-06
      1.06835441e-05 7.22161167e-06 2.78179891e-06 -1.17197715e-06
      -3.33917546e-06 -2.71881731e-06 -7.07795493e-07 -6.47137369e-07
      -9.12682708e-07 -2.18170385e-06 -3.75858872e-06 -5.28525197e-06
      -4.29073270e-06 -3.95092820e-06 -4.54455721e-06 -4.34276399e-06
      -1.02940032e-06 6.05051810e-06 9.30423812e-06 9.75403509e-06
      5.04178388e-06 5.25403664e-07 -2.71079307e-06 -2.34076560e-06
      1.78855782e-06 5.01950308e-06 3.82141616e-06 3.69675513e-06
      2.46844229e-06 2.18660648e-06 1.87749288e-06 5.90434752e-07
      9.36739411e-07 -4.03234885e-08 -4.45032924e-07 -1.22158212e-06
      -8.65577306e-07 -6.39472773e-07 -7.23250423e-07 -2.98467796e-07
      -1.59805984e-06 9.16664789e-08 2.90482126e-06 3.57442605e-06
      3.15283569e-06 2.85041097e-06 5.40258725e-06 8.23984647e-06
      1.08877566e-05 1.08947970e-05 6.38837628e-06 1.53014980e-06
      -2.83550844e-06 -4.45247269e-06 -1.41426722e-06 2.11337454e-08
      3.66075341e-07 -2.25433439e-07 -3.26410304e-06 -6.61028116e-06
      -8.19201523e-06 -7.53280301e-06 -6.07014817e-06 -6.09819153e-06
      -2.70114265e-06 4.31307899e-06 9.15992132e-06 1.07844226e-05
      8.93836932e-06 5.92408560e-06 1.62879087e-06 1.49608908e-07
      1.39999702e-06 4.58103477e-06 5.43823035e-06 5.03561523e-06
      5.23407243e-06 3.38604082e-06 1.43550858e-06 -2.71211547e-07
      2.18636789e-08 -2.56366576e-07 1.27055159e-06 3.72835785e-07
      1.20920799e-06 2.02521323e-06 2.18091373e-06 1.63555114e-06
      -1.42856413e-06 -1.92497646e-06 -2.45679615e-07 2.95093491e-06
      4.93213156e-06 2.86961745e-06 4.49359914e-06 5.68331552e-06
      8.02690374e-06 9.80060031e-06 7.73694592e-06 3.25423366e-06
      -3.79103972e-06 -8.12215967e-06 -7.74319778e-06 -4.53981056e-06
      -1.77669517e-06 -5.04635068e-07 -7.30619320e-07 -3.32970717e-06
      -5.71274040e-06 -7.14709313e-06 -7.72873318e-06 -8.07946253e-06
      -6.23783762e-06 -5.19996831e-07 6.67399627e-06 9.77707259e-06
      9.35819935e-06 7.16551813e-06 3.67688403e-06 -4.29843396e-07
      -1.88743499e-07 3.90419609e-06 5.34610717e-06 5.87337490e-06
      5.86560964e-06 5.27983775e-06 2.69099814e-06 -4.92497520e-07
      -1.20400227e-06 -1.51297650e-06 -1.39833674e-07 1.47126843e-06
      2.64107530e-06 3.92109723e-06 4.85051987e-06 4.96399298e-06
      6.39758255e-08 -1.09671225e-06 -1.98098246e-06 -1.22456743e-06
      1.81595317e-06 2.93334597e-06 2.14613715e-06 3.20240679e-06
      4.42548162e-06 5.61852039e-06 3.91334243e-06 -3.45502031e-07
      -7.62329546e-06 -1.37990419e-05 -1.61188364e-05 -1.30973222e-05
      -7.35936374e-06 -3.94157269e-06 -1.93666233e-06 -2.17649063e-06
      -3.01332966e-06 -3.03905676e-06 -4.76631567e-06 -6.78328024e-06
      -9.05853540e-06 -7.46928208e-06 -2.63430252e-06 3.24182588e-06
      6.08153550e-06 5.47367154e-06 3.38092832e-06 -1.46464151e-06
      -5.42825228e-06 -4.40815484e-06 -8.08006746e-07 3.23375184e-06
      5.25333826e-06 5.68641963e-06 4.02345131e-06 6.34862090e-07
      -2.02556521e-06 -1.69703560e-06 -9.83371365e-07 7.92696426e-07
      1.96302153e-06 3.27109751e-06 4.79508662e-06 5.84783311e-06
      2.66508755e-06 2.00233899e-06 1.35176822e-06 -4.13991074e-07
      -1.59953413e-06 -5.89378487e-07 -1.66968050e-07 7.61588922e-07
      2.00787008e-06 3.87237242e-06 3.14972635e-06 -6.67081224e-07
      -7.60370585e-06 -1.75050500e-05 -2.29231900e-05 -2.21323608e-05
      -1.62727229e-05 -1.07070136e-05 -6.56152406e-06 -3.99950341e-06
      -3.69859663e-06 -3.35093955e-06 -2.48297238e-06 -2.51222787e-06
      -4.78348738e-06 -9.58595501e-06 -9.90112221e-06 -6.02302771e-06
      -2.42253918e-06 2.22845983e-06 4.38021880e-06 6.47708657e-06
      1.38621306e-06 -5.70388238e-06 -7.87327099e-06 -6.65635116e-06
      -1.94441964e-06 4.12491318e-06 6.13915063e-06 3.79629387e-06
      6.37616552e-07 -2.83856167e-07 -7.08198343e-07 2.00207495e-07
      -5.53592713e-07 8.08578648e-07 2.58131195e-06 4.75261231e-06
      3.17729769e-06 2.83434088e-06 2.91934703e-06 2.90025014e-06
      1.46189052e-06 -1.16373462e-06 -2.23702841e-06 -5.83044596e-07
      1.46864443e-06 4.09236873e-06 6.37892936e-06 6.47624029e-06
      7.71685109e-07 -1.02591912e-05 -2.05832148e-05 -2.43696086e-05
      -2.37579825e-05 -1.76099511e-05 -1.16385982e-05 -6.76753189e-06
      -4.83368240e-06 -3.96482756e-06 -3.07009509e-06 -1.43018428e-06
      -9.52755386e-07 -4.44346233e-06 -6.89097760e-06 -6.31796547e-06
      -4.43850467e-06 -6.72513863e-07 3.71999545e-06 1.00236175e-05
      1.37081424e-05 5.07159984e-06 -6.19971797e-06 -1.04035262e-05
      -9.90994795e-06 -4.72542206e-06 3.50304276e-06 6.89752869e-06
      6.53948609e-06 4.98256622e-06 1.82033114e-06 1.41392334e-07
      -1.50827884e-06 -1.14718421e-06 -9.89941782e-07 4.01395624e-07
      3.63921072e-06 2.79952837e-06 2.41664657e-06 2.58919795e-06
      3.31250772e-06 1.78805738e-06 -9.16736667e-07 -1.46720902e-06
      4.83550707e-07 2.72215561e-06 6.54513588e-06 9.71393547e-06
      8.86937778e-06 1.26745613e-06 -8.72442706e-06 -1.46349148e-05
      -1.90923438e-05 -2.05253182e-05 -1.54181271e-05 -1.02306285e-05
      -7.57902944e-06 -5.34755100e-06 -2.89969262e-06 -1.83763905e-06
      5.01031536e-07 -5.14636952e-07 -2.58850014e-06 -3.98293014e-06
      -2.53476105e-06 -1.29773059e-06 1.47643493e-06 7.60852254e-06
      1.74824472e-05 1.86906545e-05 7.48572711e-06 -4.03609147e-06
      -9.21953415e-06 -8.93453216e-06 -4.43991712e-06 2.79092410e-06
      7.70797033e-06 8.32076694e-06 5.52418578e-06 2.28398426e-06
      -2.02823486e-07 -7.62881200e-07 -1.40721295e-06 -1.39525093e-06
      2.11678775e-06 2.03803120e-06 9.71144800e-07 1.09397581e-06
      2.37674794e-06 2.37038557e-06 1.35580456e-06 -8.31300554e-07
      -1.25787528e-06 1.09827533e-06 3.25590645e-06 6.83048984e-06
      9.14154043e-06 8.85715963e-06 4.03840022e-06 -2.41433575e-08
      -3.34799915e-06 -9.06144214e-06 -1.06519228e-05 -8.11611426e-06
      -6.46091303e-06 -5.88277499e-06 -4.22002222e-06 -1.49407560e-06
      2.18554973e-07 3.18408766e-08 -1.08189965e-06 -3.04634932e-06
      -2.49271193e-06 7.33650950e-07 2.58939463e-06 4.43597582e-06
      1.19629849e-05 1.91505733e-05 1.86023299e-05 8.38944470e-06
      -1.46416210e-06 -6.71234056e-06 -6.20082074e-06 -1.42996225e-06
      3.97880649e-06 7.84914118e-06 7.80633491e-06 3.74410183e-06
      1.37675022e-06 -2.67390561e-07 -8.30945282e-07 -5.46094384e-07
      -3.20721415e-06 -2.31572722e-06 -1.70969304e-06 -1.30526814e-06
      2.21001514e-07 1.82771487e-06 2.02185061e-06 1.47065464e-06
      -8.69851817e-07 -1.00414331e-06 1.59220605e-07 2.03975333e-06
      3.81345762e-06 5.26746499e-06 7.06371929e-06 7.55287147e-06
      7.26819098e-06 7.03538717e-06 2.49169875e-06 -6.59628597e-07
      -1.13969395e-06 -3.50631876e-06 -3.42082831e-06 -2.19207777e-06
      -1.00785985e-06 -7.40373650e-07 -1.46027821e-06 -2.01636908e-06
      -3.38551354e-06 -1.02834736e-06 2.23592838e-06 4.25903590e-06
      6.05609694e-06 1.16488836e-05 1.48536710e-05 1.29125410e-05
      5.92658989e-06 -1.54101474e-06 -4.73757427e-06 -3.42771932e-06
      2.35892784e-07 5.13491841e-06 5.77303763e-06 4.65304402e-06
      2.07978405e-06 -3.14170251e-07 -2.12772738e-06 -2.15941805e-06
      -9.67068331e-07 -1.47956587e-06 -1.73684452e-06 -1.08622964e-06
      -3.50816151e-07 1.19141521e-06 2.66388952e-06 2.77581580e-06
      1.40906502e-06 -3.76803087e-07 -1.09112227e-06 -2.87785753e-07
      7.25376879e-07 8.91478464e-07 1.52395614e-06 5.13086934e-06
      8.45533032e-06 1.13269343e-05 1.16668107e-05 8.40521807e-06
      5.18071738e-06 2.03102331e-06 -2.19721392e-06 -1.61447588e-06
      -1.76491403e-06 -1.76645460e-06 -1.58772832e-06 2.48483957e-07
      -7.30682643e-08 -1.56129161e-07 1.21318305e-06 2.16158423e-06
      3.07572873e-06 4.34007052e-06 7.64227207e-06 8.56726729e-06
      6.00898147e-06 1.95217513e-06 -1.01429328e-06 -3.06376455e-06
      -3.26044983e-06 1.14611635e-06 2.84365569e-06 2.87800049e-06
      2.46785680e-06 1.21554547e-06 -6.28764042e-07 -2.20177753e-06
      9.71066470e-07 2.45455794e-06 2.98110444e-06 3.16695514e-06
      3.41827740e-06 4.11868905e-06 4.70693340e-06 4.91643095e-06
      4.51860797e-06 2.30222690e-06 5.05515743e-07 6.40611802e-07
      1.37759082e-06 3.71487386e-06 2.80239260e-06 1.79479889e-06
      4.43188537e-06 6.93705942e-06 9.32919465e-06 8.59084867e-06
      7.25381551e-06 5.37306187e-06 1.14395527e-06 -2.02966771e-06
      -2.33272795e-06 -4.01845182e-06 -3.82710550e-06 -1.28983925e-06
      1.52578696e-06 2.56198791e-06 2.94247889e-06 3.08036147e-06
      3.87630143e-06 4.24855580e-06 4.73526279e-06 4.47556022e-06
      2.48793140e-06 -8.50181703e-09 -8.35209335e-07 -1.87677824e-06
      -4.20399192e-06 -3.73424245e-06 -2.94455231e-06 -2.07425637e-06
      -9.32486273e-07 3.25577751e-08 -3.16861446e-07 -1.73663022e-06
      -6.93043057e-06 -4.00407407e-06 -7.83691462e-07 1.98268549e-06
      3.32740251e-06 3.06201173e-06 4.54258907e-06 4.67706241e-06
      4.77096501e-06 4.11869678e-06 2.21910477e-06 9.01952035e-07
      1.16077331e-06 3.83896122e-06 6.61049944e-06 7.23995663e-06
      7.39524012e-06 6.13679867e-06 6.32269075e-06 4.64950153e-06
      4.07305333e-06 4.32883598e-06 3.59142155e-06 -1.22846714e-07
      -3.45135663e-06 -6.35089464e-06 -6.51857818e-06 -4.48391256e-06
      -1.47210483e-06 7.25585380e-07 6.60029741e-07 1.45517276e-06
      2.97999509e-06 4.08994993e-06 4.26046472e-06 2.71185786e-06
      2.39064150e-07 -1.39776137e-06 -2.38778512e-06 -2.03293894e-06
      -1.61627781e-06 -2.88842148e-06 -3.44613682e-06 -4.53849862e-06
      -5.18367142e-06 -4.95535232e-06 -3.50466848e-06 -1.91616687e-06
      -1.06166872e-05 -7.77434980e-06 -4.48446508e-06 -1.75760863e-06
      6.44986130e-07 5.34913738e-07 9.50074082e-07 1.62709637e-06
      1.40900579e-06 1.64896119e-06 2.37789754e-06 1.81110829e-06
      1.64335177e-06 3.19142805e-06 5.44181330e-06 7.80306800e-06
      9.65156050e-06 8.20821970e-06 6.03604940e-06 3.05194521e-06
      4.82044584e-07 1.65298547e-06 4.44929765e-06 5.82330767e-06
      1.76722131e-06 -2.63031825e-06 -6.19041293e-06 -6.05904188e-06
      -3.96266205e-06 -1.39263557e-06 -2.85927314e-07 -7.17104967e-07
      -2.50340520e-07 4.33358764e-07 1.75954983e-06 8.88242653e-07
      1.16979226e-08 -9.01228475e-07 -8.34181037e-07 1.56274291e-06
      2.92427762e-06 2.79468986e-06 2.36628807e-06 -1.55272613e-08
      -2.55889836e-06 -4.98257896e-06 -5.90763284e-06 -4.47177672e-06
      -8.96178062e-06 -7.64253491e-06 -4.21914638e-06 -2.22003132e-06
      -1.29800696e-06 -7.23878031e-07 -1.41259648e-06 -7.14997952e-07
      -5.56649752e-07 -1.32655202e-06 -3.15648691e-07 1.80448774e-06
      2.60328329e-06 3.59193928e-06 3.83878069e-06 4.84276143e-06
      5.63549065e-06 4.97598285e-06 4.01503257e-06 1.80030440e-06
      -6.29185820e-07 -1.39032568e-06 7.36323329e-07 4.72672218e-06
      6.78836614e-06 4.12806003e-06 -1.63700508e-06 -4.73269029e-06
      -5.66743529e-06 -4.80010567e-06 -2.72452644e-06 -2.68452618e-06
      -3.06955826e-06 -2.84734324e-06 -2.92525033e-06 -2.49795653e-06
      -1.51404993e-06 -1.57756813e-06 -1.18520290e-06 1.55343776e-06
      4.71684825e-06 6.43259409e-06 7.86438795e-06 7.30543252e-06
      4.38345796e-06 1.28835984e-06 -1.18322725e-06 -2.35969605e-06
      -2.84306088e-06 -3.93886648e-06 -2.61079572e-06 -1.13639338e-07
      1.18898390e-06 4.34321805e-07 -1.66346888e-06 -3.23493168e-06
      -2.55775853e-06 -1.85499368e-06 -1.86897762e-06 -6.92328115e-07
      1.25877546e-06 1.89777472e-06 1.44681144e-06 2.02691308e-06
      1.43911075e-06 -3.30695116e-07 -8.91596471e-07 -1.37017832e-06
      -1.31751392e-06 -3.05194317e-06 -2.57400097e-06 -1.73072669e-06
      2.87758917e-06 5.08511494e-06 2.80174572e-06 -1.50130700e-06
      -5.28882083e-06 -6.39332939e-06 -6.32325236e-06 -4.92902609e-06
      -4.81980032e-06 -4.86898671e-06 -3.60558874e-06 -2.76356218e-06
      -2.29493048e-06 -1.14438899e-06 -2.00857812e-06 -2.17108959e-06
      7.86309471e-08 3.25996257e-06 6.54360974e-06 7.99181726e-06
      7.21282549e-06 5.21104448e-06 2.94340157e-06 1.15130933e-06
      2.72286070e-06 1.97421446e-06 1.39952976e-06 2.88008118e-06
      4.40112444e-06 5.06793776e-06 2.63167180e-06 -1.06242169e-06
      -1.83181533e-06 -1.28336194e-06 -1.68348890e-06 -1.47649041e-06
      -2.52041588e-07 1.17000627e-06 -2.14580041e-07 -1.14592956e-06
      -1.70773967e-06 -2.76327910e-06 -2.64096707e-06 -2.85698957e-06
      -1.62190770e-06 -5.66561027e-07 5.83751671e-07 -9.84081453e-07
      -2.88865681e-06 -1.29809337e-07 2.01837952e-06 9.03842704e-07
      -2.81649659e-06 -4.77489220e-06 -5.56274927e-06 -5.38394988e-06
      -4.46929062e-06 -4.97300380e-06 -4.36972960e-06 -1.83965665e-06
      -3.78026755e-07 3.48416371e-08 -4.60392528e-07 -2.32765274e-06
      -3.81260725e-06 -2.87921898e-06 9.74263116e-07 3.34968649e-06
      3.47885907e-06 3.26225245e-06 1.94191898e-06 6.78263490e-08
      4.41620023e-06 4.68085273e-06 4.50785365e-06 4.54901055e-06
      5.66469407e-06 6.72903479e-06 5.80213782e-06 3.49889956e-06
      3.49850239e-07 -2.46653826e-07 -2.08694814e-06 -2.37552149e-06
      -1.71777697e-06 -8.84049086e-07 -1.69449663e-07 -9.11020493e-07
      -2.37045924e-06 -3.47307264e-06 -2.96392886e-06 -2.72071065e-06
      -6.97307598e-07 1.13721285e-06 3.16451133e-06 3.31929732e-06
      -2.03594141e-06 -6.04947581e-06 -5.31513524e-06 -2.75109960e-06
      -2.28878730e-06 -2.95886002e-06 -2.95176574e-06 -2.77808181e-06
      -2.12839018e-06 -2.59048920e-06 -3.71672877e-06 -1.96525525e-06
      8.43625571e-07 2.04064304e-06 1.23610585e-06 -6.94167625e-07
      -3.14606859e-06 -5.23596464e-06 -4.48577475e-06 -1.21438541e-06
      1.22068957e-06 9.67903816e-07 -2.66685419e-07 -2.21717323e-06
      4.99560929e-06 5.23568951e-06 4.96808298e-06 4.86647195e-06
      4.79600249e-06 5.73150828e-06 5.89523506e-06 4.77137155e-06
      1.49345067e-06 1.21765325e-07 -1.80391487e-06 -3.94000926e-06
      -5.67719962e-06 -5.12660426e-06 -4.06086792e-06 -2.75541970e-06
      -2.39502242e-06 -2.99988960e-06 -3.02440412e-06 -3.83520410e-06
      -1.40956456e-06 1.96093356e-06 4.33096739e-06 4.13597809e-06
      4.30694541e-07 -6.87902411e-06 -1.13425003e-05 -1.25336255e-05
      -1.21098874e-05 -1.04561404e-05 -8.08673212e-06 -5.93998038e-06
      -3.53576252e-06 -4.29610145e-06 -4.90502089e-06 -4.46655713e-06
      -8.49026378e-07 2.75482557e-06 3.45521016e-06 1.77509662e-06
      -6.47461206e-07 -3.38613108e-06 -4.86425006e-06 -4.37844028e-06
      -2.39721089e-06 -6.44241936e-07 4.31685777e-07 -4.69977095e-07
      4.45059243e-07 3.36649668e-06 4.90658749e-06 5.92631750e-06
      5.23072094e-06 4.68653343e-06 3.86242391e-06 3.42067460e-06
      1.79115955e-06 -2.60730133e-07 -1.61041623e-06 -4.20832475e-06
      -8.33961985e-06 -1.12604603e-05 -1.05480076e-05 -8.09520407e-06
      -5.17864419e-06 -4.33160585e-06 -4.20686547e-06 -5.02286275e-06
      -4.14857686e-06 1.12230566e-06 5.38482800e-06 4.42120609e-06
      8.53318554e-08 -6.61360218e-06 -1.18883827e-05 -1.48668751e-05
      -1.56746173e-05 -1.63540790e-05 -1.53408801e-05 -1.44221549e-05
      -1.26345258e-05 -9.30005353e-06 -7.61009960e-06 -7.86738656e-06
      -5.32313697e-06 -8.55447411e-07 1.29026978e-06 9.90238959e-07
      -7.99443853e-08 -1.13942735e-06 -2.45633396e-06 -2.85125043e-06
      -1.99419878e-06 9.56267101e-08 6.70594375e-07 3.80560692e-07
      -6.26654219e-06 -4.29735110e-06 -1.45581282e-06 2.26418183e-06
      4.38135066e-06 4.60614274e-06 4.06840900e-06 2.25183430e-06
      -6.25927612e-07 -1.86480111e-06 -2.76609467e-06 -4.75713796e-06
      -8.18094759e-06 -1.12403241e-05 -1.46786160e-05 -1.30530398e-05
      -1.01409632e-05 -5.66606104e-06 -4.43831004e-06 -4.14291890e-06
      -5.35799518e-06 -7.82418965e-07 4.93753214e-06 6.34301796e-06
      2.79006440e-06 -2.19509320e-06 -8.53371512e-06 -1.37115912e-05
      -1.40434431e-05 -1.26030754e-05 -1.19209317e-05 -1.30177732e-05
      -1.45293561e-05 -1.29284699e-05 -9.91661273e-06 -7.62991021e-06
      -7.15150009e-06 -4.08728920e-06 -1.19322408e-06 -1.68125791e-06
      -2.67157998e-06 -3.41890245e-06 -2.66013444e-06 -1.25801353e-06
      -2.59945352e-07 1.14830300e-06 3.43439569e-06 4.01128227e-06
      -7.38488916e-06 -6.27622603e-06 -4.31912667e-06 -1.61062781e-06
      3.40279854e-07 2.73968817e-06 4.38417146e-06 3.81096993e-06
      1.89233822e-06 -9.61829187e-07 -2.60679758e-06 -4.57380520e-06
      -7.30137890e-06 -8.20137302e-06 -1.08402828e-05 -1.25697934e-05
      -1.24804656e-05 -7.32925446e-06 -3.93404525e-06 -1.84520945e-06
      -4.92666504e-06 -3.68166047e-06 9.93416393e-07 5.51744461e-06
      6.58831732e-06 3.29751788e-06 5.20338865e-08 -5.34029414e-06
      -8.61266835e-06 -7.68564132e-06 -2.40056170e-06 -2.95329778e-06
      -6.67508539e-06 -8.03587227e-06 -6.71219050e-06 -5.92942706e-06
      -5.30743682e-06 -4.21263348e-06 -1.26774376e-06 -3.67136607e-07
      -1.86552006e-06 -4.48518176e-06 -4.68293683e-06 -2.85960846e-06
      -1.09375333e-06 3.58809054e-08 1.65920369e-06 3.37662482e-06
      -7.58319538e-06 -6.83552162e-06 -4.71331896e-06 -2.41275166e-06
      -1.19667391e-06 -1.99480553e-07 2.31335184e-06 3.82474309e-06
      3.55868610e-06 1.44404521e-06 -7.27794536e-09 -2.07580138e-06
      -4.50758944e-06 -5.75189642e-06 -7.92389983e-06 -8.63067817e-06
      -1.05974295e-05 -7.19962509e-06 -2.48204901e-06 1.85773797e-06
      -4.47136557e-07 -2.32929551e-06 -4.19284106e-06 -1.16855847e-06
      3.35266850e-06 4.38453026e-06 4.67669042e-06 1.19197341e-06
      1.65439076e-07 -4.80969732e-07 1.10288318e-06 3.52484835e-06
      8.09688913e-07 1.78043933e-07 2.12147981e-07 -4.00065517e-07
      -6.58728936e-07 -1.21733194e-06 -1.37705925e-07 2.42723399e-06
      2.39322958e-06 -6.16278214e-07 -3.98773091e-06 -4.78246375e-06
      -3.60383979e-06 -2.13337330e-06 -1.00896409e-06 2.07347450e-09
      -7.44119097e-06 -7.08078505e-06 -5.41666941e-06 -2.89976811e-06
      -9.53852805e-07 -3.38377248e-07 1.07562687e-06 2.57473653e-06
      3.10976407e-06 2.55985401e-06 1.62647177e-06 -2.09219380e-07
      -7.08542757e-07 -2.35996686e-06 -5.27111160e-06 -6.72945498e-06
      -9.46265845e-06 -8.49704065e-06 -3.47623586e-06 4.48618493e-06
      7.87994213e-06 5.81599306e-06 1.09603093e-06 -1.61951664e-06
      -2.00004223e-07 1.74099318e-06 3.74304250e-06 3.78849313e-06
      2.61464834e-06 8.57116675e-07 1.43725208e-06 3.27566499e-06
      2.57303645e-06 2.97903421e-06 4.42388546e-06 5.81784889e-06
      5.61370371e-06 5.10186328e-06 3.85622616e-06 4.95317727e-06
      5.87465320e-06 3.43222018e-06 -3.82149352e-07 -3.78009895e-06
      -4.98906638e-06 -4.96656048e-06 -3.94948711e-06 -2.95675318e-06
      -7.11996290e-06 -7.27133647e-06 -6.94341270e-06 -3.91540607e-06
      -1.22432266e-06 4.77241485e-07 2.27773398e-06 3.04072955e-06
      3.38897075e-06 2.99869498e-06 2.85196256e-06 2.30881960e-06
      9.93435833e-07 3.30370312e-07 -2.24863106e-06 -3.94938979e-06
      -8.52579342e-06 -8.51646746e-06 -6.73365594e-06 2.15862929e-06
      8.44588521e-06 1.06315802e-05 6.54406813e-06 1.68283941e-06
      -1.45710862e-06 -1.70214196e-06 -9.89640057e-07 -1.57386887e-06
      6.85730228e-08 1.28205301e-07 -1.60058619e-06 8.63345178e-07
      1.42730516e-06 2.35591028e-06 3.38476866e-06 6.50734000e-06
      7.87943100e-06 8.21022695e-06 8.06380467e-06 7.85426801e-06
      7.74965793e-06 5.99096120e-06 2.82831934e-06 -3.55718782e-07
      -2.61081777e-06 -3.93582513e-06 -4.26850238e-06 -4.07887501e-06
      -4.08812275e-06 -5.15623333e-06 -6.40608414e-06 -5.45461671e-06
      -2.59977082e-06 6.64305389e-07 2.10304165e-06 2.69739030e-06
      2.93013068e-06 3.53115911e-06 3.37706365e-06 4.51508913e-06
      4.83709255e-06 3.72511977e-06 1.21063908e-06 5.44284262e-07
      -5.15155807e-06 -5.60943272e-06 -7.29515614e-06 -2.60511683e-06
      3.58924785e-06 7.87043791e-06 6.67217319e-06 1.99621832e-06
      -3.41841337e-06 -6.60376281e-06 -6.16496891e-06 -8.03079911e-06
      -7.43199962e-06 -5.67781535e-06 -4.48827495e-06 -1.79936058e-06
      -1.28396130e-06 9.74528234e-07 2.72951775e-06 4.97048086e-06
      7.30261991e-06 7.97953089e-06 8.04923820e-06 8.25167353e-06
      8.09348694e-06 7.13676081e-06 4.95434278e-06 2.55911186e-06
      4.71604523e-07 -1.13325132e-06 -2.21961773e-06 -2.91927199e-06
      -1.30334467e-06 -2.29496504e-06 -3.68003998e-06 -4.67927657e-06
      -3.64808739e-06 -1.60232116e-06 -2.02159626e-07 -3.49284164e-07
      3.00977945e-07 1.44501075e-06 3.56699206e-06 6.20900073e-06
      7.41534313e-06 7.21220613e-06 5.33287539e-06 4.92065101e-06
      -1.49589914e-06 -4.80123936e-06 -9.87278327e-06 -1.04071651e-05
      -5.77767787e-06 -8.76161380e-07 1.62157278e-06 9.86324608e-07
      -3.29769409e-06 -7.95465439e-06 -8.75495243e-06 -8.90030242e-06
      -9.80251025e-06 -1.00298175e-05 -9.55112682e-06 -5.49608376e-06
      -1.04778792e-06 -4.28117431e-07 1.26448936e-06 1.88899969e-06
      3.14218391e-06 4.61796981e-06 5.59690307e-06 6.02249702e-06
      5.97673306e-06 5.59780210e-06 4.42943383e-06 3.38741643e-06
      2.82999599e-06 2.12456075e-06 9.36044501e-07 8.44779677e-08
      -2.71965860e-07 -8.85701468e-07 -1.46553634e-06 -2.32777484e-06
      -2.14945453e-06 -2.05940000e-06 -1.99211308e-06 -2.41748853e-06
      -2.86963450e-06 -1.29424711e-06 2.23667712e-06 5.31709384e-06
      7.47612739e-06 9.21581341e-06 7.84951135e-06 8.00683301e-06
      1.70362455e-06 -4.00524550e-06 -1.01213118e-05 -1.40586317e-05
      -1.37106663e-05 -9.82837446e-06 -7.27887118e-06 -3.57054137e-06
      -2.09792211e-06 -4.72037436e-06 -8.25750794e-06 -8.30642330e-06
      -7.08873586e-06 -7.05081493e-06 -8.32542719e-06 -8.73765748e-06
      -4.95359245e-06 -8.06512389e-07 1.60581419e-06 1.37550933e-06
      9.12427112e-08 1.20620723e-06 3.04761261e-06 3.54143549e-06
      3.57115459e-06 3.10656606e-06 2.52359700e-06 2.43346881e-06
      2.73379374e-06 3.13564919e-06 2.85377132e-06 2.31855711e-06
      4.04209800e-07 -4.60556549e-07 -1.15199748e-06 -1.75436662e-06
      -1.25019494e-06 -7.33907882e-07 -1.61785249e-06 -2.83638474e-06
      -3.40229280e-06 -2.93545145e-06 -5.61633215e-07 2.99843873e-06
      5.60280114e-06 7.32073022e-06 7.95674987e-06 8.23202390e-06
      4.54104111e-06 -1.44422654e-06 -7.78569574e-06 -1.25738143e-05
      -1.48805284e-05 -1.37754259e-05 -1.17624049e-05 -8.40425946e-06
      -4.10101165e-06 -1.71596389e-06 -4.74318313e-06 -6.90216029e-06
      -4.91247101e-06 -1.78929349e-06 -2.17472780e-06 -3.66979202e-06
      -4.68183134e-06 -2.55640884e-06 1.38938356e-06 1.26384782e-06
      1.89002344e-06 2.42040596e-06 3.11325698e-06 2.32733737e-06
      2.01978128e-06 1.40017812e-06 3.46081350e-07 5.65638629e-07
      1.52507062e-06 2.66926213e-06 3.25093765e-06 3.46333195e-06
      3.84846032e-07 -4.45870540e-07 -1.37634697e-06 -2.91819561e-06
      -2.90858497e-06 -2.03825107e-06 -1.65708173e-06 -2.30257660e-06
      -1.82672284e-06 -1.45135334e-06 -7.06439607e-07 6.06056517e-07
      2.55904251e-06 3.01573527e-06 3.72173326e-06 4.17944057e-06
      4.53183247e-06 1.89298805e-06 -3.25205360e-06 -8.16806914e-06
      -1.08278491e-05 -1.12526250e-05 -9.97705865e-06 -6.97441374e-06
      -4.21982031e-06 -1.50159474e-06 -2.45675460e-06 -4.03268814e-06
      -4.01408033e-06 2.00092063e-06 4.34457570e-06 5.32204604e-06
      1.97595659e-06 2.71544405e-08 6.69057414e-08 9.98315159e-07
      3.02888020e-06 3.88974877e-06 3.71001306e-06 2.82226597e-06
      1.53376413e-06 -1.28912037e-08 -1.47097785e-06 -1.51526081e-06
      -2.43621628e-07 1.50036385e-06 2.74457921e-06 3.43586703e-06
      -9.01644796e-07 -1.01328635e-06 -1.49820653e-06 -3.04774676e-06
      -4.05511582e-06 -3.85974045e-06 -3.82978624e-06 -3.23078780e-06
      -1.68058727e-06 5.14485180e-07 1.25081272e-06 1.49803645e-06
      1.68647421e-06 1.51278584e-06 2.89828648e-07 -1.01728824e-06
      3.88205706e-07 3.94116114e-07 -1.48454575e-07 -3.25241581e-06
      -5.58194733e-06 -6.80969697e-06 -5.71786495e-06 -3.62920628e-06
      -1.66977702e-06 -4.69745771e-07 -1.57351656e-06 -3.70760699e-06
      -3.77062020e-06 2.23776806e-06 6.09042991e-06 1.02406593e-05
      8.73976205e-06 5.44346949e-06 1.26806481e-06 6.06512288e-07
      3.42509202e-06 5.66652170e-06 5.60033186e-06 4.33238256e-06
      3.17057925e-06 1.55538817e-06 -2.61697323e-07 -1.34484355e-06
      -7.79961340e-07 4.76806605e-07 1.96992937e-06 2.93838980e-06
      -2.25349072e-06 -2.33937590e-06 -2.07168637e-06 -2.08370943e-06
      -3.19787387e-06 -4.70775012e-06 -5.86995293e-06 -5.29623185e-06
      -3.27002476e-06 1.01675789e-06 3.50266146e-06 4.73190221e-06
      4.66946722e-06 1.96244082e-06 -5.97023373e-08 -3.42815929e-06
      -3.84272425e-06 -3.07701794e-06 -1.03219008e-06 -8.97923030e-07
      -1.11341274e-06 -2.86105342e-06 -3.09014217e-06 -5.13040391e-07
      2.05714423e-06 2.00322074e-06 -3.74182093e-07 -3.07744904e-06
      -5.05352000e-06 -1.04658432e-06 3.53791279e-06 7.80959454e-06
      8.60712862e-06 7.47632248e-06 2.01458624e-06 -4.87637919e-07
      8.41818633e-07 3.95543202e-06 5.45801913e-06 5.76199045e-06
      5.25263840e-06 3.25769656e-06 1.31226352e-06 -9.31797786e-08
      -1.22690494e-06 -9.06555499e-07 4.72665221e-07 1.64331459e-06
      -1.04916069e-06 -1.87289697e-06 -1.71712861e-06 -1.26001646e-06
      -1.50670689e-06 -3.27520183e-06 -6.07887205e-06 -7.24887650e-06
      -6.02010732e-06 -3.08715425e-06 1.53461258e-06 5.47450873e-06
      7.83217183e-06 6.34300704e-06 2.52342352e-06 -1.75017317e-06
      -5.09601341e-06 -6.09804601e-06 -3.80958363e-06 -1.96008205e-06
      3.55843952e-07 6.62309503e-07 -2.98412246e-08 1.48672007e-06
      5.59584896e-06 7.69170219e-06 4.28482372e-06 -1.26993893e-06
      -6.35378819e-06 -5.72242925e-06 -2.83428108e-06 1.30221292e-06
      3.35166760e-06 5.15992997e-06 2.62375238e-06 7.04516935e-07
      7.13425905e-08 1.29897808e-06 2.90907610e-06 4.85470537e-06
      5.29337376e-06 3.94378549e-06 1.98172211e-06 7.75847582e-07
      -8.44762496e-07 -1.71400211e-06 -1.57690022e-06 -8.66563141e-07
      2.03105969e-06 1.50745973e-06 6.14959561e-07 7.16588261e-07
      5.92862136e-07 -4.65988535e-07 -2.87019816e-06 -6.27215377e-06
      -7.10444101e-06 -5.46888941e-06 -3.24388725e-06 4.96639188e-07
      5.26438498e-06 7.33945035e-06 5.83348810e-06 2.12324494e-06
      -2.33908486e-06 -4.69618635e-06 -5.43745909e-06 -4.28217481e-06
      -1.63341110e-06 1.74936213e-06 1.29892112e-06 1.02336003e-06
      4.30139471e-06 8.69001360e-06 8.54437894e-06 3.78003710e-06
      -2.69268730e-06 -6.66036431e-06 -7.42399516e-06 -3.94219205e-06
      -1.71247757e-06 1.11191969e-06 1.35905361e-06 2.09556470e-06
      3.34113429e-06 2.54875386e-06 2.33560490e-06 2.84754060e-06
      3.39358098e-06 2.85106967e-06 1.31086131e-06 -8.25856930e-08
      -1.53630094e-06 -1.98485827e-06 -2.68580220e-06 -2.93331800e-06
      2.07349217e-06 2.93694666e-06 3.65782012e-06 2.97002816e-06
      3.12249927e-06 2.33677019e-06 6.79298182e-07 -1.43848388e-06
      -4.42092141e-06 -5.69600024e-06 -5.26696886e-06 -3.56220335e-06
      -5.87839253e-08 4.70731584e-06 5.65110577e-06 3.92306265e-06
      3.10621516e-07 -3.62775108e-06 -5.72859199e-06 -6.52536528e-06
      -4.82037467e-06 -1.68554573e-06 -2.15024283e-08 -9.92731543e-07
      -3.53529600e-07 2.92721256e-06 5.79069956e-06 5.13340046e-06
      1.45052056e-07 -4.19221215e-06 -6.86955855e-06 -5.37604319e-06
      -5.42244652e-06 -3.03656338e-06 -2.29466696e-06 -1.49037920e-08
      2.66293932e-06 4.62626713e-06 3.86329475e-06 3.50071969e-06
      2.35235439e-06 1.22894539e-06 -3.15322779e-07 -1.26970713e-06
      -3.13787586e-06 -3.90740797e-06 -3.98504926e-06 -3.80527308e-06
      1.44145531e-06 2.38965390e-06 3.84569694e-06 5.29698991e-06
      5.40312203e-06 4.41721522e-06 2.43763361e-06 1.29268881e-06
      1.01146964e-06 -1.13885301e-06 -3.28127976e-06 -3.41056375e-06
      -1.53028998e-06 1.86917600e-06 3.08793597e-06 2.40021541e-06
      3.23742711e-07 -2.73574665e-06 -5.32722970e-06 -5.99110763e-06
      -6.78264314e-06 -5.36573270e-06 -4.07742618e-06 -2.96740541e-06
      -3.76743287e-06 -2.36190635e-06 -8.02548925e-07 1.41705709e-06
      4.66567741e-07 -2.52822588e-06 -4.89279955e-06 -3.90602781e-06
      -3.94979543e-06 -5.60107901e-06 -5.91781281e-06 -4.93110520e-06
      -1.89577190e-06 2.60898628e-06 5.04164382e-06 4.52213408e-06
      2.80664563e-06 1.15021260e-06 -5.68865687e-07 -1.75883520e-06
      -4.11295923e-06 -5.40292558e-06 -5.76862931e-06 -5.11822009e-06
      9.55000246e-07 1.43008526e-06 2.53962776e-06 4.56068256e-06
      6.44693637e-06 5.94238554e-06 3.20891832e-06 5.95897120e-07
      7.09516996e-07 1.64321409e-06 1.62951187e-06 1.38363691e-06
      1.37362588e-06 2.29330180e-06 2.14762554e-06 5.95526046e-08
      -1.98695284e-06 -4.05102674e-06 -6.68681423e-06 -6.56221800e-06
      -4.48092942e-06 -4.95557788e-06 -6.01064812e-06 -6.01554575e-06
      -4.35051061e-06 -4.18025047e-06 -3.43537135e-06 -4.21319146e-06
      -4.59628654e-06 -4.11559768e-06 -4.02288833e-06 -1.27028386e-06
      4.44848382e-07 -1.16460262e-06 -3.97372787e-06 -6.66397455e-06
      -7.14048019e-06 -3.21508014e-06 1.49559025e-06 3.36823177e-06
      3.55374664e-06 2.07368748e-06 -3.45568285e-09 -1.29539342e-06
      -3.36310518e-06 -4.90073808e-06 -5.36269408e-06 -5.75298463e-06
      -3.27760677e-06 -1.57033264e-06 1.22116785e-06 4.49918798e-06
      6.56726797e-06 4.05011178e-06 -5.57326302e-07 -6.51421215e-06
      -8.21216327e-06 -6.82319660e-06 -4.05467699e-06 -1.88640252e-06
      1.66173993e-06 4.69465613e-06 4.87119405e-06 2.45029219e-06
      -1.47391904e-06 -2.49110531e-06 3.06283681e-07 1.62159915e-06
      7.82555048e-07 -1.50856727e-06 -1.05347704e-06 2.73137903e-06
      3.51554991e-06 3.38391760e-06 4.28393514e-06 5.47593800e-06
      4.79948039e-06 5.14806288e-06 7.26503367e-06 6.36650975e-06
      1.80843551e-06 2.22732501e-06 3.69969757e-06 6.73424040e-07
      -3.53545215e-06 -5.58618785e-06 -4.56851285e-06 -2.17416527e-06
      4.49309709e-07 3.37944311e-06 4.34600588e-06 2.81931239e-06
      1.01908461e-06 8.14338307e-07 1.07908747e-07 -3.75409314e-07
      -3.62705873e-06 -1.98805651e-06 6.71917860e-07 3.40218344e-06
      5.44302520e-06 3.97385975e-06 -5.39027347e-08 -4.04587809e-06
      -6.85851637e-06 -7.20172920e-06 -5.76080356e-06 -2.41449288e-06
      1.14243949e-06 4.27534360e-06 4.63075776e-06 1.98847169e-06
      -1.87682519e-06 -2.43205727e-06 5.75180820e-07 1.63051561e-06
      1.89303933e-07 -2.18281002e-06 -1.51489132e-06 2.57918191e-06
      3.95572170e-06 3.96535916e-06 3.81436485e-06 5.08082212e-06
      4.83499161e-06 3.68163433e-06 4.16569628e-06 5.08774792e-06
      2.76472815e-06 2.60935622e-06 5.03910951e-06 2.99375733e-06
      -2.51851520e-06 -5.00065244e-06 -4.14266060e-06 -2.22945164e-06
      3.50674512e-08 2.64063624e-06 3.78205118e-06 2.88244019e-06
      1.08174152e-06 1.27921123e-06 7.60609680e-07 -3.51032639e-07
      -4.56789348e-06 -4.37154267e-06 -1.02116746e-06 5.41811062e-07
      2.41600651e-06 1.88500314e-06 -1.36913798e-06 -3.40318456e-06
      -5.24962752e-06 -6.42966188e-06 -6.59423631e-06 -3.22247092e-06
      5.74622618e-07 3.72566910e-06 5.10084828e-06 2.29782131e-06
      -2.32119169e-06 -2.83183113e-06 6.23289623e-07 2.41528255e-06
      -1.05607262e-06 -4.47078764e-06 -3.93962273e-06 1.28298223e-06
      3.47330956e-06 4.66722895e-06 4.21141795e-06 4.50464586e-06
      4.24054952e-06 2.56667158e-06 1.19432980e-06 1.10351914e-06
      1.91616914e-06 1.59283275e-06 5.28883311e-06 5.57101248e-06
      -4.40263193e-07 -3.89680963e-06 -4.11013525e-06 -1.51141694e-06
      -8.26084516e-08 1.99085480e-06 2.85982287e-06 3.03588695e-06
      2.58606315e-06 2.93468474e-06 2.83920394e-06 8.01172234e-07
      -5.22814480e-06 -5.33383445e-06 -3.14213207e-06 -1.27102714e-06
      -1.94359785e-07 -1.32742218e-06 -3.89656452e-06 -5.26216672e-06
      -4.87174020e-06 -5.30631814e-06 -6.60519754e-06 -4.66138545e-06
      -8.83115320e-07 1.83139935e-06 3.82285907e-06 3.18195725e-06
      -1.44577120e-06 -3.38083919e-06 5.00009662e-07 3.40180327e-06
      3.09986888e-07 -4.95996528e-06 -5.69808617e-06 -1.80640518e-06
      2.54358065e-06 4.09056929e-06 4.39962469e-06 3.69510099e-06
      2.69958650e-06 8.25176016e-07 -6.15786604e-08 -2.24293763e-06
      -1.73569322e-06 -1.55039544e-07 3.47868991e-06 6.23394135e-06
      2.51071697e-06 -2.17309048e-06 -3.28948181e-06 -7.66268329e-07
      7.20106641e-07 1.93848405e-06 1.90553033e-06 1.09272139e-06
      2.60759703e-06 4.17537376e-06 4.88691603e-06 2.42285296e-06
      -4.58913200e-06 -5.26153462e-06 -4.99501311e-06 -3.38756718e-06
      -2.62999561e-06 -3.41756845e-06 -6.00380872e-06 -7.19369382e-06
      -5.82044686e-06 -4.81115922e-06 -4.85899636e-06 -4.90790353e-06
      -2.32717980e-06 -6.22572543e-07 7.86040403e-07 1.71039414e-06
      7.62083971e-07 -1.55976159e-06 1.01625710e-06 3.88031776e-06
      3.05097365e-06 -1.56746501e-06 -5.31190835e-06 -4.69557153e-06
      -3.74960877e-07 3.17018680e-06 3.80428446e-06 3.51303356e-06
      1.70435897e-06 -5.35959117e-08 -1.65727261e-06 -2.61926061e-06
      -3.78519007e-06 -2.47855451e-06 9.88142574e-07 4.58007980e-06
      4.17870297e-06 -4.95639995e-07 -1.89520438e-06 1.82118526e-07
      1.76783135e-06 1.49667983e-06 8.65541892e-07 -8.94349739e-07
      -3.43184837e-07 3.23743893e-06 5.38393397e-06 3.40453175e-06
      -4.11421479e-06 -5.49243259e-06 -4.71513749e-06 -3.80608139e-06
      -3.39581425e-06 -3.47823516e-06 -5.22975870e-06 -6.81358688e-06
      -6.91272680e-06 -5.41639110e-06 -4.24811924e-06 -3.30913144e-06
      -3.11164422e-06 -2.37436984e-06 -2.06656750e-06 -2.12489635e-06
      -8.60297291e-07 -3.05582745e-07 1.48257857e-06 4.66887604e-06
      4.97681822e-06 2.13489011e-06 -2.58969044e-06 -4.00782392e-06
      -2.57125339e-06 1.06088441e-06 3.39880899e-06 2.42500528e-06
      8.41404812e-07 -1.54511133e-06 -2.89081095e-06 -2.65188260e-06
      -2.30470368e-06 -2.20835227e-06 -5.64180880e-07 2.02897218e-06
      3.41824398e-06 9.22728816e-07 -2.50775543e-07 1.90036258e-06
      3.14096064e-06 2.40750410e-06 2.54358213e-07 -1.55332043e-06
      -2.50453559e-06 -9.08341292e-07 3.35791947e-06 3.28660553e-06
      -3.10089376e-06 -4.26453289e-06 -4.60859474e-06 -3.25596966e-06
      -3.22534925e-06 -2.53981148e-06 -3.83852921e-06 -5.59991668e-06
      -5.62588548e-06 -4.77842514e-06 -3.86483816e-06 -2.84889552e-06
      -1.71829515e-06 -1.56689680e-06 -3.01959290e-06 -3.74838237e-06
      -3.04371702e-06 -8.93036486e-07 1.11449867e-06 3.25952169e-06
      5.81645963e-06 5.28354894e-06 9.90595822e-07 -1.35074936e-06
      -2.74245258e-06 -1.27686314e-06 2.93258586e-06 3.20425511e-06
      1.10233293e-06 -2.40900317e-06 -4.63094329e-06 -4.12050304e-06
      -1.13787098e-06 1.90146480e-07 4.54924020e-07 3.84344816e-07
      6.61113802e-07 1.17720653e-07 -5.00139151e-07 5.48187586e-07
      2.40302211e-06 3.38966242e-06 1.46275670e-06 -1.19095944e-06
      -2.53465009e-06 -2.69659540e-06 2.47966767e-07 2.34169306e-06
      -1.35745631e-06 -2.60752563e-06 -3.26549480e-06 -3.10061955e-06
      -2.29556986e-06 -1.62307151e-06 -1.95553571e-06 -3.67344978e-06
      -3.89561683e-06 -2.37048403e-06 -2.32797288e-06 -2.79975598e-06
      -1.13973022e-06 7.34863974e-08 -1.99380997e-06 -3.79778999e-06
      -2.76603919e-06 -1.41857470e-06 -4.11854586e-08 1.14659008e-06
      3.30025205e-06 6.06799404e-06 4.66993743e-06 9.14978727e-07
      -1.76523395e-06 -1.98639168e-06 1.81891244e-06 4.32408342e-06
      3.04134073e-06 -1.56130307e-06 -5.81853419e-06 -6.57037435e-06
      -1.81061364e-06 1.92303423e-06 3.27906218e-06 2.94242727e-06
      -1.47094159e-08 -2.19875506e-06 -1.55597547e-06 2.73597180e-07
      1.65488677e-06 3.14336467e-06 2.09007590e-06 7.97459450e-08
      -1.48494655e-06 -2.76363789e-06 -1.34454933e-06 1.10780297e-06
      -3.03643162e-07 -1.03915056e-06 -1.82669987e-06 -2.14526654e-06
      -1.97401528e-06 -3.99602328e-07 1.21823609e-06 2.81939407e-07
      -1.47448179e-06 -2.87918169e-07 -2.04182228e-07 -1.94269751e-06
      -2.54091083e-06 -6.62948707e-07 -2.81485114e-07 -2.05774336e-06
      -1.32629509e-06 1.00514887e-06 1.06022037e-06 2.76054930e-08
      -1.64514432e-07 3.51359517e-06 6.07961920e-06 3.04432911e-06
      -9.88708507e-07 -3.12506768e-06 2.22199390e-07 5.12297902e-06
      5.20904405e-06 1.46394689e-06 -4.18822765e-06 -7.32845183e-06
      -4.23450138e-06 1.67522603e-06 5.54493681e-06 6.38484153e-06
      2.49887285e-06 -2.91859578e-06 -4.36569962e-06 -1.75174785e-06
      4.43591631e-07 2.03890954e-06 2.18029822e-06 1.03058255e-06
      1.36838324e-07 -9.11822724e-07 -7.38832057e-07 1.17960053e-06
      -8.62350248e-07 -5.40340466e-07 -1.90152184e-06 -2.73160754e-06
      -2.33276796e-06 -4.41233141e-07 2.54694578e-06 3.14868521e-06
      6.69738085e-07 5.75895683e-07 1.76605636e-06 7.48978948e-07
      -1.73102296e-06 -3.06207289e-06 -9.40962536e-07 -9.42431910e-08
      4.82199631e-08 3.98605380e-06 5.23913104e-06 5.77731612e-07
      -2.21644905e-06 -1.01576575e-06 2.90414459e-06 4.68096005e-06
      -4.25780286e-07 -3.53088240e-06 -1.79945437e-06 3.58690249e-06
      6.59762463e-06 3.78763571e-06 -1.53230030e-06 -6.01564489e-06
      -5.87672321e-06 1.17908357e-07 5.57428893e-06 7.88775196e-06
      5.76902312e-06 -3.42583576e-07 -4.61338777e-06 -2.60071602e-06
      -3.31032908e-07 3.59357472e-07 1.44185537e-06 1.67648898e-06
      1.03142156e-06 3.51959557e-07 -8.08602465e-08 1.46237824e-06
      -3.10697510e-06 -9.65045047e-07 -1.20302195e-06 -2.61614809e-06
      -3.53733185e-06 -1.57512909e-06 2.91061656e-06 5.70381690e-06
      4.63479182e-06 2.56610929e-06 2.73936485e-06 2.45057913e-06
      1.29278203e-06 -2.74729700e-06 -2.41269117e-06 8.03722628e-07
      2.19087224e-06 4.23566917e-06 8.71135035e-06 4.10716848e-06
      -1.86664954e-06 -4.09318136e-06 -6.77035700e-07 3.63215622e-06
      2.17424304e-06 -2.02206797e-06 -2.74064064e-06 1.06361745e-06
      4.40883150e-06 4.59090916e-06 3.75795111e-07 -3.49704283e-06
      -5.48853268e-06 -2.85593615e-06 4.07616881e-06 6.47727302e-06
      6.74727607e-06 2.09623431e-06 -2.00924319e-06 -3.20269737e-06
      -7.01895033e-07 -4.63393945e-07 -1.04579624e-06 9.82666322e-08
      9.95631694e-07 1.53113797e-06 1.15412797e-06 1.19710182e-06
      -5.03953197e-06 -2.75305683e-06 -1.72524142e-06 -3.03384877e-06
      -4.87047328e-06 -3.08513540e-06 1.54950942e-06 6.67323320e-06
      7.96029599e-06 4.35197035e-06 1.22129302e-06 1.82221390e-06
      1.22830511e-06 -8.24879862e-07 -2.93010817e-06 4.07895357e-07
      3.80679853e-06 5.00339320e-06 7.57510088e-06 7.17832290e-06
      4.44498113e-07 -2.82799624e-06 -2.47175194e-06 1.92247012e-06
      4.25512826e-06 9.61949809e-07 -1.45664637e-06 5.14119790e-07
      2.46298646e-06 2.15069940e-06 -1.34231800e-06 -3.19035030e-06
      -3.74154115e-06 -4.29879310e-06 9.13605277e-07 5.88891044e-06
      5.38338281e-06 3.98014481e-06 5.06831157e-07 -9.01711644e-07
      -7.32679780e-07 -3.48041482e-07 -1.71955207e-06 -2.09787436e-06
      -7.63808828e-07 9.73333613e-07 2.45778506e-06 1.61630123e-06
      -7.19099262e-06 -4.30766067e-06 -2.27741430e-06 -2.66140341e-06
      -4.82526684e-06 -4.32193065e-06 5.77704498e-07 5.75735021e-06
      7.49314086e-06 5.62085597e-06 -1.63300328e-07 -2.24247651e-06
      -9.44488534e-07 -2.46020846e-07 -2.65772815e-06 -1.59067795e-07
      4.53602615e-06 5.12780525e-06 4.71206886e-06 6.32297724e-06
      2.24378846e-06 -1.00707155e-06 -2.47587241e-06 3.22253925e-07
      6.04076558e-06 5.96371001e-06 2.70553801e-06 1.99067972e-06
      2.99318594e-06 7.66676692e-07 -2.02467754e-06 -4.20496281e-06
      -3.39329199e-06 -4.24941118e-06 -8.84113433e-07 5.30700800e-06
      5.48892694e-06 4.88630531e-06 1.20816912e-06 -8.04830620e-08
      -4.18859941e-07 4.61933070e-07 -3.94300400e-07 -1.89003640e-06
      -1.29447278e-06 2.88099272e-07 2.12954183e-06 1.98532280e-06
      -9.32115108e-06 -5.71171449e-06 -2.42505939e-06 -1.95302891e-06
      -4.19635080e-06 -5.43466922e-06 -1.02759259e-06 3.86242527e-06
      5.23300741e-06 4.72590591e-06 -3.53525024e-07 -5.72032059e-06
      -4.11167230e-06 -2.26609973e-06 -2.59961212e-06 -1.21138294e-06
      3.73946227e-06 6.27759800e-06 3.00904435e-06 1.43405487e-06
      1.84706744e-06 -2.50928545e-09 -1.16957551e-06 -3.28227998e-07
      5.32117701e-06 8.86211183e-06 7.75852823e-06 4.41589964e-06
      2.91756623e-06 9.84270173e-07 -2.49046434e-06 -3.31703291e-06
      -2.89691252e-06 -2.86992326e-06 -1.00909324e-06 5.63355525e-06
      7.20530807e-06 5.94307858e-06 2.16796207e-06 6.66130575e-07
      3.94098066e-07 -6.93419864e-08 1.19279832e-06 1.17534562e-07
      -9.74811883e-07 7.66105401e-09 1.60161903e-06 2.69785301e-06
      -1.00016950e-05 -6.89365424e-06 -2.71397175e-06 -4.74773600e-07
      -2.18975219e-06 -4.22996118e-06 -2.57383840e-06 1.65607912e-06
      3.22139795e-06 2.66748316e-06 -1.62247568e-06 -6.35383185e-06
      -4.45704927e-06 -2.00161776e-06 -1.68583460e-06 -1.93814321e-06
      2.51544252e-09 4.20829929e-06 3.32487616e-06 -1.02280706e-06
      -1.05630374e-06 3.40346077e-07 7.77558782e-08 2.53309508e-07
      2.70242253e-06 7.51977905e-06 1.00607776e-05 7.05726370e-06
      3.40222959e-06 8.44818771e-07 -3.17410127e-06 -4.17644560e-06
      -2.57198462e-06 -1.66428981e-06 -4.76129088e-07 4.94923506e-06
      8.45333307e-06 7.11094890e-06 3.49178754e-06 -8.82860896e-10
      7.27750660e-07 9.67486812e-07 2.15540194e-06 6.76887908e-07
      -9.36496349e-07 -1.08015172e-06 -6.34027344e-07 1.85459271e-06
      -8.09462927e-06 -6.41898896e-06 -1.50173003e-06 1.12520013e-06
      -6.42404032e-08 -3.37366214e-06 -4.04986758e-06 -2.37390032e-06
      7.95452859e-09 -5.87562283e-07 -3.35497316e-06 -5.98062070e-06
      -4.35779657e-06 -3.05163235e-06 -2.62702565e-06 -1.33613753e-06
      -3.31699994e-06 -1.34290542e-06 1.08594077e-06 5.77144078e-07
      -4.10551911e-06 -1.98131966e-06 1.03873356e-06 2.11606311e-06
      2.06873483e-06 4.65874837e-06 7.98741803e-06 6.08254823e-06
      1.02766421e-06 -1.57255306e-06 -3.04423861e-06 -3.39419785e-06
      -2.43094576e-07 2.08063398e-06 7.91690127e-07 2.77161121e-06
      8.30381578e-06 7.76674915e-06 5.31697970e-06 2.01731859e-06
      8.26762800e-07 8.29401586e-07 2.44323951e-06 8.69543896e-07
      -9.60001216e-07 -1.39260919e-06 -1.08643042e-06 -3.40040138e-08
      -4.41465863e-06 -5.63815092e-06 -2.57036004e-06 2.22350104e-06
      1.16253113e-06 -3.02438798e-06 -4.67000609e-06 -4.51056167e-06
      -3.83714587e-06 -4.35447009e-06 -6.33875743e-06 -4.82549967e-06
      -3.08424796e-06 -1.86758427e-06 -3.36846188e-06 1.13776650e-06
      -5.01801424e-07 -3.97405256e-06 -3.03974502e-06 2.44429657e-07
      4.38348451e-07 -2.01886064e-06 1.59101171e-06 4.22863377e-06
      4.40957820e-06 3.48699905e-06 4.77415097e-06 3.39512280e-06
      -8.61702460e-07 -3.32269906e-06 -2.04604112e-06 -8.42731595e-07
      4.36703203e-06 7.25996688e-06 3.89426668e-06 5.34914648e-07
      3.78662594e-06 6.80251287e-06 5.42214229e-06 2.91274932e-06
      2.12005898e-06 7.14682642e-07 2.68760482e-06 1.13695319e-06
      -2.99879162e-07 -5.09013944e-07 -3.10417327e-08 -2.52312162e-07
      -1.06196092e-06 -4.94884216e-06 -3.54780468e-06 8.84638439e-07
      3.33467938e-06 -4.47788494e-07 -4.27272380e-06 -4.69443557e-06
      -6.42806344e-06 -8.59449483e-06 -9.41388862e-06 -5.91520347e-06
      -3.36598328e-06 1.06096104e-06 -7.58582132e-07 2.46465834e-06
      6.14154851e-06 -5.10868404e-07 -6.69879591e-06 -3.73889884e-06
      -6.61133512e-08 1.32690047e-07 -7.47738795e-07 3.76685557e-06
      6.08917890e-06 5.01378418e-06 3.73788589e-06 9.42334907e-07
      -9.61027695e-07 -2.89900231e-06 3.29768653e-07 4.13658881e-06
      9.87710519e-06 1.23306090e-05 7.83850373e-06 4.90496802e-07
      -1.34508809e-07 3.30026273e-06 4.05362334e-06 2.86062914e-06
      2.54703355e-06 1.51764641e-06 2.20304855e-06 1.56854196e-06
      2.05564547e-07 -5.52488814e-07 -3.66410177e-07 -3.71766333e-07
      -2.82004976e-06 -4.61880200e-06 -6.28793441e-06 -2.86922022e-06
      1.56409521e-06 1.64097685e-06 -2.06555160e-06 -4.00345607e-06
      -5.49853075e-06 -9.03172986e-06 -1.31432635e-05 -1.04029295e-05
      -5.98396173e-06 8.83410337e-07 3.64630250e-06 3.62021933e-06
      1.19597116e-05 9.47541139e-06 -2.70443388e-06 -7.53906806e-06
      -3.22857682e-06 -6.35407957e-07 -1.05149309e-06 6.06887852e-07
      3.52213169e-06 5.59679347e-06 4.73876707e-06 -1.10726978e-06
      -1.96468523e-06 -1.14745990e-06 1.92929838e-06 7.90322520e-06
      1.28792117e-05 1.65110832e-05 1.34953962e-05 3.56906935e-06
      -2.23303573e-06 -8.07659220e-08 2.18052787e-06 1.44522312e-06
      2.90510258e-07 8.44043086e-07 1.18500213e-06 2.32267234e-06
      2.29850525e-06 1.08088204e-06 5.29207512e-07 3.32168241e-07
      -3.84966643e-06 -6.00183830e-06 -7.96456698e-06 -7.49964511e-06
      -2.91898095e-06 1.33758954e-06 1.19962431e-06 -1.77032871e-06
      -3.93665914e-06 -6.81121446e-06 -1.22478577e-05 -1.39365638e-05
      -8.68900588e-06 -1.21123230e-06 5.49155902e-06 6.95338940e-06
      1.29990412e-05 1.81327505e-05 7.52124879e-06 -4.75961224e-06
      -5.82635539e-06 -1.87179683e-06 -6.85755822e-07 -1.59147146e-06
      1.40273369e-06 3.58321290e-06 4.20705373e-06 -1.48301763e-06
      -4.73544560e-06 -3.23294284e-06 1.53783833e-06 7.15354736e-06
      1.27625244e-05 1.82289587e-05 1.63697841e-05 8.29492365e-06
      -1.52227767e-06 -3.50751907e-06 -1.07425073e-07 -2.25573871e-07
      -8.89658111e-07 -7.19824527e-07 2.61899913e-07 2.13910471e-06
      3.21776588e-06 2.79756000e-06 1.86346449e-06 7.56832549e-07
      -4.26190809e-06 -5.96263772e-06 -8.36954496e-06 -9.73270471e-06
      -7.86779856e-06 -2.31457693e-06 1.89062735e-06 9.57657448e-07
      -2.11466886e-06 -4.62254275e-06 -9.84922553e-06 -1.29256850e-05
      -1.01177147e-05 -4.50036987e-06 3.36133530e-06 7.62064519e-06
      9.57578777e-06 1.74048710e-05 1.47724704e-05 2.84469434e-06
      -3.66444806e-06 -1.86280499e-06 -6.10723646e-07 -2.08917004e-06
      -2.09455902e-06 -1.82937114e-07 1.29185435e-06 -1.36096025e-06
      -5.54037024e-06 -6.08623077e-06 -6.22295431e-07 4.84931797e-06
      9.90954413e-06 1.46991724e-05 1.51340173e-05 9.99466101e-06
      7.47999763e-07 -3.72549789e-06 -2.59918784e-06 1.21168839e-07
      4.95004429e-07 7.41669552e-08 -9.60523536e-08 4.44641898e-07
      1.65913298e-06 2.13800172e-06 2.48539482e-06 2.81003145e-06
      -4.82775113e-06 -4.51190908e-06 -7.36570018e-06 -9.58288001e-06
      -8.96908841e-06 -4.55956206e-06 1.82149859e-06 3.24047505e-06
      -7.28828198e-08 -2.92591380e-06 -7.02666648e-06 -1.01864207e-05
      -8.67450944e-06 -5.38037648e-06 -2.37864725e-07 4.33308423e-06
      6.70396776e-06 1.09819457e-05 1.51182339e-05 9.29938506e-06
      1.36481094e-06 5.95982101e-07 -7.71842679e-09 -3.91933980e-07
      -3.42996896e-06 -4.43208683e-06 -2.37401400e-06 -2.07646326e-06
      -4.92993831e-06 -8.61083390e-06 -4.63525248e-06 1.76653828e-06
      5.85589123e-06 8.79187428e-06 1.13410088e-05 8.58960266e-06
      1.57428099e-06 -4.11735937e-06 -4.31823673e-06 -1.58372347e-06
      -1.63450579e-07 -1.07854248e-07 -1.63601868e-07 4.69550912e-07
      1.79255821e-07 1.72768424e-07 1.47381297e-06 4.03348986e-06
      -6.58283216e-06 -5.27691282e-06 -5.86695887e-06 -8.19953038e-06
      -8.59516604e-06 -5.22671007e-06 3.78782801e-07 3.44406362e-06
      1.66116854e-06 -1.64377195e-06 -4.92566278e-06 -7.01192948e-06
      -7.43563623e-06 -4.71027352e-06 -2.55918530e-06 -4.74444164e-07
      7.40663836e-07 3.79587573e-06 8.71909288e-06 9.73549777e-06
      5.15027932e-06 4.03787317e-06 2.35266384e-06 1.21965263e-06
      -1.70881174e-06 -5.76453886e-06 -6.32916408e-06 -3.71203828e-06
      -3.86511238e-06 -6.99516613e-06 -6.68745133e-06 -2.17085017e-06
      2.04193975e-06 3.79010135e-06 5.66851168e-06 5.34291212e-06
      8.44481065e-07 -4.25438520e-06 -3.85804560e-06 -7.70532154e-07
      2.12124860e-06 2.04680009e-06 2.18018477e-06 3.17069043e-06
      1.86962814e-06 -5.38039046e-07 -1.75661398e-06 3.36247763e-06
      -4.20046035e-06 -4.09755012e-06 -3.79313497e-06 -5.89573619e-06
      -7.04889999e-06 -5.18770048e-06 -7.08524965e-07 2.04783100e-06
      1.22174606e-06 -1.59484239e-06 -4.50954894e-06 -4.89721833e-06
      -5.71305827e-06 -5.83664587e-06 -3.31340198e-06 -2.29191119e-06
      -1.06639800e-06 1.00460659e-06 3.13109331e-06 8.24453582e-06
      8.05589116e-06 6.94184337e-06 5.07676623e-06 2.08436245e-06
      -4.35478370e-07 -5.24454390e-06 -6.73714840e-06 -4.75597972e-06
      -2.67490600e-06 -3.35440382e-06 -4.27475516e-06 -3.13125133e-06
      -1.28108832e-06 1.31717422e-06 8.42796510e-07 6.09611504e-07
      -6.82289908e-07 -3.58051329e-06 -3.94355538e-06 -1.57950353e-06
      1.75585160e-06 3.59892624e-06 4.78257516e-06 5.93381583e-06
      5.42548969e-06 2.03881928e-06 -2.74433546e-06 -3.80408551e-07
      -3.27664520e-06 -2.28558861e-06 -1.96050246e-06 -2.95054724e-06
      -5.09761230e-06 -5.26455324e-06 -1.89768775e-06 1.16660476e-06
      9.09738773e-08 -2.61330229e-06 -3.99911869e-06 -3.76884077e-06
      -2.96034386e-06 -3.88390345e-06 -3.94706194e-06 -3.14930685e-06
      -2.51233200e-06 -2.95263959e-07 2.31337140e-06 6.77364005e-06
      9.27941619e-06 8.38377491e-06 7.81470771e-06 5.34021183e-06
      1.11036115e-06 -3.18496336e-06 -6.85612667e-06 -5.88308012e-06
      -2.63478182e-06 5.94311764e-08 -3.93822717e-08 -1.30409262e-06
      -1.99719238e-06 5.59858336e-07 9.42278177e-07 -1.61258481e-06
      -1.58840191e-06 -2.78463813e-06 -2.92534332e-06 -1.22698100e-06
      1.00935699e-06 2.82608198e-06 4.82119185e-06 8.43301495e-06
      9.07158756e-06 6.81737265e-06 1.67846054e-06 -2.47840580e-06
      -3.05111917e-06 2.87335524e-07 1.42122786e-07 4.96494238e-07
      -2.46253899e-06 -4.65825087e-06 -2.99125782e-06 -3.02642214e-08
      -1.75666946e-06 -4.61391937e-06 -4.84076008e-06 -3.57874251e-06
      -2.59695753e-06 -2.79223082e-06 -3.36270978e-06 -4.60373985e-06
      -4.65899075e-06 -4.43944919e-06 -4.52765164e-07 5.19732885e-06
      9.08628317e-06 8.84962719e-06 8.01562146e-06 7.00500004e-06
      4.02819251e-06 -1.63107768e-06 -5.25568521e-06 -5.38409176e-06
      -2.45865772e-06 5.02686390e-08 2.60773800e-06 3.89739171e-07
      -2.59455305e-06 -1.45941237e-06 4.75791865e-07 -1.27683768e-06
